0.1165991947054863, 0.0411200560629368, -0.0440719313919544, -0.0757781267166138, 0.1054159998893738, -0.0162305478006601, -0.1182907596230507, 0.0599149018526077, 0.0993093997240067, 0.0287717897444963, 0.1620650738477707, 0.1261180341243744, 0.0490738227963448, 0.0243377909064293, 0.1205961033701897, 0.1247301921248436, -0.0195073839277029, -0.0724695399403572, 0.1251018345355988, 0.1282928884029388, 0.0829899832606316, 0.0853719115257263, 0.1505141854286194, 0.1605214178562164, -0.0276658255606890, 0.0816576704382896, 0.0283579416573048, 0.1603871136903763, -0.0101080425083637, 0.0518616065382957, 0.1695345491170883, -0.0245576500892639, 0.0145257692784071, 0.2651318609714508, 0.0981043204665184, 0.0128505984321237, 0.0601216554641724, 0.2071959525346756, -0.0317311286926270, -0.0182943828403950, 0.1981643438339233, 0.0782714486122131, 0.0969817265868187, -0.0081470673903823, -0.0353977195918560, -0.0839846879243851, 0.0750643983483315, -0.0309149362146854, -0.1290924698114395, 0.1097163781523705, 0.1282408386468887, -0.0477196946740150, -0.0474022999405861, 0.0868510678410530, -0.0230553131550550, 0.1203485578298569, 0.0514238141477108, -0.0966998785734177, -0.1269561350345612, 0.3277525007724762, 0.0671029388904572, 0.2459792345762253, -0.0771022662520409, 0.0111336736008525