0.11659919470549, 0.04112005606294, -0.04407193139195, -0.07577812671661, 0.10541599988937, -0.01623054780066, -0.11829075962305, 0.05991490185261, 0.09930939972401, 0.02877178974450, 0.16206507384777, 0.12611803412437, 0.04907382279634, 0.02433779090643, 0.12059610337019, 0.12473019212484, -0.01950738392770, -0.07246953994036, 0.12510183453560, 0.12829288840294, 0.08298998326063, 0.08537191152573, 0.15051418542862, 0.16052141785622, -0.02766582556069, 0.08165767043829, 0.02835794165730, 0.16038711369038, -0.01010804250836, 0.05186160653830, 0.16953454911709, -0.02455765008926, 0.01452576927841, 0.26513186097145, 0.09810432046652, 0.01285059843212, 0.06012165546417, 0.20719595253468, -0.03173112869263, -0.01829438284039, 0.19816434383392, 0.07827144861221, 0.09698172658682, -0.00814706739038, -0.03539771959186, -0.08398468792439, 0.07506439834833, -0.03091493621469, -0.12909246981144, 0.10971637815237, 0.12824083864689, -0.04771969467402, -0.04740229994059, 0.08685106784105, -0.02305531315506, 0.12034855782986, 0.05142381414771, -0.09669987857342, -0.12695613503456, 0.32775250077248, 0.06710293889046, 0.24597923457623, -0.07710226625204, 0.01113367360085