0.1284045577049255, 0.0129209700971842, -0.0643735602498055, 0.1653873622417450, 0.0412099212408066, -0.0289043989032507, -0.1192060187458992, -0.1832711845636368, 0.2721533179283142, -0.1014760211110115, 0.1043428331613541, 0.0129439653828740, -0.1190820112824440, 0.0043397308327258, -0.2015188932418823, -0.1430434286594391, -0.0772143080830574, 0.1530498117208481, 0.2621582150459290, 0.1134956777095795, -0.1084079742431641, 0.1880051940679550, 0.0183449052274227, -0.1438513696193695, 0.2096298187971115, -0.1238561421632767, -0.0096924118697643, 0.0336562916636467, 0.0357091352343559, 0.1790761798620224, 0.0878072530031204, 0.1981795430183411, 0.2538167536258698, 0.0531532689929008, -0.1333374381065369, -0.1967371404170990, -0.0341894961893559, -0.1475434601306915, 0.1375640332698822, -0.1991609781980515, -0.1615519821643829, 0.0077604679390788, -0.0274142939597368, 0.0235506352037191, -0.0421540439128876, 0.0905503258109093, -0.0426549576222897, 0.2913052737712860, 0.2436795085668564, -0.0305546503514051, 0.0631602108478546, 0.0746209397912025, 0.1319710910320282, -0.0044257738627493, 0.1773227900266647, -0.0995791107416153, 0.3085971772670746, -0.0313044004142284, 0.0190164931118488, 0.1448298990726471, -0.1080875322222710, 0.2563918828964233, 0.1300559192895889, -0.1054682955145836