0.0395299792, 0.0899794251, 0.0514152199, -0.1139932275, 0.0487199128, -0.1012149155, -0.0075959414, 0.1221947968, -0.0250869542, -0.0963620096, -0.1070672944, -0.1122238114, -0.0060993582, 0.0829472244, 0.0323245376, 0.1399911046, 0.0858148187, -0.1099610329, 0.0666930377, 0.0218713433, -0.0610756353, -0.0391053483, -0.1014085710, 0.0804723948, 0.0326430500, -0.1474160552, 0.0647848696, 0.0230643004, 0.0981845558, -0.0009852052, 0.0473224372, -0.1283278763, -0.0961389095, -0.0663224086, -0.0802659094, -0.1296306849, -0.0700069815, 0.1479965746, -0.0850802362, 0.1072572172, 0.0996362567, 0.0394100100, -0.1057971865, 0.1330372393, 0.0644601732, 0.0205788910, -0.0741019771, -0.0971926749, -0.0272533521, -0.1228056997, 0.0418326706, -0.1510316581, 0.0004394352, -0.0137420446, -0.0238214880, 0.0475675911, 0.0662150532, -0.1513556689, 0.0526397526, 0.1339693964, -0.0086098313, 0.0125087053, 0.0731836557, 0.0938401669
-0.1134908423, 0.0994768739, 0.0935808718, 0.1460307240, -0.0756317303, 0.1168617904, 0.1387815475, 0.0838413537, 0.0239759833, 0.1035417616, -0.1309912354, -0.1213145182, 0.0610832423, 0.0030205697, -0.1493541002, 0.1473058462, 0.0329890847, 0.0777436942, 0.0850631446, 0.1222677529, 0.0027171075, -0.0753405020, -0.1014699638, 0.0227389485, -0.0072578341, -0.0944084674, -0.1390607357, 0.1311366856, -0.0541769788, 0.1218385398, -0.1484445184, 0.0924326032, -0.0215163976, -0.1045118347, -0.0589692444, 0.1245816648, -0.0483893156, -0.0574260205, 0.1017327011, 0.1381947696, -0.0728818849, -0.0413988382, -0.0994719714, -0.0729200616, 0.0033917427, -0.0730772838, 0.1393072605, 0.1049403548, 0.1014410853, -0.0978339612, 0.0942680091, -0.0388787314, -0.1470699459, 0.0462250859, -0.0016436577, -0.0224643350, -0.0784696937, 0.1305680573, 0.0686503500, 0.0105883777, -0.1173768938, 0.1173420846, 0.1095665097, 0.0287856162
-0.1214641184, 0.1533628106, -0.1139383167, 0.1300767362, -0.0558683872, 0.1417710483, -0.1437652707, -0.0245164093, -0.0766480565, 0.0304107554, -0.0368114561, -0.0657538176, -0.0170607828, 0.0609972104, 0.1275621802, 0.1565343291, -0.0431537926, 0.1105027422, -0.0012542846, 0.0122751081, 0.0120179718, 0.0817679018, -0.0317776166, 0.1081900969, 0.0646045357, -0.1038527787, 0.1178167239, 0.0445022099, -0.0307612512, -0.1063050628, -0.0955652297, -0.0060811043, 0.1140036136, -0.0097991349, -0.0607053936, 0.1263492107, 0.1373409629, 0.0062819552, -0.0497572571, 0.0501935594, 0.1510654688, -0.0147619247, 0.0738576651, -0.0015433169, 0.0222061854, 0.0202267524, -0.0458626635, -0.1477359384, 0.0579866432, 0.1038306504, 0.1519110054, -0.1215149015, 0.0208065864, 0.1774008721, 0.0221871939, -0.0927315205, -0.1269133836, 0.0249136705, -0.1357644945, 0.1504892856, -0.0314193629, 0.1424054056, 0.0122709218, 0.0064103850
0.0336668044, 0.1482999772, 0.0048837764, -0.0054805516, 0.4018181562, 0.1953938901, -0.2785874009, 0.0643300489, 0.3515534997, 0.2057423294, 0.3023431003, 0.1096373871, -0.2206091732, 0.2015975565, 0.3781456649, 0.2431824654, -0.2179806232, 0.1568587571, -0.1942825615, 0.1750259250, -0.0337989777, -0.1271605492, 0.0168889668, 0.0446765088, -0.2619235218, 0.2618723214, -0.1541518718, -0.3328129947, 0.2437036335, -0.3662368059, 0.0042045335, 0.4044447839, -0.1023991853, 0.2801195979, -0.2854784131, -0.0756034479, 0.2072826475, -0.1100988612, -0.1917857975, -0.1263083518, 0.1444926560, -0.2506221533, 0.4036174715, -0.1333101839, -0.2751761675, -0.2388873696, 0.0714735612, 0.0511109829, 0.2384657860, 0.2841880322, -0.0354982875, -0.2516531646, -0.4131387770, 0.1567433774, -0.1993298233, -0.3126406074, -0.2558453679, -0.2389257252, 0.0255707428, 0.2696006596, -0.1927711070, 0.1559435576, -0.2842231095, -0.1732783616
0.0803349242, 0.3912829161, -0.2823889256, 0.1347610205, 0.3528315425, 0.3291862607, -0.2271110713, 0.1636103541, -0.1401997060, 0.2587514818, 0.2443128675, 0.1882243156, -0.0436165631, 0.2974818051, 0.4848585427, 0.1418854296, -0.1067471653, 0.2966998518, -0.5464112163, 0.4485045969, 0.1125431210, -0.2886353433, -0.1666959971, 0.0076911817, -0.2746891379, 0.2889114618, 0.0385345854, -0.4605766535, 0.4070920050, -0.3549636602, -0.1442462802, 0.3893573880, 0.2652724087, 0.1046191528, -0.2305364460, -0.0496838428, 0.0223973244, -0.3241908550, -0.0767638236, -0.2960551083, 0.0994100645, -0.2476727664, 0.2723664641, -0.0292244032, -0.1559627801, -0.2292089760, -0.0604802854, 0.0707532465, 0.1059297845, 0.1849647611, -0.1956728995, -0.2137447596, -0.2946901619, 0.1384185702, -0.1459370703, -0.2111544311, -0.2473380566, -0.2471130937, -0.1307184845, 0.0240247995, -0.2368070781, -0.1309077591, 0.0481830984, -0.2062475681
0.0068732589, 0.3209537566, -0.0577496067, -0.0458420180, 0.3856320083, 0.4102768600, -0.2954129577, 0.5584961772, 0.2595789433, 0.5027685165, 0.1872249544, 0.3762901425, -0.1513460726, 0.2600862086, 0.5550969243, 0.3445246220, -0.3501058817, 0.3558495343, -0.1310278922, 0.4262419343, 0.0214236360, -0.3559847474, -0.3037054539, -0.1422617882, -0.2939527333, 0.2398627102, -0.3397408426, -0.5264234543, 0.4658653140, -0.6614249349, 0.2088259161, 0.3970713913, 0.1814952195, 0.3825982809, -0.0730678737, 0.1414551586, -0.0812354386, -0.6199946404, -0.1235065162, -0.3458968401, 0.0185035225, -0.3322322965, 0.4547239542, 0.0675734952, -0.0986184552, -0.4180909395, -0.2116232663, -0.1328551173, 0.3723606765, 0.3677347600, 0.0962258577, -0.0389696807, -0.3855651915, 0.3169876933, -0.2582772374, -0.5186285973, -0.4350257516, -0.2729855180, -0.1584409773, 0.3870727420, -0.2272561342, 0.0776902512, -0.0899388567, -0.1744042039
-0.1778089255, 0.4338017702, 0.0101799024, -0.0522425771, 0.3753335476, 0.1427148432, -0.2085992247, 0.1881261915, -0.2676174939, 0.5115806460, 0.4568687975, 0.1604490280, -0.3680027127, 0.4744707346, 0.5671940446, 0.0550890006, -0.0922655240, 0.0062887929, -0.0101016881, 0.3372432292, -0.2790731192, -0.3142154515, -0.1672911048, -0.1207430512, -0.0956591144, 0.0156369191, -0.4602945447, -0.6017640233, 0.4119327664, -0.5317354202, -0.0115908077, 0.6916173697, 0.2929180861, 0.4599514902, -0.2662703991, -0.2040333748, 0.0684714317, -0.3693139553, 0.0669893473, -0.4906981587, 0.0258351620, -0.4360129833, 0.1292060614, -0.0828483403, -0.2881254852, -0.4176945090, -0.3461318612, -0.0404727757, 0.4572929144, 0.1186928004, 0.1691052318, -0.0627950504, -0.5161474943, 0.7172610164, -0.2117834687, -0.1128106788, -0.1904505342, -0.2307216227, -0.2235334218, 0.3529929221, -0.4155605137, -0.1004315391, 0.0039056230, -0.2737269402
0.2038186342, 0.3824622035, 0.0683205947, -0.2340343297, -0.1983608007, -0.4505006671, -0.4688412547, 0.3341775239, 0.0666409656, -0.3459083140, 0.4350210428, 0.0336719267, 0.0328027159, 0.0062534097, -0.0821965709, -0.4826771617, -0.1120660827, -0.1650643647, 0.0780303627, 0.1263708472, -0.1468074918, -0.1559673846, 0.5368163586, 0.1797854900, -0.1415781826, 0.2587671876, -0.5248600841, -0.1673060060, -0.3955483139, 0.1833758503, 0.0025679739, 0.7851414084, -0.1709727198, 0.0642962828, 0.2092532963, -0.2636986971, -0.0301428102, 0.3141781092, -0.0102100940, 0.1375501752, -0.1549310982, -0.4735232890, -0.1671554893, -0.0202144198, -0.0661669374, -0.4230365157, 0.1995970309, 0.1161151975, 0.1217704937, 0.1269121319, 0.2726242244, 0.5813101530, -0.1014330909, 0.3495412767, -0.2175524980, 0.1213551685, 0.0047982843, -0.4760946035, 0.1178172007, -0.0816134810, -0.2075191587, -0.0413132198, -0.2881043851, -0.1022921354
0.4648775160, 0.0548000038, 0.1628946662, 0.5253497362, 0.3724033833, -0.2360560447, -0.2854725420, 0.4814628959, 0.5149329305, 0.6703073382, 0.3643198609, -0.0498947278, -0.4162295163, -0.2831292748, 0.4526823163, -0.0360485986, 0.3525280952, -0.3718780875, -0.3436037004, 0.6114853024, -0.0701390430, -0.4192247689, -0.0695405379, -0.4888889492, 0.1260005832, -0.3034644723, -0.1506750733, -0.2262620628, 0.1362857223, -0.5494232774, 0.2757158875, 1.0415025949, 0.0205370001, 0.3948432207, -0.2612739503, 0.6192953587, 0.1648520976, -0.5887401104, 0.1164087802, -0.2119143158, 0.0682620853, -0.4246587157, 0.0673503503, 0.0217036791, -0.0213047769, 0.2261943519, 0.4172312617, -0.0605714768, 0.1937740594, 0.2717275321, 0.0668588206, -0.0578962713, -0.3673964441, -0.1586147845, -0.5327799320, -0.1160085574, -0.5160147548, -0.0479781330, 0.0337625705, 0.3214836717, -0.2829761803, 0.3887090683, 0.0974583626, -0.6260533333
-0.5036196113, 0.3351507783, -0.6136764884, 0.0318010449, 0.6041283607, 0.6488977671, -0.3033846021, 0.5815736651, -0.0887389258, 0.6854675412, 0.5107964277, 0.3646324575, 0.3595975637, 0.5277107358, 0.3411295414, 0.3511261344, -0.2628623545, 0.4813432097, -0.3217907250, 0.6944992542, 0.0598072223, -0.3534810543, -0.4086796939, -0.6760157347, -0.6009568572, 0.4327802658, -0.5788641572, -0.5100864172, 0.6201403141, -0.4810758531, -0.0648353919, 0.8153402805, 0.4372613728, 0.4799744189, -0.4419302046, 0.1828881651, 0.0834365338, -0.2654657960, -0.0117759751, -0.4555036128, 0.2362419069, -0.0360552669, 0.6704002619, -0.0777538046, -0.3647094667, -0.1936789006, -0.3016799986, 0.0429103374, 0.6425747275, 0.4401187301, -0.1165738255, -0.1625429392, -0.5335990787, 0.5425606370, -0.2092772722, -0.6917471886, -0.3828583658, -0.6830426455, 0.0702776760, 0.6498264074, -0.1514657736, -0.2724310756, -0.0038063030, -0.6255505681
-0.2962287068, 0.3680389225, -0.3197798431, 0.0790293887, 0.4500905871, 0.6766805649, -0.3895748258, 0.4398426116, 0.0712958872, 0.4476016164, 0.4018404484, 0.3716572523, 0.2302755713, 0.6143972278, 0.5002418160, 0.3930573165, -0.1556434184, 0.5224367380, -0.3292445540, 0.4692954123, -0.1330976188, -0.2464684844, -0.2556154132, -0.6178964376, -0.4872247875, 0.3778489530, -0.3198194206, -0.4022004604, 0.4134350419, -0.1803915948, -0.0616303943, 0.4815816879, 0.4604198337, 0.2740948796, -0.4609519839, 0.1044712812, 0.3275224268, -0.4442276657, 0.0392268337, -0.3635562062, 0.2573587298, 0.0086646322, 0.4923369288, 0.0248571075, -0.4205827415, -0.2138221264, -0.1865140498, 0.0207282901, 0.6052715778, 0.2580403388, 0.1199792251, -0.1443517059, -0.5069564581, 0.6681010723, -0.0831300989, -0.4095726609, -0.4527955353, -0.7069940567, -0.0089011053, 0.4543888271, -0.1461454779, -0.1840613037, -0.1134698614, -0.4471778274
-0.1411344707, 0.3399274349, -0.3071940243, 0.3071127236, 0.3654208481, 0.4794647098, -0.2934582531, 0.3320396543, 0.2825886905, 0.3758807778, 0.3651845157, 0.3075502217, -0.2068995684, 0.2770897150, 0.2527832389, 0.2650848925, -0.1251305193, 0.4050753415, -0.3010872602, 0.2627168298, -0.1442411542, -0.3922024667, -0.1807917207, -0.2105465531, -0.4917164147, 0.2928616107, -0.3584116995, -0.4826341569, 0.2996990681, -0.3912328184, -0.3739694059, 0.3957183957, 0.0245885625, 0.2141236961, -0.2751636505, 0.1276367009, 0.1780951172, -0.2240386754, -0.0831941888, -0.1761723161, -0.0652514845, 0.0846951604, 0.3919801712, 0.1099879891, -0.5299529433, -0.1159865707, -0.1190567687, -0.0156404078, 0.3241639733, 0.0316993408, 0.0947513506, -0.4133402705, -0.0701744780, 0.5664587617, -0.1241002455, -0.4639684558, -0.2706496418, -0.2752400041, -0.0433361083, 0.3639966249, -0.3826915026, -0.1323283017, -0.0785882846, -0.2027352899
-0.0145788044, -0.1292879283, 0.0282784402, -0.1087034196, 0.0931013823, 0.0726171285, 0.0052322596, -0.0683029443, -0.1064113081, 0.0278272033, -0.0249109268, 0.0046112835, -0.1482552290, 0.1060463190, -0.1430633664, -0.0262499601, 0.1363891959, -0.1353143007, -0.0058313012, 0.0371231586, 0.0116314590, 0.1150991917, 0.0752395988, -0.0373423845, -0.1298442781, -0.1101659536, -0.1480327100, -0.1128433645, 0.1518999338, -0.0152789056, 0.0262998343, -0.0149300545, 0.1299251616, 0.0529969782, -0.0610262007, 0.0080147237, -0.0103408545, 0.0791986287, -0.1227195710, 0.1191269755, -0.0175295174, 0.1109916270, 0.0265729576, -0.0786937028, 0.0009392947, -0.0734439567, 0.0969990939, 0.0465943664, -0.0898136199, 0.1375826597, 0.0060278624, 0.1503310502, 0.0542228222, 0.1117374003, 0.1049073040, 0.1240536273, -0.1503496319, -0.0496545658, 0.0458631217, -0.0860918909, -0.1473726332, 0.1122639477, -0.0903059691, -0.0975827128
-0.0333725959, 0.0966327041, -0.1505253613, 0.0316986591, -0.1431487352, 0.0186667293, -0.1255652159, 0.0739589781, -0.0163342059, 0.1160987020, -0.0665594935, -0.1427205652, 0.0625468194, -0.1394151598, -0.0971759409, -0.0027268082, 0.1222273707, -0.0862717107, -0.0087614805, 0.0256687999, 0.0438737571, 0.0252963006, 0.1389067173, 0.0455174148, -0.1358602196, -0.1247601882, 0.0833059400, 0.0858117789, 0.1302990317, 0.1000862718, -0.1184370369, 0.0906689465, -0.0673477873, 0.0622271597, 0.0998130739, 0.0506678075, 0.0645693392, 0.0055908561, -0.0601893365, -0.1024118513, 0.1219306886, 0.0325445384, -0.1066422313, -0.0817869380, -0.1036313623, -0.0306864604, 0.0065560341, 0.0674610883, 0.1474553645, 0.0572565198, 0.1382035911, 0.0345554203, -0.1106356382, -0.0275461823, -0.0799842030, 0.0500436276, 0.0727753341, -0.0539464429, -0.0858789608, -0.0969838798, -0.0771726742, 0.1146435142, 0.0828784555, 0.0761046410
-0.0290409848, -0.1169274896, 0.0487943143, 0.0992172956, -0.1425025612, 0.0314238220, -0.0355034694, 0.0154873431, 0.1127630472, 0.0117475092, 0.1169821918, 0.1506787837, 0.1337299645, 0.1147323847, 0.0070654452, -0.1280936599, 0.0969815254, -0.0151085705, 0.0257133543, -0.1311128139, -0.0154637694, 0.1084198058, 0.0503725559, -0.1219229102, 0.0351997465, 0.0845836401, 0.0817425996, -0.1238110885, 0.0198308975, -0.0357117951, 0.0814511925, 0.0110146552, 0.0556439608, 0.1213680506, 0.0714538693, 0.0542777777, 0.0762549043, -0.0924587175, -0.1117830351, -0.0170788467, -0.0403315574, -0.0541105121, 0.0476473868, 0.0480080843, 0.0575847626, -0.0538731366, 0.0263503194, 0.0233785957, -0.0402082354, 0.0789126456, -0.0710099414, 0.0953210890, -0.1516943127, -0.0614048615, 0.0286882520, -0.0751992464, 0.0746384114, -0.0426628590, -0.0793983340, 0.0895150304, -0.1035956889, 0.1376822889, -0.1403557509, -0.1462579370
-0.0749737099, 0.2479149401, 0.2552717626, 0.0639673397, -0.0392976031, -0.4706365466, -0.0942119434, 0.3339105248, -0.0584473461, 0.4646290839, 0.1694079340, -0.3349541426, 0.3048432469, 0.2991473377, 0.2009125650, -0.3294831216, 0.0368653275, -0.3490820229, -0.2963294685, 0.4375288785, 0.0677273571, -0.0807506964, 0.2316696793, -0.3270817399, -0.0151797924, -0.1371832192, -0.3482367396, -0.5411562324, -0.3625582755, -0.4675052464, 0.3182151914, 0.1979032159, 0.4040993750, 0.3705698848, -0.0639961511, 0.1496112049, 0.2281972468, -0.4045608342, 0.1656515300, 0.2738497555, -0.0157363899, 0.0331807211, -0.3283163309, -0.2935736179, -0.3049963117, 0.0064327093, 0.0189812053, -0.1198147535, 0.3933777213, 0.4716995955, 0.1335952282, 0.2359066159, 0.1349490285, 0.0623841323, -0.1282550395, -0.3562748730, -0.3691751957, -0.1149856001, -0.1168817133, -0.0131687187, -0.3389264345, 0.3243593276, 0.1411600858, 0.0854555219
-0.3821052909, -0.1343348026, 0.0518278480, 0.0163806751, 0.0813259557, -0.0313517526, -0.0609575771, -0.1657642573, -0.0851288140, 0.2706331015, 0.3374182880, 0.0605146661, 0.3628693521, 0.2870778441, 0.1749611348, 0.1007969901, -0.1002174318, 0.3121615946, -0.3770358264, 0.1842297912, -0.4073613584, -0.2372980416, -0.0380321741, -0.1620251834, -0.2818038464, -0.0917644799, -0.1643463671, -0.5300730467, 0.6446557045, -0.1585706472, 0.1213621274, -0.5116953254, 0.4624458551, 0.2464044988, 0.2152586281, 0.4724514484, 0.3762933016, 0.1578448862, 0.1792916954, 0.1353013515, 0.7049122453, 0.0668743178, 0.2814567089, 0.3439007699, -0.3143225610, -0.0575396605, 0.0096211657, -0.0100174397, -0.0733743310, 0.1082503870, -0.4227962494, -0.3991310894, -0.0010554488, -0.2382103205, 0.0545070209, -0.3541812599, -0.1968827695, 0.2321995199, 0.2182544917, 0.2197137475, -0.5093223453, -0.1004060358, 0.2963980734, -0.1441259384
-0.0785314813, 0.0412598029, -0.4249351025, 0.4462233484, 0.4928116500, 0.2407188267, -0.6111243963, 0.1151030138, -0.1268037111, 0.2956844568, 0.2073149979, 0.7321929336, -0.4376155138, -0.2767354548, 0.0726182610, 0.3887941837, 0.2231923938, 0.4174502194, 0.0333208889, 0.3996288776, -0.5370962620, -0.6183335781, -0.2350019962, -0.0369998068, -0.2832194865, 0.1228601858, 0.0694216639, -0.4420582950, 0.6863422990, -0.9202340841, -0.3588611782, 0.0647063479, -0.3095382154, 0.0399245732, 0.0039141811, 0.4893006980, 0.2715736628, 0.1393434405, 0.1052523181, 0.1070638672, -0.0458205789, 0.4749885201, 0.3958090246, 0.3016617596, -0.1558457464, 0.1218295619, 0.3092811704, 0.0830871612, -0.2434166372, 0.2920766175, -0.1976190507, 0.0652525872, -0.0167591833, -0.0232930370, -0.1846961677, -0.3978146315, -0.7336544394, 0.0893627480, 0.2006673813, -0.2254864722, -0.4167336524, -0.3609429896, 0.1212582141, -0.3217764795
0.0148920724, -0.0296652131, -0.2514095604, 0.4262321293, 0.5556678772, -0.0362180360, -0.8687914610, 0.2595389485, 0.0604788326, 0.4328865409, -0.0122675570, 0.6981143951, -0.3232154548, -0.3289611042, 0.2671341300, 0.1846466660, 0.4895432889, 0.3945801556, -0.1618206352, 0.3133002818, -0.0475724041, -0.8527217507, -0.0568931736, 0.5319110155, -0.0879366398, -0.0420249701, -0.1558840126, -0.8253241181, 0.3929568827, -0.5699327588, -0.3823226392, -0.5055986047, -0.0841268450, 0.2237542272, -0.3870199323, 0.0950976834, 0.1999671757, -0.1175183952, -0.1997223794, 0.4269766212, -0.0147091160, 0.7244759202, 0.3924079537, 0.6633083820, 0.1868908554, 0.3528312147, 0.2430438548, 0.1028988287, -0.6118621826, 0.0394829996, 0.0904932544, 0.2041573972, -0.2604440153, -0.2836914957, -0.0485324450, -0.2978529334, -0.8249356151, 0.2548821568, 0.3077383935, -0.5186631680, -0.7670614123, -0.3066476583, -0.0353235304, -0.6558125019
0.3793365955, -0.2499592453, -0.2909846604, 0.6157469749, 0.5027570128, 0.1402743757, -1.2561541796, 0.2640767097, 0.1280669272, 0.3056091964, -0.0383982137, 0.4060218334, -0.3716709316, -0.1735030264, 0.3124914765, 0.3065852821, 0.2591184080, 0.2649886906, -0.6050887704, 0.2965820730, -0.2097227126, -0.8826187849, -0.3060849309, -0.0346130133, -0.0421878211, 0.0024945792, -0.1268257201, -0.6935998797, 0.7471138835, -0.6089029908, -0.6325994730, -0.4034009874, -0.2114894539, 0.2936528325, -0.4010112286, 0.0280602835, 0.0015064200, -0.1133255437, 0.1199220419, 0.1875849217, 0.0105774067, 0.8079640269, 0.5734305382, 0.3191362321, 0.0664250255, 0.4109126925, -0.0024818450, 0.0396640562, -0.7439974546, 0.1251316071, 0.0547830313, -0.3621577621, -0.0921652094, -0.1924704611, 0.0739680082, -0.0420376062, -1.0029422045, 0.3634932935, 0.2373700142, -0.5604148507, -0.4333039224, -0.5655652881, 0.1134112924, -0.2538561821
0.3451176584, -0.1601713747, -0.4698317051, 0.1716598421, 0.1503941864, 0.1622420251, -0.9473956823, 0.3902148604, 0.2695472538, 0.2544636726, 0.4611125588, 0.2712115943, -0.6378355026, 0.0937112272, 0.0755737275, 0.2560870647, 0.1506752223, -0.0698310584, -0.1466908306, 0.3672710359, -0.3698960841, -1.0212175846, -0.1484584957, -0.0527957007, -0.0127214799, -0.0765194893, -0.2380130291, -0.4335292280, 0.0916536674, -0.1134656668, -0.7950744033, 0.2952051759, -0.0883490890, 0.3944170773, -0.1068455577, -0.2952146232, 0.1808895320, -0.0849979147, -0.0498152934, 0.4871962368, -0.3764627576, 0.3675121069, 0.4665803015, 0.5390232205, 0.2005226612, 0.0259486772, -0.0209977105, 0.0030485007, -0.6353346109, 0.1229549870, 0.3614899814, -0.2138713598, -0.0109118354, -0.2391078621, -0.1180287972, -0.0724408180, -0.6502431631, 0.1901751608, -0.1469482630, -0.2906708717, -0.4789812565, -0.6648899317, 0.0595804602, -0.8332297802
0.5019937754, -0.2447822094, -0.1534182280, 0.3864029944, 0.1409147829, 0.0228107497, -0.8719986677, 0.0094652837, 0.2514516711, 0.2799277008, 0.6659233570, 0.0879837498, -0.5381441116, -0.1013240665, 0.3972549438, -0.0310520269, 0.0371734761, -0.3412851691, -0.4710159302, 0.0709770173, -0.3988287747, -0.5646316409, -0.1777086705, -0.1809762120, 0.1101908758, 0.1238362193, -0.4062716961, -0.2913495004, 0.2340035737, 0.2066942304, -0.9852674007, 0.6090592742, -0.2119059265, 0.1407209188, -0.0749960542, -0.1665264964, -0.0726237223, -0.0637104288, 0.0869602710, 0.1671901196, -0.1636853963, 0.0097342227, 0.1771813631, 0.4104331136, 0.2733582258, -0.0701310486, -0.8111810684, 0.0340164565, -0.1526973993, 0.0707395822, 0.1879324317, -0.4808508158, 0.0718589351, -0.3009818792, 0.0749829561, 0.6083318591, -0.3887053430, 0.2234574258, 0.0324607454, -0.2337393761, -0.3719010651, -0.6542491317, 0.0857181922, -0.9781739712
0.4999038875, -0.0077119777, 0.0054910933, 0.2067312896, -0.2433412373, -0.2197601944, -0.3429361582, 0.2059710026, 0.1496789008, 0.1166383550, 0.3182787001, 0.2513468564, -0.4336466491, -0.0909615532, 0.2959864140, -0.0280510094, -0.0201856289, -0.3874269724, -0.3660110235, 0.1541629285, -0.5263614655, -0.2169730365, 0.1809927076, -0.3215414286, 0.2820268869, -0.2262094617, -0.0255349372, -0.2859251201, -0.0226468947, 0.2445568889, -0.8808211088, 0.5164374113, -0.0833025873, 0.2678570449, -0.0839905962, -0.1668564379, 0.1669852585, 0.1001282111, -0.0110735679, -0.0058159693, 0.1589254141, 0.0054415474, -0.1106727198, -0.1212995723, -0.0002922460, -0.0581112280, -0.6750941873, -0.0558935329, -0.0980986059, -0.1276695430, 0.3173879087, -0.6514568925, 0.4260831475, -0.2161848247, -0.1289167404, 0.2189051956, -0.4115661383, 0.1185538620, 0.0388237685, 0.0218358580, -0.2345885336, -0.7894105315, 0.1835558712, -0.3634735048
0.3281691074, -0.3460569084, -0.1264458597, -0.0159899089, -0.2482401133, 0.0093852663, 0.1018616930, 0.2583529949, -0.0784053579, 0.3191445768, 0.0999582410, 0.0817041770, 0.0110597936, 0.0337665454, 0.0521210879, -0.1022245437, -0.3275818229, 0.0124440193, -0.2698778510, 0.1901029646, -0.2367344350, 0.4828101695, -0.0728945956, -0.3986192942, -0.3005186319, 0.0376477279, 0.0686761811, -0.0546021685, 0.2043018192, 0.1523602307, -0.7939525843, 0.7147973776, 0.0237457734, 0.1874906272, -0.1872096807, 0.3060879111, 0.3022767007, -0.0060301009, -0.2033967227, -0.9045647979, 0.5973979235, -0.0412519164, 0.3527764678, -0.1490860730, -0.1577927917, -0.1348058730, -0.6796475649, -0.1555091441, -0.0528159887, 0.2182471454, -0.1879651546, -0.3971065581, 0.1674764603, 0.0932091102, 0.1289344728, -0.1931832433, -0.0858569741, -0.0292679146, -0.0593104623, 0.0709045678, 0.2872029245, -0.3273896575, -0.0932856128, -0.3687795103
-0.0655328929, -0.1190663949, 0.0415433533, -0.2211579680, -0.0717176124, 0.0855458751, 0.2278976142, 0.0477573536, 0.0827086046, 0.4109763205, 0.0240921341, -0.0648778304, 0.1527197212, 0.1610362083, 0.3535677493, 0.1783552617, -0.3180978000, 0.2215634882, -0.1222438440, 0.1169686466, -0.1387844682, 0.3260791004, 0.0239934791, -0.4668864906, -0.2062890977, 0.0709252134, -0.0118717449, 0.1341402531, 0.4049080312, 0.2992242873, -0.3397636116, 0.5345293283, 0.1866849959, -0.0283675138, -0.2837781310, 0.3013885915, 0.1027997956, 0.0541666076, 0.2308573276, -1.1599147320, 0.0425595716, 0.1992382407, 0.2422395349, 0.0016632421, -0.3385075331, -0.4455171824, -0.7202840447, -0.1618579030, 0.0142105948, 0.3595259190, -0.2421808541, -0.4341654778, -0.2378006577, 0.4088821411, 0.2846764028, -0.2680225372, -0.2181522101, 0.2994899154, -0.0320005380, 0.3165752292, 0.2891645432, -0.0838112012, -0.0447861478, -0.3748033941
-0.1564292461, -0.0977791920, -0.0916324705, -0.0297212936, 0.0758276805, 0.4361864626, -0.1311709583, 0.3075069487, 0.0199231114, 0.9956860542, 0.3389553726, 0.0712620243, -0.1187687665, 0.4772620201, 0.4389315546, 0.6356223822, -0.3458546698, 0.4881703854, -0.2522297800, 0.3469223082, 0.2279782444, 0.3838510215, -0.3444631100, -0.2856649160, -0.0939163119, 0.4561179876, -0.2911645770, -0.0608094186, 0.4216727018, -0.4841316044, -0.2071781307, 0.3736903667, 0.2636529803, 0.1137265638, 0.0829343349, -0.1567638814, -0.1803611219, -0.1107972115, -0.3138733208, -0.2312128395, 0.3429208696, -0.0612038262, 0.4896847010, -0.6848790646, 0.0927885398, -0.4314988554, 0.0024854110, -0.1096341610, 0.4781769514, 0.2351512313, -0.0354310684, 0.0141097950, -0.5330348611, 0.1399071962, -0.0166329630, -0.2643020451, -0.4162305593, -0.2506798506, -0.1708038449, 0.9391476512, 0.2073252648, 0.2086416334, -0.2457485199, -0.4802641571
-0.0870363265, 0.0826944187, -0.0006436495, 0.0480084717, 0.0093329614, -0.0672909766, -0.1360555887, 0.2452877760, 0.2365007550, 0.5278943181, -0.1789748967, -0.1060796157, -0.0716903657, -0.0596446991, 0.1575673074, 0.2685225606, 0.0194939002, 0.0784583837, -0.3920798302, -0.0648666546, 0.3490232229, -0.2159220278, -0.1945010871, 0.0637425110, 0.1014769450, 0.0285730883, -0.3984324038, -0.5400780439, 0.1753869206, 0.3533751965, 0.3971160650, 0.4957090318, -0.0879862905, 0.3267129362, 0.3364968300, 0.1798740029, 0.1898792535, -0.1839459091, -0.2034963071, -0.0019898338, 0.3493285179, 0.4995244741, -0.0786064640, 0.0948051363, -0.1083673984, 0.0886294320, 0.0812573433, 0.0611504614, -0.2079214454, 0.2998803258, -0.1914497167, -0.0216828883, -0.2111706287, 0.0501737781, -0.0376599357, -0.0299776886, 0.1260844171, 0.1334661096, 0.3633328080, 0.0891987532, -0.0472503714, 0.3814531863, 0.0443586968, -0.4362882376
-0.1353509277, -0.2593937814, -0.1013890654, 0.2868920565, 0.1980540305, -0.0121122226, 0.0084523261, -0.1066695973, -0.0088979490, 0.2328397632, -0.2884820700, 0.0527733676, -0.0419640839, 0.3258617222, 0.0709745660, 0.2799951136, -0.0235973112, 0.2445226312, -0.3755386472, 0.2224841565, 0.1822623163, -0.3405070007, -0.2705644369, -0.1550575346, -0.2805531025, 0.0990526527, 0.3786989748, -0.0336676985, 0.1184736565, 0.0187184103, 0.3995030820, 0.1040084437, 0.1341071278, 0.2248428613, -0.0488079749, 0.1903539300, -0.1498051733, -0.2323960513, -0.0207832810, -0.0981597751, 0.4399726987, 0.0385491848, 0.2066334784, 0.4920595288, 0.0626423806, -0.0472791120, -0.0552622825, 0.0727078617, 0.0276256818, 0.2277127951, -0.2753607631, -0.1767192930, -0.2496968359, -0.0644774064, 0.1476396769, 0.3305588067, 0.0731030405, 0.1772051603, -0.0836945921, 0.1795384288, -0.1049992591, 0.0860784724, 0.1929489970, -0.2920040488
0.0820040628, -0.1373688579, 0.0399511606, 0.0125240749, 0.1643744260, 0.1563800275, -0.1051401719, 0.0240119956, -0.1772032082, -0.0275168382, 0.0394386202, 0.0170702506, -0.0413338430, 0.0236452036, 0.0630136058, -0.0733276308, -0.1223220155, -0.0167199038, 0.0711932033, 0.0585512742, 0.0586619787, 0.0624754205, 0.1489293277, -0.0484566092, 0.0959097818, -0.0296108145, 0.0636273623, -0.0823551342, -0.1157558337, 0.1657999605, -0.0634765178, 0.0310216546, -0.0484292768, -0.1251156628, -0.0939110890, -0.1516104341, 0.0692320913, 0.1225206256, -0.1117245480, -0.1152099818, 0.1368651688, 0.0215605963, 0.0546443127, 0.0599450320, -0.0733114034, 0.1247762516, -0.0033729638, -0.0771537349, 0.0984275416, 0.0100183869, 0.0792390406, 0.1172352657, -0.0424438454, 0.1249189079, -0.0289418232, 0.1137625277, -0.1337758154, -0.1488530636, -0.0876457319, -0.0668760687, 0.0484827608, 0.1321338266, 0.1531061828, 0.0357496738
-0.1432354748, 0.0046823528, 0.1603475511, -0.2345547229, 0.0385273322, -0.3152646720, 0.3493435979, 0.0163401999, -0.0015686834, -0.1428374052, 0.1199957728, 0.1656683534, 0.4607926905, -0.1247191057, -0.1543541402, 0.0358780958, 0.1286006570, -0.1545323581, 0.3509910107, 0.0774104893, -0.2917195559, 0.3128125966, 0.2510648668, 0.2109324634, -0.0525169559, -0.2665660977, 0.0216027685, -0.2730295658, 0.2750548124, 0.0517066158, -0.1088433042, -0.4350401163, -0.2257385850, -0.2389969379, -0.0322050601, 0.1939146817, 0.3607473075, 0.2916797996, 0.2351052165, 0.3761321902, 0.3146124482, 0.3658047318, 0.4566284120, 0.4233769774, -0.2403598875, -0.0210777801, 0.2297979742, 0.0356305242, 0.0367890969, -0.2679201961, -0.0834591761, 0.3899614811, 0.3916026354, -0.0809043422, 0.0877916515, -0.1526761949, -0.0291524753, -0.2107689530, 0.2117956430, -0.0141844070, -0.4581475258, -0.3354247808, 0.0050381147, 0.0070657576
-0.1076482236, 0.0396656990, -0.5893461108, -0.1778848916, 0.4929807782, 0.3545756936, -0.1624730378, -0.1268754452, 0.1382702291, -0.3102072179, 0.1257725805, 0.4832391441, 0.2728155255, -0.0870293453, -0.3858489096, -0.0338308848, 0.2818558812, 0.2436001003, 0.4553608596, 0.3044771552, -0.2247259915, -0.0825002268, -0.0452426672, -0.3051892817, -0.4309709966, 0.4218704998, -0.2292648107, 0.3496205509, -0.2225342393, -0.1745343208, -0.5943740010, -0.0325304605, -0.5438527465, -0.3048816919, -0.2555187941, -0.1042742878, -0.0147518925, 0.2246669680, -0.1973153204, 0.4720576406, 0.0751273111, -0.1383396834, 0.4003484249, 0.2514593899, -0.2717707455, 0.0568890274, 0.1551754922, -0.0649907291, -0.6710482240, 0.1668103337, 0.5550298691, 0.7876819372, 0.1909749955, 0.3163997829, -0.2555921972, -0.1478433609, -0.0109071322, -0.3228097260, 0.7886905074, -0.6181610227, -0.4885055125, -0.3432105184, 0.0184682440, -0.4921373725
-0.3661166430, 0.4688615501, -0.3446055055, 0.2511695027, 0.0861475095, 0.1249892041, -0.0336292945, -0.0694814324, 0.2780323625, -0.2624567747, -0.1554347575, 0.1289961785, -0.1802812964, 0.1078649163, -0.0742180645, 0.0332404375, 0.2466664761, 0.0734152868, 0.3283518255, -0.0359466262, -0.1764457971, -0.2506847978, -0.0019212425, -0.4086548686, -0.1078221425, 0.2640473247, 0.0904893354, 0.4405791163, -0.4285704195, -0.2812678218, -0.8684503436, -0.1637017429, -0.1730051488, -0.2047232836, -0.2582544982, -0.3282940686, -0.1373245865, 0.2166215926, 0.0095909322, 0.2214174569, 0.1158554554, 0.1723985672, 0.2146895230, 0.4376934767, -0.0123730851, 0.1623521447, -0.0468349494, -0.1168600470, -0.5424381495, -0.0724679679, 0.1576262265, 0.3113941848, 0.3456588686, 0.0087000597, -0.0890762061, -0.3485948443, -0.0312252492, -0.3896791339, 0.3009157479, -0.9556251764, -0.0881978571, -0.4140071273, 0.0528322831, -0.5431374311
-0.2803097069, 0.1853223145, -0.2134245634, 0.1972498596, 0.4049975872, 0.2664179206, -0.2503632903, -0.0697561875, 0.1278726459, 0.2853618264, 0.0491680317, -0.2174868286, -0.4306286573, 0.4189399779, 0.2285114974, 0.1389653683, 0.3005329669, 0.1711762398, 0.3450054526, 0.1833103895, -0.0601200461, -0.5671852827, -0.0525951982, -0.4303826392, -0.0208602101, 0.2939024568, 0.1909005791, 0.4095574021, 0.0373688340, -0.3574089408, -0.7402199507, -0.0856706128, 0.0675466731, -0.1475829184, -0.3967258334, -0.0747215524, -0.2153694183, 0.1274611801, 0.0226184595, 0.1379359961, -0.1369639486, 0.4000452459, 0.0427933224, 0.2102396637, 0.0610712096, 0.2369631231, 0.0635921657, -0.0484620072, -0.2207148969, 0.0083187371, 0.0296411049, 0.1076573730, -0.0663528293, 0.0546740144, 0.0687109083, -0.2726341486, -0.0330071673, -0.2879160643, 0.2173381448, -0.6900573969, 0.1253882200, -0.4246803522, 0.1008354723, -0.3197529316
-0.0379890651, -0.1356779188, -0.2233998626, 0.2367994636, 0.0398977585, 0.1489919573, -0.5046658516, 0.0946744680, 0.2079589218, 0.1916985661, 0.1327257156, -0.0264069717, -0.3589679301, -0.0075570452, 0.0222301036, 0.1961689740, 0.4312975407, -0.5180656314, 0.0973391384, 0.0566853397, -0.1629769504, -0.2388589531, 0.0450412706, -0.2967078984, 0.1401104331, -0.3761752248, 0.0611553155, -0.0344532803, -0.0249213465, -0.4326288402, -0.5903933644, 0.1231653541, 0.1078945473, -0.0792103112, -0.0583385974, 0.0249307454, 0.0060574468, -0.0657929778, 0.3475422859, 0.0882697999, -0.3100731969, 0.8083373904, 0.1013679430, 0.4614274204, 0.2818869352, 0.0108171441, 0.1001005173, 0.0849292874, -0.2322826087, 0.0652285218, 0.0605584756, -0.0673033223, 0.2863474190, -0.1700754017, -0.0211051181, -0.4366201162, 0.1360666454, -0.1568393856, 0.3714307845, -0.4896059930, 0.3325784802, -0.2584953606, -0.1074359342, -0.3302805722
-0.0098709511, 0.1889310181, 0.0041932119, 0.3255448043, -0.3485671282, 0.2735148966, -0.6260169744, -0.1443786770, 0.1282370687, 0.1231243759, 0.2399875224, 0.1144474372, -0.3210400641, 0.1222160757, 0.2172301710, 0.1256141514, 0.3348303139, -0.6580265760, 0.3182772100, 0.0815578103, -0.0466885343, -0.1661242098, 0.1377190202, -0.2378874719, 0.0808188468, -0.1312283874, 0.0496555790, -0.0545073189, -0.1702983230, -0.2397755235, -0.4456050396, 0.3614555001, 0.0015137220, 0.0750262886, 0.0275535807, -0.1251719445, 0.1129226163, 0.0526272878, 0.1054510400, 0.3865437508, -0.6128342748, 0.5764853358, 0.0671179369, 0.4357568920, 0.4044657052, -0.1039615944, 0.0958833545, 0.0946924686, -0.1815612167, -0.1700961441, 0.1366895884, 0.2054036409, 0.2955947816, -0.0500595160, 0.0907369629, -0.2805028260, 0.0848683491, -0.1432202458, 0.3351982832, -0.0623235554, 0.0337703116, -0.3564487398, 0.0174337365, -0.2733906507
0.3269145191, -0.0589659549, -0.0592970885, 0.2660558522, -0.3297827542, 0.0349298716, -0.4339214563, -0.2239003032, 0.1074073389, 0.0924971625, 0.3508901596, -0.1001237631, 0.0203799494, 0.0328972079, 0.1711419821, -0.1398338377, 0.0378617309, -0.4235634506, -0.1957065165, 0.0462357551, -0.0861782879, -0.3143528104, 0.3097033203, -0.2639693916, 0.2704081535, -0.0913142189, -0.1439695507, 0.0303323474, -0.2107211053, -0.1778592169, -0.3843528628, 0.2713218629, -0.0567129962, 0.0859607309, -0.0753674209, -0.1362344474, -0.0630057901, 0.1640349925, -0.1011426896, 0.2512152791, -0.0578799061, 0.3799670935, -0.0369873010, 0.4894734621, 0.2589865327, -0.1804484725, -0.1344699562, -0.1195345148, 0.0891054794, -0.1566606909, 0.1905490160, 0.0856065899, 0.2319278419, -0.1193598881, 0.0638005808, 0.0026438830, -0.0875662118, -0.0283940602, 0.2847466469, 0.0257750582, -0.2660063803, -0.5164443851, 0.0418477543, -0.2299652249
0.3705623746, -0.0604905151, -0.0759029016, 0.0982193649, -0.1024172157, -0.1912501752, -0.0742312372, -0.0308196917, -0.1289110929, 0.2537572980, -0.0557356551, 0.1704490632, 0.1060332060, -0.1485504061, 0.0823574960, 0.1684387177, 0.0734791681, -0.2204022408, -0.7182493806, -0.1291448474, 0.0240342095, 0.0245040637, 0.1565305144, -0.3089629412, 0.3794279993, -0.0441576913, -0.3452129066, -0.0254206806, 0.0029735761, 0.0798500925, -0.5890979171, 0.2995071709, 0.1190322787, 0.1829579026, 0.0945370495, -0.0834777653, -0.0818057209, -0.0934627354, -0.2483581901, -0.1194750667, 0.2207075357, 0.4082697630, 0.1463032961, 0.2615244985, 0.4078174233, -0.0043794969, -0.2237160355, -0.0513750874, -0.1303937584, -0.0283989925, 0.3703576028, -0.0461962819, 0.4149257541, -0.2460512072, 0.1040120646, 0.3537672758, -0.0452894792, -0.0721293241, 0.0573536307, 0.1345616877, -0.1701418161, -0.2719964385, 0.0553678945, -0.3182507753
0.5043461919, -0.1505084932, -0.0052867560, 0.0361083895, -0.2902835011, -0.4009240568, -0.0359925516, 0.1774625182, -0.2733855546, 0.1284311563, 0.0462854616, 0.0431519449, 0.2171550989, -0.1758417487, 0.1754981726, 0.1822662950, 0.0536108278, 0.0788697153, -0.8481716514, -0.3013771176, 0.0755033046, -0.0521081313, 0.0749096721, -0.2792229056, 0.1574129313, -0.0028217349, -0.0729202628, -0.0674764439, 0.0938391313, 0.0128462445, -0.3651848733, 0.4425085187, 0.0719790086, 0.1587819606, 0.3542510271, -0.0111094154, -0.0125883855, -0.1279278696, -0.0924342498, -0.4190193713, 0.2595706284, 0.4598333836, 0.1543629766, 0.2728448510, 0.2402940542, -0.2642133534, -0.2232762873, 0.0306554046, 0.0542606637, -0.0085250540, 0.4299281538, -0.2447561175, 0.2565554380, -0.1047553122, -0.0665455237, 0.3558837771, 0.0339466669, -0.0124625601, -0.0592701174, 0.1040057614, 0.0019492611, -0.1986345649, 0.0164931156, -0.5532918572
0.2209372669, -0.0123526799, -0.0634294227, -0.1911815256, -0.2627623975, -0.1375164092, 0.0351524651, 0.2615225911, -0.5082619786, 0.1594120264, -0.3018748164, -0.1457326412, 0.3586001992, -0.0078217657, 0.3037799001, 0.0541481301, -0.1303526908, 0.1460213661, 0.3785163462, -0.4547742605, 0.1524268687, -0.0212090034, 0.1450679153, 0.0380240083, 0.2002998292, 0.0856615826, -0.2762391567, 0.0261779018, 0.1558816135, 0.0752277672, -0.3990623653, 0.3622492552, -0.0028573100, 0.0464498848, 0.0548019521, 0.2288218290, -0.0384428911, 0.1170737520, -0.1230187193, -0.9226480722, 0.2099776119, 0.2947226763, 0.1709446460, 0.1481481344, 0.1513858140, -0.4948488474, -0.1094530448, -0.1632071733, 0.0578017496, -0.3927822113, 0.3132299483, 0.1856175214, 0.0964107364, -0.0057736905, -0.1063541025, 0.0884960890, -0.0393632054, -0.1195442304, -0.2239597589, 0.0888810083, 0.1011247039, 0.0554963276, 0.0747430474, -0.4217090011
-0.1025497615, -0.3854700923, 0.0754939616, -0.1490396708, -0.1863411069, -0.1391561478, 0.1944459826, 0.0984538645, -0.1686031073, 0.0494458936, -0.3349402249, -0.2515622377, 0.6293016672, 0.1215932369, 0.2217783630, 0.0120467991, -0.0764059648, 0.2627717257, 0.9620290995, -0.2009860128, 0.2516758144, 0.1438743323, -0.3320906460, -0.0756116584, -0.0328834504, 0.0694692731, -0.3344017267, 0.0012443115, 0.4193393290, -0.2198906392, 0.3123347461, 0.5914329886, 0.0481334701, -0.0222005714, -0.1110349372, 0.3125832081, -0.3198091090, -0.2132287920, -0.1728626788, -0.7452706695, 0.3869360089, 0.0640230626, 0.0105624879, 0.0624127835, -0.0364854150, -0.4444370866, 0.0445304736, -0.0408448577, 0.1457294226, 0.0906545669, 0.1226731092, 0.3100199103, -0.1746008694, 0.1623839438, -0.0039597456, 0.0851095468, 0.0814391077, -0.0620073490, 0.1433114856, 0.3951036036, 0.0801192969, -0.1982113272, 0.3132998049, -0.4764483571
-0.5616833568, -0.4902715981, 0.2325408310, -0.0322279744, -0.2182085812, 0.2014622241, -0.1913384348, -0.3391059339, -0.0586673096, 0.4009861052, -0.5003666878, -0.2794154584, 0.3101337850, 0.6712142825, 0.2200493664, 0.3371840119, -0.4757542908, 0.4828475714, 0.4975659549, -0.2436258942, 0.5357301235, 0.0465806760, -0.1165497079, -0.0340247266, 0.1139435619, 0.3429055512, -0.1509177089, -0.1297571510, 0.4093570113, -0.0408305414, 0.1908915490, 0.4454131126, 0.5132715702, -0.2941373587, 0.1135543510, 0.1799472272, -0.0783934072, -0.0543954484, -0.4124499559, -0.1854300648, 0.0314160325, 0.2148103267, 0.1868120432, -0.1290135384, 0.0236754827, -0.1728811115, 0.3723273575, -0.0673440471, 0.0427548140, -0.0426845364, -0.4150773585, 0.1793877184, 0.1153153032, -0.1297634989, 0.2000136524, -0.0951081887, 0.1031013057, 0.1056458652, 0.1701278687, 0.6577233076, 0.5356268883, -0.2772015035, -0.1744892746, -0.2776783407
-0.2196094692, -0.1541697830, 0.1380241960, 0.2990971506, 0.1389147490, 0.2330826074, -0.5303317904, -0.0445162468, -0.2458910644, 0.4831401706, -0.1995641589, -0.0969435051, -0.2476165295, 0.6554654241, 0.4213708639, -0.0004652888, -0.1207116470, 0.2775750458, -0.6161428690, 0.1673593819, -0.0745859221, -0.1311858445, -0.1954751909, -0.2971332967, -0.2156299800, 0.0015367782, -0.0675035045, -0.4700806141, 0.4512377679, 0.5742648244, 0.2643185258, 0.7649765015, 0.6441932917, 0.2177018672, 0.4934923053, 0.4495962858, 0.2048899233, 0.1158155650, 0.0750303566, -0.0810427740, 0.7305207849, 0.5804754496, 0.6288050413, 0.3087010980, 0.2134207934, -0.0748957470, 0.3912945092, -0.1282506138, 0.3876056075, 0.0903040692, -0.9252188206, -0.3100831211, 0.3485668898, 0.0614203252, 0.2250429541, -0.2273579538, 0.5908780694, 0.0484208688, 0.2418238670, 0.6621580720, 0.0367255881, 0.0747975856, -0.4231460094, -0.5023877025
0.6704614758, 0.4717686772, -0.4374632239, 0.5099622011, 0.6433138847, -0.2653739452, 0.5535050631, -0.4479265213, 0.4123012125, -0.6195733547, 0.2649581134, -0.0985601246, 0.5127217770, -0.0999149606, -0.4620229900, 0.0677134544, -0.0466846451, -0.4708765447, 0.2296238393, -0.0909536928, 0.1965618581, 0.0515185073, 0.4268411100, -0.6113387942, 0.0996475294, -0.3715285957, -0.0988304392, -0.3878473043, 0.2107664645, -0.2529715896, -0.1121810973, -0.0668307617, -0.3765788972, -0.4666415155, 0.1183825135, 0.5142489076, 0.1481588036, 0.4415208995, -0.2746893466, 0.4426675439, 0.4764736891, 0.0753327459, 0.2897714674, 0.4256917834, -0.5453827381, 0.6324124336, 0.3854325116, 0.0770011097, -0.7519240975, 0.5881822705, 0.3161309361, 0.6286772490, 0.2475250661, -0.5351898670, 0.6242834330, 0.5472661853, -0.2212874293, -0.4835386574, 0.5022071600, -0.5260562301, -0.2110394388, -0.4540897310, 0.6679608822, -0.5171132684
-0.1227757707, 0.0235148910, 0.2594044209, 0.3548994660, 0.3162241876, 0.1459911317, 0.3567692935, -0.2687055171, -0.7267854810, -0.2413325459, -0.2803073227, -0.0675289929, 0.0063271383, -0.0413394608, -0.1332989484, 0.0207125042, 0.5922607780, -0.5269163847, 0.2638975084, 0.0749209896, -0.0665889904, 0.1861187369, 0.0159588400, -0.1285323650, 0.0419133380, 0.0608244427, 0.1554741859, 0.5135079622, 0.2306992114, 0.1350923777, 0.2319545448, -1.0270382166, -0.4414477348, -0.1333103180, -0.1774909347, 0.4135321081, -0.2994880676, 0.1681611687, -0.1355118006, 0.5030815601, -0.0344303213, 0.2480392307, -0.2161588222, 0.2950831950, -0.1051723137, 0.7125620246, 0.6587457061, -0.1326526850, -0.3594261408, 0.4863727689, 0.3679505885, 0.2775015533, -0.1133899018, 0.1309474111, -0.0674155354, 0.0479855761, -0.2679790854, -0.4660566151, -0.4519439042, -0.1846162826, -0.0033372480, 0.1329911202, -0.0418297239, 0.1510725617
-0.3392386436, 0.2587774694, -0.1040408015, 0.2427755892, 0.6719472408, -0.2122392058, 0.1076635644, -0.5729717016, -0.4276821315, -0.0061039934, 0.0271960199, -0.1419529468, 0.3491292596, 0.0953065157, -0.0097872755, -0.0050450251, -0.0401648022, 0.1030745804, 0.0388851017, -0.4317352176, -0.0775442049, -0.1704998910, 0.2299739420, -0.5762656331, 0.0729906410, 0.2002897263, -0.1369916350, 0.4598089457, 0.2141736746, -0.4097453654, -0.1293136328, -0.5024018884, 0.0720805749, -0.2408320308, -0.1093702540, 0.1946450472, -0.3109421432, -0.0543297455, 0.3528027833, 0.2747789919, 0.0886087045, 0.0769809559, 0.0708950162, -0.0322602764, 0.0517619774, -0.2043856084, 0.4588479400, 0.1033126190, -0.5129776001, 0.4922960401, 0.1312690526, 0.3835544884, 0.2244751900, -0.2549308836, -0.0198295806, 0.0386581309, 0.2543621957, -0.0302258469, 0.1905058622, -0.4980125427, -0.1340016425, -0.2230728567, 0.4534801841, 0.0426425971
-0.3783324957, 0.2848075330, -0.0866743326, 0.0026129694, 0.1677049100, 0.0255575068, 0.1549044549, -0.2490616292, -0.1591752917, -0.0635334477, -0.1797044873, -0.1812124401, 0.0831425339, 0.3202975988, -0.0327891707, -0.3281244636, 0.1735318005, -0.1351504922, -0.2169128358, -0.2548795938, -0.0241668113, -0.0412664451, 0.1907095313, -0.8839004636, -0.1004752889, -0.0052243411, 0.0939967260, 0.4418065250, -0.3412366211, 0.0181998461, -0.0472116508, -0.0177855007, 0.0742242113, -0.3362278938, -0.0999467745, -0.1049489751, -0.2774267495, 0.1459061503, 0.2902823687, 0.0880107433, 0.1641876400, 0.2814290226, -0.0044971327, -0.0147742722, 0.0003357053, -0.1205188259, 0.2094293982, -0.0015303266, -0.2512295544, 0.2058978677, 0.0532805286, 0.1419050992, 0.2463073730, 0.0488517731, -0.1995765567, -0.1851929426, 0.0814184695, -0.1970768273, 0.0753156245, -0.8069486618, 0.0106857596, -0.0942886919, 0.1614650190, -0.0588577874
-0.1470589042, 0.3327105343, 0.0095231337, 0.1139260232, 0.3426085413, 0.2028904557, 0.2723695636, -0.3195056319, -0.2084365487, 0.3720799685, -0.0867089629, -0.1292128861, -0.1069465578, 0.1972833872, 0.0708683059, -0.1798212081, 0.2923464477, -0.0023475485, 0.0242804829, -0.0505009145, 0.0779322833, -0.0369324870, -0.1410807967, -0.5613203049, 0.1172111407, -0.0248084925, 0.1251795441, 0.2397846878, -0.1211638749, 0.0419076718, 0.1402621269, 0.1230148450, 0.1782870293, -0.5225527287, 0.3187747598, 0.1639051288, -0.2434724569, 0.0009133992, 0.1411317587, -0.0136697283, -0.0109099476, 0.5173124671, 0.0093758199, 0.0989362150, -0.0129027618, -0.0132292453, 0.3718346655, 0.0778674409, -0.2016661018, -0.1235444024, -0.0137996711, 0.0710710064, 0.0766935498, 0.0658615530, 0.0646020845, -0.2797799110, 0.1881325841, -0.2483817637, -0.0138497856, -0.7102625966, 0.3195118606, -0.1907693446, -0.2639046907, -0.0861638859
-0.0766366869, 0.1638244241, 0.1118156165, -0.0496892594, 0.3963510096, 0.1739254892, 0.1037413925, -0.4817196727, -0.1167718023, 0.2430875003, 0.0880347416, 0.0442192145, -0.1401916891, 0.0651813895, 0.1581370980, -0.0972495452, 0.4376079142, -0.3340960741, 0.1097320095, -0.0355003476, 0.1613798738, 0.1432496309, 0.2314321101, -0.2112241387, 0.0217231791, -0.1163248941, 0.2488339245, -0.0096288258, -0.2770516574, -0.1176014766, 0.1747193485, 0.3871505260, -0.0453963429, -0.4019837379, -0.0268683769, 0.3196722865, 0.1327558160, -0.0947913453, 0.2216554284, 0.1959732175, -0.0817426816, 0.3338676095, 0.1066318229, 0.1672292203, -0.0042744945, 0.0338922963, 0.0981485322, -0.1452034414, 0.0908925682, -0.0313468389, 0.1762679815, 0.1150044352, -0.1493399590, 0.0640074983, -0.1604412496, -0.0933175683, 0.2828578055, -0.2944922149, 0.0440289043, 0.1797099262, 0.1093503609, -0.1305685490, -0.5458371043, -0.2232965529
0.0496917926, -0.2724249661, 0.3565314412, -0.0721692592, -0.0377091989, 0.0943694711, -0.0119275879, -0.4795424342, -0.0102827540, -0.0378155746, 0.2150045931, 0.0265566949, -0.3657925129, 0.0243611000, 0.2725967169, -0.1848605871, 0.6192219257, -0.3963968158, 0.3504699171, 0.1671296954, -0.0703959092, 0.1361572891, 0.1197416782, 0.1164009273, 0.0512661450, 0.0282298718, 0.1582810581, -0.0632230788, -0.1470424533, 0.0571166538, 0.2354465574, 0.3563398719, 0.0013946176, -0.5079200864, 0.0014903569, 0.2344675362, 0.0473157056, 0.0351636484, 0.2761065960, 0.0143955275, 0.1142863780, 0.4479899108, 0.1935441345, 0.4288810790, 0.1184889525, 0.0573723055, 0.4467190206, 0.0082968790, 0.1662797034, -0.0110595562, 0.0986562744, 0.2740381658, -0.1617338806, -0.1178157106, -0.1739497334, -0.0635568425, 0.2335408479, -0.2859361470, 0.0843718871, 0.0175086092, -0.2955650091, 0.0401825830, -0.3044245839, 0.0144326156
-0.0089973230, -0.5839410424, 0.0825359747, -0.0264266096, 0.0589336343, 0.1720125228, -0.2883093953, -0.1048796102, 0.1493441164, -0.0611775927, 0.2185482979, 0.3589890897, -0.0262574218, -0.1578133106, -0.1113418341, -0.1261268109, 0.5727502108, 0.0909212455, 0.3053980172, 0.1527016163, -0.0977071822, 0.0784686431, -0.0406474546, 0.2579240799, 0.1375540197, -0.0406460837, 0.2576040924, -0.2478414625, -0.1463725865, -0.0262833405, 0.2200459391, 0.5238032937, 0.0953678861, -0.0928508714, -0.0041620145, 0.2342714816, 0.3157798946, 0.1801588684, 0.0906106159, 0.2356863320, 0.3228677809, 0.3484162390, 0.1053000465, 0.5601108670, -0.0324172191, 0.1856850684, 0.6040567160, 0.0999906957, 0.2871376276, -0.1555907577, -0.1139647439, -0.0149224810, -0.1103723422, -0.0103444485, -0.1544959694, -0.2527990937, 0.1368775368, 0.0093064643, 0.1020324081, -0.0029282365, -0.0777272284, 0.0635998175, -0.4002160430, -0.1638910323
0.0989430994, 0.0130260596, 0.1848487556, 0.1548978090, 0.0594973862, 0.1298087835, -0.1658139229, -0.1380219460, -0.0473205224, -0.0554932468, -0.0531884804, 0.0328402333, -0.0718684867, 0.0610438809, -0.2254284918, -0.2300447971, 0.1959553212, 0.0009044480, -1.2739332914, 0.0540917479, -0.0896334276, 0.1245395988, -0.1307944804, 0.1737629920, 0.1064398587, -0.0847871155, 0.1640791148, -0.1981540322, -0.3666779101, 0.2173478305, 0.1242194623, 0.4191382825, -0.0169743057, 0.2615129948, -0.0187509954, 0.2068057656, 0.2601811290, 0.2042033523, -0.0535927936, 0.3859533668, 0.1589845419, 0.2210409343, -0.0660758913, 0.4520967305, 0.0579776615, 0.3191051483, 0.2447300553, -0.1794075221, 0.0717891157, -0.1570831239, 0.4441803098, -0.1053038538, -0.0242699701, 0.2453998476, 0.0609669723, 0.0843207017, 0.2617126405, 0.1504151225, 0.0629310608, -0.0943456814, -0.1309861243, 0.2447046638, -0.2463598698, -0.1230777949
0.4507295787, 0.0556760207, 0.2739218771, 0.1089962348, -0.2362622619, -0.1365296394, -0.0327758752, 0.1139069125, -0.2151915580, -0.2805054486, -0.1559671760, -0.1546447873, 0.2986444533, 0.1015476286, -0.1699369103, -0.2344687879, -0.0583652817, 0.2426368743, -0.6988698244, -0.1379121095, 0.0878666937, 0.1279858649, 0.2514181435, 0.2332293540, 0.1020622179, 0.0766557008, 0.3628366292, -0.1184387580, -0.1836111546, 0.1411638260, 0.0007846597, 0.4874238372, 0.1191120669, 0.6411047578, -0.2382616997, 0.3537211418, -0.0391986929, 0.2677009702, -0.1267440319, -0.2595990300, 0.2561255693, -0.0895501003, -0.2269408554, 0.4516247809, 0.0341607146, 0.1003460437, -0.2194134891, 0.0884799287, 0.1484390795, -0.1467845142, 0.4797592759, -0.0319487490, 0.3932758570, 0.2293559760, 0.1888681352, 0.4704723358, 0.1716339886, -0.0040039332, -0.0921385810, -0.1127159074, -0.0327534005, 0.1250546724, -0.0712730512, -0.3007946610
0.1514106393, 0.0407010093, -0.0289463997, -0.1156212538, -0.2398288697, 0.0473070741, 0.0470359474, 0.1479889154, -0.2395092100, -0.1109807715, -0.1421769857, -0.2275661081, 0.2307205498, 0.0482197329, -0.1464188099, -0.4038385451, -0.1872506589, 0.2420012653, 0.2830597758, -0.0227623619, 0.1594894528, 0.1621984243, -0.0351644605, 0.3041957021, -0.0874674991, 0.0382740386, 0.3371730149, -0.2122752517, -0.3715515435, 0.1642071903, 0.0500149652, 0.5799484253, 0.1588846743, 0.2897660136, -0.2172543705, 0.3614398837, 0.0326220654, 0.2699322104, -0.2352762967, -0.9106165171, 0.2640890777, -0.0184409432, -0.1981073618, 0.1028578877, -0.0225304998, -0.1472073495, -0.4264106154, -0.0505180843, 0.2020421922, -0.2669213116, 0.3624953628, 0.1794788837, 0.2648259103, 0.1710124463, -0.0583093092, 0.5243958831, -0.0957834423, 0.0212739967, 0.0672802106, -0.1641957760, -0.0708529577, 0.1397657692, -0.1965112537, -0.2924678028
-0.1291004568, -0.2468837500, 0.0936174467, -0.1272712648, -0.0345528051, -0.1501366347, -0.1383453459, 0.2768765986, -0.1090663001, -0.0742036626, -0.3428617716, -0.1509803385, 0.2587786913, 0.1434828341, 0.1904590726, -0.4356711507, -0.3337827325, 0.2698277831, 0.5678220987, -0.2456144542, 0.2069542706, 0.1511243284, 0.0741876885, 0.1347325146, 0.2090277672, -0.0744873062, 0.2419777960, -0.1556174606, -0.3063079715, 0.0096789338, -0.3696784973, 0.0062006665, -0.0173644479, 0.3741923273, -0.2886005938, 0.4257000387, 0.1966839433, -0.0470744669, 0.0114231147, -1.0707844496, 0.5499341488, 0.2497574836, -0.0191909205, 0.0428141169, 0.0005008920, -0.2450358719, -0.2322116196, -0.0472709909, 0.2927351296, -0.1959443390, 0.0762731209, 0.1294278949, -0.2001568824, 0.0636715293, -0.0581389442, 0.0324757248, 0.0899077803, -0.0253019724, -0.0675960854, 0.3988879025, 0.0792960748, -0.0604873709, 0.1880720705, 0.1310214698
-0.6658740044, -0.4097811580, 0.0069847065, -0.2313071042, -0.2336661667, 0.1115924120, 0.0531552434, 0.0599304065, -0.0535656214, 0.4004199207, 0.0504531898, -0.3097483814, 0.2579658628, 0.3166778386, 0.2004042864, -0.1287797987, -0.5505924225, 0.3908721209, 0.3093833327, -0.1307792366, -0.0489146970, 0.0658650324, -0.0563358255, 0.0475081503, -0.0857888311, 0.0875319913, 0.1759741902, -0.3406447768, 0.3347070813, 0.5144066811, -0.2741564512, 0.3783812523, 0.1462806016, 0.0171229914, -0.2382250428, 0.3699865937, 0.0621309131, 0.1243389770, 0.1673566401, -0.6923294663, 0.1693126857, 0.0819402933, 0.2598591447, -0.0371300988, 0.1527505368, -0.3328472674, -0.3550348878, 0.0038726318, 0.0984777957, 0.5380131006, -0.4747971892, 0.0174530558, -0.3990379274, -0.0827903152, 0.1942683309, -0.1294544637, 0.1750555038, 0.0287242178, 0.3670058250, 0.4641328752, -0.1470762640, 0.1479659975, -0.0483899638, -0.0942934975
-0.2687093914, -0.0458971187, -0.1754983366, -0.0773760453, -0.0425228700, 0.0874269381, 0.3473429382, -0.0267064068, 0.1433370858, 0.4532604218, -0.1564433724, 0.0886508375, 0.7334916592, 0.5024444461, 0.1984454095, 0.1871865541, -0.4085835218, 0.4006005824, 0.0654010847, -0.0587613322, -0.0641803369, 0.2681352198, -0.0845170096, 0.0649235472, -0.2118573934, 0.2791820467, 0.2623488307, 0.1295671612, 0.5699080825, -0.1793961674, -0.3433453441, 0.7569562197, 0.2367149144, -0.6220757961, 0.1132999957, 0.2557034492, -0.0623278320, 0.0787744224, -0.1970022470, -0.0718362555, 0.4989266396, 0.5410785675, 0.2662388980, 0.3886022270, 0.1518692821, -0.2760216296, 0.0285309236, 0.0840924233, -0.2584209740, 0.1818304956, -0.9150618315, -0.0691732764, 0.1869516969, -0.2313923091, 0.1415645331, -0.1090436652, 0.8336672187, 0.1468805075, 0.7518436313, 0.7197094560, 0.5887569785, -0.2066849023, -0.0335244462, -0.0169362705
0.2483352870, 0.5037518740, 0.2518044412, 0.4962631762, 0.6217489839, 0.1535915434, 0.4947963059, -0.3405051231, 0.5291987658, -0.0947460011, 0.0837122947, -0.6275458932, -0.3569005430, 0.5385418534, 0.2167846709, -0.4166677892, 0.3701781631, -0.7962645888, 0.3907465935, 0.0837154090, 0.5503346324, -0.4942379594, 0.6069024801, -0.5547406077, -0.3792367876, -0.1633563936, -0.0615977123, 0.4936806560, -0.3387929797, 0.0002409803, 0.5155169368, 0.0546110682, 0.2076097429, 0.2810032070, -0.2743337452, 0.5630940795, -0.4576371908, -0.4132473767, 0.1954277605, 0.1953340918, 0.1977915466, -0.5333643556, -0.6774461269, 0.2126592547, -0.6886494160, 0.3554406762, 0.5849001408, -0.0385194421, -0.4585051537, 0.7575221658, 0.7140852213, 0.1531216502, -0.7817803621, 0.0856930912, 0.3244934976, -0.0373967588, -0.0064677666, -0.3716018200, -0.0734166428, -0.4612471461, -0.2533919513, 0.2495305836, 0.7780354619, 0.2580184340
-0.2396228015, 0.1357768625, 0.0426683240, 0.7416939735, 0.1387970895, 0.0872753710, -0.0010018924, -0.0573665090, -0.5993741155, -0.0036921361, -0.1900152266, -0.2565153241, 0.1528446078, 0.1704248786, -0.2031177282, -0.1799708903, 0.0969262347, -0.1217763200, 0.1185499802, 0.1259795427, 0.0232544411, 0.0474407114, 0.0415713079, 0.1147607639, 0.0332041159, -0.1811214536, -0.0885818079, 0.3279646933, 0.0553951301, 0.0013150767, -0.0681177899, -0.6160730124, -0.0970648527, -0.0019428050, 0.1980631351, 0.0549613424, 0.0454397686, 0.0025040172, 0.2003595978, 0.3055129945, 0.0705170408, -0.2410466075, -0.1054125279, 0.1780147851, 0.0293751750, 0.1228241548, 0.3293901086, -0.0909463167, -0.2436744422, -0.1235587895, 0.0802570060, 0.0156615246, 0.3539669514, -0.3793053925, 0.0192148667, 0.6201959252, 0.1713738739, -0.1292423457, -0.1068515927, -0.5073035359, -0.0314423516, -0.2239222080, 0.2136396915, 0.0102199791
-0.1870431900, 0.2330100536, -0.1368578970, 0.2005288750, 0.1001031846, 0.3036592901, 0.1407878101, -0.6720366478, -0.4692326188, -0.0508063585, 0.1442068517, -0.2637248337, -0.0036909936, 0.1910258085, -0.0749883354, -0.2977144420, -0.2462366223, 0.0719638318, -0.2521311045, 0.0087263659, 0.2199274600, -0.0182633512, -0.2230658084, -0.7327307463, -0.0962774307, 0.2310106009, -0.0854969621, 0.2535708249, 0.0783853829, -0.1220597923, 0.1950364560, -0.4833797514, -0.1274383068, -0.1684650034, -0.2039984167, 0.1023699716, -0.1657599360, 0.1263461113, 0.0919227302, 0.2535955310, -0.4036409259, 0.0628366619, 0.0593936294, -0.3061003685, 0.0732882321, 0.0524128936, 0.5522638559, 0.0992428288, -0.3933888674, 0.0363436975, 0.0423777327, 0.3728151917, 0.1943446994, -0.4859355390, -0.2507847548, -0.0083854645, 0.1338350773, -0.4728063643, 0.0781778768, -0.7333939672, 0.1372259110, -0.0622151420, 0.3260434270, 0.0518029965
0.0053597693, 0.0331449062, -0.1429608017, 0.1234379262, 0.0083077876, 0.0861484483, 0.0598684102, -0.4954783320, -0.3338134587, 0.2302435189, -0.0298620164, -0.1243213415, -0.2139033824, 0.3127358556, -0.0156969503, -0.2154022753, -0.0902445838, -0.1269131154, -0.1895510107, 0.2299533486, 0.0806159899, 0.0663648024, -0.0171397105, -0.5190562010, -0.1949695945, 0.1361177266, -0.3136617839, 0.2742446363, -0.1359326690, 0.2257670015, 0.3966485262, -0.0100564985, 0.2366072834, -0.1594291627, -0.0262816288, 0.1778924465, -0.1307009310, -0.0050435034, 0.0338933542, -0.0193534233, -0.1876675487, 0.3847264647, 0.0907272995, -0.2407370061, -0.0935382620, -0.1381842196, 0.3933370411, -0.0677764639, -0.1916278750, -0.1590518802, -0.0480336919, 0.4593827426, 0.0848284885, -0.2887346148, -0.0937902108, 0.1326298118, 0.3315141797, -0.6880089045, -0.0932502076, -0.9246943593, 0.3184799552, 0.0693309456, -0.0277995504, -0.0429311618
0.0261038747, 0.4501733780, 0.1497217566, 0.0264666956, 0.2397782803, 0.1616674066, 0.2454010546, -0.3894360065, -0.3661558032, 0.1702114344, 0.0050359857, 0.0007847234, -0.1307460815, -0.0009324509, 0.0063142013, -0.3092515767, 0.1025286391, 0.0529122502, -0.1030351073, 0.1786544621, 0.0723696202, 0.3018752337, -0.0906495824, -0.4318440259, -0.1244645640, -0.0147712100, -0.1558945179, 0.0405067839, -0.2758743763, 0.1523002088, 0.1926498413, 0.2717626691, 0.1275461614, -0.1125244498, 0.0652367100, 0.2753563225, 0.0103891166, -0.1441015303, 0.1927809566, -0.2605955899, 0.1145157740, 0.3318997920, -0.0684885010, -0.2925794423, 0.1211641803, 0.0374029353, 0.3320135772, -0.1083763167, -0.1272013187, -0.1360358000, -0.1432928443, 0.3987234235, -0.1116298065, 0.0059220600, -0.1193064600, 0.3771467805, 0.3011243045, -0.4984908700, -0.1020227596, -0.2346894592, 0.5374324322, -0.0625071004, -0.0443208851, -0.0659252852
-0.0609567761, 0.0125588626, 0.1872067004, -0.1306701154, 0.0648866221, 0.0402393676, 0.3945123553, -0.0040681986, -0.2609490454, 0.0860631466, 0.1226369664, -0.1250564456, -0.4989756644, 0.0507919677, 0.2565747201, -0.1331998408, 0.1970152259, -0.3514182270, 0.0601232201, 0.1401703358, 0.1584993005, 0.0300345700, 0.0511027500, -0.0574185513, 0.1251045465, 0.1594451219, 0.1844996065, 0.0716988817, 0.1399785876, 0.3299972117, 0.2781541348, 0.3712232709, 0.1171962991, -0.2738640606, -0.0847557113, 0.4176983833, 0.0773453191, -0.0341746211, 0.2526087761, -0.2887528837, 0.1041664034, -0.2039744854, -0.1228892058, -0.2841504514, -0.0717632622, 0.2086559832, 0.4710375667, 0.0499834605, 0.1763662398, -0.0497967340, -0.0726521909, 0.2429902703, -0.0685931146, -0.2155853510, -0.0506503433, 0.2215020508, 0.0030882189, -0.0935133845, 0.0366400182, 0.5163782239, 0.1768142730, 0.1428783983, -0.2927970588, -0.2743695676
-0.2316206545, -0.2376502752, 0.2809338868, 0.1021759287, -0.1223390698, -0.0024695084, 0.2723673880, 0.2083562911, -0.2431130558, 0.0469496362, 0.3481287658, 0.0391763300, -0.3386573493, 0.1246801987, 0.2937425375, -0.0485054739, 0.0551336110, 0.0367333479, 0.6789488792, -0.0061388626, 0.1560396552, 0.1162558272, 0.2237291485, 0.3887913823, 0.1141677201, -0.1665094048, 0.1475619376, -0.1756471694, 0.0095880385, 0.2765278816, 0.4566928148, 0.3351187110, 0.2504411340, -0.2933731079, -0.1121641770, 0.5172146559, 0.3486922383, 0.2193463445, 0.0441245511, -0.1063197702, 0.3115331829, -0.2177155316, 0.0465629213, -0.2577531040, 0.1405042708, 0.2473140061, 0.3883501589, 0.0885895640, 0.2292296141, 0.3004519939, -0.1751781553, 0.5639624000, 0.0899627730, -0.0409306102, 0.1164987311, -0.0050402312, -0.1228640750, -0.0897314698, 0.0040333942, 0.4938338697, -0.8135858178, 0.2872844040, -0.1037091389, 0.1491487175
-0.6055083871, 0.0608736053, 0.1653821170, 0.1530712247, -0.0122396611, -0.0313643143, 0.1020576134, 0.2973535359, -0.0157916676, -0.1518510878, 0.0233079232, 0.1001859605, -0.0179399587, 0.0678231269, -0.0575708896, -0.0806977302, 0.1988471895, 0.1129594371, 0.3520730734, 0.0808675885, 0.0841589347, -0.0291200317, 0.2919472754, 0.2542687654, 0.1496689022, -0.2006870061, 0.2574283183, -0.3762251735, -0.1063599363, 0.3653239608, 0.5979909897, -0.5383087993, -0.0406414866, 0.0781206191, -0.0171150193, 0.5986671448, 0.2848711312, 0.3782030642, -0.0759506896, 0.7113242745, 0.2800161541, -0.3314945698, 0.1851477176, -0.2190600336, -0.1486232281, 0.1981374174, 0.3116705120, -0.1392227858, 0.2908262610, -0.0317419395, -0.0812040046, 0.2502801418, -0.4180067182, 0.2538810372, 0.0167933460, -0.4139986336, -0.0983749777, -0.0799493343, 0.0889262408, -0.3208967745, -0.0793453977, 0.2786511779, -0.0820722878, 0.3000453115
0.1692692339, 0.2511029840, 0.2069271952, -0.1353008449, 0.1964069307, -0.1700152457, -0.0620924979, 0.2660399973, 0.0105690751, -0.2153666914, -0.1987557709, 0.1096894592, 0.0137483897, 0.1029375941, 0.0067526945, -0.1388572454, 0.0630303100, -0.1205182225, -1.2632087469, -0.2285979986, 0.1118920818, 0.2596683502, 0.3451170027, 0.1039804220, 0.1242538840, -0.3031769097, 0.1982897222, -0.1025698930, -0.1723669320, 0.1021596342, 0.2577052116, -1.2902902365, 0.0269335229, 0.3214262426, -0.1713299900, 0.4493640661, 0.1030215994, 0.1696344614, 0.5093700290, 0.7881666422, 0.4904728532, -0.1268512756, -0.2483317405, 0.2164866030, -0.1633870304, -0.1331012100, 0.0565211661, 0.0547812954, 0.0578248426, -0.1933125556, 0.5364513397, -0.0357690230, 0.0338805877, 0.0082530566, 0.2171677351, -0.1705686152, 0.4228859246, -0.1212459430, -0.2075432837, -0.3301216960, 0.0653230995, -0.0177355409, 0.0702536926, 0.3166238368
0.7836871743, 0.1318479627, 0.3241443634, 0.1307384819, -0.2407318354, -0.0976958722, 0.0608157031, -0.1327437162, -0.0973092020, -0.3055498302, -0.1999583393, -0.3028013110, 0.0300133210, 0.3012213409, 0.0325040482, -0.1651976854, 0.1306303442, -0.0534800626, 0.1433637738, -0.2558642328, 0.0327937528, 0.2901944220, 0.3509584963, 0.2368376404, -0.0621714815, -0.0245261062, 0.3025641143, 0.1186360344, -0.2013418078, 0.1539475620, -0.0360238180, -1.3194484711, 0.2601210773, 0.3833730519, -0.0457550660, 0.5278888345, 0.1186546162, 0.3173595965, 0.1559219956, -0.1813574731, 0.2693333030, 0.0932221264, -0.1978491694, 0.3388862610, -0.1099672318, 0.1028650478, -0.1430945098, -0.0394651517, -0.0456105731, -0.2163256109, 0.4981828630, -0.0676956028, 0.2143149078, -0.0003914633, 0.2094256878, 0.6241284013, 0.0070103495, -0.0381581485, -0.2114410102, -0.2025469840, 0.1457553506, 0.1789265722, -0.1017521545, 0.0651708692
-0.0671829581, -0.2133460343, 0.0780797750, 0.2157685757, -0.1300366819, 0.0418125689, -0.0478950217, -0.1404449642, 0.1477732956, 0.0160521939, -0.0174590722, -0.0803070515, -0.1221957579, 0.3942252398, 0.0136562698, -0.1446042955, -0.1302664727, 0.0135373566, 0.4274035096, -0.0629283786, 0.1783510149, 0.1302721798, 0.3033897877, 0.2123647779, 0.0662532821, 0.0021747313, 0.1992087364, -0.0126484968, 0.0632298067, 0.1169013232, 0.0229946021, -1.2042163610, 0.2279077619, 0.4313209653, 0.0418653749, 0.2758927047, 0.3134447634, 0.1827871054, -0.0716515183, -1.0603346825, 0.3176364601, -0.0327021554, 0.1016638950, 0.2777889371, -0.0117533011, -0.0802563056, -0.2226633281, 0.0509651862, -0.1095526367, -0.1338238269, 0.2661432028, -0.0320365131, -0.0627782643, -0.2630467117, 0.2599547207, 0.4960936606, 0.0771838427, 0.0121872472, -0.0637628511, -0.1482857913, 0.2685422599, 0.2741011083, 0.0380851291, -0.2580781281
-0.1865193844, -0.0387234204, 0.1884432137, 0.1673854142, -0.2405278534, -0.0047074854, -0.0316610187, -0.0969860032, 0.0161398165, 0.1572141796, -0.2625424266, -0.1972323954, -0.2774752080, -0.0009448513, 0.0193686988, -0.4919670820, -0.1460649222, -0.0947057754, 0.3067016304, -0.0546411760, 0.2386793941, 0.1512327194, 0.0936747417, -0.0973452553, 0.0991469324, -0.1586159468, 0.4169104397, -0.3294054866, -0.2274433821, 0.1775756031, 0.0097420886, -1.3774996996, 0.2156752944, 0.1010501534, 0.3834139407, 0.2813904881, 0.1375530958, 0.2909585238, -0.3091223538, -1.0792279243, 0.3723391891, 0.3212368190, 0.0059570600, 0.0856855735, 0.0347655974, 0.0708929151, -0.2368271202, 0.0274198353, -0.1418478042, 0.1890050024, 0.2210517228, 0.3020631373, -0.2762519121, -0.5564743280, 0.2646943033, 0.2355572134, 0.1031626388, -0.1293420643, 0.0879446119, 0.1377887130, 0.0542505123, 0.3223924637, 0.2636595368, 0.0284437351
-0.4439608753, -0.3070753515, 0.6854377389, -0.1709131300, -0.9057121277, -0.1010705233, 0.0158591866, -0.1547544897, 0.0464863442, 0.5093891025, 0.5053929687, -0.7794328928, -0.1611947417, 0.8055068254, 0.5227786899, -0.0123155043, -0.5263044238, 0.2480881512, 0.2158890963, -0.3109803498, 0.0576198921, 0.7098280787, 0.2570437789, 1.0311689377, -0.1411447525, 0.0130708171, 0.2476310283, -0.0946508944, 0.0518218055, 0.2375770211, 0.1282171011, -0.7365681529, 0.6757943034, -0.0233422834, 0.3122235537, -0.0786624625, 0.1435308903, 0.1540883631, 0.0856909379, -0.9334916472, 0.2824272215, -0.1069372594, -0.1926177442, 0.2468317002, -0.1726240963, -0.4109862447, -0.2677855194, -0.1019270495, 0.2109722942, 0.3671098650, -0.1446904093, -0.0681416541, -0.6905350685, -0.2561831176, 0.6896783710, -0.2915799916, 0.5741573572, 0.0956730396, 0.0287562907, 0.4392198920, 0.6333039403, 0.4345933795, 0.0257332437, 0.1134222895
0.1601639986, -0.2421222180, -0.0700160712, 0.1892658770, -0.2804452777, 0.2586985528, 0.1465440989, -0.3866468966, 0.1740580052, -0.1176349148, -0.2109234482, -0.3132410645, 0.3271691501, 0.5281530023, -0.1751532108, -0.1612129956, -0.7941440940, -0.1861548871, 0.2660118937, -0.1584700793, 0.1905485094, 0.2769000530, 0.2901675105, -0.1306846887, -0.0643990710, 0.3697844744, -0.1343607903, -0.0527306497, -0.0202974360, -0.5490697622, -0.3306944966, 0.2620494366, 0.0392183214, -0.5104051828, 0.2040261924, -0.0943766683, 0.0679949149, 0.3392571211, -0.4532294869, -0.3249308765, 0.2993844450, 0.3164768517, -0.0617705621, -0.0025995842, -0.1816281974, -0.0813342482, 0.7902618051, -0.0787833333, -0.1324017644, -0.0186154097, -0.9386665225, 0.6545646787, 0.1712410450, 0.1058773249, 0.1839252263, -0.0094253263, 0.4829389155, 0.0921684504, 0.2033510655, -0.0876537189, 0.6703183055, 0.1831586659, -0.3958913386, -0.1188187972
-0.2686080933, 0.5463488102, 0.2863899171, 0.2886702418, 0.3709956706, 0.0067554330, 0.3903742731, 0.2889154255, 0.0265249033, -0.0899770558, 0.4929101765, -0.4543633759, 0.0145564573, 0.6893106103, 0.3155625761, -0.1852930486, 0.2329428196, -0.2826760113, -0.2572863400, 0.4986547828, 0.3311689198, -0.4298429787, 0.3412124217, -0.3662524223, -0.1853018850, 0.3865719140, -0.0197756495, 0.4621376395, 0.1498429179, -0.0165829975, 0.6003615260, -0.1549293250, 0.1530366391, 0.3301396966, -0.2757816017, 0.4294666648, -0.2051105499, -0.3482427001, 0.0612484775, 0.3185805082, -0.1593257040, -0.6604927778, -0.6153692603, 0.0380299613, -0.6295098662, -0.0073207663, 0.2312735021, 0.0458116531, -0.0023044441, 0.5617105365, 0.4345211685, -0.1973511577, -0.5814065337, 0.4979426563, -0.3047676682, 0.0745555088, -0.5470399857, -0.3245935440, -0.5420070291, -0.0951329619, -0.0750639662, 0.3958054483, 0.5891028643, 0.2362801880
-0.3306986690, 0.1109298468, -0.1004049778, 0.9486511350, 0.0812048391, 0.0730629489, 0.2959331274, -0.2298934311, -0.6822269559, -0.3014283180, -0.1978359371, -0.1043012664, 0.1008829325, 0.3407368660, -0.3301474750, -0.2526049316, 0.0516013801, -0.5276998878, -0.1431688517, 0.1529162973, -0.0104411636, 0.1266173422, 0.5371416211, -0.5871008635, 0.0118181799, -0.2722768784, -0.1370562911, 0.0339868627, 0.1325824857, 0.2481292784, 0.0792893767, -0.2534114718, -0.0231943335, 0.0565211512, -0.2121610641, 0.1247269139, 0.1486398280, 0.1836274415, -0.0069381683, 0.5046746731, 0.2384181321, 0.0233992096, -0.3001352251, -0.0822526813, -0.2491059750, 0.3371785283, -0.1212205887, 0.0775626823, -0.4060191512, 0.0827905312, -0.3448183239, 0.1428719461, 0.1318114549, -0.0932160020, 0.4524165094, 0.5540683270, 0.0102560790, -0.7797209620, 0.2370615453, -0.3813303709, -0.4974161983, -0.0808104128, 0.3582694530, 0.1976924986
-0.2988915741, -0.0624198653, 0.0033871678, 0.4155065715, -0.4505994916, 0.2208134830, -0.0960045978, -0.1494950652, -0.5280021429, 0.0370632522, -0.1982937902, 0.0375570208, -0.1153342798, 0.1393298954, -0.0558253638, 0.2753873467, -0.0893931165, -0.0350818075, -0.1184439436, 0.2997266352, 0.5322521925, 0.2192488462, -0.1472245306, 0.0257025920, -0.0006286119, 0.0889523402, -0.3374108672, 0.1113807634, -0.0402026735, 0.1631446034, 0.4444175661, -0.0717567578, 0.1477038860, -0.0894926563, 0.0407018997, -0.0216144975, 0.1519011259, 0.0505887792, 0.0793517679, 0.0475911312, -0.2971879542, 0.3984178007, -0.1084997654, -0.3669488728, -0.0880055949, 0.3736380041, 0.3442136943, -0.0426284224, -0.2353406250, 0.1420936584, -0.2184306681, 0.4357886314, -0.3190810680, -0.4465020299, -0.1737245023, 0.0222132839, 0.2494209558, -0.5734440088, 0.0723069012, -0.4055718780, 0.1251475215, 0.3330717981, -0.0565860420, -0.5098479986
-0.1891559511, 0.1114222109, 0.1864887923, -0.0424092747, -0.3884321153, 0.3287028372, -0.0482646786, -0.1590716988, -0.2712578177, 0.3227157295, 0.1181450561, -0.0724702179, -0.2294066697, 0.0000637561, -0.0392042361, 0.1092592999, -0.0835882500, -0.0311787706, -0.0613311380, 0.2022312582, 0.4317570925, -0.0128763095, 0.0865398422, 0.0869854242, 0.0481244698, -0.0423382148, -0.2037769556, 0.2064563185, -0.2810094953, 0.2626776099, 0.4124611616, 0.0582647808, 0.2063253820, -0.2513606846, -0.0232458822, -0.0127142817, 0.1724479645, 0.0509384163, 0.2374817580, -0.2703333497, -0.2394112349, 0.0823361352, -0.0177134480, -0.1565384716, 0.0734512731, 0.2179054171, 0.1862437725, 0.0592379719, -0.0255038608, -0.0178934578, -0.3875968754, 0.3098365963, -0.2772959173, -0.3514624238, -0.3943698704, 0.1619101465, 0.2186040133, -0.3513155878, 0.0213830434, -0.6116315126, 0.2576074600, 0.1248250902, 0.0096328054, -0.1320547312
-0.5073229671, 0.3265539110, 0.0458976552, 0.1055199280, -0.4576771259, 0.3001547456, 0.1461775601, -0.0435391068, -0.2194383293, 0.1277809292, 0.0653181449, 0.0097654425, -0.2576530576, 0.0734451339, -0.1127481833, -0.0714987889, -0.2803441584, 0.0443716347, -0.1764957756, -0.0138681112, 0.3077417016, 0.1781934053, -0.3197200596, -0.0864092633, 0.0481875166, -0.0253831185, -0.2024232447, 0.0380833484, -0.2298472375, 0.2305786014, 0.2518554032, 0.0796820372, 0.1165145785, -0.0016875264, 0.1380555034, -0.3011115789, -0.0494153760, -0.0394640304, 0.2147514820, -0.4663991928, -0.1466906220, -0.3415002525, -0.0673243999, -0.1285827607, 0.1219831780, 0.4169543982, 0.0550942607, -0.0513027869, 0.0624878109, -0.0890662223, -0.0789085105, 0.2647508085, -0.1384046376, -0.2418724000, -0.1531594694, 0.0833426267, 0.4713181257, -0.0688585117, 0.0041487487, 0.0568175986, 0.8156880140, 0.0714112073, 0.1136984974, -0.1892745942
-0.3564572334, 0.0583570078, 0.2388807684, -0.1906079650, -0.6666567922, 0.3130918741, 0.1479334384, -0.0740960762, -0.4985818863, 0.0466896296, 0.3390369117, 0.0660780296, -0.3767472804, 0.0900233611, -0.0204535909, -0.1546163708, -0.5416442156, -0.0869657099, 0.1064272746, -0.1629130542, 0.5575100780, -0.0142686134, -0.2204935849, 0.2616898417, 0.1020082757, 0.1652368009, 0.0356866382, 0.1375506520, 0.1630392522, 0.3498582840, 0.5056082010, -0.0966241211, 0.1885005683, 0.1797995567, -0.0290037040, -0.4004096687, 0.0656419918, 0.0064399494, 0.0861036032, -0.1038108841, -0.1476445496, -0.4024801850, -0.1334260106, -0.2755106986, 0.1620149612, -0.0324354209, -0.1370576322, 0.1077481657, 0.0264609475, 0.4091929495, -0.0812859759, 0.1271197200, -0.0505915955, 0.1576616466, 0.1528805345, -0.3066020608, 0.4013294876, -0.0485664569, -0.0403628871, 0.2694637775, 0.5967621207, 0.4232833087, 0.2786977589, 0.1337089092
-0.6447904706, -0.6633390784, 0.1492966413, 0.0205545649, -0.5292680860, 0.2555965781, 0.0739104003, -0.0965155810, -0.5428262353, 0.2706086040, 0.2734477222, -0.0364860930, -0.0356763899, 0.3091789484, 0.3589031398, -0.5400679708, -0.7547087669, 0.0394352004, 0.5255528688, 0.1904504001, 0.3988098502, -0.4306085408, 0.1852396131, 0.2153631598, 0.1521523297, 0.0179847758, 0.1210967600, -0.1707607657, 0.1410672218, 0.1694765240, 0.5761640072, -0.2190123647, 0.3572970331, -0.1493992507, -0.6788201928, -0.6633582115, 0.1380647868, 0.2823199034, -0.2357967198, 0.2035671622, -0.1394212246, 0.0120358989, 0.2428467423, -0.2809751928, 0.0867581740, -0.0165051240, -0.4487008154, -0.0731542706, 0.1916708052, 0.8578446507, -0.1445487440, 0.1858866215, 0.1592309922, 0.3131673336, 0.0900305361, -0.3844167292, -0.3146841228, 0.2613593638, 0.1350721866, 0.6035010815, -0.6097735763, 0.6262959838, 0.4932886064, 0.5832267404
-0.2246831208, 0.1848310977, 0.0842641890, -0.2823241949, 0.1531439275, 0.1942749470, 0.0667593405, 0.0052758679, 0.5446445942, -0.1502038538, -0.4071663022, 0.0949331075, 0.3630121052, 0.3079659939, -0.3279901147, -0.2178217173, -0.2479611784, -0.5475119948, -0.5756304264, 0.1667464226, 0.0798359811, -0.5675498247, 0.1493863910, -0.0729926601, -0.2176992148, -0.1145842671, -0.0788828805, -0.1579909623, -0.0574938543, 0.0516273715, 0.4877462685, -0.8121574521, -0.0550880805, -0.2270058542, -0.6487534642, -0.8032197952, 0.3385691941, 0.2454382330, -0.0079503832, 0.6843845844, -0.1072631180, -0.0719353110, 0.4267936349, -0.3732311726, -0.2473966628, -0.0879031047, -0.2141287625, 0.0483936183, 0.2489977777, -0.2030141205, -0.9934370518, 0.0935324803, 0.1758344322, 0.2112970352, 0.2252641469, -0.5317716002, 0.0300154258, -0.1901500523, -0.0517123453, -0.3090388477, -0.3288178444, 0.3802218139, 0.2334961146, 0.5740773082
0.4434024692, 0.1803725809, 0.0370702259, -0.2725331783, 0.0992877707, -0.0856599212, 0.0603331141, -0.1181791797, 0.0150971310, -0.2253222615, -0.0508431979, 0.1401289105, 0.2840834558, -0.0769988969, -0.0861280710, -0.4183662534, 0.3571458459, -0.3832773268, -0.7733386159, -0.0020345945, -0.0968399048, 0.0454639345, 0.0274906531, -0.0000945673, -0.1390770525, 0.1058313623, -0.0865975991, 0.1275527477, 0.1696539372, -0.0063435026, 0.0898496956, -0.4807363451, -0.0057483618, -0.3794466555, -0.2705445588, -0.7170675993, -0.0424334817, -0.0390272997, 0.5182936192, 0.5067145824, -0.2093457729, 0.1531914473, -0.0833442956, -0.1577660292, -0.1969251633, 0.1354048401, 0.2275444567, -0.0422422066, -0.1767324209, -0.3189249337, 0.4671150744, -0.0032766978, 0.2566015422, 0.2686379850, 0.0410639904, -0.2057160884, 0.0448394381, -0.2516657114, -0.1026790440, -0.1133437604, -0.0857385695, -0.1521301568, 0.1793609113, 0.6175566316
0.3152924776, -0.1788595766, 0.1716421992, -0.1226971000, -0.0411343388, -0.0412863195, -0.0998701230, -0.1364412010, -0.4542497694, -0.0323426649, -0.1917587817, 0.0910720974, -0.0529301316, 0.0332617089, 0.0644634068, -0.0785365030, 0.2607996464, -0.2562655807, 0.3717756271, 0.2850241363, 0.1246656775, -0.2463732958, 0.2137875855, -0.0053171678, 0.0024223619, -0.2238076627, -0.2225547284, 0.2488252670, -0.1287699491, 0.2543601394, 0.2143207937, -0.7509751916, -0.0409061350, -0.2618698180, 0.1529322118, -0.8473993540, 0.4054181576, 0.1211727113, 0.2618070245, -0.6776095629, -0.2006106526, 0.0536344647, 0.1838590950, -0.2258372307, -0.1952664256, 0.2849434316, 0.2960404754, -0.1414020658, -0.0385617204, 0.1731055528, 0.4161919057, 0.0634206310, 0.1393373311, -0.0919654891, 0.2086682618, 0.3555520177, -0.4360996187, -0.3697822094, -0.1628119349, -0.1499033868, -0.0073823300, 0.0479093604, 0.2398218066, 0.2961111665
-0.2429205477, -0.1882316917, 0.1867915988, 0.0556535497, -0.0078307083, 0.0407785811, -0.1539614052, -0.0392673425, 0.1565768719, -0.0174915716, -0.1913886666, 0.1476504356, -0.7963904142, 0.2316447496, -0.2176248729, -0.0485561527, 0.0964930132, -0.2868947387, 0.3698149621, 0.4579186141, 0.2355050892, -0.0813691020, 0.0309509803, 0.1588088125, -0.0734980553, -0.2361575514, -0.1330501437, -0.0768187866, -0.3039524853, 0.0250281226, 0.0977727845, -1.4643013477, 0.1598213166, 0.1351653636, 0.4173444808, -0.6491189599, 0.3099164963, 0.2826464474, -0.1885631233, -0.8147131801, -0.1585739553, 0.0191636700, 0.0741269439, -0.1384664625, -0.1687200218, 0.3657742143, -0.3071170151, -0.0873308554, 0.0542408712, 0.2655507028, 0.0786506161, -0.0685021356, -0.4298743606, -0.1670830399, -0.0445569940, 0.5452161431, -0.3671762347, -0.3612410724, -0.2724770010, -0.2339854091, 0.3104138374, 0.4394780397, 0.1279889494, -0.1173349097
-0.2510994375, -0.0313801654, 0.1874185055, 0.2004750669, -0.1449231803, 0.1125197262, -0.1999394298, -0.1448134035, 0.0024688349, 0.1805527955, -0.2351806909, -0.1195974350, -1.1640964746, 0.1626062095, 0.0844303891, -0.1346917301, -0.0295049436, -0.1702732891, 0.1667993814, 0.5001717210, 0.0018969842, 0.1250433922, 0.1528334916, -0.1066695675, -0.0796406567, -0.2481857389, -0.4417762756, -0.1229836866, -0.2645832002, 0.0817250311, 0.1229255199, -2.0140771866, 0.3154888451, 0.3408176899, 0.4109421074, -0.5628752112, 0.3993754685, 0.1627766192, -0.1322634965, -0.7253632545, -0.0092276148, -0.5881464481, 0.1720145345, 0.1740829945, -0.2476012558, 0.1067010462, -0.1140868589, -0.1070303544, -0.1774338633, 0.3544586599, 0.2896568775, -0.0111393426, -0.8542050719, -0.3396840692, 0.1469791383, 0.1797551066, -0.1391344070, -0.6593191624, -0.4153469801, -0.0838164985, 0.0122789647, 0.3732387424, 0.0742998570, 0.1557461470
-0.6484822035, -0.1419246644, 0.3742811680, -0.2118267715, -0.9446373582, -0.0564708635, -0.2557481527, 0.0855287015, 0.5239570737, 0.8267372847, -0.4645488858, -0.5646768808, -0.2645413578, 0.4836708903, 0.3449203670, 0.2863156199, -0.1781715006, -0.3906275630, -0.4390013814, -0.0162062440, 0.3626262844, 0.4457848072, 0.0836265460, 0.5166928768, -0.0097730290, 0.0897237659, -0.5904050469, -0.1792340130, 0.0948157310, -0.2269488871, -0.1270778030, -1.2613013983, 0.5972312689, 0.3046732545, 0.5460283160, -0.4750685692, 0.6289525032, 0.2292737514, -0.0350279510, -0.1197653413, 0.0577992313, -1.1260412931, 0.2101496011, -0.2523620427, -0.1580910683, -0.5216201544, -0.0208155867, -0.0990501717, -0.0518843308, 0.3197096884, -0.0164031740, -0.2019141763, -0.8667811751, -0.9723331928, 0.4928973019, -0.2079422772, -0.1340367347, -0.3392425478, -0.4142137170, 0.1100826263, 0.4128978848, 0.5056596994, 0.2454884201, 0.5214980245
-0.1166234165, -0.1446050555, 0.5323519111, -0.2485044748, -0.5306308270, 0.0001520184, 0.0008262203, -0.1896624714, 0.2458205223, 0.3981370330, -0.3926844299, -0.6614537835, 0.0241983496, 0.4023882449, -0.2489547879, -0.1381410807, -0.2515772879, -0.4413869977, -0.3777201176, 0.0699785054, 0.5885922909, 0.2413500547, 0.5930345058, 0.3323816359, -0.2704945207, 0.0233831853, -0.1344436407, -0.5904795527, -0.2907587290, 0.0995995253, 0.0881646499, 0.1790780574, 0.6228491664, -0.6523743868, 0.5930542350, 0.4132293761, 0.3845779300, 0.7370929718, 0.0264638849, 0.3276096284, 0.4082258344, -0.0678201541, 0.1175153479, 0.6002997160, -0.2681579590, -0.3927488327, -0.1013574526, -0.0885395333, -0.2477312684, 0.5339296460, -0.5136604905, 0.5541268587, -0.0554940216, -0.4526182413, 0.6163122654, -1.0387073755, 0.0751060918, -0.1885116994, 0.6127061248, 0.0181032829, 0.6880565882, 0.9598385692, -0.0167889353, 0.1450731009
-0.3094909787, 0.3690066934, 0.1543082297, 0.0151358834, -0.1410905421, 0.4507573545, 0.2334384918, -0.2017986178, -0.3535824716, -0.3488758206, 0.1411866099, -0.6518341899, -0.1288099736, 0.5113838911, -0.0031090067, -0.1199888140, -0.2191237211, 0.1178259999, 0.1205252856, -0.0475917906, 0.4754135311, 0.0311843269, 0.2759435177, -0.2017065734, -0.3630048633, 0.4249998331, 0.1212901473, 0.4451633692, -0.1958088577, 0.1658364981, 0.4060199559, -0.2162646651, -0.0262007788, -0.4845789075, -0.3184703887, 0.4399189055, -0.2913037241, 0.0305670910, 0.0141107179, 0.0644336492, -0.2390127629, -0.5976155996, -0.5495547056, -0.1921491027, -0.0076103606, -0.0434570722, 0.1293053627, -0.0473779142, -0.1142354012, 0.1680185646, 0.3750941455, 0.2415126115, -0.0754133835, 0.2547450066, 0.2117566019, 0.1467431337, -0.0698431358, -0.1223467961, -0.5133372545, 0.0279993545, 0.3366440833, 0.1960409433, 0.5987215638, 0.5110775828
-0.2817557454, 0.4051288068, 0.3762532473, 0.2853376865, -0.3678754270, 0.2182780504, -0.1717074811, 0.0278679486, -0.2294319868, 0.1075829044, -0.1173392385, -0.1757018417, -0.0416450799, 0.5245193243, 0.1078898311, -0.1747215688, -0.0746672228, -0.2397673875, -0.6297588944, 0.3619061112, -0.0649848357, -0.1425619572, 0.6353101134, -0.0295574330, -0.0100843087, 0.1607215554, -0.2753508687, 0.1936092973, -0.4695770442, 0.2393337339, 0.2090209424, -0.0244679935, 0.1532519907, -0.0888394415, -0.2720092237, -0.3933785856, 0.2452454865, 0.2469763309, 0.0074835406, -0.0210459530, 0.2577959895, 0.1374670118, -0.6349177361, -0.3268060982, -0.2132394165, 0.1723205000, -0.0897760168, 0.0744600669, -0.1049747318, 0.2165194601, -0.3870048225, -0.2007587105, 0.1396209598, 0.3792742789, 0.1753859371, -0.2564088702, -0.0632488430, -0.5863138437, 0.1709853858, -0.1612760872, 0.3644058406, 0.4464783370, 0.1322757304, 0.6581189036
-0.4848917723, -0.1758033931, 0.2036998421, -0.0598552898, -0.6209154725, 0.3792983592, -0.1637346894, -0.1425217539, -0.4207874537, -0.0126101701, 0.1760971844, -0.1292645484, 0.1513882726, 0.2413054556, -0.1676567197, 0.0616667680, -0.1544464827, -0.0566784851, -0.0491912812, 0.2442542017, 0.3328176439, -0.0365353934, -0.1221192405, 0.1986749023, -0.0541544817, 0.4085190892, -0.5959621668, -0.0932909101, -0.4154420793, 0.1531450450, 0.1942060590, 0.0139829488, -0.0601247698, 0.1740269959, 0.0628733560, -0.3179937303, 0.0134123610, -0.0226821341, 0.0052768406, -0.4899583161, -0.2560421228, -0.1542520225, -0.0646121129, -0.4537903666, -0.0152115896, 0.1180804372, -0.5767314434, -0.1268125176, -0.2149711102, 0.2764914930, -0.3663282990, -0.2547265589, -0.2798146307, -0.6245415807, -0.2808257937, 0.0634361431, 0.3118572831, -0.5447135568, 0.0606767833, -0.3384348154, 0.0931019932, 0.3200644553, -0.1981558502, -0.5247556567
-0.5001921654, 0.0854615718, 0.0690043345, -0.0895724595, -1.1179872751, 0.2486554831, -0.1908666939, 0.0920668319, -0.5821544528, 0.2078522146, 0.2525588870, -0.1362069100, 0.1491612196, 0.0284896139, 0.0423395522, 0.2415090948, -0.0995596722, 0.3309265077, -0.0591061115, 0.1708745062, 0.1581870764, 0.3012313247, -0.1577251107, 0.2565029860, -0.0060179373, 0.1017280668, -0.1937127858, 0.0847399980, -0.3388225138, -0.2033954859, 0.0971155763, 0.2490080148, 0.3518911302, -0.0889725536, -0.1086557508, -0.4126369953, -0.0066391486, -0.2370508015, 0.3081485331, -0.0995277613, -0.2617394328, -0.5196936727, -0.0183112677, -0.1007252187, -0.0743821338, 0.0977717936, -0.4549791515, -0.0162166059, 0.3563381433, 0.1183454618, 0.0023110416, -0.3654878139, -0.1182055995, -0.3938119411, -0.3642826974, -0.0358010121, 0.1669777632, 0.1773436219, 0.1592321396, -0.2247394323, 0.2340336442, -0.0099015990, 0.3857028186, 0.0547291115
-0.1369464993, 0.2996132076, -0.0071319113, 0.0328838043, -0.9076106548, 0.2225209028, -0.2173256725, 0.0946388021, -0.4398904741, 0.1988139451, 0.2618305683, -0.0227618590, 0.0449551009, 0.0607170649, -0.0385611914, 0.2024777085, -0.0420596190, 0.1158203408, 0.0545021333, 0.1156169325, 0.0823492855, 0.2459416837, -0.2562610209, 0.2417464703, -0.1134585962, -0.0084173670, -0.4129220247, 0.0687952712, 0.0040876390, -0.0412295237, -0.0716782436, -0.2526928484, 0.1053753644, 0.0480772890, 0.2144713402, -0.6037498116, -0.0967927128, -0.3518941402, 0.0396593325, 0.1681296676, 0.0012428048, -0.5977604389, -0.1011317968, 0.1807887107, 0.2647943199, 0.0399640501, -0.5515747666, 0.0821844712, 0.3061173558, 0.3661576509, 0.2227772772, -0.2769571543, -0.0846890584, 0.0292148348, -0.2816651762, -0.0637457073, 0.4108537138, 0.1134566516, 0.2394596934, -0.1204305291, 0.5310914516, 0.0654337332, 0.5982328653, 0.3095908761
-0.0304104406, -0.3404307067, 0.1265050471, 0.2615868151, 0.1077461392, 0.2406217605, -0.0805412158, -0.0061400007, -0.2076865733, 0.0695643798, 0.0966495648, -0.0847688764, 0.0890083015, 0.1445343345, 0.1583805233, 0.0237909779, -0.1960507035, 0.0670511797, 0.0024028658, -0.0767705292, -0.3229084015, 0.2110453546, -0.0291374400, 0.2143098563, 0.1374550462, 0.2022464573, -0.1712421030, 0.4417744279, 0.1843052357, -0.2759929299, -0.2812449932, -0.1656482965, 0.0426815227, 0.2499166578, 0.3345671892, -0.5526483059, -0.2694146633, -0.1199961454, -0.1431110203, 0.1942107379, -0.0274314359, -0.0938344151, 0.0526510626, 0.0981064662, 0.2186749578, -0.0246896297, -0.6433355808, -0.1566963494, 0.0513344556, 0.7863073349, 0.2430682033, -0.7106744051, 0.0990261659, 0.4379644692, 0.0519760810, -0.3173032999, 0.3937007487, 0.4318636656, 0.2191058993, 0.4070381820, 0.7025929689, -0.2506133020, 0.5630788207, 0.5427303910
-0.1320569217, -0.7168498039, -0.1594532281, 0.1551751643, 0.5753994584, -0.1506536454, -0.0966940895, 0.1766490191, 0.1535575241, 0.1015739292, -0.6035120487, -0.0269029289, 0.3097662330, -0.0720752031, -0.0703990832, -0.6386053562, -0.2471871525, 0.3036208451, 0.2760199904, -0.0784750134, -0.6625605822, -0.1879348308, 0.0487513207, 0.3447617888, 0.2278337628, -0.2203039378, -0.6504158974, -0.2300685048, 0.3870282173, -0.5795949101, -0.3464846313, -0.0349683575, 0.0488592349, 0.1466163844, 0.2958516479, -0.3711760640, 0.2718946040, 0.2415643334, -0.4717253149, 0.0961472839, 0.1065674499, 0.2938037217, 0.5318422318, 0.0995166227, 0.0876485184, -0.0300342981, -0.5729209185, -0.0102976309, 0.0938774869, 0.3606374264, -0.5875647068, -0.6539734006, 0.2814461887, 0.2820323706, 0.3766773343, -0.2184022963, 0.0654001087, 0.5387221575, 0.1630254239, 0.3976292610, 0.0369709618, -0.2370112538, 0.0652653128, 0.3475013971
0.3114650846, 0.0831718668, -0.2366019934, -0.2138880789, 0.0890513808, 0.2984728813, 0.1564306915, -0.0546117760, 0.3737363517, -0.2803643346, -0.1616354436, 0.3571720719, 0.0207994040, 0.0955556631, -0.3300753832, -0.2917201817, -0.1954694688, 0.1068020537, -0.2635166645, 0.4878580868, -0.5467332602, 0.0413940921, 0.1490886062, -0.0416546054, -0.4307228625, -0.0298930835, -0.1687798351, -0.3647668958, -0.2024580538, 0.0329621732, -0.1771927625, -0.0111839464, -0.0202285610, -0.1989822686, 0.1270747781, -0.1752229184, 0.2458004951, 0.4552952051, -0.2219948620, 0.3525310159, -0.1373436004, 0.3484598994, 0.3811080158, -0.2904472053, -0.0537516810, 0.0844278634, -0.1133368984, -0.1050757989, 0.1713269502, -0.5129415393, -0.8124545813, -0.0374397263, 0.3040849864, 0.3570165038, 0.2715531886, -0.3704872429, 0.0364600383, 0.2290299684, 0.0055133956, -0.0310750343, -0.3207604885, -0.0970411077, -0.3231202364, 0.3619889319
0.2257276326, 0.0715994537, -0.1605356634, 0.1787382364, -0.0231336076, 0.4746620655, 0.1390462816, -0.1255222261, -0.4244560301, -0.1575816870, 0.0327087492, 0.1946870983, -0.0059649521, 0.1105743870, -0.2697742879, -0.0788166597, -0.0482535958, -0.0255322028, 0.1556389481, 0.2685764730, -0.4807337224, -0.2003548145, 0.0738891065, -0.2303914875, -0.1244658679, 0.1306202114, -0.0774658471, 0.0026995740, 0.1468442529, 0.1085822508, -0.0551045910, 0.2364846021, -0.0130693549, -0.5079052448, -0.0304996148, 0.0293186773, 0.0561362989, 0.2610768676, -0.1070254296, 0.0931750834, -0.3999647200, 0.1244838834, 0.1914910376, -0.3205498159, 0.0179693606, 0.2789735198, 0.3617506921, -0.0325239450, -0.0193010047, -0.2603655457, 0.0089173522, -0.2053422034, 0.1871592999, 0.4523558319, 0.1568569243, -0.4098230600, -0.3771044314, 0.1811681390, -0.0431036837, -0.0048592552, -0.0390579365, -0.0435812548, 0.1674181968, 0.4050866961
0.0367781892, -0.0238977205, 0.0326679125, 0.2239534706, 0.0890046209, -0.0269016437, 0.0877394825, -0.0448773801, -0.2643696368, -0.0869064853, -0.1212165952, 0.0534682944, -0.3001383245, -0.0768046826, -0.1490488946, -0.0522264987, 0.0237229671, -0.2291087508, 0.4627392590, -0.0110694598, -0.1454683691, 0.0252995007, 0.2378416508, -0.0142620644, 0.1636691242, -0.1835870743, -0.2088526338, 0.3135127127, -0.2182580531, 0.3791113794, 0.0838094950, 0.3897297382, 0.0414147750, -0.0591925308, 0.0893497020, -0.4205037355, -0.0001046127, 0.0408904329, 0.2959562242, -0.5546064377, -0.3687744439, 0.1907719523, -0.1518122852, -0.0770058557, 0.0020468310, 0.0681127831, 0.2801834643, -0.0125653697, 0.0027582627, -0.2429797202, -0.3898299038, -0.0758258104, 0.1161061898, 0.0804120004, 0.1603377610, 0.3161315322, -0.2750788331, -0.0081128189, -0.1403404325, 0.0491444170, -0.0530837625, 0.1131880879, -0.0279388316, 0.0382166207
0.2428163439, 0.1615083069, -0.0275764596, 0.1310317516, 0.3189621270, 0.1878519654, 0.1684473157, -0.0284687988, -0.0260792226, 0.2265568972, -0.0576065220, -0.0491899475, -0.3645699024, 0.1204077154, 0.1144520864, -0.0121336821, 0.0434718207, 0.0137573397, 0.2584015429, -0.0983236209, -0.2158829570, 0.1865580976, 0.0426858515, 0.2789618671, -0.0045744386, 0.1731868088, -0.4547171593, 0.1763433814, -0.0110503724, 0.1762587279, -0.0937590227, 0.1019077972, 0.0792369395, -0.0554378219, 0.0447711125, -0.8407015800, -0.0174710657, -0.1411504298, -0.0635645911, -0.3000954688, -0.5004179478, 0.0876399279, -0.2286151350, 0.0228064433, 0.1337340772, -0.0625226870, -0.1843200028, 0.1092289239, 0.0509960838, -0.2139669657, -0.2195176631, -0.0377497710, -0.4520484805, 0.2421787083, -0.2214081585, 0.3762612045, 0.2095306516, -0.7182333469, 0.0564084165, 0.0745738074, 0.2486397922, -0.0188160092, -0.3159205019, -0.4081613719
0.0294578057, 0.0938459933, 0.0435563326, 0.2043930888, 0.2900927365, 0.2655296922, -0.0651092529, 0.0998772904, -0.2928664088, 0.5456150174, 0.3565006554, -0.0698869675, -0.5866642594, 0.2650902569, 0.4225476980, 0.2751560211, -0.0097581632, 0.1000263691, -0.0618499890, 0.3479838073, -0.4571660757, 0.2575289011, -0.1272076219, 0.3761080205, 0.0162523966, 0.1855219901, -0.9880338907, 0.0328469314, 0.1355998814, -0.2585972548, -0.0238175988, -0.4707432985, -0.0438581258, 0.3451075554, -0.0736271143, -0.7163796425, 0.1790021509, -0.2284951508, 0.0206978675, -0.3792265058, -0.5315202475, -0.2739127874, 0.0777670294, -0.3042227924, 0.3111985922, -0.1174908280, -0.3718971610, 0.0272781160, 0.2107984126, -0.3163514435, 0.2469108105, -0.1189019978, -0.8483314514, -0.0975432992, -0.6567274332, 0.2111100107, 0.0272587333, -0.7826031446, 0.0266523398, 0.3815338016, -0.0539385863, 0.0055281380, -0.2017571479, -0.1245126650
0.2214652598, 0.7365973592, -0.0783186853, 0.5070243478, 0.1959504783, 0.1681895703, 0.0949393213, 0.0527945310, 0.3067974150, 0.8569864035, -0.3974378109, -0.2610235512, -0.6610188484, 0.0305273663, 0.6699085236, 0.1462918520, -0.3207282126, -0.3821940720, -0.6802632213, 0.1701663584, -0.0927055925, 0.0828833133, 0.0604366846, -0.2145933658, 0.1426883191, -0.2511283159, -0.6308376193, -0.1004972532, 0.0288976692, -0.8459075689, -0.0916421041, -0.4551364481, -0.1070786566, -0.0740851462, 0.0165747721, -1.0737903118, -0.1338667870, -0.0543744676, -0.2096244544, 0.6886141300, -0.3452020884, -0.5868331194, -0.0094401333, -0.5374550223, 0.3931660652, -0.2521460354, -0.1386666298, -0.0607432835, -0.0861261636, 0.0652763769, 0.0859792903, 0.1113223359, -0.6225470304, -0.6654593349, -0.6285360456, -0.1230217442, -0.3502546549, -0.5594162941, -0.3585506082, -0.1473230720, -0.4411860108, 0.0717534870, -0.0496043637, 0.2921085656
0.3206587732, 0.1367300749, 0.4044432342, -0.1166647300, 0.1148709580, -0.4582524598, 0.0973301530, -0.0589449219, 0.6442016959, 0.2887972295, -0.4474163353, -0.2444902360, -0.6458179355, -0.2743735909, -0.1439705193, -0.0330589972, -0.2661051452, -0.7773908973, -0.4781827629, -0.1032853946, 0.4942177236, 0.1062486544, 0.5459430814, 0.5020389557, 0.0761069134, -0.4888523817, 0.0078851618, 0.1931565106, -0.2775306106, -0.2615402043, 0.2307027131, 0.0290497076, 0.1321256161, -0.4215193987, 0.2840919793, 0.0395630002, -0.0348937735, 0.3004744053, -0.3995961547, 0.4698613286, 0.0301392265, 0.1292984039, -0.2999511063, -0.0161943696, -0.2779741883, -0.0788438246, -0.3250659704, 0.0468936414, -0.5939777493, 0.7687420249, -0.2914907038, 0.2717458904, 0.0991227478, -0.5351672769, -0.1816225499, -0.4225514233, -0.3194322288, -0.0547607802, 0.5113022923, -0.4863554537, 0.0512339324, 0.5899206996, -0.1725436449, 0.1497623324
-0.4214490354, 0.3149770200, -0.1238774285, 0.0518075339, -0.2957149744, -0.0365012847, 0.0189509746, -0.3285492361, -0.5388610959, -0.2718069851, 0.3693689406, -0.3759514987, 0.2375489920, 0.4299826920, -0.3230136335, -0.3096759617, -0.3249787092, -0.0141218305, 0.1268158704, -0.0774354562, 0.1595435888, 0.0885019898, 0.3991694450, -0.3001520634, -0.1929698586, -0.0906749889, -0.1364061236, -0.1091465726, 0.1266529411, 0.1962321252, 0.0306772068, 0.1908304989, 0.4286231399, -0.2379328012, 0.1277600080, 0.1700376123, 0.0858174041, 0.1231742576, 0.1726515740, -0.0118190274, -0.0460447967, -0.0937308222, 0.1059580967, -0.1051592380, -0.2034507543, 0.0979731083, -0.2659900486, -0.1319855750, -0.3344554603, 0.3489091396, -0.0708185509, -0.3945322931, 0.1281582564, 0.0972450748, 0.3544359505, 0.2170282453, 0.1472090334, 0.0060813101, 0.1585283428, -0.2732651532, 0.1763660908, 0.0016990547, 0.3839415014, 0.1407787800
0.2898185551, 0.1236221865, -0.2024642974, -0.0797257200, 0.1219563484, -0.0105760712, 0.2240765989, 0.0714643598, 0.4213169217, -0.2819681764, -0.1629151851, 0.0832564682, -0.0190630928, -0.1076393649, -0.1563141644, 0.3307901323, -0.0792206377, -0.0855083093, 0.6536337137, -0.0378990136, -0.4362038672, 0.2579064667, 0.0016952866, 0.1302103549, -0.0050453143, 0.4640735388, -0.0302532539, 0.2613867819, -0.0616639704, 0.1993783116, -0.1060964689, -0.4478077590, -0.2830428481, -0.3260968328, -0.2858256102, -0.2268354148, -0.1266427487, -0.0321750417, -0.2372014970, 0.2518299520, -0.0601335019, 0.3875507116, -0.2647217214, 0.0833013132, -0.0510398187, 0.2544537783, -0.3566714227, -0.0830650926, -0.4713476300, 0.3299463689, 0.1746525466, -0.4726884663, 0.1319481432, -0.0315088704, -0.2131919116, -0.1721175313, 0.1506549567, 0.1090051234, 0.1120954975, 0.1314849705, -0.1422826201, -0.2354908586, -0.0138512431, -0.0150315240
-0.1876875907, 0.1610158235, 0.2184475213, -0.3063425720, -0.1413732916, -0.0432574674, -0.1006384864, 0.0021513805, -0.0028717706, -0.0469607152, 0.3398579359, -0.1731032580, 0.1283764690, -0.0737850592, 0.0919168219, 0.3300210238, 0.0565547533, -0.1134441346, -0.0385557748, 0.0025466215, -0.5640832186, -0.0204294883, -0.2186601907, 0.2610573471, -0.0215318706, 0.3045976162, 0.0728154108, 0.1496633291, -0.0316126160, -0.3504239917, -0.2692391574, -0.4685829580, 0.2127015889, 0.4128610194, -0.0348639041, -0.7548063993, -0.0737383440, -0.2557156384, 0.3566955030, -0.3275632560, -0.0665829554, -0.3692342043, -0.3620157540, 0.2406935245, -0.1814129651, -0.3380237520, -0.6782463789, -0.0061903917, -0.2333023399, 0.1431752741, 0.1422860771, -1.5259529352, 0.1053276882, -0.8720292449, -0.1275297999, 0.2360186577, -0.0117542082, 0.0312294606, -0.8561896086, -0.1509805620, 0.1528785825, -0.1695471406, 0.3373887539, 0.0042080311
-0.0036559869, 0.2842790484, 0.3687150478, -0.2267561853, -0.1937132478, -0.0923278630, 0.0467458591, 0.0591500998, 0.0849047303, 0.1946752071, 0.0736416876, 0.1172445938, 0.2105693966, 0.0572253242, 0.0650142655, 0.4414029419, -0.0321832672, 0.2712971568, -0.2059953362, 0.2104934454, -0.5306395888, 0.3296256661, 0.0169649422, 0.2262326926, 0.0721134245, 0.1972443908, 0.2070840299, 0.3643488288, -0.0393015444, -0.2222789824, -0.2163226157, -0.0626806319, 0.1524009258, 0.2368689626, 0.2224903405, -0.3763561845, 0.0303693525, -0.2527151108, 0.0508763790, -0.2344224751, -0.0299014077, -0.2272524536, -0.2348949909, 0.1244530156, 0.0861690640, -0.2161283344, -0.4029186964, -0.1107186526, 0.2176516801, 0.4203488529, 0.4440889657, -1.6057553291, -0.0525501110, -0.7139263153, -0.3010441959, 0.1600594074, 0.1110664830, 0.1973427236, -0.2902461290, -0.1320256740, 0.1640504450, -0.3752270043, 0.3963907361, 0.1726646572
0.0708360597, -0.1828721613, -0.0401441567, 0.0014987853, 0.2960820496, -0.0697028339, 0.3765778840, 0.3001925945, 0.1769504249, 0.0658254176, 0.2121014148, -0.1565845013, 0.2804939449, 0.3088744581, 0.0043200809, 0.3838529587, 0.0484557636, 0.3031105101, -0.0917331651, 0.0833301172, -0.5958313346, 0.4920406938, 0.0438137054, 0.1945153624, 0.0281219445, 0.0391259827, -0.1090920195, 0.3216042817, -0.0988530293, -0.4125572145, -0.2481603175, 0.0319105051, 0.0488924943, -0.0030240628, 0.3175048530, -0.3149925768, 0.0395394042, 0.0657173097, 0.1426368952, 0.0763811991, 0.0442978777, -0.5136323571, 0.0683251396, 0.0942536518, 0.1875172853, -0.4045113623, -0.4504022598, -0.0683218166, 0.2718994021, 0.4613383710, 0.1597306132, -1.0868228674, -0.2422159165, 0.0717163309, -0.1800047904, 0.2851456702, 0.1633253694, 0.2403807491, -0.1010985225, -0.2057179660, 0.3225442171, -0.2751073241, 0.2760192454, 0.2577850521
0.1169831753, -0.1813633293, -0.0650557056, 0.1239508390, 0.7089718580, 0.0789683908, 0.4084356129, 0.0559847467, 0.4558504224, 0.2138386220, -0.3057357073, 0.0198035855, -0.0807085857, 0.0218754616, 0.2982306778, 0.3128399849, 0.0025480499, 0.1074572504, -0.0981192142, -0.0220461432, -0.6612038612, 0.4452763796, -0.1133355424, 0.2549605668, -0.0009548656, -0.2841393948, -0.4238841236, 0.1332862526, -0.1486842930, -0.5179572105, -0.0898994803, -0.0505025834, 0.0425657928, 0.2204029560, 0.5277463198, -0.0825962201, -0.1542445123, -0.2066222578, 0.0190484319, -0.0523055643, -0.0252783000, -0.2625948787, 0.0224404838, -0.0599055514, 0.1630664170, -0.0798725933, -0.0193200000, -0.0360537693, 0.1294568479, 0.2140448242, -0.3680782616, -0.5454238057, -0.3830721676, 0.5509466529, 0.0455458574, -0.0221717991, 0.4437572360, 0.2679452002, 0.2237194479, 0.1701058447, 0.4077517092, -0.0829405487, -0.1662305444, 0.3097879887
0.3252042532, 0.0835285783, -0.0456256568, 0.2832056880, 0.3837993741, -0.0290611591, 0.4364442527, 0.3950639963, 0.8988698125, 0.1404818296, -0.5200725198, 0.1541676968, 0.0343294665, 0.0819073096, -0.1724301130, 0.2836429477, 0.0235636458, 0.2338134050, 0.1257322729, 0.2729711235, -0.1113310084, 0.4215452373, -0.0521963611, 0.1480848789, 0.1556867957, -0.5174779296, -0.5019747019, -0.1578757465, -0.0275159478, -0.3570848405, -0.1620283574, 0.0200869180, 0.1395053864, 0.3536667824, 0.5759110451, -0.0777194276, 0.2725375891, 0.3201301396, -0.2120511085, 0.0374237411, 0.3204924166, -0.1189514250, 0.4310627282, -0.1094581261, 0.1473388672, -0.1211349368, -0.1397878230, -0.1606378108, 0.1235109791, -0.4763249457, -0.6245795488, 0.0758338943, 0.1205100566, 0.3396148980, 0.1564436257, 0.0200004075, 0.0508437082, 0.2511434257, 0.1843913496, 0.2067284286, 0.0943800360, -0.2048432827, -0.3517428935, 0.0223470386
0.2710890174, 0.0471682847, -0.2980465591, 0.2381817698, -0.1066015810, 0.3137160838, 0.4441161752, -0.0011724548, 0.5175192952, 0.0702889487, -0.3202862442, 0.0228959136, -0.1042863801, 0.0855326727, -0.3832806349, 0.2048979104, -0.0982475579, 0.1485755891, -0.0143086491, 0.2947652340, -0.1479950547, 0.3192295730, 0.1116000190, -0.1208877936, 0.0742087141, 0.3669225276, 0.1557495147, 0.0181791876, 0.0633082911, -0.1714969426, -0.2872560024, 0.1610515714, -0.1596834064, -0.0269977693, 0.6076609492, -0.1689651459, 0.1468970180, 0.4353665113, -0.0771560445, 0.3081739843, -0.1428183168, -0.0904487967, 0.3096617758, -0.1181668416, 0.1819141805, 0.0120828934, 0.1251662523, -0.1347393245, 0.1270865798, -0.2997257411, -0.3720934689, 0.2044966668, 0.4816723466, 0.2947255969, -0.0556184798, -0.2102436125, -0.3125534058, 0.0514387600, 0.0675743148, 0.1283534318, -0.5085646510, 0.0243315473, 0.0082151880, -0.0339504480
0.1419482976, -0.0079880916, -0.2175492048, 0.1016359180, -0.0069556064, 0.3894691765, 0.2423321009, -0.3099922836, -0.0060098432, 0.0417905636, -0.0651497245, 0.1497341394, 0.1027247608, 0.1234416887, -0.2459101081, 0.3219772279, -0.2336059809, 0.1206188798, 0.1873812377, -0.0980231464, -0.3723249733, 0.0670797303, 0.2133665085, 0.0645229220, 0.1202384010, 0.2371746749, 0.2124928087, 0.1056043878, 0.0058204243, 0.1036322862, -0.1156286150, 0.0665365458, -0.1460286230, -0.0792470202, 0.3940930665, 0.0162497237, -0.1104174033, 0.2528778911, -0.3155209422, 0.0240472555, -0.1296490580, 0.0136778401, 0.1158418283, -0.4103637040, 0.1957626939, 0.0542555302, 0.3071410954, 0.0296876542, -0.0370573066, -0.3694948256, 0.1724765152, -0.1447878331, 0.1348102987, 0.3739514053, 0.0596155822, 0.0517338328, 0.2585796714, 0.7559735775, -0.1401844919, -0.0367513821, 0.0108776744, 0.0417569652, -0.0561779924, 0.6517735124
-0.1550116092, 0.0202544332, 0.1534276903, 0.4674373269, 0.3162523806, 0.2642390728, 0.3075733185, -0.2356659621, 0.2110199034, -0.0074192341, -0.1165704504, -0.1609244049, 0.1044592187, 0.3319821060, -0.1537300944, 0.2321088165, 0.1595086008, -0.1442294270, 0.1533272713, 0.1086484790, -0.4022525251, -0.0888480321, -0.1125526428, 0.0099143935, 0.1514211893, -0.0753756985, 0.1026797071, 0.5567902923, 0.2962688208, 0.3488506675, 0.2184780836, 0.3289652169, 0.1913656890, 0.0940355137, -0.2419733852, -0.0377294086, -0.1478784382, 0.0351367034, 0.2773870826, -0.2554142475, -0.3205214143, 0.0589009821, -0.0509695411, -0.1253044158, 0.1953803897, 0.4109356105, -0.0181658566, -0.1252088547, -0.0131207621, -0.3211976290, -0.3702518642, -0.0328807756, -0.2014945000, 0.3113344312, 0.1623353064, 0.4088263214, 0.2428410053, 0.3803378642, -0.1901251823, -0.1202422827, 0.1620283872, 0.1775373220, 0.2416225523, -0.1566730291
