0.1634237021207809, -0.5659233927726746, -0.1092847213149071, 0.1127831712365150, -0.0020083726849407, 0.1669303625822067, 0.2903385758399963, -0.3721790611743927, -0.0198252685368061, -0.3224036693572998
-0.4319673776626587, 0.2131431549787521, 0.3037238419055939, 0.7989873290061951, -0.0807308852672577, -0.9905846714973450, -0.9606074690818787, -0.2606618702411652, -0.7520369887351990, -0.1245091110467911
0.4446362257003784, -0.1387692689895630, 0.1090515777468681, -0.2987139821052551, -1.3308658599853516, -0.2037273347377777, 0.0357545614242554, 0.5013436079025269, -0.3099960088729858, -0.2627513408660889
-0.9986525177955627, 0.4905987381935120, 0.4230867028236389, -0.3158959448337555, -1.0773222446441650, 0.3554233014583588, 0.0680896863341331, 0.1219782233238220, 0.3180656433105469, -0.7321866750717163
-0.0828993692994118, -1.2681549787521362, 0.3005152344703674, -0.6123847365379333, 0.3860256671905518, 0.4278727173805237, 0.3072066903114319, -0.0680088475346565, 0.4068978726863861, 0.1016460284590721
0.1369820535182953, -0.4869283139705658, 0.4323015213012695, 0.2868205010890961, 0.1806679666042328, -0.1794125735759735, 0.2414235174655914, -0.6979520320892334, -0.2723876237869263, -1.0606347322463989
0.1136268898844719, 0.2390909343957901, 0.3208122551441193, -0.5123499631881714, 0.4947282969951630, -1.3290706872940063, -0.8341834545135498, 0.3349190354347229, -0.1606070846319199, 0.2053114622831345
-0.5338155627250671, -0.0775351002812386, 0.0739650353789330, 0.2817586660385132, 0.0321216657757759, -0.0945684313774109, 0.3707362711429596, -0.1568894237279892, -0.0832548812031746, 0.0076209818944335
-0.6220170259475708, -0.3407452702522278, -0.4789345562458038, 0.3378747105598450, 0.0896058306097984, 0.5183217525482178, -1.0058128833770752, -0.6567963361740112, -1.0901532173156738, 0.4437434375286102
-0.4425615668296814, -0.4876815974712372, -0.2669657468795776, 0.0285481177270412, 0.3597305417060852, -0.2057213634252548, 0.1722133159637451, 0.1109224632382393, -0.1710296571254730, 0.2972328960895538
-0.3732345700263977, -1.0105541944503784, 0.1785166412591934, -0.2084078639745712, -0.0483300723135471, 0.3160398304462433, -0.7730864286422729, 0.4810747802257538, 0.3514183759689331, -0.0438366048038006
-0.0330276712775230, -0.4707510173320770, 0.0350918881595135, -0.1060429066419601, 0.1615206748247147, -0.1619024425745010, -0.0090318107977509, -0.4525465965270996, 0.1597911268472672, 0.0423078984022141
-0.0216833762824535, 0.2301466315984726, 0.0695845037698746, 0.3491148650646210, -0.5969261527061462, 0.2547241151332855, -0.2066942602396011, -0.1135914921760559, 0.2142894417047501, -0.3661025166511536
0.3141364157199860, 0.2226112037897110, 0.4607003629207611, 0.2428040802478790, -0.1966109871864319, 0.2518721818923950, -0.3175679445266724, -0.3431519567966461, 0.3292398154735565, -0.4242500662803650
-0.3499040305614471, 0.3460058569908142, -0.2639773190021515, -0.3957735598087311, -0.2100148946046829, 0.5530628561973572, 0.3305831253528595, 0.7022215127944946, -0.7877457737922668, -0.3691529035568237
0.2832553386688232, -0.1127888038754463, 0.3047282099723816, -0.0516130588948727, -1.2520645856857300, 0.2312149256467819, -0.1930076777935028, -0.6179206371307373, 0.1833267956972122, 0.3634987175464630
-0.6830712556838989, 0.2635923624038696, 0.3879986703395844, 0.0081243319436908, -0.5314625501632690, 0.2350608110427856, -0.0644002333283424, 0.3946258127689362, -1.1325033903121948, -0.4195883870124817
0.5359656810760498, 0.8869820237159729, -0.5510455369949341, -0.3837350904941559, 0.2162767052650452, -0.7710562944412231, 0.2066305130720139, 0.3894595503807068, -0.0666711702942848, 0.2454273253679276
0.3214744925498962, -0.1671946197748184, 0.4034629762172699, -0.0125097539275885, -0.4301583766937256, 0.3420587182044983, -0.6102781891822815, -0.0699849203228951, -0.0011163463350385, 0.4055773317813873
0.1027424931526184, 0.1909992843866348, -0.8157920241355896, -0.8455419540405273, 0.0018614993896335, 0.2180251181125641, 0.7378391027450562, -0.7231040000915527, -0.4346216022968292, 0.2526047229766846
-0.0831171944737434, 0.1817196607589722, 0.2625754475593567, 0.5478817820549011, -1.5653592348098755, 0.4563023149967194, -0.6425033211708069, 0.3121630251407623, -0.3250099420547485, 0.3266423642635345
-0.1209970191121101, 0.1916429847478867, -0.8600577116012573, -0.0002475815126672, 0.1369690001010895, -0.4278517365455627, 0.4553699195384979, 0.0707919001579285, -0.7495972514152527, -0.3453290760517120
0.2716544866561890, 0.0709175616502762, 0.5122683644294739, -0.2192113697528839, -0.5121014714241028, 0.2631884515285492, -0.5111953020095825, -0.4056364297866821, -0.8469286561012268, 0.1550362557172775
-0.0696953684091568, -0.1455176174640656, -0.2789569199085236, 0.2806046605110168, 0.0401070117950439, 0.0209703799337149, -0.5998619198799133, 0.2824478745460510, 0.3038788735866547, 0.3707495927810669
-0.7440664172172546, 0.5063363909721375, 0.0700525268912315, 0.3126784861087799, 0.6964185833930969, -0.2109111696481705, -0.4692483246326447, -0.0255313739180565, -0.2544297873973846, -0.9090752601623535
0.2498267143964767, -0.5166305899620056, 0.3441754579544067, -0.3898191750049591, 0.3151248395442963, -0.2908755540847778, 0.3293679654598236, -0.7284515500068665, 0.0010323144961149, 0.4266063570976257
-0.4610448777675629, 0.3730410635471344, 0.4010393917560577, -0.9551447033882141, 0.4612885117530823, -1.0734173059463501, -0.1689743697643280, 0.4488309621810913, 0.2694521248340607, -0.2812871932983398
0.0815528780221939, 0.0153499450534582, 0.1456159949302673, 0.2856017947196960, -0.1019496172666550, 0.2354840636253357, -0.2619830369949341, -0.2383961677551270, 0.3569221496582031, 0.2063354402780533
0.3077878355979919, -0.5523962378501892, 0.1700623333454132, -0.0334036760032177, -0.1870427280664444, -0.4639663100242615, -0.3676311969757080, 0.3499027192592621, 0.2559965550899506, 0.2113817036151886
-0.0920194983482361, 0.3677434921264648, -0.7228521108627319, 0.1830148547887802, -0.8284308314323425, 0.5184388160705566, 0.1341744661331177, 0.2538384497165680, -0.4601591825485229, -0.4993303418159485
0.4620964527130127, 0.3888348042964935, 0.1980711221694946, -0.3343050181865692, -0.2602172791957855, 0.0834731012582779, 0.5940167903900146, 0.5299661159515381, -0.5733826756477356, -0.9193920493125916
0.2957856059074402, -0.4085336029529572, -0.3360536992549896, 0.1428349912166595, -0.2916611433029175, -0.3266217410564423, -0.1907067149877548, 0.1123581826686859, 0.3388245701789856, 0.1085537895560265
-0.1215799599885941, 0.2562630176544189, 0.1891829073429108, 0.3975528776645660, 0.2435286492109299, -0.4733353853225708, -0.7362297773361206, 0.1881157159805298, -0.5604540109634399, 0.3314788937568665
-0.6687948703765869, -0.0450277440249920, -1.3802449703216553, 0.2441952079534531, 0.2816054821014404, 0.4450700283050537, -0.0819844529032707, -0.0563946627080441, 0.0383442863821983, 0.1529885381460190
-0.5350642800331116, -0.0961141586303711, -0.2879937589168549, 0.3969500660896301, 0.0448751077055931, 0.0951743870973587, -0.0934752970933914, 0.2451333999633789, 0.3355479538440704, 0.0249114762991667
0.3176572620868683, 0.8256880640983582, -0.3856450617313385, -0.2082609236240387, -0.0704984292387962, -0.3190896213054657, 0.1778678894042969, 0.5937797427177429, 0.4434374272823334, -1.0550470352172852
-0.2716740369796753, 0.1139821708202362, -0.3253283202648163, -0.8413935303688049, 0.6588861346244812, -0.2477849870920181, -0.8289229273796082, -0.3597600162029266, 0.3490893244743347, 0.2313610762357712
-0.3283120989799500, -0.4532637000083923, -0.8065087795257568, -0.3921824395656586, -0.1069301515817642, 0.3009297549724579, -0.2151712775230408, 0.2039028406143188, 0.2944779694080353, 0.6070898771286011
0.5009601116180420, -0.0940022990107536, 0.0564263015985489, 0.0180760622024536, -0.0600854009389877, -0.8056808114051819, -0.0089236209169030, -0.0837841406464577, 0.1771408319473267, 0.3841788470745087
-0.8551614284515381, -0.7577058076858521, 0.0469591282308102, -0.3407149314880371, -1.0058193206787109, 1.0808091163635254, 0.4656758904457092, 0.2693118155002594, 0.0886770859360695, -0.0010488141560927
0.1694695055484772, 0.0448481626808643, 0.0862694904208183, -0.3983643949031830, 0.2416152954101562, 0.2602768242359161, -0.2721964418888092, -0.4061253964900970, 0.2731865346431732, 0.0153533546254039
0.0144589422270656, -0.6320212483406067, 0.1818474233150482, -0.7274758815765381, 0.4407184422016144, 0.0414986982941628, 0.3090373873710632, -0.4858178794384003, 0.4492976665496826, 0.0694785714149475
0.1473337560892105, 0.7168567180633545, 0.3109894394874573, -0.0051979324780405, 1.0199134349822998, -0.6491507291793823, -0.3139269351959229, 0.6252601146697998, -0.0804062113165855, -0.4923686981201172
0.4076667129993439, -0.3950270116329193, -0.2108132988214493, 0.4129891395568848, -0.1523365974426270, -0.0789269730448723, -0.2867617011070251, 0.0023825289681554, -0.6475344896316528, 0.0152593320235610
0.1151089146733284, 0.7750532627105713, -0.6187074184417725, -0.3956923186779022, -0.1627983599901199, 0.1158165708184242, 0.1298269182443619, 0.0430702716112137, -0.6366165280342102, 0.2540798485279083
-0.2055365443229675, -0.1012209728360176, 0.4273180365562439, 0.4170294702053070, -0.5701788067817688, -0.3877361416816711, -0.4382330477237701, -0.0885835438966751, 0.2235344648361206, -0.2137042135000229
-0.5338228940963745, 0.5254265069961548, -0.7365462779998779, -0.4421433508396149, 0.0903537347912788, 0.5834859013557434, 0.7112625241279602, 0.0322880633175373, -0.1921689510345459, -0.5208796262741089
-0.0402823612093925, -0.0231864266097546, 0.1179912984371185, -0.1776964664459229, -0.0533594079315662, -0.3892600834369659, 0.2290485799312592, -0.4868614971637726, 0.1190531626343727, -0.2685314118862152
0.4869648516178131, 0.3075162470340729, -0.1708181500434875, 0.2994460761547089, 0.4316526353359222, -0.4816316068172455, 0.2591260969638824, 0.4277949631214142, -1.1262217760086060, 0.2338739037513733
0.0834420993924141, -0.4896418750286102, 0.0733110308647156, 0.2377365380525589, 0.1936459392309189, -0.1133701428771019, -0.3575170040130615, -0.2592000663280487, -0.1930962651968002, -0.0130254719406366
-0.2317453473806381, -0.0568754337728024, -0.7931168675422668, 0.2125494182109833, 0.3653558790683746, 0.5445906519889832, 0.1864217072725296, -0.4453327655792236, 0.1737005859613419, -0.1024724692106247
-0.4357729554176331, 0.4748446643352509, -0.5813897252082825, -0.9523760676383972, 0.7091771960258484, 0.3158619999885559, 0.3458821475505829, 0.1229216828942299, -0.1422009468078613, -0.3005443513393402
0.5250800848007202, 0.0708592385053635, -0.3407302498817444, -0.0717408657073975, -0.6897655725479126, 0.1144826933741570, 0.3843841552734375, 0.0090406090021133, 0.3303252756595612, -0.3063441514968872
0.0633348673582077, 0.1423005610704422, 0.4734604358673096, -1.2073190212249756, 0.5206203460693359, -0.3581479191780090, -0.0366138555109501, 0.6345810294151306, -0.1272743493318558, -0.0188547093421221
-1.1086541414260864, 0.1094131171703339, -0.2986240983009338, 0.5466919541358948, -0.0157488621771336, 0.4542712867259979, -0.2670186460018158, -1.0517570972442627, 0.2745238244533539, 0.3862055540084839
0.0656802952289581, -0.8296922445297241, -0.4345458745956421, -0.2150857150554657, -0.1155208572745323, 0.1309016197919846, 0.1108572408556938, 0.0015902066370472, -0.1396776586771011, 0.2766410112380981
-0.6775355935096741, 0.3296985626220703, 0.3558037579059601, 0.2886580824851990, -0.5285152792930603, -0.5168335437774658, 0.4515531063079834, 0.1458810269832611, -0.2209713757038116, 0.0508342981338501
-1.0229336023330688, 0.1674087345600128, 0.6249813437461853, 0.5782957077026367, -0.4751339554786682, -0.1966423243284225, 0.0061515299603343, 0.4362242519855499, -0.5682160854339600, -0.9787206053733826
0.1955253034830093, 0.3288819193840027, 0.5004643797874451, -0.1282133162021637, 0.0973056927323341, -0.2083584219217300, -0.0229821484535933, 0.7002521157264709, -0.1095968410372734, -1.5395097732543945
-0.8270261883735657, -0.0985361486673355, -0.0479281917214394, 0.4454395174980164, 0.3225562870502472, 0.2000977993011475, -1.0637121200561523, 0.1645446419715881, 0.0379763506352901, 0.3923110365867615
-0.6992763876914978, 0.4395072460174561, 0.7007080912590027, -0.4877748191356659, -0.1426496654748917, -0.5807831883430481, 0.0209715515375137, 0.3556770086288452, 0.2719481587409973, -0.0143123390153050
-0.0126480814069510, -0.4063149094581604, 0.3807489871978760, -0.3532394170761108, 0.0230242516845465, 0.2161855399608612, 0.3740938007831573, -0.2846304178237915, 0.0095023764297366, -0.9684725999832153
0.3677078485488892, -0.4337594509124756, -0.3693539202213287, 0.4347350597381592, -0.9412373900413513, 0.5169031023979187, 0.0731922388076782, 0.2825839519500732, -0.3054466247558594, -0.2518783211708069
-0.2005721777677536, 0.3389437496662140, 0.0190525259822607, 0.2158209979534149, -0.4447774589061737, 0.0786592662334442, 0.3811139166355133, -0.6674962639808655, 0.2666000425815582, -0.2268855273723602
