-0.4923254251480103, 0.7397069931030273, 0.6355530023574829, 0.2711544334888458, -0.1467878371477127, -1.2129203081130981, -1.0271140336990356, 0.3966714441776276, 0.0327627807855606, -0.3488889038562775
0.5338048934936523, 0.8180896639823914, 0.3559265732765198, -0.8532940149307251, 0.1823022663593292, -0.2098560035228729, 0.6674927473068237, 0.2781096994876862, -0.1554709523916245, -1.3376810550689697
0.4910812377929688, -0.6781241893768311, -0.1618218272924423, -0.2632210254669189, -0.0474025607109070, 0.3799388110637665, -0.3560371100902557, 0.0379052236676216, 0.1056702509522438, 0.3076904714107513
0.3465517759323120, -0.6954669952392578, 0.2216987460851669, 0.3553608357906342, 0.1212827041745186, -0.2549930512905121, 0.2598910629749298, 0.2426460236310959, 0.3036471307277679, -0.1010496169328690
0.3262285590171814, 0.0981360375881195, 0.3987085819244385, 0.4206984639167786, -0.2091827541589737, -0.5011838078498840, 0.5244702100753784, 0.9009941220283508, -1.0722016096115112, -1.6762199401855469
-0.2554186880588531, -0.3446974158287048, -0.1157159060239792, -0.1104300990700722, 0.0480385012924671, -0.4774232506752014, 0.4866955876350403, 0.4143004715442657, 0.2855142354965210, 0.3282363712787628
-1.1575404405593872, -0.8750593066215515, 0.1657826155424118, 0.9637429714202881, 0.4087084531784058, 0.0874971598386765, -1.1534594297409058, 0.6392150521278381, -1.6079710721969604, -0.0957326591014862
0.1075899153947830, 0.6633335351943970, 0.2625573575496674, -0.3120727837085724, -0.4118009209632874, 0.0209667682647705, 0.3890666365623474, -0.9527910947799683, -0.0711440071463585, -0.0297701824456453
-0.4293121397495270, 0.6298429369926453, 0.6305789947509766, -0.5173221826553345, -0.3278960585594177, 0.3503141999244690, 0.0554186329245567, 0.6376147866249084, -0.6388434171676636, -1.5841594934463501
0.2383365631103516, -0.4042973518371582, 0.2574708759784698, -0.2830813229084015, -0.0561413466930389, 0.2676444053649902, 0.4759752452373505, -0.3154847323894501, 0.4141847193241119, -0.1915809810161591
-0.0116924969479442, 1.0015308856964111, -1.1201249361038208, -0.2292305827140808, 0.1332610845565796, -0.0750287622213364, 0.2736397087574005, 0.3826456665992737, -1.0125837326049805, 0.4517423510551453
-0.2077853530645370, 0.3428482413291931, 0.2740980684757233, 0.2338794171810150, -0.1441520899534225, -0.3694691658020020, 0.1331514716148376, -0.4192751049995422, -0.1785102784633636, 0.3503522574901581
-0.6157588958740234, 0.5931246280670166, -1.1053198575973511, 0.4457867145538330, 0.5634770989418030, 0.4280073642730713, 0.3266658484935760, -0.3127049207687378, -0.2642161846160889, -0.9922716617584229
0.1096112430095673, -0.1254040002822876, -0.5539426803588867, -0.1025683581829071, 0.0604352466762066, 0.1172517836093903, 0.1945807188749313, 0.3660739064216614, 0.3564209640026093, -0.0120852300897241
0.4333463907241821, -0.4970272183418274, 0.0965305045247078, -0.5032902359962463, 0.2188926339149475, 0.1364791095256805, 0.2198397964239120, -0.5231478810310364, 0.1110635548830032, -0.5405467152595520
-0.4243139326572418, -1.0035250186920166, 0.6188676953315735, -0.3825006484985352, 0.1731976419687271, 0.0233934726566076, 0.5000708103179932, -1.0884023904800415, 0.3270190060138702, 0.3261144459247589
0.5960805416107178, -0.7629835009574890, 0.2307773530483246, 0.1260070055723190, -0.7716077566146851, -0.1498156785964966, -0.4043664038181305, 0.2246461957693100, -0.3983086049556732, 0.4578055739402771
-0.8794923424720764, 0.2201953381299973, -0.3192220628261566, -0.8341078758239746, 0.3950117528438568, -0.1704383045434952, 0.5769774913787842, -0.7872419357299805, 0.2451779991388321, 0.3522473573684692
-0.7645174264907837, 1.0793565511703491, -0.3213373422622681, 0.6197825074195862, 1.5002238750457764, -1.4497535228729248, -0.3818507790565491, 0.5406071543693542, -0.4991521537303925, -1.1615487337112427
-0.0069429632276297, 0.1268550157546997, -0.1574206203222275, 0.0231913607567549, -0.5797172784805298, -0.2687197029590607, 0.3994607031345367, 0.1285279095172882, 0.0874164104461670, 0.2737624645233154
-0.1775004714727402, 0.2762818932533264, 1.0821959972381592, -0.1867280155420303, -1.1306084394454956, 0.3370342850685120, -0.0716078653931618, -0.0540349334478378, 0.3809288144111633, -1.4763218164443970
-1.2146561145782471, -0.3025680482387543, -0.9128603935241699, 0.3726247549057007, 0.5935277342796326, 0.2476759403944016, -1.4858559370040894, -0.0469485260546207, 0.1705621629953384, 0.2908981144428253
0.1481166929006577, 0.3723262846469879, -0.2088362574577332, 0.1469543278217316, 0.1358505487442017, 0.1660091727972031, -0.5155991315841675, 0.2526600062847137, 0.4341331422328949, -0.0929414853453636
0.1247717365622520, -0.4434748888015747, 0.4272713959217072, -0.8529193997383118, 0.1104061156511307, 0.3058701753616333, -0.5224186778068542, -0.2260833680629730, 0.2443999648094177, 0.4343261420726776
0.3223910033702850, -0.2339300066232681, 0.3565699458122253, 0.1821812838315964, 0.2327692806720734, -0.1240281611680984, -0.3186327219009399, -0.6732819080352783, 0.3620552718639374, -0.2072118818759918
-0.8626593947410583, 0.5830494165420532, 0.0798442065715790, -0.7268902063369751, 0.2398848384618759, -0.2623068988323212, 0.4558886587619781, 0.1925409883260727, 0.2672575116157532, -0.2329350560903549
-1.1446059942245483, -0.3065326213836670, 0.1906393468379974, -0.0989351794123650, -0.0807633846998215, 0.5439907312393188, -0.8219829797744751, 0.7143985033035278, -0.2581563591957092, 0.4290208816528320
-0.0922690257430077, -0.2160980552434921, 0.9176819920539856, -1.3179416656494141, 0.3266953229904175, -0.9202767014503479, 0.1627316921949387, 0.7360599637031555, -0.7262746095657349, -0.1976420134305954
0.0301475860178471, -0.3967670202255249, 0.2097242474555969, 0.3161225318908691, 0.1236590072512627, 0.4694435596466064, 0.4215593338012695, -1.2040117979049683, -0.0458850897848606, -0.5855132341384888
-0.4278022944927216, 0.2618711888790131, -0.2392235100269318, 0.2395104169845581, -0.3484757840633392, -0.0210179965943098, -0.8337729573249817, 0.3800432980060577, -0.7990469336509705, 0.3165293335914612
0.1664462536573410, 0.4300647675991058, 0.7017847299575806, -0.0713099837303162, -0.7632154822349548, -0.1029806360602379, -1.3436080217361450, 0.4749700427055359, -0.6916439533233643, 0.2825931012630463
-0.3632366657257080, 1.2887105941772461, -1.0036939382553101, -0.4740723073482513, -1.8946491479873657, 1.1594883203506470, 0.5339530706405640, -0.1943398565053940, -0.3660883903503418, -0.0839719921350479
0.3076100647449493, -0.8352134823799133, -0.4540118277072906, -0.0916203111410141, 0.0234237648546696, 0.4176870882511139, 0.0332503430545330, -0.0596874244511127, 0.2564669251441956, -0.0376874282956123
0.5276162028312683, -0.4491363167762756, 0.0531724765896797, -0.0164666753262281, -0.9028047919273376, -0.0842996016144753, -0.0919807776808739, -0.6017280817031860, -0.1677594482898712, 0.4200499951839447
-1.5970972776412964, -0.7820941209793091, 0.0453411005437374, 0.6038915514945984, 0.1289736032485962, 0.5266653895378113, -0.2963785529136658, -0.6501271724700928, 0.3885658085346222, 0.2428632825613022
-0.8741517663002014, -0.4059421718120575, 0.3743076622486115, -0.0381425768136978, -1.1617963314056396, 0.9187234044075012, 0.2032529562711716, 0.5050728917121887, -0.6433397531509399, -1.7745678424835205
0.2330478578805923, -0.0591288432478905, -0.3779062330722809, 0.3391287326812744, -0.6316111683845520, 0.0875340402126312, -0.2292642146348953, -0.5182701349258423, 0.3830391764640808, 0.2848430275917053
-0.5164632797241211, 0.3400180935859680, -0.4910337924957275, 0.4301097691059113, -0.2533542811870575, -0.1123709976673126, -0.4523062109947205, -0.0160614028573036, 0.3189459443092346, 0.1094138771295547
0.5415902137756348, -1.7128149271011353, -0.6043332219123840, 0.1591373831033707, 0.1120556071400642, 0.3381853997707367, -0.0398552939295769, -0.4103123545646667, -0.1571588069200516, 0.1976319402456284
-0.4899483621120453, 0.6944434642791748, 0.2504432201385498, 0.3723204433917999, 0.3479274809360504, -1.7472387552261353, -1.1640114784240723, 0.3404853343963623, -0.1711863577365875, -0.0404008962213993
0.5485043525695801, 0.1658034771680832, -0.0893128737807274, 0.2357270568609238, -1.7157782316207886, 0.4183853864669800, 0.8205699324607849, -0.3739220798015594, 0.1913587152957916, -0.3928970694541931
-0.4791274964809418, -0.9048272967338562, 0.2802729904651642, 0.3590690493583679, -0.6213878393173218, 0.4381034076213837, -1.3622637987136841, -0.5880274176597595, 0.2287074178457260, 0.5478060841560364
-0.5400001406669617, 0.1874677687883377, -0.1133626475930214, 0.3562624156475067, -0.2887972295284271, -0.0482876673340797, 0.3643243014812469, -0.6668164134025574, 0.3841108679771423, 0.1860486567020416
0.7541624307632446, -0.8348352909088135, 0.5270041823387146, 0.3377331197261810, -1.6535052061080933, 0.1755700856447220, -0.2928862273693085, -0.2692228257656097, -0.4487555325031281, -0.3118327260017395
-0.0979197621345520, -0.2354473769664764, 0.4356409311294556, -0.2372677624225616, 0.3741822540760040, -0.5136879086494446, 0.1691596508026123, -0.5622381567955017, 0.4558634161949158, -0.1819953173398972
0.0314096212387085, -0.8644472360610962, 0.2329221963882446, 0.4247675538063049, -0.1419707685709000, -0.5250539183616638, 0.1963048875331879, 0.4657679200172424, -0.1499088704586029, 0.3341057002544403
0.4854373335838318, -0.2483931779861450, 0.6350171566009521, 0.0886442884802818, -0.8946728706359863, -1.3430997133255005, -0.8947387933731079, 0.3724957108497620, -0.0176736749708652, 0.2619884312152863
0.0437882058322430, -0.1032233908772469, -0.1925062835216522, -0.0557101108133793, 0.1323048174381256, 0.1727678626775742, -0.1156092435121536, -0.0411534197628498, 0.2569306790828705, 0.0280856825411320
0.2533366680145264, 0.0793485268950462, -0.3693725764751434, -0.5823222994804382, -0.0085479849949479, -0.2054687291383743, 0.1558885723352432, -0.4204050004482269, 0.3694491088390350, 0.3342461884021759
-0.0101521555334330, 0.7302809953689575, 0.5674610733985901, 0.4938329458236694, -0.5722844600677490, 0.3943224847316742, 0.3940963745117188, 1.1993674039840698, -1.1922254562377930, -1.2710380554199219
0.4966306090354919, 0.7702895998954773, 0.4192195534706116, -0.3612450063228607, 0.4498461186885834, -1.0218123197555542, 0.0886960923671722, 1.2885162830352783, -1.1127257347106934, -0.1807380318641663
-0.9551109075546265, 0.6043971776962280, 0.4842679500579834, 0.0880906507372856, 0.1098163574934006, 0.0645541399717331, -1.0591042041778564, 0.4768718183040619, -0.0064107039943337, -0.8189558982849121
-1.4108945131301880, 0.3768996000289917, -0.1433321982622147, 0.3259550034999847, 0.5752947330474854, -0.0190692245960236, -0.6848222613334656, -0.6521259546279907, 0.5476590394973755, -0.4254227280616760
0.5202626585960388, 0.2314527481794357, -0.8155132532119751, -0.5424942374229431, 0.4159255921840668, -0.6372355222702026, 0.5127682089805603, 0.4624497294425964, -0.0885169804096222, 0.4358094334602356
0.0570314154028893, -0.5859703421592712, -0.8058949708938599, 0.3112249374389648, 0.1454256027936935, 0.3823986351490021, -0.1531793773174286, -0.0126568935811520, 0.1110435873270035, -0.0437801070511341
0.3024153411388397, 0.1443812102079391, 0.3441842496395111, 0.3705585896968842, 0.3327198922634125, -1.4586082696914673, -0.1924651712179184, 0.0618293099105358, -0.4433094561100006, 0.5130005478858948
-0.5030516982078552, -0.9663029909133911, -0.9947647452354431, 0.0585326850414276, 0.5371266603469849, 0.1836194992065430, -0.8438655734062195, 0.0354760289192200, 0.3500635325908661, 0.2327646464109421
0.2860514223575592, -0.7961207032203674, 0.9192904829978943, -0.3121411204338074, 0.1412530690431595, 0.3728811740875244, 0.0774359628558159, -0.6346056461334229, -2.0366728305816650, 0.3128695785999298
-1.3315703868865967, 0.9482848644256592, -0.3269146978855133, 1.0028367042541504, -0.3073910772800446, 0.9388935565948486, -2.3828654289245605, -0.9008333683013916, -1.7134079933166504, 0.7529432177543640
-0.0041806260123849, -0.5327849984169006, -0.1200424060225487, -1.0129762887954712, 0.3581833243370056, 0.2570612728595734, 0.4770491719245911, -0.9234666228294373, 0.4017924964427948, -0.1230926290154457
-0.4142207801342010, -0.4837412834167480, -0.5784863829612732, -1.3348802328109741, 0.5978551506996155, 0.7870942950248718, -0.3626280725002289, 0.1287962943315506, 0.6357583999633789, 0.1566875576972961
-0.1862026602029800, -0.2157440185546875, 0.2954910695552826, -0.2255009710788727, -0.9451318979263306, 0.1302178949117661, -0.7951205968856812, 0.3434413373470306, 0.3351005017757416, 0.3845237493515015
0.3738906085491180, -0.3785384893417358, -0.3406521975994110, 0.8382176160812378, 0.0869909077882767, 0.2993255853652954, 0.0313807912170887, 0.6160783171653748, -0.5178633332252502, -1.1046085357666016
0.3484171330928802, 0.1016592457890511, -0.2752663493156433, -0.8754842877388000, 0.3902508020401001, 0.5428802371025085, -1.1253515481948853, 0.4976572394371033, -0.9777561426162720, 0.6336349248886108
