0.1634237021, -0.5659233928, -0.1092847213, 0.1127831712, -0.0020083727, 0.1669303626, 0.2903385758, -0.3721790612, -0.0198252685, -0.3224036694
-0.4319673777, 0.2131431550, 0.3037238419, 0.7989873290, -0.0807308853, -0.9905846715, -0.9606074691, -0.2606618702, -0.7520369887, -0.1245091110
0.4446362257, -0.1387692690, 0.1090515777, -0.2987139821, -1.3308658600, -0.2037273347, 0.0357545614, 0.5013436079, -0.3099960089, -0.2627513409
-0.9986525178, 0.4905987382, 0.4230867028, -0.3158959448, -1.0773222446, 0.3554233015, 0.0680896863, 0.1219782233, 0.3180656433, -0.7321866751
-0.0828993693, -1.2681549788, 0.3005152345, -0.6123847365, 0.3860256672, 0.4278727174, 0.3072066903, -0.0680088475, 0.4068978727, 0.1016460285
0.1369820535, -0.4869283140, 0.4323015213, 0.2868205011, 0.1806679666, -0.1794125736, 0.2414235175, -0.6979520321, -0.2723876238, -1.0606347322
0.1136268899, 0.2390909344, 0.3208122551, -0.5123499632, 0.4947282970, -1.3290706873, -0.8341834545, 0.3349190354, -0.1606070846, 0.2053114623
-0.5338155627, -0.0775351003, 0.0739650354, 0.2817586660, 0.0321216658, -0.0945684314, 0.3707362711, -0.1568894237, -0.0832548812, 0.0076209819
-0.6220170259, -0.3407452703, -0.4789345562, 0.3378747106, 0.0896058306, 0.5183217525, -1.0058128834, -0.6567963362, -1.0901532173, 0.4437434375
-0.4425615668, -0.4876815975, -0.2669657469, 0.0285481177, 0.3597305417, -0.2057213634, 0.1722133160, 0.1109224632, -0.1710296571, 0.2972328961
-0.3732345700, -1.0105541945, 0.1785166413, -0.2084078640, -0.0483300723, 0.3160398304, -0.7730864286, 0.4810747802, 0.3514183760, -0.0438366048
-0.0330276713, -0.4707510173, 0.0350918882, -0.1060429066, 0.1615206748, -0.1619024426, -0.0090318108, -0.4525465965, 0.1597911268, 0.0423078984
-0.0216833763, 0.2301466316, 0.0695845038, 0.3491148651, -0.5969261527, 0.2547241151, -0.2066942602, -0.1135914922, 0.2142894417, -0.3661025167
0.3141364157, 0.2226112038, 0.4607003629, 0.2428040802, -0.1966109872, 0.2518721819, -0.3175679445, -0.3431519568, 0.3292398155, -0.4242500663
-0.3499040306, 0.3460058570, -0.2639773190, -0.3957735598, -0.2100148946, 0.5530628562, 0.3305831254, 0.7022215128, -0.7877457738, -0.3691529036
0.2832553387, -0.1127888039, 0.3047282100, -0.0516130589, -1.2520645857, 0.2312149256, -0.1930076778, -0.6179206371, 0.1833267957, 0.3634987175
-0.6830712557, 0.2635923624, 0.3879986703, 0.0081243319, -0.5314625502, 0.2350608110, -0.0644002333, 0.3946258128, -1.1325033903, -0.4195883870
0.5359656811, 0.8869820237, -0.5510455370, -0.3837350905, 0.2162767053, -0.7710562944, 0.2066305131, 0.3894595504, -0.0666711703, 0.2454273254
0.3214744925, -0.1671946198, 0.4034629762, -0.0125097539, -0.4301583767, 0.3420587182, -0.6102781892, -0.0699849203, -0.0011163463, 0.4055773318
0.1027424932, 0.1909992844, -0.8157920241, -0.8455419540, 0.0018614994, 0.2180251181, 0.7378391027, -0.7231040001, -0.4346216023, 0.2526047230
-0.0831171945, 0.1817196608, 0.2625754476, 0.5478817821, -1.5653592348, 0.4563023150, -0.6425033212, 0.3121630251, -0.3250099421, 0.3266423643
-0.1209970191, 0.1916429847, -0.8600577116, -0.0002475815, 0.1369690001, -0.4278517365, 0.4553699195, 0.0707919002, -0.7495972514, -0.3453290761
0.2716544867, 0.0709175617, 0.5122683644, -0.2192113698, -0.5121014714, 0.2631884515, -0.5111953020, -0.4056364298, -0.8469286561, 0.1550362557
-0.0696953684, -0.1455176175, -0.2789569199, 0.2806046605, 0.0401070118, 0.0209703799, -0.5998619199, 0.2824478745, 0.3038788736, 0.3707495928
-0.7440664172, 0.5063363910, 0.0700525269, 0.3126784861, 0.6964185834, -0.2109111696, -0.4692483246, -0.0255313739, -0.2544297874, -0.9090752602
0.2498267144, -0.5166305900, 0.3441754580, -0.3898191750, 0.3151248395, -0.2908755541, 0.3293679655, -0.7284515500, 0.0010323145, 0.4266063571
-0.4610448778, 0.3730410635, 0.4010393918, -0.9551447034, 0.4612885118, -1.0734173059, -0.1689743698, 0.4488309622, 0.2694521248, -0.2812871933
0.0815528780, 0.0153499451, 0.1456159949, 0.2856017947, -0.1019496173, 0.2354840636, -0.2619830370, -0.2383961678, 0.3569221497, 0.2063354403
0.3077878356, -0.5523962379, 0.1700623333, -0.0334036760, -0.1870427281, -0.4639663100, -0.3676311970, 0.3499027193, 0.2559965551, 0.2113817036
-0.0920194983, 0.3677434921, -0.7228521109, 0.1830148548, -0.8284308314, 0.5184388161, 0.1341744661, 0.2538384497, -0.4601591825, -0.4993303418
0.4620964527, 0.3888348043, 0.1980711222, -0.3343050182, -0.2602172792, 0.0834731013, 0.5940167904, 0.5299661160, -0.5733826756, -0.9193920493
0.2957856059, -0.4085336030, -0.3360536993, 0.1428349912, -0.2916611433, -0.3266217411, -0.1907067150, 0.1123581827, 0.3388245702, 0.1085537896
-0.1215799600, 0.2562630177, 0.1891829073, 0.3975528777, 0.2435286492, -0.4733353853, -0.7362297773, 0.1881157160, -0.5604540110, 0.3314788938
-0.6687948704, -0.0450277440, -1.3802449703, 0.2441952080, 0.2816054821, 0.4450700283, -0.0819844529, -0.0563946627, 0.0383442864, 0.1529885381
-0.5350642800, -0.0961141586, -0.2879937589, 0.3969500661, 0.0448751077, 0.0951743871, -0.0934752971, 0.2451334000, 0.3355479538, 0.0249114763
0.3176572621, 0.8256880641, -0.3856450617, -0.2082609236, -0.0704984292, -0.3190896213, 0.1778678894, 0.5937797427, 0.4434374273, -1.0550470352
-0.2716740370, 0.1139821708, -0.3253283203, -0.8413935304, 0.6588861346, -0.2477849871, -0.8289229274, -0.3597600162, 0.3490893245, 0.2313610762
-0.3283120990, -0.4532637000, -0.8065087795, -0.3921824396, -0.1069301516, 0.3009297550, -0.2151712775, 0.2039028406, 0.2944779694, 0.6070898771
0.5009601116, -0.0940022990, 0.0564263016, 0.0180760622, -0.0600854009, -0.8056808114, -0.0089236209, -0.0837841406, 0.1771408319, 0.3841788471
-0.8551614285, -0.7577058077, 0.0469591282, -0.3407149315, -1.0058193207, 1.0808091164, 0.4656758904, 0.2693118155, 0.0886770859, -0.0010488142
0.1694695055, 0.0448481627, 0.0862694904, -0.3983643949, 0.2416152954, 0.2602768242, -0.2721964419, -0.4061253965, 0.2731865346, 0.0153533546
0.0144589422, -0.6320212483, 0.1818474233, -0.7274758816, 0.4407184422, 0.0414986983, 0.3090373874, -0.4858178794, 0.4492976665, 0.0694785714
0.1473337561, 0.7168567181, 0.3109894395, -0.0051979325, 1.0199134350, -0.6491507292, -0.3139269352, 0.6252601147, -0.0804062113, -0.4923686981
0.4076667130, -0.3950270116, -0.2108132988, 0.4129891396, -0.1523365974, -0.0789269730, -0.2867617011, 0.0023825290, -0.6475344896, 0.0152593320
0.1151089147, 0.7750532627, -0.6187074184, -0.3956923187, -0.1627983600, 0.1158165708, 0.1298269182, 0.0430702716, -0.6366165280, 0.2540798485
-0.2055365443, -0.1012209728, 0.4273180366, 0.4170294702, -0.5701788068, -0.3877361417, -0.4382330477, -0.0885835439, 0.2235344648, -0.2137042135
-0.5338228941, 0.5254265070, -0.7365462780, -0.4421433508, 0.0903537348, 0.5834859014, 0.7112625241, 0.0322880633, -0.1921689510, -0.5208796263
-0.0402823612, -0.0231864266, 0.1179912984, -0.1776964664, -0.0533594079, -0.3892600834, 0.2290485799, -0.4868614972, 0.1190531626, -0.2685314119
0.4869648516, 0.3075162470, -0.1708181500, 0.2994460762, 0.4316526353, -0.4816316068, 0.2591260970, 0.4277949631, -1.1262217760, 0.2338739038
0.0834420994, -0.4896418750, 0.0733110309, 0.2377365381, 0.1936459392, -0.1133701429, -0.3575170040, -0.2592000663, -0.1930962652, -0.0130254719
-0.2317453474, -0.0568754338, -0.7931168675, 0.2125494182, 0.3653558791, 0.5445906520, 0.1864217073, -0.4453327656, 0.1737005860, -0.1024724692
-0.4357729554, 0.4748446643, -0.5813897252, -0.9523760676, 0.7091771960, 0.3158620000, 0.3458821476, 0.1229216829, -0.1422009468, -0.3005443513
0.5250800848, 0.0708592385, -0.3407302499, -0.0717408657, -0.6897655725, 0.1144826934, 0.3843841553, 0.0090406090, 0.3303252757, -0.3063441515
0.0633348674, 0.1423005611, 0.4734604359, -1.2073190212, 0.5206203461, -0.3581479192, -0.0366138555, 0.6345810294, -0.1272743493, -0.0188547093
-1.1086541414, 0.1094131172, -0.2986240983, 0.5466919541, -0.0157488622, 0.4542712867, -0.2670186460, -1.0517570972, 0.2745238245, 0.3862055540
0.0656802952, -0.8296922445, -0.4345458746, -0.2150857151, -0.1155208573, 0.1309016198, 0.1108572409, 0.0015902066, -0.1396776587, 0.2766410112
-0.6775355935, 0.3296985626, 0.3558037579, 0.2886580825, -0.5285152793, -0.5168335438, 0.4515531063, 0.1458810270, -0.2209713757, 0.0508342981
-1.0229336023, 0.1674087346, 0.6249813437, 0.5782957077, -0.4751339555, -0.1966423243, 0.0061515300, 0.4362242520, -0.5682160854, -0.9787206054
0.1955253035, 0.3288819194, 0.5004643798, -0.1282133162, 0.0973056927, -0.2083584219, -0.0229821485, 0.7002521157, -0.1095968410, -1.5395097733
-0.8270261884, -0.0985361487, -0.0479281917, 0.4454395175, 0.3225562871, 0.2000977993, -1.0637121201, 0.1645446420, 0.0379763506, 0.3923110366
-0.6992763877, 0.4395072460, 0.7007080913, -0.4877748191, -0.1426496655, -0.5807831883, 0.0209715515, 0.3556770086, 0.2719481587, -0.0143123390
-0.0126480814, -0.4063149095, 0.3807489872, -0.3532394171, 0.0230242517, 0.2161855400, 0.3740938008, -0.2846304178, 0.0095023764, -0.9684726000
0.3677078485, -0.4337594509, -0.3693539202, 0.4347350597, -0.9412373900, 0.5169031024, 0.0731922388, 0.2825839520, -0.3054466248, -0.2518783212
-0.2005721778, 0.3389437497, 0.0190525260, 0.2158209980, -0.4447774589, 0.0786592662, 0.3811139166, -0.6674962640, 0.2666000426, -0.2268855274
