0.0395299792289734, 0.0899794250726700, 0.0514152199029922, -0.1139932274818420, 0.0487199127674103, -0.1012149155139923, -0.0075959414243698, 0.1221947968006134, -0.0250869542360306, -0.0963620096445084, -0.1070672944188118, -0.1122238114476204, -0.0060993582010269, 0.0829472243785858, 0.0323245376348495, 0.1399911046028137, 0.0858148187398911, -0.1099610328674316, 0.0666930377483368, 0.0218713432550430, -0.0610756352543831, -0.0391053482890129, -0.1014085710048676, 0.0804723948240280, 0.0326430499553680, -0.1474160552024841, 0.0647848695516586, 0.0230643004179001, 0.0981845557689667, -0.0009852051734924, 0.0473224371671677, -0.1283278763294220, -0.0961389094591141, -0.0663224086165428, -0.0802659094333649, -0.1296306848526001, -0.0700069814920425, 0.1479965746402740, -0.0850802361965179, 0.1072572171688080, 0.0996362566947937, 0.0394100099802017, -0.1057971864938736, 0.1330372393131256, 0.0644601732492447, 0.0205788910388947, -0.0741019770503044, -0.0971926748752594, -0.0272533521056175, -0.1228056997060776, 0.0418326705694199, -0.1510316580533981, 0.0004394352436066, -0.0137420445680618, -0.0238214880228043, 0.0475675910711288, 0.0662150532007217, -0.1513556689023972, 0.0526397526264191, 0.1339693963527679, -0.0086098313331604, 0.0125087052583694, 0.0731836557388306, 0.0938401669263840
-0.1134908422827721, 0.0994768738746643, 0.0935808718204498, 0.1460307240486145, -0.0756317302584648, 0.1168617904186249, 0.1387815475463867, 0.0838413536548615, 0.0239759832620621, 0.1035417616367340, -0.1309912353754044, -0.1213145181536674, 0.0610832422971725, 0.0030205696821213, -0.1493541002273560, 0.1473058462142944, 0.0329890847206116, 0.0777436941862106, 0.0850631445646286, 0.1222677528858185, 0.0027171075344086, -0.0753405019640923, -0.1014699637889862, 0.0227389484643936, -0.0072578340768814, -0.0944084674119949, -0.1390607357025146, 0.1311366856098175, -0.0541769787669182, 0.1218385398387909, -0.1484445184469223, 0.0924326032400131, -0.0215163975954056, -0.1045118346810341, -0.0589692443609238, 0.1245816648006439, -0.0483893156051636, -0.0574260205030441, 0.1017327010631561, 0.1381947696208954, -0.0728818848729134, -0.0413988381624222, -0.0994719713926315, -0.0729200616478920, 0.0033917427062988, -0.0730772837996483, 0.1393072605133057, 0.1049403548240662, 0.1014410853385925, -0.0978339612483978, 0.0942680090665817, -0.0388787314295769, -0.1470699459314346, 0.0462250858545303, -0.0016436576843262, -0.0224643349647522, -0.0784696936607361, 0.1305680572986603, 0.0686503499746323, 0.0105883777141571, -0.1173768937587738, 0.1173420846462250, 0.1095665097236633, 0.0287856161594391
-0.1214641183614731, 0.1533628106117249, -0.1139383167028427, 0.1300767362117767, -0.0558683872222900, 0.1417710483074188, -0.1437652707099915, -0.0245164092630148, -0.0766480565071106, 0.0304107554256916, -0.0368114560842514, -0.0657538175582886, -0.0170607827603817, 0.0609972104430199, 0.1275621801614761, 0.1565343290567398, -0.0431537926197052, 0.1105027422308922, -0.0012542846379802, 0.0122751081362367, 0.0120179718360305, 0.0817679017782211, -0.0317776165902615, 0.1081900969147682, 0.0646045356988907, -0.1038527786731720, 0.1178167238831520, 0.0445022098720074, -0.0307612512260675, -0.1063050627708435, -0.0955652296543121, -0.0060811042785645, 0.1140036135911942, -0.0097991349175572, -0.0607053935527802, 0.1263492107391357, 0.1373409628868103, 0.0062819551676512, -0.0497572571039200, 0.0501935593783855, 0.1510654687881470, -0.0147619247436523, 0.0738576650619507, -0.0015433168737218, 0.0222061853855848, 0.0202267523854971, -0.0458626635372639, -0.1477359384298325, 0.0579866431653500, 0.1038306504487991, 0.1519110053777695, -0.1215149015188217, 0.0208065863698721, 0.1774008721113205, 0.0221871938556433, -0.0927315205335617, -0.1269133836030960, 0.0249136704951525, -0.1357644945383072, 0.1504892855882645, -0.0314193628728390, 0.1424054056406021, 0.0122709218412638, 0.0064103850163519
0.0336668044328690, 0.1482999771833420, 0.0048837764188647, -0.0054805516265333, 0.4018181562423706, 0.1953938901424408, -0.2785874009132385, 0.0643300488591194, 0.3515534996986389, 0.2057423293590546, 0.3023431003093719, 0.1096373870968819, -0.2206091731786728, 0.2015975564718246, 0.3781456649303436, 0.2431824654340744, -0.2179806232452393, 0.1568587571382523, -0.1942825615406036, 0.1750259250402451, -0.0337989777326584, -0.1271605491638184, 0.0168889667838812, 0.0446765087544918, -0.2619235217571259, 0.2618723213672638, -0.1541518718004227, -0.3328129947185516, 0.2437036335468292, -0.3662368059158325, 0.0042045335285366, 0.4044447839260101, -0.1023991852998734, 0.2801195979118347, -0.2854784131050110, -0.0756034478545189, 0.2072826474905014, -0.1100988611578941, -0.1917857974767685, -0.1263083517551422, 0.1444926559925079, -0.2506221532821655, 0.4036174714565277, -0.1333101838827133, -0.2751761674880981, -0.2388873696327209, 0.0714735612273216, 0.0511109828948975, 0.2384657859802246, 0.2841880321502686, -0.0354982875287533, -0.2516531646251678, -0.4131387770175934, 0.1567433774471283, -0.1993298232555389, -0.3126406073570251, -0.2558453679084778, -0.2389257252216339, 0.0255707427859306, 0.2696006596088409, -0.1927711069583893, 0.1559435576200485, -0.2842231094837189, -0.1732783615589142
0.0803349241614342, 0.3912829160690308, -0.2823889255523682, 0.1347610205411911, 0.3528315424919128, 0.3291862607002258, -0.2271110713481903, 0.1636103540658951, -0.1401997059583664, 0.2587514817714691, 0.2443128675222397, 0.1882243156433105, -0.0436165630817413, 0.2974818050861359, 0.4848585426807404, 0.1418854296207428, -0.1067471653223038, 0.2966998517513275, -0.5464112162590027, 0.4485045969486237, 0.1125431209802628, -0.2886353433132172, -0.1666959971189499, 0.0076911817304790, -0.2746891379356384, 0.2889114618301392, 0.0385345853865147, -0.4605766534805298, 0.4070920050144196, -0.3549636602401733, -0.1442462801933289, 0.3893573880195618, 0.2652724087238312, 0.1046191528439522, -0.2305364459753036, -0.0496838428080082, 0.0223973244428635, -0.3241908550262451, -0.0767638236284256, -0.2960551083087921, 0.0994100645184517, -0.2476727664470673, 0.2723664641380310, -0.0292244032025337, -0.1559627801179886, -0.2292089760303497, -0.0604802854359150, 0.0707532465457916, 0.1059297844767570, 0.1849647611379623, -0.1956728994846344, -0.2137447595596313, -0.2946901619434357, 0.1384185701608658, -0.1459370702505112, -0.2111544311046600, -0.2473380565643311, -0.2471130937337875, -0.1307184845209122, 0.0240247994661331, -0.2368070781230927, -0.1309077590703964, 0.0481830984354019, -0.2062475681304932
0.0068732588551939, 0.3209537565708160, -0.0577496066689491, -0.0458420179784298, 0.3856320083141327, 0.4102768599987030, -0.2954129576683044, 0.5584961771965027, 0.2595789432525635, 0.5027685165405273, 0.1872249543666840, 0.3762901425361633, -0.1513460725545883, 0.2600862085819244, 0.5550969243049622, 0.3445246219635010, -0.3501058816909790, 0.3558495342731476, -0.1310278922319412, 0.4262419342994690, 0.0214236360043287, -0.3559847474098206, -0.3037054538726807, -0.1422617882490158, -0.2939527332782745, 0.2398627102375031, -0.3397408425807953, -0.5264234542846680, 0.4658653140068054, -0.6614249348640442, 0.2088259160518646, 0.3970713913440704, 0.1814952194690704, 0.3825982809066772, -0.0730678737163544, 0.1414551585912704, -0.0812354385852814, -0.6199946403503418, -0.1235065162181854, -0.3458968400955200, 0.0185035225003958, -0.3322322964668274, 0.4547239542007446, 0.0675734952092171, -0.0986184552311897, -0.4180909395217896, -0.2116232663393021, -0.1328551173210144, 0.3723606765270233, 0.3677347600460052, 0.0962258577346802, -0.0389696806669235, -0.3855651915073395, 0.3169876933097839, -0.2582772374153137, -0.5186285972595215, -0.4350257515907288, -0.2729855179786682, -0.1584409773349762, 0.3870727419853210, -0.2272561341524124, 0.0776902511715889, -0.0899388566613197, -0.1744042038917542
-0.1778089255094528, 0.4338017702102661, 0.0101799024268985, -0.0522425770759583, 0.3753335475921631, 0.1427148431539536, -0.2085992246866226, 0.1881261914968491, -0.2676174938678741, 0.5115806460380554, 0.4568687975406647, 0.1604490280151367, -0.3680027127265930, 0.4744707345962524, 0.5671940445899963, 0.0550890006124973, -0.0922655239701271, 0.0062887929379940, -0.0101016880944371, 0.3372432291507721, -0.2790731191635132, -0.3142154514789581, -0.1672911047935486, -0.1207430511713028, -0.0956591144204140, 0.0156369190663099, -0.4602945446968079, -0.6017640233039856, 0.4119327664375305, -0.5317354202270508, -0.0115908076986670, 0.6916173696517944, 0.2929180860519409, 0.4599514901638031, -0.2662703990936279, -0.2040333747863770, 0.0684714317321777, -0.3693139553070068, 0.0669893473386765, -0.4906981587409973, 0.0258351620286703, -0.4360129833221436, 0.1292060613632202, -0.0828483402729034, -0.2881254851818085, -0.4176945090293884, -0.3461318612098694, -0.0404727756977081, 0.4572929143905640, 0.1186928004026413, 0.1691052317619324, -0.0627950504422188, -0.5161474943161011, 0.7172610163688660, -0.2117834687232971, -0.1128106787800789, -0.1904505342245102, -0.2307216227054596, -0.2235334217548370, 0.3529929220676422, -0.4155605137348175, -0.1004315391182899, 0.0039056229870766, -0.2737269401550293
0.2038186341524124, 0.3824622035026550, 0.0683205947279930, -0.2340343296527863, -0.1983608007431030, -0.4505006670951843, -0.4688412547111511, 0.3341775238513947, 0.0666409656405449, -0.3459083139896393, 0.4350210428237915, 0.0336719267070293, 0.0328027158975601, 0.0062534096650779, -0.0821965709328651, -0.4826771616935730, -0.1120660826563835, -0.1650643646717072, 0.0780303627252579, 0.1263708472251892, -0.1468074917793274, -0.1559673845767975, 0.5368163585662842, 0.1797854900360107, -0.1415781825780869, 0.2587671875953674, -0.5248600840568542, -0.1673060059547424, -0.3955483138561249, 0.1833758503198624, 0.0025679739192128, 0.7851414084434509, -0.1709727197885513, 0.0642962828278542, 0.2092532962560654, -0.2636986970901489, -0.0301428101956844, 0.3141781091690063, -0.0102100940421224, 0.1375501751899719, -0.1549310982227325, -0.4735232889652252, -0.1671554893255234, -0.0202144198119640, -0.0661669373512268, -0.4230365157127380, 0.1995970308780670, 0.1161151975393295, 0.1217704936861992, 0.1269121319055557, 0.2726242244243622, 0.5813101530075073, -0.1014330908656120, 0.3495412766933441, -0.2175524979829788, 0.1213551685214043, 0.0047982842661440, -0.4760946035385132, 0.1178172007203102, -0.0816134810447693, -0.2075191587209702, -0.0413132198154926, -0.2881043851375580, -0.1022921353578568
0.4648775160312653, 0.0548000037670135, 0.1628946661949158, 0.5253497362136841, 0.3724033832550049, -0.2360560446977615, -0.2854725420475006, 0.4814628958702087, 0.5149329304695129, 0.6703073382377625, 0.3643198609352112, -0.0498947277665138, -0.4162295162677765, -0.2831292748451233, 0.4526823163032532, -0.0360485985875130, 0.3525280952453613, -0.3718780875205994, -0.3436037003993988, 0.6114853024482727, -0.0701390430331230, -0.4192247688770294, -0.0695405378937721, -0.4888889491558075, 0.1260005831718445, -0.3034644722938538, -0.1506750732660294, -0.2262620627880096, 0.1362857222557068, -0.5494232773780823, 0.2757158875465393, 1.0415025949478149, 0.0205370001494884, 0.3948432207107544, -0.2612739503383636, 0.6192953586578369, 0.1648520976305008, -0.5887401103973389, 0.1164087802171707, -0.2119143158197403, 0.0682620853185654, -0.4246587157249451, 0.0673503503203392, 0.0217036791145802, -0.0213047768920660, 0.2261943519115448, 0.4172312617301941, -0.0605714768171310, 0.1937740594148636, 0.2717275321483612, 0.0668588206171989, -0.0578962713479996, -0.3673964440822601, -0.1586147844791412, -0.5327799320220947, -0.1160085573792458, -0.5160147547721863, -0.0479781329631805, 0.0337625704705715, 0.3214836716651917, -0.2829761803150177, 0.3887090682983398, 0.0974583625793457, -0.6260533332824707
-0.5036196112632751, 0.3351507782936096, -0.6136764883995056, 0.0318010449409485, 0.6041283607482910, 0.6488977670669556, -0.3033846020698547, 0.5815736651420593, -0.0887389257550240, 0.6854675412178040, 0.5107964277267456, 0.3646324574947357, 0.3595975637435913, 0.5277107357978821, 0.3411295413970947, 0.3511261343955994, -0.2628623545169830, 0.4813432097434998, -0.3217907249927521, 0.6944992542266846, 0.0598072223365307, -0.3534810543060303, -0.4086796939373016, -0.6760157346725464, -0.6009568572044373, 0.4327802658081055, -0.5788641571998596, -0.5100864171981812, 0.6201403141021729, -0.4810758531093597, -0.0648353919386864, 0.8153402805328369, 0.4372613728046417, 0.4799744188785553, -0.4419302046298981, 0.1828881651163101, 0.0834365338087082, -0.2654657959938049, -0.0117759751155972, -0.4555036127567291, 0.2362419068813324, -0.0360552668571472, 0.6704002618789673, -0.0777538046240807, -0.3647094666957855, -0.1936789005994797, -0.3016799986362457, 0.0429103374481201, 0.6425747275352478, 0.4401187300682068, -0.1165738254785538, -0.1625429391860962, -0.5335990786552429, 0.5425606369972229, -0.2092772722244263, -0.6917471885681152, -0.3828583657741547, -0.6830426454544067, 0.0702776759862900, 0.6498264074325562, -0.1514657735824585, -0.2724310755729675, -0.0038063030224293, -0.6255505681037903
-0.2962287068367004, 0.3680389225482941, -0.3197798430919647, 0.0790293887257576, 0.4500905871391296, 0.6766805648803711, -0.3895748257637024, 0.4398426115512848, 0.0712958872318268, 0.4476016163825989, 0.4018404483795166, 0.3716572523117065, 0.2302755713462830, 0.6143972277641296, 0.5002418160438538, 0.3930573165416718, -0.1556434184312820, 0.5224367380142212, -0.3292445540428162, 0.4692954123020172, -0.1330976188182831, -0.2464684844017029, -0.2556154131889343, -0.6178964376449585, -0.4872247874736786, 0.3778489530086517, -0.3198194205760956, -0.4022004604339600, 0.4134350419044495, -0.1803915947675705, -0.0616303943097591, 0.4815816879272461, 0.4604198336601257, 0.2740948796272278, -0.4609519839286804, 0.1044712811708450, 0.3275224268436432, -0.4442276656627655, 0.0392268337309361, -0.3635562062263489, 0.2573587298393250, 0.0086646322160959, 0.4923369288444519, 0.0248571075499058, -0.4205827414989471, -0.2138221263885498, -0.1865140497684479, 0.0207282900810242, 0.6052715778350830, 0.2580403387546539, 0.1199792250990868, -0.1443517059087753, -0.5069564580917358, 0.6681010723114014, -0.0831300988793373, -0.4095726609230042, -0.4527955353260040, -0.7069940567016602, -0.0089011052623391, 0.4543888270854950, -0.1461454778909683, -0.1840613037347794, -0.1134698614478111, -0.4471778273582458
-0.1411344707012177, 0.3399274349212646, -0.3071940243244171, 0.3071127235889435, 0.3654208481311798, 0.4794647097587585, -0.2934582531452179, 0.3320396542549133, 0.2825886905193329, 0.3758807778358459, 0.3651845157146454, 0.3075502216815948, -0.2068995684385300, 0.2770897150039673, 0.2527832388877869, 0.2650848925113678, -0.1251305192708969, 0.4050753414630890, -0.3010872602462769, 0.2627168297767639, -0.1442411541938782, -0.3922024667263031, -0.1807917207479477, -0.2105465531349182, -0.4917164146900177, 0.2928616106510162, -0.3584116995334625, -0.4826341569423676, 0.2996990680694580, -0.3912328183650970, -0.3739694058895111, 0.3957183957099915, 0.0245885625481606, 0.2141236960887909, -0.2751636505126953, 0.1276367008686066, 0.1780951172113419, -0.2240386754274368, -0.0831941887736320, -0.1761723160743713, -0.0652514845132828, 0.0846951603889465, 0.3919801712036133, 0.1099879890680313, -0.5299529433250427, -0.1159865707159042, -0.1190567687153816, -0.0156404078006744, 0.3241639733314514, 0.0316993407905102, 0.0947513505816460, -0.4133402705192566, -0.0701744779944420, 0.5664587616920471, -0.1241002455353737, -0.4639684557914734, -0.2706496417522430, -0.2752400040626526, -0.0433361083269119, 0.3639966249465942, -0.3826915025711060, -0.1323283016681671, -0.0785882845520973, -0.2027352899312973
-0.0145788043737411, -0.1292879283428192, 0.0282784402370453, -0.1087034195661545, 0.0931013822555542, 0.0726171284914017, 0.0052322596311569, -0.0683029443025589, -0.1064113080501556, 0.0278272032737732, -0.0249109268188477, 0.0046112835407257, -0.1482552289962769, 0.1060463190078735, -0.1430633664131165, -0.0262499600648880, 0.1363891959190369, -0.1353143006563187, -0.0058313012123108, 0.0371231585741043, 0.0116314589977264, 0.1150991916656494, 0.0752395987510681, -0.0373423844575882, -0.1298442780971527, -0.1101659536361694, -0.1480327099561691, -0.1128433644771576, 0.1518999338150024, -0.0152789056301117, 0.0262998342514038, -0.0149300545454025, 0.1299251616001129, 0.0529969781637192, -0.0610262006521225, 0.0080147236585617, -0.0103408545255661, 0.0791986286640167, -0.1227195709943771, 0.1191269755363464, -0.0175295174121857, 0.1109916269779205, 0.0265729576349258, -0.0786937028169632, 0.0009392946958542, -0.0734439566731453, 0.0969990938901901, 0.0465943664312363, -0.0898136198520660, 0.1375826597213745, 0.0060278624296188, 0.1503310501575470, 0.0542228221893311, 0.1117374002933502, 0.1049073040485382, 0.1240536272525787, -0.1503496319055557, -0.0496545657515526, 0.0458631217479706, -0.0860918909311295, -0.1473726332187653, 0.1122639477252960, -0.0903059691190720, -0.0975827127695084
-0.0333725959062576, 0.0966327041387558, -0.1505253612995148, 0.0316986590623856, -0.1431487351655960, 0.0186667293310165, -0.1255652159452438, 0.0739589780569077, -0.0163342058658600, 0.1160987019538879, -0.0665594935417175, -0.1427205651998520, 0.0625468194484711, -0.1394151598215103, -0.0971759408712387, -0.0027268081903458, 0.1222273707389832, -0.0862717106938362, -0.0087614804506302, 0.0256687998771667, 0.0438737571239471, 0.0252963006496429, 0.1389067173004150, 0.0455174148082733, -0.1358602195978165, -0.1247601881623268, 0.0833059400320053, 0.0858117789030075, 0.1302990317344666, 0.1000862717628479, -0.1184370368719101, 0.0906689465045929, -0.0673477873206139, 0.0622271597385406, 0.0998130738735199, 0.0506678074598312, 0.0645693391561508, 0.0055908560752869, -0.0601893365383148, -0.1024118512868881, 0.1219306886196136, 0.0325445383787155, -0.1066422313451767, -0.0817869380116463, -0.1036313623189926, -0.0306864604353905, 0.0065560340881348, 0.0674610882997513, 0.1474553644657135, 0.0572565197944641, 0.1382035911083221, 0.0345554202795029, -0.1106356382369995, -0.0275461822748184, -0.0799842029809952, 0.0500436276197433, 0.0727753341197968, -0.0539464429020882, -0.0858789607882500, -0.0969838798046112, -0.0771726742386818, 0.1146435141563416, 0.0828784555196762, 0.0761046409606934
-0.0290409848093987, -0.1169274896383286, 0.0487943142652512, 0.0992172956466675, -0.1425025612115860, 0.0314238220453262, -0.0355034694075584, 0.0154873430728912, 0.1127630472183228, 0.0117475092411041, 0.1169821918010712, 0.1506787836551666, 0.1337299644947052, 0.1147323846817017, 0.0070654451847076, -0.1280936598777771, 0.0969815254211426, -0.0151085704565048, 0.0257133543491364, -0.1311128139495850, -0.0154637694358826, 0.1084198057651520, 0.0503725558519363, -0.1219229102134705, 0.0351997464895248, 0.0845836400985718, 0.0817425996065140, -0.1238110885024071, 0.0198308974504471, -0.0357117950916290, 0.0814511924982071, 0.0110146552324295, 0.0556439608335495, 0.1213680505752563, 0.0714538693428040, 0.0542777776718140, 0.0762549042701721, -0.0924587175250053, -0.1117830350995064, -0.0170788466930389, -0.0403315573930740, -0.0541105121374130, 0.0476473867893219, 0.0480080842971802, 0.0575847625732422, -0.0538731366395950, 0.0263503193855286, 0.0233785957098007, -0.0402082353830338, 0.0789126455783844, -0.0710099413990974, 0.0953210890293121, -0.1516943126916885, -0.0614048615098000, 0.0286882519721985, -0.0751992464065552, 0.0746384114027023, -0.0426628589630127, -0.0793983340263367, 0.0895150303840637, -0.1035956889390945, 0.1376822888851166, -0.1403557509183884, -0.1462579369544983
-0.0749737098813057, 0.2479149401187897, 0.2552717626094818, 0.0639673396945000, -0.0392976030707359, -0.4706365466117859, -0.0942119434475899, 0.3339105248451233, -0.0584473460912704, 0.4646290838718414, 0.1694079339504242, -0.3349541425704956, 0.3048432469367981, 0.2991473376750946, 0.2009125649929047, -0.3294831216335297, 0.0368653275072575, -0.3490820229053497, -0.2963294684886932, 0.4375288784503937, 0.0677273571491241, -0.0807506963610649, 0.2316696792840958, -0.3270817399024963, -0.0151797924190760, -0.1371832191944122, -0.3482367396354675, -0.5411562323570251, -0.3625582754611969, -0.4675052464008331, 0.3182151913642883, 0.1979032158851624, 0.4040993750095367, 0.3705698847770691, -0.0639961510896683, 0.1496112048625946, 0.2281972467899323, -0.4045608341693878, 0.1656515300273895, 0.2738497555255890, -0.0157363899052143, 0.0331807211041451, -0.3283163309097290, -0.2935736179351807, -0.3049963116645813, 0.0064327092841268, 0.0189812052994967, -0.1198147535324097, 0.3933777213096619, 0.4716995954513550, 0.1335952281951904, 0.2359066158533096, 0.1349490284919739, 0.0623841322958469, -0.1282550394535065, -0.3562748730182648, -0.3691751956939697, -0.1149856001138687, -0.1168817132711411, -0.0131687186658382, -0.3389264345169067, 0.3243593275547028, 0.1411600857973099, 0.0854555219411850
-0.3821052908897400, -0.1343348026275635, 0.0518278479576111, 0.0163806751370430, 0.0813259556889534, -0.0313517525792122, -0.0609575770795345, -0.1657642573118210, -0.0851288139820099, 0.2706331014633179, 0.3374182879924774, 0.0605146661400795, 0.3628693521022797, 0.2870778441429138, 0.1749611347913742, 0.1007969900965691, -0.1002174317836761, 0.3121615946292877, -0.3770358264446259, 0.1842297911643982, -0.4073613584041595, -0.2372980415821075, -0.0380321741104126, -0.1620251834392548, -0.2818038463592529, -0.0917644798755646, -0.1643463671207428, -0.5300730466842651, 0.6446557044982910, -0.1585706472396851, 0.1213621273636818, -0.5116953253746033, 0.4624458551406860, 0.2464044988155365, 0.2152586281299591, 0.4724514484405518, 0.3762933015823364, 0.1578448861837387, 0.1792916953563690, 0.1353013515472412, 0.7049122452735901, 0.0668743178248405, 0.2814567089080811, 0.3439007699489594, -0.3143225610256195, -0.0575396604835987, 0.0096211656928062, -0.0100174397230148, -0.0733743309974670, 0.1082503870129585, -0.4227962493896484, -0.3991310894489288, -0.0010554487816989, -0.2382103204727173, 0.0545070208609104, -0.3541812598705292, -0.1968827694654465, 0.2321995198726654, 0.2182544916868210, 0.2197137475013733, -0.5093223452568054, -0.1004060357809067, 0.2963980734348297, -0.1441259384155273
-0.0785314813256264, 0.0412598028779030, -0.4249351024627686, 0.4462233483791351, 0.4928116500377655, 0.2407188266515732, -0.6111243963241577, 0.1151030138134956, -0.1268037110567093, 0.2956844568252563, 0.2073149979114532, 0.7321929335594177, -0.4376155138015747, -0.2767354547977448, 0.0726182609796524, 0.3887941837310791, 0.2231923937797546, 0.4174502193927765, 0.0333208888769150, 0.3996288776397705, -0.5370962619781494, -0.6183335781097412, -0.2350019961595535, -0.0369998067617416, -0.2832194864749908, 0.1228601858019829, 0.0694216638803482, -0.4420582950115204, 0.6863422989845276, -0.9202340841293335, -0.3588611781597137, 0.0647063478827477, -0.3095382153987885, 0.0399245731532574, 0.0039141811430454, 0.4893006980419159, 0.2715736627578735, 0.1393434405326843, 0.1052523180842400, 0.1070638671517372, -0.0458205789327621, 0.4749885201454163, 0.3958090245723724, 0.3016617596149445, -0.1558457463979721, 0.1218295618891716, 0.3092811703681946, 0.0830871611833572, -0.2434166371822357, 0.2920766174793243, -0.1976190507411957, 0.0652525871992111, -0.0167591832578182, -0.0232930369675159, -0.1846961677074432, -0.3978146314620972, -0.7336544394493103, 0.0893627479672432, 0.2006673812866211, -0.2254864722490311, -0.4167336523532867, -0.3609429895877838, 0.1212582141160965, -0.3217764794826508
0.0148920724168420, -0.0296652130782604, -0.2514095604419708, 0.4262321293354034, 0.5556678771972656, -0.0362180359661579, -0.8687914609909058, 0.2595389485359192, 0.0604788325726986, 0.4328865408897400, -0.0122675569728017, 0.6981143951416016, -0.3232154548168182, -0.3289611041545868, 0.2671341300010681, 0.1846466660499573, 0.4895432889461517, 0.3945801556110382, -0.1618206351995468, 0.3133002817630768, -0.0475724041461945, -0.8527217507362366, -0.0568931736052036, 0.5319110155105591, -0.0879366397857666, -0.0420249700546265, -0.1558840125799179, -0.8253241181373596, 0.3929568827152252, -0.5699327588081360, -0.3823226392269135, -0.5055986046791077, -0.0841268450021744, 0.2237542271614075, -0.3870199322700500, 0.0950976833701134, 0.1999671757221222, -0.1175183951854706, -0.1997223794460297, 0.4269766211509705, -0.0147091159597039, 0.7244759202003479, 0.3924079537391663, 0.6633083820343018, 0.1868908554315567, 0.3528312146663666, 0.2430438548326492, 0.1028988286852837, -0.6118621826171875, 0.0394829995930195, 0.0904932543635368, 0.2041573971509933, -0.2604440152645111, -0.2836914956569672, -0.0485324449837208, -0.2978529334068298, -0.8249356150627136, 0.2548821568489075, 0.3077383935451508, -0.5186631679534912, -0.7670614123344421, -0.3066476583480835, -0.0353235304355621, -0.6558125019073486
0.3793365955352783, -0.2499592453241348, -0.2909846603870392, 0.6157469749450684, 0.5027570128440857, 0.1402743756771088, -1.2561541795730591, 0.2640767097473145, 0.1280669271945953, 0.3056091964244843, -0.0383982136845589, 0.4060218334197998, -0.3716709315776825, -0.1735030263662338, 0.3124914765357971, 0.3065852820873260, 0.2591184079647064, 0.2649886906147003, -0.6050887703895569, 0.2965820729732513, -0.2097227126359940, -0.8826187849044800, -0.3060849308967590, -0.0346130132675171, -0.0421878211200237, 0.0024945791810751, -0.1268257200717926, -0.6935998797416687, 0.7471138834953308, -0.6089029908180237, -0.6325994729995728, -0.4034009873867035, -0.2114894539117813, 0.2936528325080872, -0.4010112285614014, 0.0280602835118771, 0.0015064199687913, -0.1133255437016487, 0.1199220418930054, 0.1875849217176437, 0.0105774067342281, 0.8079640269279480, 0.5734305381774902, 0.3191362321376801, 0.0664250254631042, 0.4109126925468445, -0.0024818449746817, 0.0396640561521053, -0.7439974546432495, 0.1251316070556641, 0.0547830313444138, -0.3621577620506287, -0.0921652093529701, -0.1924704611301422, 0.0739680081605911, -0.0420376062393188, -1.0029422044754028, 0.3634932935237885, 0.2373700141906738, -0.5604148507118225, -0.4333039224147797, -0.5655652880668640, 0.1134112924337387, -0.2538561820983887
0.3451176583766937, -0.1601713746786118, -0.4698317050933838, 0.1716598421335220, 0.1503941863775253, 0.1622420251369476, -0.9473956823348999, 0.3902148604393005, 0.2695472538471222, 0.2544636726379395, 0.4611125588417053, 0.2712115943431854, -0.6378355026245117, 0.0937112271785736, 0.0755737274885178, 0.2560870647430420, 0.1506752222776413, -0.0698310583829880, -0.1466908305883408, 0.3672710359096527, -0.3698960840702057, -1.0212175846099854, -0.1484584957361221, -0.0527957007288933, -0.0127214798703790, -0.0765194892883301, -0.2380130290985107, -0.4335292279720306, 0.0916536673903465, -0.1134656667709351, -0.7950744032859802, 0.2952051758766174, -0.0883490890264511, 0.3944170773029327, -0.1068455576896667, -0.2952146232128143, 0.1808895319700241, -0.0849979147315025, -0.0498152934014797, 0.4871962368488312, -0.3764627575874329, 0.3675121068954468, 0.4665803015232086, 0.5390232205390930, 0.2005226612091064, 0.0259486772119999, -0.0209977105259895, 0.0030485007446259, -0.6353346109390259, 0.1229549869894981, 0.3614899814128876, -0.2138713598251343, -0.0109118353575468, -0.2391078621149063, -0.1180287972092628, -0.0724408179521561, -0.6502431631088257, 0.1901751607656479, -0.1469482630491257, -0.2906708717346191, -0.4789812564849854, -0.6648899316787720, 0.0595804601907730, -0.8332297801971436
0.5019937753677368, -0.2447822093963623, -0.1534182280302048, 0.3864029943943024, 0.1409147828817368, 0.0228107497096062, -0.8719986677169800, 0.0094652837142348, 0.2514516711235046, 0.2799277007579803, 0.6659233570098877, 0.0879837498068810, -0.5381441116333008, -0.1013240665197372, 0.3972549438476562, -0.0310520268976688, 0.0371734760701656, -0.3412851691246033, -0.4710159301757812, 0.0709770172834396, -0.3988287746906281, -0.5646316409111023, -0.1777086704969406, -0.1809762120246887, 0.1101908758282661, 0.1238362193107605, -0.4062716960906982, -0.2913495004177094, 0.2340035736560822, 0.2066942304372787, -0.9852674007415771, 0.6090592741966248, -0.2119059264659882, 0.1407209187746048, -0.0749960541725159, -0.1665264964103699, -0.0726237222552299, -0.0637104287743568, 0.0869602710008621, 0.1671901196241379, -0.1636853963136673, 0.0097342226654291, 0.1771813631057739, 0.4104331135749817, 0.2733582258224487, -0.0701310485601425, -0.8111810684204102, 0.0340164564549923, -0.1526973992586136, 0.0707395821809769, 0.1879324316978455, -0.4808508157730103, 0.0718589350581169, -0.3009818792343140, 0.0749829560518265, 0.6083318591117859, -0.3887053430080414, 0.2234574258327484, 0.0324607454240322, -0.2337393760681152, -0.3719010651111603, -0.6542491316795349, 0.0857181921601295, -0.9781739711761475
0.4999038875102997, -0.0077119776979089, 0.0054910932667553, 0.2067312896251678, -0.2433412373065948, -0.2197601944208145, -0.3429361581802368, 0.2059710025787354, 0.1496789008378983, 0.1166383549571037, 0.3182787001132965, 0.2513468563556671, -0.4336466491222382, -0.0909615531563759, 0.2959864139556885, -0.0280510094016790, -0.0201856289058924, -0.3874269723892212, -0.3660110235214233, 0.1541629284620285, -0.5263614654541016, -0.2169730365276337, 0.1809927076101303, -0.3215414285659790, 0.2820268869400024, -0.2262094616889954, -0.0255349371582270, -0.2859251201152802, -0.0226468946784735, 0.2445568889379501, -0.8808211088180542, 0.5164374113082886, -0.0833025872707367, 0.2678570449352264, -0.0839905962347984, -0.1668564379215240, 0.1669852584600449, 0.1001282110810280, -0.0110735679045320, -0.0058159693144262, 0.1589254140853882, 0.0054415473714471, -0.1106727197766304, -0.1212995722889900, -0.0002922459680121, -0.0581112280488014, -0.6750941872596741, -0.0558935329318047, -0.0980986058712006, -0.1276695430278778, 0.3173879086971283, -0.6514568924903870, 0.4260831475257874, -0.2161848247051239, -0.1289167404174805, 0.2189051955938339, -0.4115661382675171, 0.1185538619756699, 0.0388237684965134, 0.0218358580023050, -0.2345885336399078, -0.7894105315208435, 0.1835558712482452, -0.3634735047817230
0.3281691074371338, -0.3460569083690643, -0.1264458596706390, -0.0159899089485407, -0.2482401132583618, 0.0093852663412690, 0.1018616929650307, 0.2583529949188232, -0.0784053578972816, 0.3191445767879486, 0.0999582409858704, 0.0817041769623756, 0.0110597936436534, 0.0337665453553200, 0.0521210879087448, -0.1022245436906815, -0.3275818228721619, 0.0124440193176270, -0.2698778510093689, 0.1901029646396637, -0.2367344349622726, 0.4828101694583893, -0.0728945955634117, -0.3986192941665649, -0.3005186319351196, 0.0376477278769016, 0.0686761811375618, -0.0546021685004234, 0.2043018192052841, 0.1523602306842804, -0.7939525842666626, 0.7147973775863647, 0.0237457733601332, 0.1874906271696091, -0.1872096806764603, 0.3060879111289978, 0.3022767007350922, -0.0060301008634269, -0.2033967226743698, -0.9045647978782654, 0.5973979234695435, -0.0412519164383411, 0.3527764678001404, -0.1490860730409622, -0.1577927917242050, -0.1348058730363846, -0.6796475648880005, -0.1555091440677643, -0.0528159886598587, 0.2182471454143524, -0.1879651546478271, -0.3971065580844879, 0.1674764603376389, 0.0932091102004051, 0.1289344727993011, -0.1931832432746887, -0.0858569741249084, -0.0292679145932198, -0.0593104623258114, 0.0709045678377151, 0.2872029244899750, -0.3273896574974060, -0.0932856127619743, -0.3687795102596283
-0.0655328929424286, -0.1190663948655128, 0.0415433533489704, -0.2211579680442810, -0.0717176124453545, 0.0855458751320839, 0.2278976142406464, 0.0477573536336422, 0.0827086046338081, 0.4109763205051422, 0.0240921340882778, -0.0648778304457664, 0.1527197211980820, 0.1610362082719803, 0.3535677492618561, 0.1783552616834641, -0.3180978000164032, 0.2215634882450104, -0.1222438439726830, 0.1169686466455460, -0.1387844681739807, 0.3260791003704071, 0.0239934790879488, -0.4668864905834198, -0.2062890976667404, 0.0709252133965492, -0.0118717448785901, 0.1341402530670166, 0.4049080312252045, 0.2992242872714996, -0.3397636115550995, 0.5345293283462524, 0.1866849958896637, -0.0283675137907267, -0.2837781310081482, 0.3013885915279388, 0.1027997955679893, 0.0541666075587273, 0.2308573275804520, -1.1599147319793701, 0.0425595715641975, 0.1992382407188416, 0.2422395348548889, 0.0016632421175018, -0.3385075330734253, -0.4455171823501587, -0.7202840447425842, -0.1618579030036926, 0.0142105948179960, 0.3595259189605713, -0.2421808540821075, -0.4341654777526855, -0.2378006577491760, 0.4088821411132812, 0.2846764028072357, -0.2680225372314453, -0.2181522101163864, 0.2994899153709412, -0.0320005379617214, 0.3165752291679382, 0.2891645431518555, -0.0838112011551857, -0.0447861477732658, -0.3748033940792084
-0.1564292460680008, -0.0977791920304298, -0.0916324704885483, -0.0297212935984135, 0.0758276805281639, 0.4361864626407623, -0.1311709582805634, 0.3075069487094879, 0.0199231114238501, 0.9956860542297363, 0.3389553725719452, 0.0712620243430138, -0.1187687665224075, 0.4772620201110840, 0.4389315545558929, 0.6356223821640015, -0.3458546698093414, 0.4881703853607178, -0.2522297799587250, 0.3469223082065582, 0.2279782444238663, 0.3838510215282440, -0.3444631099700928, -0.2856649160385132, -0.0939163118600845, 0.4561179876327515, -0.2911645770072937, -0.0608094185590744, 0.4216727018356323, -0.4841316044330597, -0.2071781307458878, 0.3736903667449951, 0.2636529803276062, 0.1137265637516975, 0.0829343348741531, -0.1567638814449310, -0.1803611218929291, -0.1107972115278244, -0.3138733208179474, -0.2312128394842148, 0.3429208695888519, -0.0612038262188435, 0.4896847009658813, -0.6848790645599365, 0.0927885398268700, -0.4314988553524017, 0.0024854110088199, -0.1096341609954834, 0.4781769514083862, 0.2351512312889099, -0.0354310683906078, 0.0141097949817777, -0.5330348610877991, 0.1399071961641312, -0.0166329629719257, -0.2643020451068878, -0.4162305593490601, -0.2506798505783081, -0.1708038449287415, 0.9391476511955261, 0.2073252648115158, 0.2086416333913803, -0.2457485198974609, -0.4802641570568085
-0.0870363265275955, 0.0826944187283516, -0.0006436495459639, 0.0480084717273712, 0.0093329614028335, -0.0672909766435623, -0.1360555887222290, 0.2452877759933472, 0.2365007549524307, 0.5278943181037903, -0.1789748966693878, -0.1060796156525612, -0.0716903656721115, -0.0596446990966797, 0.1575673073530197, 0.2685225605964661, 0.0194939002394676, 0.0784583836793900, -0.3920798301696777, -0.0648666545748711, 0.3490232229232788, -0.2159220278263092, -0.1945010870695114, 0.0637425109744072, 0.1014769449830055, 0.0285730883479118, -0.3984324038028717, -0.5400780439376831, 0.1753869205713272, 0.3533751964569092, 0.3971160650253296, 0.4957090318202972, -0.0879862904548645, 0.3267129361629486, 0.3364968299865723, 0.1798740029335022, 0.1898792535066605, -0.1839459091424942, -0.2034963071346283, -0.0019898337777704, 0.3493285179138184, 0.4995244741439819, -0.0786064639687538, 0.0948051363229752, -0.1083673983812332, 0.0886294320225716, 0.0812573432922363, 0.0611504614353180, -0.2079214453697205, 0.2998803257942200, -0.1914497166872025, -0.0216828882694244, -0.2111706286668777, 0.0501737780869007, -0.0376599356532097, -0.0299776885658503, 0.1260844171047211, 0.1334661096334457, 0.3633328080177307, 0.0891987532377243, -0.0472503714263439, 0.3814531862735748, 0.0443586967885494, -0.4362882375717163
-0.1353509277105331, -0.2593937814235687, -0.1013890653848648, 0.2868920564651489, 0.1980540305376053, -0.0121122226119041, 0.0084523260593414, -0.1066695973277092, -0.0088979490101337, 0.2328397631645203, -0.2884820699691772, 0.0527733676135540, -0.0419640839099884, 0.3258617222309113, 0.0709745660424232, 0.2799951136112213, -0.0235973112285137, 0.2445226311683655, -0.3755386471748352, 0.2224841564893723, 0.1822623163461685, -0.3405070006847382, -0.2705644369125366, -0.1550575345754623, -0.2805531024932861, 0.0990526527166367, 0.3786989748477936, -0.0336676985025406, 0.1184736564755440, 0.0187184102833271, 0.3995030820369720, 0.1040084436535835, 0.1341071277856827, 0.2248428612947464, -0.0488079749047756, 0.1903539299964905, -0.1498051732778549, -0.2323960512876511, -0.0207832809537649, -0.0981597751379013, 0.4399726986885071, 0.0385491847991943, 0.2066334784030914, 0.4920595288276672, 0.0626423805952072, -0.0472791120409966, -0.0552622824907303, 0.0727078616619110, 0.0276256818324327, 0.2277127951383591, -0.2753607630729675, -0.1767192929983139, -0.2496968358755112, -0.0644774064421654, 0.1476396769285202, 0.3305588066577911, 0.0731030404567719, 0.1772051602602005, -0.0836945921182632, 0.1795384287834167, -0.1049992591142654, 0.0860784724354744, 0.1929489970207214, -0.2920040488243103
0.0820040628314018, -0.1373688578605652, 0.0399511605501175, 0.0125240748748183, 0.1643744260072708, 0.1563800275325775, -0.1051401719450951, 0.0240119956433773, -0.1772032082080841, -0.0275168381631374, 0.0394386202096939, 0.0170702505856752, -0.0413338430225849, 0.0236452035605907, 0.0630136057734489, -0.0733276307582855, -0.1223220154643059, -0.0167199037969112, 0.0711932033300400, 0.0585512742400169, 0.0586619786918163, 0.0624754205346107, 0.1489293277263641, -0.0484566092491150, 0.0959097817540169, -0.0296108145266771, 0.0636273622512817, -0.0823551341891289, -0.1157558336853981, 0.1657999604940414, -0.0634765177965164, 0.0310216546058655, -0.0484292767941952, -0.1251156628131866, -0.0939110890030861, -0.1516104340553284, 0.0692320913076401, 0.1225206255912781, -0.1117245480418205, -0.1152099817991257, 0.1368651688098907, 0.0215605963021517, 0.0546443127095699, 0.0599450320005417, -0.0733114033937454, 0.1247762516140938, -0.0033729637507349, -0.0771537348628044, 0.0984275415539742, 0.0100183868780732, 0.0792390406131744, 0.1172352656722069, -0.0424438454210758, 0.1249189078807831, -0.0289418231695890, 0.1137625277042389, -0.1337758153676987, -0.1488530635833740, -0.0876457318663597, -0.0668760687112808, 0.0484827607870102, 0.1321338266134262, 0.1531061828136444, 0.0357496738433838
-0.1432354748249054, 0.0046823527663946, 0.1603475511074066, -0.2345547229051590, 0.0385273322463036, -0.3152646720409393, 0.3493435978889465, 0.0163401998579502, -0.0015686834231019, -0.1428374052047729, 0.1199957728385925, 0.1656683534383774, 0.4607926905155182, -0.1247191056609154, -0.1543541401624680, 0.0358780957758427, 0.1286006569862366, -0.1545323580503464, 0.3509910106658936, 0.0774104893207550, -0.2917195558547974, 0.3128125965595245, 0.2510648667812347, 0.2109324634075165, -0.0525169558823109, -0.2665660977363586, 0.0216027684509754, -0.2730295658111572, 0.2750548124313354, 0.0517066158354282, -0.1088433042168617, -0.4350401163101196, -0.2257385849952698, -0.2389969378709793, -0.0322050601243973, 0.1939146816730499, 0.3607473075389862, 0.2916797995567322, 0.2351052165031433, 0.3761321902275085, 0.3146124482154846, 0.3658047318458557, 0.4566284120082855, 0.4233769774436951, -0.2403598874807358, -0.0210777800530195, 0.2297979742288589, 0.0356305241584778, 0.0367890968918800, -0.2679201960563660, -0.0834591761231422, 0.3899614810943604, 0.3916026353836060, -0.0809043422341347, 0.0877916514873505, -0.1526761949062347, -0.0291524752974510, -0.2107689529657364, 0.2117956429719925, -0.0141844069585204, -0.4581475257873535, -0.3354247808456421, 0.0050381147302687, 0.0070657576434314
-0.1076482236385345, 0.0396656990051270, -0.5893461108207703, -0.1778848916292191, 0.4929807782173157, 0.3545756936073303, -0.1624730378389359, -0.1268754452466965, 0.1382702291011810, -0.3102072179317474, 0.1257725805044174, 0.4832391440868378, 0.2728155255317688, -0.0870293453335762, -0.3858489096164703, -0.0338308848440647, 0.2818558812141418, 0.2436001002788544, 0.4553608596324921, 0.3044771552085876, -0.2247259914875031, -0.0825002267956734, -0.0452426671981812, -0.3051892817020416, -0.4309709966182709, 0.4218704998493195, -0.2292648106813431, 0.3496205508708954, -0.2225342392921448, -0.1745343208312988, -0.5943740010261536, -0.0325304605066776, -0.5438527464866638, -0.3048816919326782, -0.2555187940597534, -0.1042742878198624, -0.0147518925368786, 0.2246669679880142, -0.1973153203725815, 0.4720576405525208, 0.0751273110508919, -0.1383396834135056, 0.4003484249114990, 0.2514593899250031, -0.2717707455158234, 0.0568890273571014, 0.1551754921674728, -0.0649907290935516, -0.6710482239723206, 0.1668103337287903, 0.5550298690795898, 0.7876819372177124, 0.1909749954938889, 0.3163997828960419, -0.2555921971797943, -0.1478433609008789, -0.0109071321785450, -0.3228097259998322, 0.7886905074119568, -0.6181610226631165, -0.4885055124759674, -0.3432105183601379, 0.0184682440012693, -0.4921373724937439
-0.3661166429519653, 0.4688615500926971, -0.3446055054664612, 0.2511695027351379, 0.0861475095152855, 0.1249892041087151, -0.0336292944848537, -0.0694814324378967, 0.2780323624610901, -0.2624567747116089, -0.1554347574710846, 0.1289961785078049, -0.1802812963724136, 0.1078649163246155, -0.0742180645465851, 0.0332404375076294, 0.2466664761304855, 0.0734152868390083, 0.3283518254756927, -0.0359466262161732, -0.1764457970857620, -0.2506847977638245, -0.0019212424522266, -0.4086548686027527, -0.1078221425414085, 0.2640473246574402, 0.0904893353581429, 0.4405791163444519, -0.4285704195499420, -0.2812678217887878, -0.8684503436088562, -0.1637017428874969, -0.1730051487684250, -0.2047232836484909, -0.2582544982433319, -0.3282940685749054, -0.1373245865106583, 0.2166215926408768, 0.0095909321680665, 0.2214174568653107, 0.1158554553985596, 0.1723985671997070, 0.2146895229816437, 0.4376934766769409, -0.0123730851337314, 0.1623521447181702, -0.0468349494040012, -0.1168600469827652, -0.5424381494522095, -0.0724679678678513, 0.1576262265443802, 0.3113941848278046, 0.3456588685512543, 0.0087000597268343, -0.0890762060880661, -0.3485948443412781, -0.0312252491712570, -0.3896791338920593, 0.3009157478809357, -0.9556251764297485, -0.0881978571414948, -0.4140071272850037, 0.0528322830796242, -0.5431374311447144
-0.2803097069263458, 0.1853223145008087, -0.2134245634078979, 0.1972498595714569, 0.4049975872039795, 0.2664179205894470, -0.2503632903099060, -0.0697561874985695, 0.1278726458549500, 0.2853618264198303, 0.0491680316627026, -0.2174868285655975, -0.4306286573410034, 0.4189399778842926, 0.2285114973783493, 0.1389653682708740, 0.3005329668521881, 0.1711762398481369, 0.3450054526329041, 0.1833103895187378, -0.0601200461387634, -0.5671852827072144, -0.0525951981544495, -0.4303826391696930, -0.0208602100610733, 0.2939024567604065, 0.1909005790948868, 0.4095574021339417, 0.0373688340187073, -0.3574089407920837, -0.7402199506759644, -0.0856706127524376, 0.0675466731190681, -0.1475829184055328, -0.3967258334159851, -0.0747215524315834, -0.2153694182634354, 0.1274611800909042, 0.0226184595376253, 0.1379359960556030, -0.1369639486074448, 0.4000452458858490, 0.0427933223545551, 0.2102396637201309, 0.0610712096095085, 0.2369631230831146, 0.0635921657085419, -0.0484620071947575, -0.2207148969173431, 0.0083187371492386, 0.0296411048620939, 0.1076573729515076, -0.0663528293371201, 0.0546740144491196, 0.0687109082937241, -0.2726341485977173, -0.0330071672797203, -0.2879160642623901, 0.2173381447792053, -0.6900573968887329, 0.1253882199525833, -0.4246803522109985, 0.1008354723453522, -0.3197529315948486
-0.0379890650510788, -0.1356779187917709, -0.2233998626470566, 0.2367994636297226, 0.0398977585136890, 0.1489919573068619, -0.5046658515930176, 0.0946744680404663, 0.2079589217901230, 0.1916985660791397, 0.1327257156372070, -0.0264069717377424, -0.3589679300785065, -0.0075570452027023, 0.0222301036119461, 0.1961689740419388, 0.4312975406646729, -0.5180656313896179, 0.0973391383886337, 0.0566853396594524, -0.1629769504070282, -0.2388589531183243, 0.0450412705540657, -0.2967078983783722, 0.1401104331016541, -0.3761752247810364, 0.0611553154885769, -0.0344532802700996, -0.0249213464558125, -0.4326288402080536, -0.5903933644294739, 0.1231653541326523, 0.1078945472836494, -0.0792103111743927, -0.0583385974168777, 0.0249307453632355, 0.0060574468225241, -0.0657929778099060, 0.3475422859191895, 0.0882697999477386, -0.3100731968879700, 0.8083373904228210, 0.1013679429888725, 0.4614274203777313, 0.2818869352340698, 0.0108171440660954, 0.1001005172729492, 0.0849292874336243, -0.2322826087474823, 0.0652285218238831, 0.0605584755539894, -0.0673033222556114, 0.2863474190235138, -0.1700754016637802, -0.0211051180958748, -0.4366201162338257, 0.1360666453838348, -0.1568393856287003, 0.3714307844638824, -0.4896059930324554, 0.3325784802436829, -0.2584953606128693, -0.1074359342455864, -0.3302805721759796
-0.0098709510639310, 0.1889310181140900, 0.0041932119056582, 0.3255448043346405, -0.3485671281814575, 0.2735148966312408, -0.6260169744491577, -0.1443786770105362, 0.1282370686531067, 0.1231243759393692, 0.2399875223636627, 0.1144474372267723, -0.3210400640964508, 0.1222160756587982, 0.2172301709651947, 0.1256141513586044, 0.3348303139209747, -0.6580265760421753, 0.3182772099971771, 0.0815578103065491, -0.0466885343194008, -0.1661242097616196, 0.1377190202474594, -0.2378874719142914, 0.0808188468217850, -0.1312283873558044, 0.0496555790305138, -0.0545073188841343, -0.1702983230352402, -0.2397755235433578, -0.4456050395965576, 0.3614555001258850, 0.0015137220034376, 0.0750262886285782, 0.0275535807013512, -0.1251719444990158, 0.1129226163029671, 0.0526272878050804, 0.1054510399699211, 0.3865437507629395, -0.6128342747688293, 0.5764853358268738, 0.0671179369091988, 0.4357568919658661, 0.4044657051563263, -0.1039615944027901, 0.0958833545446396, 0.0946924686431885, -0.1815612167119980, -0.1700961440801620, 0.1366895884275436, 0.2054036408662796, 0.2955947816371918, -0.0500595159828663, 0.0907369628548622, -0.2805028259754181, 0.0848683491349220, -0.1432202458381653, 0.3351982831954956, -0.0623235553503036, 0.0337703116238117, -0.3564487397670746, 0.0174337364733219, -0.2733906507492065
0.3269145190715790, -0.0589659549295902, -0.0592970885336399, 0.2660558521747589, -0.3297827541828156, 0.0349298715591431, -0.4339214563369751, -0.2239003032445908, 0.1074073389172554, 0.0924971625208855, 0.3508901596069336, -0.1001237630844116, 0.0203799493610859, 0.0328972078859806, 0.1711419820785522, -0.1398338377475739, 0.0378617309033871, -0.4235634505748749, -0.1957065165042877, 0.0462357550859451, -0.0861782878637314, -0.3143528103828430, 0.3097033202648163, -0.2639693915843964, 0.2704081535339355, -0.0913142189383507, -0.1439695507287979, 0.0303323473781347, -0.2107211053371429, -0.1778592169284821, -0.3843528628349304, 0.2713218629360199, -0.0567129962146282, 0.0859607309103012, -0.0753674209117889, -0.1362344473600388, -0.0630057901144028, 0.1640349924564362, -0.1011426895856857, 0.2512152791023254, -0.0578799061477184, 0.3799670934677124, -0.0369873009622097, 0.4894734621047974, 0.2589865326881409, -0.1804484724998474, -0.1344699561595917, -0.1195345148444176, 0.0891054794192314, -0.1566606909036636, 0.1905490159988403, 0.0856065899133682, 0.2319278419017792, -0.1193598881363869, 0.0638005807995796, 0.0026438829954714, -0.0875662118196487, -0.0283940602093935, 0.2847466468811035, 0.0257750581949949, -0.2660063803195953, -0.5164443850517273, 0.0418477542698383, -0.2299652248620987
0.3705623745918274, -0.0604905150830746, -0.0759029015898705, 0.0982193648815155, -0.1024172157049179, -0.1912501752376556, -0.0742312371730804, -0.0308196917176247, -0.1289110928773880, 0.2537572979927063, -0.0557356551289558, 0.1704490631818771, 0.1060332059860229, -0.1485504060983658, 0.0823574960231781, 0.1684387177228928, 0.0734791681170464, -0.2204022407531738, -0.7182493805885315, -0.1291448473930359, 0.0240342095494270, 0.0245040636509657, 0.1565305143594742, -0.3089629411697388, 0.3794279992580414, -0.0441576912999153, -0.3452129065990448, -0.0254206806421280, 0.0029735760763288, 0.0798500925302505, -0.5890979170799255, 0.2995071709156036, 0.1190322786569595, 0.1829579025506973, 0.0945370495319366, -0.0834777653217316, -0.0818057209253311, -0.0934627354145050, -0.2483581900596619, -0.1194750666618347, 0.2207075357437134, 0.4082697629928589, 0.1463032960891724, 0.2615244984626770, 0.4078174233436584, -0.0043794969096780, -0.2237160354852676, -0.0513750873506069, -0.1303937584161758, -0.0283989924937487, 0.3703576028347015, -0.0461962819099426, 0.4149257540702820, -0.2460512071847916, 0.1040120646357536, 0.3537672758102417, -0.0452894791960716, -0.0721293240785599, 0.0573536306619644, 0.1345616877079010, -0.1701418161392212, -0.2719964385032654, 0.0553678944706917, -0.3182507753372192
0.5043461918830872, -0.1505084931850433, -0.0052867559716105, 0.0361083894968033, -0.2902835011482239, -0.4009240567684174, -0.0359925515949726, 0.1774625182151794, -0.2733855545520782, 0.1284311562776566, 0.0462854616343975, 0.0431519448757172, 0.2171550989151001, -0.1758417487144470, 0.1754981726408005, 0.1822662949562073, 0.0536108277738094, 0.0788697153329849, -0.8481716513633728, -0.3013771176338196, 0.0755033046007156, -0.0521081313490868, 0.0749096721410751, -0.2792229056358337, 0.1574129313230515, -0.0028217348735780, -0.0729202628135681, -0.0674764439463615, 0.0938391312956810, 0.0128462444990873, -0.3651848733425140, 0.4425085186958313, 0.0719790086150169, 0.1587819606065750, 0.3542510271072388, -0.0111094154417515, -0.0125883854925632, -0.1279278695583344, -0.0924342498183250, -0.4190193712711334, 0.2595706284046173, 0.4598333835601807, 0.1543629765510559, 0.2728448510169983, 0.2402940541505814, -0.2642133533954620, -0.2232762873172760, 0.0306554045528173, 0.0542606636881828, -0.0085250539705157, 0.4299281537532806, -0.2447561174631119, 0.2565554380416870, -0.1047553122043610, -0.0665455237030983, 0.3558837771415710, 0.0339466668665409, -0.0124625600874424, -0.0592701174318790, 0.1040057614445686, 0.0019492610590532, -0.1986345648765564, 0.0164931155741215, -0.5532918572425842
0.2209372669458389, -0.0123526798561215, -0.0634294226765633, -0.1911815255880356, -0.2627623975276947, -0.1375164091587067, 0.0351524651050568, 0.2615225911140442, -0.5082619786262512, 0.1594120264053345, -0.3018748164176941, -0.1457326412200928, 0.3586001992225647, -0.0078217657282948, 0.3037799000740051, 0.0541481301188469, -0.1303526908159256, 0.1460213661193848, 0.3785163462162018, -0.4547742605209351, 0.1524268686771393, -0.0212090034037828, 0.1450679153203964, 0.0380240082740784, 0.2002998292446136, 0.0856615826487541, -0.2762391567230225, 0.0261779017746449, 0.1558816134929657, 0.0752277672290802, -0.3990623652935028, 0.3622492551803589, -0.0028573099989444, 0.0464498847723007, 0.0548019520938396, 0.2288218289613724, -0.0384428910911083, 0.1170737519860268, -0.1230187192559242, -0.9226480722427368, 0.2099776118993759, 0.2947226762771606, 0.1709446460008621, 0.1481481343507767, 0.1513858139514923, -0.4948488473892212, -0.1094530448317528, -0.1632071733474731, 0.0578017495572567, -0.3927822113037109, 0.3132299482822418, 0.1856175214052200, 0.0964107364416122, -0.0057736905291677, -0.1063541024923325, 0.0884960889816284, -0.0393632054328918, -0.1195442304015160, -0.2239597588777542, 0.0888810083270073, 0.1011247038841248, 0.0554963275790215, 0.0747430473566055, -0.4217090010643005
-0.1025497615337372, -0.3854700922966003, 0.0754939615726471, -0.1490396708250046, -0.1863411068916321, -0.1391561478376389, 0.1944459825754166, 0.0984538644552231, -0.1686031073331833, 0.0494458936154842, -0.3349402248859406, -0.2515622377395630, 0.6293016672134399, 0.1215932369232178, 0.2217783629894257, 0.0120467990636826, -0.0764059647917747, 0.2627717256546021, 0.9620290994644165, -0.2009860128164291, 0.2516758143901825, 0.1438743323087692, -0.3320906460285187, -0.0756116583943367, -0.0328834503889084, 0.0694692730903625, -0.3344017267227173, 0.0012443114537746, 0.4193393290042877, -0.2198906391859055, 0.3123347461223602, 0.5914329886436462, 0.0481334701180458, -0.0222005713731050, -0.1110349372029305, 0.3125832080841064, -0.3198091089725494, -0.2132287919521332, -0.1728626787662506, -0.7452706694602966, 0.3869360089302063, 0.0640230625867844, 0.0105624878779054, 0.0624127835035324, -0.0364854149520397, -0.4444370865821838, 0.0445304736495018, -0.0408448576927185, 0.1457294225692749, 0.0906545668840408, 0.1226731091737747, 0.3100199103355408, -0.1746008694171906, 0.1623839437961578, -0.0039597456343472, 0.0851095467805862, 0.0814391076564789, -0.0620073489844799, 0.1433114856481552, 0.3951036036014557, 0.0801192969083786, -0.1982113271951675, 0.3132998049259186, -0.4764483571052551
-0.5616833567619324, -0.4902715981006622, 0.2325408309698105, -0.0322279743850231, -0.2182085812091827, 0.2014622241258621, -0.1913384348154068, -0.3391059339046478, -0.0586673095822334, 0.4009861052036285, -0.5003666877746582, -0.2794154584407806, 0.3101337850093842, 0.6712142825126648, 0.2200493663549423, 0.3371840119361877, -0.4757542908191681, 0.4828475713729858, 0.4975659549236298, -0.2436258941888809, 0.5357301235198975, 0.0465806759893894, -0.1165497079491615, -0.0340247265994549, 0.1139435619115829, 0.3429055511951447, -0.1509177088737488, -0.1297571510076523, 0.4093570113182068, -0.0408305414021015, 0.1908915489912033, 0.4454131126403809, 0.5132715702056885, -0.2941373586654663, 0.1135543510317802, 0.1799472272396088, -0.0783934071660042, -0.0543954484164715, -0.4124499559402466, -0.1854300647974014, 0.0314160324633121, 0.2148103266954422, 0.1868120431900024, -0.1290135383605957, 0.0236754827201366, -0.1728811115026474, 0.3723273575305939, -0.0673440471291542, 0.0427548140287399, -0.0426845364272594, -0.4150773584842682, 0.1793877184391022, 0.1153153032064438, -0.1297634989023209, 0.2000136524438858, -0.0951081886887550, 0.1031013056635857, 0.1056458652019501, 0.1701278686523438, 0.6577233076095581, 0.5356268882751465, -0.2772015035152435, -0.1744892746210098, -0.2776783406734467
-0.2196094691753387, -0.1541697829961777, 0.1380241960287094, 0.2990971505641937, 0.1389147490262985, 0.2330826073884964, -0.5303317904472351, -0.0445162467658520, -0.2458910644054413, 0.4831401705741882, -0.1995641589164734, -0.0969435051083565, -0.2476165294647217, 0.6554654240608215, 0.4213708639144897, -0.0004652887582779, -0.1207116469740868, 0.2775750458240509, -0.6161428689956665, 0.1673593819141388, -0.0745859220623970, -0.1311858445405960, -0.1954751908779144, -0.2971332967281342, -0.2156299799680710, 0.0015367781743407, -0.0675035044550896, -0.4700806140899658, 0.4512377679347992, 0.5742648243904114, 0.2643185257911682, 0.7649765014648438, 0.6441932916641235, 0.2177018672227859, 0.4934923052787781, 0.4495962858200073, 0.2048899233341217, 0.1158155649900436, 0.0750303566455841, -0.0810427740216255, 0.7305207848548889, 0.5804754495620728, 0.6288050413131714, 0.3087010979652405, 0.2134207934141159, -0.0748957470059395, 0.3912945091724396, -0.1282506138086319, 0.3876056075096130, 0.0903040692210197, -0.9252188205718994, -0.3100831210613251, 0.3485668897628784, 0.0614203251898289, 0.2250429540872574, -0.2273579537868500, 0.5908780694007874, 0.0484208688139915, 0.2418238669633865, 0.6621580719947815, 0.0367255881428719, 0.0747975856065750, -0.4231460094451904, -0.5023877024650574
0.6704614758491516, 0.4717686772346497, -0.4374632239341736, 0.5099622011184692, 0.6433138847351074, -0.2653739452362061, 0.5535050630569458, -0.4479265213012695, 0.4123012125492096, -0.6195733547210693, 0.2649581134319305, -0.0985601246356964, 0.5127217769622803, -0.0999149605631828, -0.4620229899883270, 0.0677134543657303, -0.0466846451163292, -0.4708765447139740, 0.2296238392591476, -0.0909536927938461, 0.1965618580579758, 0.0515185073018074, 0.4268411099910736, -0.6113387942314148, 0.0996475294232368, -0.3715285956859589, -0.0988304391503334, -0.3878473043441772, 0.2107664644718170, -0.2529715895652771, -0.1121810972690582, -0.0668307617306709, -0.3765788972377777, -0.4666415154933929, 0.1183825135231018, 0.5142489075660706, 0.1481588035821915, 0.4415208995342255, -0.2746893465518951, 0.4426675438880920, 0.4764736890792847, 0.0753327459096909, 0.2897714674472809, 0.4256917834281921, -0.5453827381134033, 0.6324124336242676, 0.3854325115680695, 0.0770011097192764, -0.7519240975379944, 0.5881822705268860, 0.3161309361457825, 0.6286772489547729, 0.2475250661373138, -0.5351898670196533, 0.6242834329605103, 0.5472661852836609, -0.2212874293327332, -0.4835386574268341, 0.5022071599960327, -0.5260562300682068, -0.2110394388437271, -0.4540897309780121, 0.6679608821868896, -0.5171132683753967
-0.1227757707238197, 0.0235148910433054, 0.2594044208526611, 0.3548994660377502, 0.3162241876125336, 0.1459911316633224, 0.3567692935466766, -0.2687055170536041, -0.7267854809761047, -0.2413325458765030, -0.2803073227405548, -0.0675289928913116, 0.0063271382823586, -0.0413394607603550, -0.1332989484071732, 0.0207125041633844, 0.5922607779502869, -0.5269163846969604, 0.2638975083827972, 0.0749209895730019, -0.0665889903903008, 0.1861187368631363, 0.0159588400274515, -0.1285323649644852, 0.0419133380055428, 0.0608244426548481, 0.1554741859436035, 0.5135079622268677, 0.2306992113590240, 0.1350923776626587, 0.2319545447826385, -1.0270382165908813, -0.4414477348327637, -0.1333103179931641, -0.1774909347295761, 0.4135321080684662, -0.2994880676269531, 0.1681611686944962, -0.1355118006467819, 0.5030815601348877, -0.0344303213059902, 0.2480392307043076, -0.2161588221788406, 0.2950831949710846, -0.1051723137497902, 0.7125620245933533, 0.6587457060813904, -0.1326526850461960, -0.3594261407852173, 0.4863727688789368, 0.3679505884647369, 0.2775015532970428, -0.1133899018168449, 0.1309474110603333, -0.0674155354499817, 0.0479855760931969, -0.2679790854454041, -0.4660566151142120, -0.4519439041614532, -0.1846162825822830, -0.0033372479956597, 0.1329911202192307, -0.0418297238647938, 0.1510725617408752
-0.3392386436462402, 0.2587774693965912, -0.1040408015251160, 0.2427755892276764, 0.6719472408294678, -0.2122392058372498, 0.1076635643839836, -0.5729717016220093, -0.4276821315288544, -0.0061039933934808, 0.0271960198879242, -0.1419529467821121, 0.3491292595863342, 0.0953065156936646, -0.0097872754558921, -0.0050450251437724, -0.0401648022234440, 0.1030745804309845, 0.0388851016759872, -0.4317352175712585, -0.0775442048907280, -0.1704998910427094, 0.2299739420413971, -0.5762656331062317, 0.0729906409978867, 0.2002897262573242, -0.1369916349649429, 0.4598089456558228, 0.2141736745834351, -0.4097453653812408, -0.1293136328458786, -0.5024018883705139, 0.0720805749297142, -0.2408320307731628, -0.1093702539801598, 0.1946450471878052, -0.3109421432018280, -0.0543297454714775, 0.3528027832508087, 0.2747789919376373, 0.0886087045073509, 0.0769809558987617, 0.0708950161933899, -0.0322602763772011, 0.0517619773745537, -0.2043856084346771, 0.4588479399681091, 0.1033126190304756, -0.5129776000976562, 0.4922960400581360, 0.1312690526247025, 0.3835544884204865, 0.2244751900434494, -0.2549308836460114, -0.0198295805603266, 0.0386581309139729, 0.2543621957302094, -0.0302258469164371, 0.1905058622360229, -0.4980125427246094, -0.1340016424655914, -0.2230728566646576, 0.4534801840782166, 0.0426425971090794
-0.3783324956893921, 0.2848075330257416, -0.0866743326187134, 0.0026129693724215, 0.1677049100399017, 0.0255575068295002, 0.1549044549465179, -0.2490616291761398, -0.1591752916574478, -0.0635334476828575, -0.1797044873237610, -0.1812124401330948, 0.0831425338983536, 0.3202975988388062, -0.0327891707420349, -0.3281244635581970, 0.1735318005084991, -0.1351504921913147, -0.2169128358364105, -0.2548795938491821, -0.0241668112576008, -0.0412664450705051, 0.1907095313072205, -0.8839004635810852, -0.1004752889275551, -0.0052243410609663, 0.0939967259764671, 0.4418065249919891, -0.3412366211414337, 0.0181998461484909, -0.0472116507589817, -0.0177855007350445, 0.0742242112755775, -0.3362278938293457, -0.0999467745423317, -0.1049489751458168, -0.2774267494678497, 0.1459061503410339, 0.2902823686599731, 0.0880107432603836, 0.1641876399517059, 0.2814290225505829, -0.0044971327297390, -0.0147742722183466, 0.0003357052919455, -0.1205188259482384, 0.2094293981790543, -0.0015303265536204, -0.2512295544147491, 0.2058978676795959, 0.0532805286347866, 0.1419050991535187, 0.2463073730468750, 0.0488517731428146, -0.1995765566825867, -0.1851929426193237, 0.0814184695482254, -0.1970768272876740, 0.0753156244754791, -0.8069486618041992, 0.0106857595965266, -0.0942886918783188, 0.1614650189876556, -0.0588577874004841
-0.1470589041709900, 0.3327105343341827, 0.0095231337472796, 0.1139260232448578, 0.3426085412502289, 0.2028904557228088, 0.2723695635795593, -0.3195056319236755, -0.2084365487098694, 0.3720799684524536, -0.0867089629173279, -0.1292128860950470, -0.1069465577602386, 0.1972833871841431, 0.0708683058619499, -0.1798212081193924, 0.2923464477062225, -0.0023475484922528, 0.0242804829031229, -0.0505009144544601, 0.0779322832822800, -0.0369324870407581, -0.1410807967185974, -0.5613203048706055, 0.1172111406922340, -0.0248084925115108, 0.1251795440912247, 0.2397846877574921, -0.1211638748645782, 0.0419076718389988, 0.1402621269226074, 0.1230148449540138, 0.1782870292663574, -0.5225527286529541, 0.3187747597694397, 0.1639051288366318, -0.2434724569320679, 0.0009133992134593, 0.1411317586898804, -0.0136697283014655, -0.0109099475666881, 0.5173124670982361, 0.0093758199363947, 0.0989362150430679, -0.0129027618095279, -0.0132292453199625, 0.3718346655368805, 0.0778674408793449, -0.2016661018133163, -0.1235444024205208, -0.0137996710836887, 0.0710710063576698, 0.0766935497522354, 0.0658615529537201, 0.0646020844578743, -0.2797799110412598, 0.1881325840950012, -0.2483817636966705, -0.0138497855514288, -0.7102625966072083, 0.3195118606090546, -0.1907693445682526, -0.2639046907424927, -0.0861638858914375
-0.0766366869211197, 0.1638244241476059, 0.1118156164884567, -0.0496892593801022, 0.3963510096073151, 0.1739254891872406, 0.1037413924932480, -0.4817196726799011, -0.1167718023061752, 0.2430875003337860, 0.0880347415804863, 0.0442192144691944, -0.1401916891336441, 0.0651813894510269, 0.1581370979547501, -0.0972495451569557, 0.4376079142093658, -0.3340960741043091, 0.1097320094704628, -0.0355003476142883, 0.1613798737525940, 0.1432496309280396, 0.2314321100711823, -0.2112241387367249, 0.0217231791466475, -0.1163248941302299, 0.2488339245319366, -0.0096288258209825, -0.2770516574382782, -0.1176014766097069, 0.1747193485498428, 0.3871505260467529, -0.0453963428735733, -0.4019837379455566, -0.0268683768808842, 0.3196722865104675, 0.1327558159828186, -0.0947913452982903, 0.2216554284095764, 0.1959732174873352, -0.0817426815629005, 0.3338676095008850, 0.1066318228840828, 0.1672292202711105, -0.0042744944803417, 0.0338922962546349, 0.0981485322117805, -0.1452034413814545, 0.0908925682306290, -0.0313468389213085, 0.1762679815292358, 0.1150044351816177, -0.1493399590253830, 0.0640074983239174, -0.1604412496089935, -0.0933175683021545, 0.2828578054904938, -0.2944922149181366, 0.0440289042890072, 0.1797099262475967, 0.1093503609299660, -0.1305685490369797, -0.5458371043205261, -0.2232965528964996
0.0496917925775051, -0.2724249660968781, 0.3565314412117004, -0.0721692591905594, -0.0377091988921165, 0.0943694710731506, -0.0119275879114866, -0.4795424342155457, -0.0102827539667487, -0.0378155745565891, 0.2150045931339264, 0.0265566948801279, -0.3657925128936768, 0.0243611000478268, 0.2725967168807983, -0.1848605871200562, 0.6192219257354736, -0.3963968157768250, 0.3504699170589447, 0.1671296954154968, -0.0703959092497826, 0.1361572891473770, 0.1197416782379150, 0.1164009273052216, 0.0512661449611187, 0.0282298717647791, 0.1582810580730438, -0.0632230788469315, -0.1470424532890320, 0.0571166537702084, 0.2354465574026108, 0.3563398718833923, 0.0013946176040918, -0.5079200863838196, 0.0014903568662703, 0.2344675362110138, 0.0473157055675983, 0.0351636484265327, 0.2761065959930420, 0.0143955275416374, 0.1142863780260086, 0.4479899108409882, 0.1935441344976425, 0.4288810789585114, 0.1184889525175095, 0.0573723055422306, 0.4467190206050873, 0.0082968790084124, 0.1662797033786774, -0.0110595561563969, 0.0986562743782997, 0.2740381658077240, -0.1617338806390762, -0.1178157106041908, -0.1739497333765030, -0.0635568425059319, 0.2335408478975296, -0.2859361469745636, 0.0843718871474266, 0.0175086092203856, -0.2955650091171265, 0.0401825830340385, -0.3044245839118958, 0.0144326156005263
-0.0089973229914904, -0.5839410424232483, 0.0825359746813774, -0.0264266096055508, 0.0589336343109608, 0.1720125228166580, -0.2883093953132629, -0.1048796102404594, 0.1493441164493561, -0.0611775927245617, 0.2185482978820801, 0.3589890897274017, -0.0262574218213558, -0.1578133106231689, -0.1113418340682983, -0.1261268109083176, 0.5727502107620239, 0.0909212455153465, 0.3053980171680450, 0.1527016162872314, -0.0977071821689606, 0.0784686431288719, -0.0406474545598030, 0.2579240798950195, 0.1375540196895599, -0.0406460836529732, 0.2576040923595428, -0.2478414624929428, -0.1463725864887238, -0.0262833405286074, 0.2200459390878677, 0.5238032937049866, 0.0953678861260414, -0.0928508713841438, -0.0041620144620538, 0.2342714816331863, 0.3157798945903778, 0.1801588684320450, 0.0906106159090996, 0.2356863319873810, 0.3228677809238434, 0.3484162390232086, 0.1053000465035439, 0.5601108670234680, -0.0324172191321850, 0.1856850683689117, 0.6040567159652710, 0.0999906957149506, 0.2871376276016235, -0.1555907577276230, -0.1139647439122200, -0.0149224810302258, -0.1103723421692848, -0.0103444484993815, -0.1544959694147110, -0.2527990937232971, 0.1368775367736816, 0.0093064643442631, 0.1020324081182480, -0.0029282364994287, -0.0777272284030914, 0.0635998174548149, -0.4002160429954529, -0.1638910323381424
0.0989430993795395, 0.0130260596051812, 0.1848487555980682, 0.1548978090286255, 0.0594973862171173, 0.1298087835311890, -0.1658139228820801, -0.1380219459533691, -0.0473205223679543, -0.0554932467639446, -0.0531884804368019, 0.0328402332961559, -0.0718684867024422, 0.0610438808798790, -0.2254284918308258, -0.2300447970628738, 0.1959553211927414, 0.0009044480393641, -1.2739332914352417, 0.0540917478501797, -0.0896334275603294, 0.1245395988225937, -0.1307944804430008, 0.1737629920244217, 0.1064398586750031, -0.0847871154546738, 0.1640791147947311, -0.1981540322303772, -0.3666779100894928, 0.2173478305339813, 0.1242194622755051, 0.4191382825374603, -0.0169743057340384, 0.2615129947662354, -0.0187509953975677, 0.2068057656288147, 0.2601811289787292, 0.2042033523321152, -0.0535927936434746, 0.3859533667564392, 0.1589845418930054, 0.2210409343242645, -0.0660758912563324, 0.4520967304706573, 0.0579776614904404, 0.3191051483154297, 0.2447300553321838, -0.1794075220823288, 0.0717891156673431, -0.1570831239223480, 0.4441803097724915, -0.1053038537502289, -0.0242699701339006, 0.2453998476266861, 0.0609669722616673, 0.0843207016587257, 0.2617126405239105, 0.1504151225090027, 0.0629310607910156, -0.0943456813693047, -0.1309861242771149, 0.2447046637535095, -0.2463598698377609, -0.1230777949094772
0.4507295787334442, 0.0556760206818581, 0.2739218771457672, 0.1089962348341942, -0.2362622618675232, -0.1365296393632889, -0.0327758751809597, 0.1139069125056267, -0.2151915580034256, -0.2805054485797882, -0.1559671759605408, -0.1546447873115540, 0.2986444532871246, 0.1015476286411285, -0.1699369102716446, -0.2344687879085541, -0.0583652816712856, 0.2426368743181229, -0.6988698244094849, -0.1379121094942093, 0.0878666937351227, 0.1279858648777008, 0.2514181435108185, 0.2332293540239334, 0.1020622178912163, 0.0766557008028030, 0.3628366291522980, -0.1184387579560280, -0.1836111545562744, 0.1411638259887695, 0.0007846597000025, 0.4874238371849060, 0.1191120669245720, 0.6411047577857971, -0.2382616996765137, 0.3537211418151855, -0.0391986928880215, 0.2677009701728821, -0.1267440319061279, -0.2595990300178528, 0.2561255693435669, -0.0895501002669334, -0.2269408553838730, 0.4516247808933258, 0.0341607145965099, 0.1003460437059402, -0.2194134891033173, 0.0884799286723137, 0.1484390795230865, -0.1467845141887665, 0.4797592759132385, -0.0319487489759922, 0.3932758569717407, 0.2293559759855270, 0.1888681352138519, 0.4704723358154297, 0.1716339886188507, -0.0040039331652224, -0.0921385809779167, -0.1127159073948860, -0.0327534005045891, 0.1250546723604202, -0.0712730512022972, -0.3007946610450745
0.1514106392860413, 0.0407010093331337, -0.0289463996887207, -0.1156212538480759, -0.2398288697004318, 0.0473070740699768, 0.0470359474420547, 0.1479889154434204, -0.2395092099905014, -0.1109807714819908, -0.1421769857406616, -0.2275661081075668, 0.2307205498218536, 0.0482197329401970, -0.1464188098907471, -0.4038385450839996, -0.1872506588697433, 0.2420012652873993, 0.2830597758293152, -0.0227623619139194, 0.1594894528388977, 0.1621984243392944, -0.0351644605398178, 0.3041957020759583, -0.0874674990773201, 0.0382740385830402, 0.3371730148792267, -0.2122752517461777, -0.3715515434741974, 0.1642071902751923, 0.0500149652361870, 0.5799484252929688, 0.1588846743106842, 0.2897660136222839, -0.2172543704509735, 0.3614398837089539, 0.0326220653951168, 0.2699322104454041, -0.2352762967348099, -0.9106165170669556, 0.2640890777111053, -0.0184409432113171, -0.1981073617935181, 0.1028578877449036, -0.0225304998457432, -0.1472073495388031, -0.4264106154441833, -0.0505180843174458, 0.2020421922206879, -0.2669213116168976, 0.3624953627586365, 0.1794788837432861, 0.2648259103298187, 0.1710124462842941, -0.0583093091845512, 0.5243958830833435, -0.0957834422588348, 0.0212739966809750, 0.0672802105545998, -0.1641957759857178, -0.0708529576659203, 0.1397657692432404, -0.1965112537145615, -0.2924678027629852
-0.1291004568338394, -0.2468837499618530, 0.0936174467206001, -0.1272712647914886, -0.0345528051257133, -0.1501366347074509, -0.1383453458547592, 0.2768765985965729, -0.1090663000941277, -0.0742036625742912, -0.3428617715835571, -0.1509803384542465, 0.2587786912918091, 0.1434828341007233, 0.1904590725898743, -0.4356711506843567, -0.3337827324867249, 0.2698277831077576, 0.5678220987319946, -0.2456144541501999, 0.2069542706012726, 0.1511243283748627, 0.0741876885294914, 0.1347325146198273, 0.2090277671813965, -0.0744873061776161, 0.2419777959585190, -0.1556174606084824, -0.3063079714775085, 0.0096789337694645, -0.3696784973144531, 0.0062006665393710, -0.0173644479364157, 0.3741923272609711, -0.2886005938053131, 0.4257000386714935, 0.1966839432716370, -0.0470744669437408, 0.0114231146872044, -1.0707844495773315, 0.5499341487884521, 0.2497574836015701, -0.0191909205168486, 0.0428141169250011, 0.0005008919979446, -0.2450358718633652, -0.2322116196155548, -0.0472709909081459, 0.2927351295948029, -0.1959443390369415, 0.0762731209397316, 0.1294278949499130, -0.2001568824052811, 0.0636715292930603, -0.0581389442086220, 0.0324757248163223, 0.0899077802896500, -0.0253019724041224, -0.0675960853695869, 0.3988879024982452, 0.0792960748076439, -0.0604873709380627, 0.1880720704793930, 0.1310214698314667
-0.6658740043640137, -0.4097811579704285, 0.0069847065024078, -0.2313071042299271, -0.2336661666631699, 0.1115924119949341, 0.0531552433967590, 0.0599304065108299, -0.0535656213760376, 0.4004199206829071, 0.0504531897604465, -0.3097483813762665, 0.2579658627510071, 0.3166778385639191, 0.2004042863845825, -0.1287797987461090, -0.5505924224853516, 0.3908721208572388, 0.3093833327293396, -0.1307792365550995, -0.0489146970212460, 0.0658650323748589, -0.0563358254730701, 0.0475081503391266, -0.0857888311147690, 0.0875319913029671, 0.1759741902351379, -0.3406447768211365, 0.3347070813179016, 0.5144066810607910, -0.2741564512252808, 0.3783812522888184, 0.1462806016206741, 0.0171229913830757, -0.2382250428199768, 0.3699865937232971, 0.0621309131383896, 0.1243389770388603, 0.1673566401004791, -0.6923294663429260, 0.1693126857280731, 0.0819402933120728, 0.2598591446876526, -0.0371300987899303, 0.1527505367994308, -0.3328472673892975, -0.3550348877906799, 0.0038726318161935, 0.0984777957201004, 0.5380131006240845, -0.4747971892356873, 0.0174530558288097, -0.3990379273891449, -0.0827903151512146, 0.1942683309316635, -0.1294544637203217, 0.1750555038452148, 0.0287242177873850, 0.3670058250427246, 0.4641328752040863, -0.1470762640237808, 0.1479659974575043, -0.0483899638056755, -0.0942934975028038
-0.2687093913555145, -0.0458971187472343, -0.1754983365535736, -0.0773760452866554, -0.0425228700041771, 0.0874269381165504, 0.3473429381847382, -0.0267064068466425, 0.1433370858430862, 0.4532604217529297, -0.1564433723688126, 0.0886508375406265, 0.7334916591644287, 0.5024444460868835, 0.1984454095363617, 0.1871865540742874, -0.4085835218429565, 0.4006005823612213, 0.0654010847210884, -0.0587613321840763, -0.0641803368926048, 0.2681352198123932, -0.0845170095562935, 0.0649235472083092, -0.2118573933839798, 0.2791820466518402, 0.2623488306999207, 0.1295671612024307, 0.5699080824851990, -0.1793961673974991, -0.3433453440666199, 0.7569562196731567, 0.2367149144411087, -0.6220757961273193, 0.1132999956607819, 0.2557034492492676, -0.0623278319835663, 0.0787744224071503, -0.1970022469758987, -0.0718362554907799, 0.4989266395568848, 0.5410785675048828, 0.2662388980388641, 0.3886022269725800, 0.1518692821264267, -0.2760216295719147, 0.0285309236496687, 0.0840924233198166, -0.2584209740161896, 0.1818304955959320, -0.9150618314743042, -0.0691732764244080, 0.1869516968727112, -0.2313923090696335, 0.1415645331144333, -0.1090436652302742, 0.8336672186851501, 0.1468805074691772, 0.7518436312675476, 0.7197094559669495, 0.5887569785118103, -0.2066849023103714, -0.0335244461894035, -0.0169362705200911
0.2483352869749069, 0.5037518739700317, 0.2518044412136078, 0.4962631762027740, 0.6217489838600159, 0.1535915434360504, 0.4947963058948517, -0.3405051231384277, 0.5291987657546997, -0.0947460010647774, 0.0837122946977615, -0.6275458931922913, -0.3569005429744720, 0.5385418534278870, 0.2167846709489822, -0.4166677892208099, 0.3701781630516052, -0.7962645888328552, 0.3907465934753418, 0.0837154090404510, 0.5503346323966980, -0.4942379593849182, 0.6069024801254272, -0.5547406077384949, -0.3792367875576019, -0.1633563935756683, -0.0615977123379707, 0.4936806559562683, -0.3387929797172546, 0.0002409803273622, 0.5155169367790222, 0.0546110682189465, 0.2076097428798676, 0.2810032069683075, -0.2743337452411652, 0.5630940794944763, -0.4576371908187866, -0.4132473766803741, 0.1954277604818344, 0.1953340917825699, 0.1977915465831757, -0.5333643555641174, -0.6774461269378662, 0.2126592546701431, -0.6886494159698486, 0.3554406762123108, 0.5849001407623291, -0.0385194420814514, -0.4585051536560059, 0.7575221657752991, 0.7140852212905884, 0.1531216502189636, -0.7817803621292114, 0.0856930911540985, 0.3244934976100922, -0.0373967587947845, -0.0064677665941417, -0.3716018199920654, -0.0734166428446770, -0.4612471461296082, -0.2533919513225555, 0.2495305836200714, 0.7780354619026184, 0.2580184340476990
-0.2396228015422821, 0.1357768625020981, 0.0426683239638805, 0.7416939735412598, 0.1387970894575119, 0.0872753709554672, -0.0010018923785537, -0.0573665089905262, -0.5993741154670715, -0.0036921361461282, -0.1900152266025543, -0.2565153241157532, 0.1528446078300476, 0.1704248785972595, -0.2031177282333374, -0.1799708902835846, 0.0969262346625328, -0.1217763200402260, 0.1185499802231789, 0.1259795427322388, 0.0232544410973787, 0.0474407114088535, 0.0415713079273701, 0.1147607639431953, 0.0332041159272194, -0.1811214536428452, -0.0885818079113960, 0.3279646933078766, 0.0553951300680637, 0.0013150767190382, -0.0681177899241447, -0.6160730123519897, -0.0970648527145386, -0.0019428050145507, 0.1980631351470947, 0.0549613423645496, 0.0454397685825825, 0.0025040172040462, 0.2003595978021622, 0.3055129945278168, 0.0705170407891273, -0.2410466074943542, -0.1054125279188156, 0.1780147850513458, 0.0293751750141382, 0.1228241547942162, 0.3293901085853577, -0.0909463167190552, -0.2436744421720505, -0.1235587894916534, 0.0802570059895515, 0.0156615246087313, 0.3539669513702393, -0.3793053925037384, 0.0192148666828871, 0.6201959252357483, 0.1713738739490509, -0.1292423456907272, -0.1068515926599503, -0.5073035359382629, -0.0314423516392708, -0.2239222079515457, 0.2136396914720535, 0.0102199790999293
-0.1870431900024414, 0.2330100536346436, -0.1368578970432281, 0.2005288749933243, 0.1001031845808029, 0.3036592900753021, 0.1407878100872040, -0.6720366477966309, -0.4692326188087463, -0.0508063584566116, 0.1442068517208099, -0.2637248337268829, -0.0036909936461598, 0.1910258084535599, -0.0749883353710175, -0.2977144420146942, -0.2462366223335266, 0.0719638317823410, -0.2521311044692993, 0.0087263658642769, 0.2199274599552155, -0.0182633511722088, -0.2230658084154129, -0.7327307462692261, -0.0962774306535721, 0.2310106009244919, -0.0854969620704651, 0.2535708248615265, 0.0783853828907013, -0.1220597922801971, 0.1950364559888840, -0.4833797514438629, -0.1274383068084717, -0.1684650033712387, -0.2039984166622162, 0.1023699715733528, -0.1657599359750748, 0.1263461112976074, 0.0919227302074432, 0.2535955309867859, -0.4036409258842468, 0.0628366619348526, 0.0593936294317245, -0.3061003684997559, 0.0732882320880890, 0.0524128936231136, 0.5522638559341431, 0.0992428287863731, -0.3933888673782349, 0.0363436974585056, 0.0423777326941490, 0.3728151917457581, 0.1943446993827820, -0.4859355390071869, -0.2507847547531128, -0.0083854645490646, 0.1338350772857666, -0.4728063642978668, 0.0781778767704964, -0.7333939671516418, 0.1372259110212326, -0.0622151419520378, 0.3260434269905090, 0.0518029965460300
0.0053597693331540, 0.0331449061632156, -0.1429608017206192, 0.1234379261732101, 0.0083077875897288, 0.0861484482884407, 0.0598684102296829, -0.4954783320426941, -0.3338134586811066, 0.2302435189485550, -0.0298620164394379, -0.1243213415145874, -0.2139033824205399, 0.3127358555793762, -0.0156969502568245, -0.2154022753238678, -0.0902445837855339, -0.1269131153821945, -0.1895510107278824, 0.2299533486366272, 0.0806159898638725, 0.0663648024201393, -0.0171397104859352, -0.5190562009811401, -0.1949695944786072, 0.1361177265644073, -0.3136617839336395, 0.2742446362972260, -0.1359326690435410, 0.2257670015096664, 0.3966485261917114, -0.0100564984604716, 0.2366072833538055, -0.1594291627407074, -0.0262816287577152, 0.1778924465179443, -0.1307009309530258, -0.0050435033626854, 0.0338933542370796, -0.0193534232676029, -0.1876675486564636, 0.3847264647483826, 0.0907272994518280, -0.2407370060682297, -0.0935382619500160, -0.1381842195987701, 0.3933370411396027, -0.0677764639258385, -0.1916278749704361, -0.1590518802404404, -0.0480336919426918, 0.4593827426433563, 0.0848284885287285, -0.2887346148490906, -0.0937902107834816, 0.1326298117637634, 0.3315141797065735, -0.6880089044570923, -0.0932502076029778, -0.9246943593025208, 0.3184799551963806, 0.0693309456110001, -0.0277995504438877, -0.0429311618208885
0.0261038746684790, 0.4501733779907227, 0.1497217565774918, 0.0264666955918074, 0.2397782802581787, 0.1616674065589905, 0.2454010546207428, -0.3894360065460205, -0.3661558032035828, 0.1702114343643188, 0.0050359857268631, 0.0007847233791836, -0.1307460814714432, -0.0009324508719146, 0.0063142012804747, -0.3092515766620636, 0.1025286391377449, 0.0529122501611710, -0.1030351072549820, 0.1786544620990753, 0.0723696202039719, 0.3018752336502075, -0.0906495824456215, -0.4318440258502960, -0.1244645640254021, -0.0147712100297213, -0.1558945178985596, 0.0405067838728428, -0.2758743762969971, 0.1523002088069916, 0.1926498413085938, 0.2717626690864563, 0.1275461614131927, -0.1125244498252869, 0.0652367100119591, 0.2753563225269318, 0.0103891165927052, -0.1441015303134918, 0.1927809566259384, -0.2605955898761749, 0.1145157739520073, 0.3318997919559479, -0.0684885010123253, -0.2925794422626495, 0.1211641803383827, 0.0374029353260994, 0.3320135772228241, -0.1083763167262077, -0.1272013187408447, -0.1360357999801636, -0.1432928442955017, 0.3987234234809875, -0.1116298064589500, 0.0059220599941909, -0.1193064600229263, 0.3771467804908752, 0.3011243045330048, -0.4984908699989319, -0.1020227596163750, -0.2346894592046738, 0.5374324321746826, -0.0625071004033089, -0.0443208850920200, -0.0659252852201462
-0.0609567761421204, 0.0125588625669479, 0.1872067004442215, -0.1306701153516769, 0.0648866221308708, 0.0402393676340580, 0.3945123553276062, -0.0040681986138225, -0.2609490454196930, 0.0860631465911865, 0.1226369664072990, -0.1250564455986023, -0.4989756643772125, 0.0507919676601887, 0.2565747201442719, -0.1331998407840729, 0.1970152258872986, -0.3514182269573212, 0.0601232200860977, 0.1401703357696533, 0.1584993004798889, 0.0300345700234175, 0.0511027500033379, -0.0574185512959957, 0.1251045465469360, 0.1594451218843460, 0.1844996064901352, 0.0716988816857338, 0.1399785876274109, 0.3299972116947174, 0.2781541347503662, 0.3712232708930969, 0.1171962991356850, -0.2738640606403351, -0.0847557112574577, 0.4176983833312988, 0.0773453190922737, -0.0341746211051941, 0.2526087760925293, -0.2887528836727142, 0.1041664034128189, -0.2039744853973389, -0.1228892058134079, -0.2841504514217377, -0.0717632621526718, 0.2086559832096100, 0.4710375666618347, 0.0499834604561329, 0.1763662397861481, -0.0497967340052128, -0.0726521909236908, 0.2429902702569962, -0.0685931146144867, -0.2155853509902954, -0.0506503432989120, 0.2215020507574081, 0.0030882188584656, -0.0935133844614029, 0.0366400182247162, 0.5163782238960266, 0.1768142729997635, 0.1428783982992172, -0.2927970588207245, -0.2743695676326752
-0.2316206544637680, -0.2376502752304077, 0.2809338867664337, 0.1021759286522865, -0.1223390698432922, -0.0024695084430277, 0.2723673880100250, 0.2083562910556793, -0.2431130558252335, 0.0469496361911297, 0.3481287658214569, 0.0391763299703598, -0.3386573493480682, 0.1246801987290382, 0.2937425374984741, -0.0485054738819599, 0.0551336109638214, 0.0367333479225636, 0.6789488792419434, -0.0061388625763357, 0.1560396552085876, 0.1162558272480965, 0.2237291485071182, 0.3887913823127747, 0.1141677200794220, -0.1665094047784805, 0.1475619375705719, -0.1756471693515778, 0.0095880385488272, 0.2765278816223145, 0.4566928148269653, 0.3351187109947205, 0.2504411339759827, -0.2933731079101562, -0.1121641770005226, 0.5172146558761597, 0.3486922383308411, 0.2193463444709778, 0.0441245511174202, -0.1063197702169418, 0.3115331828594208, -0.2177155315876007, 0.0465629212558270, -0.2577531039714813, 0.1405042707920074, 0.2473140060901642, 0.3883501589298248, 0.0885895639657974, 0.2292296141386032, 0.3004519939422607, -0.1751781553030014, 0.5639623999595642, 0.0899627730250359, -0.0409306101500988, 0.1164987310767174, -0.0050402311608195, -0.1228640750050545, -0.0897314697504044, 0.0040333941578865, 0.4938338696956635, -0.8135858178138733, 0.2872844040393829, -0.1037091389298439, 0.1491487175226212
-0.6055083870887756, 0.0608736053109169, 0.1653821170330048, 0.1530712246894836, -0.0122396610677242, -0.0313643142580986, 0.1020576134324074, 0.2973535358905792, -0.0157916676253080, -0.1518510878086090, 0.0233079232275486, 0.1001859605312347, -0.0179399587213993, 0.0678231269121170, -0.0575708895921707, -0.0806977301836014, 0.1988471895456314, 0.1129594370722771, 0.3520730733871460, 0.0808675885200500, 0.0841589346528053, -0.0291200317442417, 0.2919472754001617, 0.2542687654495239, 0.1496689021587372, -0.2006870061159134, 0.2574283182621002, -0.3762251734733582, -0.1063599362969398, 0.3653239607810974, 0.5979909896850586, -0.5383087992668152, -0.0406414866447449, 0.0781206190586090, -0.0171150192618370, 0.5986671447753906, 0.2848711311817169, 0.3782030642032623, -0.0759506896138191, 0.7113242745399475, 0.2800161540508270, -0.3314945697784424, 0.1851477175951004, -0.2190600335597992, -0.1486232280731201, 0.1981374174356461, 0.3116705119609833, -0.1392227858304977, 0.2908262610435486, -0.0317419394850731, -0.0812040045857430, 0.2502801418304443, -0.4180067181587219, 0.2538810372352600, 0.0167933460325003, -0.4139986336231232, -0.0983749777078629, -0.0799493342638016, 0.0889262408018112, -0.3208967745304108, -0.0793453976511955, 0.2786511778831482, -0.0820722877979279, 0.3000453114509583
0.1692692339420319, 0.2511029839515686, 0.2069271951913834, -0.1353008449077606, 0.1964069306850433, -0.1700152456760406, -0.0620924979448318, 0.2660399973392487, 0.0105690751224756, -0.2153666913509369, -0.1987557709217072, 0.1096894592046738, 0.0137483896687627, 0.1029375940561295, 0.0067526944912970, -0.1388572454452515, 0.0630303099751472, -0.1205182224512100, -1.2632087469100952, -0.2285979986190796, 0.1118920817971230, 0.2596683502197266, 0.3451170027256012, 0.1039804220199585, 0.1242538839578629, -0.3031769096851349, 0.1982897222042084, -0.1025698930025101, -0.1723669320344925, 0.1021596342325211, 0.2577052116394043, -1.2902902364730835, 0.0269335228949785, 0.3214262425899506, -0.1713299900293350, 0.4493640661239624, 0.1030215993523598, 0.1696344614028931, 0.5093700289726257, 0.7881666421890259, 0.4904728531837463, -0.1268512755632401, -0.2483317404985428, 0.2164866030216217, -0.1633870303630829, -0.1331012099981308, 0.0565211661159992, 0.0547812953591347, 0.0578248426318169, -0.1933125555515289, 0.5364513397216797, -0.0357690230011940, 0.0338805876672268, 0.0082530565559864, 0.2171677350997925, -0.1705686151981354, 0.4228859245777130, -0.1212459430098534, -0.2075432837009430, -0.3301216959953308, 0.0653230994939804, -0.0177355408668518, 0.0702536925673485, 0.3166238367557526
0.7836871743202209, 0.1318479627370834, 0.3241443634033203, 0.1307384818792343, -0.2407318353652954, -0.0976958721876144, 0.0608157031238079, -0.1327437162399292, -0.0973092019557953, -0.3055498301982880, -0.1999583393335342, -0.3028013110160828, 0.0300133209675550, 0.3012213408946991, 0.0325040481984615, -0.1651976853609085, 0.1306303441524506, -0.0534800626337528, 0.1433637738227844, -0.2558642327785492, 0.0327937528491020, 0.2901944220066071, 0.3509584963321686, 0.2368376404047012, -0.0621714815497398, -0.0245261061936617, 0.3025641143321991, 0.1186360344290733, -0.2013418078422546, 0.1539475619792938, -0.0360238179564476, -1.3194484710693359, 0.2601210772991180, 0.3833730518817902, -0.0457550659775734, 0.5278888344764709, 0.1186546161770821, 0.3173595964908600, 0.1559219956398010, -0.1813574731349945, 0.2693333029747009, 0.0932221263647079, -0.1978491693735123, 0.3388862609863281, -0.1099672317504883, 0.1028650477528572, -0.1430945098400116, -0.0394651517271996, -0.0456105731427670, -0.2163256108760834, 0.4981828629970551, -0.0676956027746201, 0.2143149077892303, -0.0003914632543456, 0.2094256877899170, 0.6241284012794495, 0.0070103495381773, -0.0381581485271454, -0.2114410102367401, -0.2025469839572906, 0.1457553505897522, 0.1789265722036362, -0.1017521545290947, 0.0651708692312241
-0.0671829581260681, -0.2133460342884064, 0.0780797749757767, 0.2157685756683350, -0.1300366818904877, 0.0418125689029694, -0.0478950217366219, -0.1404449641704559, 0.1477732956409454, 0.0160521939396858, -0.0174590721726418, -0.0803070515394211, -0.1221957579255104, 0.3942252397537231, 0.0136562697589397, -0.1446042954921722, -0.1302664726972580, 0.0135373566299677, 0.4274035096168518, -0.0629283785820007, 0.1783510148525238, 0.1302721798419952, 0.3033897876739502, 0.2123647779226303, 0.0662532821297646, 0.0021747313439846, 0.1992087364196777, -0.0126484967768192, 0.0632298067212105, 0.1169013231992722, 0.0229946020990610, -1.2042163610458374, 0.2279077619314194, 0.4313209652900696, 0.0418653748929501, 0.2758927047252655, 0.3134447634220123, 0.1827871054410934, -0.0716515183448792, -1.0603346824645996, 0.3176364600658417, -0.0327021554112434, 0.1016638949513435, 0.2777889370918274, -0.0117533011361957, -0.0802563056349754, -0.2226633280515671, 0.0509651862084866, -0.1095526367425919, -0.1338238269090652, 0.2661432027816772, -0.0320365130901337, -0.0627782642841339, -0.2630467116832733, 0.2599547207355499, 0.4960936605930328, 0.0771838426589966, 0.0121872471645474, -0.0637628510594368, -0.1482857912778854, 0.2685422599315643, 0.2741011083126068, 0.0380851291120052, -0.2580781280994415
-0.1865193843841553, -0.0387234203517437, 0.1884432137012482, 0.1673854142427444, -0.2405278533697128, -0.0047074854373932, -0.0316610187292099, -0.0969860032200813, 0.0161398164927959, 0.1572141796350479, -0.2625424265861511, -0.1972323954105377, -0.2774752080440521, -0.0009448512573726, 0.0193686988204718, -0.4919670820236206, -0.1460649222135544, -0.0947057753801346, 0.3067016303539276, -0.0546411760151386, 0.2386793941259384, 0.1512327194213867, 0.0936747416853905, -0.0973452553153038, 0.0991469323635101, -0.1586159467697144, 0.4169104397296906, -0.3294054865837097, -0.2274433821439743, 0.1775756031274796, 0.0097420886158943, -1.3774996995925903, 0.2156752943992615, 0.1010501533746719, 0.3834139406681061, 0.2813904881477356, 0.1375530958175659, 0.2909585237503052, -0.3091223537921906, -1.0792279243469238, 0.3723391890525818, 0.3212368190288544, 0.0059570600278676, 0.0856855735182762, 0.0347655974328518, 0.0708929151296616, -0.2368271201848984, 0.0274198353290558, -0.1418478041887283, 0.1890050023794174, 0.2210517227649689, 0.3020631372928619, -0.2762519121170044, -0.5564743280410767, 0.2646943032741547, 0.2355572134256363, 0.1031626388430595, -0.1293420642614365, 0.0879446119070053, 0.1377887129783630, 0.0542505122721195, 0.3223924636840820, 0.2636595368385315, 0.0284437350928783
-0.4439608752727509, -0.3070753514766693, 0.6854377388954163, -0.1709131300449371, -0.9057121276855469, -0.1010705232620239, 0.0158591866493225, -0.1547544896602631, 0.0464863441884518, 0.5093891024589539, 0.5053929686546326, -0.7794328927993774, -0.1611947417259216, 0.8055068254470825, 0.5227786898612976, -0.0123155042529106, -0.5263044238090515, 0.2480881512165070, 0.2158890962600708, -0.3109803497791290, 0.0576198920607567, 0.7098280787467957, 0.2570437788963318, 1.0311689376831055, -0.1411447525024414, 0.0130708171054721, 0.2476310282945633, -0.0946508944034576, 0.0518218055367470, 0.2375770211219788, 0.1282171010971069, -0.7365681529045105, 0.6757943034172058, -0.0233422834426165, 0.3122235536575317, -0.0786624625325203, 0.1435308903455734, 0.1540883630514145, 0.0856909379363060, -0.9334916472434998, 0.2824272215366364, -0.1069372594356537, -0.1926177442073822, 0.2468317002058029, -0.1726240962743759, -0.4109862446784973, -0.2677855193614960, -0.1019270494580269, 0.2109722942113876, 0.3671098649501801, -0.1446904093027115, -0.0681416541337967, -0.6905350685119629, -0.2561831176280975, 0.6896783709526062, -0.2915799915790558, 0.5741573572158813, 0.0956730395555496, 0.0287562906742096, 0.4392198920249939, 0.6333039402961731, 0.4345933794975281, 0.0257332436740398, 0.1134222894906998
0.1601639986038208, -0.2421222180128098, -0.0700160712003708, 0.1892658770084381, -0.2804452776908875, 0.2586985528469086, 0.1465440988540649, -0.3866468966007233, 0.1740580052137375, -0.1176349148154259, -0.2109234482049942, -0.3132410645484924, 0.3271691501140594, 0.5281530022621155, -0.1751532107591629, -0.1612129956483841, -0.7941440939903259, -0.1861548870801926, 0.2660118937492371, -0.1584700793027878, 0.1905485093593597, 0.2769000530242920, 0.2901675105094910, -0.1306846886873245, -0.0643990710377693, 0.3697844743728638, -0.1343607902526855, -0.0527306497097015, -0.0202974360436201, -0.5490697622299194, -0.3306944966316223, 0.2620494365692139, 0.0392183214426041, -0.5104051828384399, 0.2040261924266815, -0.0943766683340073, 0.0679949149489403, 0.3392571210861206, -0.4532294869422913, -0.3249308764934540, 0.2993844449520111, 0.3164768517017365, -0.0617705620825291, -0.0025995841715485, -0.1816281974315643, -0.0813342481851578, 0.7902618050575256, -0.0787833333015442, -0.1324017643928528, -0.0186154097318649, -0.9386665225028992, 0.6545646786689758, 0.1712410449981689, 0.1058773249387741, 0.1839252263307571, -0.0094253262504935, 0.4829389154911041, 0.0921684503555298, 0.2033510655164719, -0.0876537188887596, 0.6703183054924011, 0.1831586658954620, -0.3958913385868073, -0.1188187971711159
-0.2686080932617188, 0.5463488101959229, 0.2863899171352386, 0.2886702418327332, 0.3709956705570221, 0.0067554330453277, 0.3903742730617523, 0.2889154255390167, 0.0265249032527208, -0.0899770557880402, 0.4929101765155792, -0.4543633759021759, 0.0145564572885633, 0.6893106102943420, 0.3155625760555267, -0.1852930486202240, 0.2329428195953369, -0.2826760113239288, -0.2572863399982452, 0.4986547827720642, 0.3311689198017120, -0.4298429787158966, 0.3412124216556549, -0.3662524223327637, -0.1853018850088120, 0.3865719139575958, -0.0197756495326757, 0.4621376395225525, 0.1498429179191589, -0.0165829975157976, 0.6003615260124207, -0.1549293249845505, 0.1530366390943527, 0.3301396965980530, -0.2757816016674042, 0.4294666647911072, -0.2051105499267578, -0.3482427000999451, 0.0612484775483608, 0.3185805082321167, -0.1593257039785385, -0.6604927778244019, -0.6153692603111267, 0.0380299612879753, -0.6295098662376404, -0.0073207663372159, 0.2312735021114349, 0.0458116531372070, -0.0023044440895319, 0.5617105364799500, 0.4345211684703827, -0.1973511576652527, -0.5814065337181091, 0.4979426562786102, -0.3047676682472229, 0.0745555087924004, -0.5470399856567383, -0.3245935440063477, -0.5420070290565491, -0.0951329618692398, -0.0750639662146568, 0.3958054482936859, 0.5891028642654419, 0.2362801879644394
-0.3306986689567566, 0.1109298467636108, -0.1004049777984619, 0.9486511349678040, 0.0812048390507698, 0.0730629488825798, 0.2959331274032593, -0.2298934310674667, -0.6822269558906555, -0.3014283180236816, -0.1978359371423721, -0.1043012663722038, 0.1008829325437546, 0.3407368659973145, -0.3301474750041962, -0.2526049315929413, 0.0516013801097870, -0.5276998877525330, -0.1431688517332077, 0.1529162973165512, -0.0104411635547876, 0.1266173422336578, 0.5371416211128235, -0.5871008634567261, 0.0118181798607111, -0.2722768783569336, -0.1370562911033630, 0.0339868627488613, 0.1325824856758118, 0.2481292784214020, 0.0792893767356873, -0.2534114718437195, -0.0231943335384130, 0.0565211512148380, -0.2121610641479492, 0.1247269138693810, 0.1486398279666901, 0.1836274415254593, -0.0069381683133543, 0.5046746730804443, 0.2384181320667267, 0.0233992096036673, -0.3001352250576019, -0.0822526812553406, -0.2491059750318527, 0.3371785283088684, -0.1212205886840820, 0.0775626823306084, -0.4060191512107849, 0.0827905312180519, -0.3448183238506317, 0.1428719460964203, 0.1318114548921585, -0.0932160019874573, 0.4524165093898773, 0.5540683269500732, 0.0102560790255666, -0.7797209620475769, 0.2370615452528000, -0.3813303709030151, -0.4974161982536316, -0.0808104127645493, 0.3582694530487061, 0.1976924985647202
-0.2988915741443634, -0.0624198652803898, 0.0033871678169817, 0.4155065715312958, -0.4505994915962219, 0.2208134829998016, -0.0960045978426933, -0.1494950652122498, -0.5280021429061890, 0.0370632521808147, -0.1982937902212143, 0.0375570207834244, -0.1153342798352242, 0.1393298953771591, -0.0558253638446331, 0.2753873467445374, -0.0893931165337563, -0.0350818075239658, -0.1184439435601234, 0.2997266352176666, 0.5322521924972534, 0.2192488461732864, -0.1472245305776596, 0.0257025919854641, -0.0006286119460128, 0.0889523401856422, -0.3374108672142029, 0.1113807633519173, -0.0402026735246181, 0.1631446033716202, 0.4444175660610199, -0.0717567577958107, 0.1477038860321045, -0.0894926562905312, 0.0407018996775150, -0.0216144975274801, 0.1519011259078979, 0.0505887791514397, 0.0793517678976059, 0.0475911311805248, -0.2971879541873932, 0.3984178006649017, -0.1084997653961182, -0.3669488728046417, -0.0880055949091911, 0.3736380040645599, 0.3442136943340302, -0.0426284223794937, -0.2353406250476837, 0.1420936584472656, -0.2184306681156158, 0.4357886314392090, -0.3190810680389404, -0.4465020298957825, -0.1737245023250580, 0.0222132839262486, 0.2494209557771683, -0.5734440088272095, 0.0723069012165070, -0.4055718779563904, 0.1251475214958191, 0.3330717980861664, -0.0565860420465469, -0.5098479986190796
-0.1891559511423111, 0.1114222109317780, 0.1864887923002243, -0.0424092747271061, -0.3884321153163910, 0.3287028372287750, -0.0482646785676479, -0.1590716987848282, -0.2712578177452087, 0.3227157294750214, 0.1181450560688972, -0.0724702179431915, -0.2294066697359085, 0.0000637560879113, -0.0392042361199856, 0.1092592999339104, -0.0835882499814034, -0.0311787705868483, -0.0613311380147934, 0.2022312581539154, 0.4317570924758911, -0.0128763094544411, 0.0865398421883583, 0.0869854241609573, 0.0481244698166847, -0.0423382148146629, -0.2037769556045532, 0.2064563184976578, -0.2810094952583313, 0.2626776099205017, 0.4124611616134644, 0.0582647807896137, 0.2063253819942474, -0.2513606846332550, -0.0232458822429180, -0.0127142816781998, 0.1724479645490646, 0.0509384162724018, 0.2374817579984665, -0.2703333497047424, -0.2394112348556519, 0.0823361352086067, -0.0177134480327368, -0.1565384715795517, 0.0734512731432915, 0.2179054170846939, 0.1862437725067139, 0.0592379719018936, -0.0255038607865572, -0.0178934577852488, -0.3875968754291534, 0.3098365962505341, -0.2772959172725677, -0.3514624238014221, -0.3943698704242706, 0.1619101464748383, 0.2186040133237839, -0.3513155877590179, 0.0213830433785915, -0.6116315126419067, 0.2576074600219727, 0.1248250901699066, 0.0096328053623438, -0.1320547312498093
-0.5073229670524597, 0.3265539109706879, 0.0458976551890373, 0.1055199280381203, -0.4576771259307861, 0.3001547455787659, 0.1461775600910187, -0.0435391068458557, -0.2194383293390274, 0.1277809292078018, 0.0653181448578835, 0.0097654424607754, -0.2576530575752258, 0.0734451338648796, -0.1127481833100319, -0.0714987888932228, -0.2803441584110260, 0.0443716347217560, -0.1764957755804062, -0.0138681111857295, 0.3077417016029358, 0.1781934052705765, -0.3197200596332550, -0.0864092633128166, 0.0481875166296959, -0.0253831185400486, -0.2024232447147369, 0.0380833484232426, -0.2298472374677658, 0.2305786013603210, 0.2518554031848907, 0.0796820372343063, 0.1165145784616470, -0.0016875263536349, 0.1380555033683777, -0.3011115789413452, -0.0494153760373592, -0.0394640304148197, 0.2147514820098877, -0.4663991928100586, -0.1466906219720840, -0.3415002524852753, -0.0673243999481201, -0.1285827606916428, 0.1219831779599190, 0.4169543981552124, 0.0550942607223988, -0.0513027869164944, 0.0624878108501434, -0.0890662223100662, -0.0789085105061531, 0.2647508084774017, -0.1384046375751495, -0.2418724000453949, -0.1531594693660736, 0.0833426266908646, 0.4713181257247925, -0.0688585117459297, 0.0041487487033010, 0.0568175986409187, 0.8156880140304565, 0.0714112073183060, 0.1136984974145889, -0.1892745941877365
-0.3564572334289551, 0.0583570078015327, 0.2388807684183121, -0.1906079649925232, -0.6666567921638489, 0.3130918741226196, 0.1479334384202957, -0.0740960761904716, -0.4985818862915039, 0.0466896295547485, 0.3390369117259979, 0.0660780295729637, -0.3767472803592682, 0.0900233611464500, -0.0204535908997059, -0.1546163707971573, -0.5416442155838013, -0.0869657099246979, 0.1064272746443748, -0.1629130542278290, 0.5575100779533386, -0.0142686134204268, -0.2204935848712921, 0.2616898417472839, 0.1020082756876945, 0.1652368009090424, 0.0356866382062435, 0.1375506520271301, 0.1630392521619797, 0.3498582839965820, 0.5056082010269165, -0.0966241210699081, 0.1885005682706833, 0.1797995567321777, -0.0290037039667368, -0.4004096686840057, 0.0656419917941093, 0.0064399493858218, 0.0861036032438278, -0.1038108840584755, -0.1476445496082306, -0.4024801850318909, -0.1334260106086731, -0.2755106985569000, 0.1620149612426758, -0.0324354209005833, -0.1370576322078705, 0.1077481657266617, 0.0264609474688768, 0.4091929495334625, -0.0812859758734703, 0.1271197199821472, -0.0505915954709053, 0.1576616466045380, 0.1528805345296860, -0.3066020607948303, 0.4013294875621796, -0.0485664568841457, -0.0403628870844841, 0.2694637775421143, 0.5967621207237244, 0.4232833087444305, 0.2786977589130402, 0.1337089091539383
