0.025657, -0.099754, -0.078355, 0.108024, -0.009002, -0.126551, 0.100999, -0.077882, 0.048891, 0.062597, 0.118730, -0.079108, 0.106432, 0.040662, -0.146598, -0.123962, 0.104545, -0.065718, -0.056640, 0.098922, 0.127119, 0.128689, -0.039162, -0.016287, 0.083543, -0.146764, -0.094617, -0.074095, 0.132668, -0.085891, -0.057057, 0.124793, 0.045995, 0.022533, 0.033147, 0.098476, 0.126507, -0.122823, 0.012226, 0.117805, 0.064679, -0.089399, -0.133428, -0.077427, -0.052289, 0.079054, 0.074658, 0.025200, 0.013518, -0.040888, 0.047274, 0.147664, 0.130129, 0.063847, -0.108979, -0.091091, 0.085213, 0.120018, -0.023103, 0.106111, -0.017520, -0.113321, -0.069366, 0.003123
0.119612, 0.054675, 0.125823, 0.009238, -0.009083, -0.071614, 0.036175, 0.000842, -0.113194, 0.092159, 0.076435, -0.023894, 0.107014, -0.043498, 0.127886, -0.131309, 0.021255, -0.124495, -0.078588, 0.067633, -0.056161, 0.098100, -0.026106, -0.049086, -0.050458, 0.106382, -0.073715, 0.146273, -0.115362, 0.128214, -0.038341, -0.033975, -0.135906, -0.000754, 0.122104, 0.073673, 0.050199, 0.138177, 0.076310, 0.092215, 0.147591, 0.036219, 0.010970, -0.147493, -0.028881, -0.027286, -0.017675, -0.096694, 0.010706, 0.100075, -0.073012, 0.051952, -0.096473, -0.130085, 0.010008, -0.139572, -0.002932, 0.139541, -0.006941, 0.125412, -0.150595, 0.150843, -0.021860, -0.149067
0.106923, 0.086019, 0.105249, -0.133832, 0.075038, 0.096323, -0.061594, 0.004736, -0.078446, -0.078571, -0.040570, 0.015652, 0.029368, -0.014687, -0.031899, 0.110709, 0.063630, 0.212682, -0.038143, -0.064006, 0.086722, 0.013091, -0.109767, -0.178775, -0.125423, 0.045726, -0.077171, 0.031144, 0.120355, 0.123542, 0.017974, -0.053189, 0.148360, -0.025390, -0.091900, 0.134902, 0.080590, -0.008521, 0.034803, -0.048704, -0.136150, -0.041487, -0.021964, -0.072724, -0.229152, 0.065052, 0.065073, 0.240762, -0.016312, 0.131939, -0.104995, 0.145647, -0.167809, -0.018302, -0.045331, 0.014969, -0.011777, -0.082407, 0.220146, -0.117046, 0.104644, -0.012287, 0.134490, 0.028405
-0.202950, 0.295458, -0.098579, -0.001247, -0.087571, -0.169348, -0.301203, 0.334305, 0.062771, -0.063677, -0.083499, -0.039926, 0.075877, -0.162314, 0.007674, 0.081956, 0.153859, 0.070177, -0.335325, 0.035369, -0.218666, 0.058959, -0.313561, -0.314440, 0.052092, 0.108958, -0.072781, -0.023717, -0.025642, 0.111070, 0.213616, -0.265038, 0.225848, 0.255444, -0.117024, 0.129223, -0.085083, 0.093845, -0.049695, -0.180711, -0.218889, 0.264864, -0.052201, 0.222807, -0.221618, -0.019302, -0.337930, 0.219236, -0.306194, 0.264962, 0.013901, 0.296835, -0.292846, 0.018016, -0.054862, -0.167258, 0.161840, 0.352432, 0.349829, -0.039502, -0.156113, 0.093569, 0.051398, -0.275659
-0.243533, 0.308794, -0.307778, 0.142693, -0.146708, -0.180863, -0.000245, 0.328701, -0.193712, -0.101481, -0.080420, -0.043843, 0.083093, -0.214040, -0.007016, 0.003075, -0.181406, 0.217065, -0.330383, -0.163041, -0.016696, -0.371711, -0.306989, -0.130970, -0.162576, 0.133403, -0.031138, 0.032332, -0.121025, 0.071580, 0.186806, -0.296535, 0.349203, 0.221510, 0.111129, -0.060598, 0.123525, 0.074801, 0.165181, -0.209985, 0.098781, 0.117331, -0.049148, 0.209947, -0.190742, -0.063032, 0.024055, 0.152094, -0.046860, 0.340686, 0.151895, 0.313125, -0.480816, -0.131446, 0.044363, -0.354455, 0.233080, 0.224398, 0.282815, -0.223977, -0.041548, 0.195872, -0.032750, -0.298427
-0.293185, 0.605784, -0.270334, 0.605552, -0.246510, 0.032398, -0.198776, -0.047891, -0.491848, -0.128423, 0.063040, 0.015104, 0.239000, -0.086068, -0.233259, 0.531424, -0.091473, 0.283925, -0.051149, -0.090939, 0.114454, -0.370757, -0.317700, -0.180782, -0.185175, -0.046301, -0.138832, -0.173534, 0.014368, 0.086779, 0.346436, -0.473323, 0.423673, 0.350926, 0.145994, -0.077534, 0.039738, 0.128246, 0.169982, 0.084946, -0.356061, 0.325786, 0.035940, 0.244305, -0.396350, 0.009727, -0.168388, 0.455163, -0.417268, 0.213738, 0.272960, 0.361555, -0.464226, -0.229806, -0.374263, -0.452107, 0.048728, 0.385310, 0.626381, 0.001409, 0.007822, 0.467328, 0.055341, -0.255741
-0.116679, 0.651999, -0.267895, 0.631216, -0.293118, -0.060939, -0.323227, -0.056820, -0.329582, -0.135338, -0.191006, 0.258932, 0.275433, -0.218664, -0.589588, 0.286634, -0.387833, 0.255685, -0.194950, -0.204514, 0.169365, -0.497280, -0.313932, -0.147340, -0.182480, 0.238891, 0.078952, -0.260500, -0.208226, 0.262385, 0.218706, -0.349188, 0.330189, 0.591242, 0.082100, 0.073302, 0.567349, 0.342014, 0.313716, -0.229476, -0.123341, 0.222484, 0.190880, 0.096181, -0.551461, 0.275951, -0.113220, 0.545479, -0.356318, 0.278654, 0.261927, 0.422912, -0.572743, -0.239047, -0.251196, -0.064716, 0.156902, 0.502707, 0.263018, -0.116319, -0.176564, 0.641902, -0.049281, -0.224358
-0.243755, 0.038953, -0.483633, 0.169064, -0.143464, -0.366737, -0.336744, -0.010364, 0.136021, 0.144670, -0.171782, 0.264306, -0.152554, -0.185212, 0.074885, 0.647842, 0.257043, 0.193869, -0.336312, -0.055353, -0.136224, 0.124112, -0.353690, -0.542332, -0.244038, -0.008764, 0.100738, 0.420475, 0.097622, 0.024851, -0.159795, 0.095115, -0.089813, -0.066325, -0.329097, 0.235795, 0.743254, -0.155597, 0.454959, -0.064414, -0.000545, -0.021850, 0.210886, -0.105312, -0.228244, 0.352296, -0.268664, -0.004168, -0.091296, -0.081027, -0.259277, -0.101838, 0.067985, 0.262128, 0.083389, -0.220913, 0.568379, -0.158672, 0.164256, -0.048774, -0.253285, 0.588558, 0.580814, -0.582780
-0.749542, 0.087934, -0.470653, -0.196382, -0.184810, 0.276423, -0.038099, -0.068936, -0.018151, 0.002552, -0.039564, 0.206028, 0.881216, -0.169721, -0.287200, 0.199548, 0.064274, 0.631742, -0.255198, 0.566786, 0.040331, -0.125902, -0.349455, -0.357807, -0.268654, 0.102962, -0.086754, 0.390126, 0.080415, 0.477232, -0.282652, 0.018867, 0.295860, 0.506897, -0.664789, 0.215345, 0.852765, 0.429180, 0.458568, 0.321387, -0.470036, 0.195622, 0.023951, 0.031211, -0.962815, 0.203186, -0.260002, 0.921379, -0.720642, -0.158241, -0.186468, 0.647634, -0.182420, -0.378762, -0.003162, 0.035810, 0.278949, -0.111778, 0.673310, -0.296862, -0.267135, 0.013636, 0.454548, 0.117978
-0.739741, 0.383081, -0.594591, 0.263836, -0.211466, 0.114670, -0.419929, 0.024131, -0.386137, -0.751404, -0.064155, 0.657260, 0.470603, -0.620712, -0.092824, 0.515817, -0.361107, 0.625467, -0.754124, 0.012876, -0.264262, -0.137599, -0.579406, -0.419587, -0.506330, 0.244465, -0.150826, 0.185044, -0.106069, 0.134998, 0.501134, -0.578586, 0.438577, 0.530970, 0.212869, -0.181593, 0.448371, 0.299272, 0.060865, -0.025902, -0.134859, 0.509658, 0.526447, 0.717157, -0.864166, 0.148425, -0.600813, 0.626333, -0.657002, 0.484806, 0.436621, 0.548974, -0.596026, -0.660915, -0.302596, -0.708812, 0.733038, 0.568912, 0.260115, -0.167705, 0.552860, 0.578484, -0.033321, -0.178056
-0.562243, 0.705885, -0.619846, 0.364990, -0.054245, -0.016699, -0.632338, 0.069012, -0.550520, -0.625843, -0.243231, 0.651739, 0.408081, -0.609967, -0.262046, 0.312700, -0.323866, 0.596435, -0.543524, 0.002855, -0.121143, -0.079711, -0.424245, -0.522918, -0.520223, -0.050395, -0.052301, 0.002631, -0.071071, 0.141327, 0.688763, -0.518823, 0.466550, 0.525314, 0.337705, 0.085937, 0.100893, 0.318057, 0.021026, -0.237564, -0.130826, 0.624723, 0.380920, 0.531208, -0.588592, 0.518317, -0.280233, 0.276385, -0.680230, 0.759390, 0.427002, 0.457801, -0.700039, -0.318692, -0.363419, -0.482233, 0.650808, 0.641848, 0.274315, -0.240014, 0.463987, 0.701588, -0.278110, -0.315120
-0.442892, 0.519416, -0.413898, 0.113994, -0.214270, -0.017408, -0.219664, -0.049513, -0.382229, -0.279939, -0.119900, 0.278381, 0.268796, -0.259317, -0.034296, -0.002728, 0.120197, 0.307833, -0.277647, 0.128230, -0.192734, 0.080808, -0.290835, -0.486557, -0.297706, 0.116301, -0.138986, 0.113318, 0.028578, 0.268513, 0.390323, -0.269878, 0.262387, 0.352930, -0.079089, 0.119344, 0.142441, 0.149821, 0.119009, -0.282715, -0.312047, 0.405638, 0.234032, 0.256990, -0.239303, 0.239230, -0.109052, 0.373444, -0.281605, 0.528253, 0.048979, 0.298240, -0.310621, -0.022915, -0.040371, -0.182730, 0.058484, 0.510577, 0.250997, -0.272029, -0.088778, 0.431648, -0.021435, -0.365764
0.130630, 0.087125, -0.089400, -0.049072, 0.128205, 0.128737, 0.058032, -0.002894, 0.009341, 0.060306, 0.043010, 0.034364, -0.039080, 0.095692, -0.149284, -0.047327, -0.007245, -0.090654, 0.112509, -0.028509, -0.013816, -0.128306, 0.058410, 0.135274, 0.028445, -0.104987, -0.059133, -0.122581, -0.014415, -0.029329, -0.016014, 0.119612, -0.116859, 0.101082, -0.135169, -0.010627, -0.102421, 0.122287, -0.056694, -0.070192, -0.123532, 0.006011, 0.139940, 0.072888, -0.035803, -0.018498, -0.009213, -0.145956, 0.055553, -0.011868, 0.100442, 0.029381, -0.076513, -0.054067, -0.037358, 0.061772, -0.020228, -0.047018, 0.009451, 0.012416, 0.017920, 0.135314, -0.055937, -0.123076
-0.042489, 0.111693, 0.070527, 0.023871, -0.138212, -0.096872, -0.127363, -0.120368, -0.024187, 0.099648, -0.105241, -0.063172, -0.006459, 0.006275, 0.106985, -0.106559, 0.035763, 0.019693, -0.146294, 0.025219, -0.024527, 0.151165, 0.099281, 0.055614, 0.032400, -0.092327, -0.060088, 0.041396, 0.131023, 0.094332, -0.013811, -0.031533, -0.078034, -0.071261, 0.066547, -0.016841, 0.066757, -0.082919, -0.065711, -0.129492, 0.057552, 0.064825, -0.139880, 0.077973, 0.045843, -0.142656, 0.037775, -0.012020, 0.047462, 0.123900, -0.009812, 0.090548, 0.096524, -0.114046, 0.054921, 0.106835, 0.005580, -0.003946, -0.091343, -0.135817, -0.142421, 0.077049, 0.143241, 0.006777
-0.039837, -0.140740, 0.110228, -0.055811, 0.000285, -0.122857, 0.140067, 0.093882, -0.108954, 0.058878, -0.125785, 0.084396, 0.129692, -0.046566, -0.018570, -0.009149, 0.043012, -0.139188, 0.130591, 0.121249, -0.115747, -0.075164, -0.029307, -0.023537, 0.040454, 0.061974, -0.018471, 0.050824, -0.040264, 0.029167, 0.057197, 0.018624, -0.019091, -0.018708, -0.080730, 0.031339, -0.020151, -0.074312, 0.069021, 0.144930, 0.100195, 0.033083, -0.151564, 0.060062, 0.001415, 0.060447, -0.137736, -0.128521, 0.129214, -0.032317, 0.121519, 0.084737, 0.097650, -0.129157, 0.034627, 0.070791, -0.151480, 0.145204, -0.037119, 0.134294, -0.113196, 0.057626, 0.030659, 0.048841
0.113453, 0.530319, -0.013943, -0.153967, -0.257448, -0.164103, 0.069682, -0.378253, 0.282989, -0.114228, 0.177810, 0.348815, 0.282451, 0.281315, 0.099593, 0.386934, 0.237974, 0.116150, -0.289837, -0.090521, -0.478237, -0.030465, -0.493242, -0.435231, -0.035619, 0.090062, -0.141399, 0.340810, 0.244224, 0.230927, -0.014978, -0.602391, 0.418382, 0.457994, -0.221997, 0.306485, 0.218721, 0.392683, 0.333665, -0.245441, -0.269627, -0.091885, 0.508056, -0.180011, -0.662237, 0.051360, -0.145410, -0.048185, -0.194059, -0.347189, -0.264561, 0.189304, -0.202203, 0.440259, -0.182415, 0.353329, 0.271680, -0.138088, 0.167208, -0.311861, 0.300261, 0.286847, 0.348677, 0.202386
-0.084059, 0.236205, -0.375183, 0.230673, -0.312520, 0.017265, -0.029662, -0.254801, -0.031502, -0.092375, -0.004189, 0.362572, 0.062702, -0.074622, 0.050650, -0.220560, -0.165757, 0.461529, 0.211647, -0.208271, -0.188078, 0.124735, -0.283954, -0.326286, -0.521589, 0.180157, 0.293327, 0.446530, 0.110990, 0.251076, 0.080707, -0.307811, 0.411510, 0.593434, -0.357069, 0.191456, 0.216411, 0.075060, -0.185240, -0.023405, 0.164564, 0.205052, 0.423667, 0.014345, -0.124749, -0.174389, 0.043297, 0.428950, 0.135017, 0.073304, -0.251243, 0.215352, -0.347487, 0.254679, -0.347812, 0.180475, 0.382724, 0.329545, 0.352750, -0.322616, 0.050119, -0.045133, -0.216144, -0.237753
-0.244450, -0.087275, -0.750097, 0.393262, -0.184445, 0.225168, -0.588615, -0.015357, -0.166508, -0.293560, -0.146260, -0.055123, 0.094339, -0.496723, 0.065279, 0.101855, -0.047566, 0.469142, -0.006134, -0.000085, -0.202411, 0.196143, -0.681862, -0.822922, -0.584706, 0.448936, 0.378211, 0.190598, -0.053446, 0.212040, 0.094925, -0.353923, 0.123431, 0.333286, -0.125234, 0.329044, -0.321002, 0.622409, -0.122015, 0.188967, 0.040228, 0.539627, -0.086659, 0.304269, -0.182070, -0.287528, -0.153271, 0.694230, -0.225671, 0.523703, -0.218880, 0.250193, -0.644800, 0.005019, -0.077302, -0.127178, 0.495632, 0.653283, 0.216425, -0.248104, -0.160947, 0.188072, 0.186080, 0.000528
-0.362886, -0.179025, -0.828439, 0.036086, -0.688593, 0.464349, -0.766516, 0.486868, 0.215148, -0.403308, 0.224000, -0.289413, 0.560469, -0.859527, -0.191661, -0.147739, 0.240389, 0.645695, -0.140476, 0.535976, -0.011400, 0.345386, -0.646604, -1.171901, -0.585756, 0.039908, 0.494399, 0.269635, 0.050769, 0.721226, 0.061195, -0.035402, -0.244730, 0.282805, -0.054225, 0.415803, -0.165200, 0.729897, -0.120370, 0.488866, 0.001009, 0.317466, -0.450308, 0.109273, -0.295689, 0.045790, -0.351433, 0.946307, -0.662829, 0.024872, -0.215198, 0.343964, -0.689703, 0.410067, 0.283457, 0.009149, -0.463849, 0.147567, 0.438264, -0.105848, -0.812846, -0.121563, 0.311846, -0.031551
0.027522, 0.128347, -0.610372, 0.007815, -0.708666, 0.149471, -0.474523, 0.255905, 0.000215, -0.169823, 0.489011, -0.435917, 0.472031, -0.566580, -0.206863, -0.235190, -0.107414, 0.703776, 0.056989, 0.666731, 0.174678, 0.280873, -0.773397, -1.269923, -0.536293, -0.156221, 0.416553, 0.074521, 0.336381, 0.767468, -0.093548, -0.121583, -0.127750, 0.339025, -0.021514, 0.100255, -0.579991, 0.954292, -0.043521, 0.117076, -0.209103, 0.216807, -0.669887, 0.334515, -0.026516, -0.496464, -0.099738, 0.401687, -0.467575, 0.280756, -0.357048, 0.498888, -0.092531, 0.179995, 0.521792, 0.161244, -0.085406, 0.202893, 0.243240, -0.169864, -0.950254, -0.097072, 0.227802, -0.490228
0.130893, -0.065565, -1.201161, 0.226807, -1.204032, 0.678821, -0.465837, -0.070609, 0.113105, -0.025204, 0.296621, -0.327344, 0.317292, -0.637903, 0.085586, 0.129378, 0.124847, 0.595141, -0.229769, 0.236198, 0.120307, 0.027594, -0.951693, -1.444415, -0.938923, 0.193742, 0.346164, 0.129617, 0.630809, 0.421049, 0.189731, -0.295838, -0.010106, 0.214824, -0.299912, -0.109782, 0.276281, 0.406032, 0.045089, -0.003294, 0.005641, 0.309808, -0.590636, 0.238126, 0.100492, 0.119828, -0.278336, 0.276344, -0.378565, 0.111463, -0.416850, 0.227859, 0.042617, 0.116478, 0.224484, -0.001049, -0.024933, 0.302226, -0.135379, -0.131007, -1.054818, -0.088948, 0.393886, -0.713885
0.064292, 0.052660, -0.908574, 0.196751, -1.009286, 0.502779, -0.789051, 0.118835, 0.106213, 0.072080, -0.092664, -0.257906, 0.371462, -0.205169, -0.179377, 0.393347, 0.152183, 0.441598, 0.015855, -0.052320, 0.009277, -0.202336, -0.888957, -0.714583, -0.982158, -0.057861, 0.225083, -0.087810, 0.417820, 0.175900, 0.100010, -0.001257, 0.028642, 0.243883, -0.401615, 0.019405, 0.746245, 0.418419, -0.003207, -0.322485, 0.030112, 0.312785, -0.703085, 0.398962, 0.106882, -0.523198, -0.070761, -0.257480, -0.523239, 0.073829, 0.009228, 0.324291, 0.397365, 0.128253, 0.175515, 0.012724, 0.176737, 0.232464, -0.054816, -0.115319, -0.931507, -0.039450, 0.268792, -0.398541
-0.014378, 0.115710, -0.331730, -0.057022, -0.160372, 0.397033, -0.698100, -0.288134, 0.341944, -0.288617, -0.325291, -0.141128, 0.261119, -0.063819, -0.224101, 0.375885, 0.175353, 0.374139, -0.029498, -0.076539, -0.195812, -0.557644, -0.696209, -0.208397, -0.627067, 0.081408, 0.193503, 0.104900, 0.502917, 0.082765, 0.302547, -0.280933, 0.211801, 0.340104, -0.095442, -0.219315, 0.711499, 0.024953, -0.207754, -0.456203, 0.186405, 0.096236, -0.138530, 0.050515, 0.125694, -0.260221, -0.053459, 0.146705, -0.276941, -0.014748, -0.055936, 0.288542, 0.445386, -0.013564, 0.313994, 0.162060, 0.242970, 0.200948, -0.782206, -0.271600, -0.416649, 0.011877, 0.336758, -0.325186
-0.295609, 0.194813, 0.223717, -0.134007, 0.368690, 0.301073, -0.554523, -0.191009, -0.061978, -0.186689, -0.223210, 0.385027, 0.250387, -0.246836, -0.486085, 0.338318, 0.107056, 0.480181, 0.067602, -0.497775, -0.867942, -0.121256, -0.510721, 0.428310, -0.293501, 0.097059, -0.059293, 0.154887, 0.231066, 0.081811, -0.279730, -0.437264, 0.356392, 0.591844, -0.031765, -0.246918, 0.677392, 0.022207, -0.402409, -0.369782, 0.503833, 0.354224, 0.315733, -0.047038, -0.510263, -0.167211, -0.054836, -0.212317, 0.114690, 0.172740, -0.091542, 0.353220, 0.185722, 0.104124, -0.082813, -0.092109, 0.276574, 0.238250, -0.552137, -0.398727, -0.106103, -0.087972, 0.286414, -0.045295
-0.236688, 0.427308, 0.284435, 0.266652, 0.465280, 0.142798, -0.510907, -0.681317, 0.016180, -0.056306, -0.274680, 0.412423, 0.139444, -0.099081, -0.440726, 0.085778, -0.370063, 0.280113, 0.211793, -0.405209, -0.207621, 0.093255, -0.452906, 0.117320, -0.469170, -0.110574, 0.056632, -0.111167, -0.069807, 0.160778, 0.319895, -0.164247, 0.552787, 0.418411, 0.155841, -0.034381, 0.475393, -0.002625, -0.486169, -0.053714, 0.441344, 0.249624, 0.450579, 0.231478, -0.506030, -0.064294, 0.073436, 0.273621, -0.015085, 0.258635, -0.057127, 0.344659, -0.061243, 0.047481, -0.338923, 0.148014, 0.356951, 0.284287, -0.481524, -0.257172, 0.140410, 0.215854, -0.164776, 0.102670
-0.365493, 0.624220, 0.299955, 0.232080, 0.502480, -0.170910, 0.007646, -0.287918, -0.254721, -0.018621, -0.319641, 0.429766, 0.524528, -0.368236, 0.108513, 0.015487, -0.104215, 0.323481, 0.217037, -0.033274, 0.256003, -0.131921, -0.367799, 0.196621, -0.011337, 0.158987, 0.194019, 0.078120, -0.230532, -0.014979, 0.106588, 0.083846, 0.493860, 0.437422, 0.204789, -0.105958, -0.110207, 0.184068, -0.136060, -0.189608, 0.248848, 0.627020, 0.257539, 0.403703, -0.666705, 0.370957, -0.176986, 0.522322, -0.216624, 0.554290, 0.282497, 0.552510, -0.628683, -0.182138, -0.104260, -0.422952, 0.251611, 0.712440, -0.144120, 0.365388, 0.154238, 0.683026, -0.667446, 0.075414
-0.139174, 0.240138, -0.197318, -0.213502, -0.296251, 0.081308, 0.069497, -0.114717, -0.121405, 0.200843, 0.163897, -0.067510, 0.080500, -0.351435, 0.282674, -0.303261, 0.082220, 0.036730, 0.301644, 0.174947, 0.037342, 0.582790, -0.600965, -0.068763, -0.131478, 0.210397, 0.141427, -0.018231, 0.153708, 0.395471, 0.191184, 0.119235, 0.011481, 0.370412, 0.321252, 0.031997, 0.078682, 0.145466, 0.138504, 0.262878, 0.045760, -0.118800, 0.054825, -0.139361, -0.353848, 0.010454, -0.015630, 0.354796, -0.011225, -0.039683, 0.032590, 0.059318, -0.915936, -0.126998, 0.000864, 0.192157, -0.003094, -0.093157, -0.189722, -0.070567, -0.113532, 0.132742, -0.055122, 0.123401
-0.209717, 0.348660, -0.066570, 0.006538, -0.004280, 0.222496, -0.236709, 0.023870, -0.034405, 0.085342, 0.312322, 0.398087, 0.156338, -0.205011, -0.275431, -0.397066, -0.377411, 0.011759, 0.266404, 0.006253, 0.102094, 0.128949, 0.027430, -0.501073, -0.420627, 0.053954, 0.201486, -0.217027, -0.165128, 0.182530, 0.086871, -0.134334, 0.439689, 0.298921, 0.254169, 0.050127, 0.119172, -0.064599, -0.190949, -0.025831, 0.184000, 0.175065, 0.088505, -0.020432, -0.352198, -0.147759, 0.520404, -0.082394, 0.150005, 0.033244, 0.060268, 0.206128, -0.248668, -0.156257, 0.013128, 0.274544, -0.397539, 0.128366, 0.081021, -0.131847, -0.097282, 0.248318, 0.086515, -0.127412
0.057413, -0.146031, 0.112025, -0.031874, -0.018637, -0.081606, 0.020031, 0.093855, 0.073056, -0.005956, 0.043805, 0.086729, -0.082613, 0.009816, -0.098765, 0.118458, -0.157210, 0.006895, -0.075288, -0.127864, 0.020450, 0.101134, -0.022811, 0.069317, -0.082660, 0.085432, -0.103347, 0.101665, -0.024294, 0.032959, 0.135419, 0.066696, -0.117800, -0.077557, 0.125346, 0.116803, 0.018121, -0.002383, 0.118803, 0.015312, -0.044522, 0.035298, 0.083939, -0.115680, 0.019553, -0.131438, 0.045256, 0.017131, -0.055142, 0.060319, -0.093042, -0.012216, -0.108444, -0.068398, -0.143279, -0.034010, -0.009078, 0.122659, 0.122709, -0.082588, -0.066551, 0.027058, -0.004872, 0.096708
0.190880, -0.145909, 0.157189, -0.350055, -0.338063, 0.085187, 0.196308, -0.478146, 0.375428, 0.116119, 0.547881, 0.349095, -0.144263, -0.024990, 0.007670, 0.067060, 0.053288, 0.147940, 0.101082, 0.240704, -0.580466, 0.211520, 0.234796, -0.316762, -0.361324, 0.478428, 0.229841, 0.442227, 0.427167, 0.167739, 0.027721, -0.036142, -0.079491, -0.218438, -0.270171, -0.037444, -0.127891, 0.147379, 0.057767, 0.027463, 0.141630, -0.180121, 0.224930, -0.072746, -0.074777, 0.087588, -0.078499, -0.102585, 0.087936, -0.230766, -0.177143, -0.410946, 0.388995, 0.244437, -0.053018, -0.042272, 0.452541, -0.179853, 0.134212, -0.221751, -0.217303, -0.272473, 0.389526, 0.034560
0.149356, -0.802457, -0.326044, -0.008216, 0.067000, 0.097591, 0.123199, -0.335560, -0.310502, -0.427280, -0.189582, -0.015214, -0.335637, -0.098549, 0.010805, -0.165453, 0.072800, 0.492938, -0.279618, 0.469725, -0.432226, 0.854079, -0.412860, -0.430348, 0.440422, 0.274067, -0.223850, 0.217668, 0.267030, -0.244604, 0.393146, -0.363718, -0.376187, -0.278699, 0.286610, 0.121561, -0.089142, 0.088655, 0.045603, 0.360503, 0.208117, 0.138005, 0.308213, 0.298974, 0.087496, -0.280123, -0.263587, 0.120556, -0.359225, 0.193981, 0.152708, -0.058584, 0.508019, -0.166590, -0.033719, 0.330114, 0.472440, 0.310388, 0.110001, 0.410535, -0.121213, -0.651867, -0.151954, -0.177066
0.019988, -0.346936, -0.322460, -0.040088, -0.030655, 0.230006, 0.435361, -0.199412, -0.228090, -0.159129, 0.204460, -0.085532, -0.147844, 0.031619, 0.103393, -0.356439, 0.008656, 0.354499, -0.212886, 0.342897, -0.049587, 0.320328, -0.324974, -0.562807, 0.111498, 0.217430, -0.085541, 0.113280, 0.172274, -0.237380, 0.133238, 0.237887, -0.054624, -0.111354, 0.053091, 0.395302, -0.174731, 0.018080, -0.054390, 0.287352, 0.253720, 0.331457, -0.013978, 0.442820, 0.225493, -0.705561, -0.518410, -0.128975, -0.558929, 0.271719, 0.220698, -0.057570, 0.271247, 0.119182, -0.186580, 0.381433, -0.111482, 0.003825, -0.028471, 0.230086, -0.547260, -0.576453, 0.017814, -0.023952
-0.006768, -0.196715, -0.608394, 0.402498, -0.351707, 0.503301, 0.280879, 0.095197, -0.244578, -0.426528, 0.292502, -0.540728, -0.118801, 0.119063, -0.011419, -0.297950, 0.055262, 0.154842, -0.026314, 0.302562, 0.432949, 0.048493, -0.437935, -0.577717, 0.199054, -0.052215, 0.117841, 0.050529, -0.025368, -0.066812, 0.256479, 0.218794, -0.250332, 0.064301, -0.240981, 0.089066, 0.045464, 0.084997, 0.152478, 0.044874, 0.322155, 0.311316, -0.279050, 0.228564, 0.228152, -0.405581, -0.381676, -0.058490, -0.574351, 0.065700, 0.196417, 0.158009, 0.301726, -0.027111, -0.359641, 0.286573, -0.112420, -0.093307, 0.183317, -0.021639, -0.545203, -0.381370, 0.095247, 0.054655
0.020006, 0.177152, -0.124394, 0.328165, -0.263514, 0.373635, 0.378752, -0.360918, 0.389402, 0.130805, 0.418264, -0.267480, 0.060621, -0.030993, 0.323157, 0.006719, -0.144002, 0.007472, 0.316555, 0.381503, 0.241643, 0.145845, -0.590713, -0.408565, -0.054213, 0.115323, 0.390813, 0.043452, 0.298003, 0.069756, 0.065408, 0.181185, -0.132129, 0.082417, -0.239702, 0.707085, -0.087430, 0.034269, -0.231471, 0.090243, -0.035000, 0.205453, -0.420707, 0.096714, 0.282272, -0.186833, 0.023262, -0.176834, -0.088976, 0.070439, -0.145041, -0.124791, 0.475936, 0.207445, -0.134484, -0.024842, -0.086463, -0.052585, 0.270962, 0.026766, -0.748251, -0.277003, 0.280904, 0.083731
0.187819, -0.075992, 0.034843, 0.101374, 0.166930, 0.808007, 0.212455, -0.628750, 0.108266, 0.241894, 0.188004, -0.145248, 0.057162, 0.000532, 0.389035, 0.068099, 0.205021, -0.030148, 0.078824, 0.066400, 0.247050, 0.108784, -0.539053, -0.319975, -0.128712, 0.155098, 0.279061, -0.036457, 0.193680, -0.219761, -0.001220, -0.098612, -0.107523, -0.053651, -0.315981, 0.260365, 0.137030, 0.036377, 0.108351, -0.239295, 0.071809, 0.130891, -0.591324, 0.161993, 0.313747, -0.088892, 0.096204, -0.526752, -0.065989, 0.289803, 0.142476, -0.112766, -0.192361, 0.210304, 0.191867, -0.038402, 0.004127, 0.170071, 0.437410, 0.186769, -0.436091, -0.263401, 0.164433, 0.052231
-0.070373, 0.063487, -0.202053, 0.275494, -0.239542, 0.859072, 0.000006, -0.149513, 0.144096, 0.394955, 0.102801, -0.137024, 0.257126, 0.003502, 0.099269, 0.340934, 0.166530, 0.071686, -0.184359, -0.075607, -0.187437, -0.211631, -0.705216, -0.404442, -0.267896, 0.127039, 0.336974, 0.075551, 0.368499, -0.090750, -0.209431, -0.005639, 0.050933, -0.045218, -0.025382, 0.231276, 0.139491, 0.103846, 0.017808, -0.113100, 0.130572, 0.139767, -0.604479, 0.184930, 0.251900, -0.217515, -0.045776, -0.442644, 0.001273, 0.221051, 0.141359, -0.029534, -0.300298, 0.317696, 0.065776, 0.013310, 0.131205, 0.087110, 0.155069, 0.072945, -0.194121, -0.108201, 0.129828, -0.085625
0.086132, -0.151166, 0.193589, -0.041263, -0.245539, 0.526303, -0.306681, -0.071435, 0.229139, 0.445602, 0.086786, 0.061715, 0.526298, 0.068929, 0.060403, 0.097272, 0.104033, 0.063292, 0.248412, -0.336603, 0.022439, -0.379644, -0.207686, -0.265123, -0.229984, -0.027634, 0.277398, 0.098048, 0.250772, 0.200615, -0.364508, -0.074180, 0.254890, -0.087056, 0.325599, 0.306602, 0.299813, 0.246460, -0.082114, -0.154138, -0.056967, 0.052024, -0.689673, 0.104042, -0.099999, -0.044604, 0.047275, -0.139066, -0.010607, 0.151383, 0.015759, 0.277008, 0.257111, 0.185528, 0.363518, -0.021271, 0.112998, 0.033869, -0.580229, -0.106802, -0.004844, -0.031959, 0.123149, 0.153038
0.049499, -0.033802, -0.079354, 0.282419, 0.136345, 0.354173, -0.642931, -0.347732, 0.224403, 0.294746, -0.070823, 0.301685, 0.399610, -0.174966, -0.114828, 0.021635, 0.000063, 0.001683, 0.181511, -0.497906, -0.400971, 0.085778, -0.105443, -0.252024, -0.098196, 0.018406, 0.223040, 0.206138, 0.291580, 0.258846, -0.577193, -0.058466, 0.364727, -0.006357, 0.339212, 0.216571, 0.214552, 0.337415, -0.074190, -0.079148, 0.095215, -0.130495, -0.463764, 0.100970, -0.045497, 0.094409, 0.035876, -0.307086, 0.006430, 0.093291, 0.152415, 0.147797, 0.432538, -0.050538, 0.048361, 0.128781, -0.241238, 0.301988, -0.993201, -0.190248, 0.165294, 0.166546, 0.115209, -0.128318
-0.096532, -0.037240, 0.124552, 0.398450, 0.269367, 0.009302, -0.450900, -0.484267, 0.010368, 0.265830, 0.030939, 0.177912, 0.078911, 0.148148, 0.000142, 0.026943, -0.248536, 0.172701, 0.032242, -0.684600, 0.000290, -0.009624, 0.007205, -0.110177, 0.013588, -0.204176, 0.072104, 0.428980, 0.245171, 0.343529, -0.502762, 0.324567, 0.166330, -0.034279, -0.006621, 0.096019, 0.225649, 0.062837, -0.391080, -0.189130, 0.284183, 0.254146, -0.332270, 0.232674, -0.112495, 0.210430, 0.241570, -0.176715, -0.024208, 0.181045, -0.087301, 0.064973, 0.341635, 0.025215, -0.001418, -0.090544, -0.409099, 0.294992, -0.484484, -0.034492, 0.251724, 0.102797, -0.063281, 0.114191
-0.080222, 0.333305, 0.236362, 0.013969, 0.447375, 0.014093, 0.124155, -0.432540, -0.041488, 0.049551, -0.148346, 0.395617, -0.223805, -0.088643, 0.102983, -0.258238, 0.043580, -0.007761, -0.014760, -0.353126, 0.597942, 0.139511, 0.086005, 0.049837, -0.051398, 0.024236, -0.435218, -0.015366, 0.032383, 0.191824, -0.476247, 0.430327, 0.015517, 0.000497, 0.154040, -0.064802, 0.404230, 0.059102, -0.403635, -0.189269, 0.217276, 0.376760, -0.207188, 0.007553, 0.090258, -0.084640, 0.293658, -0.078433, 0.062187, 0.264844, 0.072778, -0.261569, -0.187436, 0.123274, -0.544273, -0.062619, -0.153375, 0.061938, -0.447657, -0.120620, 0.676247, 0.250912, 0.070857, 0.255859
-0.079317, 0.511293, 0.063223, -0.309337, 0.167101, 0.083632, 0.397360, -0.023772, 0.140481, 0.448779, -0.022292, 0.274606, -0.077648, -0.394776, 0.205623, -0.564150, 0.115681, -0.286078, 0.594846, -0.502186, 0.648250, 0.339902, 0.070454, 0.097310, -0.106429, -0.033400, 0.256239, 0.271756, -0.198709, 0.108644, -0.127690, 0.131394, 0.416777, 0.158103, 0.081277, 0.231732, 0.180853, -0.192497, -0.738481, -0.126495, 0.371468, 0.625013, -0.088269, 0.203661, -0.061530, -0.042844, 0.252972, -0.105630, 0.324310, 0.327371, -0.070203, -0.036921, -0.468314, 0.323088, -0.291555, -0.383546, -0.214344, -0.013886, 0.379053, 0.090866, 0.092525, 0.588273, -0.489984, 0.384099
-0.530303, 0.180021, -0.262151, 0.490854, -0.391506, 0.266939, -0.004441, 0.159546, 0.021498, 0.003225, 0.199746, 0.586539, 0.466262, -0.160408, 0.510705, -0.778894, -0.261838, 0.484898, 0.077983, 0.016640, 0.311910, 0.493565, -0.288690, 0.067013, -0.287977, -0.644703, 0.592058, 0.244772, 0.140793, 0.301785, -0.733012, -0.306380, 0.506188, 0.698655, 0.013808, -0.116685, 0.628531, 0.217698, 0.066000, -0.041729, 0.053402, 0.255096, 0.144724, 0.321446, -0.263597, 0.100362, -0.311121, -0.235533, -0.220109, 0.056333, -0.004733, 0.435647, -0.077243, -0.075262, 0.674047, 0.324251, -0.683152, 0.345797, 0.284105, -0.191511, -0.190630, 0.649140, -0.231538, -0.088889
-0.155333, -0.377854, -0.011621, 0.057401, 0.214881, 0.301976, -0.364483, 0.490413, 0.218446, -0.413547, 0.603002, 0.450771, -0.443074, -0.297930, 0.359663, -0.300723, -0.152142, 0.631230, -0.400950, 0.225282, -0.357428, 0.390951, -0.336041, 0.270336, -0.320290, 0.395416, 0.077709, 0.285610, 0.582992, 0.306014, -0.538989, 0.518932, -0.371623, 0.416831, 0.527031, -0.516677, 0.310543, 0.314767, 0.554571, -0.410353, 0.680400, 0.149456, -0.562078, -0.364724, 0.401323, -0.237803, 0.404902, 0.405311, -0.712860, 0.345676, -0.469030, -0.154682, 0.342822, 0.335458, -0.643724, 0.437258, 0.242833, -0.516857, -0.017396, -0.555813, -0.612613, -0.305695, 0.503810, 0.602305
0.313243, -0.883637, 0.043899, -0.453200, 0.411792, 0.457503, 0.596916, 0.411435, -0.137634, -0.660018, 0.336416, 0.085186, -0.156134, 0.193060, -0.249400, -0.113416, -0.366679, 0.129919, 0.058467, 0.541158, -0.652898, -0.009910, 0.698647, 0.144632, 0.132668, -0.175673, 0.241988, -0.110935, -0.086466, 0.150558, -0.078268, 0.183588, -0.308884, 0.385790, 0.174881, -0.241664, -0.452349, 0.289191, 0.489740, 0.093200, 0.188803, -0.230077, 0.133164, 0.282765, 0.402856, -0.265676, 0.048630, 0.412840, -0.590666, -0.410596, 0.319971, 0.300120, 0.430732, -0.186218, -0.178491, 0.554243, 0.301939, -0.299213, 0.041131, 0.150206, -0.556413, -0.560375, 0.230148, 0.184796
0.023000, -0.371228, -0.234891, 0.160615, 0.057292, -0.063150, 0.149486, 0.293324, -0.138455, -0.018669, 0.366297, -0.319837, -0.174145, -0.009196, -0.120248, -0.085183, -0.404752, 0.398101, 0.161991, -0.020927, -0.347059, -0.097094, -0.276396, 0.032836, 0.360014, 0.194964, 0.258408, 0.048837, -0.005811, 0.248590, -0.168146, 0.161458, -0.382317, 0.055022, 0.153804, -0.156601, -0.086878, 0.312691, 0.156989, 0.176183, 0.081560, 0.641669, 0.196925, 0.304754, 0.288425, -0.570845, 0.293309, 0.592022, -0.481418, 0.451618, 0.047361, -0.062442, 0.513165, -0.237341, -0.430332, 0.079477, 0.410193, 0.036766, -0.081699, -0.122127, -0.154367, -0.620816, -0.355761, 0.420083
0.061679, 0.005643, -0.213256, 0.116303, -0.003994, 0.097239, 0.157463, 0.164139, -0.066503, -0.175497, 0.217784, -0.328335, -0.131395, 0.288105, -0.083641, -0.068065, -0.311915, -0.111874, 0.123535, 0.034130, 0.014617, 0.141424, 0.081878, 0.081636, 0.267923, 0.038279, 0.131987, 0.021390, -0.072916, -0.040673, 0.008517, 0.123755, -0.381651, 0.063227, 0.007259, 0.046174, 0.214887, -0.014072, 0.165342, -0.366880, 0.271124, 0.114615, -0.015087, 0.288355, 0.169969, -0.582946, -0.148461, 0.402274, -0.279063, 0.138640, 0.023122, -0.094679, 0.195654, -0.265162, -0.363870, 0.104549, -0.048837, -0.177441, -0.107124, -0.110087, -0.278813, -0.633209, -0.243346, 0.270095
-0.218145, 0.097194, 0.190200, 0.339797, 0.304745, 0.354961, 0.235131, -0.193009, -0.045672, 0.141819, 0.209200, -0.086582, 0.222708, 0.150495, 0.314497, -0.565892, -0.185991, 0.016156, 0.132598, 0.235463, 0.366902, 0.270081, -0.111910, 0.177590, -0.023302, -0.138779, 0.069648, -0.147506, 0.064520, -0.197824, 0.099295, -0.034341, -0.007195, 0.405649, 0.031916, 0.072009, 0.103381, 0.017779, -0.022913, -0.202848, 0.282839, -0.052119, -0.486809, 0.159366, 0.235074, -0.407216, 0.029702, 0.356169, -0.206501, 0.182196, 0.053364, 0.044065, 0.249234, -0.044950, -0.246686, -0.165281, -0.195110, -0.218208, 0.086395, -0.040891, -0.774693, -0.238907, -0.064350, 0.324553
-0.182690, 0.319669, 0.138914, 0.080365, -0.015185, 0.379507, 0.147904, -0.240595, 0.170355, -0.101752, 0.186507, -0.076258, 0.155524, 0.021537, 0.397438, 0.169167, 0.044985, 0.024276, -0.157825, 0.041978, 0.119294, 0.276646, -0.017633, 0.323736, -0.001949, -0.078111, -0.027343, -0.430239, 0.143257, -0.218253, 0.032526, 0.356982, -0.025848, 0.138766, -0.175315, -0.002944, 0.227543, -0.293125, 0.302055, -0.181317, 0.072281, -0.231910, -0.404566, -0.052257, 0.004825, -0.143789, 0.219639, 0.230590, 0.211433, -0.093612, 0.085317, 0.020718, 0.001328, 0.038589, -0.228608, -0.284700, -0.058489, -0.203161, 0.548973, 0.185821, -0.617311, 0.014350, 0.081494, 0.309468
0.117476, -0.043395, 0.156675, 0.055256, -0.105765, 0.481226, 0.131983, -0.438816, 0.145944, -0.006075, 0.392254, -0.020614, 0.089734, -0.077356, 0.104475, 0.333416, -0.024864, -0.039348, 0.179157, 0.064384, -0.144470, 0.496811, 0.046055, 0.137961, 0.292808, 0.068061, 0.263395, -0.346512, 0.067546, 0.058026, 0.018003, 0.431205, -0.017917, 0.104301, -0.176952, 0.009136, 0.015790, 0.059647, 0.262534, -0.522406, 0.001707, -0.327481, -0.185612, -0.048121, -0.002594, -0.125717, 0.272001, 0.212922, 0.054113, 0.179984, 0.230209, 0.179780, -0.609359, 0.030020, -0.226718, -0.140300, 0.017420, -0.098781, 0.380436, 0.221084, -0.035930, -0.174086, 0.077383, 0.009017
0.193486, -0.025664, 0.244448, -0.038529, -0.428048, 0.787603, 0.070609, -0.280538, 0.148695, 0.065288, 0.260152, 0.121694, 0.159962, -0.081680, 0.246906, 0.367081, 0.110958, 0.007782, 0.419503, 0.140084, -0.713962, 0.209158, 0.199962, -0.016885, -0.013232, 0.105942, 0.424641, 0.075458, 0.170936, 0.036009, 0.109486, -0.207504, 0.236175, -0.050400, -0.508681, 0.059584, 0.166432, 0.163340, 0.278550, -0.280046, -0.176455, -0.156037, -0.122784, 0.021049, -0.006372, -0.024359, -0.061396, 0.097571, 0.055024, 0.146114, -0.000209, 0.045396, -0.737014, 0.148293, 0.159479, -0.203550, 0.248505, 0.256395, -0.302533, -0.010638, 0.185233, 0.134278, 0.421316, -0.259307
0.055020, -0.078775, -0.048899, -0.182254, -0.724224, 0.858117, 0.249685, -0.310517, 0.107756, 0.271460, 0.162965, 0.044553, 0.267843, -0.011390, -0.042561, -0.012267, -0.024575, -0.120829, 0.382341, 0.240414, -0.403172, 0.154358, 0.129613, -0.033759, -0.053410, 0.013090, 0.291466, -0.030922, 0.210005, -0.153505, 0.020969, -0.296716, 0.149742, 0.167818, 0.585077, 0.109716, 0.392728, 0.098239, 0.115889, -0.160249, 0.123049, -0.512539, -0.044220, -0.001631, 0.089124, 0.221878, -0.148726, -0.102724, 0.163004, -0.156899, 0.136770, 0.051856, 0.195570, -0.043991, 0.100089, -0.022166, 0.114790, -0.147416, -0.571503, -0.018856, -0.071586, -0.173883, 0.112808, -0.124764
0.108740, -0.015532, -0.014358, -0.075683, 0.118304, 0.540311, -0.485564, -0.437938, 0.161302, 0.237924, 0.291285, 0.110331, 0.032688, 0.342515, -0.261186, -0.167964, -0.386168, -0.022565, 0.234875, 0.189572, -0.270905, -0.069877, 0.184585, 0.019658, -0.005290, -0.057415, -0.026967, 0.047180, 0.182993, -0.242801, -0.322504, -0.026962, 0.226887, 0.098395, 0.513754, 0.033252, 0.420004, 0.086411, 0.098195, -0.069612, 0.187260, -0.636095, 0.322739, 0.068541, 0.005460, 0.416815, 0.018266, -0.091883, 0.028529, -0.283790, 0.064645, 0.243417, 0.476852, -0.050287, 0.155117, 0.172941, -0.232482, -0.175829, -0.794501, 0.059912, 0.037974, 0.131357, 0.070731, 0.125478
0.408537, -0.159086, 0.074055, -0.002905, 0.322535, 0.257404, -0.545154, -0.318979, -0.013662, -0.021383, -0.126725, -0.010695, -0.106165, 0.108141, -0.137989, -0.014554, -0.126557, -0.118583, 0.073660, -0.142038, -0.084131, -0.077265, 0.239019, -0.058373, 0.055069, 0.105595, -0.132566, 0.116381, 0.155490, -0.043557, -0.311210, 0.218483, 0.226528, 0.147985, 0.102284, 0.090774, 0.382854, 0.099885, -0.070049, -0.124061, 0.202348, -0.615025, 0.330443, -0.042594, -0.077812, 0.405806, -0.037468, -0.005681, 0.040890, -0.083844, 0.045559, -0.033275, 0.089420, 0.039354, -0.125530, 0.254869, -0.357811, 0.078241, -0.966363, 0.094316, 0.279894, 0.272952, 0.272533, 0.150117
0.257774, 0.159098, 0.221675, -0.190627, 0.107235, -0.088647, -0.281570, -0.183759, -0.018627, 0.191916, 0.132643, 0.109078, -0.042635, 0.402683, -0.126557, -0.222447, -0.084722, -0.134486, -0.316569, -0.152365, 0.426742, -0.229523, 0.010833, -0.050803, 0.023729, -0.092066, -0.041862, 0.011391, 0.217977, 0.062612, -0.202324, 0.372268, 0.204182, 0.065824, 0.065126, 0.130666, 0.306703, 0.119758, -0.324942, -0.206322, 0.062523, -0.154931, 0.321434, -0.087178, -0.111387, 0.216190, 0.112167, -0.349190, -0.046328, -0.016018, 0.004222, -0.093521, -0.320894, -0.010465, -0.333638, 0.206246, -0.343838, 0.037755, -0.896317, -0.060764, 0.566688, 0.393816, 0.379100, 0.277342
0.018638, 0.353408, -0.053375, 0.399826, 0.379150, -0.601316, -0.219880, 0.208846, 0.047642, 0.264217, -0.129365, 0.179066, -0.039486, -0.180390, 0.056259, -0.474344, 0.058258, 0.043509, 0.124606, -0.521419, 0.046736, 0.236094, 0.092984, 0.075900, 0.306868, 0.202086, 0.067508, 0.151518, -0.120429, 0.384292, -0.182804, 0.339179, 0.393368, 0.332285, -0.196673, 0.455414, 0.648649, -0.008525, -0.923588, 0.066798, 0.403077, 0.559272, 0.001740, 0.232100, -0.279211, 0.088769, 0.182838, -0.290269, 0.111088, 0.398014, 0.088851, 0.117442, -0.869757, 0.066315, -0.071700, -0.065585, 0.151081, 0.098725, -0.125602, -0.126637, -0.129484, 0.683008, -0.509598, 0.189658
-0.074964, 0.143394, -0.016615, 0.434682, 0.140591, 0.207288, -0.126815, -0.023965, -0.000358, 0.132828, 0.072509, 0.044467, -0.007224, -0.099868, -0.126247, -0.434440, 0.309450, -0.155835, 0.301042, -0.294124, 0.504803, 0.636716, 0.510837, 0.406864, 0.088869, -0.080776, 0.399328, -0.013714, 0.167948, 0.147736, 0.064231, 0.153439, -0.185448, -0.159192, -0.154062, 0.353995, 0.914938, -0.084277, -0.015846, 0.429905, 0.485641, 0.429528, -0.088837, 0.084887, -0.596622, -0.348721, 0.535838, -0.538195, 0.272836, 0.537034, -0.174109, -0.316829, -0.024054, 0.339476, 0.096285, -0.086716, -0.415486, 0.064822, 0.302973, 0.174256, -0.002753, 0.580435, -0.151841, -0.047961
-0.115460, -0.051583, -0.436346, 0.052716, 0.269619, 0.347215, 0.187536, 0.536903, -0.282315, -0.217389, 0.211950, 0.263925, -0.325372, 0.161011, -0.300439, 0.163124, 0.352943, 0.619395, -0.290905, 0.653778, -0.206428, 0.149109, -0.270032, 0.163902, -0.081890, -0.365171, -0.177128, 0.130672, -0.016767, 0.038738, -0.009029, 0.314029, -0.161545, 0.384016, -0.206212, -0.496654, 0.393220, 0.220601, 0.509935, -0.154779, -0.127699, -0.004981, -0.120952, -0.619950, 0.282706, -0.108671, 0.159652, 0.335596, -0.766037, -0.676772, 0.191519, 0.746516, 0.568517, -0.378612, -0.418473, 0.730012, 0.295164, -0.465750, 0.206582, -0.565147, -0.493721, -0.340359, 0.513242, 0.190685
0.248611, -0.333211, 0.220250, 0.236776, 0.158666, 0.008919, 0.561593, -0.012416, -0.239707, -0.160545, 0.421593, -0.415987, 0.213520, 0.373352, -0.078099, 0.069276, -0.374580, -0.167352, -0.100471, 0.267373, -0.162313, -0.179252, -0.050006, 0.050809, 0.342095, 0.290953, 0.173355, -0.020148, -0.057467, 0.115600, 0.142958, -0.034517, -0.107351, 0.041361, 0.072836, -1.201279, -0.420848, 0.075384, -0.140014, -0.094879, 0.044216, -0.390481, -0.410571, 0.575571, 0.633279, -0.078210, -0.166467, 0.403697, -0.113450, -0.123617, 0.239267, 0.272608, 0.176723, 0.410097, 0.081328, 0.103944, 0.181323, 0.145913, -0.157246, -0.243646, -0.592003, -0.524107, 0.088057, 0.095019
-0.047620, -0.638687, -0.243274, 0.255679, 0.109723, -0.366202, 0.420031, 0.154905, -0.089766, -0.019291, 0.298490, -0.247866, 0.131265, -0.123587, -0.223974, -0.172784, -0.533244, 0.049825, 0.114041, -0.267790, -0.479907, 0.001468, -0.040255, 0.018422, 0.107567, -0.088599, 0.041875, 0.232741, -0.074339, 0.090595, 0.024965, 0.056276, -0.566852, 0.108301, 0.110285, 0.005541, -0.343322, 0.273519, 0.080483, -0.344993, 0.026770, 0.046198, 0.088312, 0.535588, 0.358107, -0.270401, -0.142683, 0.466470, -0.376559, 0.336893, 0.220697, 0.034008, -0.108672, -0.212869, -0.279899, 0.001395, 0.103546, 0.083108, 0.169746, 0.211622, -0.058110, -0.691547, -0.093658, 0.354182
-0.034132, -0.021949, 0.019433, 0.300457, 0.172155, -0.086003, 0.074728, 0.261802, 0.145758, 0.092359, 0.062180, -0.540058, 0.043020, 0.124821, 0.270773, 0.131479, -0.154068, -0.073687, 0.024512, -0.042666, -0.013459, 0.096550, -0.048466, 0.310330, 0.598280, 0.051580, -0.024637, 0.168151, 0.066357, -0.102953, -0.302039, 0.069974, -0.138889, 0.064877, 0.044273, 0.211342, -0.092858, -0.141101, -0.149030, -0.341440, 0.042848, 0.023624, -0.210346, 0.178763, 0.019235, -0.614981, -0.380990, 0.246651, -0.210590, 0.165569, 0.226272, 0.071263, -0.343296, -0.204193, -0.352772, 0.199981, -0.259937, -0.264906, 0.171836, 0.080120, -0.044685, -0.106617, -0.191783, 0.264811
-0.095536, 0.284596, 0.049546, 0.221154, 0.329314, 0.028243, 0.191217, 0.143677, 0.064352, 0.116108, 0.084627, -0.548778, 0.110705, 0.313412, 0.147864, -0.029894, -0.262986, -0.026261, -0.182218, 0.092024, 0.386126, 0.271225, 0.087332, 0.217395, -0.093078, 0.151060, 0.225728, 0.055498, -0.059576, -0.106371, 0.037835, 0.205301, 0.066734, 0.453070, 0.249336, 0.302503, 0.156371, -0.098108, 0.203664, -0.433889, 0.163731, -0.103510, -0.460484, 0.118566, 0.004712, -0.374062, -0.290710, 0.446151, -0.121535, 0.074539, 0.083426, 0.122970, -0.314891, -0.218313, -0.239538, 0.104998, -0.570792, 0.019750, 0.335392, 0.006238, -0.446788, 0.211009, -0.121234, 0.108308
0.065714, 0.150362, -0.191759, 0.252848, 0.219042, -0.116172, 0.034385, 0.113876, -0.060877, -0.155433, 0.112461, -0.237412, 0.191944, 0.039958, -0.004866, 0.163952, -0.066605, -0.069774, -0.251341, 0.024829, 0.355060, 0.489770, 0.438901, 0.078399, -0.056928, -0.044621, 0.068382, -0.230436, -0.013887, -0.106515, 0.080291, 0.275336, 0.206490, 0.149776, -0.038008, 0.001033, 0.354714, -0.060784, -0.008510, -0.091712, 0.111162, -0.349914, -0.261871, -0.084526, -0.332822, 0.046140, -0.068647, 0.636888, 0.214524, 0.027580, 0.033676, 0.364514, 0.079953, -0.081493, 0.075813, 0.145902, -0.912199, 0.004261, 0.014868, 0.170990, -0.419351, 0.207054, -0.491904, 0.339076
0.316762, -0.086174, 0.162494, -0.145086, 0.382243, -0.373549, 0.110449, -0.079589, 0.190355, -0.184896, 0.403426, 0.136710, -0.041686, -0.101860, 0.269950, 0.461148, 0.061437, -0.004790, -0.139233, 0.099356, -0.166272, 0.697853, 0.297129, -0.108314, 0.181538, 0.010446, 0.243872, -0.155922, 0.132402, 0.148783, 0.066276, 0.400438, 0.294520, -0.025295, -0.719354, -0.164687, 0.377340, -0.134337, 0.081532, -0.105597, 0.311544, -0.146180, 0.210407, 0.130439, 0.058782, 0.312426, 0.003608, 0.531889, 0.237028, 0.174857, 0.103624, -0.080135, -0.430264, 0.007249, -0.074244, 0.112276, -0.144009, 0.105844, -0.233592, 0.035734, 0.341064, -0.145165, -0.465416, 0.520799
0.400905, -0.417745, -0.009513, -0.333072, -0.196399, -0.070182, 0.302014, -0.057619, 0.191138, -0.034038, 0.379284, 0.273769, -0.138991, 0.293634, 0.003640, 0.442241, 0.195264, -0.098829, -0.179302, 0.393451, -0.534008, 0.404717, 0.012629, 0.117631, 0.099088, 0.037229, -0.167674, 0.070727, 0.149899, 0.069607, 0.073077, -0.106906, -0.188507, -0.274378, -0.518145, -0.001727, -0.049140, 0.050055, 0.412338, -0.087397, -0.022950, -0.391362, 0.382367, -0.077420, 0.449349, 0.171336, -0.115850, 0.160742, 0.078108, -0.206492, 0.136416, -0.175374, -0.707399, 0.206945, 0.065982, 0.210229, 0.745466, -0.068482, 0.016430, -0.243720, 0.379394, -0.156210, 0.088473, 0.092357
-0.047693, -0.134350, 0.079822, -0.100724, -0.468624, 0.236532, 0.291947, 0.097170, 0.176260, 0.024381, 0.275258, 0.171359, -0.128970, 0.092769, 0.028792, -0.302930, -0.274808, -0.298335, -0.483076, 0.412208, 0.010383, -0.218003, -0.325028, 0.344165, -0.160100, -0.021501, -0.105045, 0.062489, 0.104684, 0.120318, -0.334730, -0.229725, 0.093276, 0.105377, 0.821066, -0.093817, -0.253200, -0.059523, 0.318524, -0.128592, 0.173837, -0.374359, 0.679598, -0.404703, 0.200401, 0.061885, 0.071837, -0.048351, 0.038495, -0.359835, 0.020973, -0.025244, 0.702796, -0.382806, 0.056112, 0.182242, 0.104622, -0.268272, 0.194018, -0.299730, -0.030235, -0.406301, 0.475250, 0.141429
0.124068, -0.175616, 0.141114, 0.074903, 0.326011, 0.423034, -0.008526, 0.107594, 0.000756, 0.190563, 0.119212, -0.095571, -0.095336, 0.173414, 0.096540, -0.069163, -0.137691, -0.329672, -0.203009, 0.041641, 0.054005, -0.291552, -0.167580, 0.234119, 0.012551, 0.105018, -0.032169, 0.108073, 0.140531, 0.009877, -0.261425, 0.133499, 0.127693, 0.139870, 0.632258, -0.345876, -0.206384, 0.111894, 0.320763, -0.008226, 0.233719, -0.343823, 0.509958, -0.151362, 0.365848, 0.016439, 0.125603, -0.018728, 0.101138, -0.161597, 0.085708, -0.010709, 0.192630, -0.076165, 0.122930, 0.190782, -0.515568, -0.243401, 0.340515, 0.127622, -0.313894, -0.109781, 0.301084, 0.194045
0.194427, -0.157344, 0.059668, 0.118943, 0.206846, 0.218033, -0.390798, 0.316985, -0.149835, 0.298269, -0.098917, 0.073870, 0.110738, 0.159217, -0.186472, 0.135376, -0.065981, -0.290644, -0.203022, -0.183548, 0.160802, -0.250713, 0.490509, 0.181344, -0.119273, 0.081020, -0.072798, 0.178981, -0.093430, 0.043070, -0.482419, 0.137618, -0.010855, 0.165091, 0.167325, -0.325870, -0.235889, 0.194126, -0.279156, -0.087656, 0.231760, -0.110617, 0.614302, -0.063917, 0.329018, -0.095120, 0.200464, -0.148123, 0.114127, 0.017178, 0.086728, 0.162127, -0.187626, -0.051798, -0.056853, 0.214467, -0.510992, -0.000328, -0.230587, 0.050853, -0.234090, -0.034719, 0.109596, 0.075287
0.240215, -0.205522, 0.230876, -0.220028, 0.361828, 0.003771, -0.966501, 0.356273, 0.067153, 0.197958, 0.337842, 0.133137, 0.028212, 0.262547, -0.095821, -0.060632, -0.084243, -0.263078, -0.288077, 0.076974, -0.036918, -0.214355, 0.359366, 0.163262, 0.190410, 0.046032, 0.053723, 0.359843, 0.283827, 0.031904, -0.131695, 0.450849, 0.116153, -0.073714, -0.165408, -0.211914, -0.189235, 0.111211, -0.185275, -0.365416, 0.321194, -0.118330, 0.370910, 0.026882, -0.109105, 0.306955, 0.177437, 0.125497, -0.178968, -0.290362, 0.097600, -0.163369, -0.547343, 0.228764, -0.012400, 0.355016, -0.525772, -0.217730, -0.519847, -0.128847, -0.018062, 0.000541, 0.300560, 0.187644
-0.081648, 0.462757, 0.248231, 0.001178, 0.235345, -0.431704, -0.581551, 0.501095, 0.316621, 0.980559, 0.009463, 0.202664, 0.033163, 0.374988, 0.137980, 0.001905, -0.469182, -0.558648, -0.268839, -0.374241, -0.036863, -0.359459, -0.056917, 0.567600, 0.595584, -0.081439, 0.061559, 0.351821, 0.125700, 0.165723, -0.055132, 0.195133, 0.823718, 0.149773, -0.945699, -0.007224, 0.019090, -0.497751, -0.852456, -0.186089, 0.446021, 0.400954, 0.403575, -0.073184, -0.805025, 0.382868, 0.387293, -0.883694, 0.638394, -0.226781, 0.035256, 0.043716, -1.186544, 0.362455, -0.234395, 0.018713, 0.200226, 0.020733, -0.418444, -0.404576, -0.377604, 0.587224, -0.661984, 0.067089
-0.059893, -0.350363, 0.007884, -0.416600, 0.203301, 0.164024, -0.094212, -0.529891, 0.125192, 0.295248, 0.345384, -0.064775, 0.060800, 0.361117, 0.220382, -0.726665, 0.296074, 0.041739, -0.035642, -0.673058, 0.071759, 0.582088, 0.389703, 0.290794, 0.638047, -0.479782, 0.487893, 0.536553, 0.452037, -0.359814, -0.030002, -0.152689, -0.131691, 0.090477, -0.131256, 0.297750, 0.680255, -0.246914, 0.128711, -0.128846, 0.584000, 0.219513, -0.134927, -0.119127, -0.599896, 0.168382, 0.119034, 0.324784, 0.259093, -0.111779, 0.099830, -0.083473, 0.136604, 0.168896, 0.227832, 0.134306, -0.255381, -0.188372, -0.212207, -0.148589, -0.283328, 0.206862, 0.024275, 0.603387
0.025687, -0.131167, -0.592226, -0.203021, 0.090957, 0.346043, 0.195771, 0.664674, -0.547522, -0.314492, 0.171769, 0.189745, -0.467326, 0.491399, -0.424303, -0.000878, -0.102712, 0.220357, -0.347674, 0.067506, 0.169853, 0.117048, -0.076637, -0.247210, -0.295723, -0.189117, -0.409559, -0.043792, 0.032100, 0.361866, -0.067713, 0.371909, 0.197480, 0.340713, 0.235250, -0.416030, 0.271396, 0.144063, 0.407720, -0.101264, 0.077446, -0.095712, 0.204991, -0.208541, 0.434131, -0.459169, -0.063120, 0.278744, -0.267883, -0.352406, 0.090804, 0.306582, 0.131337, -0.021719, -0.397561, 0.488222, 0.307668, -0.520581, -0.613238, -0.408348, 0.258178, -0.179125, 0.279288, -0.218989
0.427526, -0.676004, 0.034158, 0.074037, 0.285285, -0.165871, 0.348646, 0.195784, 0.038270, -0.256286, 0.405292, -0.143598, -0.032481, 0.079792, 0.165459, -0.028643, -0.466175, 0.370156, -0.310809, 0.255356, -0.344264, 0.246669, 0.030229, 0.015527, -0.303047, 0.161271, 0.143728, 0.358740, -0.050951, -0.030051, -0.426161, -0.204070, -0.153672, 0.279124, 0.554941, -0.729255, -0.253511, 0.167273, -0.214967, -0.090548, 0.138881, -0.348577, 0.099499, -0.026234, 0.674456, -0.304176, -0.164206, 0.142703, -0.406441, -0.307381, 0.094669, 0.119381, 0.287368, 0.505254, -0.249547, 0.543633, 0.321185, -0.333521, -0.144245, -0.478076, -0.286659, -0.602293, 0.104330, 0.146166
0.074489, -0.545031, -0.178426, 0.159709, 0.218681, -0.360212, 0.129041, 0.421171, 0.256286, 0.143618, 0.074944, 0.095807, 0.515075, 0.019971, 0.367480, -0.161162, -0.436880, -0.032327, 0.139910, -0.210211, -0.412014, 0.152984, -0.021023, 0.344360, -0.080724, 0.060988, -0.218871, 0.581794, -0.009681, 0.060952, -0.209875, -0.361107, -0.230777, 0.068864, 0.050968, -0.266929, -0.103879, -0.054510, -0.141261, -0.178164, 0.029015, -0.147110, -0.066322, 0.121546, 0.046853, -0.106045, -0.382778, 0.002628, -0.104195, 0.030253, 0.142836, 0.284065, -0.367076, -0.189689, 0.071663, 0.089898, -0.395512, -0.099733, 0.325352, 0.259743, -0.290754, -0.667717, -0.122561, 0.445713
0.089051, 0.185754, -0.177191, 0.227757, 0.260459, -0.081181, 0.081431, 0.043766, 0.154393, 0.263167, -0.135164, -0.243526, 0.315641, 0.118255, 0.214665, 0.035966, -0.031780, -0.094670, 0.195893, -0.128331, -0.047563, 0.298282, 0.187554, 0.414857, 0.188201, -0.011685, 0.131757, 0.336684, -0.228516, -0.017363, -0.133956, -0.338370, 0.166021, 0.498589, 0.134227, 0.112236, 0.023644, -0.298113, 0.084198, -0.146262, 0.049651, -0.170450, -0.212861, 0.088146, -0.081199, 0.013626, -0.293839, -0.185738, -0.207408, -0.186439, 0.241942, 0.461133, -0.540581, -0.381847, 0.094257, 0.105959, -0.501431, -0.078828, 0.379088, -0.055013, -0.486593, -0.196489, -0.336115, 0.411306
-0.002451, 0.513822, 0.132825, 0.270965, 0.236176, -0.413685, 0.027380, 0.308141, 0.020851, 0.192228, -0.135637, -0.723097, -0.017650, 0.155585, -0.051999, -0.073897, -0.177816, -0.028606, -0.093874, -0.208824, 0.122019, 0.101259, 0.262618, 0.377600, -0.044311, 0.114775, 0.214054, 0.123830, -0.112805, -0.311502, -0.028879, -0.222118, 0.096131, 0.462850, 0.062184, 0.132485, 0.102132, -0.239311, 0.071058, -0.271540, -0.014838, 0.005826, -0.337243, 0.157838, -0.063544, 0.087210, -0.496290, -0.068060, 0.042152, -0.177257, 0.326330, 0.204029, -0.218306, -0.314983, 0.181113, 0.142850, -0.702598, 0.024879, -0.015237, -0.031751, -0.481677, 0.153092, -0.637606, 0.409968
0.297240, 0.119591, -0.167531, 0.252792, 0.425046, -0.419944, 0.105384, 0.581122, -0.194565, 0.059072, -0.076487, -0.475844, -0.136400, 0.067547, -0.045327, 0.162962, -0.238345, -0.115120, -0.215963, -0.219218, 0.163583, 0.083939, 0.195450, 0.138200, 0.085542, -0.192332, 0.097310, -0.050692, -0.104336, -0.230561, 0.108014, -0.144450, 0.316452, 0.343263, -0.380981, 0.183746, 0.205368, -0.114692, -0.224098, -0.113516, 0.081386, -0.155072, -0.022439, 0.098520, -0.231008, 0.118589, -0.330046, -0.666828, 0.054456, 0.050626, 0.102073, 0.263382, -0.230684, 0.092311, 0.129008, 0.378341, 0.038745, 0.222538, -0.128022, -0.148542, 0.104537, 0.362012, -0.710860, 0.451184
0.178593, -0.084053, -0.256600, -0.569678, 0.696709, -0.812849, 0.194826, 0.606882, 0.198830, -0.182344, 0.220716, 0.142226, -0.061372, 0.136572, 0.374987, 0.305590, -0.131608, 0.075205, -0.579062, -0.198673, -0.190903, 0.122708, 0.012311, -0.209919, 0.305227, -0.065741, -0.059416, -0.204357, -0.224759, -0.015075, 0.217585, 0.131845, 0.246364, 0.118947, -0.706869, 0.119472, -0.301997, 0.040163, -0.557931, 0.129981, 0.196462, 0.060808, 0.259955, -0.009048, 0.106320, 0.346985, 0.122845, -1.124530, 0.213626, 0.139565, 0.036499, 0.007458, -0.940140, 0.316916, -0.065226, 0.489136, 0.757873, 0.122508, -0.028224, -0.054380, 0.656933, -0.072179, -1.118175, 0.394229
0.062387, -0.507135, -0.330652, -0.311017, -0.232370, -0.793395, 0.355708, 0.180849, 0.304831, -0.377346, -0.194962, 0.303634, -0.180452, 0.297229, 0.349114, -0.200774, 0.562796, 0.179485, -0.568589, -0.250255, -0.277431, -0.183449, -0.122252, -0.358260, 0.124394, -0.088887, -0.113552, 0.172778, -0.164040, -0.059352, 0.331627, -0.735358, -0.077636, 0.059276, 0.174484, 0.367823, -0.899965, -0.283312, 0.159291, -0.081472, 0.202223, 0.188548, 0.402528, -0.057280, 0.125160, 0.255598, -0.192131, -0.365234, 0.278782, -0.136850, 0.048766, -0.119034, -0.332273, 0.402716, -0.160885, 0.267000, 0.524537, -0.169197, 0.254223, -0.137977, 0.216529, -0.510185, -0.070059, -0.113985
0.027339, 0.311141, 0.048898, 0.001387, -0.200249, -0.148565, 0.623146, 0.442492, 0.214771, -0.282692, 0.053575, 0.000203, -0.327034, 0.250982, -0.028177, -0.197245, -0.407840, -0.207128, -0.101089, 0.047328, -0.039377, -0.196495, -0.241393, -0.142495, -0.192302, -0.133323, -0.027423, -0.033940, -0.261058, 0.125194, -0.085868, -0.121690, -0.104802, -0.053410, 0.863037, 0.161356, -0.483954, -0.238135, 0.447250, -0.044520, -0.060436, 0.011334, -0.075567, -0.419550, 0.040686, -0.166872, -0.113526, -0.057648, 0.346735, -0.130196, -0.179238, -0.139667, 0.524778, 0.220063, 0.081574, -0.097259, -0.471637, -0.294233, 0.425097, -0.006850, 0.064899, -0.689153, 0.097904, -0.023129
0.225470, 0.017292, 0.031383, 0.046262, 0.342910, 0.023261, 0.325132, 0.748168, 0.204393, 0.019914, 0.156701, -0.182568, 0.000759, -0.002766, 0.031430, 0.031399, -0.446253, -0.123117, -0.254863, 0.340620, 0.009734, -0.102692, 0.101951, -0.289315, -0.193799, -0.041992, 0.171999, 0.075682, 0.074959, -0.171973, -0.204871, 0.336015, 0.103250, -0.164892, 0.465692, 0.025664, -0.802569, 0.063342, 0.037007, 0.125410, -0.092933, 0.029911, -0.175254, -0.055739, 0.312350, -0.217324, -0.210548, -0.225403, 0.319120, -0.094370, 0.040470, 0.129617, -0.261668, 0.257643, 0.296282, 0.127060, -0.480123, -0.021797, 0.385278, 0.215531, -0.294432, -0.586299, 0.274006, -0.169652
0.230679, -0.077720, 0.147218, 0.125169, 0.201750, 0.389994, -0.539512, 0.597016, -0.062641, 0.062837, -0.106083, -0.139536, 0.130298, 0.234976, 0.091699, 0.346814, -0.028804, -0.125325, -0.490100, -0.075286, -0.078382, -0.421616, 0.420199, 0.085376, -0.113316, 0.215876, 0.148385, 0.209409, 0.119298, -0.076166, -0.207188, 0.173126, -0.019894, -0.075189, 0.053073, -0.151048, -1.027482, 0.183714, -0.380039, 0.015283, -0.372718, 0.084112, 0.017424, 0.014451, 0.521322, -0.129026, -0.375757, 0.093994, -0.169936, -0.134114, 0.232446, 0.214833, -0.528992, 0.026958, 0.213393, 0.363181, -0.493196, -0.050369, 0.242550, 0.029656, -0.346551, -0.717837, 0.004337, -0.248885
0.300054, -0.009154, -0.009517, 0.045304, -0.065311, 0.170110, -1.039641, 0.330519, 0.327796, 0.032905, 0.043847, 0.178879, 0.302493, 0.379125, 0.228211, 0.171885, -0.076677, -0.162526, -0.350150, -0.577752, -0.017199, -0.117560, 0.099284, 0.094395, 0.018604, 0.177584, -0.188624, 0.185465, 0.187103, -0.030594, -0.131440, 0.213973, 0.221502, 0.169101, -0.268657, -0.477387, -1.149146, 0.053845, -0.296422, -0.585004, -0.343369, -0.098374, 0.411162, -0.070005, -0.129288, -0.130431, -0.569192, 0.125520, 0.142273, -0.349592, 0.258989, 0.331630, -0.712204, -0.071654, -0.234598, 0.239357, -0.261400, 0.054968, -0.025784, -0.015466, -0.383839, -0.517425, -0.213264, -0.180260
-0.497398, 0.407075, -0.185462, -0.242063, -0.520207, -0.547655, -0.865431, 0.241375, 0.459349, 0.430050, 0.016215, 0.359252, 0.010119, -0.055077, 0.415546, -0.174739, -0.060615, 0.048221, -0.275856, -0.676465, -0.197643, -0.912131, -0.229001, 0.407807, 0.507546, -0.039487, -0.200959, 0.234751, 0.086358, 0.297707, -0.247325, -0.375459, 0.848064, 0.542238, -0.945095, -0.100632, -0.585304, -0.073081, 0.001044, -0.425945, -0.219919, 0.086285, 1.068787, -0.435371, -1.171609, 0.448050, -0.235110, 0.186714, 0.771477, -0.166269, -0.416975, 0.467269, -0.442784, 0.301101, -0.522554, -0.029823, -0.550579, -0.265833, 0.250734, -0.148335, -0.992896, -0.335443, -0.479164, -0.201500
-0.322384, -0.174182, -0.224170, -0.349045, 0.712347, -0.206170, -0.167930, 0.680167, 0.590868, 0.070608, -0.101460, 0.223632, 0.017543, 0.148481, 0.712459, -0.371445, 0.260159, -0.068506, -0.060483, -0.542841, -0.431587, -0.093463, 0.023544, 0.708704, 0.432048, -0.148399, -0.176306, 0.241571, -0.023911, -0.028933, -0.317621, -0.801727, 0.280734, 0.637437, 0.158803, 0.485671, 0.444835, -0.302973, 0.163375, -0.569879, 0.474735, 0.065695, 0.317712, -0.328702, -0.006111, 0.421153, 0.186680, 0.174505, 0.458759, -0.455821, -0.311322, -0.385702, 0.126282, 0.524855, -0.111522, 0.232496, -0.329635, -0.600621, -0.287135, -0.250044, -0.539193, 0.041152, -0.274775, 0.616807
-0.171818, -0.248249, -0.144349, -0.189055, 0.595905, -0.101235, 0.263411, 0.630040, -0.206189, -0.180128, 0.112438, -0.088128, -0.682122, 0.472835, -0.356069, 0.016652, 0.108640, -0.065540, -0.167608, -0.006366, -0.126506, 0.228778, 0.173424, 0.224461, 0.025565, 0.012481, -0.253925, -0.104430, -0.194266, -0.226162, -0.017062, 0.075841, -0.140847, 0.249106, 0.363932, -0.252048, 0.274131, -0.283659, 0.376798, -0.257516, 0.302107, 0.007454, -0.160836, 0.141132, 0.279761, -0.206458, 0.045526, -0.008923, -0.381597, -0.220486, 0.404721, 0.025324, 0.147340, -0.291846, -0.487383, 0.250567, 0.151725, -0.222998, -0.538101, 0.043151, 0.081259, -0.141988, -0.072410, 0.270024
0.109476, -0.682972, -0.157662, 0.280912, -0.078425, -0.213808, 0.599810, 0.053483, 0.348242, 0.166556, 0.112334, 0.064956, 0.400831, 0.490756, 0.325097, -0.066842, -0.188216, 0.349541, -0.273627, 0.017736, -0.417229, 0.032137, 0.029827, -0.226534, 0.246728, -0.580359, 0.243176, 0.452804, 0.181764, -0.065816, 0.299448, -0.396354, 0.052814, 0.120937, 0.043634, -0.513326, -0.286300, 0.008970, -0.047478, -0.617087, -0.024146, -0.234586, 0.075993, 0.083684, 0.036225, 0.032695, 0.036853, -0.635494, -0.019250, -0.109495, 0.153508, 0.271222, -0.057647, 0.094214, 0.000358, 0.092112, -0.144618, -0.473609, 0.286369, 0.139894, -0.272838, -0.436206, -0.170425, -0.136557
0.035484, -0.687841, 0.074695, 0.646059, -0.114502, -0.451971, -0.035178, 0.229486, 0.185158, 0.285139, -0.298156, 0.297459, 0.173664, -0.013733, 0.567339, 0.034067, -0.309978, 0.037869, 0.005291, -0.402463, -0.266115, -0.192734, 0.188438, 0.394924, -0.040266, -0.083899, -0.300680, 0.265274, -0.148510, -0.114505, -0.674076, -0.254059, 0.258563, 0.137656, 0.138895, -0.485095, -0.147206, -0.319164, 0.088860, -0.431455, -0.201565, -0.240049, -0.228286, -0.037438, -0.128633, -0.017915, -0.062692, -0.987122, 0.062439, 0.058023, 0.115997, 0.082591, -0.125891, -0.436079, 0.119233, 0.223931, 0.054642, -0.233499, 0.295093, 0.183614, -0.477285, -0.573480, -0.491709, 0.051877
0.032361, 0.215364, 0.249341, 0.373543, -0.063225, -0.326129, -0.014088, 0.362723, -0.028833, 0.291738, -0.226296, -0.383064, 0.017422, 0.224903, 0.096624, 0.131061, -0.251579, -0.189830, -0.010980, 0.001253, 0.011850, -0.331466, 0.041805, 0.554263, 0.024645, 0.086525, 0.039249, -0.037495, -0.005096, 0.197968, 0.001269, -0.235838, 0.340332, 0.119198, 0.054433, 0.025060, 0.172485, -0.270450, 0.138152, 0.040849, -0.077877, 0.032692, -0.107047, -0.080729, -0.157245, 0.188480, -0.073340, -1.232983, 0.088136, 0.049697, 0.112258, 0.249656, -0.122217, -1.122306, 0.199345, 0.034960, -0.083297, 0.100160, -0.058762, 0.069365, -0.130083, -0.243853, -0.397558, -0.129667
0.038295, 0.389614, 0.186803, 0.210719, -0.146907, -0.086755, 0.047396, 0.588077, -0.342503, 0.064423, -0.039597, -0.389835, -0.180019, 0.132501, -0.130558, 0.076958, -0.338115, -0.022280, 0.085393, -0.345574, 0.144188, -0.203743, -0.065848, 0.504558, 0.274227, 0.061035, -0.090654, -0.097286, 0.073601, 0.112225, -0.144165, -0.004418, 0.019909, -0.005605, -0.421690, 0.227786, -0.088855, -0.106897, -0.153962, 0.216807, -0.212567, 0.221305, 0.019118, 0.015697, -0.000446, 0.214281, -0.230199, -1.298468, -0.120295, -0.076059, 0.114858, 0.250137, -0.208005, -0.480905, 0.185659, 0.031055, 0.559919, 0.356733, 0.016480, 0.140940, -0.345248, 0.174833, -0.519777, -0.195421
0.034708, 0.394243, 0.273690, -0.450818, -0.171588, -0.177621, -0.065331, 0.829260, -0.091516, 0.293971, -0.093461, 0.031400, -0.038628, 0.198831, 0.175020, 0.137330, -0.510816, -0.063039, 0.120615, -0.221212, 0.094545, -0.362959, -0.414301, 0.503473, 0.264448, -0.003960, -0.043558, -0.603137, -0.144698, 0.186085, 0.226195, 0.182007, 0.264106, 0.236494, -0.033188, 0.529962, -0.171145, -0.175732, -0.559604, 0.294382, 0.043733, 0.215785, -0.190801, 0.078509, 0.164126, 0.043667, 0.357693, -0.839365, -0.077665, 0.175784, 0.035642, 0.135275, 0.031579, -0.228309, -0.090873, 0.152373, 0.805415, 0.102176, -0.310118, -0.123427, 0.367281, 0.442577, -0.421761, -0.611977
-0.008153, -0.124080, 0.019199, -1.025136, -0.079750, -0.464542, 0.101803, -0.186174, 0.421799, 0.243220, -0.126995, 0.326798, 0.105616, -0.134703, 0.498016, -0.200748, -0.105482, 0.460556, -0.109507, -0.320848, 0.163834, -0.260014, -0.409998, 0.298039, -0.000321, 0.221943, -0.140672, -0.251426, 0.064988, 0.199551, 0.205572, -0.034852, 0.106940, 0.018259, -0.108324, 0.569443, -0.441330, 0.231772, -0.627486, 0.579051, 0.089964, 0.480782, 0.097724, 0.113724, 0.231175, 0.003474, 0.415611, 0.042614, 0.243073, 0.300376, -0.173449, 0.016491, -0.115275, 0.091844, -0.027341, 0.262119, 0.451910, 0.093269, -0.098621, -0.335190, 0.573102, 0.417060, -0.245609, -0.572507
0.038293, -0.317988, -0.015425, -0.309433, -0.485046, -0.146488, 0.397409, -0.500614, 0.272131, -0.121324, -0.382928, 0.314624, -0.119373, -0.063273, 0.305723, -0.673547, 0.297373, 0.328831, 0.148229, -0.091190, -0.058324, -0.191660, 0.157951, 0.032527, 0.438717, 0.130529, -0.000680, -0.158770, 0.090833, -0.226078, 0.585784, -0.568788, -0.147448, -0.007511, 0.377047, 0.394425, -0.085037, -0.055195, -0.009904, 0.014829, 0.242917, 0.215987, 0.261040, -0.078428, -0.006872, 0.176952, -0.343574, 0.272472, 0.358126, 0.332448, -0.056178, -0.150006, 0.010069, 0.414357, 0.317619, -0.082222, -0.041376, 0.184412, 0.118367, 0.028742, 0.175781, 0.032073, -0.045905, -0.013663
0.047108, 0.008369, 0.152294, -0.083330, 0.117983, -0.100227, 0.501802, 0.011226, -0.107736, -0.347807, -0.272298, 0.095211, 0.096014, 0.149579, 0.209899, -0.401346, -0.258355, 0.102759, 0.410536, 0.157585, -0.014691, 0.115691, 0.115322, -0.168818, 0.130760, 0.048312, 0.090586, -0.296981, -0.091952, -0.356131, 0.462461, 0.002398, 0.042340, -0.117272, 0.447957, 0.134342, -0.004887, -0.179685, 0.236244, -0.003405, 0.001072, 0.185619, -0.159905, 0.299599, 0.093851, -0.075049, -0.189975, 0.147590, 0.211406, 0.173308, 0.194584, -0.176451, 0.154231, 0.407854, 0.325973, -0.135036, -0.419852, 0.188188, 0.286597, 0.264003, 0.248497, -0.070680, -0.093705, 0.015734
0.320602, 0.142192, 0.076090, 0.044436, 0.154933, 0.107951, 0.231237, 0.016285, -0.061840, 0.164477, -0.108069, 0.061072, -0.093494, 0.261436, 0.066619, -0.283962, -0.452514, 0.139546, 0.108906, 0.311749, 0.162133, 0.085725, 0.210318, -0.306827, -0.344731, 0.074562, -0.033847, -0.113590, -0.042735, -0.216968, 0.265899, 0.002116, 0.072285, -0.134142, -0.081410, 0.037957, 0.084652, -0.102506, -0.162714, 0.071926, -0.473946, 0.205268, -0.523467, 0.009938, 0.249035, -0.027363, -0.062130, -0.091221, 0.251776, 0.074225, 0.143189, 0.097782, -0.154451, 0.092511, 0.408612, 0.102596, -0.226985, 0.054749, -0.026980, -0.118919, -0.237325, -0.011987, -0.007904, -0.070117
0.136736, 0.046498, -0.093234, 0.286295, -0.156341, 0.098054, -0.252022, -0.092407, 0.010786, 0.183937, -0.098618, -0.446548, 0.241113, 0.311449, -0.151120, 0.097180, 0.083449, -0.071465, 0.054872, -0.298468, 0.328433, 0.075901, 0.330802, 0.045917, 0.508499, 0.124682, -0.221383, -0.136794, -0.042118, -0.152723, 0.022633, -0.140701, 0.229941, -0.037351, -0.047546, 0.058561, -0.153899, -0.069188, -0.491401, -0.098130, -0.527616, 0.187333, -0.893399, 0.034588, 0.014787, -0.142350, -0.805856, -0.255301, -0.124225, -0.162736, 0.397226, 0.156250, -0.023396, -0.335648, 0.344948, -0.052953, 0.004114, -0.087662, 0.012636, 0.173162, 0.515305, 0.121901, -0.044417, 0.024249
0.077656, 0.296328, -0.110624, 0.406414, -0.500020, -0.416303, -0.585336, -0.107308, -0.235475, -0.233037, -0.097663, -0.756198, 0.611004, 0.294627, -0.395532, 0.274195, -0.131204, -0.018668, -0.051267, -0.609268, 0.379096, 0.095971, -0.180086, 0.093609, 0.454581, 0.317361, -0.405268, -0.434026, -0.541296, 0.192150, -0.321664, -0.278904, 0.235655, 0.390676, -0.154437, -0.137518, -0.251097, 0.363826, -0.363704, -0.108578, -1.128731, 0.137836, -0.743061, 0.192823, -0.444530, -0.230870, -0.879567, -0.112946, -0.173230, -0.128195, 0.523057, 0.620407, -0.021447, -0.849319, -0.198629, -0.092953, 0.066380, 0.245868, 0.070079, -0.028922, -0.081863, -0.341109, -0.167722, -0.390035
-0.426902, -0.167771, -0.384672, 0.176376, -0.288517, -0.753584, -0.454308, 0.254285, 0.120495, -0.343419, -0.093997, -0.637386, 0.527812, -0.091714, -0.361497, -0.009542, 0.120393, 0.420133, -0.403328, -0.246276, 0.414765, -0.374104, -0.651799, 0.105861, 0.344698, -0.193278, 0.051647, -0.524315, -0.191108, 0.578106, -0.618213, 0.016683, 0.154824, 0.498614, -0.138117, -0.167265, -0.125809, 0.515909, 0.025246, 0.013160, -1.219891, 0.110770, -0.312914, -0.046969, -0.402148, -0.081621, -0.709509, 0.351900, -0.311710, -0.047684, 0.005218, 0.438859, 0.485696, -0.878358, -0.357465, -0.323993, -0.694340, 0.057835, 0.063174, -0.220035, -0.899905, -0.639324, -0.386343, -0.013063
-0.212981, -0.573181, -0.286269, -0.194863, 0.862886, 0.005380, -0.246854, 0.772207, 0.384397, 0.092922, -0.158256, 0.257796, 0.144864, -0.113567, 0.521129, -0.310324, 0.434679, -0.252667, 0.123494, -0.058755, -0.343223, -0.104577, 0.413980, 0.535858, 0.286103, -0.390874, 0.074900, -0.109679, 0.024831, 0.296600, -0.498485, -0.241217, -0.152127, 0.158332, 0.127338, 0.625766, -0.138236, -0.282852, -0.187399, -0.039265, -0.140112, -0.398858, 0.203784, -0.637999, -0.216848, 0.271349, -0.174675, -0.135263, 0.180498, -0.747175, -0.583633, -0.088096, 0.316401, 0.139484, 0.095920, -0.332792, -0.323769, -0.738974, -0.572938, -0.146522, -0.607477, -0.621997, 0.170509, 0.443376
0.060548, -0.048659, 0.108920, -0.105217, -0.031697, -0.069539, -0.286617, 0.321475, 0.049209, -0.168226, 0.262746, 0.369500, -0.157461, 0.310220, 0.277932, -0.182378, -0.217861, 0.215835, -0.142920, 0.109999, -0.206451, 0.164304, -0.018744, 0.086089, -0.025765, 0.329634, 0.057724, -0.110691, 0.214813, -0.075167, -0.077787, -0.072176, -0.101207, 0.310021, 0.242141, -0.150027, -0.087496, 0.151246, 0.046305, -0.164970, 0.292731, 0.191124, -0.154856, -0.145833, 0.110470, 0.053579, 0.047126, 0.199814, -0.064416, 0.208507, -0.040653, -0.308873, 0.301363, 0.109229, -0.232139, 0.237132, 0.151261, 0.231066, -0.382305, -0.098081, -0.022930, -0.064777, 0.034295, -0.139949
0.088931, -0.387026, 0.183062, 0.428353, -0.119419, -0.057581, 0.515182, 0.199086, -0.207807, 0.030002, -0.167141, 0.003902, 0.058826, 0.267267, -0.182533, -0.025066, 0.365042, -0.134953, 0.165385, -0.248143, 0.161662, -0.034524, 0.111420, 0.161967, 0.564907, -0.315345, -0.185645, 0.011422, -0.051328, -0.048771, 0.105978, 0.080448, -0.363877, -0.398604, -0.094674, -0.465201, -0.259077, -0.002673, -0.106113, 0.436254, -0.188020, 0.126122, -0.042809, 0.163582, 0.115206, -0.381910, 0.332470, -0.803578, 0.225311, -0.116198, 0.287411, -0.374040, 0.504469, -0.167392, 0.116418, -0.037001, 0.541489, -0.367157, 0.129918, 0.553657, -0.051763, -0.119863, 0.000529, -0.421046
0.164361, -0.331964, 0.052998, 0.360198, -0.271607, -0.169340, -0.333358, 0.102588, -0.021532, 0.221401, -0.146757, 0.080740, -0.050997, -0.166320, -0.351901, 0.178411, -0.382304, 0.070454, 0.106948, -0.303771, -0.014709, -0.800557, 0.218532, 0.085726, -0.406062, -0.160560, -0.401870, -0.221877, -0.294487, 0.023481, -0.094675, -0.047934, 0.256843, 0.014490, -0.067107, -0.904569, 0.206036, 0.221563, 0.078641, 0.297689, 0.219782, -0.080578, 0.232121, -0.292240, 0.021370, 0.068873, 0.135743, -0.503760, 0.032191, 0.081452, -0.042721, 0.223345, 0.480804, 0.238441, -0.165522, 0.369229, -0.205201, -0.497099, 0.053903, -0.205117, -0.420744, -0.359678, -0.086006, -1.158760
0.264981, -0.159811, 0.176973, 0.499340, -0.261494, 0.111257, -0.530580, 0.205463, -0.040252, 0.269652, -0.182292, -0.395788, -0.055002, 0.204025, -0.420900, -0.060828, -0.033032, 0.081633, 0.356126, 0.144516, 0.083655, -0.347457, 0.117163, 0.302104, -0.270334, -0.025222, -0.270672, -0.153145, 0.121045, 0.181833, 0.000955, 0.277823, 0.221224, -0.220975, -0.312048, -0.723189, 0.130080, 0.039253, -0.679500, 0.283220, -0.253154, -0.043839, 0.124702, -0.122379, 0.116509, -0.115963, 0.109768, -0.234253, 0.096349, -0.003242, 0.203140, 0.157389, 0.328955, -0.772341, -0.298578, 0.116265, 0.112339, 0.078816, 0.053738, -0.092770, -0.354037, -0.375863, -0.035399, -1.150077
0.064940, 0.265158, 0.365447, 0.349143, -0.469133, -0.166573, -0.245018, 0.336054, -0.078363, 0.239883, 0.055841, -0.089025, -0.033708, 0.398001, -0.060953, -0.045464, 0.140753, -0.157103, -0.086382, -0.074736, -0.095947, -0.212489, -0.002349, 0.671909, -0.152927, 0.208982, -0.248377, -0.248477, -0.025578, 0.045152, 0.109160, 0.482378, 0.029070, -0.161912, -0.007621, -0.523497, 0.078902, -0.059001, -0.620489, 0.365849, -0.264750, 0.102849, 0.090080, -0.029819, -0.060902, -0.128126, 0.101629, 0.030352, 0.313374, -0.038358, 0.120487, -0.113737, 0.199341, -1.134791, -0.157356, -0.518075, 0.388046, 0.247718, -0.098637, 0.221091, -0.076252, -0.068942, 0.077626, -1.101151
-0.137362, 0.480330, 0.210169, -0.302190, -0.320670, -0.012694, -0.043555, 0.173161, 0.050184, 0.405681, -0.103117, -0.011234, 0.144354, 0.336162, 0.017089, -0.246853, 0.309100, -0.058211, 0.322198, -0.175235, -0.226485, -0.340645, -0.186302, 0.631202, -0.076492, 0.603897, -0.018219, -0.421219, -0.236251, 0.072281, 0.334056, 0.344659, 0.337142, 0.314978, -0.142641, -0.169898, -0.285622, -0.270950, -0.123961, 0.327933, 0.002003, -0.076819, -0.183197, 0.210311, -0.178576, 0.052176, 0.297657, 0.503739, 0.159140, -0.012130, 0.136786, 0.155072, 0.159426, -0.600070, -0.260444, -0.312867, 0.233349, 0.134642, -0.380080, 0.122156, -0.005539, 0.165335, -0.091481, -0.464995
-0.021593, 0.182591, 0.233905, -0.631861, 0.033952, -0.176282, 0.044363, -1.073619, 0.133753, 0.154040, -0.218883, 0.433737, 0.297803, 0.052974, 0.368103, -0.324413, 0.621057, 0.547020, 0.191504, -0.121221, 0.217034, -0.131575, 0.019905, 0.342022, 0.380488, 0.496227, 0.158433, 0.292939, 0.332462, 0.358095, 0.260299, -0.349332, 0.261625, -0.006227, 0.173796, 0.210129, -0.361047, -0.113610, -0.038766, 0.344068, -0.283804, 0.139470, 0.107563, 0.144243, 0.067246, 0.165291, -0.049142, 0.557631, -0.008894, 0.276238, -0.109776, 0.157623, 0.387230, 0.133184, 0.135807, -0.289240, -0.087619, 0.174108, -0.330374, -0.322130, 0.339390, -0.010716, -0.013213, -0.260889
0.001018, -0.427816, 0.228239, -0.549035, -0.059668, 0.135684, 0.218918, -0.261364, 0.315475, -0.007165, -0.295652, -0.238943, 0.192950, -0.114263, 0.270520, -0.403468, 0.373472, 0.351886, 0.072773, -0.121714, 0.267955, -0.132155, 0.104577, 0.168879, 0.702443, 0.386724, -0.024771, 0.079589, 0.215781, -0.202984, 0.439931, -0.535760, -0.262365, -0.088630, 0.244814, -0.054340, 0.011827, 0.065032, -0.031060, 0.099321, 0.112381, 0.437086, 0.072551, 0.264807, 0.069498, -0.047759, -0.141205, 0.255960, -0.166281, 0.317634, 0.076445, -0.033714, 0.289008, 0.282523, 0.438357, -0.077730, -0.082054, 0.343888, -0.202984, 0.153904, 0.237817, 0.220972, -0.001476, 0.089163
0.183375, 0.038538, 0.196920, -0.239661, -0.016266, -0.103105, 0.466997, -0.150843, 0.034159, 0.066172, -0.389763, 0.053195, 0.216318, 0.012935, 0.000277, -0.542718, -0.040384, -0.029085, 0.260105, 0.252149, -0.004249, -0.080025, 0.189678, 0.196000, 0.117253, 0.142183, -0.193060, -0.318471, -0.217816, -0.283418, 0.408011, -0.034574, -0.221199, -0.350518, 0.280179, -0.145214, -0.116950, -0.266279, 0.048914, 0.464235, -0.016078, 0.155537, -0.058903, 0.347821, 0.199160, 0.004837, 0.089171, 0.066329, 0.321090, 0.301766, 0.060666, -0.080147, 0.282769, 0.081347, 0.063414, -0.081030, -0.151643, 0.278534, 0.014390, 0.397342, 0.021559, -0.134953, -0.131665, 0.130174
0.269924, -0.067485, -0.280920, -0.004346, -0.099757, -0.126300, 0.014419, -0.431970, -0.130703, -0.098676, -0.339556, 0.209214, 0.214312, 0.187227, -0.134855, -0.570175, -0.372766, 0.190258, 0.333064, 0.278442, 0.052318, -0.041858, 0.472015, 0.148276, 0.100183, -0.116350, -0.313857, -0.514728, -0.374450, -0.089727, 0.394935, -0.139823, 0.163238, 0.040976, -0.259374, -0.193199, -0.030840, 0.097522, -0.284653, 0.239028, -0.009790, 0.262158, -0.297206, 0.072983, 0.451085, -0.148974, 0.128245, 0.071613, -0.145066, -0.220180, 0.477445, 0.214403, 0.355172, -0.124607, -0.156185, 0.306387, 0.066990, -0.031415, 0.090327, -0.026829, -0.043689, -0.169614, -0.138780, 0.049886
0.253955, 0.079134, -0.191583, 0.272264, -0.102057, -0.108728, -0.450318, -0.122612, -0.307663, -0.292005, -0.048236, -0.028890, -0.013667, 0.045235, -0.280598, 0.119695, -0.191684, 0.061138, 0.230967, -0.270557, 0.142471, 0.241797, 0.262093, -0.065755, 0.025227, -0.183505, -0.234012, -0.838009, -0.402863, 0.060451, 0.349922, -0.235995, 0.281147, 0.172836, 0.015476, 0.001746, 0.006353, 0.285806, -0.416550, -0.031142, 0.045257, 0.131169, -0.369317, 0.093645, -0.002580, -0.281189, -0.068137, 0.164270, -0.202790, -0.190717, 0.196599, 0.352856, 0.410693, 0.159475, -0.285247, 0.267330, 0.202781, -0.068899, 0.151193, -0.118051, 0.119437, -0.155247, -0.263277, -0.001076
0.146006, -0.010295, -0.048615, 0.460075, 0.023871, -0.202463, -0.135171, 0.635803, -0.196018, -0.505917, -0.203399, -1.082826, 0.085046, 0.071888, -0.104968, -0.009390, -0.107079, 0.267376, 0.003395, -0.475996, 0.062831, 0.024067, -0.374378, 0.045742, 0.246165, -0.163675, -0.169041, -0.848340, -0.428506, 0.234679, -0.067049, -0.062388, 0.154239, 0.413391, 0.003729, 0.092545, 0.236693, 0.040534, -0.087527, 0.276337, -0.079826, 0.240186, -0.967320, -0.058304, -0.028229, -0.596848, -0.034632, 0.330021, -0.260183, -0.090681, 0.298295, 0.427006, 0.342713, -0.067257, -0.317242, 0.398759, 0.486675, 0.023045, 0.163997, 0.010927, -0.114208, -0.615278, -0.429006, 0.208609
-0.190624, -0.214132, -0.041019, 0.239038, 0.072581, -0.470236, -0.100850, -0.169607, 0.082142, -0.163401, 0.088713, -1.027032, 0.232310, -0.004462, -0.204996, 0.139946, 0.088920, -0.036883, 0.105431, 0.024693, 0.141119, 0.107651, -0.834919, -0.366347, -0.199492, -0.874929, 0.050244, -0.428871, -0.185560, 0.720891, -0.591474, 0.096552, 0.168014, 0.530692, -0.060547, 0.040151, 0.211974, 0.012064, 0.046247, 0.454388, -0.357025, 0.063444, -0.705890, -0.297610, -0.270629, -0.149161, 0.233149, 0.162315, 0.018945, -0.327722, -0.364485, 0.358155, 0.307616, -0.160349, -0.327907, 0.244150, -0.203500, -0.419194, -0.026436, -0.451332, -0.728120, -0.604259, -0.390453, -0.232270
-0.034331, -0.322501, -0.222084, 0.005968, 0.957349, 0.482496, -0.137980, 0.298487, 0.282280, 0.435753, 0.439887, -0.498701, 0.219409, -0.456566, -0.258918, -0.050649, 0.557275, -0.442524, 0.539859, 0.179758, -0.291870, 0.089927, 0.450873, -0.058294, -0.421890, -0.278642, -0.448733, 0.047242, 0.016697, 0.577661, -0.719723, 0.563521, -0.636319, -0.608234, 0.341313, 0.651176, -0.065884, 0.108879, 0.315641, 0.817261, -0.147088, -0.156965, -0.419071, -0.334327, 0.214176, 0.310875, 0.164062, 0.009728, -0.234778, -0.347087, -0.445212, -0.376446, 0.715134, 0.016750, 0.483449, -0.343193, -0.622342, -0.256227, -0.201778, 0.433632, -0.630100, -0.706285, 0.297901, 0.487669
0.339787, -0.072130, -0.052562, 0.111470, -0.054057, 0.188315, 0.170720, 0.247810, 0.162392, -0.324729, 0.055988, 0.178520, -0.089267, 0.132590, 0.207349, -0.393407, -0.402354, 0.346828, -0.271984, -0.121637, -0.164141, 0.255457, 0.418302, 0.123664, -0.108075, 0.181937, 0.107596, -0.161358, 0.150716, -0.183479, 0.120440, -0.023852, 0.034759, -0.231883, 0.434913, 0.039944, -0.420319, 0.386478, -0.000177, -0.195586, 0.132077, 0.068904, -0.185222, -0.046627, 0.201707, -0.176601, -0.364827, 0.310309, -0.183740, 0.216560, -0.107353, -0.206378, 0.460082, 0.200877, 0.156850, 0.215119, 0.073858, 0.167847, 0.266667, -0.361433, -0.086705, -0.315897, 0.140564, -0.237137
-0.030749, -0.439986, -0.166305, 0.025462, -0.103727, 0.200514, -0.266690, 0.121349, 0.375495, 0.218155, 0.097204, -0.096030, 0.121624, -0.232963, 0.239052, -0.195342, 0.128914, 0.119374, 0.185019, -0.250874, 0.136552, 0.027945, 0.177854, -0.194589, 0.067500, 0.128727, 0.058995, 0.496228, 0.244285, 0.301422, -0.352028, 0.214092, -0.036158, -0.296500, -0.150967, 0.025865, 0.217968, 0.223268, -0.117578, 0.354102, 0.192991, 0.288533, -0.346079, -0.248795, 0.003069, 0.022600, 0.178597, 0.515954, -0.174331, 0.016994, -0.388463, -0.266572, 0.619546, -0.028358, 0.056210, 0.016373, -0.297635, -0.358887, 0.095280, -0.076019, -0.024796, -0.037031, 0.285659, -0.639117
0.185625, -0.218521, -0.117055, 0.017904, -0.548302, 0.148609, -0.752384, 0.027450, 0.189258, -0.040528, -0.168841, 0.058212, -0.178798, -0.231645, -0.239690, 0.112143, 0.099762, 0.107408, 0.221850, -0.069240, -0.035468, -0.317701, 0.112551, -0.583448, -0.312022, -1.149929, -0.092158, 0.041353, -0.058197, 0.269091, -0.076796, 0.065842, -0.067214, -0.010174, -0.155468, -0.558829, -0.081211, 0.183781, -0.410024, 0.274720, 0.112276, -0.166946, 0.386726, -0.219142, -0.086963, -0.061998, 0.128975, 0.496430, -0.069424, -0.009641, -0.237634, 0.240149, 0.348944, 0.613532, -0.086558, 0.194921, -0.231386, -0.282932, -0.042664, -0.035152, -0.050189, -0.536604, 0.446257, -0.993184
0.204927, -0.375904, 0.310138, 0.401728, -0.457722, -0.132734, -0.438055, -0.333374, 0.022590, 0.095817, -0.181005, -0.177177, -0.129678, 0.107507, -0.236962, -0.037820, 0.269223, 0.192769, 0.369757, 0.103843, 0.059336, -0.246547, 0.231273, -0.352884, -0.391432, -1.293600, -0.297955, -0.223409, -0.120988, -0.013874, -0.589031, 0.266900, -0.067949, -0.103017, -0.486153, -1.224480, 0.043527, 0.075142, -0.715056, 0.300962, 0.226136, 0.074082, 0.247478, 0.063189, -0.053170, -0.035578, 0.083049, 0.386611, 0.003066, 0.180152, 0.253576, 0.152494, 0.250504, 0.158567, -0.125855, 0.050560, -0.313675, -0.076335, -0.095233, 0.283375, -0.259600, -0.427601, 0.003583, -0.517125
0.114966, 0.027326, 0.276670, 0.619741, -0.243150, -0.140017, -0.178118, -0.166801, 0.084858, 0.038299, 0.023283, -0.395572, 0.166992, 0.378855, -0.354590, 0.027487, 0.499009, -0.033883, 0.229891, 0.117616, -0.346962, -0.260487, -0.054950, -0.043606, -0.448718, -0.954224, -0.120457, -0.411683, 0.280580, 0.073531, 0.095582, 0.359243, -0.118607, -0.029677, -0.134163, -1.508233, -0.047107, 0.044080, -0.414250, 0.318609, 0.073829, -0.007290, -0.186108, 0.216546, 0.158232, 0.132105, 0.023798, 0.254500, 0.096088, 0.068712, 0.257441, 0.045740, 0.030211, -0.490288, 0.146907, -0.267303, -0.244362, -0.052089, -0.117456, 0.238035, 0.021067, -0.166106, -0.031037, -0.177802
-0.206543, 0.231620, 0.363115, 0.300361, -0.208638, -0.239032, 0.155613, -0.583159, 0.125796, 0.193736, -0.099714, -0.120390, 0.190272, 0.097277, -0.179994, -0.122271, 0.522413, 0.216179, 0.047123, -0.120559, -0.249463, -0.219392, -0.137299, 0.262222, -0.189620, 0.203605, 0.188660, -0.165947, 0.122260, 0.431786, 0.479949, 0.004343, 0.056003, 0.127119, -0.041984, -1.780165, -0.118644, -0.070851, 0.028368, 0.165220, -0.259783, -0.218487, -0.117412, 0.068718, -0.194619, 0.467351, 0.006611, 0.140544, 0.035888, 0.093276, -0.160804, 0.232909, -0.076661, -1.046314, 0.124828, -0.398344, -0.105471, 0.261537, -0.241940, -0.228309, 0.297749, -0.226419, -0.004055, 0.199573
0.056861, -0.004353, 0.519443, -0.184038, -0.005271, -0.206328, -0.067290, -0.913172, 0.315741, -0.088796, 0.049127, 0.141214, 0.033607, -0.009246, 0.097844, -0.193258, 0.378231, 0.415534, 0.172409, -0.334714, 0.518418, -0.222715, 0.187849, 0.340687, 0.250310, 0.204847, 0.137906, 0.322297, 0.164146, -0.208944, 0.035472, -0.149958, -0.253882, -0.196813, 0.151331, -0.885037, -0.491462, -0.069790, 0.314699, 0.240187, -0.215659, 0.165823, -0.064346, 0.001198, -0.083093, 0.214250, -0.076938, 0.326403, 0.109012, -0.078646, -0.175895, 0.045292, -0.015673, -0.562210, 0.218892, -0.341050, 0.014237, 0.294956, 0.043230, -0.475214, 0.281858, 0.173540, 0.124685, 0.374079
-0.317647, -0.443044, 0.309081, -0.316594, 0.154865, 0.042291, 0.337352, 0.043078, -0.065534, -0.077853, -0.545018, -0.042929, 0.176690, -0.038287, 0.183793, -0.151122, 0.219729, 0.006322, 0.031801, -0.150694, 0.141202, 0.013477, 0.327445, 0.119526, 0.384310, -0.124222, -0.186956, 0.166195, -0.133010, -0.083656, 0.471978, -0.146953, -0.056542, -0.214937, 0.021578, -0.320619, -0.129578, -0.215350, -0.095299, 0.354709, 0.137861, 0.360177, -0.041059, 0.335575, -0.047182, -0.241083, -0.022883, 0.047393, -0.109361, 0.088040, 0.176853, 0.102070, 0.310563, -0.193139, 0.165166, -0.218854, -0.007805, 0.117973, -0.291129, 0.319386, 0.099576, 0.492946, -0.044941, -0.043309
0.195153, 0.161918, 0.173877, -0.311468, 0.068751, 0.162752, 0.421542, -0.002646, -0.127359, 0.155546, -0.440099, 0.215994, 0.174153, 0.177463, -0.019277, -0.181128, 0.033552, -0.133471, 0.257463, 0.193865, 0.046403, -0.174387, 0.281818, -0.026617, -0.177151, -0.122320, -0.368207, -0.059602, -0.231599, 0.260941, 0.176187, 0.177340, 0.120237, -0.030477, -0.158483, -0.276531, 0.080407, 0.030813, -0.443113, 0.656617, 0.183371, 0.096185, 0.258557, 0.317278, 0.217680, -0.353208, 0.316852, -0.066994, 0.308214, -0.034335, 0.473859, 0.001483, 0.126968, -0.147486, -0.065364, 0.218115, 0.044720, -0.200968, 0.054140, 0.457563, -0.250995, -0.019043, -0.198608, -0.048614
0.253437, 0.095973, -0.325558, 0.205961, 0.256282, -0.312311, -0.133304, 0.019429, -0.182384, -0.259952, -0.223247, 0.575280, -0.147070, -0.056564, -0.148797, 0.199608, -0.071348, 0.154088, 0.557735, -0.093641, -0.043750, 0.293591, 0.190541, -0.053359, -0.426050, -0.033583, -0.295763, -0.206721, -0.342143, 0.147607, -0.179107, 0.136971, 0.072074, 0.105696, 0.153330, 0.082555, -0.015335, 0.141984, -0.281050, 0.432217, 0.495136, 0.186804, -0.250706, 0.156088, 0.110504, -0.348393, 0.393929, 0.256582, -0.103812, -0.046297, 0.248989, 0.194561, 0.212410, 0.285744, -0.621095, 0.095687, -0.065453, -0.184630, 0.395584, 0.187783, -0.144802, -0.281099, -0.387376, 0.055572
-0.074736, -0.008776, -0.099094, 0.452080, 0.431191, -0.344613, -0.272731, 0.152852, 0.095997, -0.348372, 0.243238, -0.490743, -0.052696, 0.007932, -0.074576, 0.222744, 0.239689, 0.080972, 0.193972, -0.139130, -0.471897, 0.144294, -0.045708, -0.000172, -0.221584, -0.123249, 0.144561, -0.303154, -0.212994, 0.028036, -0.192323, 0.254822, -0.161022, 0.222006, -0.303805, -0.156969, 0.022063, 0.059968, -0.162031, 0.325656, 0.297151, 0.312058, -0.511810, -0.116893, 0.159482, -0.216415, 0.229843, 0.027125, -0.311864, 0.164008, 0.012390, 0.116867, 0.260195, 0.342694, -0.320494, 0.090094, 0.158972, -0.224698, 0.239032, 0.106760, 0.024352, -0.198397, -0.347799, 0.148523
0.047710, -0.247572, -0.144567, 0.287715, 0.539514, -0.365690, -0.039314, 0.156103, 0.162841, -0.154633, 0.249643, -1.085530, -0.095532, -0.023527, 0.252198, 0.071510, 0.223763, 0.064202, -0.023271, -0.034281, -0.241225, -0.008285, -0.123322, 0.065390, -0.312077, -0.056909, 0.120810, -0.553202, -0.079741, 0.298551, -0.169046, 0.132108, 0.092092, 0.171423, -0.169043, 0.029046, -0.049269, 0.096280, -0.169604, 0.209942, 0.116155, 0.347381, -0.930690, 0.042876, 0.163282, -0.284693, 0.093732, 0.345792, -0.229079, 0.008032, -0.058610, -0.056457, -0.010583, -0.174415, -0.156877, 0.298339, 0.442423, -0.101921, 0.092909, -0.015034, -0.377601, -0.120124, -0.432721, 0.133547
-0.293615, -0.138088, -0.427109, 0.352198, 0.352302, -0.361085, -0.211814, -0.345456, 0.421698, 0.004171, 0.210904, -0.407589, 0.132912, -0.041385, 0.151551, 0.048340, 0.487750, 0.387054, 0.060048, 0.031259, 0.249838, 0.146507, -0.675829, -0.135336, -0.426367, -0.782563, -0.240556, -0.401677, -0.077909, 0.437496, -0.384209, 0.158088, -0.038543, 0.273592, 0.368254, 0.096563, -0.017377, 0.131403, 0.516319, 0.301886, -0.499638, 0.120748, -0.214254, -0.134134, -0.258198, -0.582948, -0.236555, 0.351378, -0.265941, 0.036558, -0.430140, 0.113992, 0.139737, -0.418057, 0.138873, 0.081050, 0.105328, -0.241210, -0.191559, -0.114954, -0.447760, -0.788365, -0.021806, -0.189579
-0.230232, -0.523969, -0.363770, -0.082271, 1.153629, 0.431250, 0.159378, 0.060103, 0.358491, 0.525212, 0.150230, 0.074914, 0.359765, -0.241290, -0.368525, 0.158144, 0.711983, -0.391042, 0.387281, 0.029001, -0.343002, 0.192247, 0.486653, -0.075557, -0.010877, -0.350969, -0.449161, 0.395567, 0.050559, 0.259144, -0.595783, 0.675541, -0.496531, -0.300963, 0.326745, -0.053644, -0.490451, 0.199300, 0.755093, 0.467470, -0.329912, -0.493427, 0.222392, -0.329414, 0.067155, 0.376876, -0.323276, 0.201815, -0.247856, -0.627779, -0.054567, 0.047647, 0.262805, 0.008917, 0.591724, -0.016486, -0.521050, -0.523883, -0.102770, -0.080914, -0.355254, -0.698891, 0.521456, -0.004278
-0.209558, -0.451444, -0.454062, 0.056698, 0.309316, 0.213718, 0.552873, 0.580497, -0.476551, -0.476638, 0.338980, 0.089624, -0.428769, 0.527627, 0.321153, -0.177284, -0.200094, 0.492528, -0.324557, 0.565463, -0.632386, 0.393146, 0.434318, -0.494412, 0.245905, -0.360468, 0.253703, -0.116720, 0.344927, -0.288817, 0.327617, -0.224645, -0.451739, 0.437791, -0.056807, -0.404026, -0.227658, -0.222814, 0.410915, -0.638979, 0.304908, -0.339924, 0.667598, -0.610280, 0.141246, 0.178850, -0.514608, -0.165286, -0.363576, -0.437393, 0.626000, 0.650477, -0.184732, -0.466871, -0.309311, 0.386598, 0.442643, -0.386900, 0.249954, -0.453530, -0.508305, -0.380463, 0.165129, 0.098060
0.215503, -0.155414, -0.309770, 0.269927, 0.087841, -0.231670, -0.357998, -0.253221, 0.226210, 0.099053, 0.042651, -0.067422, -0.148175, -0.376459, 0.020197, -0.201005, 0.072502, 0.119803, 0.319158, 0.149872, -0.484520, 0.120349, 0.394415, -0.472167, -0.184640, 0.589280, -0.095977, 0.395050, 0.107859, 0.395693, -0.107087, 0.246724, -0.056531, -0.526820, 0.314143, 0.151507, 0.401204, 0.385634, -0.305952, 0.269097, 0.237581, 0.411092, -0.900142, -0.004789, 0.235839, -0.331127, 0.762452, 1.009661, -0.116720, 0.514491, -0.468528, -0.294424, 0.445413, 0.177388, -0.120448, 0.131905, -0.388971, -0.162938, 0.061069, -0.086348, -0.116877, 0.041464, 0.152770, -0.059799
0.179514, -0.001608, -0.199270, -0.108958, 0.078061, -0.008969, -0.417230, 0.005275, 0.343077, 0.351684, -0.186450, 0.011503, -0.118797, -0.287025, 0.280808, -0.287426, 0.032280, -0.015207, 0.332069, -0.176091, -0.317841, -0.097519, 0.065487, -0.373043, -0.838826, -0.334365, 0.095251, 0.193814, 0.222875, 0.359845, 0.024644, 0.320443, 0.123463, 0.001794, -0.055611, -0.067075, -0.298519, 0.229647, -0.581988, 0.230692, 0.063995, 0.408277, -0.105959, -0.086146, -0.054559, -0.083881, 0.384239, 0.260672, -0.000526, 0.463437, -0.159246, -0.131231, 0.065146, 0.308404, -0.124269, 0.174468, -0.460991, -0.100999, -0.192312, 0.118319, -0.243119, -0.119694, 0.212735, 0.152338
0.267918, 0.058366, -0.216934, 0.135208, -0.158649, 0.041463, -0.443665, -0.407776, 0.269810, 0.136887, -0.036670, -0.000189, 0.052649, -0.166892, 0.086859, 0.118140, 0.361884, -0.064315, 0.412777, -0.046416, -0.449249, -0.176547, 0.072926, -0.522057, -0.321225, -0.927383, -0.120539, -0.330844, -0.174824, 0.167162, -0.691296, 0.258800, 0.130687, 0.009078, -0.105764, -0.096540, -0.321215, 0.143903, -0.548960, 0.102710, 0.096686, 0.329004, 0.315991, 0.011153, -0.046063, 0.029037, 0.117044, -0.235878, -0.026376, 0.046428, -0.065494, 0.033633, 0.307241, 0.561401, -0.073183, 0.173573, -0.129228, -0.051341, 0.055246, 0.126151, -0.438444, -0.328085, 0.313662, 0.286106
-0.068172, -0.040915, -0.592354, 0.279836, 0.113958, -0.069324, -0.213637, -0.373051, 0.036279, -0.039496, -0.180651, -0.071224, 0.054770, -0.080137, -0.201498, 0.078071, 0.404816, 0.016742, -0.020766, 0.012128, -0.469966, -0.355660, -0.327453, -0.697933, -0.193864, -1.985569, 0.095687, -0.334179, -0.207280, 0.034635, -0.916191, 0.248984, -0.004887, -0.162472, -0.103687, -0.272678, -0.398210, 0.113800, 0.086468, 0.282545, 0.138647, 0.010546, 0.208237, -0.040564, 0.071648, 0.150680, -0.141795, -0.058513, 0.033666, -0.047168, -0.143629, 0.068782, -0.032532, 0.412326, -0.018541, 0.201105, -0.067394, -0.044252, -0.574527, -0.096849, -0.033654, -0.080872, 0.202775, 0.474454
0.045703, 0.237990, -0.455547, 0.432226, -0.051973, -0.192751, 0.064406, -0.682141, 0.043946, -0.176252, -0.139689, 0.168757, 0.212975, -0.111300, -0.324989, -0.174844, 0.071943, 0.012781, 0.006573, 0.188605, 0.104963, -0.381009, -0.185660, -0.587293, -0.009300, -1.508625, -0.079442, -0.054333, -0.234403, 0.420117, -0.436757, -0.300520, 0.102411, 0.010569, -0.127471, -0.379393, -0.420800, -0.119295, 0.400581, 0.245042, 0.031885, -0.090333, -0.021472, -0.018330, -0.046438, 0.121852, 0.060879, -0.037783, -0.144211, -0.061638, -0.104480, 0.232420, -0.179909, -0.108109, -0.195329, -0.065575, -0.372747, 0.030903, 0.194247, -0.556618, 0.291911, -0.197913, 0.118438, 0.254793
0.007854, 0.058846, -0.262798, 0.000570, -0.147158, -0.177365, -0.227517, -0.319384, -0.049437, -0.250716, -0.138201, 0.047727, -0.045140, 0.019966, -0.415411, -0.157129, 0.021157, 0.007389, -0.179452, 0.140272, 0.657084, -0.487963, -0.092009, -0.349727, 0.114203, -0.863611, -0.416054, 0.442607, -0.186402, 0.117323, 0.181695, -0.111916, -0.210567, -0.130040, 0.014014, -0.249993, -1.016626, 0.078062, 0.517850, 0.127962, 0.071075, 0.103576, 0.132583, -0.083275, -0.029229, -0.055638, -0.000959, 0.060507, 0.068094, -0.035078, -0.165992, 0.114376, -0.211494, 0.028858, -0.132615, -0.160346, 0.045303, -0.043664, 0.144639, -0.257923, 0.297052, 0.258827, 0.298007, 0.084280
0.052850, -0.130841, 0.220141, -0.222572, 0.132636, -0.138361, 0.141717, 0.013800, 0.168677, 0.013484, -0.152707, 0.237248, 0.319671, -0.146751, -0.077616, 0.551865, -0.042815, 0.005215, 0.039301, 0.179286, 0.102325, 0.213357, 0.325341, -0.104763, -0.226273, -0.231987, -0.550767, 0.403423, -0.200310, 0.109275, 0.282842, 0.076672, 0.027399, -0.110861, -0.104517, -0.060907, 0.101827, 0.056023, 0.000561, 0.641340, 0.253648, 0.225471, 0.221812, 0.194411, 0.061534, -0.391791, 0.105960, 0.029954, 0.082378, 0.267169, 0.078595, -0.103548, -0.076147, 0.092352, -0.055796, 0.233613, 0.045773, 0.022350, -0.230989, 0.479722, -0.303099, 0.296472, 0.219320, 0.045792
-0.072973, -0.039562, 0.181736, 0.056997, -0.099646, 0.161519, -0.001690, 0.105767, -0.195474, 0.113969, -0.034043, 0.471257, 0.073693, -0.213638, -0.208894, 0.337404, 0.010446, 0.095109, 0.139150, 0.041406, -0.216073, 0.292666, 0.031934, -0.122391, -0.629508, -0.035904, -0.226543, 0.628984, -0.097171, -0.017266, -0.355031, 0.038389, 0.074442, 0.061629, 0.098248, -0.101189, 0.087153, 0.198005, -0.398679, 0.692321, 0.083764, 0.188226, 0.195082, 0.277947, 0.099413, -0.289309, 0.023598, 0.334456, 0.135005, 0.195626, 0.310675, 0.145226, 0.089859, 0.072789, 0.003187, -0.057156, 0.118522, -0.016337, 0.043647, 0.363446, -0.544705, 0.033271, 0.068941, -0.078243
0.065333, -0.065282, -0.464762, 0.575374, -0.251735, 0.073726, -0.161539, -0.119781, -0.004482, -0.025000, -0.041663, 0.262660, -0.017262, -0.233710, 0.097199, 0.446558, -0.049051, 0.034429, 0.241643, -0.132514, -0.069952, 0.212517, -0.013412, -0.270605, -0.353174, -0.024169, 0.085035, 0.445785, 0.058318, -0.066226, -0.674091, 0.124018, -0.238857, -0.058601, -0.056549, 0.024778, -0.030866, 0.059438, 0.041302, 0.374961, 0.132072, -0.065513, -0.150220, 0.002571, 0.206593, -0.253164, 0.042337, 0.375012, 0.143556, 0.071986, -0.069349, 0.007285, -0.159098, 0.001406, -0.183852, -0.058759, 0.051960, -0.047320, 0.225690, 0.121317, -0.264349, 0.061836, 0.108164, -0.081466
0.022905, -0.182878, -0.177723, 0.514794, -0.422922, -0.430903, -0.086332, -0.305367, 0.197469, -0.060310, 0.181152, -1.269162, -0.091798, -0.238454, 0.241314, 0.350142, 0.471777, 0.183973, -0.153297, 0.036935, -0.339372, 0.205630, -0.199803, -0.005856, -0.438168, -0.002724, 0.379637, 0.041415, 0.183621, 0.041197, -0.493593, 0.233261, -0.028310, 0.041163, -0.127664, 0.053932, 0.196361, -0.024305, 0.115681, -0.031889, 0.224130, 0.076569, -0.653412, 0.036601, 0.099232, -0.037040, 0.174588, 0.242416, -0.201761, 0.212778, -0.292833, -0.346123, -0.164648, 0.139989, 0.102072, 0.054776, -0.101098, -0.099957, -0.073701, 0.046875, -0.262715, -0.019800, -0.339984, -0.043319
0.043612, -0.219603, -0.348623, 0.167265, -0.304131, -0.270928, -0.402547, -0.359019, 0.643144, 0.088831, 0.235772, -0.983195, 0.058853, -0.248959, 0.229166, 0.236531, 0.346111, 0.047648, -0.233313, 0.075187, -0.033511, 0.030157, -0.238635, -0.352141, -0.545838, 0.136651, 0.156714, -0.411196, 0.313962, 0.070571, -0.437360, 0.114165, -0.029144, -0.047860, -0.232710, -0.003386, -0.026041, 0.075268, 0.159742, 0.197530, -0.255573, 0.319096, -0.746938, 0.023998, -0.186735, 0.026040, -0.253805, 0.171017, -0.269233, -0.081715, -0.114203, -0.116900, -0.186935, -0.536720, 0.406727, 0.095172, 0.014028, 0.042016, 0.246320, 0.009525, -0.625052, -0.483879, -0.266663, -0.030059
-0.487951, -0.054252, -0.790919, -0.047795, -0.136966, -0.105493, -0.533151, -0.496656, 0.459648, 0.088435, -0.102623, -0.252964, 0.172752, -0.182802, 0.459522, 0.493883, 0.613911, 0.007580, -0.113762, 0.114662, 0.041889, 0.042965, -0.465275, -0.466543, -0.152786, -0.724557, -0.272769, -0.397222, 0.194899, -0.002601, -0.292147, 0.049506, -0.378047, -0.308532, -0.098004, 0.213003, 0.282400, -0.323601, 0.453644, 0.184899, -0.312574, 0.089620, -0.116232, -0.097631, -0.292187, 0.226966, 0.018546, 0.117867, -0.057975, -0.132986, -0.369349, -0.205926, -0.084647, 0.127959, 0.367304, -0.338950, 0.027790, -0.331562, 0.005216, 0.089063, -0.105571, -0.562986, -0.078536, -0.068448
-0.234457, -0.284837, 0.004517, -0.802308, 0.371890, 0.383164, 0.104983, 0.168605, 0.048744, 0.135405, 0.314357, 0.278570, 0.181623, -0.019364, -0.742281, -0.277086, 0.585073, -0.373973, 0.672574, 0.713804, -0.195638, 0.286019, 0.478857, 0.211250, 0.541249, -0.057477, -0.355945, 0.183453, -0.155573, 0.047203, 0.336909, 0.516670, -0.464445, -0.209738, 0.270830, -0.106452, -0.425168, 0.195996, 0.935902, 0.302849, 0.103163, -0.602536, 0.335872, 0.134746, -0.007875, 0.106960, 0.039597, 0.590750, -0.304576, -0.678060, 0.105202, 0.000137, 0.058331, 0.221711, 0.319010, -0.232795, -0.105350, -0.594724, 0.209232, 0.210484, 0.424721, -0.514821, 0.451354, 0.147247
0.462758, 0.224540, -0.099345, -0.247196, 0.186309, 0.071913, 0.422889, -0.032682, -0.061004, 0.055121, 0.241218, 0.242623, -0.269094, 0.277890, 0.149394, -0.060264, -0.314103, -0.204531, -0.360298, 0.418217, -0.006815, -0.018707, -0.007110, -0.134220, -0.084117, -0.000534, 0.131271, 0.047040, 0.306991, 0.304694, -0.306764, 0.266626, 0.138469, 0.078090, 0.323381, -0.183715, -0.263893, 0.212035, 0.147897, -0.207678, -0.245751, -0.153435, 0.000433, -0.206583, 0.285854, -0.309126, -0.006367, 0.056116, 0.189023, -0.255039, 0.140404, 0.150960, -0.227926, -0.032495, -0.194257, 0.288770, -0.301960, -0.132947, 0.018496, -0.209144, 0.308344, -0.123188, -0.118793, -0.119101
0.051119, 0.012949, -0.303546, 0.140882, 0.407677, 0.161135, -0.235602, -0.481479, 0.194951, 0.362672, 0.570414, -0.161583, 0.083469, -0.346416, 0.038782, 0.355014, 0.109208, 0.104902, 0.150157, 0.392671, -0.356488, 0.054538, 0.267187, -0.563241, -0.753622, 0.365195, -0.226964, 0.452724, 0.180716, 0.832802, -0.242980, 0.362806, -0.409071, -0.558662, 0.160452, -0.156888, 0.208402, 0.691509, -0.367991, 0.415118, -0.313017, -0.005937, -0.981512, 0.178848, -0.033148, -0.588923, 0.385935, 0.598062, -0.313947, -0.066932, 0.005489, 0.057489, 0.719434, -0.392334, 0.293037, -0.301835, -0.261762, -0.092147, 0.415201, -0.011974, -0.845024, -0.038182, 0.631997, 0.657132
0.116042, -0.036761, -0.154730, -0.225018, -0.281719, 0.007147, -0.284824, -0.580913, 0.429251, 0.477849, -0.021985, 0.004215, 0.326518, -0.014165, 0.326238, 0.128351, 0.216089, -0.231891, -0.016178, -0.194802, -0.792806, -0.037530, 0.203174, -0.326747, -0.421650, 0.383747, -0.053736, 0.089768, -0.020588, 0.142276, -0.114881, 0.107216, -0.014365, -0.101940, -0.022205, 0.225754, 0.264616, -0.071962, -0.711524, -0.045860, -0.351668, -0.247264, -0.264298, -0.152838, 0.018158, -0.032150, -0.033149, 0.036612, 0.234607, 0.079272, -0.000123, -0.112258, -0.202012, 0.122869, 0.135140, -0.039016, -0.597717, -0.130714, 0.290046, 0.172228, -0.441963, -0.057021, 0.218021, 0.242034
0.085674, -0.290915, -0.595958, 0.034144, -0.009196, 0.059412, -0.576862, -0.221632, 0.174721, -0.054543, 0.006517, 0.149508, 0.310315, -0.239270, 0.378030, 0.117440, 0.289147, 0.154139, -0.339156, -0.290282, -0.357094, 0.121848, 0.040180, -0.393365, -0.162866, 0.378419, 0.086350, 0.007383, 0.196784, 0.220726, -0.674954, 0.026080, 0.139935, 0.096534, 0.198529, 0.638930, -0.003466, 0.155454, -0.441102, -0.197204, -0.459294, 0.032961, -0.054323, 0.243426, -0.083457, 0.044044, -0.084205, -0.201832, -0.038807, 0.054487, 0.027077, -0.222392, 0.055421, 0.094559, 0.077059, -0.131229, -0.200770, 0.180760, -0.077073, 0.064846, -0.271584, -0.113876, 0.152140, 0.316694
-0.082598, 0.005599, -0.723633, 0.164724, 0.145008, 0.202933, -0.101271, -0.175978, 0.072451, 0.186545, -0.011081, 0.030485, 0.018472, -0.289914, 0.102385, 0.202051, 0.132514, 0.120455, -0.184961, 0.192746, -0.057033, 0.015019, -0.234937, -0.317053, 0.178278, 0.311485, -0.349341, -0.073242, 0.041917, 0.394745, -0.741699, 0.264184, 0.062834, 0.000472, 0.168367, 0.379575, 0.112155, 0.328429, -0.146917, -0.079017, -0.133408, 0.266423, 0.132997, 0.209939, -0.236004, 0.093404, 0.019229, -0.370490, -0.027299, 0.183161, 0.098463, 0.229056, 0.035948, 0.105211, 0.056963, 0.057609, 0.124534, 0.104334, -0.150909, 0.063419, 0.026951, 0.113813, 0.230320, 0.319750
-0.103008, 0.175419, -0.499999, 0.122883, 0.045006, 0.249453, -0.216809, -0.028855, -0.031796, -0.151626, -0.058316, 0.207241, 0.177493, -0.257034, -0.222270, -0.051902, -0.032321, 0.265878, -0.333910, 0.385462, 0.508193, -0.048357, -0.470022, -0.388133, 0.271392, 0.038719, -0.207283, -0.027797, -0.366073, 0.425835, -0.431441, 0.008700, 0.219405, 0.134972, 0.026551, 0.670571, 0.096840, 0.409077, 0.561365, -0.095773, -0.337900, 0.385353, 0.090586, 0.152012, -0.190798, -0.029272, 0.125596, -0.259456, -0.309491, 0.028144, 0.078959, 0.179053, -0.123828, 0.145893, -0.132390, 0.197815, -0.019720, 0.110771, 0.107852, -0.315059, 0.195744, 0.108215, 0.189809, 0.316151
-0.068112, 0.178400, -0.289957, -0.036694, -0.009676, 0.297109, -0.192448, -0.211894, 0.044766, -0.217483, 0.168516, 0.204399, 0.271382, -0.024295, -0.332419, 0.212764, -0.209810, 0.235452, -0.047820, 0.320753, 0.178483, 0.195872, -0.199758, -0.127714, -0.032596, -0.150168, -0.273261, 0.228775, -0.007927, 0.403611, 0.092939, 0.119856, 0.228217, 0.243987, 0.020476, 0.319367, 0.202715, 0.219684, 0.482311, -0.495947, -0.261314, 0.132322, 0.050486, 0.101200, -0.301798, -0.182821, 0.390920, -0.240812, -0.257532, 0.030744, -0.069555, 0.259897, -0.246400, -0.014867, -0.160665, 0.251308, 0.040117, 0.130881, 0.169337, -0.054275, 0.047300, -0.025422, 0.337368, 0.076453
-0.031588, -0.013471, 0.069672, 0.049714, 0.160409, 0.153432, 0.076447, -0.291822, 0.048812, -0.133395, 0.233231, 0.282666, 0.324109, -0.134215, -0.007860, 0.683891, 0.024141, 0.238515, 0.034786, -0.080156, 0.251920, 0.318499, 0.214986, -0.202258, -0.186927, -0.075883, 0.052152, 0.294039, 0.202548, 0.234181, -0.028994, -0.094847, 0.050446, 0.229387, -0.100040, 0.169196, 0.473922, 0.424334, 0.202302, -0.313823, 0.017091, 0.138819, -0.133147, 0.245192, -0.123317, -0.226069, 0.125020, 0.045355, -0.059184, 0.329545, -0.128163, 0.135064, -0.060060, 0.120060, 0.046145, -0.080305, 0.101168, 0.343963, 0.222029, 0.191980, -0.203518, 0.253052, 0.444362, 0.068790
0.131654, 0.007647, 0.396841, 0.334752, 0.037324, 0.222408, -0.172284, 0.094324, 0.088748, 0.231465, 0.173922, 0.114140, 0.130499, -0.328144, -0.189726, 0.400816, 0.143130, 0.053211, -0.033928, -0.209125, -0.134044, 0.260218, -0.031638, 0.042509, -0.250236, -0.067162, 0.196110, 0.331485, 0.225232, -0.031841, -0.406764, -0.188653, -0.033233, -0.030381, 0.051738, 0.166019, 0.428360, 0.084573, -0.092620, -0.103768, -0.111710, 0.248311, -0.181077, 0.170070, 0.010565, -0.069645, -0.172494, -0.096535, 0.060195, 0.242062, -0.160108, -0.080263, 0.157508, 0.001999, 0.041568, -0.290477, 0.000223, 0.206652, 0.242422, 0.224856, -0.304996, 0.048061, 0.247318, -0.142418
