-0.054812, -0.056041, 0.005682, -0.008331, -0.051773, 0.053599, 0.006013, 0.061217, -0.056724, 0.062149, -0.067123, -0.008766, -0.046923, -0.065383, -0.075235, -0.007951, -0.051008, 0.024844, 0.008511, -0.029468, 0.027330, 0.041876, 0.018709, -0.041254, 0.016699, -0.050514, 0.003919, 0.018862, -0.028105, 0.005152, 0.006959, -0.040105, 0.070883, 0.082646, 0.023905, -0.016233, -0.079858, -0.046759, -0.008011, -0.061460, 0.064461, -0.044870, -0.045143, -0.030703, -0.054436, -0.029240, 0.037754, -0.071574, 0.010048, 0.052834, -0.065451, 0.033378, -0.026544, 0.066440, -0.020949, 0.017421, 0.061656, 0.049440, 0.014520, -0.050278, -0.011293, 0.024481, -0.024271, -0.048553
0.009441, -0.019195, -0.019824, -0.049142, 0.025113, -0.055992, 0.002387, -0.067653, 0.049791, -0.049214, -0.071925, -0.006607, 0.039307, 0.056813, -0.022649, 0.031783, 0.026810, -0.023147, -0.009975, 0.033982, -0.051665, 0.008792, -0.046186, -0.052700, -0.054556, -0.062794, -0.008787, 0.067115, -0.028354, 0.001908, 0.058349, -0.068712, -0.065351, -0.044593, -0.079829, -0.006618, 0.074434, -0.046538, 0.024846, -0.004562, -0.067912, -0.022845, -0.010646, -0.007650, 0.047047, 0.076582, -0.023919, -0.057278, 0.048331, -0.000093, 0.068772, -0.042740, 0.040453, -0.056533, -0.011369, 0.078912, -0.082091, 0.051778, -0.080096, 0.075746, 0.062897, -0.029688, -0.028389, 0.031323
-0.026096, 0.055335, -0.008568, 0.083212, -0.013080, 0.021115, 0.064208, -0.006311, 0.063127, -0.069012, -0.029847, 0.059696, 0.029120, -0.072543, -0.053331, -0.056644, 0.080226, -0.055720, -0.017588, -0.058986, 0.079739, 0.020109, -0.046612, 0.070678, -0.014739, 0.039495, -0.037815, -0.037159, 0.083209, 0.024651, -0.082526, 0.028745, -0.005269, -0.044781, -0.026676, -0.072531, 0.025274, -0.026440, -0.036048, -0.081004, -0.019664, 0.029441, -0.004056, 0.037651, 0.071063, -0.007068, -0.006353, 0.077225, 0.045577, 0.025215, -0.082483, -0.009895, 0.034433, -0.029752, -0.077673, -0.049458, 0.012511, 0.013735, 0.032865, 0.076142, -0.066617, 0.015868, 0.041488, -0.072275
0.039901, -0.004817, 0.042135, -0.060202, 0.060247, -0.079879, -0.017188, 0.043467, 0.004741, -0.024903, 0.053041, -0.037138, -0.046313, -0.024818, -0.075343, 0.034277, 0.032819, 0.074425, -0.013762, -0.049849, -0.077898, 0.036776, -0.058642, 0.051148, 0.025760, -0.064312, -0.045893, 0.034517, -0.024135, -0.042814, -0.051144, 0.062252, -0.058762, -0.059780, -0.058561, 0.043715, 0.009889, -0.065817, -0.070993, -0.046763, -0.031050, -0.003688, 0.074075, 0.076376, -0.053639, 0.035103, 0.055142, 0.008718, -0.081377, -0.021936, -0.058793, 0.060260, 0.032900, 0.002332, 0.060787, -0.067907, -0.027142, -0.074179, 0.071211, 0.052580, 0.027848, -0.008859, -0.018865, 0.071364
0.033816, 0.048236, 0.046030, -0.074363, -0.071055, -0.049080, 0.012465, 0.051658, -0.052693, 0.053861, -0.032000, 0.038172, 0.057323, 0.052969, -0.077568, -0.068536, 0.057474, 0.080809, -0.069584, -0.049201, -0.067637, 0.004055, -0.058795, -0.001765, -0.027493, 0.034152, -0.054446, -0.059693, 0.040476, -0.062157, -0.051402, -0.026330, 0.074410, 0.032394, 0.057407, -0.069035, -0.039130, -0.011591, 0.005508, -0.003260, 0.006405, 0.076440, 0.042833, 0.079223, 0.037492, 0.048115, 0.082236, 0.076364, 0.063055, -0.036958, -0.073211, -0.067496, 0.067812, -0.025265, -0.009921, 0.077896, -0.069704, 0.006503, 0.020354, -0.040570, -0.000635, -0.034651, 0.040969, 0.010981
0.009871, 0.009388, 0.025704, -0.057318, -0.019268, -0.010773, -0.033483, -0.047475, -0.070816, 0.050351, 0.061554, 0.082583, 0.040965, 0.033168, -0.071347, -0.051562, -0.040278, -0.062785, 0.001629, -0.061137, -0.003210, -0.079798, -0.074152, -0.075219, 0.074417, 0.006987, 0.039244, -0.023447, 0.040777, -0.074361, -0.015902, 0.067598, -0.079919, -0.076472, -0.027713, 0.053234, -0.066787, -0.024014, 0.024764, 0.018930, 0.029919, -0.069299, -0.068173, 0.065069, 0.030312, -0.065552, 0.079632, 0.000182, 0.011915, 0.032896, -0.001433, -0.056372, 0.032930, 0.063676, 0.012317, 0.030646, 0.049125, -0.037133, -0.033567, -0.037873, -0.059235, -0.079431, -0.049183, -0.017331
0.059367, -0.078362, -0.056511, -0.061180, -0.003755, 0.026330, -0.022611, -0.049023, 0.064394, -0.013037, -0.036461, 0.005953, 0.038342, -0.021556, -0.074420, 0.083111, -0.052211, 0.034916, 0.048971, -0.062500, 0.075955, 0.044258, -0.031369, 0.042113, 0.082346, -0.078612, -0.011898, -0.080150, -0.042910, -0.009823, 0.063515, 0.043142, 0.045397, 0.042289, -0.040805, 0.027178, 0.080878, -0.072501, 0.050500, -0.070640, 0.078115, 0.035806, 0.075768, -0.070987, 0.058086, -0.009569, 0.009305, -0.021238, -0.011220, 0.037690, -0.071343, -0.071489, -0.052573, 0.056360, -0.068880, -0.030867, -0.082816, 0.046241, -0.075542, 0.025294, -0.027390, 0.028354, -0.021171, 0.070873
0.045248, -0.033076, -0.051499, -0.049558, -0.017066, 0.075962, -0.005791, 0.037792, 0.054287, -0.029060, -0.067797, 0.027081, -0.072087, 0.043685, 0.064696, -0.024791, -0.048212, -0.076008, 0.030451, 0.035032, 0.050309, -0.054330, -0.028730, 0.067945, 0.012655, 0.017970, -0.010179, -0.081476, 0.079114, 0.013718, 0.023511, -0.071570, 0.028506, 0.076310, 0.022600, 0.045283, 0.008533, 0.041610, -0.071356, 0.019273, 0.062727, 0.002952, 0.075252, -0.037421, -0.065389, 0.073036, 0.015826, -0.004140, 0.062614, 0.047222, -0.040027, -0.033832, -0.070412, 0.046870, -0.021660, 0.051870, 0.004694, -0.034937, -0.006582, 0.052496, 0.042800, 0.001593, 0.031665, 0.083478
-0.079796, -0.077733, 0.058038, 0.009319, -0.023862, -0.070203, -0.051216, 0.053005, -0.028144, 0.008748, -0.017446, -0.019686, -0.063861, 0.030676, 0.007320, 0.044210, -0.070775, -0.020030, 0.044219, 0.064545, 0.046755, 0.026075, -0.030926, 0.003529, -0.050014, -0.077538, 0.045793, -0.076564, -0.050965, 0.046505, 0.051084, -0.033327, -0.080551, -0.012265, -0.066646, -0.021754, -0.080140, 0.048129, 0.083238, 0.071874, -0.040017, -0.058817, 0.009525, 0.030132, -0.052628, -0.060109, -0.021381, 0.040401, 0.067070, 0.050148, -0.034514, -0.069282, -0.081446, -0.054877, -0.052299, -0.055119, 0.027149, -0.050041, 0.067036, 0.068467, -0.005350, -0.038699, 0.021137, -0.022504
-0.040909, 0.024930, 0.036939, -0.045965, -0.001579, -0.006432, 0.075947, -0.057390, -0.064969, 0.015959, -0.078862, -0.058810, 0.079034, 0.055356, -0.002127, -0.020535, -0.061542, -0.066123, -0.019616, -0.054618, -0.019675, 0.072512, -0.038012, -0.057751, 0.068915, 0.010857, 0.061804, 0.054557, 0.011935, -0.081122, 0.025896, 0.074406, 0.056871, 0.055766, 0.073173, -0.063613, -0.006028, 0.001132, -0.025621, -0.011924, -0.052525, -0.043644, -0.062644, 0.070449, 0.036662, 0.011876, 0.015340, 0.039809, 0.078439, -0.020255, -0.017391, -0.016534, 0.048244, 0.036568, 0.006245, -0.020551, -0.059293, 0.001011, -0.016761, -0.054818, 0.065213, -0.037843, -0.070845, 0.031800
0.007777, -0.053231, -0.050609, -0.040349, 0.037421, 0.064300, 0.048630, 0.054044, 0.058962, 0.009834, 0.011374, -0.080050, 0.072999, 0.039106, 0.011647, 0.057172, 0.025671, 0.039587, 0.064616, -0.079953, -0.042931, 0.012952, -0.083724, 0.065603, -0.022041, -0.044134, 0.049457, -0.074207, -0.014060, 0.046607, -0.043874, 0.054791, 0.002081, 0.030582, -0.035347, 0.059838, -0.029621, -0.054329, -0.031433, -0.036099, 0.056490, 0.010457, 0.055591, -0.002751, 0.067621, -0.032539, -0.029366, -0.074110, 0.023070, -0.081573, 0.047316, 0.004131, 0.048452, 0.081593, 0.041773, -0.006106, -0.072840, 0.038353, -0.077806, -0.025098, 0.057125, -0.030419, 0.072935, -0.019845
0.082300, -0.032810, 0.006167, 0.028648, -0.003729, 0.031412, 0.011701, -0.009089, -0.076696, 0.042720, -0.073948, 0.080921, -0.054738, -0.003084, -0.075810, 0.063291, 0.058332, 0.031829, 0.066929, 0.037930, -0.004938, 0.012967, -0.005843, -0.079758, 0.065474, 0.022211, -0.070720, 0.071964, -0.043107, 0.025891, -0.012911, 0.060961, 0.045212, 0.075319, -0.084073, -0.001635, -0.034278, -0.024138, 0.023019, -0.046550, 0.056339, -0.010245, 0.054434, 0.053354, -0.023833, 0.039524, -0.049009, 0.046599, -0.059357, -0.079486, 0.066459, 0.029492, 0.009701, 0.026484, -0.030448, 0.025927, 0.045160, -0.008350, -0.047168, -0.027450, -0.037067, -0.079180, 0.029430, 0.077078
0.138801, -0.080629, -0.017713, 0.038240, 0.042630, 0.085348, 0.002299, 0.128683, 0.025685, 0.063896, 0.075473, -0.087371, -0.008911, -0.030145, 0.146775, -0.033843, -0.080952, 0.066766, 0.022622, 0.077189, -0.019466, 0.075226, -0.219286, -0.017263, -0.084396, 0.044419, -0.065854, -0.068000, -0.057127, 0.038725, 0.066259, -0.004663, -0.092250, 0.042126, 0.006901, 0.063943, -0.108792, -0.011779, -0.011010, 0.047160, -0.137421, 0.114478, -0.047107, -0.010171, 0.069304, -0.030793, 0.077573, 0.130759, 0.096794, -0.002193, 0.105951, 0.035551, 0.028700, -0.155285, -0.000707, 0.157374, 0.090743, 0.061411, -0.170682, -0.104664, -0.015227, -0.010216, 0.102098, 0.025274
0.110610, -0.072375, 0.087312, -0.059567, -0.017496, -0.006757, 0.015928, 0.123505, 0.046882, 0.085156, -0.029296, 0.031731, -0.014137, -0.059354, 0.024107, -0.065249, 0.016025, 0.109622, -0.003450, -0.037468, -0.042365, -0.007115, -0.182676, -0.073024, -0.096942, 0.057957, -0.065611, -0.138045, -0.094360, 0.052703, 0.019563, 0.079263, -0.031397, 0.084236, -0.028722, 0.032448, -0.005430, 0.050778, -0.101587, 0.028604, -0.028402, 0.041894, -0.087665, -0.019881, 0.072361, 0.029043, -0.077830, 0.014293, 0.040650, -0.045781, 0.125768, 0.034618, 0.046984, -0.047781, -0.060398, 0.043305, 0.031838, -0.013405, -0.037344, -0.047749, -0.030141, 0.020120, 0.138201, 0.001910
-0.103922, 0.021472, -0.002555, 0.077711, 0.078490, -0.004734, 0.054547, -0.035349, 0.030727, 0.006346, -0.054185, 0.046631, -0.014404, 0.005709, 0.047687, 0.020115, -0.005876, -0.094979, -0.018353, -0.012031, -0.066976, -0.005570, 0.128115, -0.039479, -0.055882, 0.000522, 0.051809, 0.110394, -0.034835, 0.014005, 0.022871, -0.015591, -0.023311, 0.076444, 0.027762, 0.023344, 0.065259, -0.053912, -0.036501, -0.032380, -0.014448, -0.025975, 0.015079, -0.015063, -0.053279, 0.089028, -0.069910, 0.010575, -0.010204, 0.021490, -0.040359, 0.012116, 0.022484, 0.047526, 0.031267, -0.056507, 0.033766, -0.030668, -0.039059, -0.026956, 0.115722, -0.085456, -0.019267, 0.033229
-0.087886, -0.081976, 0.039108, -0.068421, 0.008184, 0.026071, -0.026579, 0.024573, -0.050154, -0.078833, -0.037935, -0.074172, -0.045456, 0.046549, 0.049839, -0.068237, 0.051768, -0.047731, 0.039940, -0.081728, 0.033569, -0.062949, 0.094293, -0.010009, -0.037825, 0.026036, 0.069833, -0.048189, -0.024166, -0.011653, 0.026152, -0.086791, 0.037735, 0.069990, 0.001667, -0.061113, -0.028062, -0.088762, -0.019499, -0.016419, 0.050879, -0.064324, -0.035990, 0.049813, -0.046434, 0.041192, -0.008150, -0.007350, 0.047012, 0.010401, -0.030659, -0.009057, 0.052976, -0.010372, -0.038177, 0.001873, -0.015594, 0.036997, 0.065868, 0.058643, 0.078299, 0.025018, 0.069149, -0.048547
-0.034504, 0.014902, 0.057043, -0.081202, 0.036916, -0.083153, -0.029779, -0.004313, -0.041685, -0.060033, 0.009738, -0.025179, 0.063552, -0.047588, -0.057299, 0.029302, 0.058233, -0.082621, -0.037863, 0.051191, -0.077152, 0.022884, -0.043712, -0.077201, 0.082036, 0.005038, 0.069509, -0.059296, -0.022611, -0.074086, -0.051911, 0.017526, -0.041256, 0.058203, -0.081088, 0.050540, -0.057271, -0.062931, 0.064557, -0.050296, 0.041674, -0.047169, 0.004778, 0.076714, 0.039589, 0.046519, -0.008753, 0.038049, -0.001526, 0.073802, -0.060434, -0.032691, -0.055178, -0.055440, -0.042688, -0.071469, 0.038313, 0.072345, 0.024511, -0.078935, -0.066365, -0.034801, -0.001993, -0.037195
-0.015186, -0.063379, -0.028032, -0.003832, 0.065787, -0.059935, 0.000670, 0.051689, -0.053547, -0.071126, 0.040521, -0.041202, 0.027873, 0.045815, -0.034447, 0.053474, -0.022501, 0.011538, 0.023615, 0.000168, -0.022859, 0.047538, 0.026473, -0.002952, -0.054368, -0.002726, -0.002288, 0.032415, -0.063685, 0.057009, -0.061229, 0.043363, -0.070252, 0.034518, 0.083482, -0.032183, -0.025489, -0.019138, 0.000419, -0.016776, 0.062443, 0.000659, -0.025623, -0.029643, 0.078641, 0.008082, -0.073121, 0.060425, 0.011297, -0.074388, 0.060852, 0.061182, -0.042827, 0.062165, 0.075667, -0.047764, -0.060374, 0.030328, 0.080237, -0.006318, -0.054544, 0.024019, -0.035429, -0.034210
0.018126, -0.017633, 0.034652, 0.054422, -0.028553, -0.063535, 0.053759, 0.075510, 0.012692, 0.014687, -0.067893, 0.019430, 0.012977, 0.064081, -0.021388, -0.048570, 0.075963, -0.066792, 0.040075, 0.030859, -0.019240, 0.004262, 0.030948, -0.074719, 0.069363, 0.078851, 0.082025, -0.051340, -0.059842, 0.009161, -0.055054, 0.037791, -0.040875, 0.058050, 0.011408, -0.041238, -0.082354, -0.025282, -0.071640, -0.014653, 0.043713, -0.010339, 0.026561, 0.081470, 0.062174, 0.069515, -0.076863, 0.007141, -0.045332, -0.023225, 0.008972, -0.026490, 0.053365, 0.064109, -0.074693, 0.020868, -0.036362, -0.027401, 0.072572, -0.018268, -0.052187, 0.043823, -0.070681, 0.012693
0.050255, 0.059445, 0.081089, 0.011288, -0.040600, 0.022707, 0.026871, -0.014462, 0.064039, 0.046780, 0.062033, -0.061036, 0.047780, 0.041503, 0.065550, -0.029915, -0.081428, 0.060077, -0.050140, -0.032427, 0.051011, 0.076300, 0.006189, -0.034858, -0.074452, -0.062279, 0.006653, -0.017423, -0.013371, 0.005774, -0.024414, 0.019200, -0.030114, -0.066215, -0.029296, -0.066406, 0.018333, -0.010696, 0.035788, -0.072037, 0.021621, 0.015238, 0.066605, 0.032888, 0.060690, 0.057558, -0.000467, 0.007152, 0.050689, -0.037943, 0.055683, 0.070584, -0.030772, -0.023949, 0.050024, -0.019730, -0.078993, 0.070871, 0.060472, -0.014282, -0.017951, -0.002064, -0.007420, 0.081915
-0.070464, -0.064979, -0.059488, 0.059844, 0.003832, -0.059282, -0.026223, 0.040747, 0.016400, 0.050337, -0.019173, 0.048784, 0.055939, 0.060763, -0.020437, -0.043468, -0.004431, -0.009747, -0.018403, -0.007541, 0.012949, 0.063571, -0.006837, -0.042579, -0.054289, 0.016922, 0.021549, 0.060496, 0.030118, -0.042762, -0.040902, 0.029202, -0.045599, -0.023362, -0.008374, 0.047313, 0.025686, 0.075064, -0.064315, 0.016658, -0.005474, 0.047159, 0.042502, 0.016888, 0.046125, -0.082113, 0.005903, 0.067631, 0.000515, 0.047289, -0.079870, -0.061524, 0.064697, 0.011988, 0.019879, 0.046751, 0.049282, -0.007520, -0.083280, -0.014476, 0.054365, -0.073202, 0.065721, 0.034081
-0.053538, 0.005456, 0.043959, 0.056484, 0.042326, -0.068227, 0.023398, -0.008147, -0.065177, -0.012936, 0.050535, -0.012187, -0.081996, 0.007239, 0.080316, -0.038515, -0.007889, -0.016391, 0.006520, 0.026888, 0.036639, 0.042407, -0.070891, 0.050991, 0.017398, -0.016850, -0.074121, 0.062843, -0.056507, -0.016240, 0.059580, -0.079230, -0.063149, 0.046452, -0.069875, 0.001278, -0.025024, 0.080803, 0.025059, -0.068827, 0.018506, -0.051603, -0.076218, 0.037335, -0.036513, 0.066292, 0.036586, 0.046979, -0.047857, -0.057084, -0.064950, -0.025768, -0.042601, 0.079178, -0.002217, 0.074062, 0.059010, 0.048871, 0.082112, -0.011634, 0.056119, 0.074285, 0.029279, 0.002480
0.073020, -0.018410, 0.044349, -0.054114, 0.039043, -0.018428, 0.019677, 0.075535, 0.000580, 0.009507, 0.014379, 0.078435, -0.020176, -0.040294, -0.008075, -0.054655, -0.051965, 0.024577, 0.015177, 0.084082, 0.028708, 0.041007, 0.075623, -0.035456, 0.050380, -0.064852, 0.057877, 0.059777, -0.015143, -0.076000, -0.030353, -0.040774, -0.045992, -0.016791, -0.018763, -0.049686, 0.040950, 0.053227, -0.049583, 0.065033, 0.054295, -0.082130, 0.059127, 0.009416, -0.015212, 0.073199, -0.025132, 0.077396, 0.004665, 0.032410, 0.002440, -0.070135, 0.016832, -0.034613, 0.062955, 0.082290, 0.066544, 0.022897, -0.054709, 0.046613, -0.076577, 0.034364, 0.056663, -0.081649
-0.029577, -0.048779, -0.031822, -0.073415, -0.008666, 0.031741, -0.020955, 0.051796, -0.068915, -0.024078, -0.060786, -0.068578, 0.027666, 0.062300, -0.066746, -0.077875, 0.006140, -0.073420, 0.079583, 0.029316, -0.032181, 0.026304, 0.063067, 0.045046, -0.048639, -0.058452, -0.073928, -0.049366, 0.018191, -0.004185, -0.000076, 0.058932, 0.045365, 0.001061, -0.002878, -0.009240, 0.060295, -0.026128, -0.001878, 0.025084, -0.068722, -0.043878, 0.043831, -0.063842, -0.082754, -0.058031, -0.082170, 0.078805, -0.041086, -0.078204, 0.083886, 0.034364, 0.003747, -0.074327, -0.050127, -0.060110, 0.012490, -0.015580, -0.015833, 0.057253, -0.032720, 0.055915, 0.044174, 0.079138
-0.083382, 0.081912, -0.016279, 0.027685, -0.008458, -0.042536, 0.027037, -0.069105, -0.028934, 0.073786, 0.038754, -0.072271, -0.043684, -0.083098, 0.056559, -0.079646, 0.021684, -0.082060, 0.019517, 0.008126, 0.031017, 0.005875, 0.019779, 0.072348, 0.039485, 0.046665, -0.039782, 0.025346, 0.014197, 0.033640, -0.077332, -0.069980, 0.008306, 0.024405, 0.038252, -0.059129, -0.001269, -0.000375, 0.015986, 0.023570, -0.059727, -0.039725, 0.005408, -0.039773, -0.069203, -0.004611, 0.010179, -0.000688, -0.068603, 0.044469, -0.040927, -0.066077, 0.018120, -0.060512, 0.020432, 0.004802, 0.064024, 0.051666, 0.018900, -0.005433, -0.028940, 0.054371, -0.048558, 0.039498
0.073676, -0.074075, -0.075502, 0.027672, 0.058826, 0.011093, 0.034870, -0.007699, -0.019385, -0.018216, -0.033952, -0.007209, -0.028609, 0.015505, 0.055184, 0.077464, 0.012430, -0.080821, -0.069099, 0.064486, 0.043151, -0.081467, 0.071953, -0.038496, -0.030838, -0.062362, 0.006824, 0.042225, 0.018220, -0.078962, -0.023989, 0.049882, -0.010238, -0.012424, 0.079861, 0.039147, -0.044227, 0.052616, 0.058679, 0.068168, -0.035873, -0.065327, -0.073128, -0.063621, 0.055894, -0.044740, 0.022006, -0.081654, -0.029813, 0.040111, -0.060897, 0.001924, 0.025218, -0.032738, -0.006665, -0.034352, 0.081063, -0.005861, -0.009437, -0.041124, 0.013449, 0.057629, -0.035386, -0.066395
-0.041841, -0.081636, 0.068726, 0.076466, 0.031007, -0.039774, 0.001349, -0.038386, -0.020445, 0.025075, -0.014024, 0.078021, -0.053995, 0.020508, -0.010953, 0.078929, 0.049238, 0.019862, 0.080602, 0.055782, 0.035028, 0.070219, 0.062711, -0.028202, -0.040449, 0.018375, -0.008085, -0.017273, 0.071066, 0.038775, -0.056359, -0.033107, -0.011567, -0.048488, -0.013665, 0.000617, 0.062279, -0.019549, 0.069967, -0.049657, 0.037139, -0.064622, 0.073956, -0.004696, 0.042060, -0.068048, 0.076039, -0.073144, -0.052399, -0.080876, 0.035532, -0.058213, -0.059116, 0.054690, 0.052295, -0.066947, -0.026932, -0.025052, 0.011951, -0.069509, 0.059911, 0.071231, 0.038914, 0.035155
0.083404, 0.076433, -0.027827, 0.077642, 0.035150, 0.076558, 0.067861, 0.002704, -0.065258, -0.060328, -0.066237, 0.063756, -0.004728, -0.014541, -0.029857, 0.049728, -0.083542, 0.046376, 0.068162, -0.075907, -0.058085, -0.032110, 0.032148, 0.011553, -0.048153, -0.018720, 0.069132, -0.007124, -0.054729, 0.068125, -0.006206, 0.018057, -0.060757, 0.056105, 0.062565, -0.021085, 0.073420, 0.076177, 0.026997, -0.039151, -0.044198, 0.070520, -0.034603, -0.062695, 0.017794, 0.037954, -0.015918, 0.054408, 0.069537, -0.056720, 0.058758, -0.051479, -0.050548, -0.039726, 0.018326, -0.079327, -0.024573, -0.082963, -0.070412, 0.028800, -0.002118, -0.004733, 0.003826, 0.047914
0.041265, -0.065170, -0.029993, 0.008311, 0.046673, 0.012686, 0.022043, 0.079149, 0.048630, -0.060022, -0.004153, 0.029229, 0.063011, 0.000458, -0.043137, 0.078497, -0.028164, 0.081337, -0.027204, 0.038677, 0.007154, 0.043453, -0.057323, -0.012195, -0.043742, -0.056944, 0.050867, -0.014265, 0.030895, -0.029940, -0.014042, -0.040787, -0.014416, 0.040127, -0.066876, -0.040899, 0.022697, -0.059426, -0.069549, -0.074465, -0.074830, -0.054079, -0.017332, -0.027884, 0.020839, -0.070309, 0.025386, -0.084001, 0.042411, 0.024965, 0.059489, 0.018629, -0.050567, 0.029635, 0.025087, 0.079640, 0.075707, -0.068412, 0.063242, -0.054596, 0.015473, -0.059079, 0.066944, -0.068818
0.024697, 0.054038, 0.079394, 0.027656, -0.060534, -0.004136, 0.046982, -0.020081, 0.028244, 0.014167, -0.039406, -0.005195, 0.050366, -0.001355, -0.061214, -0.048101, 0.030573, 0.010283, 0.079290, -0.053659, -0.005409, 0.036621, 0.077919, -0.070539, 0.041329, -0.041521, 0.002981, 0.066677, -0.001262, 0.068729, -0.069588, -0.042713, -0.005324, 0.030641, 0.053541, -0.011765, 0.043273, 0.064084, 0.002437, -0.033784, -0.052527, 0.063765, -0.007281, -0.005034, -0.000192, 0.013867, -0.083162, -0.009235, -0.037554, -0.005659, -0.023910, 0.052792, -0.074144, -0.013018, 0.079185, -0.063694, -0.069222, -0.074137, -0.049669, -0.002165, -0.040188, -0.032167, -0.064570, -0.050972
0.048705, -0.033182, 0.055495, -0.030556, 0.004886, 0.054193, -0.008771, 0.002397, -0.028262, -0.071298, -0.060124, 0.071482, -0.078978, -0.026478, 0.072208, -0.023647, 0.028478, -0.021161, 0.083037, 0.053700, 0.016558, 0.008476, -0.055554, 0.032472, 0.070381, 0.042337, -0.011255, 0.015661, -0.030354, 0.010389, 0.012710, -0.028656, 0.073226, -0.047477, -0.043731, -0.011248, 0.047455, 0.009412, -0.072613, 0.077348, 0.020686, 0.021011, -0.019481, 0.042670, 0.048557, 0.056240, -0.016507, 0.064441, -0.017562, 0.008861, 0.043660, -0.038944, 0.027136, -0.040845, 0.041189, 0.066553, 0.062817, -0.074445, -0.013441, 0.067805, -0.063536, -0.038545, -0.045185, -0.082964
-0.000497, -0.080820, 0.007986, -0.029443, 0.032916, -0.014597, 0.016759, 0.059910, 0.019977, -0.038204, 0.029704, 0.064003, -0.078410, -0.047709, 0.022387, -0.002891, 0.012456, 0.044659, -0.039932, -0.049116, -0.007435, -0.013122, -0.009484, -0.040031, -0.057626, 0.064120, -0.063064, -0.023969, -0.082030, 0.052392, 0.021200, -0.052024, -0.049632, 0.007894, 0.062474, 0.069720, -0.026407, 0.074057, 0.041018, -0.025136, -0.053467, -0.033129, 0.069629, -0.020875, 0.004556, -0.068832, 0.005118, -0.044271, 0.044941, -0.038155, 0.001222, -0.011750, -0.027323, -0.071988, 0.013544, -0.012238, 0.041169, -0.016071, -0.083994, -0.025594, -0.060392, 0.005657, 0.022667, -0.019733
-0.016574, -0.041793, -0.061597, -0.008792, 0.050371, -0.012641, 0.053879, 0.010076, 0.050483, 0.023198, 0.017568, 0.054648, 0.014723, 0.045888, 0.047472, 0.059572, -0.034898, -0.074821, -0.064066, -0.029043, 0.078862, 0.024509, -0.045844, -0.068495, -0.072052, -0.012880, -0.021265, -0.074267, -0.026527, 0.021902, -0.010470, 0.055879, -0.021449, 0.054069, -0.026791, 0.012807, 0.009650, 0.041753, -0.069161, 0.089976, -0.017025, 0.020897, -0.060071, 0.027277, 0.030806, 0.018092, 0.025118, 0.013502, -0.003429, -0.020092, -0.053360, 0.057818, 0.020687, -0.065894, 0.053694, -0.043429, -0.063016, -0.053247, 0.039061, 0.054166, 0.062310, -0.042500, 0.001821, 0.022364
-0.019054, -0.062732, 0.050580, 0.038318, 0.049904, -0.071555, 0.076949, 0.034400, 0.072271, -0.057166, -0.095407, 0.033746, 0.077791, 0.077358, 0.054479, -0.052012, -0.001253, -0.012984, -0.009454, 0.003293, -0.022801, 0.077849, 0.021055, 0.027833, -0.088535, 0.066504, 0.023018, -0.067315, 0.002979, -0.048586, -0.063202, 0.095156, 0.019358, -0.006893, -0.102614, -0.008750, -0.075547, 0.035773, 0.040911, 0.096546, -0.015854, 0.036834, 0.003196, 0.041591, -0.006512, 0.008465, -0.015030, 0.078109, 0.014234, -0.081395, 0.032756, -0.016043, 0.031944, -0.089060, 0.064009, 0.043708, -0.048880, 0.085952, -0.055993, -0.027826, -0.014684, 0.081274, 0.065122, 0.090016
0.166692, -0.034662, 0.070129, -0.021631, -0.064604, 0.114472, -0.064848, 0.156808, -0.111563, -0.112184, -0.086459, -0.106437, -0.064042, 0.023974, 0.278320, 0.022788, 0.152011, -0.186410, 0.025925, 0.082373, 0.071422, 0.023356, -0.037847, -0.225844, -0.128686, 0.176831, -0.056208, -0.074709, -0.250513, -0.051153, 0.057072, 0.158559, -0.179929, -0.086655, -0.247082, 0.142669, -0.097319, -0.015046, -0.093170, 0.252244, -0.016465, -0.220414, -0.247470, -0.100163, 0.212899, 0.005365, 0.054108, 0.180190, -0.101410, -0.226962, -0.183262, -0.030172, 0.105311, -0.208680, 0.081228, 0.130253, 0.225816, 0.213044, 0.177154, -0.223986, 0.127584, 0.173846, 0.302883, 0.248385
0.096758, 0.087780, 0.066074, 0.015770, -0.091637, 0.233199, -0.090581, 0.186668, -0.068292, -0.093759, -0.194728, -0.175455, -0.100446, -0.068914, 0.176262, -0.024169, 0.178533, -0.095226, 0.027686, 0.018555, -0.061227, 0.047439, -0.091522, -0.131585, -0.253312, 0.118255, -0.131331, -0.050799, -0.253117, 0.035931, 0.085314, 0.185299, -0.118207, -0.025427, -0.139922, 0.229607, -0.028909, -0.066490, 0.005926, 0.210108, -0.064164, -0.107215, -0.160337, -0.096658, 0.185994, -0.096365, 0.122225, 0.111165, -0.074069, -0.127686, -0.099732, 0.050786, 0.196828, -0.190495, -0.050253, 0.186198, 0.255095, 0.162410, 0.084144, -0.264535, -0.019874, 0.150552, 0.144599, 0.246499
0.062105, 0.056760, 0.009719, 0.081034, -0.073410, 0.083227, -0.126303, 0.164769, -0.058223, 0.033978, -0.039640, -0.034370, -0.018034, 0.028722, 0.183903, 0.051539, 0.024908, -0.075393, -0.067286, -0.075113, 0.088676, 0.135658, -0.059873, -0.132710, -0.149184, 0.148841, -0.164670, -0.032009, -0.057354, 0.107447, 0.090670, 0.085191, -0.022069, -0.081408, -0.086082, 0.097301, -0.153478, -0.159461, -0.006776, 0.201750, -0.051928, -0.028378, -0.170160, -0.138000, 0.147958, -0.023874, 0.025389, 0.183393, -0.057957, -0.104838, -0.031845, -0.028148, 0.130082, -0.113067, -0.020233, 0.019928, 0.105876, -0.023194, 0.011213, -0.091464, -0.107456, 0.055688, 0.068051, 0.145180
0.166448, 0.017392, 0.151651, -0.072793, 0.016360, 0.001175, -0.131100, 0.086630, -0.144429, -0.037245, -0.050005, -0.196389, -0.121679, 0.005852, 0.200242, -0.082220, 0.178562, -0.083545, -0.071439, 0.020497, -0.024085, 0.218502, -0.135942, -0.109124, -0.236729, 0.158567, -0.090848, -0.043566, -0.175389, 0.200551, 0.122307, 0.152705, -0.151150, 0.084604, 0.015465, 0.122187, -0.076388, -0.123677, -0.006326, 0.313302, -0.022536, 0.134751, -0.225834, -0.132593, 0.141104, -0.057872, -0.009809, 0.120860, -0.050398, -0.153879, 0.051380, -0.043884, 0.204321, -0.223040, 0.014878, 0.235810, 0.235867, 0.088701, -0.137301, -0.128657, -0.127212, 0.192040, 0.195852, 0.205192
0.262120, -0.186734, 0.122206, -0.040090, 0.134756, 0.129144, -0.105420, 0.257687, 0.023090, 0.126858, -0.045871, -0.151197, -0.119003, -0.071478, 0.213312, 0.042620, 0.002452, -0.036370, -0.070399, -0.112442, -0.068738, 0.195839, -0.341860, -0.162507, -0.159042, 0.247251, -0.066238, -0.114238, -0.279573, 0.128454, 0.116188, 0.010017, -0.099830, 0.083143, -0.013491, 0.075837, -0.030622, -0.253922, -0.157733, 0.258211, -0.082164, 0.274488, -0.151008, -0.316637, 0.206722, -0.102480, -0.043136, 0.184484, 0.001116, -0.271585, 0.301094, 0.043561, 0.251590, -0.151193, 0.088632, 0.241102, 0.196731, 0.046722, -0.261257, -0.211108, -0.081131, 0.132198, 0.131520, 0.252847
0.102584, 0.033546, 0.120502, 0.181243, -0.041722, 0.055398, -0.083211, -0.021633, 0.012674, -0.263944, -0.133992, -0.039558, -0.133931, -0.085901, -0.022968, 0.089954, -0.100459, 0.090448, -0.093201, -0.076411, -0.084749, 0.156553, 0.103409, 0.069236, -0.309177, 0.306513, -0.088244, 0.043599, 0.147253, -0.047165, 0.128036, 0.242574, -0.259940, 0.068583, -0.176734, 0.284486, -0.023137, -0.257367, 0.084168, 0.310639, 0.201305, -0.117025, 0.022339, 0.192219, 0.301570, -0.116498, -0.048918, 0.048160, 0.182314, -0.059499, 0.169347, -0.196972, 0.279847, 0.068743, 0.021681, 0.187017, 0.056786, 0.117399, -0.043628, -0.053476, -0.065404, -0.107378, 0.224474, 0.111917
0.194080, 0.069953, 0.229517, 0.215471, -0.000511, 0.077296, -0.123901, -0.030199, -0.112998, -0.211934, -0.165977, -0.176687, -0.007196, -0.170370, -0.053102, -0.028937, -0.214771, 0.106462, -0.220443, 0.019370, 0.016943, 0.220344, 0.024162, -0.108580, -0.392102, 0.348126, -0.143064, 0.017244, 0.075789, 0.014893, 0.021431, 0.340521, -0.334528, 0.031891, -0.124444, 0.213323, -0.175520, -0.278374, 0.026381, 0.463450, 0.148877, -0.153828, -0.057173, 0.059613, 0.457593, -0.192826, 0.049473, 0.154194, 0.300715, -0.032567, 0.309396, -0.239328, 0.299860, -0.222141, 0.091237, 0.378166, 0.179016, 0.057320, -0.333700, -0.120330, -0.062455, -0.024688, 0.373171, 0.169822
0.247581, -0.154819, 0.334733, 0.535336, -0.171665, 0.094275, -0.276981, -0.031713, -0.171229, -0.251649, -0.159050, -0.202914, 0.200433, -0.156587, -0.074609, -0.066994, -0.084380, 0.266932, -0.202764, -0.128489, 0.125890, -0.161557, 0.006226, -0.000322, -0.339592, 0.243820, -0.269181, -0.012930, 0.090715, -0.091601, 0.014572, 0.288096, -0.112747, -0.009741, -0.178549, 0.319503, -0.198391, -0.133989, 0.032346, 0.509119, 0.107120, -0.154533, -0.146043, 0.150215, 0.308148, -0.156624, -0.014500, 0.122817, 0.318592, -0.001276, 0.235340, -0.171436, 0.303415, -0.200440, -0.019573, 0.263925, 0.022330, 0.141783, -0.225985, -0.148421, -0.057505, -0.040600, 0.652801, 0.149579
-0.271240, -0.005270, 0.315993, 0.443117, -0.059428, -0.165394, 0.124182, -0.154251, -0.050969, 0.105835, 0.185640, 0.061739, 0.174546, 0.043799, -0.140104, -0.036485, 0.444006, 0.099687, -0.023011, 0.067382, 0.055426, -0.156518, -0.087217, 0.153710, -0.020993, -0.137956, -0.227259, -0.018481, 0.000490, 0.176076, 0.062504, -0.288803, -0.082980, -0.021023, 0.101921, 0.304721, 0.046560, 0.047730, 0.022456, 0.059287, 0.221209, 0.011061, 0.159584, 0.081284, 0.006962, -0.027289, -0.083917, -0.047701, -0.064361, 0.018448, 0.209620, 0.164233, 0.002637, 0.136390, 0.239212, -0.201702, -0.115564, -0.075945, 0.035063, -0.116626, -0.007052, -0.169996, 0.397173, -0.095955
0.118575, -0.185305, 0.259455, 0.273328, -0.047865, -0.066717, 0.012011, -0.110728, -0.111910, -0.187962, -0.147199, -0.281186, 0.162649, -0.037113, 0.118525, -0.028869, 0.439190, -0.039769, -0.253873, 0.070894, 0.033091, 0.117367, -0.034311, -0.112191, -0.014271, -0.083045, -0.120453, 0.046591, -0.067301, 0.134837, 0.075466, 0.099526, -0.272796, -0.042859, -0.170379, 0.349280, -0.091926, -0.087775, -0.035260, 0.007337, -0.238837, -0.225232, -0.373963, -0.162711, 0.501151, 0.036636, 0.017424, 0.268395, -0.102279, -0.421024, -0.018575, 0.010865, 0.200549, -0.280374, 0.200633, -0.080276, 0.384566, -0.137467, 0.164389, -0.224097, 0.145811, -0.153502, 0.567100, 0.387767
0.262978, -0.155119, 0.300833, 0.149963, -0.023846, 0.216583, 0.022719, 0.034071, -0.083815, -0.240651, -0.110897, -0.001634, 0.011697, 0.010283, 0.083809, 0.193498, 0.374505, -0.298845, -0.211833, -0.071868, 0.027890, -0.002993, 0.246275, -0.137968, -0.177225, 0.355700, -0.135807, 0.145423, 0.001554, -0.019138, 0.068635, 0.121981, -0.099173, -0.015741, -0.225585, 0.240238, -0.192634, -0.189495, 0.219765, 0.314895, -0.142462, -0.134440, -0.102456, -0.020406, 0.321241, 0.204701, -0.032793, 0.472384, -0.201917, -0.164388, -0.156197, -0.071850, 0.257661, -0.152728, 0.043676, 0.158378, 0.180540, 0.225861, 0.217625, -0.132228, 0.020196, 0.337764, 0.323277, 0.152184
0.230566, -0.006921, 0.172402, 0.253607, -0.083530, 0.331262, -0.104102, -0.091362, -0.098398, -0.146552, -0.121335, -0.042834, 0.062059, 0.018129, 0.106290, 0.250864, 0.298542, -0.259807, -0.055310, 0.047738, -0.040655, -0.029185, 0.122823, -0.208491, -0.250951, 0.249228, -0.039127, -0.020043, 0.032567, 0.035765, 0.092877, 0.101460, -0.117076, 0.029023, -0.218885, 0.283753, -0.171387, -0.202291, 0.048344, 0.222451, -0.238994, -0.083619, -0.219694, -0.047926, 0.209601, 0.167102, -0.235101, 0.251836, 0.118092, -0.243397, -0.056119, -0.071411, 0.234402, -0.113844, -0.067793, 0.165914, 0.189511, 0.254480, 0.150083, -0.174824, 0.031261, 0.195295, 0.141465, 0.313282
0.122972, 0.060201, 0.136758, 0.114852, -0.007036, 0.146482, -0.009440, 0.184538, -0.080893, 0.184540, -0.048365, -0.174045, -0.036535, -0.013498, 0.121696, -0.027900, 0.029219, 0.002356, 0.009898, 0.189310, 0.058061, 0.068637, -0.354430, -0.140621, -0.294967, 0.316105, 0.013453, -0.327266, -0.157967, -0.058769, 0.053196, -0.005713, -0.064102, -0.018053, -0.029340, 0.353569, -0.079969, -0.108706, -0.030425, 0.024062, -0.243743, 0.022228, -0.163440, -0.066392, 0.260558, 0.033609, 0.077684, 0.265808, 0.352981, -0.152163, 0.092982, 0.241236, 0.046653, -0.170490, -0.027172, 0.031330, 0.103256, 0.056459, -0.105297, -0.212885, 0.140303, 0.145003, 0.123446, 0.238432
0.202209, -0.251070, 0.242742, 0.257880, -0.004303, 0.295885, -0.008925, 0.259150, -0.058808, -0.023918, -0.208568, -0.110808, -0.142382, -0.044999, 0.192228, -0.081918, 0.113629, -0.136515, -0.071505, 0.285154, 0.005386, 0.147487, -0.330041, -0.231176, -0.409959, 0.315613, -0.235518, -0.347663, -0.242817, 0.239063, -0.024722, 0.125902, -0.306959, -0.024831, -0.359595, 0.281520, -0.044412, -0.249740, -0.123317, 0.158602, -0.192391, 0.345580, -0.275497, -0.104260, 0.283932, -0.037128, 0.279624, 0.281813, 0.083572, -0.234715, 0.057557, 0.168343, 0.046889, -0.216864, 0.095221, 0.211144, 0.268456, 0.050361, -0.051095, -0.127132, 0.330548, 0.259048, -0.004642, 0.163351
0.182558, -0.125982, 0.181110, 0.091245, -0.012050, 0.212561, -0.052197, 0.334802, -0.015756, 0.020802, -0.152740, -0.230266, -0.153352, -0.012450, 0.139398, -0.038467, 0.104832, 0.043733, -0.110798, 0.315901, 0.000690, 0.190055, -0.394175, -0.237529, -0.352219, 0.240751, -0.094438, -0.308803, -0.292291, 0.327398, -0.007134, 0.319876, -0.187414, 0.014990, -0.157726, 0.273120, -0.122352, -0.230736, -0.064576, 0.300394, -0.235943, 0.445930, -0.255681, -0.191616, 0.259629, -0.091764, 0.303533, 0.411362, 0.104628, -0.255753, 0.074518, 0.142173, 0.217566, -0.276792, 0.006234, 0.153793, 0.388587, -0.028635, -0.193409, -0.129490, 0.016290, 0.205188, -0.327623, 0.214509
0.168517, 0.012048, -0.024165, -0.173564, 0.015909, 0.063661, -0.039143, 0.123917, -0.116067, 0.025777, -0.173924, -0.133185, -0.078364, -0.010321, 0.188346, 0.008281, 0.010112, 0.082161, -0.085227, 0.181883, 0.049657, 0.064963, -0.218755, -0.081988, -0.099895, 0.056116, -0.048218, -0.168399, -0.207671, 0.196095, 0.023039, 0.063529, -0.146135, -0.043552, -0.062374, 0.121964, -0.144688, 0.075582, -0.199742, 0.096586, -0.094877, 0.158458, -0.074371, -0.168859, 0.156497, -0.220188, 0.098847, 0.079576, 0.117515, -0.195228, 0.067133, 0.223534, 0.171713, -0.118184, -0.036070, 0.216276, 0.070247, -0.017871, -0.155267, -0.099538, -0.126723, 0.106986, -0.205004, 0.109687
0.154234, -0.051650, 0.007105, 0.079531, -0.098116, 0.174425, -0.132765, 0.212170, -0.093528, 0.049124, -0.210102, -0.037568, -0.054855, -0.068161, 0.134578, -0.069180, 0.053821, 0.079760, -0.051181, 0.120803, -0.009259, 0.066850, -0.196722, -0.076590, -0.142463, 0.213013, -0.072240, -0.073664, -0.243901, 0.220950, -0.008117, 0.165921, -0.222900, -0.135187, -0.151160, 0.134267, -0.119311, 0.034308, 0.091554, 0.166081, -0.133476, 0.038469, 0.009068, 0.008673, 0.149253, -0.216939, 0.025436, 0.180266, 0.049563, -0.183509, -0.140786, 0.180961, 0.106010, -0.137705, 0.020697, 0.059025, 0.220144, 0.162429, 0.132508, -0.204635, 0.021101, 0.116831, 0.102945, 0.106593
0.246451, -0.075739, 0.056217, 0.140366, -0.076609, 0.253453, -0.074331, 0.184271, -0.072928, 0.038856, -0.142276, -0.133704, -0.002757, 0.036342, 0.031532, -0.040595, -0.016285, 0.025609, -0.080157, 0.187992, -0.034536, -0.023569, -0.069611, -0.054706, -0.049144, 0.226149, -0.077641, -0.024221, -0.103540, 0.102417, -0.029872, 0.165622, -0.213213, -0.030690, -0.107414, 0.032525, -0.188566, -0.005924, 0.083908, 0.128858, -0.131046, 0.109347, -0.096918, 0.071044, 0.185683, -0.076097, -0.066562, 0.159852, 0.172874, -0.062399, -0.122123, 0.062235, 0.116364, -0.068760, -0.019530, 0.079422, 0.209699, 0.171727, 0.165857, -0.188499, 0.150559, 0.247797, 0.068810, 0.189501
0.075623, 0.055803, -0.070261, -0.079361, 0.032309, 0.018961, -0.071789, 0.083078, -0.062326, -0.038522, 0.039375, -0.042459, 0.077685, -0.049131, 0.036452, 0.037792, -0.064148, 0.043356, 0.078115, -0.004256, 0.045978, -0.024003, -0.000991, -0.072258, -0.010830, -0.069219, -0.020714, -0.000881, 0.046712, 0.049310, -0.040341, 0.053854, 0.021768, 0.082069, -0.004689, 0.059691, -0.042801, -0.058464, 0.002772, 0.067179, 0.012887, 0.007300, -0.016561, 0.060133, 0.052654, -0.024806, 0.036076, -0.001459, -0.032838, 0.025591, 0.030295, 0.005683, 0.059360, -0.005120, -0.035338, -0.032735, -0.026232, -0.079077, -0.080711, -0.068613, -0.002667, 0.033256, -0.055741, -0.046825
-0.010086, -0.024950, 0.057873, -0.082762, -0.044838, -0.035367, 0.081328, -0.076560, 0.040720, 0.062397, 0.058518, 0.049879, 0.021101, -0.032155, 0.077223, -0.050458, 0.003949, -0.067697, -0.034946, -0.019603, 0.007900, -0.013600, -0.044729, 0.077667, 0.053752, 0.040702, 0.005140, -0.064327, -0.065877, 0.068689, 0.056864, -0.033919, 0.047913, -0.064962, -0.058681, -0.084007, -0.072068, -0.083180, -0.036921, 0.077616, -0.058789, -0.019636, 0.034724, -0.004737, -0.019033, -0.026322, 0.015197, -0.045809, -0.012738, 0.024720, 0.071691, -0.031582, 0.040701, 0.012052, 0.056684, 0.016804, 0.061832, 0.077213, -0.078141, 0.077109, -0.079604, -0.034510, -0.075278, 0.005450
-0.013785, -0.070952, -0.054561, 0.043190, -0.074120, -0.046114, -0.018802, -0.040072, 0.012171, -0.077340, -0.018397, 0.002931, -0.036778, -0.078229, -0.027968, -0.016539, -0.013036, -0.002861, 0.075866, -0.041251, 0.067698, 0.049312, 0.069640, 0.056667, 0.057242, 0.045648, -0.081689, -0.077673, -0.005098, 0.065438, -0.026792, -0.075122, 0.036182, 0.030660, 0.054658, 0.044940, 0.034548, 0.017367, 0.029273, 0.026673, -0.046376, -0.013068, -0.013497, 0.083255, 0.017255, -0.078528, 0.072558, -0.036904, -0.011017, -0.011623, -0.013917, -0.015445, -0.063630, 0.002079, -0.001475, -0.036072, -0.081524, 0.017664, -0.011529, 0.020532, 0.075946, -0.024278, 0.037679, -0.063495
-0.076104, 0.050118, -0.037921, 0.013189, -0.070891, 0.022190, -0.065886, 0.001709, 0.017097, 0.000993, 0.076252, -0.011835, -0.065793, -0.041569, -0.031973, 0.029530, -0.064099, 0.074793, 0.051847, -0.024004, -0.023970, -0.021508, -0.038144, -0.006274, -0.019287, 0.079407, -0.047544, 0.004725, 0.061213, 0.027039, -0.063493, -0.003177, 0.049485, 0.038361, 0.055919, -0.029078, -0.042028, 0.038549, -0.000060, -0.060497, 0.059115, -0.012462, 0.036744, 0.033460, -0.014918, 0.022745, -0.070034, -0.048325, -0.057810, -0.032190, 0.076413, 0.017918, -0.003864, 0.043882, -0.075103, -0.058171, -0.068398, -0.075999, 0.040439, -0.021034, 0.078207, -0.003760, 0.079709, -0.031264
0.054736, 0.050661, -0.064734, -0.073382, 0.070942, -0.058443, 0.046618, 0.046086, 0.041576, 0.011090, -0.044305, -0.033568, -0.078190, 0.080915, 0.043556, 0.013208, -0.015486, -0.016009, -0.041093, 0.080343, -0.082752, 0.057679, -0.003892, 0.070586, -0.033922, 0.061351, -0.067998, -0.005093, -0.005681, -0.004498, 0.020046, 0.009398, 0.082363, 0.070993, -0.049698, -0.073413, 0.011649, 0.068479, 0.007432, -0.061115, -0.079107, -0.016120, 0.065825, 0.072620, -0.012703, -0.039522, 0.074596, 0.063446, 0.040542, 0.028168, 0.063266, 0.048290, 0.022120, 0.057470, -0.054039, 0.002189, 0.051437, 0.031418, 0.021494, -0.042961, -0.008446, 0.012320, 0.048312, 0.045812
-0.036155, 0.026199, -0.036047, 0.004438, 0.025637, 0.023877, -0.023722, -0.033445, -0.003253, -0.018520, -0.073439, 0.062919, -0.023167, -0.004755, 0.017989, -0.003275, -0.013061, 0.071116, -0.068307, -0.038419, -0.049572, -0.039437, 0.054063, 0.027923, 0.082688, -0.060596, -0.071641, 0.033443, 0.021167, -0.054339, 0.025767, -0.074423, -0.029670, 0.008650, -0.045714, 0.029811, -0.037397, 0.024093, 0.006527, -0.007916, -0.083781, 0.003420, 0.022777, 0.003461, -0.069373, 0.046927, 0.048988, -0.064853, -0.074216, -0.061528, 0.005560, 0.048508, 0.071927, 0.053518, 0.001657, 0.023519, -0.039515, -0.019525, -0.002558, -0.082670, 0.077699, -0.008123, -0.015979, -0.081372
-0.039661, -0.023649, 0.082684, 0.080762, -0.068460, 0.018971, -0.010481, -0.049270, -0.041539, 0.061357, 0.024058, -0.068625, -0.107814, -0.051227, 0.012618, 0.031291, -0.079486, 0.048857, -0.038782, 0.029695, -0.012174, 0.050528, -0.146974, 0.023605, -0.038265, 0.111416, 0.072454, 0.013756, 0.048086, 0.025118, 0.037683, 0.076892, 0.062057, 0.002027, -0.030070, 0.037605, 0.017058, -0.069180, -0.049450, 0.014282, 0.036744, 0.081855, -0.002309, 0.034014, 0.034162, -0.039037, 0.027371, -0.009539, 0.038672, -0.091372, 0.057987, 0.015539, 0.004170, -0.019002, -0.050808, 0.020133, 0.042790, -0.008016, -0.041758, -0.185833, -0.006914, 0.098521, -0.030176, 0.055026
0.418138, -0.022577, 0.165740, 0.018747, -0.240480, -0.303557, 0.064930, -0.387383, 0.064461, -0.311081, -0.305327, -0.377320, -0.011129, 0.020595, -0.340276, -0.055015, -0.007210, 0.371619, 0.168694, 0.098371, -0.038924, 0.057580, 0.318324, -0.308243, -0.032635, 0.119417, 0.015545, 0.261936, 0.263517, 0.302605, -0.050535, 0.352125, -0.245108, 0.011905, -0.243283, 0.353012, -0.111793, -0.394212, 0.052974, 0.014740, -0.359914, -0.405716, -0.308113, 0.289849, 0.382419, 0.004024, -0.057377, -0.060570, 0.072251, -0.273774, 0.067001, -0.227552, 0.354472, -0.385621, 0.113461, 0.316689, -0.148478, 0.047768, -0.117070, -0.286700, 0.012473, -0.215632, -0.074445, 0.076470
0.187862, -0.151101, 0.204096, -0.076192, -0.360008, -0.004180, -0.041464, -0.310318, -0.009977, -0.334233, -0.200096, -0.337605, -0.026764, -0.060790, -0.115435, -0.088554, -0.120452, 0.266993, 0.092016, 0.010131, -0.125039, -0.034379, 0.343027, -0.339580, -0.078272, 0.130167, -0.071809, 0.206668, 0.335265, 0.315552, 0.068427, 0.264290, -0.203346, -0.018755, -0.192609, 0.258172, -0.152259, -0.397343, -0.082901, 0.096259, -0.365005, -0.370205, -0.327018, 0.298991, 0.398894, -0.008439, 0.005699, 0.066760, 0.113763, -0.187910, 0.021981, -0.235702, 0.260921, -0.333399, 0.013076, 0.203214, -0.037442, -0.082776, -0.055517, -0.268992, -0.132718, -0.120814, 0.190776, 0.151326
0.186319, -0.055213, 0.157422, -0.055318, 0.017394, -0.006635, -0.130088, 0.064135, -0.091514, 0.002667, -0.009998, -0.054411, -0.178923, -0.114440, 0.253889, -0.061727, 0.042884, -0.015967, -0.057932, 0.068050, -0.072674, 0.037801, -0.102566, -0.045259, -0.161889, 0.212897, -0.009173, -0.157222, -0.195112, 0.048518, 0.073125, 0.035420, -0.080506, -0.034765, -0.050054, 0.028821, -0.016193, -0.057108, -0.111368, 0.208834, -0.021938, 0.011838, -0.172584, -0.002088, 0.124872, -0.002845, 0.044861, 0.143879, 0.180129, -0.176869, 0.195590, 0.069390, 0.043622, -0.207468, 0.026283, 0.119688, 0.106227, 0.126425, -0.079198, -0.126550, 0.062359, 0.120176, 0.114110, 0.204030
0.103931, 0.166240, 0.087001, 0.041682, -0.058234, 0.162089, -0.042710, 0.132818, -0.057283, -0.144098, -0.021389, -0.097033, -0.033833, 0.019799, 0.041803, 0.074022, 0.009132, -0.002561, 0.047724, 0.082837, -0.004100, 0.078396, 0.047174, -0.191414, -0.188825, 0.094717, -0.024564, 0.071595, -0.057950, 0.028612, 0.092226, 0.063209, -0.046623, 0.059554, 0.047711, 0.205165, -0.120295, -0.183872, 0.040443, 0.165988, 0.085932, -0.033246, -0.035786, -0.015916, 0.044897, -0.023325, -0.141296, 0.183126, -0.074123, -0.047374, -0.062971, 0.072799, 0.116328, -0.186133, 0.003802, 0.049491, 0.189895, 0.278980, 0.063507, -0.221502, 0.062844, 0.107343, 0.094550, 0.131167
0.158590, 0.163282, 0.235653, 0.077882, -0.124414, 0.200218, -0.074294, 0.147067, 0.001264, -0.225546, -0.130042, -0.104789, 0.048340, -0.034136, 0.082894, 0.014211, 0.035257, -0.079085, 0.118208, -0.064645, -0.127598, -0.012111, 0.193567, -0.170304, -0.147288, 0.160366, -0.048065, 0.028017, -0.095750, -0.264486, 0.122657, 0.148368, -0.001588, -0.008243, -0.120453, 0.201701, -0.158573, -0.087438, -0.020112, 0.206114, 0.040770, -0.065210, -0.145218, -0.046588, 0.165409, 0.014128, 0.093479, 0.285863, -0.002700, -0.216343, -0.070485, -0.012607, 0.177198, -0.255950, 0.018431, 0.117173, 0.237845, 0.255185, 0.015078, -0.306452, -0.027975, 0.157775, 0.212364, 0.218653
0.275318, -0.133300, 0.163577, 0.308954, 0.203640, 0.227513, -0.234158, 0.247284, -0.108096, -0.065334, -0.177280, -0.057335, -0.095773, 0.123547, 0.374347, -0.018072, 0.048846, -0.080365, -0.112491, -0.096644, 0.019903, 0.104070, -0.099126, -0.206656, -0.454324, 0.244750, -0.165343, -0.120790, -0.343037, 0.278373, 0.080665, -0.054733, -0.036141, -0.024702, 0.016596, 0.042450, -0.089385, -0.022693, -0.012254, 0.349270, -0.120324, 0.281461, -0.268071, -0.312035, 0.171549, 0.074819, 0.113698, 0.344629, -0.024836, -0.223711, -0.178717, -0.152115, 0.213753, -0.190191, -0.175898, 0.188581, 0.286810, 0.237391, 0.051004, -0.291354, 0.115651, 0.345822, 0.029904, 0.322266
0.152287, 0.163843, 0.301534, 0.207443, 0.255693, 0.393969, 0.083672, 0.321893, -0.142849, -0.100776, -0.367237, 0.116355, 0.041619, 0.223231, 0.367723, -0.018143, 0.193214, -0.036748, 0.048068, -0.343603, 0.085320, 0.107727, 0.085914, -0.275515, -0.146113, 0.256711, -0.484447, -0.051129, -0.216643, 0.018814, 0.132998, -0.412436, -0.116419, -0.106875, -0.157952, -0.049950, -0.280562, -0.240213, 0.068780, 0.334068, -0.178054, 0.410231, -0.100831, -0.471472, -0.069843, 0.261099, 0.125942, 0.488029, -0.129396, -0.065378, -0.325562, -0.350198, -0.049914, 0.061370, -0.380156, 0.000024, 0.511340, 0.207667, 0.193427, -0.162210, 0.280404, 0.391139, -0.295055, 0.133742
-0.002218, 0.500249, 0.223882, -0.137652, 0.010677, 0.450286, 0.059822, 0.323342, -0.167522, -0.177949, -0.216511, 0.079270, 0.237071, 0.058635, 0.249270, -0.009407, 0.172836, 0.019254, 0.109506, -0.360188, 0.058593, 0.218330, 0.032880, -0.239144, 0.012992, 0.325800, -0.408276, 0.075626, -0.000571, -0.136914, -0.052758, -0.124459, -0.326236, -0.050835, -0.032314, 0.019088, -0.258119, -0.333188, 0.019082, 0.274040, -0.181905, 0.118946, -0.359369, -0.134299, -0.244391, 0.148196, 0.179787, 0.452363, -0.173331, -0.045565, -0.076366, -0.306287, 0.014783, 0.026242, -0.049542, -0.021449, 0.688695, 0.368651, 0.225657, -0.208442, 0.104839, 0.243621, -0.191549, 0.203217
0.237429, 0.334027, 0.476434, -0.095278, 0.077109, 0.443730, -0.140614, 0.500792, -0.237104, -0.206902, -0.117481, 0.178409, 0.108216, -0.004799, 0.041742, -0.132193, 0.022675, 0.173511, -0.019150, -0.283855, -0.041060, -0.000136, -0.144786, -0.402419, 0.162525, 0.326091, -0.098312, 0.032599, -0.065311, -0.210398, -0.046332, 0.043880, -0.231071, -0.082235, 0.095060, -0.117000, -0.066655, -0.454686, 0.184801, 0.244841, -0.488024, 0.041906, -0.523799, 0.054838, -0.209112, 0.161378, -0.025608, 0.545200, -0.002985, -0.059131, 0.205552, -0.299992, 0.092258, 0.004882, 0.107647, 0.065542, 0.807230, 0.360712, 0.387722, -0.464192, -0.072554, 0.213083, -0.063490, 0.365467
0.053488, 0.424910, 0.573637, -0.254462, 0.121631, 0.499980, 0.006332, 0.204059, -0.459322, 0.132888, -0.065629, 0.210157, -0.128404, -0.094752, 0.215153, 0.011187, 0.022188, -0.274642, -0.065968, -0.435933, -0.532159, -0.028950, 0.040067, -0.637573, 0.072605, 0.378067, -0.233486, 0.070817, 0.022577, -0.103587, -0.167319, -0.106179, -0.056492, -0.078333, -0.133037, 0.021152, -0.369589, -0.421027, 0.081085, -0.104963, -0.424592, 0.266611, -0.060867, -0.026349, -0.284257, 0.360979, -0.176080, 0.246094, 0.153114, 0.135426, 0.275849, -0.022251, 0.133049, -0.006758, -0.253933, -0.127051, 0.315093, 0.314552, 0.421735, -0.503598, 0.362248, 0.020673, -0.283844, 0.055514
-0.279897, 0.303754, 0.216253, -0.129595, -0.108162, -0.037416, 0.034090, 0.019768, -0.364732, 0.112073, -0.281487, -0.137532, -0.011947, -0.026967, 0.248244, -0.011465, 0.175443, -0.220015, -0.229307, -0.420802, -0.417342, -0.150151, 0.040895, -0.341365, 0.296758, 0.050663, -0.552808, -0.048032, -0.527300, -0.376235, -0.060112, -0.401191, -0.185576, -0.293207, -0.043762, 0.449119, -0.321221, -0.270920, -0.119822, -0.226083, -0.182631, -0.034167, -0.037467, -0.142557, 0.334820, 0.327929, -0.325689, 0.192534, 0.091696, -0.174681, 0.437742, 0.152176, -0.003446, 0.172365, -0.173183, -0.428172, 0.225267, -0.247266, -0.011913, -0.491857, 0.489952, -0.122436, -0.128403, 0.164690
0.027500, -0.104407, 0.566743, 0.117671, 0.033533, 0.207653, -0.149995, 0.193483, -0.189400, 0.313030, -0.118403, 0.166946, -0.108851, -0.071662, 0.319172, -0.035471, 0.243943, -0.128052, -0.124480, -0.289257, -0.366224, -0.160149, -0.000704, -0.286757, -0.036179, 0.338823, -0.496646, -0.215760, -0.598702, -0.263457, -0.032260, -0.378515, -0.094145, -0.175616, -0.099233, 0.060037, -0.376719, -0.595071, 0.152830, 0.059690, -0.115095, 0.220601, -0.114554, -0.177911, 0.014798, 0.195349, -0.352525, 0.366089, -0.069194, -0.015694, 0.388845, 0.034721, -0.176414, 0.094691, 0.092328, -0.383057, 0.245189, -0.143866, 0.134899, -0.561673, 0.459621, 0.161104, 0.000290, 0.215111
-0.044026, -0.254085, 0.318605, 0.431401, -0.060235, 0.047041, 0.087424, 0.253361, -0.175648, 0.344355, 0.062029, -0.183756, 0.126606, -0.068312, 0.482794, -0.090171, 0.281544, -0.450329, -0.346563, -0.146381, -0.437384, -0.259176, 0.060526, -0.299019, 0.184764, 0.106250, -0.357039, -0.186453, -0.495842, -0.096820, 0.178274, -0.381661, 0.177749, -0.093793, 0.077834, 0.251853, -0.304978, -0.534903, -0.158469, -0.012150, -0.173939, -0.035369, -0.282104, -0.331014, 0.247263, 0.038126, -0.309801, 0.254726, -0.190662, -0.139152, 0.078367, 0.326766, -0.135039, -0.054059, 0.309845, -0.182311, 0.361106, 0.067318, 0.152533, -0.326700, 0.477670, 0.037309, 0.237528, 0.318328
-0.055507, -0.789467, 0.229938, 0.105254, -0.166457, -0.009738, -0.001822, 0.199964, 0.022179, 0.017409, -0.382416, -0.196510, 0.260448, -0.118857, 0.306502, 0.089529, 0.071524, -0.384171, -0.306945, 0.041625, -0.318483, -0.257371, 0.043019, 0.025166, 0.265269, -0.155124, -0.153435, 0.013262, -0.388725, -0.002999, 0.506087, -0.096068, 0.193331, -0.326584, 0.149278, 0.298459, -0.267038, -0.516973, -0.249439, 0.001833, -0.329725, -0.238366, -0.258763, -0.046170, 0.319785, 0.091875, -0.379514, 0.020815, -0.006047, -0.245212, -0.430418, 0.258128, 0.094674, -0.218403, 0.409582, -0.048207, 0.369819, 0.106677, 0.059754, -0.130542, 0.080010, -0.040791, 0.373912, 0.406803
-0.002111, -0.645520, 0.136017, 0.307497, 0.099144, 0.010369, -0.353781, 0.342283, 0.277274, 0.317302, 0.012169, -0.162850, 0.158300, -0.009766, 0.259927, 0.004541, 0.146560, -0.463237, -0.084868, 0.227975, 0.066803, -0.043159, -0.310547, 0.080071, 0.062485, -0.139805, 0.198069, -0.131541, -0.426435, -0.280238, 0.316988, -0.112028, 0.104908, -0.214480, 0.189350, 0.187325, -0.138950, -0.105787, -0.007933, 0.218407, -0.392528, -0.006711, 0.030825, -0.172047, 0.212072, -0.108762, -0.158582, 0.089266, 0.167982, -0.226181, -0.339963, 0.048261, 0.138212, -0.179763, 0.278506, -0.063845, 0.403313, -0.104348, -0.069673, 0.140130, -0.103029, 0.104945, 0.383904, 0.308308
0.046331, -0.546510, 0.225202, 0.457376, 0.337162, -0.038202, -0.322576, 0.185683, 0.370494, -0.150195, 0.040687, -0.078700, 0.132583, 0.139828, 0.043574, 0.093836, 0.090285, -0.490847, 0.157836, 0.040462, 0.114243, -0.052004, -0.189852, -0.212386, -0.009241, -0.056219, -0.210585, -0.100333, -0.281083, -0.189277, 0.127536, -0.131979, -0.145886, -0.181578, 0.111753, 0.223168, -0.151513, 0.092073, 0.471540, 0.195602, -0.120621, 0.227427, -0.034034, -0.451695, 0.276267, 0.040200, 0.091421, 0.189666, -0.231850, -0.376678, -0.126995, -0.016935, 0.235875, 0.187662, 0.492243, -0.062727, 0.353675, -0.214684, -0.155988, 0.020687, -0.121518, 0.105691, 0.120072, 0.403103
-0.112058, -0.498765, -0.045804, 0.224396, -0.012831, -0.167863, -0.546882, -0.065879, 0.342714, -0.120309, -0.468943, -0.355972, 0.048691, 0.152135, 0.270057, -0.030140, 0.298919, 0.070553, -0.058534, 0.229218, 0.218660, 0.079809, -0.249457, -0.336233, 0.097281, -0.150065, -0.240006, -0.252200, -0.290137, 0.180166, 0.149181, -0.258615, 0.029182, -0.074500, 0.192470, 0.234989, -0.394195, 0.196384, 0.109062, -0.051670, -0.186269, -0.078974, -0.023099, -0.242471, 0.289133, -0.106092, 0.418624, 0.122491, 0.376027, -0.392767, -0.119493, -0.060946, 0.086912, 0.194089, 0.425069, -0.157393, 0.251545, -0.157066, -0.277466, -0.227598, -0.335650, -0.124280, 0.065262, 0.310104
-0.110029, -0.289805, 0.062354, 0.393300, 0.208639, 0.097278, -0.206401, 0.123810, 0.181431, -0.133439, -0.281936, -0.248568, 0.106400, 0.301475, 0.396119, 0.214917, 0.539278, 0.151034, 0.132063, 0.171760, 0.283135, 0.010587, -0.287757, -0.153374, 0.026246, 0.047189, -0.165745, -0.086975, -0.403223, -0.140414, -0.019363, -0.176674, 0.126734, -0.075480, -0.070233, 0.106431, -0.325589, -0.114717, 0.091372, 0.066670, -0.284540, 0.076309, -0.036339, -0.332688, 0.153819, 0.013401, 0.240665, 0.167514, 0.474818, -0.135260, -0.151196, -0.091845, 0.038423, 0.203571, 0.327974, -0.076795, 0.247451, -0.157504, -0.218680, 0.059713, -0.205881, 0.010729, -0.016799, 0.120377
0.101675, -0.156016, 0.286273, 0.379391, 0.288440, 0.212113, -0.200205, 0.202026, -0.115469, -0.009887, -0.328823, 0.237609, 0.052616, 0.179647, 0.289706, 0.163089, 0.335026, 0.418665, 0.238379, 0.211575, -0.003126, -0.045194, -0.295326, -0.268462, -0.179531, 0.205848, -0.056464, -0.069988, -0.369194, -0.419873, -0.124766, -0.286035, -0.041230, -0.161693, -0.292505, -0.312369, -0.296646, -0.448523, 0.265913, 0.105999, -0.280915, 0.566178, 0.073766, -0.289130, -0.062020, 0.194827, 0.152661, 0.226183, 0.366308, -0.213288, -0.287201, -0.052411, 0.043093, 0.318095, 0.044951, 0.056877, 0.215323, 0.238870, 0.163964, 0.046254, -0.202966, 0.339500, -0.101280, 0.164213
0.111048, 0.023423, 0.171184, 0.181770, 0.310473, 0.120337, -0.211982, 0.199963, -0.112447, 0.133911, -0.438935, 0.091140, 0.011726, 0.121779, 0.311660, 0.112039, 0.194441, 0.495197, 0.002272, 0.604374, 0.064769, -0.104466, -0.542641, -0.157375, -0.213577, 0.310137, -0.099808, -0.165668, -0.074341, -0.423082, -0.154348, -0.187959, -0.077827, -0.037974, -0.229535, -0.182371, -0.383927, -0.702564, 0.118450, 0.119111, -0.332491, 0.548960, -0.072087, -0.262557, 0.061961, -0.102999, 0.308455, 0.148488, 0.425018, -0.296920, -0.138369, 0.204926, 0.199736, 0.206532, 0.219234, 0.129126, 0.019190, 0.205800, 0.162794, -0.055462, -0.124364, 0.300720, 0.122135, 0.180990
0.182151, 0.085473, 0.073273, 0.281185, 0.178752, 0.090373, -0.009621, 0.026748, -0.108070, -0.136593, -0.305019, -0.162124, -0.006357, 0.127156, 0.176541, 0.144293, 0.232498, 0.038354, 0.179143, 0.427629, 0.055313, -0.228811, -0.132091, -0.141871, -0.253205, 0.064088, -0.085790, -0.084630, -0.166198, -0.231934, -0.133748, -0.168235, -0.044836, -0.377326, -0.263555, -0.149932, -0.275661, -0.550037, 0.092617, 0.352909, -0.410720, 0.351114, -0.170589, -0.041565, 0.002108, 0.093928, 0.264098, 0.076864, 0.293346, -0.102692, -0.090414, -0.014213, 0.074069, -0.087439, 0.303392, 0.177626, 0.116815, 0.189575, 0.292492, -0.365141, 0.051473, 0.244178, 0.258402, 0.078587
-0.037667, 0.253988, -0.001494, 0.205188, 0.008391, 0.212213, 0.025966, -0.000235, -0.057414, 0.001012, 0.060585, -0.019515, -0.067648, 0.077291, 0.088952, 0.002931, 0.063382, 0.154309, -0.019499, 0.178985, 0.046323, -0.106755, 0.118109, 0.051322, -0.180392, 0.072085, 0.019830, -0.083522, -0.065521, -0.096624, -0.054822, -0.114300, 0.037923, -0.112781, -0.094100, 0.017595, -0.057294, -0.392657, 0.080039, -0.008691, -0.071889, 0.130367, 0.112404, -0.013591, 0.058616, 0.087863, 0.015893, 0.192014, 0.022877, -0.013529, -0.124399, -0.178872, -0.057227, -0.085362, 0.057054, -0.060255, 0.172347, 0.268018, 0.147358, -0.201199, 0.246397, 0.067013, -0.070504, -0.029361
0.001948, 0.226862, 0.038412, 0.013985, 0.039941, 0.050585, 0.019409, -0.015760, 0.077205, -0.037599, 0.101324, 0.043621, 0.033240, 0.099258, 0.149805, 0.082081, 0.073740, 0.109877, 0.016522, 0.236201, 0.057489, 0.062576, -0.014678, -0.019671, -0.045830, -0.061048, -0.013147, -0.044210, 0.055760, 0.038211, -0.077283, 0.001787, -0.008293, -0.024447, -0.031178, -0.031008, -0.122413, -0.218861, 0.055631, 0.039206, -0.049582, -0.039665, -0.035643, -0.076488, 0.028086, 0.083864, 0.095672, -0.024973, 0.041227, 0.004196, -0.105905, -0.040608, -0.066620, -0.010346, -0.035788, -0.092343, 0.057043, 0.075113, -0.004436, -0.102680, 0.088100, -0.081660, -0.006392, -0.057124
0.074566, -0.027338, -0.072695, 0.013266, 0.038765, 0.023652, 0.037636, 0.020621, -0.063832, 0.041842, 0.018994, 0.055963, -0.038566, -0.065693, 0.069199, 0.062006, -0.002512, 0.051661, 0.066078, 0.021173, 0.050269, 0.060874, 0.038928, 0.042702, 0.023460, 0.040365, -0.067487, 0.058632, 0.010282, 0.053247, 0.082577, 0.014602, -0.062119, 0.073288, 0.067519, -0.023417, 0.066227, 0.050937, -0.015116, 0.000806, 0.022806, -0.033329, -0.081115, -0.046858, 0.054144, -0.049110, 0.076527, 0.007044, -0.006064, 0.067795, -0.060138, 0.035541, 0.053955, 0.000826, 0.035950, 0.021063, -0.062698, -0.001833, 0.004316, -0.015847, 0.014381, 0.013303, -0.062604, 0.062655
-0.043333, -0.031411, 0.041041, 0.030891, 0.062463, -0.036708, -0.009785, -0.080144, -0.083964, -0.001262, 0.011731, -0.045850, -0.083875, 0.022509, -0.031880, 0.039243, 0.014507, 0.001379, -0.046437, -0.040975, 0.080390, -0.066566, -0.058717, 0.047693, -0.008749, 0.008920, -0.066733, 0.063393, -0.022394, 0.033694, -0.041245, -0.047580, 0.078662, -0.028680, -0.077072, 0.052583, 0.009815, -0.006541, -0.023775, 0.002763, 0.071167, -0.055277, -0.019198, -0.062192, -0.082763, 0.033845, 0.039448, 0.043922, 0.041518, -0.075178, -0.009697, -0.001876, -0.064731, 0.070961, 0.031757, 0.002775, -0.060877, -0.048837, 0.019956, 0.004679, 0.031349, 0.015301, 0.031926, -0.045719
0.051653, 0.044135, -0.045982, -0.013184, 0.076525, 0.021690, 0.053504, -0.075669, 0.057272, -0.039053, -0.003282, -0.076154, 0.050931, 0.064753, -0.062293, -0.077706, -0.050474, -0.065329, -0.081169, 0.074672, -0.051556, 0.053487, -0.000905, 0.018480, -0.018036, 0.008928, -0.069600, 0.003239, -0.007343, 0.054276, -0.066189, 0.019589, -0.082927, -0.030005, 0.065375, -0.052734, 0.040933, -0.025089, 0.005170, 0.058649, 0.057163, -0.045623, -0.070366, 0.043185, 0.055513, 0.033765, 0.068157, 0.012762, -0.027454, 0.003999, 0.039525, 0.039963, 0.063337, -0.040714, -0.014491, 0.029453, -0.066036, -0.068433, -0.068321, 0.082169, 0.080003, -0.073096, 0.062646, 0.018944
0.082392, -0.001308, 0.010377, -0.017436, 0.075010, -0.045632, 0.059291, -0.066130, 0.045580, 0.008114, 0.027045, -0.060015, 0.019614, -0.081293, 0.027822, 0.037443, -0.012915, -0.000351, -0.009763, -0.045187, -0.067723, -0.083107, -0.014548, 0.018210, 0.022945, 0.073046, 0.002923, -0.042385, -0.083157, 0.000961, 0.062297, -0.040070, 0.051433, -0.007689, -0.047310, -0.077069, 0.075697, -0.075960, 0.019028, 0.039532, 0.045470, 0.021966, 0.082329, -0.038436, 0.024401, 0.074569, -0.035893, 0.027098, 0.033447, 0.003085, -0.029256, 0.069836, -0.070636, -0.079837, 0.064767, -0.003128, -0.079080, -0.076659, -0.031978, -0.076909, 0.082132, -0.000511, -0.058372, -0.077547
-0.246830, 0.278240, -0.161675, 0.298329, -0.039974, -0.294466, 0.250673, -0.096968, -0.045210, 0.102497, 0.028705, -0.217402, 0.302118, 0.207150, -0.006394, -0.037543, 0.043633, 0.031586, -0.081356, -0.133546, 0.039214, -0.060686, 0.239626, 0.119987, 0.176941, -0.116897, 0.086584, 0.275691, -0.179138, 0.283774, 0.001046, -0.263793, 0.221710, 0.132231, -0.059023, 0.081192, 0.048048, -0.343579, -0.122549, -0.216725, -0.073602, -0.245531, 0.033803, -0.055573, -0.056536, 0.215951, -0.017197, -0.080543, 0.291749, -0.074355, -0.029378, 0.142187, -0.073699, 0.006904, 0.249456, -0.085437, 0.029970, 0.005205, 0.341669, -0.046048, 0.314123, -0.175702, -0.201509, -0.030071
0.348318, 0.166857, 0.142852, 0.274665, -0.248863, -0.316727, 0.117068, -0.331816, -0.037731, -0.365598, -0.327932, -0.430957, 0.229140, 0.095671, -0.182576, 0.230025, 0.085827, 0.142778, 0.192757, 0.133292, 0.026646, -0.196433, 0.402555, -0.317105, 0.101953, -0.109300, -0.098973, 0.276785, 0.320261, 0.456828, -0.080960, 0.335061, -0.273942, -0.034720, -0.223752, 0.362936, 0.034431, -0.297576, -0.032928, 0.206637, -0.316045, -0.412295, -0.334877, 0.293756, 0.380001, -0.204729, 0.096170, -0.188031, 0.054752, -0.335230, -0.092432, -0.213649, 0.418220, -0.380962, 0.382888, 0.292780, -0.016726, 0.017456, 0.018163, -0.373320, 0.236841, -0.253183, -0.134496, 0.016361
0.218341, -0.098901, -0.066828, -0.022963, -0.081455, -0.329246, -0.168605, -0.269113, 0.091652, -0.346534, -0.331051, -0.415451, 0.314888, 0.104294, 0.014293, 0.284245, 0.369100, -0.346955, 0.366705, 0.201307, -0.002580, -0.118201, 0.223654, -0.155526, -0.039586, -0.145060, -0.182457, 0.239319, 0.128762, 0.461157, 0.038866, 0.058894, -0.301366, 0.020831, 0.069325, 0.156118, -0.131189, 0.236778, 0.018975, 0.409174, -0.230903, -0.424616, -0.405571, 0.153551, 0.330219, -0.224369, 0.255134, -0.255459, -0.047186, -0.050730, 0.103595, -0.303453, 0.331805, -0.529904, 0.361895, 0.359465, -0.090517, 0.064136, -0.100732, -0.379944, -0.105222, -0.138849, 0.021266, 0.092073
0.228496, 0.115528, 0.013515, -0.087129, -0.132816, 0.410436, -0.260383, 0.224033, 0.122872, 0.009618, -0.144682, 0.173669, -0.049320, -0.137567, 0.198860, -0.094418, -0.068612, -0.102974, 0.062039, 0.367840, -0.018159, -0.141167, -0.213678, -0.156748, -0.035993, 0.084299, -0.335063, -0.121969, -0.059991, -0.398049, -0.137303, 0.131634, -0.084554, -0.138659, 0.050110, 0.065944, -0.273457, -0.205097, 0.011491, 0.063655, -0.037940, 0.057256, -0.159252, 0.125726, -0.085594, 0.104923, -0.049060, 0.028194, 0.013076, 0.121881, -0.015957, -0.201606, 0.075165, 0.007817, 0.166037, -0.031487, 0.116962, 0.317528, -0.004301, -0.357362, -0.258539, 0.042484, -0.008394, 0.075328
0.226837, 0.473201, -0.082337, 0.138506, -0.184155, 0.468826, -0.040208, 0.366729, 0.161501, -0.125758, -0.268329, -0.124794, 0.034190, 0.145839, 0.240591, 0.021611, -0.123492, -0.262954, 0.079500, 0.106315, 0.192467, -0.119523, -0.326999, -0.457992, -0.031562, 0.137767, -0.359217, 0.089363, -0.331320, -0.419771, -0.072772, 0.063012, 0.027925, -0.213898, 0.103508, 0.158636, -0.095288, -0.213363, -0.214550, 0.092388, -0.192815, -0.089191, -0.325965, -0.104479, 0.117985, 0.113879, 0.064674, 0.224328, -0.019328, -0.188392, 0.149153, -0.176881, 0.192190, -0.048430, 0.098650, 0.040695, 0.297069, 0.252053, 0.057179, -0.477880, -0.147675, 0.222598, -0.141518, 0.380215
0.102877, 0.455464, -0.013010, -0.132818, -0.103460, 0.352317, -0.253855, 0.451245, -0.063580, 0.187953, -0.502541, -0.105184, 0.034041, 0.115295, 0.188958, -0.058417, -0.183687, -0.330569, 0.078402, 0.222843, 0.437201, -0.069808, -0.281826, -0.422277, -0.146075, 0.052772, -0.290382, 0.175171, -0.443081, -0.015759, 0.079052, -0.019283, 0.031475, -0.171373, 0.028312, -0.044835, -0.315453, -0.465218, -0.292246, 0.137268, -0.167999, -0.054800, -0.195574, 0.115064, -0.089728, 0.230593, 0.088328, 0.104089, 0.177445, 0.105153, 0.221544, -0.143643, 0.112394, 0.129164, 0.115501, 0.060413, 0.262610, 0.199052, -0.189094, -0.529036, -0.304764, 0.059918, 0.113810, 0.306136
0.295553, 0.278528, 0.091326, -0.172347, -0.032841, 0.003823, -0.330396, 0.291672, -0.006670, 0.026639, -0.369806, -0.129192, 0.357048, 0.299783, 0.073076, 0.013437, -0.345475, -0.294407, 0.009200, -0.118837, 0.292475, 0.054688, -0.128242, -0.463750, -0.256432, 0.026989, -0.469640, 0.218048, -0.191294, 0.263454, 0.139686, 0.263854, -0.189551, -0.519364, 0.213300, 0.254273, -0.440770, -0.392655, 0.035553, -0.058488, -0.188588, -0.127112, -0.320143, 0.168011, -0.112116, 0.266571, 0.183527, 0.047254, 0.144182, -0.072070, 0.094817, -0.514866, -0.120483, -0.116468, 0.145112, 0.100599, 0.268779, 0.295260, -0.233121, -0.624285, -0.296005, -0.122355, 0.392606, 0.369465
0.246948, 0.265822, 0.270591, 0.321428, 0.024867, 0.065477, -0.050998, 0.032191, -0.290964, -0.360422, -0.606016, -0.055261, 0.108327, 0.208900, 0.204137, 0.125266, -0.161030, -0.429923, 0.198748, -0.038354, 0.298494, -0.046995, 0.157598, -0.345317, -0.169308, 0.123695, -0.075722, 0.014238, -0.270678, -0.010163, 0.248265, -0.018662, -0.335778, -0.488340, -0.155844, 0.174053, -0.261535, -0.684858, -0.063467, 0.143635, -0.092460, 0.207340, -0.132010, -0.207987, 0.096898, 0.260262, 0.064518, 0.325096, 0.102932, -0.275596, -0.296620, -0.375302, 0.285289, 0.033313, -0.040572, 0.206622, 0.055934, 0.137822, -0.031245, -0.624234, 0.069887, 0.147841, 0.145573, 0.304069
0.184436, 0.555614, 0.099608, 0.111443, -0.053624, -0.071475, -0.223347, 0.042827, -0.111613, -0.242740, -0.560749, -0.062959, 0.243874, 0.313824, 0.074404, 0.047488, -0.136920, -0.299373, 0.074355, -0.383495, 0.311458, -0.105662, 0.108886, -0.233962, -0.082810, -0.027734, -0.093530, 0.113001, -0.281341, -0.122959, 0.075334, 0.053781, -0.172481, -0.437110, 0.129415, 0.181644, -0.111945, -0.202259, -0.223969, -0.032048, -0.199478, -0.007028, -0.079140, 0.033974, 0.084379, 0.291141, 0.076346, 0.058176, -0.008218, -0.099039, -0.156580, -0.635741, 0.089605, -0.085303, 0.155985, 0.199923, 0.020866, -0.128376, -0.251992, -0.649851, -0.008647, 0.005646, 0.241061, 0.318880
0.378185, 0.266130, 0.128438, -0.196947, 0.136651, 0.209729, -0.105016, 0.274830, 0.221985, -0.099024, -0.527620, 0.244930, 0.129451, 0.069198, 0.124542, -0.071390, -0.165912, -0.480680, -0.060952, -0.454091, 0.038479, -0.015181, 0.021376, -0.234695, 0.086171, 0.178499, -0.418271, 0.035958, -0.143668, -0.068772, 0.037506, -0.052018, -0.040450, -0.164231, -0.122876, -0.024037, -0.237835, -0.254340, -0.222116, -0.059542, -0.500535, 0.194805, -0.163816, -0.052741, -0.183656, 0.342698, -0.212840, 0.361910, 0.052550, 0.035432, -0.056251, -0.574609, -0.051743, -0.036032, -0.082046, 0.092370, 0.249923, 0.143708, -0.049734, -0.432964, 0.068777, 0.248244, 0.122815, 0.200529
0.006509, 0.328136, 0.103897, -0.225227, 0.115627, -0.049541, 0.166928, 0.069262, -0.107555, -0.212107, -0.276981, -0.026464, 0.290694, 0.273075, 0.164328, 0.184030, -0.204508, -0.323586, 0.123692, -0.749017, 0.122744, -0.073062, 0.323033, -0.422841, 0.280583, -0.115228, -0.583126, 0.210410, -0.236935, 0.101271, -0.043080, -0.016045, -0.077305, 0.113266, 0.023056, 0.115722, -0.325724, -0.035887, -0.308983, -0.129283, -0.232263, -0.038512, -0.283418, 0.035498, -0.016277, 0.334600, -0.146486, -0.059033, 0.072930, 0.022854, 0.096024, -0.087147, -0.296961, -0.025851, -0.051037, -0.103301, 0.053743, -0.040625, -0.134408, -0.497743, 0.128198, -0.102433, 0.121226, 0.212600
0.154799, 0.024174, 0.373755, -0.228625, 0.160138, -0.115167, -0.111392, -0.054791, -0.311693, -0.281593, -0.730430, -0.024599, 0.248989, 0.290764, 0.093874, 0.238808, -0.299516, -0.219322, 0.140820, -0.721371, 0.079129, 0.068745, 0.176045, -0.411985, 0.080131, 0.139037, -0.841160, 0.150855, 0.000780, -0.178248, 0.240012, 0.034669, -0.259510, -0.169982, -0.120438, 0.379589, -0.481157, -0.199593, 0.125979, 0.053755, -0.134872, 0.010586, -0.265554, -0.063331, 0.296451, 0.399975, -0.563991, 0.104577, 0.040208, -0.056772, 0.088334, -0.150029, -0.056765, 0.177873, -0.217126, -0.073112, -0.036251, -0.054195, -0.051553, -0.929218, 0.061800, 0.042530, 0.353156, 0.272872
0.238318, -0.183169, 0.260758, -0.502615, 0.188845, 0.166741, -0.318475, 0.054863, -0.105333, -0.030055, -0.476401, 0.168813, 0.149602, 0.166491, 0.208755, -0.098350, -0.217016, -0.096079, 0.017695, -0.505961, -0.199593, 0.112294, -0.228646, -0.261237, 0.282458, 0.032482, -0.745459, 0.127389, 0.015071, -0.269790, 0.169062, 0.222439, 0.049304, -0.155089, 0.043738, 0.182814, -0.441620, 0.048615, 0.070448, 0.008901, -0.247273, 0.117781, 0.101905, 0.060521, 0.403665, 0.408432, -0.635437, 0.035052, 0.030370, 0.143517, 0.007614, -0.058601, -0.038643, -0.049959, -0.202096, -0.195334, -0.089209, -0.159297, -0.123632, -0.620675, -0.005794, 0.078981, 0.385640, 0.110082
0.039222, -0.232257, 0.244537, -0.167808, -0.054570, 0.237562, -0.320032, 0.017772, -0.125091, -0.029838, -0.065643, -0.035350, 0.298666, 0.123083, 0.274839, -0.151988, 0.055204, -0.207349, 0.044128, -0.398659, -0.258624, -0.041392, -0.274972, 0.078965, 0.474411, 0.115793, -0.632237, 0.107996, -0.307086, -0.316005, 0.172641, -0.006044, 0.082721, -0.006676, 0.224566, 0.139359, -0.458443, -0.069559, -0.197588, -0.087184, -0.129674, 0.068270, 0.194544, -0.076037, 0.329431, 0.055859, -0.348323, 0.040856, -0.173848, 0.062593, -0.199128, 0.085777, -0.076984, -0.179510, 0.223419, -0.065020, -0.066368, -0.082323, -0.106769, -0.294782, -0.094109, 0.085022, 0.171501, 0.130690
0.024401, -0.290839, 0.406367, 0.089088, -0.205719, 0.167655, -0.382806, -0.004587, -0.113897, -0.389507, 0.006098, -0.003344, 0.103350, 0.021045, 0.028041, 0.153804, -0.078060, -0.368595, 0.090041, -0.243005, -0.252284, 0.146918, -0.054762, -0.120728, 0.330705, 0.136740, -0.343218, 0.025416, -0.165093, -0.210554, 0.346286, 0.050143, -0.044888, -0.130520, 0.132156, 0.314500, -0.515912, -0.079762, 0.020069, -0.008541, -0.203518, 0.109606, 0.243058, 0.129527, 0.372964, 0.071966, -0.106684, 0.022198, -0.031394, 0.002536, -0.365362, -0.138699, -0.071767, -0.218821, 0.134966, -0.219385, -0.073263, -0.175388, 0.139136, -0.285922, 0.195709, 0.073174, 0.237867, 0.018749
-0.118279, -0.128590, 0.342440, -0.154863, -0.090733, -0.119248, -0.439947, -0.136488, 0.072589, -0.272332, -0.264564, -0.004505, 0.118446, -0.051406, 0.027123, 0.220191, -0.335506, -0.530668, -0.036466, 0.046131, 0.087313, 0.115708, 0.232797, -0.236506, 0.311411, 0.091117, 0.027366, 0.159816, -0.207019, -0.090928, 0.168571, -0.008584, 0.118862, -0.137142, 0.080895, 0.375164, -0.365876, -0.048503, -0.030035, 0.000860, -0.037116, -0.051865, 0.285247, 0.141192, 0.215548, 0.017561, 0.027276, -0.072761, -0.038948, -0.073012, -0.275336, -0.145704, 0.001572, -0.201590, 0.072138, -0.054536, -0.025818, -0.280597, -0.050976, -0.041594, 0.098080, -0.065329, 0.154365, -0.039149
-0.006894, -0.604193, 0.222411, 0.024016, -0.126732, -0.210037, -0.424764, 0.105626, 0.054968, -0.256895, -0.220728, -0.046027, 0.353457, -0.037139, 0.132174, 0.246229, -0.019925, -0.706169, -0.055285, 0.108594, 0.034912, -0.101300, -0.066019, 0.067936, 0.056678, -0.091078, -0.207794, 0.095046, -0.449096, 0.136657, 0.286624, 0.010183, 0.165094, 0.147578, 0.332490, 0.094813, -0.128301, 0.342447, -0.070124, 0.134751, -0.306026, -0.181101, -0.089907, -0.141422, 0.354093, 0.117380, 0.131988, -0.063888, -0.107970, -0.156600, -0.182506, -0.091269, 0.014122, -0.375895, 0.124428, -0.049976, 0.180498, -0.158246, -0.220562, 0.061968, 0.084266, -0.099904, 0.047888, 0.151837
-0.022252, -0.907775, 0.161252, 0.155896, 0.155496, -0.003066, -0.345488, 0.194884, 0.016224, -0.126975, -0.057388, -0.198929, 0.191690, -0.065844, 0.030490, 0.048392, 0.086197, -0.374017, -0.195801, 0.105217, -0.191102, -0.243590, -0.126868, -0.354372, 0.252347, -0.155330, 0.077124, -0.062024, -0.568800, 0.126921, 0.425009, -0.147137, 0.225096, 0.064607, 0.253757, 0.324690, -0.100790, 0.090250, -0.117082, 0.250649, -0.429847, 0.066989, 0.134181, -0.048473, 0.172210, -0.052448, 0.017516, -0.066748, 0.127656, -0.269722, -0.050233, -0.349028, 0.012892, -0.245980, -0.168141, 0.115721, 0.179581, -0.011790, -0.042782, 0.171655, 0.041680, 0.002329, -0.058261, 0.210914
0.146694, -0.496349, -0.091653, 0.022706, 0.133422, -0.043858, -0.598751, -0.101671, -0.062739, -0.278068, -0.088517, -0.264930, 0.248664, -0.014871, -0.210131, -0.005887, -0.097683, -0.336377, 0.018592, 0.201200, -0.127165, 0.029189, -0.135810, -0.397847, 0.252734, -0.229510, 0.082727, 0.100085, -0.381495, 0.177749, 0.113598, 0.064177, 0.353685, 0.110953, 0.271217, 0.204875, -0.250571, 0.145332, -0.441935, 0.110682, -0.262157, -0.112310, 0.315631, 0.444769, 0.220347, -0.052322, -0.027101, -0.247842, 0.202791, 0.151684, 0.097639, -0.416715, -0.026729, -0.208411, 0.043155, 0.163485, -0.133373, -0.028525, -0.107354, 0.032029, -0.221743, -0.099564, 0.281354, -0.124713
0.250000, -0.386789, 0.080358, -0.017091, 0.301530, 0.076540, -0.629975, -0.084834, 0.176572, -0.098156, 0.189566, 0.035913, 0.044256, 0.134029, 0.046189, -0.001482, -0.047783, -0.250131, -0.019571, 0.134599, -0.035524, 0.105719, -0.217151, -0.147931, -0.195851, 0.084993, -0.267072, 0.056745, -0.344884, -0.064325, -0.014282, -0.038657, -0.125867, 0.034654, 0.152700, 0.027782, 0.064098, 0.145186, -0.203982, 0.283909, -0.077422, 0.197294, 0.112732, -0.069082, 0.032011, -0.010634, 0.045802, -0.038937, 0.043454, 0.009246, -0.132867, -0.176968, 0.210617, 0.063016, 0.149582, 0.264059, 0.120047, 0.065383, -0.238400, -0.004587, -0.011363, 0.322261, 0.075204, -0.015033
-0.069211, -0.283541, -0.014926, 0.209795, 0.317828, 0.003560, -0.223029, -0.075676, -0.109530, -0.037910, 0.005191, 0.002211, 0.104277, 0.060614, -0.081833, -0.090068, -0.102675, 0.138059, -0.109545, 0.021425, -0.080631, 0.108137, 0.011086, -0.044694, 0.019219, -0.081005, -0.123262, 0.078495, -0.423820, 0.093339, -0.204204, -0.172618, 0.112735, 0.023467, 0.046875, -0.227553, 0.260325, 0.080589, -0.153009, 0.150010, 0.059985, 0.229192, 0.206905, -0.428770, -0.198734, 0.077137, 0.063982, -0.070375, -0.060236, -0.030892, -0.010533, -0.090164, 0.164501, 0.117035, 0.056279, 0.014788, 0.186819, 0.343453, -0.257099, -0.023954, 0.093841, 0.191491, -0.082470, -0.044526
-0.071949, -0.145262, -0.120379, 0.049522, 0.000680, -0.202316, -0.006673, 0.017829, -0.061193, 0.011438, -0.279671, 0.170194, 0.023503, -0.000209, -0.044681, -0.035825, -0.125691, 0.325781, -0.110711, 0.067364, -0.208818, 0.040233, -0.663587, -0.027802, -0.274477, 0.032412, 0.052220, 0.061021, -0.139506, -0.067011, -0.198144, 0.191916, -0.228828, -0.151354, 0.278986, 0.197401, 0.230826, 0.330504, 0.085430, 0.002583, 0.045684, 0.377116, 0.049162, -0.443490, -0.262396, 0.134490, 0.082860, 0.165416, -0.185491, -0.311271, -0.247806, -0.198828, 0.429225, 0.118099, 0.134589, -0.025434, -0.103110, -0.071915, -0.286197, -0.258040, 0.302562, -0.111404, -0.197448, 0.276781
0.036035, 0.136436, -0.007007, 0.060063, 0.114914, 0.006525, -0.187717, -0.001948, -0.038822, -0.194335, -0.416522, -0.057834, 0.040165, 0.084408, -0.038125, 0.072951, 0.188837, 0.186274, 0.000427, 0.048678, -0.260102, -0.027229, -0.368166, -0.077751, -0.324634, -0.008299, -0.139358, 0.019763, 0.072067, 0.006250, -0.059302, -0.017644, -0.462880, -0.237426, -0.016515, 0.273508, -0.275649, 0.140717, 0.169745, 0.341740, -0.104272, 0.095239, -0.288510, -0.106279, -0.155343, 0.001939, 0.247147, 0.081328, 0.220150, -0.120495, -0.205240, -0.018590, 0.134673, -0.037378, 0.298344, 0.228599, 0.022555, -0.043539, -0.061928, -0.338484, -0.082841, 0.218408, 0.201927, 0.151251
-0.057237, 0.198755, -0.232033, 0.297569, 0.345510, -0.178584, -0.234466, -0.175978, 0.001196, -0.119747, 0.280720, -0.191261, 0.297908, 0.322740, -0.142635, 0.282329, -0.157056, 0.203911, 0.198374, -0.221268, -0.063640, 0.124908, 0.254939, -0.038964, -0.318610, -0.168439, -0.109742, 0.222147, 0.052943, 0.252045, -0.252731, -0.186316, -0.225214, -0.207990, 0.065767, 0.282460, 0.053344, 0.274834, 0.149793, 0.345072, 0.305712, -0.309690, -0.232855, 0.273837, 0.010127, -0.077567, -0.135356, -0.228561, 0.137475, 0.276612, -0.205306, -0.363304, -0.194229, 0.248592, 0.001593, 0.265322, 0.102238, -0.006908, -0.238749, -0.234580, -0.304202, 0.052208, 0.240829, -0.206911
0.275559, 0.017226, -0.099794, 0.156427, 0.245336, 0.028372, -0.388903, 0.033267, 0.022818, -0.133398, 0.055277, -0.101998, 0.120771, 0.258850, 0.076437, 0.308031, 0.048121, 0.036160, 0.241161, 0.074038, 0.077996, -0.001164, 0.071545, -0.112063, -0.243544, -0.061119, 0.039262, -0.029656, -0.177683, 0.252120, -0.242381, -0.186018, -0.220321, -0.354602, -0.132376, -0.005749, -0.251592, 0.115996, 0.236600, 0.398145, -0.007141, -0.006754, -0.440350, 0.256137, -0.050554, -0.198391, 0.224832, -0.097510, 0.148731, 0.025465, -0.187255, -0.236144, 0.125473, -0.048900, 0.049693, 0.356415, 0.250274, 0.029638, -0.221749, -0.127670, -0.255365, 0.279353, 0.405147, 0.100874
-0.070681, -0.002312, 0.079429, -0.035832, 0.026004, 0.015232, 0.040757, 0.029266, -0.038483, 0.021720, 0.009477, -0.073977, 0.080164, 0.065366, -0.002725, -0.026006, -0.059872, -0.000114, 0.030955, -0.070020, 0.056663, 0.076235, 0.024415, 0.077288, -0.074307, -0.051696, -0.049995, 0.033059, -0.026073, -0.020673, -0.047765, 0.069734, -0.015997, 0.063082, -0.056503, 0.035356, 0.013886, 0.004670, 0.071952, -0.022240, -0.033054, 0.056649, -0.066099, 0.072023, -0.003892, 0.036470, 0.049093, -0.012553, 0.078712, -0.068995, 0.033689, -0.001479, 0.009145, 0.006786, 0.048332, 0.076547, 0.077680, 0.016995, 0.056772, -0.033000, -0.079537, 0.067462, -0.064731, -0.047345
-0.020062, 0.049933, -0.058295, -0.068739, -0.008527, 0.065141, 0.066924, 0.069197, -0.078671, 0.000329, 0.056682, -0.012176, 0.064157, 0.021078, 0.076636, -0.020874, -0.016364, -0.078237, -0.005816, -0.061997, 0.037963, -0.003092, -0.062968, -0.015781, -0.074401, 0.019662, 0.011208, 0.029277, -0.016183, 0.008817, 0.067004, -0.052189, 0.025184, 0.018846, -0.059460, -0.037118, 0.058727, 0.005400, 0.006442, -0.002774, 0.000448, -0.043109, -0.023339, 0.028586, -0.042244, 0.017819, 0.064956, -0.014207, -0.039671, 0.009771, 0.010544, -0.065781, 0.048500, 0.011779, -0.054735, 0.078563, 0.037888, 0.034164, 0.040656, 0.078582, -0.028278, -0.015353, -0.018834, 0.022599
0.048581, -0.081810, 0.047518, 0.022044, 0.032458, -0.011765, -0.061859, -0.015954, 0.013738, 0.042588, -0.049951, 0.006458, 0.059480, -0.027688, -0.025029, -0.057286, 0.002968, 0.051537, 0.060007, 0.041603, 0.007640, 0.002445, 0.010466, 0.043596, -0.066208, -0.044333, -0.043953, 0.074282, 0.004135, 0.078959, -0.023772, 0.091091, 0.059974, 0.012077, -0.066320, -0.035009, -0.003810, 0.080404, -0.037797, 0.008942, -0.051187, -0.018128, -0.077522, -0.063357, -0.029584, 0.037839, -0.003862, 0.018311, 0.011572, 0.042464, -0.071966, 0.021584, -0.021936, -0.049258, -0.065574, -0.014293, -0.020913, 0.031030, 0.076055, 0.002193, 0.044025, 0.016654, 0.048000, 0.019442
-0.336042, 0.216933, -0.264314, 0.218639, -0.058903, -0.285892, 0.307436, -0.216193, -0.036031, 0.267734, -0.064438, -0.321062, 0.407199, 0.279407, 0.027954, 0.082953, -0.048992, 0.172529, -0.162534, -0.202340, 0.130775, 0.053142, 0.369001, 0.174908, 0.299693, -0.268439, -0.013264, 0.342433, -0.204346, 0.269799, -0.236566, -0.126309, 0.222716, 0.068958, 0.023228, 0.153610, 0.147470, -0.347667, -0.139310, -0.337395, -0.102495, -0.294062, 0.293998, 0.113303, -0.090395, 0.429817, -0.123120, -0.217859, 0.305208, -0.082687, 0.002505, 0.008856, -0.155356, 0.156184, 0.352497, -0.311069, 0.253698, -0.027442, 0.313457, 0.031551, 0.338372, -0.425118, -0.089206, 0.063023
-0.113442, 0.378942, -0.213693, 0.034318, -0.283272, -0.312866, -0.348635, 0.085228, 0.319586, 0.144717, -0.056285, -0.437748, 0.495819, -0.117890, 0.068112, -0.171667, 0.256400, -0.245398, 0.076957, -0.209625, 0.388103, -0.128439, 0.035886, 0.319393, 0.397906, -0.377072, -0.047410, 0.361040, 0.032762, 0.378675, -0.231264, 0.219154, 0.183664, 0.009408, 0.259469, -0.070602, 0.050943, 0.228610, -0.187535, -0.100113, -0.010206, -0.447114, -0.179447, 0.205495, 0.081462, 0.158341, 0.133049, -0.434730, 0.286007, 0.159370, 0.322071, -0.169973, 0.102664, -0.152045, 0.324101, 0.192594, -0.139070, -0.060293, -0.178446, 0.150246, -0.302959, -0.353848, 0.066701, 0.189445
0.134874, 0.430104, -0.140461, -0.025283, -0.177468, 0.062975, -0.172094, 0.326615, 0.173373, 0.203584, -0.184641, -0.300390, 0.050517, -0.188946, 0.340815, -0.179174, 0.198333, -0.095228, -0.183854, -0.009667, 0.038122, 0.385025, 0.145879, 0.123350, 0.036164, 0.150592, -0.165474, -0.153800, -0.189324, 0.090688, -0.144455, 0.057301, 0.070360, -0.326838, 0.192913, 0.352760, 0.195900, 0.007312, -0.192148, 0.051064, -0.083487, -0.242959, 0.032768, 0.089847, 0.075907, 0.065627, -0.052257, -0.095924, 0.325454, -0.192003, 0.094343, -0.042121, 0.039183, 0.135837, 0.102006, 0.071780, 0.266203, 0.197079, -0.183642, -0.122517, -0.120880, -0.096540, -0.062910, 0.363529
0.176568, 0.421155, -0.053987, -0.149000, -0.457710, 0.222220, -0.159040, 0.289583, 0.023471, -0.042271, -0.300300, -0.298745, 0.117251, -0.141948, 0.209257, -0.206496, 0.333551, 0.074824, -0.166556, 0.215323, -0.022856, 0.448487, -0.122984, -0.410330, -0.133746, 0.085538, -0.302883, -0.365944, -0.277698, 0.173391, -0.240925, -0.129753, -0.222048, -0.031502, 0.016569, 0.368590, -0.024433, -0.055657, -0.209672, -0.107264, -0.188949, -0.025623, -0.035037, 0.066389, 0.083833, -0.017936, -0.063146, 0.334851, 0.131389, -0.239435, -0.098652, -0.259047, -0.128035, 0.231651, 0.158302, -0.176806, 0.632010, 0.260380, -0.017918, -0.421893, 0.014729, 0.066874, -0.179482, 0.294859
0.070325, 0.303467, -0.087277, -0.134674, -0.128498, 0.271731, -0.021902, 0.401348, -0.046008, -0.093469, -0.043815, -0.093886, 0.161095, 0.300781, 0.246985, 0.093782, 0.012362, -0.416376, 0.156818, 0.054525, 0.533161, 0.361301, -0.118298, -0.352104, 0.083029, 0.096900, -0.204860, -0.111964, -0.234077, 0.195326, -0.234852, -0.210425, 0.027966, 0.015293, -0.146987, 0.079823, 0.161603, -0.535487, -0.099788, 0.037830, -0.201752, 0.273297, 0.065844, -0.045759, -0.122151, 0.277877, -0.118387, 0.348197, -0.032543, -0.036406, -0.255547, -0.256492, -0.180638, 0.218807, 0.151376, -0.120295, 0.533985, 0.420238, 0.243297, -0.604441, -0.122019, 0.187099, -0.241903, 0.305849
0.072218, 0.039473, -0.193874, -0.114648, 0.062596, 0.104025, -0.174541, 0.070988, 0.094654, -0.046916, -0.078724, 0.217428, 0.152251, 0.305354, 0.124583, 0.140111, -0.348488, -0.495881, 0.172378, -0.255255, 0.241274, 0.182416, -0.448827, -0.407983, -0.046922, 0.177694, -0.200433, 0.069607, -0.019188, 0.202068, -0.100908, 0.061140, 0.285430, -0.203499, 0.081922, 0.096706, 0.063166, -0.533461, 0.179861, 0.029864, -0.195857, 0.385426, 0.384662, -0.034794, -0.330347, 0.217222, -0.077847, 0.122933, -0.093709, 0.101163, -0.206630, -0.486211, -0.279864, 0.192533, 0.093731, -0.080846, 0.092328, 0.349884, -0.101010, -0.528969, -0.232790, 0.181619, -0.282263, 0.128901
0.089522, 0.251294, 0.182100, -0.183231, -0.223553, -0.032066, -0.095403, 0.186958, 0.318786, 0.161296, -0.290243, -0.046127, 0.224226, 0.109285, -0.012116, -0.018672, -0.396200, -0.485664, -0.185225, -0.357938, 0.025320, 0.134113, -0.177020, -0.572734, -0.060083, 0.025042, -0.112653, -0.101798, -0.083800, -0.012257, -0.186420, -0.026512, 0.037427, -0.318543, 0.197428, 0.296941, -0.201230, -0.583939, 0.422652, -0.273780, -0.346401, 0.255770, 0.329213, 0.110133, 0.004650, 0.078419, 0.054732, 0.251333, -0.068239, -0.140732, -0.192558, -0.580783, -0.214244, 0.028114, 0.338345, -0.189516, 0.302045, 0.218706, -0.144556, -0.568007, -0.074306, 0.090592, -0.170932, 0.605479
0.075851, -0.098585, 0.070528, 0.069997, -0.082145, 0.016417, -0.193194, -0.057644, 0.201887, -0.207449, -0.533524, 0.025004, 0.259006, 0.390117, 0.064647, 0.130649, -0.233664, -0.418747, 0.233796, -0.114168, 0.160164, 0.023465, -0.108233, -0.571549, -0.020361, 0.023305, 0.088543, 0.094809, -0.046394, -0.295572, -0.107640, 0.058007, -0.088828, -0.390722, -0.126607, 0.189296, -0.067979, -0.304338, 0.134481, -0.100777, -0.133617, 0.306226, 0.269493, 0.081350, 0.156941, 0.213950, 0.031668, 0.270233, -0.198940, -0.110233, -0.069625, -0.262876, 0.221403, 0.111417, 0.324644, -0.031795, -0.015971, -0.059287, 0.064050, -0.689512, 0.014404, 0.203259, -0.155885, 0.307875
0.069535, 0.078093, -0.135364, -0.040482, 0.049257, 0.041273, 0.005904, 0.108333, 0.141532, -0.045519, -0.362346, 0.018491, 0.331709, 0.338336, 0.120615, 0.027345, -0.238501, -0.444346, 0.023674, -0.307088, 0.119241, -0.090833, -0.211341, -0.175741, 0.112200, -0.124894, -0.018966, 0.058955, -0.187538, -0.079093, -0.044995, -0.113428, 0.148410, -0.152193, 0.078694, 0.100954, -0.052063, -0.150906, 0.200693, -0.074213, -0.383974, 0.332491, 0.073749, 0.155371, -0.000742, 0.222064, 0.026010, 0.244633, -0.050710, -0.178128, 0.100484, -0.445994, 0.019636, -0.212240, 0.370528, -0.125044, 0.150290, -0.217832, -0.062061, -0.670338, 0.063005, 0.223342, 0.006137, 0.381567
-0.094509, 0.296284, 0.020936, -0.038227, 0.169176, 0.019538, -0.012660, 0.035875, 0.189427, -0.127826, -0.156934, -0.048114, 0.271087, 0.329654, -0.025170, 0.159516, -0.208790, -0.090422, 0.183292, -0.415931, 0.137095, -0.104999, 0.030685, -0.114443, 0.064179, -0.175094, 0.051209, 0.189969, -0.127447, 0.130846, -0.118041, -0.182384, 0.146021, -0.024713, 0.062831, -0.091128, -0.032179, -0.290932, 0.158133, 0.071507, -0.107792, 0.209788, 0.087728, 0.154090, 0.194860, 0.246791, -0.013855, 0.011974, -0.050331, -0.126931, 0.092509, -0.342243, -0.084012, -0.090005, 0.353717, -0.007104, 0.098743, -0.114626, -0.138601, -0.412030, 0.008911, -0.025461, 0.040883, 0.119219
-0.090233, 0.170290, -0.066636, -0.146283, 0.174355, -0.167823, -0.040424, -0.039627, 0.073977, -0.061460, -0.019004, 0.016772, 0.052766, 0.311212, -0.033410, 0.101769, -0.082866, 0.007942, 0.107662, -0.510680, 0.098354, 0.078001, -0.066975, 0.075639, -0.043160, -0.103826, -0.006304, 0.060504, 0.051437, 0.037452, -0.162343, -0.070479, 0.089574, 0.021013, 0.033195, 0.081246, -0.182161, -0.452166, 0.052198, -0.166976, 0.095950, 0.025191, -0.109915, 0.026544, 0.122704, 0.193574, -0.338222, 0.067970, 0.052124, -0.115224, 0.162721, -0.069105, 0.085867, 0.127202, 0.248972, 0.147708, 0.010991, -0.183875, -0.241086, -0.567897, 0.013644, 0.191838, -0.091797, 0.019503
-0.051753, 0.253818, 0.120692, -0.087129, 0.223991, -0.181260, 0.060262, -0.006021, -0.052837, -0.037580, -0.175272, -0.002748, 0.053857, 0.140661, -0.000122, 0.122663, 0.059046, -0.009582, 0.029017, -0.178011, 0.179884, 0.195775, -0.207671, -0.101767, 0.131492, -0.085543, -0.107296, 0.017502, -0.049344, 0.041994, -0.075200, -0.208541, 0.025095, -0.013939, 0.089006, 0.164097, -0.197809, -0.364221, 0.124494, -0.206432, 0.032990, -0.162578, 0.066803, -0.066256, 0.250288, 0.123963, -0.456415, 0.021623, 0.100437, -0.101712, -0.069960, 0.109751, -0.063698, 0.154954, -0.040434, 0.008509, 0.087597, -0.027472, -0.154582, -0.456112, -0.144346, 0.032331, -0.061381, -0.012975
-0.025275, 0.064102, 0.176487, -0.058091, 0.148756, -0.162157, -0.103581, -0.013283, -0.013701, -0.012608, -0.171540, 0.045709, 0.065991, 0.086167, 0.012595, 0.108025, 0.049192, -0.006045, 0.164537, -0.259205, 0.089196, 0.246141, -0.203801, 0.024562, 0.117041, 0.104428, -0.303496, 0.029088, -0.154978, -0.107365, -0.123172, -0.111287, -0.005823, 0.024954, 0.089391, 0.012225, -0.275856, -0.100119, 0.087681, -0.077514, 0.229804, -0.115167, 0.140310, -0.093027, 0.163941, 0.090222, -0.597438, 0.174741, -0.141925, -0.125563, -0.122181, 0.214766, -0.063994, -0.015273, 0.141044, -0.039739, -0.101031, -0.065837, -0.117022, -0.321211, -0.051585, 0.088720, -0.165332, 0.048156
-0.127267, -0.015909, 0.047036, 0.013416, 0.035549, -0.111258, -0.171194, -0.230660, 0.091081, 0.026766, -0.140187, 0.067708, 0.197251, 0.123200, 0.037947, 0.150625, 0.006024, -0.077099, 0.034586, -0.225958, 0.151759, 0.120639, -0.112851, 0.054199, 0.290924, 0.036452, -0.138212, 0.254865, -0.137230, -0.219899, 0.013015, 0.016030, 0.183799, 0.024282, 0.006636, -0.003417, -0.268072, -0.157249, -0.001781, -0.061025, 0.085737, -0.178979, -0.053369, 0.125671, 0.276153, 0.053848, -0.373157, -0.087524, -0.126543, 0.033618, -0.170779, -0.024298, -0.094329, -0.028824, 0.179791, -0.144406, -0.330225, -0.181351, -0.019553, -0.175282, -0.122975, 0.003568, 0.060484, -0.055190
-0.055625, -0.213216, 0.129603, 0.083415, -0.082893, -0.043765, -0.099354, -0.132429, -0.029028, 0.009687, -0.057118, 0.024674, 0.138689, 0.173060, -0.091156, 0.159760, -0.057467, 0.170681, -0.191181, -0.157404, -0.004266, 0.077420, -0.241255, -0.180841, 0.252269, 0.000278, 0.080236, 0.172443, -0.265930, -0.213877, 0.126784, 0.023802, 0.250496, -0.033040, 0.114245, 0.203613, 0.048462, 0.021833, 0.002391, -0.095354, -0.197958, -0.084139, -0.010175, 0.058253, 0.022277, 0.168080, -0.051562, 0.156553, -0.015633, -0.032468, -0.109321, -0.048895, -0.053765, 0.060873, 0.285964, -0.202971, -0.207471, -0.078050, -0.111850, -0.054213, -0.011249, 0.145077, -0.060458, 0.194565
-0.025527, -0.382971, 0.146921, 0.112999, -0.029332, -0.121067, -0.158138, -0.055707, -0.071800, -0.019371, -0.136720, 0.256059, 0.103310, 0.181453, -0.138203, 0.210351, -0.208153, -0.047794, -0.069155, -0.084275, -0.007992, 0.151286, -0.083198, -0.012904, 0.022586, 0.221783, -0.384765, 0.186408, -0.087155, -0.264219, 0.218575, -0.039877, 0.086009, -0.118382, -0.113419, -0.018689, 0.096800, -0.029064, 0.004117, 0.018534, -0.024969, -0.039196, 0.062402, 0.110142, -0.035991, 0.112821, 0.094613, 0.225157, -0.013618, -0.012619, -0.087668, -0.182736, -0.149401, -0.068518, 0.132062, -0.273880, -0.112594, -0.160018, 0.040618, -0.080989, -0.022935, 0.032886, -0.021857, 0.091003
0.015879, -0.342177, 0.156053, 0.194474, -0.132623, 0.004493, 0.006261, -0.148907, 0.082549, -0.005408, -0.311336, 0.084137, 0.164917, 0.122254, -0.203735, 0.297493, -0.123130, -0.154907, 0.017964, -0.119134, 0.213807, -0.020869, -0.116553, 0.005214, 0.126915, -0.007207, -0.473385, 0.088606, -0.213662, -0.043401, 0.254305, -0.060296, 0.193236, -0.077429, 0.010933, 0.095788, 0.172861, 0.160279, -0.111511, 0.058332, -0.104016, 0.097911, 0.105269, 0.079132, 0.153669, 0.057018, 0.048652, -0.072558, -0.127598, -0.015690, -0.026533, -0.137470, -0.005323, -0.103195, 0.137106, 0.058548, -0.183504, -0.229493, -0.163766, 0.099988, -0.103712, -0.105676, -0.111109, 0.042854
0.184727, -0.746098, 0.055526, 0.098139, -0.033500, -0.009763, -0.131211, -0.048069, -0.119784, -0.034350, -0.415020, 0.120494, 0.103741, 0.047869, -0.080219, 0.107539, -0.146209, -0.021504, 0.042369, 0.067400, 0.003585, -0.296634, -0.044566, -0.098215, 0.175671, 0.028531, 0.215048, 0.074977, -0.264402, 0.223950, 0.176500, 0.016888, 0.188796, -0.057528, 0.129842, 0.234990, 0.045325, -0.060025, -0.210565, 0.074126, -0.079536, 0.097993, 0.354150, 0.145904, 0.091948, 0.084655, 0.057111, 0.009012, -0.026703, -0.123680, 0.256135, -0.155166, 0.020880, -0.029189, 0.051444, -0.088312, 0.068980, -0.094000, -0.112166, -0.064135, 0.025814, -0.093521, -0.168001, 0.106793
0.216204, -0.707623, -0.003039, 0.173599, 0.074727, 0.045937, -0.228803, 0.008024, -0.037090, 0.037879, -0.286569, 0.089363, 0.109207, 0.065257, -0.185035, 0.072807, -0.136952, 0.110414, 0.032343, -0.092108, -0.243202, -0.351908, -0.145337, -0.016317, 0.092770, -0.020060, -0.038357, -0.052218, -0.193238, -0.033958, 0.030488, -0.132188, 0.222483, -0.146153, 0.115821, 0.155900, 0.029634, -0.104620, -0.174452, 0.107505, 0.023970, 0.268229, 0.257104, 0.087473, -0.044373, -0.065411, -0.000985, -0.014914, -0.108040, -0.004573, 0.122303, -0.100704, 0.071802, 0.168532, 0.022841, 0.036587, 0.013679, -0.100991, -0.074188, -0.044511, 0.101807, -0.020561, -0.253106, -0.063707
0.202965, -0.183953, -0.256959, 0.078040, 0.052820, -0.095267, -0.033124, -0.115960, 0.058881, 0.187817, -0.114891, -0.028426, 0.168720, 0.102608, 0.291120, -0.130403, 0.131568, -0.047149, -0.153339, 0.116245, -0.118809, -0.146114, -0.426212, -0.012401, 0.135721, -0.053427, 0.155788, -0.040337, -0.325211, -0.017026, 0.193060, -0.077519, 0.081000, -0.130292, 0.255916, 0.077057, 0.116770, 0.190578, -0.088266, 0.160952, 0.137327, 0.157235, 0.127425, -0.035920, 0.092556, -0.106176, 0.041127, -0.133786, -0.112768, 0.049373, 0.178355, 0.124246, 0.057302, -0.046170, -0.038258, 0.177739, -0.162915, 0.053655, -0.253373, 0.178750, 0.003459, -0.005578, 0.124442, -0.077848
0.236803, -0.210491, -0.191930, 0.045205, -0.025158, -0.022087, 0.011975, -0.117560, 0.341900, 0.255124, -0.045360, 0.138097, 0.000778, 0.122797, -0.155873, 0.069143, -0.075551, 0.334793, -0.036505, 0.049254, 0.223119, -0.084353, -0.560425, -0.069538, 0.118627, -0.023982, 0.094923, -0.046407, -0.129398, -0.060985, 0.109941, -0.076650, 0.159006, -0.088568, 0.156914, -0.176197, 0.207205, -0.055817, -0.285878, 0.051287, 0.122240, -0.102355, 0.152236, -0.040043, -0.124402, -0.099359, 0.016884, -0.049374, -0.241427, 0.247904, 0.051938, 0.060797, -0.008568, -0.093060, -0.064446, 0.153614, 0.046142, 0.134357, -0.363946, 0.214566, -0.223801, 0.055716, 0.224847, -0.181495
0.186067, -0.066340, -0.510027, 0.119904, 0.400328, -0.061940, -0.221513, -0.193995, 0.180314, 0.127934, -0.180599, 0.155905, -0.075307, 0.087552, -0.389107, 0.186208, -0.096833, 0.413950, 0.021056, 0.263440, 0.414570, -0.228423, -0.367860, -0.258507, -0.234743, 0.007410, -0.227763, -0.073031, -0.106323, 0.031782, -0.058947, -0.024745, -0.271092, 0.094408, -0.054285, 0.061341, 0.249993, 0.229648, -0.123296, 0.421510, 0.153413, 0.001553, 0.018610, -0.292318, -0.168465, -0.253817, 0.237598, -0.115720, -0.010627, -0.061358, 0.146646, 0.326943, -0.072714, 0.007116, 0.006846, 0.248930, -0.063230, 0.036033, -0.547618, 0.109475, -0.170895, 0.281825, 0.036434, 0.010649
0.096935, 0.148548, -0.543342, 0.093103, 0.552494, -0.164566, -0.362433, -0.083392, -0.154286, 0.074728, -0.070732, 0.302579, -0.027153, 0.120318, -0.067015, 0.148323, 0.011470, 0.060179, 0.079705, 0.161275, 0.314909, -0.197589, -0.408572, 0.090630, -0.301660, -0.071673, -0.174402, 0.225740, -0.163526, -0.120765, -0.438051, -0.085671, -0.136108, -0.050692, 0.261555, -0.209924, 0.327805, 0.483499, 0.182192, 0.488865, 0.312025, 0.274563, 0.114667, -0.143892, -0.504912, -0.240040, 0.059859, -0.255514, 0.010202, 0.302576, 0.014612, 0.116806, -0.121819, 0.089880, 0.159757, 0.220740, -0.326536, -0.028710, -0.336732, 0.085937, -0.312904, 0.197265, 0.049473, -0.346684
0.075654, 0.156939, -0.443803, 0.148733, 0.412482, -0.010003, -0.571856, -0.065008, 0.192522, 0.110974, 0.179288, 0.122808, 0.088830, 0.133587, -0.136932, 0.090986, 0.160121, -0.004528, 0.040949, -0.080053, 0.680462, 0.216418, -0.008981, -0.028652, -0.368760, -0.030199, -0.066566, 0.029851, 0.039126, -0.120685, -0.237829, -0.136872, -0.056427, 0.037079, 0.114920, -0.158046, 0.209389, 0.192123, 0.128944, 0.288841, 0.314786, 0.071060, 0.062324, 0.101675, -0.109985, -0.159983, -0.103451, -0.226051, -0.225002, 0.299439, -0.091505, -0.024082, 0.018759, 0.392939, 0.145615, 0.155265, -0.043012, -0.120924, -0.315124, -0.073250, -0.366066, 0.205581, 0.262070, -0.147401
0.071513, -0.004412, -0.158020, 0.308502, 0.295411, -0.110976, -0.249983, -0.173442, 0.037347, -0.346675, 0.288147, 0.166313, 0.293089, 0.373379, -0.312013, 0.214019, -0.091119, -0.358823, 0.169912, -0.200467, 0.389895, 0.139143, -0.120326, 0.145414, -0.089729, -0.192087, -0.155747, 0.223959, 0.118594, 0.095196, -0.211080, 0.217689, -0.291612, -0.112336, 0.378534, -0.019760, -0.008712, 0.307901, 0.246573, 0.283951, 0.159392, 0.078365, -0.379806, 0.170723, -0.024621, 0.064769, -0.010409, -0.037241, -0.235330, -0.187453, -0.097670, -0.323227, 0.201986, -0.181288, 0.049740, 0.178787, 0.241868, -0.380212, -0.152465, 0.125452, -0.086581, 0.117058, 0.403452, 0.164787
0.238523, -0.028883, 0.151929, -0.124495, 0.236338, 0.171086, -0.101793, 0.225713, -0.163526, -0.099620, -0.192973, 0.279333, -0.284055, -0.082322, -0.314407, -0.184756, 0.038375, -0.166462, -0.264396, 0.202163, -0.020746, 0.055206, -0.393469, 0.007764, -0.073894, 0.232472, 0.005650, -0.279423, 0.219320, -0.226550, 0.051402, 0.214658, -0.195887, -0.384063, 0.095180, -0.049159, -0.303470, -0.026946, 0.309931, 0.074793, -0.340529, 0.306261, -0.139156, 0.002149, 0.041217, -0.102821, 0.159322, 0.308363, -0.039729, -0.230325, -0.038211, 0.052318, 0.197380, 0.025876, 0.093638, 0.143548, 0.307261, -0.177795, -0.067201, -0.217728, 0.047784, 0.195275, -0.030441, 0.244431
-0.005379, -0.074655, -0.042114, 0.017617, -0.038688, 0.052320, -0.063763, -0.057504, -0.006175, 0.062473, -0.020866, -0.079183, 0.012764, -0.015684, -0.068757, 0.043449, -0.076091, -0.068306, -0.064171, 0.037469, 0.071211, 0.052067, -0.068350, 0.072821, 0.025322, -0.083548, -0.004508, 0.018773, 0.066790, -0.000058, -0.032560, 0.068028, 0.029517, -0.073150, -0.011028, -0.076961, -0.040056, 0.049002, -0.073961, -0.038197, 0.070676, -0.056344, 0.078329, 0.010850, 0.024071, -0.071595, 0.032359, 0.025501, 0.084078, 0.065984, -0.035415, 0.030682, -0.046183, 0.080145, 0.046718, 0.034134, 0.003297, 0.051966, 0.059347, -0.047375, -0.039887, 0.042424, -0.044493, -0.003097
-0.079478, -0.047379, 0.071103, -0.010272, 0.010212, 0.048542, 0.070840, -0.045949, 0.007165, 0.031461, -0.035444, 0.045931, 0.022724, 0.058301, -0.028315, 0.078802, -0.049550, 0.017578, -0.005848, 0.028593, -0.065411, 0.006997, 0.051034, -0.079343, 0.030259, -0.032060, 0.083951, -0.043324, -0.042759, 0.033773, 0.023373, 0.036950, 0.054753, -0.006218, -0.081472, -0.061358, -0.036463, -0.050953, 0.073787, -0.017706, -0.068147, -0.018363, -0.053758, 0.082608, -0.051839, 0.009543, -0.026760, -0.027024, 0.049853, 0.036957, 0.011344, -0.027807, 0.014796, 0.074956, 0.001472, 0.069153, 0.023833, -0.040422, -0.021852, 0.013455, 0.022937, 0.041118, -0.078135, 0.000240
-0.162057, 0.354051, -0.225985, 0.243720, -0.038735, 0.024816, 0.303120, 0.074675, 0.032353, 0.243411, -0.140786, -0.157948, 0.142689, 0.202125, -0.058854, -0.031160, 0.020761, 0.204426, -0.112369, 0.205392, 0.202562, 0.005377, 0.018954, -0.162615, 0.181374, 0.006908, -0.005444, -0.173108, -0.296077, 0.308299, -0.089327, -0.108052, 0.206461, 0.096618, -0.070283, 0.218756, 0.179610, -0.475206, -0.101766, -0.326503, -0.220799, -0.094555, 0.190181, -0.127377, -0.128755, 0.202746, 0.181492, 0.282503, 0.159358, -0.192256, -0.041341, 0.060440, -0.085875, 0.123729, 0.313152, -0.242288, 0.213254, -0.135954, 0.188666, -0.264080, 0.344471, -0.179100, -0.216200, 0.366289
-0.000572, 0.409824, -0.251475, -0.174495, -0.208430, -0.114124, -0.077076, -0.023250, -0.113009, -0.266487, -0.223220, -0.110941, 0.340536, 0.387317, -0.394355, 0.281278, 0.231706, -0.303779, 0.222652, -0.071592, 0.296107, -0.289100, -0.162950, -0.163089, 0.114337, -0.183390, -0.061976, 0.432316, -0.038429, 0.354615, -0.270186, -0.116300, -0.054566, 0.076940, 0.134557, -0.403187, -0.055859, 0.191412, -0.014466, 0.090693, -0.197435, -0.144146, -0.170599, 0.150480, -0.197193, -0.001339, -0.003272, -0.275576, 0.036110, 0.225848, -0.141842, -0.251618, 0.035236, -0.189277, 0.174734, -0.174807, 0.098611, 0.123676, 0.003543, -0.026440, -0.201788, 0.012054, 0.077509, 0.048437
0.301343, 0.550598, 0.066812, -0.188910, -0.368401, 0.295260, 0.104040, 0.366077, 0.022962, -0.096999, -0.202949, 0.041674, 0.052240, 0.191500, -0.023946, -0.096998, 0.155537, -0.125670, 0.061441, 0.261323, 0.493817, 0.050320, -0.079002, -0.203740, -0.358770, 0.014076, -0.368797, -0.177851, 0.047216, 0.454827, -0.356641, 0.047023, -0.122975, -0.004494, -0.112972, -0.009596, 0.100809, -0.140076, 0.104171, -0.145156, -0.044307, 0.250330, -0.231158, 0.033409, -0.169947, -0.118835, -0.125212, 0.137435, -0.138906, -0.154552, -0.158883, -0.262382, -0.041219, 0.148037, 0.117757, -0.042973, 0.486989, 0.307763, 0.113955, -0.247314, -0.019536, 0.325429, -0.248807, 0.412528
-0.062011, 0.362129, 0.177374, 0.067605, -0.387880, -0.102186, -0.030187, -0.019011, -0.156474, -0.020167, -0.041780, -0.536033, 0.088509, -0.098956, 0.260467, -0.327223, 0.320817, 0.313082, -0.072118, 0.344099, 0.453721, 0.429783, 0.045316, -0.117399, -0.003928, -0.142201, 0.182132, -0.380536, -0.023884, 0.362078, -0.320645, 0.009818, -0.157945, 0.283778, 0.162863, 0.113812, 0.010175, 0.238671, -0.222282, -0.134122, -0.117459, -0.095708, 0.122697, -0.066893, 0.338430, -0.244194, 0.369500, -0.202155, 0.025419, -0.357701, -0.170107, -0.145484, -0.202868, 0.379079, 0.141116, -0.170323, 0.329154, 0.060018, 0.344237, -0.459845, -0.027673, -0.004417, 0.105872, 0.012743
0.020602, 0.156419, 0.095373, -0.222345, -0.173068, -0.150984, 0.049972, -0.098237, -0.139693, -0.021430, 0.045968, -0.292501, 0.238592, 0.164568, 0.051244, 0.061603, -0.019478, 0.145092, 0.042823, -0.037590, 0.334431, 0.294625, -0.012121, -0.032517, -0.005858, 0.060089, -0.087539, -0.177218, -0.030426, 0.312476, -0.266461, 0.119649, -0.054411, 0.167817, 0.122262, 0.015101, 0.054954, 0.225608, -0.007966, -0.067849, -0.155064, 0.127654, 0.236698, -0.119966, 0.028276, -0.035380, 0.039885, -0.031292, 0.142060, -0.313775, -0.188149, -0.370836, -0.017704, 0.321888, 0.333660, -0.102798, 0.276898, -0.141306, 0.354291, -0.394054, -0.019156, -0.008777, 0.049345, 0.093813
0.074043, 0.122432, 0.046894, -0.121721, -0.193995, -0.355264, -0.026749, 0.068950, 0.068666, 0.094378, -0.104104, -0.004267, 0.225179, 0.195034, -0.046016, -0.026499, -0.239957, -0.031532, -0.136359, -0.050719, 0.017286, 0.171980, -0.298096, -0.188488, 0.042022, -0.040888, -0.196043, -0.020897, -0.062076, -0.001537, -0.369637, 0.066265, 0.049977, -0.039614, 0.290648, -0.222251, 0.085158, 0.222686, 0.071722, -0.290032, -0.257869, 0.154600, 0.274150, 0.050587, -0.265381, 0.034402, 0.102694, 0.067095, 0.198034, 0.059354, 0.094247, -0.597226, -0.042060, 0.020904, 0.205834, -0.020082, 0.018867, 0.136818, 0.201683, -0.344483, -0.144805, -0.106409, -0.049705, 0.188675
