0.0388583168387413, -0.0589483864605427, -0.0125174075365067, -0.0659073144197464, -0.0197646021842957, 0.0331663861870766, -0.0153824537992477, -0.0496650487184525, -0.0699321031570435, 0.0796874240040779, -0.0839563086628914, 0.0487166270613670, 0.0508539602160454, -0.0706519484519958, -0.0420062504708767, -0.0730365067720413, 0.0149466842412949, 0.0788797661662102, 0.0756128802895546, -0.0098484009504318, 0.0288769751787186, 0.0534799918532372, -0.0661376416683197, -0.0485830157995224, 0.0775230601429939, 0.0641267523169518, -0.0148879215121269, 0.0747213289141655, 0.0800716057419777, 0.0074476003646851, -0.0142449662089348, -0.0801719725131989, 0.0313585102558136, -0.0817797034978867, 0.0588800832629204, -0.0117832645773888, 0.0578579828143120, -0.0772839263081551, 0.0811747089028358, 0.0146110504865646, 0.0645165070891380, 0.0698907300829887, 0.0343170911073685, -0.0763348937034607, -0.0344418324530125, -0.0046856552362442, -0.0822348669171333, -0.0373345911502838, -0.0295424684882164, 0.0636887475848198, 0.0573751702904701, 0.0319936275482178, -0.0515554137527943, -0.0029992312192917, 0.0480082258582115, -0.0170912221074104, 0.0144023969769478, 0.0538353994488716, 0.0390853732824326, -0.0584802068769932, -0.0109430924057961, -0.0279932990670204, 0.0116184726357460, 0.0688995793461800
0.0357421636581421, -0.0364903472363949, -0.0109814703464508, 0.0783309116959572, -0.0531423687934875, -0.0001542195677757, 0.0016927048563957, 0.0258366689085960, 0.0079825446009636, -0.0450732074677944, -0.0253231860697269, -0.0317184925079346, -0.0092771351337433, -0.0578626208007336, 0.0108588561415672, -0.0728949606418610, 0.0447541400790215, 0.0792965218424797, -0.0489120744168758, 0.0051124021410942, -0.0050387606024742, 0.0391226336359978, -0.0737755224108696, 0.0316235125064850, 0.0165738463401794, 0.0806761905550957, 0.0277700051665306, 0.0359211713075638, -0.0471014678478241, -0.0339732505381107, 0.0808160379528999, 0.0259665995836258, 0.0243482217192650, 0.0771078392863274, -0.0735098198056221, -0.0587361678481102, 0.0415653511881828, 0.0528475865721703, 0.0702766850590706, -0.0364773906767368, -0.0547958463430405, 0.0709088370203972, 0.0122816413640976, -0.0230673253536224, 0.0766870900988579, -0.0166247263550758, 0.0335633531212807, 0.0645471736788750, 0.0126862302422523, 0.0434745475649834, -0.0218488946557045, 0.0089330375194550, 0.0750805214047432, -0.0090871825814247, -0.0685577094554901, -0.0419158264994621, 0.0291690677404404, -0.0469678044319153, 0.0229296684265137, 0.0704989954829216, -0.0228892974555492, 0.0601250007748604, -0.0018078610301018, 0.0250837728381157
0.0459268018603325, -0.0490356124937534, 0.0203587487339973, 0.0823862180113792, -0.0827412530779839, -0.0130240097641945, -0.0466659590601921, 0.0688162818551064, -0.0487329848110676, 0.0232223495841026, -0.0565239638090134, 0.0625855401158333, -0.0115617588162422, -0.0572295933961868, 0.0324888974428177, -0.0643423572182655, 0.0418074056506157, -0.0286013185977936, -0.0361456647515297, -0.0578586086630821, -0.0243076309561729, -0.0585429780185223, 0.0168746486306190, -0.0834925025701523, 0.0692827776074409, 0.0045409649610519, -0.0084043741226196, -0.0333157554268837, -0.0493947528302670, 0.0152480676770210, -0.0550949200987816, -0.0433031134307384, 0.0202978998422623, 0.0398869663476944, 0.0654691979289055, -0.0111668035387993, -0.0690408349037170, 0.0739292874932289, -0.0684148222208023, 0.0465432628989220, 0.0451690927147865, 0.0508131906390190, -0.0541838333010674, -0.0372298471629620, -0.0047460421919823, 0.0460484698414803, -0.0438296906650066, 0.0357643216848373, -0.0630940049886703, 0.0344570949673653, -0.0581505671143532, 0.0194787457585335, 0.0608374401926994, -0.0320873409509659, 0.0315960198640823, -0.0390325076878071, 0.0302343815565109, -0.0656480044126511, -0.0484729334712029, 0.0296104922890663, 0.0595853701233864, -0.0623691491782665, 0.0679010972380638, -0.0376008376479149
0.0077914595603943, 0.0807988271117210, -0.0755835846066475, -0.0056800171732903, -0.0015634298324585, -0.0784925296902657, -0.0822146162390709, -0.0517537556588650, -0.0057268217206001, 0.0647673532366753, -0.0681902319192886, -0.0465242303907871, -0.0811600089073181, 0.0143902003765106, -0.0395061224699020, 0.0787860527634621, 0.0776801928877831, 0.0798441395163536, -0.0182470753788948, -0.0573323518037796, -0.0050509944558144, 0.0200369656085968, 0.0823533758521080, 0.0540841445326805, 0.0357700809836388, -0.0431107282638550, 0.0073945596814156, -0.0469478890299797, -0.0226962305605412, 0.0159839764237404, 0.0412502214312553, 0.0190447568893433, -0.0372052602469921, -0.0130165517330170, -0.0626389235258102, -0.0527960024774075, -0.0350787490606308, -0.0120960399508476, -0.0459385514259338, -0.0035441368818283, 0.0012915879487991, -0.0072363018989563, -0.0021652132272720, 0.0054148659110069, 0.0118510499596596, 0.0557661876082420, 0.0282636135816574, -0.0820244103670120, -0.0035000964999199, 0.0288511589169502, -0.0043615102767944, 0.0128505602478981, -0.0426578298211098, 0.0444069728255272, -0.0714336037635803, -0.0091310963034630, 0.0391776636242867, 0.0591162368655205, -0.0733032971620560, 0.0617453232407570, 0.0156310498714447, 0.0372626557946205, -0.0274523198604584, -0.0238727219402790
-0.0391502305865288, 0.0432444736361504, -0.0158784911036491, -0.0078014880418777, 0.0207656770944595, -0.0473399013280869, 0.0279216244816780, -0.0118343010544777, 0.0264604687690735, -0.0341389849781990, -0.0453845188021660, -0.0090956836938858, -0.0692445486783981, 0.0409787222743034, -0.0154493600130081, -0.0298378765583038, -0.0428031273186207, -0.0134361758828163, -0.0196219757199287, 0.0512294843792915, 0.0566763952374458, 0.0816576108336449, 0.0464935824275017, -0.0626883581280708, 0.0711480304598808, 0.0396754220128059, 0.0611719563603401, -0.0079559311270714, -0.0688561499118805, 0.0175862759351730, -0.0139526054263115, 0.0693001225590706, -0.0025636032223701, 0.0082066133618355, -0.0743955373764038, -0.0230739600956440, -0.0672654062509537, 0.0838285163044930, 0.0667310878634453, 0.0764835253357887, -0.0075001046061516, -0.0266437307000160, -0.0723309814929962, 0.0605781152844429, 0.0724960938096046, -0.0313246957957745, -0.0812479928135872, -0.0500624366104603, -0.0307005941867828, 0.0378274172544479, -0.0561580844223499, -0.0171463489532471, 0.0467135235667229, -0.0668941289186478, -0.0788566023111343, 0.0048841387033463, -0.0394929274916649, -0.0378150828182697, 0.0277553498744965, -0.0722067207098007, -0.0390203148126602, 0.0582370385527611, 0.0497448667883873, 0.0387237295508385
-0.0447876080870628, 0.0834077075123787, 0.0016405582427979, -0.0076262280344963, -0.0525404028594494, 0.0167752951383591, 0.0434193983674049, -0.0162416994571686, 0.0384457036852837, -0.0062570124864578, 0.0297454819083214, -0.0032724589109421, -0.0380415841937065, 0.0301341041922569, -0.0752100199460983, -0.0485648661851883, 0.0709737315773964, 0.0556002631783485, -0.0588493943214417, 0.0457459315657616, 0.0661824271082878, -0.0758736357092857, -0.0214267596602440, 0.0742638334631920, 0.0204413905739784, 0.0472749993205070, -0.0233031287789345, -0.0255428068339825, 0.0839924886822701, -0.0185773968696594, 0.0110577791929245, -0.0633395761251450, 0.0697016492486000, -0.0818092674016953, -0.0288674458861351, -0.0112990438938141, -0.0207526609301567, 0.0452042892575264, 0.0584622249007225, 0.0339258834719658, 0.0049959272146225, 0.0460784509778023, 0.0255184993147850, 0.0515586659312248, 0.0215874388813972, 0.0029620528221130, -0.0129014551639557, -0.0344194099307060, 0.0530428811907768, -0.0158708915114403, 0.0491827949881554, -0.0315087996423244, -0.0564083084464073, 0.0395989343523979, 0.0492613539099693, 0.0073073357343674, 0.0411186888813972, -0.0116084441542625, 0.0210811421275139, 0.0274660363793373, -0.0188180953264236, -0.0533777512609959, -0.0207481458783150, 0.0261569023132324
0.0686720684170723, 0.0519438758492470, 0.0644742026925087, 0.0206408947706223, 0.0240140110254288, 0.0766165181994438, 0.0142861232161522, -0.0286654941737652, -0.0722162052989006, -0.0016525909304619, -0.0058290809392929, -0.0439996346831322, 0.0296462550759315, -0.0721499845385551, 0.0189745426177979, -0.0334934219717979, -0.0146292969584465, 0.0143792331218719, -0.0487660765647888, 0.0634162351489067, 0.0253878831863403, -0.0704842731356621, -0.0721681341528893, -0.0154822096228600, 0.0185638219118118, 0.0016786828637123, 0.0601705238223076, -0.0641179233789444, -0.0315479673445225, -0.0242640711367130, -0.0081440210342407, -0.0582707747817039, 0.0659151300787926, 0.0466052964329720, 0.0287979394197464, -0.0432613790035248, -0.0036132484674454, -0.0113208815455437, -0.0247319117188454, -0.0133928209543228, -0.0244708582758904, -0.0338800549507141, -0.0555105581879616, -0.0706671923398972, -0.0583448782563210, 0.0291345939040184, -0.0721785575151443, 0.0454840734601021, -0.0364021658897400, -0.0257769040763378, -0.0149858891963959, 0.0369533523917198, 0.0739351138472557, 0.0544014647603035, 0.0047568753361702, 0.0263517946004868, 0.0086881890892982, 0.0197369083762169, -0.0408407300710678, -0.0413177907466888, 0.0090673491358757, -0.0323064997792244, 0.0073953196406364, 0.0576974228024483
0.0243649259209633, -0.0794877856969833, 0.0062673985958099, -0.0025061666965485, 0.0477152839303017, 0.0391477048397064, 0.0110231488943100, -0.0825849249958992, -0.0439073257148266, 0.0631735995411873, 0.0025714859366417, -0.0100121051073074, 0.0719257518649101, -0.0296885296702385, 0.0257802158594131, -0.0303337089717388, 0.0307244583964348, 0.0753265395760536, 0.0634948089718819, 0.0398055836558342, 0.0432209447026253, 0.0577690675854683, -0.0648941695690155, -0.0420462004840374, 0.0685954615473747, -0.0262741036713123, 0.0742048397660255, 0.0532352253794670, 0.0732247754931450, -0.0336707048118114, -0.0115676149725914, -0.0710122138261795, -0.0408054329454899, 0.0753747299313545, -0.0563377365469933, -0.0820272639393806, -0.0778922885656357, 0.0228308364748955, -0.0317041724920273, -0.0797821059823036, 0.0381565392017365, 0.0258047431707382, 0.0123655572533607, 0.0169681683182716, -0.0059737563133240, 0.0147891938686371, 0.0234579518437386, 0.0496310815215111, 0.0164617598056793, 0.0166034698486328, -0.0718744322657585, 0.0557542070746422, -0.0628656446933746, 0.0077378749847412, -0.0705672577023506, -0.0095870643854141, -0.0320146419107914, 0.0827773734927177, -0.0676017180085182, -0.0513035841286182, 0.0535790547728539, -0.0360004492104053, 0.0833563730120659, -0.0173563063144684
0.0799933597445488, 0.0170844048261642, 0.0446861460804939, -0.0775805935263634, -0.0582363605499268, 0.0796417668461800, 0.0500497147440910, 0.0821195915341377, 0.0026175901293755, -0.0432417243719101, -0.0443715117871761, -0.0112812295556068, 0.0058130994439125, 0.0715953633189201, 0.0051259994506836, -0.0768243074417114, -0.0045668706297874, -0.0764099359512329, -0.0067301616072655, -0.0188611522316933, 0.0647217109799385, -0.0737520977854729, 0.0328812450170517, -0.0586859881877899, 0.0243504270911217, 0.0409700646996498, -0.0522572100162506, -0.0106459408998489, 0.0696126744151115, 0.0809674635529518, -0.0829458683729172, 0.0628297105431557, 0.0193725749850273, -0.0667465031147003, 0.0339768826961517, -0.0807877928018570, -0.0690829902887344, -0.0275209285318851, 0.0813808366656303, 0.0649974718689919, -0.0796902775764465, -0.0537731125950813, 0.0377111583948135, -0.0373026430606842, 0.0565968677401543, -0.0276131406426430, -0.0304280668497086, -0.0628542900085449, 0.0752662792801857, 0.0719681307673454, 0.0736920312047005, -0.0764457136392593, -0.0714054703712463, 0.0403190255165100, 0.0493840798735619, 0.0089404582977295, 0.0760778710246086, -0.0239393264055252, 0.0457121208310127, 0.0604533031582832, 0.0422281846404076, 0.0724639222025871, -0.0129607990384102, 0.0558677539229393
0.0496439114212990, -0.0002525523304939, -0.0311452671885490, 0.0217628180980682, 0.0497495010495186, -0.0527070201933384, -0.0744512528181076, -0.0160699114203453, -0.0510191693902016, 0.0351248756051064, -0.0652580186724663, -0.0686632990837097, 0.0411725714802742, -0.0107722207903862, -0.0636615976691246, -0.0483476333320141, 0.0426932945847511, -0.0206863805651665, 0.0381909087300301, -0.0222990065813065, 0.0519021674990654, 0.0658557191491127, 0.0761134847998619, 0.0163910910487175, -0.0381971076130867, -0.0070682242512703, 0.0830463394522667, 0.0001208707690239, 0.0297930315136909, -0.0571180880069733, -0.0293111763894558, -0.0350053086876869, -0.0003048330545425, -0.0716223418712616, -0.0431200936436653, -0.0714618265628815, -0.0399059168994427, 0.0736735835671425, -0.0152149349451065, -0.0571322850883007, 0.0616863295435905, 0.0273448452353477, -0.0797114521265030, 0.0580310001969337, 0.0262095481157303, 0.0266131684184074, 0.0507100597023964, 0.0380822718143463, 0.0742754712700844, 0.0543664321303368, -0.0836604386568069, -0.0645875260233879, 0.0578091368079185, -0.0776666924357414, 0.0601503476500511, -0.0126761794090271, -0.0626519992947578, 0.0336155518889427, -0.0267952866852283, -0.0752115473151207, -0.0748360008001328, 0.0344372168183327, 0.0391857251524925, 0.0457379296422005
-0.0738956704735756, 0.0530448779463768, 0.0776097103953362, -0.0329010412096977, -0.0221583396196365, -0.0220641829073429, 0.0585465654730797, -0.0126371383666992, 0.0017801225185394, -0.0362172611057758, -0.0814747959375381, 0.0797960534691811, -0.0592378154397011, 0.0807053074240685, 0.0484693869948387, 0.0456326529383659, 0.0502619072794914, 0.0387910306453705, -0.0449934899806976, 0.0330269634723663, 0.0312789306044579, -0.0249497033655643, -0.0276175923645496, -0.0372641794383526, 0.0229220837354660, 0.0482160970568657, 0.0125682055950165, -0.0557761192321777, 0.0357987135648727, -0.0094580724835396, 0.0306443199515343, -0.0427763536572456, -0.0633061081171036, -0.0798864364624023, 0.0517320707440376, 0.0439450219273567, 0.0732826963067055, -0.0183709934353828, 0.0201612040400505, 0.0507247820496559, -0.0837816521525383, -0.0334963276982307, -0.0557766631245613, 0.0664493516087532, -0.0661466047167778, -0.0568202510476112, 0.0753990784287453, -0.0381673276424408, -0.0822561830282211, 0.0758417323231697, 0.0582273826003075, -0.0436081252992153, 0.0211670920252800, 0.0272112414240837, -0.0546401962637901, 0.0150977373123169, 0.0112613365054131, 0.0043717771768570, -0.0531980395317078, -0.0005395933985710, 0.0706191584467888, -0.0015231221914291, 0.0838098451495171, 0.0070988088846207
-0.0423596575856209, -0.0729552432894707, -0.0491363257169724, 0.0605425015091896, 0.0178621038794518, -0.0063740313053131, -0.0413395725190639, -0.0181811973452568, -0.0621547847986221, 0.0181546285748482, -0.0091289728879929, -0.0355700105428696, 0.0393736585974693, 0.0534864887595177, -0.0663911923766136, 0.0057451352477074, -0.0794497206807137, -0.0131619274616241, 0.0422424152493477, -0.0178097039461136, -0.0160060375928879, -0.0482545793056488, 0.0433850213885307, -0.0459029562771320, -0.0574472062289715, 0.0234339013695717, 0.0371799096465111, 0.0242124944925308, 0.0060457736253738, 0.0652437731623650, -0.0624283924698830, -0.0112670511007309, -0.0373000577092171, 0.0836279317736626, 0.0252947509288788, 0.0536859706044197, 0.0494322106242180, 0.0330552831292152, -0.0361921712756157, 0.0369566977024078, -0.0347279310226440, 0.0084137842059135, 0.0042316168546677, 0.0432337000966072, 0.0101858973503113, -0.0038396641612053, -0.0019439905881882, 0.0610743090510368, 0.0535535141825676, -0.0588681660592556, 0.0758187994360924, -0.0010573863983154, 0.0221149250864983, 0.0176497697830200, 0.0579461529850960, -0.0480030290782452, -0.0096897259354591, -0.0429803915321827, 0.0689784064888954, -0.0496154762804508, 0.0016993582248688, 0.0775022879242897, -0.0406639464199543, -0.0339590534567833
-0.0265276916325092, 0.0493071042001247, -0.0348513610661030, 0.0193769261240959, 0.0853952988982201, -0.0131795899942517, -0.0862955302000046, -0.0629220902919769, 0.0101402867585421, 0.0542818941175938, -0.0503828898072243, 0.1376593858003616, -0.1173062920570374, 0.0782998576760292, -0.0531845577061176, 0.0343920998275280, -0.0924839451909065, 0.0581512935459614, 0.0560797937214375, 0.0150961168110371, 0.0597144737839699, -0.0458227470517159, 0.0119456136599183, 0.0023507773876190, 0.0551844164729118, 0.0516426600515842, 0.0198150202631950, 0.0176926758140326, 0.0015868886839598, -0.0578772164881229, -0.0333894565701485, 0.0340544283390045, -0.0078176930546761, 0.0649170204997063, 0.0338126234710217, -0.0435618646442890, 0.0077768191695213, 0.1021223738789558, -0.0110323550179601, 0.0049713137559593, 0.0576689653098583, -0.0212171077728271, 0.0029027021955699, 0.0819453522562981, -0.0544271059334278, 0.0098013551905751, 0.0652583986520767, 0.0894165560603142, -0.0387177020311356, 0.0017849536379799, 0.0183043293654919, 0.1036771908402443, 0.0566302575170994, 0.0370127223432064, -0.0394966416060925, -0.0312037542462349, 0.0914961472153664, 0.0164755210280418, 0.0032906571868807, -0.0009613698930480, -0.0481046363711357, 0.0296092163771391, -0.0991048738360405, -0.0676873102784157
0.0518517196178436, 0.0091994144022465, 0.0397760197520256, 0.0704039111733437, -0.0110914558172226, 0.0308689642697573, 0.0501428060233593, -0.0075088082812726, -0.0433000139892101, -0.0260415673255920, -0.0073233842849731, -0.0018011425854638, -0.0769067704677582, -0.0192616097629070, 0.0699994191527367, 0.0032040127553046, -0.1695555448532104, -0.0255688745528460, 0.0663817673921585, -0.0901605561375618, 0.0532892979681492, -0.0074548246338964, 0.1028607636690140, 0.0447113141417503, -0.0263703539967537, 0.0357627272605896, -0.0765312090516090, -0.0721221938729286, -0.0219129845499992, -0.1266768127679825, 0.0421149954199791, 0.0751027092337608, -0.0629992112517357, 0.1517365872859955, 0.0349498242139816, -0.0701637789607048, -0.0546491816639900, 0.1393593400716782, -0.0049613281153142, -0.0800153091549873, -0.0461920164525509, 0.0712264850735664, 0.0978242978453636, 0.0501218363642693, 0.0256773922592402, 0.0656049177050591, 0.1176179498434067, 0.1130209267139435, 0.0328606292605400, -0.0192727800458670, 0.1395250260829926, 0.2298579812049866, 0.0495881885290146, 0.0142682297155261, -0.0957277044653893, 0.1308237165212631, 0.0587616115808487, -0.0710847973823547, -0.0954693257808685, -0.1691839247941971, -0.0797139182686806, -0.1043545305728912, 0.0471974872052670, 0.0172317065298557
0.0340416692197323, -0.0131616666913033, 0.0465494692325592, 0.0443976595997810, -0.0013844459317625, 0.1838942766189575, 0.0312333591282368, -0.1664247214794159, -0.0285109318792820, -0.0768710598349571, 0.0778547301888466, -0.0184070765972137, 0.0945752188563347, -0.0899808183312416, 0.1207792758941650, 0.0002311800199095, -0.0457123443484306, -0.0230278987437487, 0.0650526657700539, 0.0067645972594619, 0.1810769438743591, -0.0329254604876041, 0.0720262601971626, 0.0190934911370277, 0.1610995233058929, -0.0225519947707653, 0.0098973959684372, -0.0033389776945114, 0.0939256474375725, -0.0391723401844501, 0.0437173470854759, -0.1163170114159584, 0.0751391723752022, 0.0749075487256050, 0.0234840698540211, -0.0749414563179016, -0.0085747987031937, -0.0687673389911652, 0.0594850629568100, 0.0229580253362656, -0.0652320310473442, -0.0464110635221004, -0.0172861516475677, -0.0428314246237278, 0.0186138637363911, 0.1091657057404518, 0.1739628762006760, 0.2030340582132339, -0.1770825684070587, 0.1115808933973312, 0.0716848447918892, 0.1833364963531494, 0.0838459059596062, 0.0093704713508487, 0.1005815267562866, -0.0202690083533525, 0.1341532766819000, -0.0116633176803589, -0.1576469689607620, -0.1138879656791687, 0.0575688555836678, -0.1582298278808594, 0.0391733348369598, 0.1145157516002655
-0.0445971302688122, 0.0758745148777962, -0.0420240126550198, -0.0631217658519745, 0.0119647663086653, -0.0470459833741188, -0.0520304217934608, 0.0018525335472077, -0.0075546130537987, -0.1109316572546959, -0.0339236371219158, 0.0740304365754128, 0.0680180117487907, -0.0796001926064491, 0.0765687897801399, -0.0346672758460045, -0.0273797512054443, -0.0451239272952080, 0.0056088790297508, -0.0209619924426079, 0.0524611696600914, 0.0514164455235004, 0.0774905011057854, 0.0164543017745018, 0.0800952538847923, -0.0404232889413834, -0.0358170866966248, 0.0235234126448631, -0.0325470790266991, -0.0160584803670645, 0.0486613437533379, -0.0374476201832294, 0.0478735342621803, -0.0054525509476662, 0.0397554971277714, -0.0861477628350258, 0.0259297415614128, 0.0538699068129063, 0.0494804456830025, -0.0719842314720154, -0.0172895044088364, 0.0099170431494713, 0.0001403614878654, 0.0562716946005821, 0.0133304381743073, 0.1025226116180420, 0.1141481250524521, -0.0424973405897617, -0.1018405109643936, 0.0885914638638496, -0.0414373911917210, 0.0652156919240952, -0.0388295613229275, 0.0683419108390808, 0.0193765386939049, 0.0363412126898766, 0.0651178359985352, 0.0700437352061272, -0.0447579286992550, 0.0578630492091179, 0.0824908837676048, 0.0491564683616161, -0.0667616426944733, 0.0963216200470924
0.0740914717316628, 0.0288566946983337, 0.0778106227517128, 0.0104119777679443, -0.0445853956043720, 0.0352274402976036, 0.0447739139199257, 0.0637190118432045, 0.0452148988842964, 0.0447100773453712, 0.0601439103484154, -0.0452105440199375, 0.0353818982839584, 0.0083096772432327, -0.0297843515872955, -0.0123582929372787, 0.0016318783164024, 0.0672457739710808, 0.0392261967062950, -0.0764670372009277, 0.0715580657124519, 0.0032816231250763, -0.0762373879551888, -0.0183577388525009, -0.0756799280643463, -0.0005022883415222, 0.0032036080956459, 0.0681968256831169, -0.0682495683431625, -0.0550002604722977, -0.0797188952565193, -0.0040937215089798, -0.0357539765536785, -0.0756262987852097, 0.0305042788386345, 0.0329345539212227, -0.0108873546123505, 0.0154269784688950, -0.0265322066843510, -0.0017673447728157, -0.0339950919151306, 0.0059364512562752, -0.0568154603242874, 0.0209043547511101, -0.0810790881514549, -0.0484219938516617, -0.0402597412467003, -0.0578812286257744, -0.0820270031690598, -0.0443556495010853, -0.0408945158123970, 0.0546864494681358, 0.0738438889384270, 0.0005999356508255, 0.0530648902058601, 0.0622271224856377, 0.0140440762042999, -0.0208471193909645, 0.0840074047446251, -0.0579416379332542, 0.0363856405019760, 0.0374627187848091, 0.0412393435835838, -0.0415648669004440
0.0308664888143539, -0.0067928358912468, 0.0103360936045647, 0.0766304358839989, -0.0108809024095535, 0.0209386274218559, 0.0275777205824852, -0.0430351831018925, 0.0374745130538940, 0.0741037651896477, 0.0629920139908791, -0.0127859041094780, 0.0789658203721046, 0.0094569474458694, 0.0816090330481529, 0.0493875071406364, -0.0199287682771683, 0.0368615388870239, -0.0345483608543873, 0.0118467137217522, 0.0518189296126366, -0.0247481763362885, 0.0774354860186577, 0.0141319781541824, -0.0552150309085846, -0.0430758334696293, -0.0428844504058361, -0.0219649337232113, -0.0490871109068394, -0.0749242380261421, -0.0708212107419968, 0.0817441865801811, 0.0160021483898163, 0.0795539692044258, -0.0060013905167580, -0.0432526953518391, -0.0041401311755180, -0.0181374996900558, -0.0583732575178146, -0.0483291409909725, -0.0725164264440536, -0.0454948619008064, -0.0537531152367592, -0.0384642966091633, 0.0159363076090813, 0.0503123924136162, -0.0288154035806656, -0.0778602212667465, 0.0605663433670998, 0.0112047418951988, -0.0402556918561459, -0.0632872581481934, -0.0115228146314621, 0.0140721350908279, 0.0202976167201996, 0.0343456268310547, 0.0211793854832649, 0.0344654172658920, 0.0722561702132225, 0.0609073415398598, 0.0392976552248001, 0.0630191788077354, -0.0616945661604404, -0.0007526949048042
-0.0112726911902428, -0.0603138953447342, -0.0342891924083233, -0.0728266090154648, 0.0532987490296364, 0.0393209159374237, -0.0010241344571114, 0.0724399015307426, -0.0425208769738674, -0.0259949192404747, -0.0457682460546494, -0.0139941647648811, -0.0707262977957726, -0.0372786410152912, 0.0192188322544098, 0.0001889392733574, -0.0504263304173946, -0.0213423147797585, -0.0395286865532398, -0.0033470392227173, -0.0405104868113995, -0.0327430106699467, -0.0632250085473061, 0.0363237336277962, 0.0556728020310402, -0.0456100963056087, 0.0592718049883842, 0.0558587834239006, 0.0544813498854637, 0.0178700089454651, 0.0498399510979652, -0.0403162166476250, -0.0223269425332546, -0.0583234578371048, 0.0423092022538185, -0.0750290676951408, 0.0463264063000679, 0.0290671288967133, 0.0816579386591911, -0.0632976666092873, 0.0408325046300888, 0.0715120360255241, 0.0092565044760704, 0.0617007091641426, -0.0306809991598129, -0.0635522007942200, -0.0100383758544922, 0.0220842808485031, 0.0622119233012199, -0.0769445598125458, -0.0064834877848625, -0.0089983791112900, 0.0699300989508629, 0.0698577687144279, 0.0072890669107437, -0.0640871599316597, -0.0167816132307053, -0.0702201500535011, 0.0606394037604332, 0.0239266902208328, 0.0742390677332878, 0.0023447051644325, -0.0681776553392410, -0.0114969015121460
0.0790832415223122, -0.0018822774291039, 0.0339724868535995, 0.0608756467700005, 0.0492584183812141, -0.0319508463144302, 0.0661760047078133, 0.0154329314827919, -0.0770394578576088, 0.0604987069964409, 0.0261947065591812, -0.0543149709701538, 0.0180954858660698, -0.0203052610158920, 0.0770272836089134, 0.0085643082857132, -0.0795514807105064, -0.0246259197592735, -0.0711232200264931, -0.0390000194311142, 0.0001334249973297, 0.0705601647496223, 0.0041525810956955, -0.0357167534530163, 0.0428600981831551, 0.0507595017552376, 0.0325548797845840, 0.0737610235810280, -0.0782455950975418, 0.0501251742243767, 0.0729104653000832, 0.0511623844504356, 0.0232302471995354, 0.0034664496779442, 0.0339996814727783, 0.0399373620748520, -0.0118971541523933, 0.0246340632438660, -0.0164101794362068, 0.0667215809226036, -0.0717165619134903, -0.0290896333754063, 0.0759536698460579, 0.0610281601548195, -0.0265056341886520, 0.0643830075860023, 0.0432369187474251, -0.0051780194044113, 0.0135741755366325, 0.0404956638813019, -0.0494119599461555, 0.0069106519222260, 0.0767879262566566, -0.0010897591710091, 0.0233182907104492, -0.0690094456076622, 0.0808396562933922, 0.0216637477278709, 0.0221544727683067, -0.0339013151824474, 0.0817466899752617, -0.0045093372464180, 0.0304010361433029, 0.0310741513967514
0.0227644145488739, 0.0049160495400429, -0.0340620540082455, 0.0270872041583061, -0.0463517419993877, -0.0615966767072678, -0.0738912001252174, 0.0617434605956078, -0.0819884762167931, -0.0774178951978683, 0.0401743650436401, -0.0614606067538261, 0.0151278376579285, 0.0315208509564400, -0.0088762417435646, 0.0019210278987885, 0.0827708765864372, 0.0533017292618752, 0.0569333061575890, 0.0258477777242661, 0.0533950999379158, 0.0795411244034767, -0.0543681979179382, 0.0124564990401268, 0.0048333406448364, -0.0041325464844704, -0.0247693508863449, 0.0123559087514877, 0.0746928527951241, 0.0757367238402367, -0.0138342455029488, -0.0446987859904766, 0.0327924489974976, 0.0375484153628349, -0.0634716600179672, 0.0697035863995552, 0.0628440901637077, -0.0335540659725666, 0.0754767283797264, -0.0206066220998764, 0.0043772533535957, 0.0578128471970558, 0.0488827303051949, -0.0095727667212486, -0.0206605717539787, -0.0508581101894379, 0.0395356640219688, -0.0166984722018242, 0.0231755226850510, -0.0563662350177765, -0.0508716441690922, 0.0249918773770332, -0.0645508915185928, -0.0582315102219582, 0.0140506550669670, 0.0357446670532227, -0.0823987945914268, 0.0329963043332100, 0.0183278173208237, 0.0833484902977943, 0.0558868870139122, -0.0468566194176674, 0.0414025261998177, -0.0456669516861439
0.0582037344574928, -0.0392088294029236, 0.0595922395586967, -0.0656225979328156, -0.0338666997849941, -0.0177813470363617, -0.0501400269567966, 0.0361243635416031, 0.0819603726267815, -0.0644449740648270, -0.0020520016551018, 0.0460681840777397, -0.0105123892426491, 0.0206753537058830, 0.0648796185851097, -0.0047599002718925, -0.0032641142606735, -0.0761074349284172, 0.0286976248025894, -0.0493062511086464, 0.0059054493904114, 0.0176563858985901, 0.0724598094820976, 0.0723831728100777, 0.0055363997817039, -0.0646537914872169, 0.0295100584626198, -0.0582627952098846, 0.0240515694022179, -0.0459082275629044, -0.0423746183514595, -0.0784553661942482, 0.0102868154644966, 0.0433569028973579, -0.0058673471212387, -0.0311250723898411, 0.0610956475138664, -0.0820830166339874, 0.0316030383110046, -0.0367610864341259, -0.0635462999343872, -0.0610638633370399, -0.0248690247535706, -0.0604104399681091, -0.0742099285125732, -0.0627456605434418, -0.0457190312445164, 0.0179524570703506, -0.0168015062808990, -0.0752945691347122, 0.0015835687518120, 0.0735290125012398, -0.0824859365820885, -0.0629587173461914, 0.0417394414544106, -0.0174169912934303, 0.0182450711727142, 0.0160211175680161, -0.0777505412697792, 0.0262512192130089, 0.0121719837188721, -0.0820055231451988, 0.0662221536040306, -0.0703395977616310
-0.0229561999440193, -0.0602860376238823, -0.0258707813918591, 0.0413333699107170, -0.0601588934659958, 0.0090397894382477, 0.0454507842659950, 0.0407635197043419, 0.0257249847054482, 0.0287657305598259, -0.0432614795863628, 0.0144078284502029, -0.0520659461617470, 0.0379139557480812, -0.0088680386543274, 0.0630881711840630, -0.0119091644883156, 0.0720413848757744, 0.0373211354017258, 0.0503795370459557, 0.0027150958776474, -0.0003081634640694, 0.0042003691196442, 0.0754346773028374, -0.0459998399019241, 0.0473141148686409, 0.0741665884852409, 0.0331445112824440, 0.0372049361467361, 0.0479913577437401, -0.0330085158348083, -0.0378526262938976, 0.0783298686146736, -0.0081617087125778, -0.0495128929615021, 0.0741799548268318, 0.0093784332275391, -0.0520560406148434, 0.0498001649975777, -0.0213787332177162, 0.0542472675442696, -0.0435407646000385, -0.0687063187360764, -0.0190282315015793, -0.0446739979088306, -0.0802968144416809, -0.0796719714999199, 0.0362159162759781, -0.0546176582574844, 0.0307476595044136, -0.0326404124498367, -0.0574882179498672, -0.0246734917163849, -0.0141927078366280, 0.0022188425064087, 0.0238914936780930, -0.0143166854977608, 0.0671943947672844, 0.0676018968224525, -0.0226009301841259, 0.0112545564770699, 0.0623435601592064, 0.0283549427986145, -0.0181581526994705
0.0719283148646355, -0.0773888155817986, 0.0057165324687958, -0.0639449730515480, 0.0642154589295387, -0.0714942291378975, 0.0622424408793449, 0.0785856023430824, 0.0647811368107796, -0.0256484150886536, -0.0378043167293072, 0.0280512943863869, 0.0767299458384514, -0.0198296979069710, 0.0069793835282326, -0.0250478722155094, -0.0607749745249748, 0.0635327026247978, 0.0252614766359329, 0.0051974579691887, -0.0264477171003819, 0.0061105489730835, 0.0478745326399803, 0.0513910427689552, 0.0021367594599724, 0.0442581847310066, 0.0006705746054649, 0.0336015149950981, 0.0662975385785103, 0.0782803073525429, -0.0071450546383858, -0.0788759738206863, 0.0287988781929016, 0.0303720980882645, 0.0148540884256363, -0.0640895888209343, 0.0481660291552544, -0.0163219794631004, -0.0208600535988808, -0.0130504667758942, -0.0305799022316933, -0.0025985538959503, 0.0822860077023506, 0.0615706518292427, -0.0070744007825851, 0.0705536678433418, 0.0605590716004372, -0.0605580210685730, -0.0519695840775967, 0.0343204811215401, -0.0498257279396057, 0.0144964754581451, 0.0613141283392906, 0.0748718902468681, -0.0149722099304199, -0.0646326094865799, -0.0094009339809418, -0.0277191475033760, -0.0411448404192924, 0.0413921549916267, 0.0122601464390755, -0.0061868205666542, -0.0345943085849285, -0.0146017000079155
-0.0466795973479748, -0.0043157488107681, 0.0270898267626762, -0.0636523514986038, -0.0462357029318810, -0.0770667940378189, 0.0514070466160774, 0.0081949606537819, -0.0412760786712170, 0.0815762355923653, 0.0389609113335609, -0.0263474620878696, 0.0686881616711617, 0.0606499388813972, -0.0048839971423149, -0.0706538408994675, 0.0570056363940239, -0.0827842280268669, -0.0320709943771362, 0.0622714981436729, -0.0243846215307713, 0.0192730426788330, -0.0333699621260166, 0.0059556663036346, -0.0311179943382740, -0.0755269229412079, 0.0216888561844826, 0.0375288203358650, -0.0394971594214439, -0.0820914953947067, 0.0604690387845039, 0.0280258283019066, 0.0008819699287415, 0.0023840293288231, 0.0565284118056297, 0.0009274706244469, 0.0183322504162788, 0.0339765995740891, -0.0720399618148804, 0.0093213394284248, -0.0035227611660957, 0.0645780190825462, 0.0417462661862373, -0.0277271904051304, 0.0812678411602974, -0.0163281559944153, 0.0059975013136864, -0.0583988055586815, -0.0744467154145241, -0.0004352256655693, -0.0518411323428154, -0.0082082822918892, -0.0530524402856827, -0.0055433809757233, -0.0528421476483345, -0.0573763698339462, -0.0362377576529980, -0.0554600805044174, -0.0358603261411190, -0.0238679312169552, 0.0215501785278320, 0.0335170477628708, -0.0813570916652679, -0.0496118664741516
-0.0118594318628311, 0.0140529051423073, -0.0511742942035198, -0.0371639467775822, 0.0696915909647942, 0.0282098501920700, 0.0458265021443367, -0.0204814225435257, 0.0140250250697136, -0.0682959780097008, -0.0371485427021980, -0.0257033854722977, 0.0620547458529472, -0.0812938362360001, -0.0704599097371101, -0.0236939936876297, 0.0641433373093605, -0.0343597680330276, -0.0815742462873459, 0.0720822140574455, 0.0233285948634148, -0.0449825823307037, 0.0157080441713333, -0.0249407589435577, 0.0251235812902451, 0.0295135080814362, -0.0115462541580200, 0.0578959360718727, -0.0628235489130020, -0.0375720411539078, 0.0545650199055672, 0.0692596361041069, 0.0818914249539375, 0.0831512436270714, -0.0803056806325912, -0.0769194290041924, 0.0835680440068245, -0.0271876975893974, 0.0659459754824638, 0.0323174521327019, -0.0533809997141361, -0.0296785607933998, -0.0287954285740852, -0.0473988614976406, -0.0611902698874474, -0.0710645020008087, 0.0019300132989883, 0.0523952320218086, -0.0525174997746944, 0.0258813723921776, -0.0137108266353607, -0.0415735691785812, 0.0233999714255333, -0.0154166668653488, -0.0120043680071831, 0.0667539313435555, 0.0322942659258842, 0.0728540197014809, -0.0076848864555359, -0.0067211762070656, -0.0365127660334110, -0.0584338195621967, -0.0253129787743092, -0.0736603289842606
-0.0405102856457233, -0.0299552381038666, -0.0573322512209415, -0.0219382792711258, 0.0207426548004150, -0.0722162052989006, -0.0390264727175236, 0.0272542759776115, -0.0551335066556931, 0.0097971409559250, -0.0760899037122726, 0.0327022597193718, 0.0165448486804962, -0.0817247927188873, -0.0659088194370270, 0.0232019349932671, -0.0741998404264450, 0.0720304027199745, 0.0572355464100838, 0.0608296915888786, 0.0752124711871147, -0.0226702205836773, 0.0040585473179817, 0.0235937610268593, -0.0212037116289139, 0.0499753430485725, -0.0004206076264381, -0.0084274411201477, -0.0000815838575363, -0.0402325876057148, 0.0368447974324226, -0.0803343355655670, -0.0127079263329506, -0.0112096965312958, 0.0507242158055305, 0.0042572095990181, 0.0129888728260994, -0.0219075158238411, 0.0653532817959785, 0.0331534519791603, 0.0624261572957039, -0.0559938177466393, -0.0068565681576729, 0.0158677399158478, -0.0520263984799385, 0.0289568081498146, 0.0044156610965729, -0.0333864502608776, 0.0052019879221916, 0.0650125816464424, -0.0690129175782204, 0.0350812599062920, -0.0183185711503029, -0.0575899332761765, -0.0185963287949562, -0.0675614476203918, -0.0235686339437962, -0.0053251832723618, 0.0716604068875313, 0.0567962303757668, -0.0724867060780525, -0.0693503990769386, 0.0473539754748344, 0.0608795955777168
-0.0611240081489086, -0.0281847007572651, -0.0641284137964249, -0.0704586431384087, 0.0697098746895790, -0.0680573284626007, -0.0728124752640724, 0.0257136151194572, -0.0316691584885120, 0.0050317868590355, -0.0180663615465164, -0.0002326369285583, 0.0697919353842735, -0.0557391196489334, -0.0113027691841125, 0.0651843622326851, 0.0044337883591652, 0.0547108575701714, -0.0237576887011528, -0.0187519341707230, -0.0301719680428505, -0.0373028442263603, 0.0569017753005028, 0.0000000000000000, 0.0821464285254478, -0.0801810622215271, -0.0600299611687660, -0.0609133131802082, 0.0457036718726158, -0.0242363549768925, 0.0681462064385414, 0.0125774741172791, 0.0385991483926773, 0.0322215482592583, 0.0161004140973091, 0.0640051588416100, -0.0818798616528511, 0.0717975571751595, -0.0226077288389206, -0.0822099596261978, 0.0639960989356041, -0.0743677020072937, 0.0471346005797386, -0.0458675585687160, -0.0209968462586403, -0.0366712398827076, -0.0675906315445900, -0.0700426697731018, 0.0174804851412773, 0.0632650777697563, 0.0767845883965492, 0.0481000915169716, -0.0761684179306030, 0.0539153590798378, -0.0263167396187782, 0.0574123933911324, 0.0465431883931160, -0.0529804863035679, -0.0012251436710358, -0.0628228709101677, -0.0345540978014469, -0.0771102309226990, -0.0668987780809402, 0.0740539059042931
0.0739794597029686, -0.0559524036943913, -0.0397440940141678, 0.0642736330628395, -0.0074905976653099, 0.0658135637640953, -0.0222654119133949, -0.0061122328042984, -0.0523068048059940, 0.0098254382610321, 0.0131623893976212, -0.0001522377133369, -0.0760992467403412, -0.0009621083736420, 0.0287763178348541, -0.0664454624056816, -0.0368717685341835, -0.0437640324234962, 0.0184658765792847, -0.0072314515709877, 0.0251766443252563, -0.0504807978868484, 0.0510677173733711, 0.0092267245054245, -0.0100228190422058, 0.0635908916592598, -0.0624388195574284, -0.0094113647937775, 0.0388525351881981, 0.0312381237745285, -0.0681836083531380, 0.0461881533265114, 0.0578685030341148, 0.0773237124085426, 0.0401633605360985, -0.0328214056789875, 0.0306572765111923, 0.0716404989361763, -0.0567668266594410, -0.0757752060890198, 0.0322679504752159, -0.0757580995559692, 0.0679038986563683, -0.0717027410864830, 0.0796004906296730, -0.0325297489762306, -0.0497893914580345, -0.0119130611419678, 0.0437879636883736, 0.0183239281177521, 0.0081763491034508, 0.0738536342978477, 0.0542280152440071, 0.0037666708230972, -0.0397492870688438, -0.0817345008254051, 0.0291732624173164, 0.0407363623380661, -0.0287067480385303, 0.0189316272735596, -0.0303547270596027, -0.0263362713158131, 0.0361165851354599, 0.0758895501494408
0.0807510986924171, 0.0331930592656136, 0.0282497778534889, -0.0377580896019936, -0.0219175443053246, -0.0343788191676140, 0.0582804754376411, -0.0577872768044472, -0.0246117822825909, 0.0274710729718208, 0.0552345588803291, 0.0309694036841393, 0.0182629600167274, -0.0808310732245445, -0.0098507627844810, 0.0022499859333038, 0.0157836526632309, 0.0691626891493797, -0.0444180183112621, 0.0416409298777580, -0.0014870390295982, -0.0018877163529396, -0.0747428461909294, 0.0374678373336792, -0.0620338320732117, 0.0714526399970055, -0.0763784348964691, -0.0387080013751984, -0.0133021697402000, -0.0190903246402740, -0.0038618892431259, 0.0143801197409630, -0.0339579284191132, -0.0249414816498756, 0.0716055557131767, -0.0712077915668488, 0.0409258827567101, 0.0374027192592621, -0.0653977841138840, 0.0769906416535378, -0.0351367890834808, -0.0771949216723442, 0.0435749515891075, -0.0101405382156372, -0.0527641139924526, -0.0240440703928471, 0.0087243914604187, -0.0526375286281109, -0.0066091343760490, -0.0570694543421268, -0.0382162593305111, 0.0355831086635590, -0.0550609081983566, 0.0311399698257446, 0.0071232393383980, -0.0109492689371109, 0.0721809342503548, -0.0443552285432816, -0.0341114886105061, 0.0124558806419373, 0.0381046384572983, 0.0582761690020561, 0.0588861331343651, -0.0234436132013798
0.0282629951834679, -0.0099216774106026, 0.0339926034212112, 0.0370203554630280, -0.0168468728661537, -0.0421974547207355, 0.0584673359990120, 0.0423447415232658, 0.0606570169329643, -0.0413830690085888, -0.0458675771951675, -0.0801712945103645, -0.0124958530068398, 0.0033683404326439, 0.0230771303176880, 0.0523026958107948, 0.0293900519609451, -0.0435581915080547, -0.0212874040007591, 0.0664610192179680, -0.0819840058684349, -0.0253122560679913, 0.0504509583115578, 0.0826017633080482, -0.0010590925812721, 0.0611383840441704, -0.0581824555993080, 0.0463941022753716, 0.0252497643232346, -0.0367692075669765, 0.0101676732301712, -0.0322742089629173, -0.0097624212503433, -0.0005772784352303, 0.0284619182348251, -0.0782798454165459, 0.0242635086178780, -0.0121787413954735, 0.0121905356645584, -0.0038706883788109, -0.0580481477081776, -0.0733257159590721, -0.0398596301674843, 0.0483410581946373, 0.0146018639206886, 0.0820346400141716, -0.0420279093086720, -0.0715253204107285, -0.0767959728837013, 0.0621751770377159, -0.0314487554132938, 0.0011282637715340, -0.0003798007965088, 0.0094161555171013, 0.0012329071760178, -0.0523105151951313, -0.0609181262552738, -0.0822657495737076, 0.0297654569149017, 0.0803582444787025, 0.0832629427313805, 0.0018737986683846, 0.0413011237978935, 0.0651212260127068
-0.0697154104709625, -0.0351931415498257, 0.0412585362792015, -0.0724781975150108, 0.0123528987169266, -0.0688520744442940, 0.0551137253642082, -0.0110445022583008, -0.0206541344523430, 0.0107829719781876, 0.0684299990534782, 0.0700784996151924, 0.0699502602219582, -0.0634992569684982, 0.0088092014193535, 0.0351304709911346, 0.0648551657795906, -0.0100580081343651, 0.0046485140919685, -0.0311566777527332, -0.0151475518941879, 0.0175474658608437, -0.0004051476716995, 0.0177452862262726, 0.0815264955163002, 0.0594424530863762, -0.0260398015379906, -0.0479344837367535, -0.0510348901152611, -0.0262229628860950, -0.0020066201686859, 0.0334969088435173, -0.0320516414940357, 0.0216452777385712, 0.0580285713076591, -0.0738831982016563, -0.0255220495164394, -0.0236067362129688, 0.0429717227816582, 0.0453534945845604, 0.0705572143197060, 0.0581351295113564, 0.0148156881332397, -0.0254863910377026, -0.0250566378235817, -0.0162917152047157, -0.0081859007477760, 0.0650259926915169, 0.0298579931259155, -0.0571565516293049, -0.0161785706877708, 0.0045435130596161, -0.0827478319406509, -0.0031425207853317, 0.0017661452293396, -0.0388117246329784, 0.0689705833792686, 0.0825696066021919, 0.0608217492699623, -0.0619085505604744, 0.0507131740450859, -0.0751931369304657, 0.0684268102049828, 0.0501236990094185
-0.0075033269822598, 0.0805598944425583, -0.0571816191077232, 0.0052523687481880, 0.0505801476538181, 0.0597224757075310, 0.0626365244388580, -0.0667914748191833, -0.0031716823577881, 0.0072763347998261, -0.0132927680388093, -0.0234802514314651, 0.0627958551049232, -0.0406495332717896, 0.0213221237063408, 0.0358100458979607, 0.0449670925736427, -0.0466237477958202, 0.0112488865852356, 0.0599776133894920, 0.0214980449527502, 0.0750504210591316, 0.0661724954843521, -0.0344674400985241, -0.0109225427731872, 0.0781619176268578, -0.0547517873346806, -0.0556627288460732, -0.0139934485778213, -0.0356094986200333, -0.0822232142090797, -0.0082481987774372, 0.0061762928962708, 0.0755856558680534, 0.0253964960575104, 0.0130071258172393, -0.0388636365532875, -0.0302025917917490, -0.0769050419330597, -0.0019177102949470, 0.0296885296702385, 0.0612141564488411, 0.0820759832859039, 0.0522931478917599, -0.0612671189010143, 0.0532460063695908, -0.0159238427877426, 0.0421296805143356, 0.0171713083982468, -0.0829033404588699, -0.0138382986187935, 0.0551804378628731, 0.0104091344401240, -0.0091726975515485, -0.0392946638166904, 0.0030790856108069, 0.0925905480980873, -0.0060150502249599, -0.0353337861597538, -0.0101913772523403, -0.0212196558713913, -0.0594900846481323, 0.0035032012965530, -0.0267452113330364
0.0627191588282585, 0.0548112727701664, 0.0435811467468739, 0.0196532383561134, 0.1167183443903923, -0.0883961543440819, 0.0259702969342470, -0.0871653258800507, -0.0174165721982718, -0.0889990255236626, 0.0733665898442268, -0.0411480292677879, -0.0153252538293600, -0.0424607768654823, 0.0370341315865517, -0.0584968701004982, -0.0474219247698784, 0.0638226345181465, -0.0455726310610771, -0.0465545579791069, 0.0195646453648806, -0.0419938117265701, 0.0888991653919220, 0.0472593978047371, 0.1201015263795853, 0.0565548539161682, -0.0778238773345947, -0.0715258195996284, -0.0557471774518490, 0.0025588695425540, 0.0357674509286880, -0.0713795945048332, 0.0304226092994213, -0.0311196856200695, 0.0798187479376793, -0.0642607584595680, -0.0308062620460987, -0.0246704258024693, -0.0885249152779579, 0.0103058386594057, 0.0687995851039886, 0.0591362789273262, 0.0983399078249931, -0.0042022522538900, -0.0438397154211998, 0.0766856521368027, 0.0182060301303864, 0.0631314069032669, -0.0725352019071579, 0.0176804456859827, -0.0227667242288589, -0.0366592071950436, -0.0700883269309998, 0.0889500677585602, -0.0839674770832062, 0.0837814286351204, 0.1117205172777176, 0.0206593256443739, 0.0395101048052311, -0.1045498996973038, 0.0198983475565910, 0.0386678241193295, 0.0093632368370891, -0.0833515673875809
0.1765061765909195, -0.0685996338725090, 0.1449769139289856, -0.0370373614132404, 0.0743784904479980, -0.0313193313777447, 0.0187148191034794, -0.2171554714441299, -0.1315801143646240, -0.1557704061269760, 0.0276539120823145, 0.0769278332591057, -0.1407702267169952, 0.0484217107295990, -0.0784657523036003, -0.0022052300628275, -0.1119162663817406, 0.1412683725357056, -0.0761558264493942, -0.1398633867502213, -0.0819035097956657, -0.1115118637681007, 0.1672732979059219, 0.0726359784603119, 0.1780549585819244, 0.2180122584104538, 0.0661169067025185, -0.1010461971163750, -0.1150827705860138, -0.0262841749936342, -0.0370936132967472, -0.1029652133584023, -0.1098713055253029, 0.1467701196670532, 0.0991673991084099, -0.2456409037113190, -0.0389633253216743, 0.2017355114221573, -0.1143933087587357, -0.0449426583945751, 0.0262710358947515, 0.0192350596189499, 0.1442211121320724, -0.1303834021091461, -0.1083525791764259, 0.1280377060174942, 0.1326691061258316, 0.1843422204256058, -0.1577830761671066, -0.1354093700647354, -0.0026093870401382, 0.0289789512753487, -0.0908476114273071, 0.2026257961988449, -0.1273501664400101, 0.1549481600522995, 0.1974245756864548, 0.1818752735853195, 0.0668175369501114, -0.1976861804723740, 0.0309788137674332, -0.1499620378017426, -0.1114330813288689, -0.0655792057514191
0.1102776154875755, -0.2007990330457687, 0.1365914642810822, -0.0497408807277679, 0.1743457317352295, -0.0238041374832392, -0.0897145941853523, -0.0575079694390297, -0.1559098958969116, -0.1387129426002502, -0.0153094530105591, 0.0296295005828142, -0.1028719320893288, 0.0224102959036827, -0.0356127806007862, 0.0422748327255249, -0.0411186479032040, 0.2139902561903000, 0.0500765182077885, -0.0471875369548798, 0.0087597565725446, -0.2321746498346329, 0.1895525008440018, 0.0458041951060295, 0.0696896910667419, 0.1514764875173569, -0.0069138910621405, -0.1175935342907906, -0.0863037034869194, -0.0389778129756451, -0.0011827093549073, -0.0673469901084900, -0.1576975286006927, 0.2101627737283707, 0.0551129244267941, -0.1376408934593201, 0.0431085973978043, 0.0744858533143997, -0.0538872629404068, 0.0134339546784759, -0.0356936641037464, 0.0215612277388573, 0.1513156294822693, -0.1674092411994934, -0.1391513198614120, 0.1219460144639015, 0.1672341227531433, 0.0854750722646713, -0.0119216684252024, -0.0805931389331818, 0.0808076038956642, -0.0229588504880667, 0.0887092277407646, 0.0953106954693794, -0.1718342453241348, 0.1127474829554558, 0.1787966340780258, 0.1729688644409180, 0.0362830236554146, -0.0818724185228348, 0.0127370227128267, -0.0845921784639359, -0.0677034929394722, -0.1008031293749809
0.0921868309378624, -0.1679417639970779, 0.1032306700944901, 0.0572896860539913, 0.0772640481591225, -0.0484937913715839, 0.0516984872519970, -0.1387208402156830, 0.0050064790993929, 0.0270093679428101, -0.0770729035139084, 0.0080441311001778, -0.0594703443348408, 0.0627141669392586, -0.0096218371763825, 0.0390981100499630, -0.0001010314445011, 0.1586675643920898, 0.0180330257862806, -0.0304637849330902, 0.0522518344223499, 0.0126991691067815, 0.1599565446376801, 0.0101225888356566, 0.1061247587203979, 0.0135913696140051, 0.0400832667946815, -0.2513384521007538, -0.0900306701660156, -0.0333554781973362, 0.0201781932264566, 0.0008371895528398, -0.0649853944778442, 0.2417927682399750, -0.0658175349235535, -0.0372476913034916, 0.0807101726531982, 0.1454410105943680, 0.0171318203210831, -0.0943830534815788, -0.0004367618530523, -0.0862122848629951, 0.1948557198047638, -0.0678724050521851, -0.0718842372298241, 0.0452422909438610, 0.1540778279304504, 0.1453226953744888, 0.0545485727488995, -0.0274379309266806, 0.0526530742645264, -0.0670725554227829, 0.0632585808634758, 0.1457695811986923, -0.1712698489427567, 0.1591939479112625, 0.0225784387439489, -0.0600954331457615, 0.0458020456135273, -0.1107488647103310, 0.0118427220731974, -0.0753403082489967, -0.1055378019809723, -0.0137758459895849
0.1750193536281586, -0.2606381475925446, 0.0528972484171391, -0.0859012007713318, 0.1132238954305649, -0.0813392549753189, 0.0518113672733307, -0.0649968460202217, -0.0086678899824619, -0.0537299066781998, -0.0112261949107051, 0.0378792509436607, -0.1991961598396301, 0.1196605190634727, -0.0699823275208473, -0.1597732603549957, -0.0551744587719440, 0.1480420976877213, -0.0881234109401703, -0.1131400913000107, -0.0119259404018521, -0.0235149208456278, 0.0749923661351204, -0.0993070602416992, 0.0638631284236908, 0.0742896869778633, -0.0848923176527023, -0.1581605374813080, -0.0767395794391632, -0.1175550520420074, -0.0658693686127663, 0.0709426254034042, -0.0817051306366920, 0.3283431529998779, -0.0734926760196686, -0.1704256087541580, 0.0533378086984158, 0.1446529328823090, -0.1042471900582314, -0.0447187200188637, 0.0677317008376122, 0.0535113252699375, 0.1785404682159424, -0.0660974383354187, -0.1551492214202881, 0.1192585080862045, 0.1030363142490387, 0.1301327496767044, 0.1791978031396866, -0.1317011415958405, 0.0849602594971657, 0.0452665463089943, 0.0535343140363693, 0.1267308443784714, -0.1783108264207840, 0.1916455328464508, 0.0122022321447730, -0.0704491883516312, 0.1860970854759216, -0.0030641851481050, -0.0203136336058378, -0.0597894862294197, -0.1112108901143074, -0.0813199132680893
0.0635680779814720, -0.2462282627820969, 0.0392826385796070, -0.0947682261466980, 0.1084520295262337, -0.0815272033214569, -0.0999865308403969, -0.0805559381842613, -0.1040890887379646, -0.0585068948566914, 0.0638624429702759, 0.2176085412502289, -0.2133518755435944, 0.1565849334001541, -0.0930914431810379, -0.0385158658027649, -0.2215545773506165, 0.2087874710559845, -0.0472277887165546, -0.0649325400590897, -0.1328647136688232, 0.0251289363950491, 0.0967172458767891, -0.1657295078039169, 0.0327522270381451, 0.0484274215996265, -0.0548708960413933, -0.3629356622695923, -0.0833211019635201, -0.1439657211303711, 0.0836542248725891, 0.1234545335173607, -0.1924245208501816, 0.2441592663526535, -0.1024091318249702, -0.1009503230452538, 0.0784196555614471, 0.2135429680347443, -0.0832084342837334, -0.0118898842483759, 0.0313929058611393, -0.0745266377925873, 0.3005744516849518, 0.0167949832975864, -0.2166463732719421, 0.0732479840517044, 0.1551009267568588, 0.1373936682939529, 0.1624955385923386, -0.0671325698494911, 0.0611836314201355, 0.0021141327451915, 0.0558849424123764, 0.1823773384094238, -0.0283433794975281, 0.0937745422124863, 0.1348444968461990, -0.1129714474081993, 0.1566338092088699, -0.1318505108356476, -0.0500554032623768, -0.1430909931659698, -0.0985260978341103, -0.1024805605411530
-0.1521757245063782, -0.1896170526742935, 0.0505310110747814, -0.0901322960853577, 0.0234999023377895, 0.2287391573190689, -0.1031611487269402, 0.0681645497679710, -0.0298949386924505, -0.1035072207450867, -0.0640587061643600, 0.0364453159272671, 0.0219707228243351, -0.0168409533798695, 0.0645939186215401, -0.0446719564497471, -0.1030460819602013, -0.0978217646479607, -0.2189167886972427, -0.0493538752198219, -0.2081402987241745, -0.0313306823372841, 0.0786621049046516, -0.1575593352317810, -0.0644795671105385, 0.2302764654159546, 0.2176331430673599, -0.4794360995292664, -0.1100656837224960, -0.3342680335044861, -0.0008841969538480, -0.0769565626978874, -0.1509981602430344, 0.2883753478527069, -0.0295535605400801, 0.1878788024187088, -0.0754856169223785, -0.0089846476912498, 0.0096918661147356, 0.0103125451132655, -0.0619637966156006, 0.0626972317695618, 0.1313924491405487, 0.0085805691778660, -0.2259164750576019, 0.0849264264106750, 0.2370806932449341, -0.0774089992046356, -0.0145093016326427, 0.1040077283978462, 0.2489633560180664, -0.0567014142870903, -0.1161444932222366, -0.0095604741945863, 0.1745652258396149, 0.1138157770037651, -0.0129371806979179, -0.0951706990599632, 0.0226783212274313, 0.1997979879379272, 0.0086915818974376, -0.2325118184089661, -0.0198522396385670, -0.1192359924316406
-0.1522984355688095, -0.1808055043220520, 0.1301550716161728, 0.0098588149994612, 0.1317665725946426, 0.1531550586223602, -0.1094393432140350, 0.0871603116393089, -0.1283212900161743, -0.0882831215858459, 0.0911813452839851, 0.2477334439754486, 0.0443149283528328, 0.1088598445057869, 0.1083966493606567, -0.0239775814116001, 0.0085342954844236, -0.1085777059197426, -0.1196131035685539, -0.1513490527868271, -0.4289378821849823, -0.1231712996959686, 0.3578217625617981, 0.0088600795716047, -0.0923693552613258, 0.1967748850584030, 0.1874628514051437, -0.4693171083927155, -0.1629143804311752, -0.4686308801174164, -0.0315221622586250, -0.0948253124952316, -0.0115513894706964, 0.5214987993240356, -0.0140290465205908, 0.1583994477987289, -0.0147803872823715, 0.3044879138469696, -0.0802771821618080, -0.0761508494615555, 0.1536462604999542, -0.1008709892630577, 0.3588108718395233, -0.0107306037098169, -0.2883008420467377, 0.2287540435791016, 0.4351392984390259, 0.0123144518584013, 0.1459216028451920, 0.0078397076576948, 0.2428362518548965, 0.0010155746713281, -0.1481371372938156, 0.4152058362960815, 0.0680701583623886, 0.2971651256084442, -0.1089642271399498, 0.0176013913005590, 0.1346307992935181, 0.1428421139717102, -0.1459342837333679, -0.4048916697502136, -0.0808762088418007, -0.1729861795902252
-0.0374075360596180, -0.3594659268856049, 0.2320279031991959, 0.2704658806324005, 0.0251124911010265, 0.1699630171060562, -0.0606392398476601, 0.0922405496239662, -0.1862046718597412, -0.1472712010145187, 0.0384320802986622, 0.2405246794223785, -0.0336441807448864, 0.1436101645231247, -0.0031392555683851, -0.0660503134131432, 0.0623452290892601, -0.0012960722669959, -0.1697704792022705, -0.2923417985439301, -0.0451370030641556, -0.1687038987874985, 0.3648525476455688, 0.0187859814614058, -0.0578671544790268, 0.2654337584972382, 0.1647491008043289, -0.5099733471870422, -0.1517429947853088, -0.2993004024028778, 0.1014751642942429, -0.0067057558335364, -0.0218758136034012, 0.4919572770595551, -0.2531574368476868, 0.2275003343820572, -0.0592490658164024, 0.3675899207592010, -0.0116489455103874, -0.0146936466917396, 0.0557717494666576, -0.0100529845803976, 0.3233327865600586, -0.0165060721337795, -0.2182283848524094, 0.2119689434766769, 0.1155653521418571, -0.0136258704587817, 0.1582175046205521, -0.0662022382020950, 0.2020020633935928, -0.1726391911506653, -0.1248818933963776, 0.4451752305030823, 0.0614874288439751, 0.1360499113798141, -0.0748846903443336, 0.0269023347645998, 0.3330603837966919, 0.0948439463973045, -0.1486501544713974, -0.1851685047149658, -0.1353239268064499, -0.2498579174280167
0.0361476838588715, -0.2145434767007828, 0.1225887835025787, 0.1595121920108795, -0.1279016733169556, -0.1401956081390381, 0.1197582855820656, 0.1020298749208450, -0.1527661085128784, 0.0973122343420982, -0.0419567413628101, 0.1595249474048615, -0.0307775437831879, 0.1013395860791206, 0.1891685575246811, -0.0793595984578133, 0.0999638438224792, 0.2281103730201721, 0.1842685788869858, -0.0111053222790360, -0.2236078083515167, -0.1028794199228287, -0.0348377972841263, -0.3257169425487518, 0.0171775575727224, -0.0496684610843658, -0.2251983433961868, 0.1882991641759872, 0.0524413697421551, 0.1979295462369919, 0.0887376666069031, 0.1207816079258919, -0.0843710824847221, 0.2868762016296387, -0.2074166983366013, 0.2028844207525253, -0.0754792019724846, 0.2778865098953247, -0.3099980056285858, -0.0054237791337073, -0.0126842511817813, 0.0206726044416428, -0.0224213227629662, 0.2170065641403198, 0.0418342016637325, -0.0826873332262039, -0.1613300144672394, -0.0882878452539444, 0.1123557984828949, -0.0388421490788460, 0.0000285996102320, -0.2277714312076569, 0.2606629133224487, 0.4569369852542877, 0.0390774346888065, 0.0364372245967388, -0.1789475232362747, -0.0325542613863945, 0.0402774140238762, 0.1002159789204597, 0.1109924241900444, 0.0268280003219843, -0.1052987352013588, -0.0876052156090736
0.1224251314997673, -0.2979599535465240, 0.0682485178112984, -0.0118659818544984, 0.0734171271324158, 0.1471125185489655, 0.2801352739334106, -0.0643094405531883, -0.1548255831003189, -0.0843795537948608, -0.0479376614093781, 0.0255544800311327, -0.3145426213741302, -0.1598827987909317, 0.3635753989219666, 0.2013756185770035, -0.2597830295562744, 0.0894907116889954, 0.1845267266035080, -0.0208014920353889, -0.1138934344053268, -0.0265164487063885, 0.0259747877717018, -0.2424960732460022, 0.2473253756761551, 0.1944772452116013, 0.0777330175042152, 0.2782042026519775, -0.1901383548974991, 0.0358409993350506, 0.2259967476129532, -0.2256485819816589, -0.0609441474080086, 0.4470577239990234, -0.1783514022827148, 0.2079334408044815, 0.1716554611921310, 0.3301255702972412, -0.2413458675146103, -0.2398189753293991, -0.0155851831659675, 0.0550046488642693, 0.1599130332469940, -0.0831741839647293, -0.0586342178285122, 0.1017041280865669, 0.0281142592430115, 0.3292833566665649, -0.1106830611824989, -0.0545908734202385, 0.0059777977876365, 0.1102692261338234, -0.1659629940986633, 0.3485445082187653, -0.1048057973384857, 0.1775094419717789, -0.0849082916975021, -0.0830765441060066, -0.2559999525547028, -0.0721863210201263, 0.2626131474971771, -0.3064214289188385, -0.2615613043308258, 0.0101136844605207
0.0804908797144890, -0.0733990296721458, 0.1497402191162109, -0.0756826177239418, 0.2042028158903122, 0.2180713564157486, 0.3255513906478882, 0.0194101408123970, -0.1125102788209915, -0.2197676151990891, 0.0594306252896786, -0.0259903669357300, -0.1242749392986298, -0.1084623560309410, 0.2817576527595520, 0.1605110913515091, -0.1830443292856216, -0.1318700015544891, -0.2410267591476440, -0.0162695348262787, 0.2172039747238159, -0.0964559540152550, 0.2242913097143173, -0.3140802383422852, 0.0837106481194496, 0.1924758702516556, 0.1692800074815750, 0.0689114406704903, -0.0740588679909706, -0.1115157529711723, 0.2472648322582245, -0.2436896264553070, -0.0861454606056213, 0.1237102448940277, 0.2963348627090454, 0.0040346914902329, 0.2016539424657822, 0.1548070609569550, 0.0301284752786160, -0.3219086229801178, -0.1747824847698212, -0.0169836506247520, 0.2615874111652374, -0.3116140663623810, -0.0542429648339748, 0.2798298001289368, 0.3326346874237061, 0.2641369700431824, -0.2413047254085541, 0.1008110642433167, 0.2201745510101318, 0.4295453429222107, -0.0980138108134270, 0.1332890987396240, -0.2245338559150696, 0.1372045278549194, 0.3881859779357910, -0.0517099834978580, -0.2756668329238892, -0.1786108613014221, -0.0440081097185612, -0.1852356642484665, -0.1956810653209686, 0.0228549875319004
0.0648351162672043, -0.1711054891347885, 0.0797328352928162, -0.2242043018341064, 0.1654272973537445, 0.0869699716567993, 0.1432835459709167, -0.1076237410306931, -0.0792726129293442, -0.2289132177829742, 0.0166913140565157, 0.1121824979782104, -0.0104808844625950, -0.1138188317418098, 0.3901762068271637, 0.1971491277217865, -0.0408640168607235, -0.1034781858325005, -0.2985984683036804, -0.0417050532996655, 0.2584849298000336, -0.0729996189475060, 0.1128638163208961, -0.0821900069713593, -0.0855893567204475, 0.1378870606422424, 0.1425039917230606, -0.5310268402099609, -0.1717941910028458, -0.2323915511369705, 0.1440389752388000, -0.1024135425686836, -0.0926961526274681, 0.2547747790813446, 0.2739464938640594, -0.0860411003232002, 0.1043425202369690, 0.2406322658061981, -0.0312339011579752, -0.1747534126043320, -0.1257045418024063, -0.0688655897974968, 0.2290120273828506, -0.1245028823614120, -0.1843961328268051, 0.1628425270318985, 0.4117034673690796, 0.2072237282991409, -0.3333930373191833, 0.0870442241430283, 0.0603921525180340, 0.3153538107872009, -0.1438790708780289, -0.0910781547427177, -0.2585516273975372, 0.1926546543836594, 0.4950366616249084, 0.0534485988318920, -0.2243233919143677, -0.2649472355842590, -0.0146651919931173, -0.2856167256832123, -0.2151501625776291, -0.0482468791306019
0.0850879028439522, 0.0192162990570068, 0.1094550862908363, 0.1521573811769485, 0.1475805342197418, -0.2620323896408081, -0.0371053628623486, -0.3264975547790527, 0.0045466655865312, 0.0243977475911379, 0.0500696972012520, 0.0456393472850323, -0.2058477699756622, 0.2354627102613449, -0.0311534367501736, -0.0456509292125702, -0.0560616031289101, 0.2357833385467529, 0.1888238042593002, -0.0541516505181789, -0.2698044776916504, 0.0278453435748816, 0.0350560620427132, 0.0154157383367419, 0.1225287020206451, -0.0930698215961456, -0.1326535344123840, -0.2857639193534851, -0.2133215963840485, -0.2534381747245789, -0.0515877828001976, 0.1912683397531509, 0.0828872695565224, 0.1044501289725304, 0.0444286502897739, -0.0582253895699978, 0.1146365478634834, 0.3245264291763306, -0.0555512271821499, 0.0074485591612756, 0.0192216634750366, 0.0635197088122368, 0.1956890672445297, 0.0074612791649997, -0.1074099540710449, 0.1307407319545746, 0.0843468010425568, 0.1018839702010155, 0.2176167070865631, -0.2306045144796371, -0.0808789581060410, -0.0467461571097374, 0.2544188499450684, 0.2839527428150177, -0.2167822718620300, 0.2743836641311646, 0.1674513816833496, -0.0305535402148962, 0.1237447932362556, -0.0051562543958426, -0.0305712521076202, -0.1926234960556030, 0.0133318100124598, -0.0762428417801857
0.1076991707086563, -0.0150254135951400, -0.0247630029916763, 0.1725426614284515, 0.2027635127305984, -0.3191765248775482, 0.0453030131757259, -0.2817692160606384, -0.1144981458783150, -0.0160076729953289, -0.0364837795495987, 0.1403226405382156, -0.1842923164367676, 0.2078623920679092, -0.0315584130585194, -0.0586698725819588, -0.1798059493303299, 0.2861822843551636, 0.2927290499210358, -0.0654672905802727, -0.2046116888523102, 0.0467764176428318, 0.1216426193714142, -0.0744930654764175, 0.1412843316793442, 0.0281635969877243, -0.0226469282060862, -0.1095788106322289, -0.1094784438610077, -0.2921839058399200, 0.0302347447723150, 0.0269244723021984, -0.0832240357995033, 0.1817379295825958, -0.1340242326259613, -0.1984974294900894, 0.1952708363533020, 0.1594471037387848, -0.1158429980278015, -0.0763915628194809, 0.0251138638705015, -0.0036871284246445, 0.2613463699817657, -0.0736872255802155, -0.1950480490922928, 0.1670580506324768, 0.2025090456008911, 0.1192169561982155, 0.1125610247254372, -0.1630851328372955, -0.2498371154069901, -0.1415695250034332, 0.0663590729236603, 0.2496254146099091, -0.1445437669754028, 0.2977906763553619, 0.1321108192205429, -0.0036054141819477, 0.2750912308692932, -0.1113768741488457, -0.0877313762903214, -0.1452028602361679, -0.1222051903605461, -0.1064064577221870
0.1499481499195099, -0.0708066970109940, 0.0382184870541096, 0.1689801961183548, 0.3081503510475159, -0.2180358767509460, -0.0616567917168140, -0.3590906262397766, -0.0443423092365265, -0.1174177750945091, -0.0710041597485542, 0.1518422365188599, -0.4008821249008179, 0.2471211999654770, 0.0258484464138746, -0.0507967025041580, -0.0444863885641098, 0.3578158318996429, 0.3873159289360046, -0.1075775176286697, -0.1895634531974792, -0.0623868554830551, 0.1031040474772453, 0.0259095281362534, 0.3475511670112610, -0.1119256168603897, -0.0019735659006983, -0.2070806771516800, -0.3609651327133179, -0.3870813846588135, 0.0578775666654110, 0.1424725800752640, -0.2598879039287567, 0.1120173186063766, -0.0249095242470503, -0.2926460504531860, 0.2862997055053711, 0.3944405317306519, -0.3086081743240356, -0.0406780876219273, -0.1226580217480659, 0.0144710838794708, 0.2693623304367065, -0.0592799969017506, -0.3421385586261749, 0.1605007946491241, 0.1957906037569046, 0.1862612068653107, 0.2872141897678375, -0.3381132781505585, -0.3093416690826416, -0.0399255938827991, -0.0026778529863805, 0.2332335263490677, -0.3266067802906036, 0.3056937158107758, 0.1890447586774826, -0.0707891881465912, 0.2554285824298859, -0.2088438123464584, -0.0168662108480930, -0.2130307257175446, -0.1251657158136368, -0.2806224226951599
0.1474200636148453, -0.2273309230804443, -0.0088718300685287, 0.0533386170864105, 0.1608118563890457, -0.1727343350648880, -0.1682264506816864, -0.1838321834802628, -0.0278974436223507, -0.1207678690552711, 0.0208190251141787, 0.1292193233966827, -0.1628042012453079, 0.2276838719844818, 0.0147921442985535, -0.0437836907804012, -0.0325710512697697, 0.2717054784297943, 0.3210828006267548, -0.0675973743200302, -0.2744163572788239, -0.0360528118908405, 0.1367855817079544, -0.0723749995231628, 0.1189965009689331, 0.0189476367086172, -0.0201962850987911, -0.1855520755052567, -0.2449895292520523, -0.1571802645921707, 0.0618372559547424, 0.0619987733662128, -0.1518873423337936, 0.1090544760227203, -0.1473891139030457, -0.1724334061145782, 0.1795973926782608, 0.1649228632450104, -0.1856582611799240, 0.0007569231092930, -0.0069086574949324, -0.0735970363020897, 0.2225371301174164, -0.0006601254572161, -0.1935169398784637, 0.1976992040872574, 0.2252013534307480, 0.0809374079108238, 0.0317652262747288, -0.2484297603368759, -0.2067009359598160, 0.0178432296961546, 0.0380068495869637, 0.2304586470127106, -0.1883885115385056, 0.1136188730597496, 0.0808944255113602, -0.1396418660879135, 0.2557933628559113, -0.1117732822895050, -0.0484867021441460, -0.1492943763732910, -0.0565052106976509, -0.1144629940390587
0.0593478232622147, -0.1687341481447220, 0.0842688158154488, 0.0617524497210979, 0.2274467200040817, -0.1425342559814453, -0.0579876005649567, -0.0653976425528526, -0.1622125059366226, -0.1215147823095322, 0.0505331121385098, 0.1515126675367355, -0.2027336806058884, -0.0175110660493374, 0.0187940001487732, -0.0825994834303856, -0.0330245308578014, 0.1107452511787415, 0.2110536396503448, -0.0469572730362415, -0.0825063362717628, -0.0034224814735353, 0.0019686487503350, 0.0349774360656738, 0.1501664519309998, 0.1013851910829544, 0.0295443832874298, -0.1265441179275513, -0.0684999749064445, -0.1174435466527939, -0.0144898565486073, -0.0251110568642616, -0.1037841662764549, 0.1410311907529831, 0.0369321256875992, -0.0853273048996925, 0.0675815716385841, 0.1384437084197998, -0.1878476738929749, -0.0844888240098953, -0.0529921650886536, -0.0453697182238102, 0.2464214861392975, -0.0866825282573700, -0.1094779148697853, 0.1952617913484573, 0.1270253211259842, 0.1642295718193054, 0.0268945209681988, -0.2230650484561920, -0.1015889197587967, 0.0051808357238770, -0.0513254143297672, 0.1545136719942093, -0.0545073524117470, 0.0722467452287674, 0.1281890422105789, 0.1052066236734390, 0.0540778376162052, -0.0687486231327057, 0.0810906812548637, -0.0757901743054390, -0.1195887550711632, -0.0962588712573051
0.1721798181533813, -0.1691970825195312, 0.0337815284729004, -0.0540051460266113, 0.0836364552378654, 0.0273022931069136, -0.0975491777062416, -0.0861969515681267, -0.1077760756015778, -0.0284464750438929, 0.0190142765641212, 0.0155937857925892, -0.1406495571136475, 0.0664858445525169, -0.0073285852558911, 0.0772826448082924, 0.0697898194193840, 0.0728129819035530, 0.1036631166934967, 0.0108490223065019, -0.0624859444797039, -0.1137252599000931, 0.1114543974399567, 0.0138489678502083, 0.1066518127918243, 0.0625934228301048, 0.0728256627917290, -0.1984179019927979, -0.0726563334465027, -0.1455746889114380, -0.0217821151018143, -0.0584202967584133, -0.1159071475267410, 0.0398002751171589, 0.0270083025097847, -0.0612327978014946, 0.0371543690562248, 0.1383184343576431, -0.2031058818101883, 0.0209843982011080, -0.1118953227996826, 0.0293143838644028, 0.1338624060153961, -0.0639948248863220, -0.0258364807814360, 0.1365828812122345, 0.0880423411726952, 0.1431679576635361, -0.1117558106780052, -0.0998808965086937, -0.0008961279527284, 0.0278193801641464, -0.0597822256386280, 0.0919352173805237, -0.1218811124563217, 0.0467244610190392, 0.0253426842391491, 0.0437161512672901, 0.0854634046554565, -0.1113939806818962, 0.0150934830307961, -0.1420707106590271, -0.0504879504442215, -0.1575023978948593
0.0250945985317230, 0.0322579666972160, 0.0545959249138832, 0.0243250802159309, 0.0165890082716942, -0.0392966493964195, -0.0763265341520309, 0.0251928120851517, -0.0492554120719433, -0.0396406091749668, -0.0137600004673004, 0.0572309717535973, -0.0264281034469604, 0.0705206915736198, 0.0133064836263657, 0.0805756375193596, -0.0262723565101624, -0.0084341987967491, -0.0184066742658615, -0.0417733751237392, 0.0544769093394279, -0.0659831613302231, -0.0789205729961395, -0.0213560312986374, 0.0195994898676872, -0.0456014499068260, 0.0554525032639503, -0.0636465772986412, -0.0555649250745773, 0.0417214408516884, 0.0725191757082939, 0.0180130004882812, 0.0464633181691170, -0.0404334776103497, 0.0754542723298073, -0.0284362286329269, -0.0693522021174431, -0.0560962334275246, -0.0393048115074635, 0.0141048058867455, 0.0773757025599480, 0.0695159509778023, 0.0605509057641029, -0.0290381312370300, -0.0303274132311344, 0.0622785612940788, 0.0021985471248627, -0.0199653506278992, -0.0240172781050205, -0.0086620822548866, -0.0699198693037033, 0.0543276295065880, -0.0819932296872139, -0.0820496454834938, -0.0215257555246353, -0.0000823214650154, -0.0458092205226421, 0.0529114529490471, -0.0054703801870346, 0.0563622638583183, 0.0416207984089851, -0.0422453433275223, -0.0124799832701683, 0.0357127040624619
-0.0817545950412750, -0.0635116472840309, 0.0390517041087151, 0.0337105914950371, -0.0209580436348915, 0.0506806895136833, -0.0235241726040840, -0.0004560425877571, -0.0089002698659897, -0.0172477066516876, 0.0401818305253983, 0.0178562104701996, -0.0083037018775940, -0.0441374331712723, 0.0448097214102745, -0.0437509380280972, 0.0288815274834633, 0.0666092261672020, -0.0685288310050964, -0.0526859015226364, -0.0501926727592945, -0.0048236548900604, 0.0793372467160225, 0.0791214779019356, 0.0652668699622154, -0.0711103677749634, 0.0625002607703209, -0.0056711733341217, -0.0253089666366577, -0.0408512987196445, -0.0839977636933327, -0.0044704079627991, -0.0242737606167793, -0.0371030606329441, 0.0630399957299232, -0.0375924967229366, 0.0604952946305275, 0.0018134340643883, -0.0781030431389809, -0.0032521188259125, 0.0331952497363091, -0.0236126929521561, 0.0817401930689812, 0.0743001028895378, 0.0353445783257484, 0.0538839176297188, 0.0020937174558640, 0.0131115317344666, 0.0216798931360245, 0.0507710352540016, -0.0795197337865829, -0.0058207213878632, 0.0496512129902840, 0.0087811052799225, -0.0398474968969822, 0.0023017898201942, -0.0158858522772789, -0.0386872477829456, 0.0525146350264549, 0.0601967945694923, -0.0175587013363838, 0.0686602666974068, -0.0209759548306465, -0.0396960414946079
-0.0174901932477951, -0.0123246237635612, 0.0825299993157387, 0.0488691404461861, 0.0525751784443855, -0.0501349754631519, -0.0401807464659214, -0.0316381528973579, -0.0035555139183998, -0.0710470676422119, 0.0674321576952934, -0.0041640326380730, 0.0338049679994583, -0.0321442373096943, 0.0015881583094597, -0.0313729085028172, -0.0362133681774139, -0.0809904113411903, 0.0264392942190170, -0.0180514231324196, 0.0612247213721275, 0.0161026418209076, -0.0237218327820301, -0.0202335268259048, -0.0594925321638584, 0.0508150681853294, -0.0088161230087280, -0.0419214591383934, -0.0577972605824471, -0.0415734499692917, 0.0608369037508965, -0.0137310400605202, -0.0059789270162582, 0.0570426806807518, -0.0304641276597977, 0.0734913721680641, -0.0570752918720245, 0.0701704099774361, -0.0046195164322853, 0.0029501169919968, -0.0315558277070522, 0.0177324935793877, -0.0655680447816849, -0.0331794843077660, 0.0351270213723183, 0.0405510962009430, -0.0107030123472214, -0.0670842453837395, -0.0642543360590935, -0.0770473182201385, -0.0555902346968651, 0.0462173894047737, -0.0632946342229843, 0.0639297738671303, 0.0180153623223305, 0.0723857060074806, -0.0527302436530590, 0.0662257894873619, -0.0335684046149254, -0.0323052555322647, -0.0154158845543861, 0.0037738457322121, 0.0400278493762016, -0.0619996786117554
-0.0178297162055969, -0.0534369349479675, -0.0426282510161400, 0.0723750218749046, 0.0145406350493431, -0.0654460936784744, 0.0208891928195953, 0.0561720058321953, 0.0404622554779053, 0.0548205897212029, -0.0009454786777496, -0.0701831728219986, 0.0826417133212090, 0.0067360997200012, -0.0410033129155636, 0.0840989574790001, 0.0839162990450859, -0.0160118117928505, 0.0190486907958984, 0.0607045814394951, 0.0049760341644287, -0.0729840248823166, 0.0776218250393867, -0.0775053277611732, 0.0116043984889984, -0.0110041350126266, 0.0309886410832405, 0.0031975507736206, -0.0522812567651272, -0.0635384842753410, -0.0275384970009327, -0.0751007422804832, 0.0633604899048805, -0.0515404306352139, 0.0364493355154991, 0.0650150105357170, 0.0503535941243172, -0.0497107952833176, -0.0666904896497726, -0.0788844153285027, -0.0655058324337006, 0.0633530095219612, 0.0829314365983009, 0.0048436895012856, 0.0060020312666893, 0.0356912240386009, -0.0695059448480606, 0.0026436597108841, 0.0318152606487274, -0.0586835630238056, 0.0198266729712486, 0.0255889743566513, 0.0297937393188477, 0.0172584950923920, -0.0160017088055611, 0.0047760084271431, 0.0261361822485924, 0.0362848863005638, -0.0060441270470619, 0.0484140887856483, 0.0208536610007286, -0.0085827633738518, 0.0682039782404900, 0.0333836227655411
-0.0249394364655018, 0.0778528973460197, 0.0767213478684425, -0.0396980270743370, 0.0675109997391701, -0.0254152975976467, -0.0393711738288403, -0.0131371840834618, 0.0445883795619011, 0.0718765780329704, -0.0436348393559456, -0.0054358467459679, 0.0439225658774376, 0.0484298691153526, -0.0475340299308300, -0.0512136593461037, 0.0485333725810051, 0.0808203890919685, 0.0327427908778191, -0.0011290609836578, -0.0194297060370445, -0.0792964026331902, -0.0647988021373749, -0.0401922166347504, -0.0267407782375813, -0.0275941863656044, -0.0809005200862885, -0.0784713476896286, 0.0531528517603874, -0.0150449350476265, 0.0119061172008514, 0.0626424327492714, 0.0036935880780220, 0.0654569789767265, 0.0443625524640083, -0.0564597882330418, 0.0440569594502449, -0.0424171127378941, -0.0695967674255371, -0.0081689134240150, 0.0324893370270729, 0.0378499627113342, -0.0068614780902863, -0.0327821597456932, 0.0588369742035866, 0.0062591359019279, -0.0227200165390968, 0.0624063089489937, 0.0487841889262199, -0.0088899210095406, -0.0166596248745918, 0.0686491355299950, -0.0183245465159416, -0.0637594684958458, -0.0743266046047211, -0.0333628654479980, 0.0657754763960838, -0.0170989036560059, -0.0045680180191994, 0.0205835625529289, -0.0465479381382465, 0.0259437784552574, -0.0635749250650406, -0.0631509050726891
0.0801704451441765, 0.0502775385975838, 0.0462302044034004, 0.0514508858323097, -0.0135355070233345, 0.0812506452202797, 0.0738608166575432, -0.0510903447866440, -0.0460248067975044, 0.0552820786833763, 0.0791037902235985, 0.0106000304222107, 0.0223566442728043, -0.0265260487794876, 0.0799935683608055, -0.0447275452315807, 0.0650281086564064, -0.0340374670922756, -0.0216210521757603, 0.0413633808493614, 0.0497404560446739, 0.0226366668939590, 0.0424064621329308, -0.0533854924142361, 0.0260081738233566, 0.0253886431455612, 0.0460681244730949, -0.0499763600528240, 0.0694317147135735, -0.0730523690581322, -0.0808347836136818, 0.0328427627682686, -0.0261341184377670, -0.0477701947093010, -0.0135880559682846, 0.0319192409515381, -0.0837168172001839, -0.0578086525201797, 0.0004386976361275, 0.0114833638072014, 0.0275309160351753, 0.0716612860560417, 0.0483568981289864, 0.0047135725617409, 0.0293025150895119, 0.0021365359425545, -0.0550243258476257, -0.0476127453148365, -0.0782398730516434, -0.0117105618119240, -0.0486130155622959, 0.0645967945456505, 0.0180703923106194, 0.0633661672472954, 0.0507288947701454, -0.0747414007782936, 0.0207230001688004, 0.0018719509243965, 0.0412167981266975, 0.0771353766322136, 0.0522743836045265, -0.0283710695803165, -0.0565397478640079, 0.0084972456097603
0.0393272228538990, -0.0621578693389893, -0.0171129349619150, 0.0496846660971642, -0.0450300648808479, 0.0529090315103531, 0.0401350036263466, -0.0054478864185512, -0.0011917760130018, 0.0391757339239120, 0.0071817189455032, 0.0739521905779839, 0.0554559454321861, 0.0499669946730137, 0.0067843273282051, 0.0449793115258217, -0.0612272471189499, -0.0725647732615471, 0.0333055481314659, -0.0416806265711784, 0.0800882726907730, -0.0218167770653963, -0.0472843609750271, -0.0579147040843964, -0.0416147932410240, -0.0406893417239189, 0.0290549565106630, 0.0220245681703091, -0.0154100125655532, -0.0886454805731773, 0.0786520615220070, 0.0254247132688761, 0.0301857441663742, 0.0820739492774010, 0.0802393779158592, 0.0473608262836933, -0.0531954318284988, 0.0911081284284592, -0.0319302715361118, -0.0258599705994129, 0.0635513588786125, -0.0127730071544647, -0.0571083240211010, -0.0805379152297974, -0.0953858196735382, 0.0914643332362175, -0.0270873680710793, 0.0494172126054764, 0.0395128503441811, 0.0102433431893587, -0.0187699943780899, -0.0065414840355515, -0.0684473812580109, -0.0523008592426777, -0.0305432826280594, 0.0534801296889782, 0.0528147555887699, -0.0296331979334354, 0.0003783614956774, 0.0768394917249680, 0.0698940977454185, -0.0290435068309307, -0.0207682065665722, 0.0378159992396832
-0.2935125529766083, -0.0460349209606647, -0.0605747848749161, -0.2515185773372650, 0.2388428449630737, 0.1864184588193893, -0.0871904790401459, 0.1405908167362213, -0.0243374276906252, 0.0320730544626713, 0.0307065024971962, 0.0075186192989349, -0.2991015315055847, -0.0574200712144375, -0.0444706007838249, -0.0254983138293028, -0.1751612275838852, -0.1100169941782951, 0.1554850190877914, -0.0039143753238022, -0.1107235923409462, -0.0155458310618997, -0.0214459840208292, -0.1343452036380768, -0.0213756989687681, 0.2655604183673859, 0.1730558127164841, 0.0549288727343082, -0.2948716580867767, -0.1792014390230179, 0.2452450990676880, -0.1466654539108276, 0.0692436322569847, -0.0044120359234512, 0.0041715726256371, -0.0430856011807919, 0.2885592281818390, 0.1897405236959457, -0.1389450728893280, 0.0187470186501741, 0.0032058581709862, -0.0644502341747284, 0.1510145813226700, 0.0989592671394348, -0.0467053540050983, 0.0307190027087927, 0.2639806270599365, -0.1911412179470062, -0.1283393055200577, -0.0946780741214752, 0.1270502358675003, 0.0274623595178127, -0.1477910131216049, 0.1300911158323288, 0.0317641794681549, 0.0713345259428024, -0.1501996517181396, 0.0026869997382164, 0.0146403862163424, 0.0126982778310776, -0.1656359285116196, -0.2534743845462799, 0.0586917027831078, -0.0581386089324951
-0.0717944055795670, -0.2135734707117081, 0.0017825838876888, -0.1530976444482803, 0.3319121301174164, 0.1322707682847977, -0.1712386459112167, -0.0219411663711071, -0.1164034307003021, -0.0072199087589979, 0.0630400702357292, 0.1796924620866776, -0.3387454450130463, -0.0124774491414428, 0.0428782626986504, -0.1838765889406204, -0.1506634056568146, 0.0415345840156078, 0.1676230430603027, -0.0813506394624710, 0.0238460022956133, -0.0941672250628471, 0.2408141940832138, -0.2955917716026306, 0.0713968351483345, 0.1219924390316010, 0.2201733887195587, -0.1178751736879349, -0.2230546176433563, -0.2310303300619125, 0.2051969319581985, -0.1609541922807693, -0.0869808867573738, 0.2663088440895081, 0.0021492396481335, -0.0071533750742674, 0.3093031644821167, 0.2532166242599487, 0.0092826355248690, -0.1165200844407082, -0.0384190157055855, -0.0023446828126907, 0.2438716888427734, 0.0550985597074032, -0.1127388924360275, 0.2032907307147980, 0.3558858931064606, 0.0141480742022395, 0.0654972940683365, -0.1762700080871582, 0.1724049896001816, 0.0758371278643608, -0.1361407637596130, 0.1882797628641129, -0.1139165312051773, 0.1495562642812729, 0.0424019619822502, 0.0173478778451681, 0.1054934039711952, -0.0252433232963085, -0.0662200823426247, -0.3371586203575134, 0.0226258654147387, -0.1263119578361511
0.1020373851060867, -0.0749436244368553, -0.0618115141987801, 0.1236264407634735, 0.1152869090437889, -0.1837275326251984, 0.0979249104857445, -0.1929235309362411, -0.0072480635717511, -0.0084309382364154, -0.0176791921257973, 0.1377573460340500, -0.1744035929441452, 0.0146464146673679, 0.0691150352358818, -0.1306418776512146, -0.0715845748782158, 0.0903592482209206, -0.0815163701772690, -0.1319954544305801, -0.0151733197271824, 0.0387947857379913, 0.0564881935715675, -0.1266596317291260, 0.0184157360345125, 0.0663271471858025, -0.0435409545898438, -0.0340651534497738, -0.1357793509960175, -0.1699513345956802, -0.0169516801834106, 0.0226309392601252, -0.0701241120696068, 0.1808748841285706, 0.1263718456029892, -0.0319288857281208, 0.0148500371724367, 0.2131124287843704, 0.0722460597753525, 0.0476617366075516, -0.0982049778103828, 0.0061683878302574, 0.2203973382711411, -0.1372530460357666, -0.1185050979256630, 0.0162322800606489, 0.1882462352514267, 0.1595220565795898, 0.1469683945178986, -0.1713251918554306, 0.0833177566528320, 0.0787146613001823, 0.1748372614383698, 0.0541493520140648, -0.0832335576415062, 0.0718310624361038, 0.1689934730529785, -0.0487549230456352, 0.0343459136784077, -0.1117622852325439, -0.0365801192820072, 0.0367977581918240, -0.0778013765811920, 0.0330149158835411
0.0917936041951180, -0.0712036341428757, 0.0070449560880661, -0.2363357543945312, 0.1543066799640656, -0.1464190036058426, 0.1095681935548782, -0.1650618612766266, -0.0143117280676961, -0.0351715572178364, -0.0905341356992722, -0.0667386949062347, -0.1562441885471344, 0.0467767342925072, 0.1795786172151566, -0.0640173256397247, -0.0361535772681236, 0.0748394578695297, -0.2503585517406464, -0.1066465750336647, 0.0394435189664364, -0.0842657461762428, 0.0765149742364883, -0.0178698338568211, 0.0962586998939514, 0.0211957097053528, 0.0479366220533848, -0.1487653702497482, -0.0884256511926651, 0.0015914816176519, -0.1636945605278015, 0.0902680754661560, -0.2813390791416168, 0.2172353714704514, 0.1312334388494492, -0.0071045849472284, 0.1006136909127235, 0.0475952513515949, -0.0475570969283581, 0.0147987874224782, -0.2100915163755417, -0.0550912097096443, 0.1079888716340065, -0.0934026837348938, -0.1275154948234558, 0.0585837922990322, 0.1045321449637413, 0.2614636123180389, 0.1549715548753738, -0.1834098696708679, 0.1561611145734787, 0.1852723062038422, 0.0502593107521534, 0.0281787887215614, -0.1327333897352219, 0.1524848937988281, 0.1449322402477264, 0.1647709459066391, -0.0937051549553871, -0.0438913628458977, 0.0860851928591728, -0.0129641331732273, -0.1236098632216454, 0.0596752017736435
0.1449396461248398, -0.0907690823078156, 0.0892913714051247, -0.0777156427502632, 0.1619573682546616, -0.0659754872322083, -0.0762913525104523, -0.0928569883108139, -0.1576264947652817, -0.0472080931067467, -0.0581064671278000, -0.0427304506301880, -0.1103337183594704, 0.0481455251574516, 0.0746619775891304, -0.0727969855070114, -0.1359661221504211, 0.0956632122397423, -0.0536466427147388, -0.0762946754693985, -0.0881289690732956, -0.1304282993078232, 0.1797138750553131, -0.1209522932767868, 0.1223677992820740, 0.1119269132614136, 0.1556621491909027, -0.3559462130069733, -0.1479541659355164, -0.1993125230073929, -0.0165562480688095, 0.0418167710304260, -0.2457043975591660, 0.3522707819938660, -0.0550134181976318, -0.0417648665606976, 0.1160661876201630, 0.0742498859763145, 0.0332922078669071, -0.1060319989919662, -0.1082688868045807, -0.1013110429048538, 0.3277604281902313, -0.2271003276109695, -0.2321667671203613, 0.2335585802793503, 0.2446236014366150, 0.2340004146099091, 0.0491924993693829, -0.0825647115707397, 0.2020398229360580, 0.1191694661974907, 0.0887855291366577, 0.1889913976192474, -0.1794787943363190, 0.1853478103876114, 0.1979162096977234, 0.0183925237506628, 0.0237303804606199, -0.1654154956340790, 0.0476761534810066, -0.2420860528945923, -0.0378084182739258, -0.0822706073522568
0.1471785604953766, 0.2215648293495178, 0.0248783472925425, -0.0622183643281460, 0.1491118520498276, -0.1742611229419708, 0.0147378677502275, -0.1695231199264526, -0.0702234506607056, 0.1009183749556541, -0.0262099169194698, -0.0435634590685368, -0.3219904899597168, 0.1763694882392883, -0.0231582634150982, 0.0357575453817844, -0.1198431104421616, 0.0684380084276199, 0.0051472308114171, -0.0674792751669884, 0.1651989221572876, 0.0740107074379921, 0.2741573154926300, 0.1757491827011108, 0.1160077825188637, 0.0192415807396173, -0.0898503959178925, -0.0773165002465248, -0.1325182616710663, -0.3694630861282349, -0.0247779376804829, 0.1440307646989822, -0.2506033778190613, -0.0513994432985783, 0.2439821511507034, -0.1248247101902962, -0.1187235116958618, 0.0336835309863091, 0.2539904117584229, -0.0025656134821475, -0.0047793430276215, -0.0020104066934437, 0.0284616518765688, -0.2610946893692017, -0.2437103539705276, 0.2243043035268784, 0.2807507812976837, 0.2250451743602753, 0.0377398356795311, -0.1628298163414001, 0.1918882280588150, 0.1250645667314529, 0.2812575399875641, -0.0265705622732639, -0.1782787144184113, 0.1702286303043365, 0.2973258793354034, 0.0697477757930756, 0.0064308019354939, -0.1455625891685486, -0.0157376863062382, -0.2023791521787643, -0.1663443297147751, 0.1633664667606354
-0.0185832791030407, 0.2547688484191895, 0.0515218973159790, -0.1235669702291489, 0.3338904976844788, -0.1281325817108154, 0.0363102555274963, -0.4138419628143311, -0.2625602781772614, 0.2448875606060028, 0.0737832039594650, -0.0670750811696053, -0.2898999154567719, 0.2228984087705612, 0.0265666004270315, 0.1635014712810516, -0.0343395248055458, -0.0084993150085211, -0.1380669474601746, 0.0210667122155428, 0.3607265949249268, -0.0869424343109131, 0.6125603914260864, 0.1320866346359253, -0.0227704569697380, -0.3577560186386108, -0.2746324837207794, 0.1075785681605339, -0.0637611746788025, -0.2491961866617203, -0.0313599184155464, 0.2506095170974731, -0.5364364385604858, -0.2151329666376114, 0.2432476431131363, 0.2910331189632416, -0.3121966123580933, 0.0789057537913322, 0.3131450116634369, -0.0629226192831993, 0.0385146476328373, -0.2777947187423706, -0.0254996921867132, -0.1854448765516281, -0.2061922252178192, 0.4193607866764069, 0.5381143093109131, 0.3298532366752625, -0.0728053376078606, -0.0118300402536988, 0.2379450649023056, 0.2217328399419785, 0.4888232052326202, -0.2738896012306213, -0.4115839600563049, 0.2326317280530930, 0.5463669896125793, -0.0828823596239090, -0.1136442124843597, 0.0629373863339424, 0.0965003222227097, -0.1288708597421646, -0.2223945409059525, 0.3741419315338135
0.2027320712804794, 0.0155739700421691, 0.0302810352295637, -0.0397809222340584, 0.1833265423774719, -0.3673340082168579, 0.0565534681081772, -0.3418428003787994, -0.2429918646812439, 0.3135868906974792, -0.0838402658700943, 0.0260498393326998, -0.3522546887397766, -0.0891471356153488, 0.0801113247871399, 0.0646906644105911, -0.0687282383441925, 0.2045965641736984, -0.0688801258802414, -0.0500582195818424, 0.0978164449334145, -0.0051755374297500, 0.3822063207626343, 0.0617009475827217, 0.4055157303810120, -0.2424196600914001, -0.3258408904075623, 0.0953645557165146, -0.1063648536801338, -0.2012231051921844, -0.0346150696277618, 0.0727784559130669, -0.0387642793357372, 0.0189755819737911, 0.0943270176649094, 0.3655370175838470, -0.0815338268876076, 0.1587392836809158, 0.0475268699228764, -0.1375166773796082, 0.0293289776891470, -0.2682925462722778, 0.1257510334253311, -0.2688600718975067, -0.1354867964982986, 0.2885358333587646, 0.1982257813215256, 0.3586474657058716, -0.1147251799702644, -0.1229234263300896, 0.1534188538789749, 0.2501661777496338, 0.4361406564712524, -0.1920662224292755, -0.4737776517868042, 0.4847425818443298, 0.4052684605121613, -0.0861976668238640, -0.0692344084382057, -0.2748757302761078, 0.2643588185310364, -0.3317078053951263, -0.2908860146999359, 0.1333331018686295
0.2915770411491394, -0.1872195303440094, 0.1965184956789017, -0.0843266099691391, 0.2679056823253632, -0.2801302671432495, -0.0528340674936771, -0.3439230024814606, -0.0960268750786781, 0.3658164143562317, -0.0722484365105629, -0.0526927821338177, -0.4353948235511780, 0.0423637442290783, 0.3685277998447418, -0.1482776254415512, 0.0095031922683120, 0.3627820312976837, -0.1925805360078812, -0.3905181884765625, 0.0518016703426838, 0.1722123324871063, 0.3656743764877319, 0.0490566045045853, 0.4452825188636780, -0.1045135259628296, -0.2017502635717392, -0.4336830675601959, -0.3052866756916046, -0.3304603993892670, -0.0719419792294502, 0.0909160673618317, -0.0218721497803926, 0.1877758353948593, -0.0106088267639279, 0.1293451786041260, -0.1751584261655807, 0.3438551723957062, 0.1340162754058838, -0.0518783479928970, 0.0638750791549683, -0.1827346533536911, 0.2005423605442047, -0.4059824645519257, -0.3755716383457184, 0.3167099952697754, 0.1022709980607033, 0.4300118088722229, 0.0183149762451649, -0.1335498541593552, 0.0908780023455620, 0.3601705133914948, 0.5137799978256226, -0.0240700859576464, -0.4651544392108917, 0.5433810353279114, 0.4247409701347351, -0.0193714983761311, -0.0362607203423977, 0.0252886675298214, 0.2635536789894104, -0.2849647402763367, -0.1796523928642273, 0.1428399831056595
0.0351515859365463, -0.0069320108741522, 0.2978666722774506, 0.0825994387269020, 0.0791267976164818, 0.1443292647600174, 0.1329897791147232, -0.1152932867407799, 0.0266199912875891, 0.0762735679745674, 0.0452976971864700, -0.0738613232970238, -0.1217527166008949, -0.0232009552419186, 0.3509900569915771, -0.0065103317610919, -0.2851792573928833, 0.1538269817829132, -0.2561253011226654, -0.0532960668206215, -0.0357810109853745, 0.0848707631230354, 0.1589754968881607, -0.0344710014760494, 0.1299668848514557, 0.1345647573471069, 0.1123057305812836, 0.0557501725852489, -0.0824883356690407, -0.0255247689783573, -0.2704413533210754, 0.1272674202919006, -0.2240494489669800, -0.0053003085777164, -0.2020042985677719, 0.1178408265113831, 0.0179652310907841, -0.0001279547286686, 0.4763142168521881, -0.0141012659296393, -0.0301889926195145, -0.3309815227985382, -0.1403946578502655, -0.4824642837047577, -0.3823026120662689, 0.1715334355831146, 0.1647618860006332, 0.1270867884159088, -0.1648103296756744, 0.2148192226886749, 0.2735972106456757, 0.3315883874893188, 0.3207807838916779, -0.2222148627042770, -0.3524674475193024, 0.5539562702178955, 0.2203626930713654, -0.2080527096986771, -0.0818581283092499, 0.3409434258937836, 0.0758956149220467, -0.1569755077362061, -0.3044140934944153, 0.3626434504985809
0.1821467429399490, -0.2360857725143433, 0.3313506543636322, 0.1832890063524246, -0.2555630207061768, -0.0923088863492012, 0.0963244587182999, 0.1346281766891479, 0.0435105450451374, 0.2478420287370682, -0.0605469234287739, -0.0253322534263134, -0.0391874313354492, -0.2396881133317947, 0.4664569497108459, 0.0453198924660683, -0.0955661088228226, 0.0581373386085033, -0.1680461913347244, 0.0021946176420897, -0.0169382449239492, -0.0673257783055305, -0.1187496259808540, -0.0294305924326181, 0.1232744231820107, -0.0086194137111306, 0.0792380645871162, 0.2978588938713074, -0.0444730781018734, 0.2082406282424927, -0.1763523966073990, 0.0505511276423931, -0.3965849578380585, 0.2884619235992432, -0.3435968756675720, 0.4026296436786652, -0.3137830793857574, 0.0123079903423786, -0.1491077393293381, -0.2602846324443817, -0.2375792413949966, -0.3558875620365143, -0.2403017133474350, -0.3167200386524200, -0.3241550326347351, -0.1110937520861626, 0.1386661529541016, 0.3390232324600220, -0.1677954196929932, 0.0659180730581284, 0.2008429914712906, 0.2254117429256439, 0.3619498312473297, -0.0480349101126194, -0.4464060962200165, 0.4720754027366638, -0.0424515381455421, -0.3297619521617889, -0.2671579718589783, 0.2364439964294434, 0.1442179977893829, -0.0697418525815010, -0.3128527998924255, 0.2437511384487152
0.5039516091346741, -0.3345122933387756, 0.1141370162367821, -0.0717547535896301, 0.0027574105188251, -0.3036014735698700, 0.2613500058650970, -0.1314355432987213, -0.0325259566307068, 0.2315570861101151, 0.1521260738372803, 0.1089356616139412, -0.1138713508844376, 0.0097478749230504, 0.3969891071319580, 0.1027473434805870, 0.0081577813252807, 0.3110974729061127, -0.3261189460754395, -0.1679668426513672, 0.1495641916990280, -0.1971196383237839, 0.2028510123491287, 0.1567136645317078, 0.2494758367538452, -0.1587373316287994, -0.3421196043491364, 0.0045583555474877, 0.0947570130228996, -0.0487798601388931, -0.0968056321144104, 0.2936212420463562, -0.1490403413772583, 0.2092208266258240, -0.1107586398720741, 0.2559111118316650, -0.4009639322757721, 0.1446847766637802, 0.3197781741619110, -0.3014459311962128, -0.1284105777740479, -0.2274913936853409, -0.0427060350775719, -0.1846516728401184, -0.3754236102104187, -0.0171760581433773, 0.1690249741077423, 0.4270045757293701, -0.0304811354726553, -0.1617413163185120, 0.0609178058803082, 0.1651865392923355, 0.5077232718467712, -0.0702217742800713, -0.4430917203426361, 0.3844648599624634, 0.2203181236982346, -0.1891018748283386, -0.0122364303097129, 0.1741818040609360, 0.1243629157543182, 0.0217820629477501, -0.2966914474964142, 0.4121568799018860
0.5498688817024231, -0.3418379127979279, 0.1435634493827820, -0.1598435491323471, -0.1014240533113480, -0.3825015723705292, 0.3972297310829163, -0.2680005133152008, -0.0448585636913776, 0.1749733090400696, 0.1453065425157547, -0.2109045684337616, -0.1523358672857285, -0.1050428599119186, 0.3034306466579437, -0.1721784025430679, -0.1721290349960327, 0.2801320552825928, -0.2452201098203659, -0.3426450490951538, 0.0313362330198288, -0.1579487919807434, 0.2221584916114807, 0.2531973421573639, 0.4870704710483551, -0.2353678047657013, -0.1944635063409805, 0.0710959509015083, 0.0249278489500284, 0.0636442676186562, -0.1634628325700760, 0.1794529855251312, -0.1300127357244492, 0.3297828435897827, -0.0926625952124596, 0.0285869352519512, -0.3494048416614532, 0.2060971558094025, 0.2876193523406982, -0.3232286870479584, -0.1193832531571388, -0.1052827984094620, -0.0484005697071552, -0.3383491635322571, -0.2521222233772278, 0.0501021184027195, 0.1991251558065414, 0.5212373733520508, -0.0533310398459435, -0.0788397118449211, -0.1358673125505447, 0.0196589790284634, 0.4761145114898682, 0.1770356148481369, -0.4307239949703217, 0.1756506413221359, 0.2370563149452209, -0.1000859364867210, 0.0339087769389153, -0.0630952417850494, 0.0932952910661697, 0.0323153920471668, -0.2099875658750534, 0.4504889547824860
0.2768652141094208, -0.1357005536556244, 0.2663691639900208, -0.1452630162239075, -0.0446540340781212, -0.2732011675834656, 0.1596971750259399, -0.1747161298990250, -0.3282193541526794, 0.1454892903566360, 0.1880919486284256, -0.3792083561420441, 0.0097184451296926, -0.2211867719888687, 0.4318843781948090, -0.3883848190307617, 0.0246615167707205, 0.1776541173458099, -0.3150923848152161, -0.3494199514389038, 0.1089627593755722, 0.0572053827345371, 0.0555677823722363, 0.0637626796960831, 0.5210843682289124, 0.0809718519449234, -0.1285647600889206, 0.2234318107366562, 0.0256316158920527, 0.0594973787665367, -0.1387076079845428, 0.0179410185664892, -0.2298763245344162, 0.3719436228275299, -0.1517720073461533, 0.0492053106427193, 0.0765045806765556, 0.2703163921833038, 0.2441978305578232, -0.4238078892230988, -0.4020552337169647, -0.0605425499379635, 0.0963554009795189, -0.4900509119033813, 0.0315134003758430, 0.0552575513720512, 0.1302085816860199, 0.3508209884166718, -0.1425374448299408, 0.0379848591983318, -0.3386579751968384, -0.0411178655922413, 0.1478917896747589, 0.3352286815643311, -0.2059034556150436, 0.2680269181728363, 0.1774660646915436, -0.1537692397832870, -0.2246088385581970, 0.0740332677960396, 0.0970626696944237, -0.3216077685356140, -0.2413397580385208, 0.3490563929080963
0.0543809980154037, 0.2505775094032288, 0.1768514066934586, 0.2323154062032700, -0.0160434618592262, -0.3811396956443787, 0.0139498254284263, -0.1431814134120941, -0.0943651050329208, 0.0281753372400999, 0.0488015897572041, -0.1995086073875427, -0.0171965584158897, -0.3474449217319489, 0.4310201108455658, -0.4318129420280457, 0.1337124109268188, 0.1409242898225784, -0.1225548461079597, -0.3280152082443237, -0.1640648394823074, -0.0590283423662186, 0.0012303330004215, -0.1971727162599564, 0.5781469941139221, 0.1830803304910660, -0.1050390973687172, -0.2436340004205704, -0.1056056097149849, 0.2358175963163376, -0.1379844695329666, 0.1255783140659332, -0.3171873986721039, 0.4197255671024323, -0.0864885821938515, -0.1377138644456863, -0.0054590976797044, 0.1209071502089500, 0.3068314492702484, -0.1874306201934814, -0.3024532496929169, 0.2829593420028687, 0.1515721231698990, -0.5642434954643250, -0.0947706177830696, 0.0180571619421244, 0.2881004214286804, 0.3397254347801208, 0.0801391452550888, -0.1116770207881927, -0.3892786502838135, -0.1833744496107101, 0.0658952221274376, 0.3580425381660461, 0.0818968489766121, 0.2214776128530502, 0.0298372395336628, -0.2175525724887848, -0.3242984712123871, 0.2270712256431580, 0.2603597342967987, -0.1443464457988739, 0.0507208518683910, 0.1656762212514877
-0.0948054715991020, 0.4998785257339478, -0.0051529412157834, 0.2072943896055222, 0.0919135734438896, -0.2876745760440826, -0.0602511949837208, -0.1847317069768906, 0.1027592793107033, -0.1851386427879333, -0.1395068913698196, -0.3055485486984253, -0.1198574081063271, -0.1358893513679504, 0.0226532407104969, -0.3469929397106171, -0.0023020878434181, 0.3031896948814392, 0.1767943203449249, -0.2691113352775574, -0.2131203413009644, 0.1925018131732941, -0.0482592396438122, -0.1875269263982773, 0.6301735043525696, 0.0924526974558830, 0.0542345978319645, -0.0047768908552825, -0.1255251914262772, 0.1822866499423981, 0.0666485503315926, -0.1526345759630203, -0.3397258222103119, 0.3529624044895172, -0.0885873287916183, -0.3759073615074158, 0.0093243531882763, 0.1261057406663895, -0.1482177525758743, -0.3731712400913239, -0.0963892415165901, 0.3293836116790771, 0.2251626402139664, -0.5652676820755005, -0.1786593794822693, 0.1049318164587021, 0.1613359749317169, 0.2214554399251938, 0.2268307805061340, -0.0749775618314743, -0.3610717356204987, -0.1262351125478745, -0.1482200473546982, 0.2851915359497070, 0.1887511610984802, 0.2274148464202881, 0.1462014615535736, 0.1873914748430252, -0.2158773690462112, 0.1412815004587173, 0.3716468513011932, 0.0368883237242699, 0.0675723925232887, -0.1599299013614655
-0.0278340205550194, -0.1304370611906052, 0.1430821269750595, 0.2924683392047882, 0.1217822134494781, -0.2180505394935608, -0.3243395090103149, -0.3609873950481415, -0.0536612607538700, 0.1984218657016754, -0.1036310344934464, 0.1081090942025185, -0.1268213391304016, -0.2916304767131805, 0.2724416851997375, -0.2176446616649628, 0.1978965401649475, 0.1608568876981735, 0.0862681046128273, -0.2291686981916428, -0.2227236479520798, 0.2467700988054276, -0.2307450324296951, -0.0326976403594017, 0.3687024116516113, -0.0054475599899888, -0.2554173171520233, -0.0122094750404358, -0.3167160153388977, 0.2509130239486694, -0.0385279841721058, -0.3437246382236481, -0.4024213552474976, 0.4369134008884430, -0.2522037923336029, 0.0688898637890816, 0.1834355443716049, 0.2846742570400238, -0.2018368244171143, -0.0406367368996143, -0.0640949904918671, 0.2887623608112335, -0.0046219243668020, 0.0654169917106628, -0.0204158443957567, -0.0561052300035954, 0.0787483379244804, 0.3359337747097015, -0.1204781830310822, -0.3743293583393097, -0.1995338946580887, -0.2325813025236130, 0.0628622546792030, 0.2856940329074860, 0.0592598095536232, 0.2036496400833130, -0.1692308932542801, -0.0830616652965546, -0.3363013863563538, -0.0944918021559715, 0.3378999531269073, -0.3354192674160004, 0.1403461694717407, -0.0440733246505260
