-0.492325425148, 0.739706993103, 0.635553002357, 0.271154433489, -0.146787837148, -1.212920308113, -1.027114033699, 0.396671444178, 0.032762780786, -0.348888903856
0.533804893494, 0.818089663982, 0.355926573277, -0.853294014931, 0.182302266359, -0.209856003523, 0.667492747307, 0.278109699488, -0.155470952392, -1.337681055069
0.491081237793, -0.678124189377, -0.161821827292, -0.263221025467, -0.047402560711, 0.379938811064, -0.356037110090, 0.037905223668, 0.105670250952, 0.307690471411
0.346551775932, -0.695466995239, 0.221698746085, 0.355360835791, 0.121282704175, -0.254993051291, 0.259891062975, 0.242646023631, 0.303647130728, -0.101049616933
0.326228559017, 0.098136037588, 0.398708581924, 0.420698463917, -0.209182754159, -0.501183807850, 0.524470210075, 0.900994122028, -1.072201609612, -1.676219940186
-0.255418688059, -0.344697415829, -0.115715906024, -0.110430099070, 0.048038501292, -0.477423250675, 0.486695587635, 0.414300471544, 0.285514235497, 0.328236371279
-1.157540440559, -0.875059306622, 0.165782615542, 0.963742971420, 0.408708453178, 0.087497159839, -1.153459429741, 0.639215052128, -1.607971072197, -0.095732659101
0.107589915395, 0.663333535194, 0.262557357550, -0.312072783709, -0.411800920963, 0.020966768265, 0.389066636562, -0.952791094780, -0.071144007146, -0.029770182446
-0.429312139750, 0.629842936993, 0.630578994751, -0.517322182655, -0.327896058559, 0.350314199924, 0.055418632925, 0.637614786625, -0.638843417168, -1.584159493446
0.238336563110, -0.404297351837, 0.257470875978, -0.283081322908, -0.056141346693, 0.267644405365, 0.475975245237, -0.315484732389, 0.414184719324, -0.191580981016
-0.011692496948, 1.001530885696, -1.120124936104, -0.229230582714, 0.133261084557, -0.075028762221, 0.273639708757, 0.382645666599, -1.012583732605, 0.451742351055
-0.207785353065, 0.342848241329, 0.274098068476, 0.233879417181, -0.144152089953, -0.369469165802, 0.133151471615, -0.419275105000, -0.178510278463, 0.350352257490
-0.615758895874, 0.593124628067, -1.105319857597, 0.445786714554, 0.563477098942, 0.428007364273, 0.326665848494, -0.312704920769, -0.264216184616, -0.992271661758
0.109611243010, -0.125404000282, -0.553942680359, -0.102568358183, 0.060435246676, 0.117251783609, 0.194580718875, 0.366073906422, 0.356420964003, -0.012085230090
0.433346390724, -0.497027218342, 0.096530504525, -0.503290235996, 0.218892633915, 0.136479109526, 0.219839796424, -0.523147881031, 0.111063554883, -0.540546715260
-0.424313932657, -1.003525018692, 0.618867695332, -0.382500648499, 0.173197641969, 0.023393472657, 0.500070810318, -1.088402390480, 0.327019006014, 0.326114445925
0.596080541611, -0.762983500957, 0.230777353048, 0.126007005572, -0.771607756615, -0.149815678596, -0.404366403818, 0.224646195769, -0.398308604956, 0.457805573940
-0.879492342472, 0.220195338130, -0.319222062826, -0.834107875824, 0.395011752844, -0.170438304543, 0.576977491379, -0.787241935730, 0.245177999139, 0.352247357368
-0.764517426491, 1.079356551170, -0.321337342262, 0.619782507420, 1.500223875046, -1.449753522873, -0.381850779057, 0.540607154369, -0.499152153730, -1.161548733711
-0.006942963228, 0.126855015755, -0.157420620322, 0.023191360757, -0.579717278481, -0.268719702959, 0.399460703135, 0.128527909517, 0.087416410446, 0.273762464523
-0.177500471473, 0.276281893253, 1.082195997238, -0.186728015542, -1.130608439445, 0.337034285069, -0.071607865393, -0.054034933448, 0.380928814411, -1.476321816444
-1.214656114578, -0.302568048239, -0.912860393524, 0.372624754906, 0.593527734280, 0.247675940394, -1.485855937004, -0.046948526055, 0.170562162995, 0.290898114443
0.148116692901, 0.372326284647, -0.208836257458, 0.146954327822, 0.135850548744, 0.166009172797, -0.515599131584, 0.252660006285, 0.434133142233, -0.092941485345
0.124771736562, -0.443474888802, 0.427271395922, -0.852919399738, 0.110406115651, 0.305870175362, -0.522418677807, -0.226083368063, 0.244399964809, 0.434326142073
0.322391003370, -0.233930006623, 0.356569945812, 0.182181283832, 0.232769280672, -0.124028161168, -0.318632721901, -0.673281908035, 0.362055271864, -0.207211881876
-0.862659394741, 0.583049416542, 0.079844206572, -0.726890206337, 0.239884838462, -0.262306898832, 0.455888658762, 0.192540988326, 0.267257511616, -0.232935056090
-1.144605994225, -0.306532621384, 0.190639346838, -0.098935179412, -0.080763384700, 0.543990731239, -0.821982979774, 0.714398503304, -0.258156359196, 0.429020881653
-0.092269025743, -0.216098055243, 0.917681992054, -1.317941665649, 0.326695322990, -0.920276701450, 0.162731692195, 0.736059963703, -0.726274609566, -0.197642013431
0.030147586018, -0.396767020226, 0.209724247456, 0.316122531891, 0.123659007251, 0.469443559647, 0.421559333801, -1.204011797905, -0.045885089785, -0.585513234138
-0.427802294493, 0.261871188879, -0.239223510027, 0.239510416985, -0.348475784063, -0.021017996594, -0.833772957325, 0.380043298006, -0.799046933651, 0.316529333591
0.166446253657, 0.430064767599, 0.701784729958, -0.071309983730, -0.763215482235, -0.102980636060, -1.343608021736, 0.474970042706, -0.691643953323, 0.282593101263
-0.363236665726, 1.288710594177, -1.003693938255, -0.474072307348, -1.894649147987, 1.159488320351, 0.533953070641, -0.194339856505, -0.366088390350, -0.083971992135
0.307610064745, -0.835213482380, -0.454011827707, -0.091620311141, 0.023423764855, 0.417687088251, 0.033250343055, -0.059687424451, 0.256466925144, -0.037687428296
0.527616202831, -0.449136316776, 0.053172476590, -0.016466675326, -0.902804791927, -0.084299601614, -0.091980777681, -0.601728081703, -0.167759448290, 0.420049995184
-1.597097277641, -0.782094120979, 0.045341100544, 0.603891551495, 0.128973603249, 0.526665389538, -0.296378552914, -0.650127172470, 0.388565808535, 0.242863282561
-0.874151766300, -0.405942171812, 0.374307662249, -0.038142576814, -1.161796331406, 0.918723404408, 0.203252956271, 0.505072891712, -0.643339753151, -1.774567842484
0.233047857881, -0.059128843248, -0.377906233072, 0.339128732681, -0.631611168385, 0.087534040213, -0.229264214635, -0.518270134926, 0.383039176464, 0.284843027592
-0.516463279724, 0.340018093586, -0.491033792496, 0.430109769106, -0.253354281187, -0.112370997667, -0.452306210995, -0.016061402857, 0.318945944309, 0.109413877130
0.541590213776, -1.712814927101, -0.604333221912, 0.159137383103, 0.112055607140, 0.338185399771, -0.039855293930, -0.410312354565, -0.157158806920, 0.197631940246
-0.489948362112, 0.694443464279, 0.250443220139, 0.372320443392, 0.347927480936, -1.747238755226, -1.164011478424, 0.340485334396, -0.171186357737, -0.040400896221
0.548504352570, 0.165803477168, -0.089312873781, 0.235727056861, -1.715778231621, 0.418385386467, 0.820569932461, -0.373922079802, 0.191358715296, -0.392897069454
-0.479127496481, -0.904827296734, 0.280272990465, 0.359069049358, -0.621387839317, 0.438103407621, -1.362263798714, -0.588027417660, 0.228707417846, 0.547806084156
-0.540000140667, 0.187467768788, -0.113362647593, 0.356262415648, -0.288797229528, -0.048287667334, 0.364324301481, -0.666816413403, 0.384110867977, 0.186048656702
0.754162430763, -0.834835290909, 0.527004182339, 0.337733119726, -1.653505206108, 0.175570085645, -0.292886227369, -0.269222825766, -0.448755532503, -0.311832726002
-0.097919762135, -0.235447376966, 0.435640931129, -0.237267762423, 0.374182254076, -0.513687908649, 0.169159650803, -0.562238156796, 0.455863416195, -0.181995317340
0.031409621239, -0.864447236061, 0.232922196388, 0.424767553806, -0.141970768571, -0.525053918362, 0.196304887533, 0.465767920017, -0.149908870459, 0.334105700254
0.485437333584, -0.248393177986, 0.635017156601, 0.088644288480, -0.894672870636, -1.343099713326, -0.894738793373, 0.372495710850, -0.017673674971, 0.261988431215
0.043788205832, -0.103223390877, -0.192506283522, -0.055710110813, 0.132304817438, 0.172767862678, -0.115609243512, -0.041153419763, 0.256930679083, 0.028085682541
0.253336668015, 0.079348526895, -0.369372576475, -0.582322299480, -0.008547984995, -0.205468729138, 0.155888572335, -0.420405000448, 0.369449108839, 0.334246188402
-0.010152155533, 0.730280995369, 0.567461073399, 0.493832945824, -0.572284460068, 0.394322484732, 0.394096374512, 1.199367403984, -1.192225456238, -1.271038055420
0.496630609035, 0.770289599895, 0.419219553471, -0.361245006323, 0.449846118689, -1.021812319756, 0.088696092367, 1.288516283035, -1.112725734711, -0.180738031864
-0.955110907555, 0.604397177696, 0.484267950058, 0.088090650737, 0.109816357493, 0.064554139972, -1.059104204178, 0.476871818304, -0.006410703994, -0.818955898285
-1.410894513130, 0.376899600029, -0.143332198262, 0.325955003500, 0.575294733047, -0.019069224596, -0.684822261333, -0.652125954628, 0.547659039497, -0.425422728062
0.520262658596, 0.231452748179, -0.815513253212, -0.542494237423, 0.415925592184, -0.637235522270, 0.512768208981, 0.462449729443, -0.088516980410, 0.435809433460
0.057031415403, -0.585970342159, -0.805894970894, 0.311224937439, 0.145425602794, 0.382398635149, -0.153179377317, -0.012656893581, 0.111043587327, -0.043780107051
0.302415341139, 0.144381210208, 0.344184249640, 0.370558589697, 0.332719892263, -1.458608269691, -0.192465171218, 0.061829309911, -0.443309456110, 0.513000547886
-0.503051698208, -0.966302990913, -0.994764745235, 0.058532685041, 0.537126660347, 0.183619499207, -0.843865573406, 0.035476028919, 0.350063532591, 0.232764646411
0.286051422358, -0.796120703220, 0.919290482998, -0.312141120434, 0.141253069043, 0.372881174088, 0.077435962856, -0.634605646133, -2.036672830582, 0.312869578600
-1.331570386887, 0.948284864426, -0.326914697886, 1.002836704254, -0.307391077280, 0.938893556595, -2.382865428925, -0.900833368301, -1.713407993317, 0.752943217754
-0.004180626012, -0.532784998417, -0.120042406023, -1.012976288795, 0.358183324337, 0.257061272860, 0.477049171925, -0.923466622829, 0.401792496443, -0.123092629015
-0.414220780134, -0.483741283417, -0.578486382961, -1.334880232811, 0.597855150700, 0.787094295025, -0.362628072500, 0.128796294332, 0.635758399963, 0.156687557697
-0.186202660203, -0.215744018555, 0.295491069555, -0.225500971079, -0.945131897926, 0.130217894912, -0.795120596886, 0.343441337347, 0.335100501776, 0.384523749352
0.373890608549, -0.378538489342, -0.340652197599, 0.838217616081, 0.086990907788, 0.299325585365, 0.031380791217, 0.616078317165, -0.517863333225, -1.104608535767
0.348417133093, 0.101659245789, -0.275266349316, -0.875484287739, 0.390250802040, 0.542880237103, -1.125351548195, 0.497657239437, -0.977756142616, 0.633634924889
