0.163423702121, -0.565923392773, -0.109284721315, 0.112783171237, -0.002008372685, 0.166930362582, 0.290338575840, -0.372179061174, -0.019825268537, -0.322403669357
-0.431967377663, 0.213143154979, 0.303723841906, 0.798987329006, -0.080730885267, -0.990584671497, -0.960607469082, -0.260661870241, -0.752036988735, -0.124509111047
0.444636225700, -0.138769268990, 0.109051577747, -0.298713982105, -1.330865859985, -0.203727334738, 0.035754561424, 0.501343607903, -0.309996008873, -0.262751340866
-0.998652517796, 0.490598738194, 0.423086702824, -0.315895944834, -1.077322244644, 0.355423301458, 0.068089686334, 0.121978223324, 0.318065643311, -0.732186675072
-0.082899369299, -1.268154978752, 0.300515234470, -0.612384736538, 0.386025667191, 0.427872717381, 0.307206690311, -0.068008847535, 0.406897872686, 0.101646028459
0.136982053518, -0.486928313971, 0.432301521301, 0.286820501089, 0.180667966604, -0.179412573576, 0.241423517466, -0.697952032089, -0.272387623787, -1.060634732246
0.113626889884, 0.239090934396, 0.320812255144, -0.512349963188, 0.494728296995, -1.329070687294, -0.834183454514, 0.334919035435, -0.160607084632, 0.205311462283
-0.533815562725, -0.077535100281, 0.073965035379, 0.281758666039, 0.032121665776, -0.094568431377, 0.370736271143, -0.156889423728, -0.083254881203, 0.007620981894
-0.622017025948, -0.340745270252, -0.478934556246, 0.337874710560, 0.089605830610, 0.518321752548, -1.005812883377, -0.656796336174, -1.090153217316, 0.443743437529
-0.442561566830, -0.487681597471, -0.266965746880, 0.028548117727, 0.359730541706, -0.205721363425, 0.172213315964, 0.110922463238, -0.171029657125, 0.297232896090
-0.373234570026, -1.010554194450, 0.178516641259, -0.208407863975, -0.048330072314, 0.316039830446, -0.773086428642, 0.481074780226, 0.351418375969, -0.043836604804
-0.033027671278, -0.470751017332, 0.035091888160, -0.106042906642, 0.161520674825, -0.161902442575, -0.009031810798, -0.452546596527, 0.159791126847, 0.042307898402
-0.021683376282, 0.230146631598, 0.069584503770, 0.349114865065, -0.596926152706, 0.254724115133, -0.206694260240, -0.113591492176, 0.214289441705, -0.366102516651
0.314136415720, 0.222611203790, 0.460700362921, 0.242804080248, -0.196610987186, 0.251872181892, -0.317567944527, -0.343151956797, 0.329239815474, -0.424250066280
-0.349904030561, 0.346005856991, -0.263977319002, -0.395773559809, -0.210014894605, 0.553062856197, 0.330583125353, 0.702221512794, -0.787745773792, -0.369152903557
0.283255338669, -0.112788803875, 0.304728209972, -0.051613058895, -1.252064585686, 0.231214925647, -0.193007677794, -0.617920637131, 0.183326795697, 0.363498717546
-0.683071255684, 0.263592362404, 0.387998670340, 0.008124331944, -0.531462550163, 0.235060811043, -0.064400233328, 0.394625812769, -1.132503390312, -0.419588387012
0.535965681076, 0.886982023716, -0.551045536995, -0.383735090494, 0.216276705265, -0.771056294441, 0.206630513072, 0.389459550381, -0.066671170294, 0.245427325368
0.321474492550, -0.167194619775, 0.403462976217, -0.012509753928, -0.430158376694, 0.342058718204, -0.610278189182, -0.069984920323, -0.001116346335, 0.405577331781
0.102742493153, 0.190999284387, -0.815792024136, -0.845541954041, 0.001861499390, 0.218025118113, 0.737839102745, -0.723104000092, -0.434621602297, 0.252604722977
-0.083117194474, 0.181719660759, 0.262575447559, 0.547881782055, -1.565359234810, 0.456302314997, -0.642503321171, 0.312163025141, -0.325009942055, 0.326642364264
-0.120997019112, 0.191642984748, -0.860057711601, -0.000247581513, 0.136969000101, -0.427851736546, 0.455369919538, 0.070791900158, -0.749597251415, -0.345329076052
0.271654486656, 0.070917561650, 0.512268364429, -0.219211369753, -0.512101471424, 0.263188451529, -0.511195302010, -0.405636429787, -0.846928656101, 0.155036255717
-0.069695368409, -0.145517617464, -0.278956919909, 0.280604660511, 0.040107011795, 0.020970379934, -0.599861919880, 0.282447874546, 0.303878873587, 0.370749592781
-0.744066417217, 0.506336390972, 0.070052526891, 0.312678486109, 0.696418583393, -0.210911169648, -0.469248324633, -0.025531373918, -0.254429787397, -0.909075260162
0.249826714396, -0.516630589962, 0.344175457954, -0.389819175005, 0.315124839544, -0.290875554085, 0.329367965460, -0.728451550007, 0.001032314496, 0.426606357098
-0.461044877768, 0.373041063547, 0.401039391756, -0.955144703388, 0.461288511753, -1.073417305946, -0.168974369764, 0.448830962181, 0.269452124834, -0.281287193298
0.081552878022, 0.015349945053, 0.145615994930, 0.285601794720, -0.101949617267, 0.235484063625, -0.261983036995, -0.238396167755, 0.356922149658, 0.206335440278
0.307787835598, -0.552396237850, 0.170062333345, -0.033403676003, -0.187042728066, -0.463966310024, -0.367631196976, 0.349902719259, 0.255996555090, 0.211381703615
-0.092019498348, 0.367743492126, -0.722852110863, 0.183014854789, -0.828430831432, 0.518438816071, 0.134174466133, 0.253838449717, -0.460159182549, -0.499330341816
0.462096452713, 0.388834804296, 0.198071122169, -0.334305018187, -0.260217279196, 0.083473101258, 0.594016790390, 0.529966115952, -0.573382675648, -0.919392049313
0.295785605907, -0.408533602953, -0.336053699255, 0.142834991217, -0.291661143303, -0.326621741056, -0.190706714988, 0.112358182669, 0.338824570179, 0.108553789556
-0.121579959989, 0.256263017654, 0.189182907343, 0.397552877665, 0.243528649211, -0.473335385323, -0.736229777336, 0.188115715981, -0.560454010963, 0.331478893757
-0.668794870377, -0.045027744025, -1.380244970322, 0.244195207953, 0.281605482101, 0.445070028305, -0.081984452903, -0.056394662708, 0.038344286382, 0.152988538146
-0.535064280033, -0.096114158630, -0.287993758917, 0.396950066090, 0.044875107706, 0.095174387097, -0.093475297093, 0.245133399963, 0.335547953844, 0.024911476299
0.317657262087, 0.825688064098, -0.385645061731, -0.208260923624, -0.070498429239, -0.319089621305, 0.177867889404, 0.593779742718, 0.443437427282, -1.055047035217
-0.271674036980, 0.113982170820, -0.325328320265, -0.841393530369, 0.658886134624, -0.247784987092, -0.828922927380, -0.359760016203, 0.349089324474, 0.231361076236
-0.328312098980, -0.453263700008, -0.806508779526, -0.392182439566, -0.106930151582, 0.300929754972, -0.215171277523, 0.203902840614, 0.294477969408, 0.607089877129
0.500960111618, -0.094002299011, 0.056426301599, 0.018076062202, -0.060085400939, -0.805680811405, -0.008923620917, -0.083784140646, 0.177140831947, 0.384178847075
-0.855161428452, -0.757705807686, 0.046959128231, -0.340714931488, -1.005819320679, 1.080809116364, 0.465675890446, 0.269311815500, 0.088677085936, -0.001048814156
0.169469505548, 0.044848162681, 0.086269490421, -0.398364394903, 0.241615295410, 0.260276824236, -0.272196441889, -0.406125396490, 0.273186534643, 0.015353354625
0.014458942227, -0.632021248341, 0.181847423315, -0.727475881577, 0.440718442202, 0.041498698294, 0.309037387371, -0.485817879438, 0.449297666550, 0.069478571415
0.147333756089, 0.716856718063, 0.310989439487, -0.005197932478, 1.019913434982, -0.649150729179, -0.313926935196, 0.625260114670, -0.080406211317, -0.492368698120
0.407666712999, -0.395027011633, -0.210813298821, 0.412989139557, -0.152336597443, -0.078926973045, -0.286761701107, 0.002382528968, -0.647534489632, 0.015259332024
0.115108914673, 0.775053262711, -0.618707418442, -0.395692318678, -0.162798359990, 0.115816570818, 0.129826918244, 0.043070271611, -0.636616528034, 0.254079848528
-0.205536544323, -0.101220972836, 0.427318036556, 0.417029470205, -0.570178806782, -0.387736141682, -0.438233047724, -0.088583543897, 0.223534464836, -0.213704213500
-0.533822894096, 0.525426506996, -0.736546278000, -0.442143350840, 0.090353734791, 0.583485901356, 0.711262524128, 0.032288063318, -0.192168951035, -0.520879626274
-0.040282361209, -0.023186426610, 0.117991298437, -0.177696466446, -0.053359407932, -0.389260083437, 0.229048579931, -0.486861497164, 0.119053162634, -0.268531411886
0.486964851618, 0.307516247034, -0.170818150043, 0.299446076155, 0.431652635336, -0.481631606817, 0.259126096964, 0.427794963121, -1.126221776009, 0.233873903751
0.083442099392, -0.489641875029, 0.073311030865, 0.237736538053, 0.193645939231, -0.113370142877, -0.357517004013, -0.259200066328, -0.193096265197, -0.013025471941
-0.231745347381, -0.056875433773, -0.793116867542, 0.212549418211, 0.365355879068, 0.544590651989, 0.186421707273, -0.445332765579, 0.173700585961, -0.102472469211
-0.435772955418, 0.474844664335, -0.581389725208, -0.952376067638, 0.709177196026, 0.315861999989, 0.345882147551, 0.122921682894, -0.142200946808, -0.300544351339
0.525080084801, 0.070859238505, -0.340730249882, -0.071740865707, -0.689765572548, 0.114482693374, 0.384384155273, 0.009040609002, 0.330325275660, -0.306344151497
0.063334867358, 0.142300561070, 0.473460435867, -1.207319021225, 0.520620346069, -0.358147919178, -0.036613855511, 0.634581029415, -0.127274349332, -0.018854709342
-1.108654141426, 0.109413117170, -0.298624098301, 0.546691954136, -0.015748862177, 0.454271286726, -0.267018646002, -1.051757097244, 0.274523824453, 0.386205554008
0.065680295229, -0.829692244530, -0.434545874596, -0.215085715055, -0.115520857275, 0.130901619792, 0.110857240856, 0.001590206637, -0.139677658677, 0.276641011238
-0.677535593510, 0.329698562622, 0.355803757906, 0.288658082485, -0.528515279293, -0.516833543777, 0.451553106308, 0.145881026983, -0.220971375704, 0.050834298134
-1.022933602333, 0.167408734560, 0.624981343746, 0.578295707703, -0.475133955479, -0.196642324328, 0.006151529960, 0.436224251986, -0.568216085434, -0.978720605373
0.195525303483, 0.328881919384, 0.500464379787, -0.128213316202, 0.097305692732, -0.208358421922, -0.022982148454, 0.700252115726, -0.109596841037, -1.539509773254
-0.827026188374, -0.098536148667, -0.047928191721, 0.445439517498, 0.322556287050, 0.200097799301, -1.063712120056, 0.164544641972, 0.037976350635, 0.392311036587
-0.699276387691, 0.439507246017, 0.700708091259, -0.487774819136, -0.142649665475, -0.580783188343, 0.020971551538, 0.355677008629, 0.271948158741, -0.014312339015
-0.012648081407, -0.406314909458, 0.380748987198, -0.353239417076, 0.023024251685, 0.216185539961, 0.374093800783, -0.284630417824, 0.009502376430, -0.968472599983
0.367707848549, -0.433759450912, -0.369353920221, 0.434735059738, -0.941237390041, 0.516903102398, 0.073192238808, 0.282583951950, -0.305446624756, -0.251878321171
-0.200572177768, 0.338943749666, 0.019052525982, 0.215820997953, -0.444777458906, 0.078659266233, 0.381113916636, -0.667496263981, 0.266600042582, -0.226885527372
