0.03952998, 0.08997943, 0.05141522, -0.11399323, 0.04871991, -0.10121492, -0.00759594, 0.12219480, -0.02508695, -0.09636201, -0.10706729, -0.11222381, -0.00609936, 0.08294722, 0.03232454, 0.13999110, 0.08581482, -0.10996103, 0.06669304, 0.02187134, -0.06107564, -0.03910535, -0.10140857, 0.08047239, 0.03264305, -0.14741606, 0.06478487, 0.02306430, 0.09818456, -0.00098521, 0.04732244, -0.12832788, -0.09613891, -0.06632241, -0.08026591, -0.12963068, -0.07000698, 0.14799657, -0.08508024, 0.10725722, 0.09963626, 0.03941001, -0.10579719, 0.13303724, 0.06446017, 0.02057889, -0.07410198, -0.09719267, -0.02725335, -0.12280570, 0.04183267, -0.15103166, 0.00043944, -0.01374204, -0.02382149, 0.04756759, 0.06621505, -0.15135567, 0.05263975, 0.13396940, -0.00860983, 0.01250871, 0.07318366, 0.09384017
-0.11349084, 0.09947687, 0.09358087, 0.14603072, -0.07563173, 0.11686179, 0.13878155, 0.08384135, 0.02397598, 0.10354176, -0.13099124, -0.12131452, 0.06108324, 0.00302057, -0.14935410, 0.14730585, 0.03298908, 0.07774369, 0.08506314, 0.12226775, 0.00271711, -0.07534050, -0.10146996, 0.02273895, -0.00725783, -0.09440847, -0.13906074, 0.13113669, -0.05417698, 0.12183854, -0.14844452, 0.09243260, -0.02151640, -0.10451183, -0.05896924, 0.12458166, -0.04838932, -0.05742602, 0.10173270, 0.13819477, -0.07288188, -0.04139884, -0.09947197, -0.07292006, 0.00339174, -0.07307728, 0.13930726, 0.10494035, 0.10144109, -0.09783396, 0.09426801, -0.03887873, -0.14706995, 0.04622509, -0.00164366, -0.02246433, -0.07846969, 0.13056806, 0.06865035, 0.01058838, -0.11737689, 0.11734208, 0.10956651, 0.02878562
-0.12146412, 0.15336281, -0.11393832, 0.13007674, -0.05586839, 0.14177105, -0.14376527, -0.02451641, -0.07664806, 0.03041076, -0.03681146, -0.06575382, -0.01706078, 0.06099721, 0.12756218, 0.15653433, -0.04315379, 0.11050274, -0.00125428, 0.01227511, 0.01201797, 0.08176790, -0.03177762, 0.10819010, 0.06460454, -0.10385278, 0.11781672, 0.04450221, -0.03076125, -0.10630506, -0.09556523, -0.00608110, 0.11400361, -0.00979913, -0.06070539, 0.12634921, 0.13734096, 0.00628196, -0.04975726, 0.05019356, 0.15106547, -0.01476192, 0.07385767, -0.00154332, 0.02220619, 0.02022675, -0.04586266, -0.14773594, 0.05798664, 0.10383065, 0.15191101, -0.12151490, 0.02080659, 0.17740087, 0.02218719, -0.09273152, -0.12691338, 0.02491367, -0.13576449, 0.15048929, -0.03141936, 0.14240541, 0.01227092, 0.00641039
0.03366680, 0.14829998, 0.00488378, -0.00548055, 0.40181816, 0.19539389, -0.27858740, 0.06433005, 0.35155350, 0.20574233, 0.30234310, 0.10963739, -0.22060917, 0.20159756, 0.37814566, 0.24318247, -0.21798062, 0.15685876, -0.19428256, 0.17502593, -0.03379898, -0.12716055, 0.01688897, 0.04467651, -0.26192352, 0.26187232, -0.15415187, -0.33281299, 0.24370363, -0.36623681, 0.00420453, 0.40444478, -0.10239919, 0.28011960, -0.28547841, -0.07560345, 0.20728265, -0.11009886, -0.19178580, -0.12630835, 0.14449266, -0.25062215, 0.40361747, -0.13331018, -0.27517617, -0.23888737, 0.07147356, 0.05111098, 0.23846579, 0.28418803, -0.03549829, -0.25165316, -0.41313878, 0.15674338, -0.19932982, -0.31264061, -0.25584537, -0.23892573, 0.02557074, 0.26960066, -0.19277111, 0.15594356, -0.28422311, -0.17327836
0.08033492, 0.39128292, -0.28238893, 0.13476102, 0.35283154, 0.32918626, -0.22711107, 0.16361035, -0.14019971, 0.25875148, 0.24431287, 0.18822432, -0.04361656, 0.29748181, 0.48485854, 0.14188543, -0.10674717, 0.29669985, -0.54641122, 0.44850460, 0.11254312, -0.28863534, -0.16669600, 0.00769118, -0.27468914, 0.28891146, 0.03853459, -0.46057665, 0.40709201, -0.35496366, -0.14424628, 0.38935739, 0.26527241, 0.10461915, -0.23053645, -0.04968384, 0.02239732, -0.32419086, -0.07676382, -0.29605511, 0.09941006, -0.24767277, 0.27236646, -0.02922440, -0.15596278, -0.22920898, -0.06048029, 0.07075325, 0.10592978, 0.18496476, -0.19567290, -0.21374476, -0.29469016, 0.13841857, -0.14593707, -0.21115443, -0.24733806, -0.24711309, -0.13071848, 0.02402480, -0.23680708, -0.13090776, 0.04818310, -0.20624757
0.00687326, 0.32095376, -0.05774961, -0.04584202, 0.38563201, 0.41027686, -0.29541296, 0.55849618, 0.25957894, 0.50276852, 0.18722495, 0.37629014, -0.15134607, 0.26008621, 0.55509692, 0.34452462, -0.35010588, 0.35584953, -0.13102789, 0.42624193, 0.02142364, -0.35598475, -0.30370545, -0.14226179, -0.29395273, 0.23986271, -0.33974084, -0.52642345, 0.46586531, -0.66142493, 0.20882592, 0.39707139, 0.18149522, 0.38259828, -0.07306787, 0.14145516, -0.08123544, -0.61999464, -0.12350652, -0.34589684, 0.01850352, -0.33223230, 0.45472395, 0.06757350, -0.09861846, -0.41809094, -0.21162327, -0.13285512, 0.37236068, 0.36773476, 0.09622586, -0.03896968, -0.38556519, 0.31698769, -0.25827724, -0.51862860, -0.43502575, -0.27298552, -0.15844098, 0.38707274, -0.22725613, 0.07769025, -0.08993886, -0.17440420
-0.17780893, 0.43380177, 0.01017990, -0.05224258, 0.37533355, 0.14271484, -0.20859922, 0.18812619, -0.26761749, 0.51158065, 0.45686880, 0.16044903, -0.36800271, 0.47447073, 0.56719404, 0.05508900, -0.09226552, 0.00628879, -0.01010169, 0.33724323, -0.27907312, -0.31421545, -0.16729110, -0.12074305, -0.09565911, 0.01563692, -0.46029454, -0.60176402, 0.41193277, -0.53173542, -0.01159081, 0.69161737, 0.29291809, 0.45995149, -0.26627040, -0.20403337, 0.06847143, -0.36931396, 0.06698935, -0.49069816, 0.02583516, -0.43601298, 0.12920606, -0.08284834, -0.28812549, -0.41769451, -0.34613186, -0.04047278, 0.45729291, 0.11869280, 0.16910523, -0.06279505, -0.51614749, 0.71726102, -0.21178347, -0.11281068, -0.19045053, -0.23072162, -0.22353342, 0.35299292, -0.41556051, -0.10043154, 0.00390562, -0.27372694
0.20381863, 0.38246220, 0.06832059, -0.23403433, -0.19836080, -0.45050067, -0.46884125, 0.33417752, 0.06664097, -0.34590831, 0.43502104, 0.03367193, 0.03280272, 0.00625341, -0.08219657, -0.48267716, -0.11206608, -0.16506436, 0.07803036, 0.12637085, -0.14680749, -0.15596738, 0.53681636, 0.17978549, -0.14157818, 0.25876719, -0.52486008, -0.16730601, -0.39554831, 0.18337585, 0.00256797, 0.78514141, -0.17097272, 0.06429628, 0.20925330, -0.26369870, -0.03014281, 0.31417811, -0.01021009, 0.13755018, -0.15493110, -0.47352329, -0.16715549, -0.02021442, -0.06616694, -0.42303652, 0.19959703, 0.11611520, 0.12177049, 0.12691213, 0.27262422, 0.58131015, -0.10143309, 0.34954128, -0.21755250, 0.12135517, 0.00479828, -0.47609460, 0.11781720, -0.08161348, -0.20751916, -0.04131322, -0.28810439, -0.10229214
0.46487752, 0.05480000, 0.16289467, 0.52534974, 0.37240338, -0.23605604, -0.28547254, 0.48146290, 0.51493293, 0.67030734, 0.36431986, -0.04989473, -0.41622952, -0.28312927, 0.45268232, -0.03604860, 0.35252810, -0.37187809, -0.34360370, 0.61148530, -0.07013904, -0.41922477, -0.06954054, -0.48888895, 0.12600058, -0.30346447, -0.15067507, -0.22626206, 0.13628572, -0.54942328, 0.27571589, 1.04150259, 0.02053700, 0.39484322, -0.26127395, 0.61929536, 0.16485210, -0.58874011, 0.11640878, -0.21191432, 0.06826209, -0.42465872, 0.06735035, 0.02170368, -0.02130478, 0.22619435, 0.41723126, -0.06057148, 0.19377406, 0.27172753, 0.06685882, -0.05789627, -0.36739644, -0.15861478, -0.53277993, -0.11600856, -0.51601475, -0.04797813, 0.03376257, 0.32148367, -0.28297618, 0.38870907, 0.09745836, -0.62605333
-0.50361961, 0.33515078, -0.61367649, 0.03180104, 0.60412836, 0.64889777, -0.30338460, 0.58157367, -0.08873893, 0.68546754, 0.51079643, 0.36463246, 0.35959756, 0.52771074, 0.34112954, 0.35112613, -0.26286235, 0.48134321, -0.32179072, 0.69449925, 0.05980722, -0.35348105, -0.40867969, -0.67601573, -0.60095686, 0.43278027, -0.57886416, -0.51008642, 0.62014031, -0.48107585, -0.06483539, 0.81534028, 0.43726137, 0.47997442, -0.44193020, 0.18288817, 0.08343653, -0.26546580, -0.01177598, -0.45550361, 0.23624191, -0.03605527, 0.67040026, -0.07775380, -0.36470947, -0.19367890, -0.30168000, 0.04291034, 0.64257473, 0.44011873, -0.11657383, -0.16254294, -0.53359908, 0.54256064, -0.20927727, -0.69174719, -0.38285837, -0.68304265, 0.07027768, 0.64982641, -0.15146577, -0.27243108, -0.00380630, -0.62555057
-0.29622871, 0.36803892, -0.31977984, 0.07902939, 0.45009059, 0.67668056, -0.38957483, 0.43984261, 0.07129589, 0.44760162, 0.40184045, 0.37165725, 0.23027557, 0.61439723, 0.50024182, 0.39305732, -0.15564342, 0.52243674, -0.32924455, 0.46929541, -0.13309762, -0.24646848, -0.25561541, -0.61789644, -0.48722479, 0.37784895, -0.31981942, -0.40220046, 0.41343504, -0.18039159, -0.06163039, 0.48158169, 0.46041983, 0.27409488, -0.46095198, 0.10447128, 0.32752243, -0.44422767, 0.03922683, -0.36355621, 0.25735873, 0.00866463, 0.49233693, 0.02485711, -0.42058274, -0.21382213, -0.18651405, 0.02072829, 0.60527158, 0.25804034, 0.11997923, -0.14435171, -0.50695646, 0.66810107, -0.08313010, -0.40957266, -0.45279554, -0.70699406, -0.00890111, 0.45438883, -0.14614548, -0.18406130, -0.11346986, -0.44717783
-0.14113447, 0.33992743, -0.30719402, 0.30711272, 0.36542085, 0.47946471, -0.29345825, 0.33203965, 0.28258869, 0.37588078, 0.36518452, 0.30755022, -0.20689957, 0.27708972, 0.25278324, 0.26508489, -0.12513052, 0.40507534, -0.30108726, 0.26271683, -0.14424115, -0.39220247, -0.18079172, -0.21054655, -0.49171641, 0.29286161, -0.35841170, -0.48263416, 0.29969907, -0.39123282, -0.37396941, 0.39571840, 0.02458856, 0.21412370, -0.27516365, 0.12763670, 0.17809512, -0.22403868, -0.08319419, -0.17617232, -0.06525148, 0.08469516, 0.39198017, 0.10998799, -0.52995294, -0.11598657, -0.11905677, -0.01564041, 0.32416397, 0.03169934, 0.09475135, -0.41334027, -0.07017448, 0.56645876, -0.12410025, -0.46396846, -0.27064964, -0.27524000, -0.04333611, 0.36399662, -0.38269150, -0.13232830, -0.07858828, -0.20273529
-0.01457880, -0.12928793, 0.02827844, -0.10870342, 0.09310138, 0.07261713, 0.00523226, -0.06830294, -0.10641131, 0.02782720, -0.02491093, 0.00461128, -0.14825523, 0.10604632, -0.14306337, -0.02624996, 0.13638920, -0.13531430, -0.00583130, 0.03712316, 0.01163146, 0.11509919, 0.07523960, -0.03734238, -0.12984428, -0.11016595, -0.14803271, -0.11284336, 0.15189993, -0.01527891, 0.02629983, -0.01493005, 0.12992516, 0.05299698, -0.06102620, 0.00801472, -0.01034085, 0.07919863, -0.12271957, 0.11912698, -0.01752952, 0.11099163, 0.02657296, -0.07869370, 0.00093929, -0.07344396, 0.09699909, 0.04659437, -0.08981362, 0.13758266, 0.00602786, 0.15033105, 0.05422282, 0.11173740, 0.10490730, 0.12405363, -0.15034963, -0.04965457, 0.04586312, -0.08609189, -0.14737263, 0.11226395, -0.09030597, -0.09758271
-0.03337260, 0.09663270, -0.15052536, 0.03169866, -0.14314874, 0.01866673, -0.12556522, 0.07395898, -0.01633421, 0.11609870, -0.06655949, -0.14272057, 0.06254682, -0.13941516, -0.09717594, -0.00272681, 0.12222737, -0.08627171, -0.00876148, 0.02566880, 0.04387376, 0.02529630, 0.13890672, 0.04551741, -0.13586022, -0.12476019, 0.08330594, 0.08581178, 0.13029903, 0.10008627, -0.11843704, 0.09066895, -0.06734779, 0.06222716, 0.09981307, 0.05066781, 0.06456934, 0.00559086, -0.06018934, -0.10241185, 0.12193069, 0.03254454, -0.10664223, -0.08178694, -0.10363136, -0.03068646, 0.00655603, 0.06746109, 0.14745536, 0.05725652, 0.13820359, 0.03455542, -0.11063564, -0.02754618, -0.07998420, 0.05004363, 0.07277533, -0.05394644, -0.08587896, -0.09698388, -0.07717267, 0.11464351, 0.08287846, 0.07610464
-0.02904098, -0.11692749, 0.04879431, 0.09921730, -0.14250256, 0.03142382, -0.03550347, 0.01548734, 0.11276305, 0.01174751, 0.11698219, 0.15067878, 0.13372996, 0.11473238, 0.00706545, -0.12809366, 0.09698153, -0.01510857, 0.02571335, -0.13111281, -0.01546377, 0.10841981, 0.05037256, -0.12192291, 0.03519975, 0.08458364, 0.08174260, -0.12381109, 0.01983090, -0.03571180, 0.08145119, 0.01101466, 0.05564396, 0.12136805, 0.07145387, 0.05427778, 0.07625490, -0.09245872, -0.11178304, -0.01707885, -0.04033156, -0.05411051, 0.04764739, 0.04800808, 0.05758476, -0.05387314, 0.02635032, 0.02337860, -0.04020824, 0.07891265, -0.07100994, 0.09532109, -0.15169431, -0.06140486, 0.02868825, -0.07519925, 0.07463841, -0.04266286, -0.07939833, 0.08951503, -0.10359569, 0.13768229, -0.14035575, -0.14625794
-0.07497371, 0.24791494, 0.25527176, 0.06396734, -0.03929760, -0.47063655, -0.09421194, 0.33391052, -0.05844735, 0.46462908, 0.16940793, -0.33495414, 0.30484325, 0.29914734, 0.20091256, -0.32948312, 0.03686533, -0.34908202, -0.29632947, 0.43752888, 0.06772736, -0.08075070, 0.23166968, -0.32708174, -0.01517979, -0.13718322, -0.34823674, -0.54115623, -0.36255828, -0.46750525, 0.31821519, 0.19790322, 0.40409938, 0.37056988, -0.06399615, 0.14961120, 0.22819725, -0.40456083, 0.16565153, 0.27384976, -0.01573639, 0.03318072, -0.32831633, -0.29357362, -0.30499631, 0.00643271, 0.01898121, -0.11981475, 0.39337772, 0.47169960, 0.13359523, 0.23590662, 0.13494903, 0.06238413, -0.12825504, -0.35627487, -0.36917520, -0.11498560, -0.11688171, -0.01316872, -0.33892643, 0.32435933, 0.14116009, 0.08545552
-0.38210529, -0.13433480, 0.05182785, 0.01638068, 0.08132596, -0.03135175, -0.06095758, -0.16576426, -0.08512881, 0.27063310, 0.33741829, 0.06051467, 0.36286935, 0.28707784, 0.17496113, 0.10079699, -0.10021743, 0.31216159, -0.37703583, 0.18422979, -0.40736136, -0.23729804, -0.03803217, -0.16202518, -0.28180385, -0.09176448, -0.16434637, -0.53007305, 0.64465570, -0.15857065, 0.12136213, -0.51169533, 0.46244586, 0.24640450, 0.21525863, 0.47245145, 0.37629330, 0.15784489, 0.17929170, 0.13530135, 0.70491225, 0.06687432, 0.28145671, 0.34390077, -0.31432256, -0.05753966, 0.00962117, -0.01001744, -0.07337433, 0.10825039, -0.42279625, -0.39913109, -0.00105545, -0.23821032, 0.05450702, -0.35418126, -0.19688277, 0.23219952, 0.21825449, 0.21971375, -0.50932235, -0.10040604, 0.29639807, -0.14412594
-0.07853148, 0.04125980, -0.42493510, 0.44622335, 0.49281165, 0.24071883, -0.61112440, 0.11510301, -0.12680371, 0.29568446, 0.20731500, 0.73219293, -0.43761551, -0.27673545, 0.07261826, 0.38879418, 0.22319239, 0.41745022, 0.03332089, 0.39962888, -0.53709626, -0.61833358, -0.23500200, -0.03699981, -0.28321949, 0.12286019, 0.06942166, -0.44205830, 0.68634230, -0.92023408, -0.35886118, 0.06470635, -0.30953822, 0.03992457, 0.00391418, 0.48930070, 0.27157366, 0.13934344, 0.10525232, 0.10706387, -0.04582058, 0.47498852, 0.39580902, 0.30166176, -0.15584575, 0.12182956, 0.30928117, 0.08308716, -0.24341664, 0.29207662, -0.19761905, 0.06525259, -0.01675918, -0.02329304, -0.18469617, -0.39781463, -0.73365444, 0.08936275, 0.20066738, -0.22548647, -0.41673365, -0.36094299, 0.12125821, -0.32177648
0.01489207, -0.02966521, -0.25140956, 0.42623213, 0.55566788, -0.03621804, -0.86879146, 0.25953895, 0.06047883, 0.43288654, -0.01226756, 0.69811440, -0.32321545, -0.32896110, 0.26713413, 0.18464667, 0.48954329, 0.39458016, -0.16182064, 0.31330028, -0.04757240, -0.85272175, -0.05689317, 0.53191102, -0.08793664, -0.04202497, -0.15588401, -0.82532412, 0.39295688, -0.56993276, -0.38232264, -0.50559860, -0.08412685, 0.22375423, -0.38701993, 0.09509768, 0.19996718, -0.11751840, -0.19972238, 0.42697662, -0.01470912, 0.72447592, 0.39240795, 0.66330838, 0.18689086, 0.35283121, 0.24304385, 0.10289883, -0.61186218, 0.03948300, 0.09049325, 0.20415740, -0.26044402, -0.28369150, -0.04853244, -0.29785293, -0.82493562, 0.25488216, 0.30773839, -0.51866317, -0.76706141, -0.30664766, -0.03532353, -0.65581250
0.37933660, -0.24995925, -0.29098466, 0.61574697, 0.50275701, 0.14027438, -1.25615418, 0.26407671, 0.12806693, 0.30560920, -0.03839821, 0.40602183, -0.37167093, -0.17350303, 0.31249148, 0.30658528, 0.25911841, 0.26498869, -0.60508877, 0.29658207, -0.20972271, -0.88261878, -0.30608493, -0.03461301, -0.04218782, 0.00249458, -0.12682572, -0.69359988, 0.74711388, -0.60890299, -0.63259947, -0.40340099, -0.21148945, 0.29365283, -0.40101123, 0.02806028, 0.00150642, -0.11332554, 0.11992204, 0.18758492, 0.01057741, 0.80796403, 0.57343054, 0.31913623, 0.06642503, 0.41091269, -0.00248184, 0.03966406, -0.74399745, 0.12513161, 0.05478303, -0.36215776, -0.09216521, -0.19247046, 0.07396801, -0.04203761, -1.00294220, 0.36349329, 0.23737001, -0.56041485, -0.43330392, -0.56556529, 0.11341129, -0.25385618
0.34511766, -0.16017137, -0.46983171, 0.17165984, 0.15039419, 0.16224203, -0.94739568, 0.39021486, 0.26954725, 0.25446367, 0.46111256, 0.27121159, -0.63783550, 0.09371123, 0.07557373, 0.25608706, 0.15067522, -0.06983106, -0.14669083, 0.36727104, -0.36989608, -1.02121758, -0.14845850, -0.05279570, -0.01272148, -0.07651949, -0.23801303, -0.43352923, 0.09165367, -0.11346567, -0.79507440, 0.29520518, -0.08834909, 0.39441708, -0.10684556, -0.29521462, 0.18088953, -0.08499791, -0.04981529, 0.48719624, -0.37646276, 0.36751211, 0.46658030, 0.53902322, 0.20052266, 0.02594868, -0.02099771, 0.00304850, -0.63533461, 0.12295499, 0.36148998, -0.21387136, -0.01091184, -0.23910786, -0.11802880, -0.07244082, -0.65024316, 0.19017516, -0.14694826, -0.29067087, -0.47898126, -0.66488993, 0.05958046, -0.83322978
0.50199378, -0.24478221, -0.15341823, 0.38640299, 0.14091478, 0.02281075, -0.87199867, 0.00946528, 0.25145167, 0.27992770, 0.66592336, 0.08798375, -0.53814411, -0.10132407, 0.39725494, -0.03105203, 0.03717348, -0.34128517, -0.47101593, 0.07097702, -0.39882877, -0.56463164, -0.17770867, -0.18097621, 0.11019088, 0.12383622, -0.40627170, -0.29134950, 0.23400357, 0.20669423, -0.98526740, 0.60905927, -0.21190593, 0.14072092, -0.07499605, -0.16652650, -0.07262372, -0.06371043, 0.08696027, 0.16719012, -0.16368540, 0.00973422, 0.17718136, 0.41043311, 0.27335823, -0.07013105, -0.81118107, 0.03401646, -0.15269740, 0.07073958, 0.18793243, -0.48085082, 0.07185894, -0.30098188, 0.07498296, 0.60833186, -0.38870534, 0.22345743, 0.03246075, -0.23373938, -0.37190107, -0.65424913, 0.08571819, -0.97817397
0.49990389, -0.00771198, 0.00549109, 0.20673129, -0.24334124, -0.21976019, -0.34293616, 0.20597100, 0.14967890, 0.11663835, 0.31827870, 0.25134686, -0.43364665, -0.09096155, 0.29598641, -0.02805101, -0.02018563, -0.38742697, -0.36601102, 0.15416293, -0.52636147, -0.21697304, 0.18099271, -0.32154143, 0.28202689, -0.22620946, -0.02553494, -0.28592512, -0.02264689, 0.24455689, -0.88082111, 0.51643741, -0.08330259, 0.26785704, -0.08399060, -0.16685644, 0.16698526, 0.10012821, -0.01107357, -0.00581597, 0.15892541, 0.00544155, -0.11067272, -0.12129957, -0.00029225, -0.05811123, -0.67509419, -0.05589353, -0.09809861, -0.12766954, 0.31738791, -0.65145689, 0.42608315, -0.21618482, -0.12891674, 0.21890520, -0.41156614, 0.11855386, 0.03882377, 0.02183586, -0.23458853, -0.78941053, 0.18355587, -0.36347350
0.32816911, -0.34605691, -0.12644586, -0.01598991, -0.24824011, 0.00938527, 0.10186169, 0.25835299, -0.07840536, 0.31914458, 0.09995824, 0.08170418, 0.01105979, 0.03376655, 0.05212109, -0.10222454, -0.32758182, 0.01244402, -0.26987785, 0.19010296, -0.23673443, 0.48281017, -0.07289460, -0.39861929, -0.30051863, 0.03764773, 0.06867618, -0.05460217, 0.20430182, 0.15236023, -0.79395258, 0.71479738, 0.02374577, 0.18749063, -0.18720968, 0.30608791, 0.30227670, -0.00603010, -0.20339672, -0.90456480, 0.59739792, -0.04125192, 0.35277647, -0.14908607, -0.15779279, -0.13480587, -0.67964756, -0.15550914, -0.05281599, 0.21824715, -0.18796515, -0.39710656, 0.16747646, 0.09320911, 0.12893447, -0.19318324, -0.08585697, -0.02926791, -0.05931046, 0.07090457, 0.28720292, -0.32738966, -0.09328561, -0.36877951
-0.06553289, -0.11906639, 0.04154335, -0.22115797, -0.07171761, 0.08554588, 0.22789761, 0.04775735, 0.08270860, 0.41097632, 0.02409213, -0.06487783, 0.15271972, 0.16103621, 0.35356775, 0.17835526, -0.31809780, 0.22156349, -0.12224384, 0.11696865, -0.13878447, 0.32607910, 0.02399348, -0.46688649, -0.20628910, 0.07092521, -0.01187174, 0.13414025, 0.40490803, 0.29922429, -0.33976361, 0.53452933, 0.18668500, -0.02836751, -0.28377813, 0.30138859, 0.10279980, 0.05416661, 0.23085733, -1.15991473, 0.04255957, 0.19923824, 0.24223953, 0.00166324, -0.33850753, -0.44551718, -0.72028404, -0.16185790, 0.01421059, 0.35952592, -0.24218085, -0.43416548, -0.23780066, 0.40888214, 0.28467640, -0.26802254, -0.21815221, 0.29948992, -0.03200054, 0.31657523, 0.28916454, -0.08381120, -0.04478615, -0.37480339
-0.15642925, -0.09777919, -0.09163247, -0.02972129, 0.07582768, 0.43618646, -0.13117096, 0.30750695, 0.01992311, 0.99568605, 0.33895537, 0.07126202, -0.11876877, 0.47726202, 0.43893155, 0.63562238, -0.34585467, 0.48817039, -0.25222978, 0.34692231, 0.22797824, 0.38385102, -0.34446311, -0.28566492, -0.09391631, 0.45611799, -0.29116458, -0.06080942, 0.42167270, -0.48413160, -0.20717813, 0.37369037, 0.26365298, 0.11372656, 0.08293433, -0.15676388, -0.18036112, -0.11079721, -0.31387332, -0.23121284, 0.34292087, -0.06120383, 0.48968470, -0.68487906, 0.09278854, -0.43149886, 0.00248541, -0.10963416, 0.47817695, 0.23515123, -0.03543107, 0.01410979, -0.53303486, 0.13990720, -0.01663296, -0.26430205, -0.41623056, -0.25067985, -0.17080384, 0.93914765, 0.20732526, 0.20864163, -0.24574852, -0.48026416
-0.08703633, 0.08269442, -0.00064365, 0.04800847, 0.00933296, -0.06729098, -0.13605559, 0.24528778, 0.23650075, 0.52789432, -0.17897490, -0.10607962, -0.07169037, -0.05964470, 0.15756731, 0.26852256, 0.01949390, 0.07845838, -0.39207983, -0.06486665, 0.34902322, -0.21592203, -0.19450109, 0.06374251, 0.10147694, 0.02857309, -0.39843240, -0.54007804, 0.17538692, 0.35337520, 0.39711607, 0.49570903, -0.08798629, 0.32671294, 0.33649683, 0.17987400, 0.18987925, -0.18394591, -0.20349631, -0.00198983, 0.34932852, 0.49952447, -0.07860646, 0.09480514, -0.10836740, 0.08862943, 0.08125734, 0.06115046, -0.20792145, 0.29988033, -0.19144972, -0.02168289, -0.21117063, 0.05017378, -0.03765994, -0.02997769, 0.12608442, 0.13346611, 0.36333281, 0.08919875, -0.04725037, 0.38145319, 0.04435870, -0.43628824
-0.13535093, -0.25939378, -0.10138907, 0.28689206, 0.19805403, -0.01211222, 0.00845233, -0.10666960, -0.00889795, 0.23283976, -0.28848207, 0.05277337, -0.04196408, 0.32586172, 0.07097457, 0.27999511, -0.02359731, 0.24452263, -0.37553865, 0.22248416, 0.18226232, -0.34050700, -0.27056444, -0.15505753, -0.28055310, 0.09905265, 0.37869897, -0.03366770, 0.11847366, 0.01871841, 0.39950308, 0.10400844, 0.13410713, 0.22484286, -0.04880797, 0.19035393, -0.14980517, -0.23239605, -0.02078328, -0.09815978, 0.43997270, 0.03854918, 0.20663348, 0.49205953, 0.06264238, -0.04727911, -0.05526228, 0.07270786, 0.02762568, 0.22771280, -0.27536076, -0.17671929, -0.24969684, -0.06447741, 0.14763968, 0.33055881, 0.07310304, 0.17720516, -0.08369459, 0.17953843, -0.10499926, 0.08607847, 0.19294900, -0.29200405
0.08200406, -0.13736886, 0.03995116, 0.01252407, 0.16437443, 0.15638003, -0.10514017, 0.02401200, -0.17720321, -0.02751684, 0.03943862, 0.01707025, -0.04133384, 0.02364520, 0.06301361, -0.07332763, -0.12232202, -0.01671990, 0.07119320, 0.05855127, 0.05866198, 0.06247542, 0.14892933, -0.04845661, 0.09590978, -0.02961081, 0.06362736, -0.08235513, -0.11575583, 0.16579996, -0.06347652, 0.03102165, -0.04842928, -0.12511566, -0.09391109, -0.15161043, 0.06923209, 0.12252063, -0.11172455, -0.11520998, 0.13686517, 0.02156060, 0.05464431, 0.05994503, -0.07331140, 0.12477625, -0.00337296, -0.07715373, 0.09842754, 0.01001839, 0.07923904, 0.11723527, -0.04244385, 0.12491891, -0.02894182, 0.11376253, -0.13377582, -0.14885306, -0.08764573, -0.06687607, 0.04848276, 0.13213383, 0.15310618, 0.03574967
-0.14323547, 0.00468235, 0.16034755, -0.23455472, 0.03852733, -0.31526467, 0.34934360, 0.01634020, -0.00156868, -0.14283741, 0.11999577, 0.16566835, 0.46079269, -0.12471911, -0.15435414, 0.03587810, 0.12860066, -0.15453236, 0.35099101, 0.07741049, -0.29171956, 0.31281260, 0.25106487, 0.21093246, -0.05251696, -0.26656610, 0.02160277, -0.27302957, 0.27505481, 0.05170662, -0.10884330, -0.43504012, -0.22573858, -0.23899694, -0.03220506, 0.19391468, 0.36074731, 0.29167980, 0.23510522, 0.37613219, 0.31461245, 0.36580473, 0.45662841, 0.42337698, -0.24035989, -0.02107778, 0.22979797, 0.03563052, 0.03678910, -0.26792020, -0.08345918, 0.38996148, 0.39160264, -0.08090434, 0.08779165, -0.15267619, -0.02915248, -0.21076895, 0.21179564, -0.01418441, -0.45814753, -0.33542478, 0.00503811, 0.00706576
-0.10764822, 0.03966570, -0.58934611, -0.17788489, 0.49298078, 0.35457569, -0.16247304, -0.12687545, 0.13827023, -0.31020722, 0.12577258, 0.48323914, 0.27281553, -0.08702935, -0.38584891, -0.03383088, 0.28185588, 0.24360010, 0.45536086, 0.30447716, -0.22472599, -0.08250023, -0.04524267, -0.30518928, -0.43097100, 0.42187050, -0.22926481, 0.34962055, -0.22253424, -0.17453432, -0.59437400, -0.03253046, -0.54385275, -0.30488169, -0.25551879, -0.10427429, -0.01475189, 0.22466697, -0.19731532, 0.47205764, 0.07512731, -0.13833968, 0.40034842, 0.25145939, -0.27177075, 0.05688903, 0.15517549, -0.06499073, -0.67104822, 0.16681033, 0.55502987, 0.78768194, 0.19097500, 0.31639978, -0.25559220, -0.14784336, -0.01090713, -0.32280973, 0.78869051, -0.61816102, -0.48850551, -0.34321052, 0.01846824, -0.49213737
-0.36611664, 0.46886155, -0.34460551, 0.25116950, 0.08614751, 0.12498920, -0.03362929, -0.06948143, 0.27803236, -0.26245677, -0.15543476, 0.12899618, -0.18028130, 0.10786492, -0.07421806, 0.03324044, 0.24666648, 0.07341529, 0.32835183, -0.03594663, -0.17644580, -0.25068480, -0.00192124, -0.40865487, -0.10782214, 0.26404732, 0.09048934, 0.44057912, -0.42857042, -0.28126782, -0.86845034, -0.16370174, -0.17300515, -0.20472328, -0.25825450, -0.32829407, -0.13732459, 0.21662159, 0.00959093, 0.22141746, 0.11585546, 0.17239857, 0.21468952, 0.43769348, -0.01237309, 0.16235214, -0.04683495, -0.11686005, -0.54243815, -0.07246797, 0.15762623, 0.31139418, 0.34565887, 0.00870006, -0.08907621, -0.34859484, -0.03122525, -0.38967913, 0.30091575, -0.95562518, -0.08819786, -0.41400713, 0.05283228, -0.54313743
-0.28030971, 0.18532231, -0.21342456, 0.19724986, 0.40499759, 0.26641792, -0.25036329, -0.06975619, 0.12787265, 0.28536183, 0.04916803, -0.21748683, -0.43062866, 0.41893998, 0.22851150, 0.13896537, 0.30053297, 0.17117624, 0.34500545, 0.18331039, -0.06012005, -0.56718528, -0.05259520, -0.43038264, -0.02086021, 0.29390246, 0.19090058, 0.40955740, 0.03736883, -0.35740894, -0.74021995, -0.08567061, 0.06754667, -0.14758292, -0.39672583, -0.07472155, -0.21536942, 0.12746118, 0.02261846, 0.13793600, -0.13696395, 0.40004525, 0.04279332, 0.21023966, 0.06107121, 0.23696312, 0.06359217, -0.04846201, -0.22071490, 0.00831874, 0.02964110, 0.10765737, -0.06635283, 0.05467401, 0.06871091, -0.27263415, -0.03300717, -0.28791606, 0.21733814, -0.69005740, 0.12538822, -0.42468035, 0.10083547, -0.31975293
-0.03798907, -0.13567792, -0.22339986, 0.23679946, 0.03989776, 0.14899196, -0.50466585, 0.09467447, 0.20795892, 0.19169857, 0.13272572, -0.02640697, -0.35896793, -0.00755705, 0.02223010, 0.19616897, 0.43129754, -0.51806563, 0.09733914, 0.05668534, -0.16297695, -0.23885895, 0.04504127, -0.29670790, 0.14011043, -0.37617522, 0.06115532, -0.03445328, -0.02492135, -0.43262884, -0.59039336, 0.12316535, 0.10789455, -0.07921031, -0.05833860, 0.02493075, 0.00605745, -0.06579298, 0.34754229, 0.08826980, -0.31007320, 0.80833739, 0.10136794, 0.46142742, 0.28188694, 0.01081714, 0.10010052, 0.08492929, -0.23228261, 0.06522852, 0.06055848, -0.06730332, 0.28634742, -0.17007540, -0.02110512, -0.43662012, 0.13606665, -0.15683939, 0.37143078, -0.48960599, 0.33257848, -0.25849536, -0.10743593, -0.33028057
-0.00987095, 0.18893102, 0.00419321, 0.32554480, -0.34856713, 0.27351490, -0.62601697, -0.14437868, 0.12823707, 0.12312438, 0.23998752, 0.11444744, -0.32104006, 0.12221608, 0.21723017, 0.12561415, 0.33483031, -0.65802658, 0.31827721, 0.08155781, -0.04668853, -0.16612421, 0.13771902, -0.23788747, 0.08081885, -0.13122839, 0.04965558, -0.05450732, -0.17029832, -0.23977552, -0.44560504, 0.36145550, 0.00151372, 0.07502629, 0.02755358, -0.12517194, 0.11292262, 0.05262729, 0.10545104, 0.38654375, -0.61283427, 0.57648534, 0.06711794, 0.43575689, 0.40446571, -0.10396159, 0.09588335, 0.09469247, -0.18156122, -0.17009614, 0.13668959, 0.20540364, 0.29559478, -0.05005952, 0.09073696, -0.28050283, 0.08486835, -0.14322025, 0.33519828, -0.06232356, 0.03377031, -0.35644874, 0.01743374, -0.27339065
0.32691452, -0.05896595, -0.05929709, 0.26605585, -0.32978275, 0.03492987, -0.43392146, -0.22390030, 0.10740734, 0.09249716, 0.35089016, -0.10012376, 0.02037995, 0.03289721, 0.17114198, -0.13983384, 0.03786173, -0.42356345, -0.19570652, 0.04623576, -0.08617829, -0.31435281, 0.30970332, -0.26396939, 0.27040815, -0.09131422, -0.14396955, 0.03033235, -0.21072111, -0.17785922, -0.38435286, 0.27132186, -0.05671300, 0.08596073, -0.07536742, -0.13623445, -0.06300579, 0.16403499, -0.10114269, 0.25121528, -0.05787991, 0.37996709, -0.03698730, 0.48947346, 0.25898653, -0.18044847, -0.13446996, -0.11953451, 0.08910548, -0.15666069, 0.19054902, 0.08560659, 0.23192784, -0.11935989, 0.06380058, 0.00264388, -0.08756621, -0.02839406, 0.28474665, 0.02577506, -0.26600638, -0.51644439, 0.04184775, -0.22996522
0.37056237, -0.06049052, -0.07590290, 0.09821936, -0.10241722, -0.19125018, -0.07423124, -0.03081969, -0.12891109, 0.25375730, -0.05573566, 0.17044906, 0.10603321, -0.14855041, 0.08235750, 0.16843872, 0.07347917, -0.22040224, -0.71824938, -0.12914485, 0.02403421, 0.02450406, 0.15653051, -0.30896294, 0.37942800, -0.04415769, -0.34521291, -0.02542068, 0.00297358, 0.07985009, -0.58909792, 0.29950717, 0.11903228, 0.18295790, 0.09453705, -0.08347777, -0.08180572, -0.09346274, -0.24835819, -0.11947507, 0.22070754, 0.40826976, 0.14630330, 0.26152450, 0.40781742, -0.00437950, -0.22371604, -0.05137509, -0.13039376, -0.02839899, 0.37035760, -0.04619628, 0.41492575, -0.24605121, 0.10401206, 0.35376728, -0.04528948, -0.07212932, 0.05735363, 0.13456169, -0.17014182, -0.27199644, 0.05536789, -0.31825078
0.50434619, -0.15050849, -0.00528676, 0.03610839, -0.29028350, -0.40092406, -0.03599255, 0.17746252, -0.27338555, 0.12843116, 0.04628546, 0.04315194, 0.21715510, -0.17584175, 0.17549817, 0.18226629, 0.05361083, 0.07886972, -0.84817165, -0.30137712, 0.07550330, -0.05210813, 0.07490967, -0.27922291, 0.15741293, -0.00282173, -0.07292026, -0.06747644, 0.09383913, 0.01284624, -0.36518487, 0.44250852, 0.07197901, 0.15878196, 0.35425103, -0.01110942, -0.01258839, -0.12792787, -0.09243425, -0.41901937, 0.25957063, 0.45983338, 0.15436298, 0.27284485, 0.24029405, -0.26421335, -0.22327629, 0.03065540, 0.05426066, -0.00852505, 0.42992815, -0.24475612, 0.25655544, -0.10475531, -0.06654552, 0.35588378, 0.03394667, -0.01246256, -0.05927012, 0.10400576, 0.00194926, -0.19863456, 0.01649312, -0.55329186
0.22093727, -0.01235268, -0.06342942, -0.19118153, -0.26276240, -0.13751641, 0.03515247, 0.26152259, -0.50826198, 0.15941203, -0.30187482, -0.14573264, 0.35860020, -0.00782177, 0.30377990, 0.05414813, -0.13035269, 0.14602137, 0.37851635, -0.45477426, 0.15242687, -0.02120900, 0.14506792, 0.03802401, 0.20029983, 0.08566158, -0.27623916, 0.02617790, 0.15588161, 0.07522777, -0.39906237, 0.36224926, -0.00285731, 0.04644988, 0.05480195, 0.22882183, -0.03844289, 0.11707375, -0.12301872, -0.92264807, 0.20997761, 0.29472268, 0.17094465, 0.14814813, 0.15138581, -0.49484885, -0.10945304, -0.16320717, 0.05780175, -0.39278221, 0.31322995, 0.18561752, 0.09641074, -0.00577369, -0.10635410, 0.08849609, -0.03936321, -0.11954423, -0.22395976, 0.08888101, 0.10112470, 0.05549633, 0.07474305, -0.42170900
-0.10254976, -0.38547009, 0.07549396, -0.14903967, -0.18634111, -0.13915615, 0.19444598, 0.09845386, -0.16860311, 0.04944589, -0.33494022, -0.25156224, 0.62930167, 0.12159324, 0.22177836, 0.01204680, -0.07640596, 0.26277173, 0.96202910, -0.20098601, 0.25167581, 0.14387433, -0.33209065, -0.07561166, -0.03288345, 0.06946927, -0.33440173, 0.00124431, 0.41933933, -0.21989064, 0.31233475, 0.59143299, 0.04813347, -0.02220057, -0.11103494, 0.31258321, -0.31980911, -0.21322879, -0.17286268, -0.74527067, 0.38693601, 0.06402306, 0.01056249, 0.06241278, -0.03648541, -0.44443709, 0.04453047, -0.04084486, 0.14572942, 0.09065457, 0.12267311, 0.31001991, -0.17460087, 0.16238394, -0.00395975, 0.08510955, 0.08143911, -0.06200735, 0.14331149, 0.39510360, 0.08011930, -0.19821133, 0.31329980, -0.47644836
-0.56168336, -0.49027160, 0.23254083, -0.03222797, -0.21820858, 0.20146222, -0.19133843, -0.33910593, -0.05866731, 0.40098611, -0.50036669, -0.27941546, 0.31013379, 0.67121428, 0.22004937, 0.33718401, -0.47575429, 0.48284757, 0.49756595, -0.24362589, 0.53573012, 0.04658068, -0.11654971, -0.03402473, 0.11394356, 0.34290555, -0.15091771, -0.12975715, 0.40935701, -0.04083054, 0.19089155, 0.44541311, 0.51327157, -0.29413736, 0.11355435, 0.17994723, -0.07839341, -0.05439545, -0.41244996, -0.18543006, 0.03141603, 0.21481033, 0.18681204, -0.12901354, 0.02367548, -0.17288111, 0.37232736, -0.06734405, 0.04275481, -0.04268454, -0.41507736, 0.17938772, 0.11531530, -0.12976350, 0.20001365, -0.09510819, 0.10310131, 0.10564587, 0.17012787, 0.65772331, 0.53562689, -0.27720150, -0.17448927, -0.27767834
-0.21960947, -0.15416978, 0.13802420, 0.29909715, 0.13891475, 0.23308261, -0.53033179, -0.04451625, -0.24589106, 0.48314017, -0.19956416, -0.09694351, -0.24761653, 0.65546542, 0.42137086, -0.00046529, -0.12071165, 0.27757505, -0.61614287, 0.16735938, -0.07458592, -0.13118584, -0.19547519, -0.29713330, -0.21562998, 0.00153678, -0.06750350, -0.47008061, 0.45123777, 0.57426482, 0.26431853, 0.76497650, 0.64419329, 0.21770187, 0.49349231, 0.44959629, 0.20488992, 0.11581556, 0.07503036, -0.08104277, 0.73052078, 0.58047545, 0.62880504, 0.30870110, 0.21342079, -0.07489575, 0.39129451, -0.12825061, 0.38760561, 0.09030407, -0.92521882, -0.31008312, 0.34856689, 0.06142033, 0.22504295, -0.22735795, 0.59087807, 0.04842087, 0.24182387, 0.66215807, 0.03672559, 0.07479759, -0.42314601, -0.50238770
0.67046148, 0.47176868, -0.43746322, 0.50996220, 0.64331388, -0.26537395, 0.55350506, -0.44792652, 0.41230121, -0.61957335, 0.26495811, -0.09856012, 0.51272178, -0.09991496, -0.46202299, 0.06771345, -0.04668465, -0.47087654, 0.22962384, -0.09095369, 0.19656186, 0.05151851, 0.42684111, -0.61133879, 0.09964753, -0.37152860, -0.09883044, -0.38784730, 0.21076646, -0.25297159, -0.11218110, -0.06683076, -0.37657890, -0.46664152, 0.11838251, 0.51424891, 0.14815880, 0.44152090, -0.27468935, 0.44266754, 0.47647369, 0.07533275, 0.28977147, 0.42569178, -0.54538274, 0.63241243, 0.38543251, 0.07700111, -0.75192410, 0.58818227, 0.31613094, 0.62867725, 0.24752507, -0.53518987, 0.62428343, 0.54726619, -0.22128743, -0.48353866, 0.50220716, -0.52605623, -0.21103944, -0.45408973, 0.66796088, -0.51711327
-0.12277577, 0.02351489, 0.25940442, 0.35489947, 0.31622419, 0.14599113, 0.35676929, -0.26870552, -0.72678548, -0.24133255, -0.28030732, -0.06752899, 0.00632714, -0.04133946, -0.13329895, 0.02071250, 0.59226078, -0.52691638, 0.26389751, 0.07492099, -0.06658899, 0.18611874, 0.01595884, -0.12853236, 0.04191334, 0.06082444, 0.15547419, 0.51350796, 0.23069921, 0.13509238, 0.23195454, -1.02703822, -0.44144773, -0.13331032, -0.17749093, 0.41353211, -0.29948807, 0.16816117, -0.13551180, 0.50308156, -0.03443032, 0.24803923, -0.21615882, 0.29508319, -0.10517231, 0.71256202, 0.65874571, -0.13265269, -0.35942614, 0.48637277, 0.36795059, 0.27750155, -0.11338990, 0.13094741, -0.06741554, 0.04798558, -0.26797909, -0.46605662, -0.45194390, -0.18461628, -0.00333725, 0.13299112, -0.04182972, 0.15107256
-0.33923864, 0.25877747, -0.10404080, 0.24277559, 0.67194724, -0.21223921, 0.10766356, -0.57297170, -0.42768213, -0.00610399, 0.02719602, -0.14195295, 0.34912926, 0.09530652, -0.00978728, -0.00504503, -0.04016480, 0.10307458, 0.03888510, -0.43173522, -0.07754420, -0.17049989, 0.22997394, -0.57626563, 0.07299064, 0.20028973, -0.13699163, 0.45980895, 0.21417367, -0.40974537, -0.12931363, -0.50240189, 0.07208057, -0.24083203, -0.10937025, 0.19464505, -0.31094214, -0.05432975, 0.35280278, 0.27477899, 0.08860870, 0.07698096, 0.07089502, -0.03226028, 0.05176198, -0.20438561, 0.45884794, 0.10331262, -0.51297760, 0.49229604, 0.13126905, 0.38355449, 0.22447519, -0.25493088, -0.01982958, 0.03865813, 0.25436220, -0.03022585, 0.19050586, -0.49801254, -0.13400164, -0.22307286, 0.45348018, 0.04264260
-0.37833250, 0.28480753, -0.08667433, 0.00261297, 0.16770491, 0.02555751, 0.15490445, -0.24906163, -0.15917529, -0.06353345, -0.17970449, -0.18121244, 0.08314253, 0.32029760, -0.03278917, -0.32812446, 0.17353180, -0.13515049, -0.21691284, -0.25487959, -0.02416681, -0.04126645, 0.19070953, -0.88390046, -0.10047529, -0.00522434, 0.09399673, 0.44180652, -0.34123662, 0.01819985, -0.04721165, -0.01778550, 0.07422421, -0.33622789, -0.09994677, -0.10494898, -0.27742675, 0.14590615, 0.29028237, 0.08801074, 0.16418764, 0.28142902, -0.00449713, -0.01477427, 0.00033571, -0.12051883, 0.20942940, -0.00153033, -0.25122955, 0.20589787, 0.05328053, 0.14190510, 0.24630737, 0.04885177, -0.19957656, -0.18519294, 0.08141847, -0.19707683, 0.07531562, -0.80694866, 0.01068576, -0.09428869, 0.16146502, -0.05885779
-0.14705890, 0.33271053, 0.00952313, 0.11392602, 0.34260854, 0.20289046, 0.27236956, -0.31950563, -0.20843655, 0.37207997, -0.08670896, -0.12921289, -0.10694656, 0.19728339, 0.07086831, -0.17982121, 0.29234645, -0.00234755, 0.02428048, -0.05050091, 0.07793228, -0.03693249, -0.14108080, -0.56132030, 0.11721114, -0.02480849, 0.12517954, 0.23978469, -0.12116387, 0.04190767, 0.14026213, 0.12301484, 0.17828703, -0.52255273, 0.31877476, 0.16390513, -0.24347246, 0.00091340, 0.14113176, -0.01366973, -0.01090995, 0.51731247, 0.00937582, 0.09893622, -0.01290276, -0.01322925, 0.37183467, 0.07786744, -0.20166610, -0.12354440, -0.01379967, 0.07107101, 0.07669355, 0.06586155, 0.06460208, -0.27977991, 0.18813258, -0.24838176, -0.01384979, -0.71026260, 0.31951186, -0.19076934, -0.26390469, -0.08616389
-0.07663669, 0.16382442, 0.11181562, -0.04968926, 0.39635101, 0.17392549, 0.10374139, -0.48171967, -0.11677180, 0.24308750, 0.08803474, 0.04421921, -0.14019169, 0.06518139, 0.15813710, -0.09724955, 0.43760791, -0.33409607, 0.10973201, -0.03550035, 0.16137987, 0.14324963, 0.23143211, -0.21122414, 0.02172318, -0.11632489, 0.24883392, -0.00962883, -0.27705166, -0.11760148, 0.17471935, 0.38715053, -0.04539634, -0.40198374, -0.02686838, 0.31967229, 0.13275582, -0.09479135, 0.22165543, 0.19597322, -0.08174268, 0.33386761, 0.10663182, 0.16722922, -0.00427449, 0.03389230, 0.09814853, -0.14520344, 0.09089257, -0.03134684, 0.17626798, 0.11500444, -0.14933996, 0.06400750, -0.16044125, -0.09331757, 0.28285781, -0.29449221, 0.04402890, 0.17970993, 0.10935036, -0.13056855, -0.54583710, -0.22329655
0.04969179, -0.27242497, 0.35653144, -0.07216926, -0.03770920, 0.09436947, -0.01192759, -0.47954243, -0.01028275, -0.03781557, 0.21500459, 0.02655669, -0.36579251, 0.02436110, 0.27259672, -0.18486059, 0.61922193, -0.39639682, 0.35046992, 0.16712970, -0.07039591, 0.13615729, 0.11974168, 0.11640093, 0.05126614, 0.02822987, 0.15828106, -0.06322308, -0.14704245, 0.05711665, 0.23544656, 0.35633987, 0.00139462, -0.50792009, 0.00149036, 0.23446754, 0.04731571, 0.03516365, 0.27610660, 0.01439553, 0.11428638, 0.44798991, 0.19354413, 0.42888108, 0.11848895, 0.05737231, 0.44671902, 0.00829688, 0.16627970, -0.01105956, 0.09865627, 0.27403817, -0.16173388, -0.11781571, -0.17394973, -0.06355684, 0.23354085, -0.28593615, 0.08437189, 0.01750861, -0.29556501, 0.04018258, -0.30442458, 0.01443262
-0.00899732, -0.58394104, 0.08253597, -0.02642661, 0.05893363, 0.17201252, -0.28830940, -0.10487961, 0.14934412, -0.06117759, 0.21854830, 0.35898909, -0.02625742, -0.15781331, -0.11134183, -0.12612681, 0.57275021, 0.09092125, 0.30539802, 0.15270162, -0.09770718, 0.07846864, -0.04064745, 0.25792408, 0.13755402, -0.04064608, 0.25760409, -0.24784146, -0.14637259, -0.02628334, 0.22004594, 0.52380329, 0.09536789, -0.09285087, -0.00416201, 0.23427148, 0.31577989, 0.18015887, 0.09061062, 0.23568633, 0.32286778, 0.34841624, 0.10530005, 0.56011087, -0.03241722, 0.18568507, 0.60405672, 0.09999070, 0.28713763, -0.15559076, -0.11396474, -0.01492248, -0.11037234, -0.01034445, -0.15449597, -0.25279909, 0.13687754, 0.00930646, 0.10203241, -0.00292824, -0.07772723, 0.06359982, -0.40021604, -0.16389103
0.09894310, 0.01302606, 0.18484876, 0.15489781, 0.05949739, 0.12980878, -0.16581392, -0.13802195, -0.04732052, -0.05549325, -0.05318848, 0.03284023, -0.07186849, 0.06104388, -0.22542849, -0.23004480, 0.19595532, 0.00090445, -1.27393329, 0.05409175, -0.08963343, 0.12453960, -0.13079448, 0.17376299, 0.10643986, -0.08478712, 0.16407911, -0.19815403, -0.36667791, 0.21734783, 0.12421946, 0.41913828, -0.01697431, 0.26151299, -0.01875100, 0.20680577, 0.26018113, 0.20420335, -0.05359279, 0.38595337, 0.15898454, 0.22104093, -0.06607589, 0.45209673, 0.05797766, 0.31910515, 0.24473006, -0.17940752, 0.07178912, -0.15708312, 0.44418031, -0.10530385, -0.02426997, 0.24539985, 0.06096697, 0.08432070, 0.26171264, 0.15041512, 0.06293106, -0.09434568, -0.13098612, 0.24470466, -0.24635987, -0.12307779
0.45072958, 0.05567602, 0.27392188, 0.10899623, -0.23626226, -0.13652964, -0.03277588, 0.11390691, -0.21519156, -0.28050545, -0.15596718, -0.15464479, 0.29864445, 0.10154763, -0.16993691, -0.23446879, -0.05836528, 0.24263687, -0.69886982, -0.13791211, 0.08786669, 0.12798586, 0.25141814, 0.23322935, 0.10206222, 0.07665570, 0.36283663, -0.11843876, -0.18361115, 0.14116383, 0.00078466, 0.48742384, 0.11911207, 0.64110476, -0.23826170, 0.35372114, -0.03919869, 0.26770097, -0.12674403, -0.25959903, 0.25612557, -0.08955010, -0.22694086, 0.45162478, 0.03416071, 0.10034604, -0.21941349, 0.08847993, 0.14843908, -0.14678451, 0.47975928, -0.03194875, 0.39327586, 0.22935598, 0.18886814, 0.47047234, 0.17163399, -0.00400393, -0.09213858, -0.11271591, -0.03275340, 0.12505467, -0.07127305, -0.30079466
0.15141064, 0.04070101, -0.02894640, -0.11562125, -0.23982887, 0.04730707, 0.04703595, 0.14798892, -0.23950921, -0.11098077, -0.14217699, -0.22756611, 0.23072055, 0.04821973, -0.14641881, -0.40383855, -0.18725066, 0.24200127, 0.28305978, -0.02276236, 0.15948945, 0.16219842, -0.03516446, 0.30419570, -0.08746750, 0.03827404, 0.33717301, -0.21227525, -0.37155154, 0.16420719, 0.05001497, 0.57994843, 0.15888467, 0.28976601, -0.21725437, 0.36143988, 0.03262207, 0.26993221, -0.23527630, -0.91061652, 0.26408908, -0.01844094, -0.19810736, 0.10285789, -0.02253050, -0.14720735, -0.42641062, -0.05051808, 0.20204219, -0.26692131, 0.36249536, 0.17947888, 0.26482591, 0.17101245, -0.05830931, 0.52439588, -0.09578344, 0.02127400, 0.06728021, -0.16419578, -0.07085296, 0.13976577, -0.19651125, -0.29246780
-0.12910046, -0.24688375, 0.09361745, -0.12727126, -0.03455281, -0.15013663, -0.13834535, 0.27687660, -0.10906630, -0.07420366, -0.34286177, -0.15098034, 0.25877869, 0.14348283, 0.19045907, -0.43567115, -0.33378273, 0.26982778, 0.56782210, -0.24561445, 0.20695427, 0.15112433, 0.07418769, 0.13473251, 0.20902777, -0.07448731, 0.24197780, -0.15561746, -0.30630797, 0.00967893, -0.36967850, 0.00620067, -0.01736445, 0.37419233, -0.28860059, 0.42570004, 0.19668394, -0.04707447, 0.01142311, -1.07078445, 0.54993415, 0.24975748, -0.01919092, 0.04281412, 0.00050089, -0.24503587, -0.23221162, -0.04727099, 0.29273513, -0.19594434, 0.07627312, 0.12942789, -0.20015688, 0.06367153, -0.05813894, 0.03247572, 0.08990778, -0.02530197, -0.06759609, 0.39888790, 0.07929607, -0.06048737, 0.18807207, 0.13102147
-0.66587400, -0.40978116, 0.00698471, -0.23130710, -0.23366617, 0.11159241, 0.05315524, 0.05993041, -0.05356562, 0.40041992, 0.05045319, -0.30974838, 0.25796586, 0.31667784, 0.20040429, -0.12877980, -0.55059242, 0.39087212, 0.30938333, -0.13077924, -0.04891470, 0.06586503, -0.05633583, 0.04750815, -0.08578883, 0.08753199, 0.17597419, -0.34064478, 0.33470708, 0.51440668, -0.27415645, 0.37838125, 0.14628060, 0.01712299, -0.23822504, 0.36998659, 0.06213091, 0.12433898, 0.16735664, -0.69232947, 0.16931269, 0.08194029, 0.25985914, -0.03713010, 0.15275054, -0.33284727, -0.35503489, 0.00387263, 0.09847780, 0.53801310, -0.47479719, 0.01745306, -0.39903793, -0.08279032, 0.19426833, -0.12945446, 0.17505550, 0.02872422, 0.36700583, 0.46413288, -0.14707626, 0.14796600, -0.04838996, -0.09429350
-0.26870939, -0.04589712, -0.17549834, -0.07737605, -0.04252287, 0.08742694, 0.34734294, -0.02670641, 0.14333709, 0.45326042, -0.15644337, 0.08865084, 0.73349166, 0.50244445, 0.19844541, 0.18718655, -0.40858352, 0.40060058, 0.06540108, -0.05876133, -0.06418034, 0.26813522, -0.08451701, 0.06492355, -0.21185739, 0.27918205, 0.26234883, 0.12956716, 0.56990808, -0.17939617, -0.34334534, 0.75695622, 0.23671491, -0.62207580, 0.11330000, 0.25570345, -0.06232783, 0.07877442, -0.19700225, -0.07183626, 0.49892664, 0.54107857, 0.26623890, 0.38860223, 0.15186928, -0.27602163, 0.02853092, 0.08409242, -0.25842097, 0.18183050, -0.91506183, -0.06917328, 0.18695170, -0.23139231, 0.14156453, -0.10904367, 0.83366722, 0.14688051, 0.75184363, 0.71970946, 0.58875698, -0.20668490, -0.03352445, -0.01693627
0.24833529, 0.50375187, 0.25180444, 0.49626318, 0.62174898, 0.15359154, 0.49479631, -0.34050512, 0.52919877, -0.09474600, 0.08371229, -0.62754589, -0.35690054, 0.53854185, 0.21678467, -0.41666779, 0.37017816, -0.79626459, 0.39074659, 0.08371541, 0.55033463, -0.49423796, 0.60690248, -0.55474061, -0.37923679, -0.16335639, -0.06159771, 0.49368066, -0.33879298, 0.00024098, 0.51551694, 0.05461107, 0.20760974, 0.28100321, -0.27433375, 0.56309408, -0.45763719, -0.41324738, 0.19542776, 0.19533409, 0.19779155, -0.53336436, -0.67744613, 0.21265925, -0.68864942, 0.35544068, 0.58490014, -0.03851944, -0.45850515, 0.75752217, 0.71408522, 0.15312165, -0.78178036, 0.08569309, 0.32449350, -0.03739676, -0.00646777, -0.37160182, -0.07341664, -0.46124715, -0.25339195, 0.24953058, 0.77803546, 0.25801843
-0.23962280, 0.13577686, 0.04266832, 0.74169397, 0.13879709, 0.08727537, -0.00100189, -0.05736651, -0.59937412, -0.00369214, -0.19001523, -0.25651532, 0.15284461, 0.17042488, -0.20311773, -0.17997089, 0.09692623, -0.12177632, 0.11854998, 0.12597954, 0.02325444, 0.04744071, 0.04157131, 0.11476076, 0.03320412, -0.18112145, -0.08858181, 0.32796469, 0.05539513, 0.00131508, -0.06811779, -0.61607301, -0.09706485, -0.00194281, 0.19806314, 0.05496134, 0.04543977, 0.00250402, 0.20035960, 0.30551299, 0.07051704, -0.24104661, -0.10541253, 0.17801479, 0.02937518, 0.12282415, 0.32939011, -0.09094632, -0.24367444, -0.12355879, 0.08025701, 0.01566152, 0.35396695, -0.37930539, 0.01921487, 0.62019593, 0.17137387, -0.12924235, -0.10685159, -0.50730354, -0.03144235, -0.22392221, 0.21363969, 0.01021998
-0.18704319, 0.23301005, -0.13685790, 0.20052887, 0.10010318, 0.30365929, 0.14078781, -0.67203665, -0.46923262, -0.05080636, 0.14420685, -0.26372483, -0.00369099, 0.19102581, -0.07498834, -0.29771444, -0.24623662, 0.07196383, -0.25213110, 0.00872637, 0.21992746, -0.01826335, -0.22306581, -0.73273075, -0.09627743, 0.23101060, -0.08549696, 0.25357082, 0.07838538, -0.12205979, 0.19503646, -0.48337975, -0.12743831, -0.16846500, -0.20399842, 0.10236997, -0.16575994, 0.12634611, 0.09192273, 0.25359553, -0.40364093, 0.06283666, 0.05939363, -0.30610037, 0.07328823, 0.05241289, 0.55226386, 0.09924283, -0.39338887, 0.03634370, 0.04237773, 0.37281519, 0.19434470, -0.48593554, -0.25078475, -0.00838546, 0.13383508, -0.47280636, 0.07817788, -0.73339397, 0.13722591, -0.06221514, 0.32604343, 0.05180300
0.00535977, 0.03314491, -0.14296080, 0.12343793, 0.00830779, 0.08614845, 0.05986841, -0.49547833, -0.33381346, 0.23024352, -0.02986202, -0.12432134, -0.21390338, 0.31273586, -0.01569695, -0.21540228, -0.09024458, -0.12691312, -0.18955101, 0.22995335, 0.08061599, 0.06636480, -0.01713971, -0.51905620, -0.19496959, 0.13611773, -0.31366178, 0.27424464, -0.13593267, 0.22576700, 0.39664853, -0.01005650, 0.23660728, -0.15942916, -0.02628163, 0.17789245, -0.13070093, -0.00504350, 0.03389335, -0.01935342, -0.18766755, 0.38472646, 0.09072730, -0.24073701, -0.09353826, -0.13818422, 0.39333704, -0.06777646, -0.19162787, -0.15905188, -0.04803369, 0.45938274, 0.08482849, -0.28873461, -0.09379021, 0.13262981, 0.33151418, -0.68800890, -0.09325021, -0.92469436, 0.31847996, 0.06933095, -0.02779955, -0.04293116
0.02610387, 0.45017338, 0.14972176, 0.02646670, 0.23977828, 0.16166741, 0.24540105, -0.38943601, -0.36615580, 0.17021143, 0.00503599, 0.00078472, -0.13074608, -0.00093245, 0.00631420, -0.30925158, 0.10252864, 0.05291225, -0.10303511, 0.17865446, 0.07236962, 0.30187523, -0.09064958, -0.43184403, -0.12446456, -0.01477121, -0.15589452, 0.04050678, -0.27587438, 0.15230021, 0.19264984, 0.27176267, 0.12754616, -0.11252445, 0.06523671, 0.27535632, 0.01038912, -0.14410153, 0.19278096, -0.26059559, 0.11451577, 0.33189979, -0.06848850, -0.29257944, 0.12116418, 0.03740294, 0.33201358, -0.10837632, -0.12720132, -0.13603580, -0.14329284, 0.39872342, -0.11162981, 0.00592206, -0.11930646, 0.37714678, 0.30112430, -0.49849087, -0.10202276, -0.23468946, 0.53743243, -0.06250710, -0.04432089, -0.06592529
-0.06095678, 0.01255886, 0.18720670, -0.13067012, 0.06488662, 0.04023937, 0.39451236, -0.00406820, -0.26094905, 0.08606315, 0.12263697, -0.12505645, -0.49897566, 0.05079197, 0.25657472, -0.13319984, 0.19701523, -0.35141823, 0.06012322, 0.14017034, 0.15849930, 0.03003457, 0.05110275, -0.05741855, 0.12510455, 0.15944512, 0.18449961, 0.07169888, 0.13997859, 0.32999721, 0.27815413, 0.37122327, 0.11719630, -0.27386406, -0.08475571, 0.41769838, 0.07734532, -0.03417462, 0.25260878, -0.28875288, 0.10416640, -0.20397449, -0.12288921, -0.28415045, -0.07176326, 0.20865598, 0.47103757, 0.04998346, 0.17636624, -0.04979673, -0.07265219, 0.24299027, -0.06859311, -0.21558535, -0.05065034, 0.22150205, 0.00308822, -0.09351338, 0.03664002, 0.51637822, 0.17681427, 0.14287840, -0.29279706, -0.27436957
-0.23162065, -0.23765028, 0.28093389, 0.10217593, -0.12233907, -0.00246951, 0.27236739, 0.20835629, -0.24311306, 0.04694964, 0.34812877, 0.03917633, -0.33865735, 0.12468020, 0.29374254, -0.04850547, 0.05513361, 0.03673335, 0.67894888, -0.00613886, 0.15603966, 0.11625583, 0.22372915, 0.38879138, 0.11416772, -0.16650940, 0.14756194, -0.17564717, 0.00958804, 0.27652788, 0.45669281, 0.33511871, 0.25044113, -0.29337311, -0.11216418, 0.51721466, 0.34869224, 0.21934634, 0.04412455, -0.10631977, 0.31153318, -0.21771553, 0.04656292, -0.25775310, 0.14050427, 0.24731401, 0.38835016, 0.08858956, 0.22922961, 0.30045199, -0.17517816, 0.56396240, 0.08996277, -0.04093061, 0.11649873, -0.00504023, -0.12286408, -0.08973147, 0.00403339, 0.49383387, -0.81358582, 0.28728440, -0.10370914, 0.14914872
-0.60550839, 0.06087361, 0.16538212, 0.15307122, -0.01223966, -0.03136431, 0.10205761, 0.29735354, -0.01579167, -0.15185109, 0.02330792, 0.10018596, -0.01793996, 0.06782313, -0.05757089, -0.08069773, 0.19884719, 0.11295944, 0.35207307, 0.08086759, 0.08415893, -0.02912003, 0.29194728, 0.25426877, 0.14966890, -0.20068701, 0.25742832, -0.37622517, -0.10635994, 0.36532396, 0.59799099, -0.53830880, -0.04064149, 0.07812062, -0.01711502, 0.59866714, 0.28487113, 0.37820306, -0.07595069, 0.71132427, 0.28001615, -0.33149457, 0.18514772, -0.21906003, -0.14862323, 0.19813742, 0.31167051, -0.13922279, 0.29082626, -0.03174194, -0.08120400, 0.25028014, -0.41800672, 0.25388104, 0.01679335, -0.41399863, -0.09837498, -0.07994933, 0.08892624, -0.32089677, -0.07934540, 0.27865118, -0.08207229, 0.30004531
0.16926923, 0.25110298, 0.20692720, -0.13530084, 0.19640693, -0.17001525, -0.06209250, 0.26604000, 0.01056908, -0.21536669, -0.19875577, 0.10968946, 0.01374839, 0.10293759, 0.00675269, -0.13885725, 0.06303031, -0.12051822, -1.26320875, -0.22859800, 0.11189208, 0.25966835, 0.34511700, 0.10398042, 0.12425388, -0.30317691, 0.19828972, -0.10256989, -0.17236693, 0.10215963, 0.25770521, -1.29029024, 0.02693352, 0.32142624, -0.17132999, 0.44936407, 0.10302160, 0.16963446, 0.50937003, 0.78816664, 0.49047285, -0.12685128, -0.24833174, 0.21648660, -0.16338703, -0.13310121, 0.05652117, 0.05478130, 0.05782484, -0.19331256, 0.53645134, -0.03576902, 0.03388059, 0.00825306, 0.21716774, -0.17056862, 0.42288592, -0.12124594, -0.20754328, -0.33012170, 0.06532310, -0.01773554, 0.07025369, 0.31662384
0.78368717, 0.13184796, 0.32414436, 0.13073848, -0.24073184, -0.09769587, 0.06081570, -0.13274372, -0.09730920, -0.30554983, -0.19995834, -0.30280131, 0.03001332, 0.30122134, 0.03250405, -0.16519769, 0.13063034, -0.05348006, 0.14336377, -0.25586423, 0.03279375, 0.29019442, 0.35095850, 0.23683764, -0.06217148, -0.02452611, 0.30256411, 0.11863603, -0.20134181, 0.15394756, -0.03602382, -1.31944847, 0.26012108, 0.38337305, -0.04575507, 0.52788883, 0.11865462, 0.31735960, 0.15592200, -0.18135747, 0.26933330, 0.09322213, -0.19784917, 0.33888626, -0.10996723, 0.10286505, -0.14309451, -0.03946515, -0.04561057, -0.21632561, 0.49818286, -0.06769560, 0.21431491, -0.00039146, 0.20942569, 0.62412840, 0.00701035, -0.03815815, -0.21144101, -0.20254698, 0.14575535, 0.17892657, -0.10175215, 0.06517087
-0.06718296, -0.21334603, 0.07807977, 0.21576858, -0.13003668, 0.04181257, -0.04789502, -0.14044496, 0.14777330, 0.01605219, -0.01745907, -0.08030705, -0.12219576, 0.39422524, 0.01365627, -0.14460430, -0.13026647, 0.01353736, 0.42740351, -0.06292838, 0.17835101, 0.13027218, 0.30338979, 0.21236478, 0.06625328, 0.00217473, 0.19920874, -0.01264850, 0.06322981, 0.11690132, 0.02299460, -1.20421636, 0.22790776, 0.43132097, 0.04186537, 0.27589270, 0.31344476, 0.18278711, -0.07165152, -1.06033468, 0.31763646, -0.03270216, 0.10166389, 0.27778894, -0.01175330, -0.08025631, -0.22266333, 0.05096519, -0.10955264, -0.13382383, 0.26614320, -0.03203651, -0.06277826, -0.26304671, 0.25995472, 0.49609366, 0.07718384, 0.01218725, -0.06376285, -0.14828579, 0.26854226, 0.27410111, 0.03808513, -0.25807813
-0.18651938, -0.03872342, 0.18844321, 0.16738541, -0.24052785, -0.00470749, -0.03166102, -0.09698600, 0.01613982, 0.15721418, -0.26254243, -0.19723240, -0.27747521, -0.00094485, 0.01936870, -0.49196708, -0.14606492, -0.09470578, 0.30670163, -0.05464118, 0.23867939, 0.15123272, 0.09367474, -0.09734526, 0.09914693, -0.15861595, 0.41691044, -0.32940549, -0.22744338, 0.17757560, 0.00974209, -1.37749970, 0.21567529, 0.10105015, 0.38341394, 0.28139049, 0.13755310, 0.29095852, -0.30912235, -1.07922792, 0.37233919, 0.32123682, 0.00595706, 0.08568557, 0.03476560, 0.07089292, -0.23682712, 0.02741984, -0.14184780, 0.18900500, 0.22105172, 0.30206314, -0.27625191, -0.55647433, 0.26469430, 0.23555721, 0.10316264, -0.12934206, 0.08794461, 0.13778871, 0.05425051, 0.32239246, 0.26365954, 0.02844374
-0.44396088, -0.30707535, 0.68543774, -0.17091313, -0.90571213, -0.10107052, 0.01585919, -0.15475449, 0.04648634, 0.50938910, 0.50539297, -0.77943289, -0.16119474, 0.80550683, 0.52277869, -0.01231550, -0.52630442, 0.24808815, 0.21588910, -0.31098035, 0.05761989, 0.70982808, 0.25704378, 1.03116894, -0.14114475, 0.01307082, 0.24763103, -0.09465089, 0.05182181, 0.23757702, 0.12821710, -0.73656815, 0.67579430, -0.02334228, 0.31222355, -0.07866246, 0.14353089, 0.15408836, 0.08569094, -0.93349165, 0.28242722, -0.10693726, -0.19261774, 0.24683170, -0.17262410, -0.41098624, -0.26778552, -0.10192705, 0.21097229, 0.36710986, -0.14469041, -0.06814165, -0.69053507, -0.25618312, 0.68967837, -0.29157999, 0.57415736, 0.09567304, 0.02875629, 0.43921989, 0.63330394, 0.43459338, 0.02573324, 0.11342229
0.16016400, -0.24212222, -0.07001607, 0.18926588, -0.28044528, 0.25869855, 0.14654410, -0.38664690, 0.17405801, -0.11763491, -0.21092345, -0.31324106, 0.32716915, 0.52815300, -0.17515321, -0.16121300, -0.79414409, -0.18615489, 0.26601189, -0.15847008, 0.19054851, 0.27690005, 0.29016751, -0.13068469, -0.06439907, 0.36978447, -0.13436079, -0.05273065, -0.02029744, -0.54906976, -0.33069450, 0.26204944, 0.03921832, -0.51040518, 0.20402619, -0.09437667, 0.06799491, 0.33925712, -0.45322949, -0.32493088, 0.29938444, 0.31647685, -0.06177056, -0.00259958, -0.18162820, -0.08133425, 0.79026181, -0.07878333, -0.13240176, -0.01861541, -0.93866652, 0.65456468, 0.17124104, 0.10587732, 0.18392523, -0.00942533, 0.48293892, 0.09216845, 0.20335107, -0.08765372, 0.67031831, 0.18315867, -0.39589134, -0.11881880
-0.26860809, 0.54634881, 0.28638992, 0.28867024, 0.37099567, 0.00675543, 0.39037427, 0.28891543, 0.02652490, -0.08997706, 0.49291018, -0.45436338, 0.01455646, 0.68931061, 0.31556258, -0.18529305, 0.23294282, -0.28267601, -0.25728634, 0.49865478, 0.33116892, -0.42984298, 0.34121242, -0.36625242, -0.18530189, 0.38657191, -0.01977565, 0.46213764, 0.14984292, -0.01658300, 0.60036153, -0.15492932, 0.15303664, 0.33013970, -0.27578160, 0.42946666, -0.20511055, -0.34824270, 0.06124848, 0.31858051, -0.15932570, -0.66049278, -0.61536926, 0.03802996, -0.62950987, -0.00732077, 0.23127350, 0.04581165, -0.00230444, 0.56171054, 0.43452117, -0.19735116, -0.58140653, 0.49794266, -0.30476767, 0.07455551, -0.54703999, -0.32459354, -0.54200703, -0.09513296, -0.07506397, 0.39580545, 0.58910286, 0.23628019
-0.33069867, 0.11092985, -0.10040498, 0.94865113, 0.08120484, 0.07306295, 0.29593313, -0.22989343, -0.68222696, -0.30142832, -0.19783594, -0.10430127, 0.10088293, 0.34073687, -0.33014748, -0.25260493, 0.05160138, -0.52769989, -0.14316885, 0.15291630, -0.01044116, 0.12661734, 0.53714162, -0.58710086, 0.01181818, -0.27227688, -0.13705629, 0.03398686, 0.13258249, 0.24812928, 0.07928938, -0.25341147, -0.02319433, 0.05652115, -0.21216106, 0.12472691, 0.14863983, 0.18362744, -0.00693817, 0.50467467, 0.23841813, 0.02339921, -0.30013523, -0.08225268, -0.24910598, 0.33717853, -0.12122059, 0.07756268, -0.40601915, 0.08279053, -0.34481832, 0.14287195, 0.13181145, -0.09321600, 0.45241651, 0.55406833, 0.01025608, -0.77972096, 0.23706155, -0.38133037, -0.49741620, -0.08081041, 0.35826945, 0.19769250
-0.29889157, -0.06241987, 0.00338717, 0.41550657, -0.45059949, 0.22081348, -0.09600460, -0.14949507, -0.52800214, 0.03706325, -0.19829379, 0.03755702, -0.11533428, 0.13932990, -0.05582536, 0.27538735, -0.08939312, -0.03508181, -0.11844394, 0.29972664, 0.53225219, 0.21924885, -0.14722453, 0.02570259, -0.00062861, 0.08895234, -0.33741087, 0.11138076, -0.04020267, 0.16314460, 0.44441757, -0.07175676, 0.14770389, -0.08949266, 0.04070190, -0.02161450, 0.15190113, 0.05058878, 0.07935177, 0.04759113, -0.29718795, 0.39841780, -0.10849977, -0.36694887, -0.08800559, 0.37363800, 0.34421369, -0.04262842, -0.23534063, 0.14209366, -0.21843067, 0.43578863, -0.31908107, -0.44650203, -0.17372450, 0.02221328, 0.24942096, -0.57344401, 0.07230690, -0.40557188, 0.12514752, 0.33307180, -0.05658604, -0.50984800
-0.18915595, 0.11142221, 0.18648879, -0.04240927, -0.38843212, 0.32870284, -0.04826468, -0.15907170, -0.27125782, 0.32271573, 0.11814506, -0.07247022, -0.22940667, 0.00006376, -0.03920424, 0.10925930, -0.08358825, -0.03117877, -0.06133114, 0.20223126, 0.43175709, -0.01287631, 0.08653984, 0.08698542, 0.04812447, -0.04233821, -0.20377696, 0.20645632, -0.28100950, 0.26267761, 0.41246116, 0.05826478, 0.20632538, -0.25136068, -0.02324588, -0.01271428, 0.17244796, 0.05093842, 0.23748176, -0.27033335, -0.23941123, 0.08233614, -0.01771345, -0.15653847, 0.07345127, 0.21790542, 0.18624377, 0.05923797, -0.02550386, -0.01789346, -0.38759688, 0.30983660, -0.27729592, -0.35146242, -0.39436987, 0.16191015, 0.21860401, -0.35131559, 0.02138304, -0.61163151, 0.25760746, 0.12482509, 0.00963281, -0.13205473
-0.50732297, 0.32655391, 0.04589766, 0.10551993, -0.45767713, 0.30015475, 0.14617756, -0.04353911, -0.21943833, 0.12778093, 0.06531814, 0.00976544, -0.25765306, 0.07344513, -0.11274818, -0.07149879, -0.28034416, 0.04437163, -0.17649578, -0.01386811, 0.30774170, 0.17819341, -0.31972006, -0.08640926, 0.04818752, -0.02538312, -0.20242324, 0.03808335, -0.22984724, 0.23057860, 0.25185540, 0.07968204, 0.11651458, -0.00168753, 0.13805550, -0.30111158, -0.04941538, -0.03946403, 0.21475148, -0.46639919, -0.14669062, -0.34150025, -0.06732440, -0.12858276, 0.12198318, 0.41695440, 0.05509426, -0.05130279, 0.06248781, -0.08906622, -0.07890851, 0.26475081, -0.13840464, -0.24187240, -0.15315947, 0.08334263, 0.47131813, -0.06885851, 0.00414875, 0.05681760, 0.81568801, 0.07141121, 0.11369850, -0.18927459
-0.35645723, 0.05835701, 0.23888077, -0.19060796, -0.66665679, 0.31309187, 0.14793344, -0.07409608, -0.49858189, 0.04668963, 0.33903691, 0.06607803, -0.37674728, 0.09002336, -0.02045359, -0.15461637, -0.54164422, -0.08696571, 0.10642727, -0.16291305, 0.55751008, -0.01426861, -0.22049358, 0.26168984, 0.10200828, 0.16523680, 0.03568664, 0.13755065, 0.16303925, 0.34985828, 0.50560820, -0.09662412, 0.18850057, 0.17979956, -0.02900370, -0.40040967, 0.06564199, 0.00643995, 0.08610360, -0.10381088, -0.14764455, -0.40248019, -0.13342601, -0.27551070, 0.16201496, -0.03243542, -0.13705763, 0.10774817, 0.02646095, 0.40919295, -0.08128598, 0.12711972, -0.05059160, 0.15766165, 0.15288053, -0.30660206, 0.40132949, -0.04856646, -0.04036289, 0.26946378, 0.59676212, 0.42328331, 0.27869776, 0.13370891
-0.64479047, -0.66333908, 0.14929664, 0.02055456, -0.52926809, 0.25559658, 0.07391040, -0.09651558, -0.54282624, 0.27060860, 0.27344772, -0.03648609, -0.03567639, 0.30917895, 0.35890314, -0.54006797, -0.75470877, 0.03943520, 0.52555287, 0.19045040, 0.39880985, -0.43060854, 0.18523961, 0.21536316, 0.15215233, 0.01798478, 0.12109676, -0.17076077, 0.14106722, 0.16947652, 0.57616401, -0.21901236, 0.35729703, -0.14939925, -0.67882019, -0.66335821, 0.13806479, 0.28231990, -0.23579672, 0.20356716, -0.13942122, 0.01203590, 0.24284674, -0.28097519, 0.08675817, -0.01650512, -0.44870082, -0.07315427, 0.19167081, 0.85784465, -0.14454874, 0.18588662, 0.15923099, 0.31316733, 0.09003054, -0.38441673, -0.31468412, 0.26135936, 0.13507219, 0.60350108, -0.60977358, 0.62629598, 0.49328861, 0.58322674
-0.22468312, 0.18483110, 0.08426419, -0.28232419, 0.15314393, 0.19427495, 0.06675934, 0.00527587, 0.54464459, -0.15020385, -0.40716630, 0.09493311, 0.36301211, 0.30796599, -0.32799011, -0.21782172, -0.24796118, -0.54751199, -0.57563043, 0.16674642, 0.07983598, -0.56754982, 0.14938639, -0.07299266, -0.21769921, -0.11458427, -0.07888288, -0.15799096, -0.05749385, 0.05162737, 0.48774627, -0.81215745, -0.05508808, -0.22700585, -0.64875346, -0.80321980, 0.33856919, 0.24543823, -0.00795038, 0.68438458, -0.10726312, -0.07193531, 0.42679363, -0.37323117, -0.24739666, -0.08790310, -0.21412876, 0.04839362, 0.24899778, -0.20301412, -0.99343705, 0.09353248, 0.17583443, 0.21129704, 0.22526415, -0.53177160, 0.03001543, -0.19015005, -0.05171235, -0.30903885, -0.32881784, 0.38022181, 0.23349611, 0.57407731
0.44340247, 0.18037258, 0.03707023, -0.27253318, 0.09928777, -0.08565992, 0.06033311, -0.11817918, 0.01509713, -0.22532226, -0.05084320, 0.14012891, 0.28408346, -0.07699890, -0.08612807, -0.41836625, 0.35714585, -0.38327733, -0.77333862, -0.00203459, -0.09683990, 0.04546393, 0.02749065, -0.00009457, -0.13907705, 0.10583136, -0.08659760, 0.12755275, 0.16965394, -0.00634350, 0.08984970, -0.48073635, -0.00574836, -0.37944666, -0.27054456, -0.71706760, -0.04243348, -0.03902730, 0.51829362, 0.50671458, -0.20934577, 0.15319145, -0.08334430, -0.15776603, -0.19692516, 0.13540484, 0.22754446, -0.04224221, -0.17673242, -0.31892493, 0.46711507, -0.00327670, 0.25660154, 0.26863798, 0.04106399, -0.20571609, 0.04483944, -0.25166571, -0.10267904, -0.11334376, -0.08573857, -0.15213016, 0.17936091, 0.61755663
0.31529248, -0.17885958, 0.17164220, -0.12269710, -0.04113434, -0.04128632, -0.09987012, -0.13644120, -0.45424977, -0.03234266, -0.19175878, 0.09107210, -0.05293013, 0.03326171, 0.06446341, -0.07853650, 0.26079965, -0.25626558, 0.37177563, 0.28502414, 0.12466568, -0.24637330, 0.21378759, -0.00531717, 0.00242236, -0.22380766, -0.22255473, 0.24882527, -0.12876995, 0.25436014, 0.21432079, -0.75097519, -0.04090613, -0.26186982, 0.15293221, -0.84739935, 0.40541816, 0.12117271, 0.26180702, -0.67760956, -0.20061065, 0.05363446, 0.18385909, -0.22583723, -0.19526643, 0.28494343, 0.29604048, -0.14140207, -0.03856172, 0.17310555, 0.41619191, 0.06342063, 0.13933733, -0.09196549, 0.20866826, 0.35555202, -0.43609962, -0.36978221, -0.16281193, -0.14990339, -0.00738233, 0.04790936, 0.23982181, 0.29611117
-0.24292055, -0.18823169, 0.18679160, 0.05565355, -0.00783071, 0.04077858, -0.15396141, -0.03926734, 0.15657687, -0.01749157, -0.19138867, 0.14765044, -0.79639041, 0.23164475, -0.21762487, -0.04855615, 0.09649301, -0.28689474, 0.36981496, 0.45791861, 0.23550509, -0.08136910, 0.03095098, 0.15880881, -0.07349806, -0.23615755, -0.13305014, -0.07681879, -0.30395249, 0.02502812, 0.09777278, -1.46430135, 0.15982132, 0.13516536, 0.41734448, -0.64911896, 0.30991650, 0.28264645, -0.18856312, -0.81471318, -0.15857396, 0.01916367, 0.07412694, -0.13846646, -0.16872002, 0.36577421, -0.30711702, -0.08733086, 0.05424087, 0.26555070, 0.07865062, -0.06850214, -0.42987436, -0.16708304, -0.04455699, 0.54521614, -0.36717623, -0.36124107, -0.27247700, -0.23398541, 0.31041384, 0.43947804, 0.12798895, -0.11733491
-0.25109944, -0.03138017, 0.18741851, 0.20047507, -0.14492318, 0.11251973, -0.19993943, -0.14481340, 0.00246883, 0.18055280, -0.23518069, -0.11959743, -1.16409647, 0.16260621, 0.08443039, -0.13469173, -0.02950494, -0.17027329, 0.16679938, 0.50017172, 0.00189698, 0.12504339, 0.15283349, -0.10666957, -0.07964066, -0.24818574, -0.44177628, -0.12298369, -0.26458320, 0.08172503, 0.12292552, -2.01407719, 0.31548885, 0.34081769, 0.41094211, -0.56287521, 0.39937547, 0.16277662, -0.13226350, -0.72536325, -0.00922761, -0.58814645, 0.17201453, 0.17408299, -0.24760126, 0.10670105, -0.11408686, -0.10703035, -0.17743386, 0.35445866, 0.28965688, -0.01113934, -0.85420507, -0.33968407, 0.14697914, 0.17975511, -0.13913441, -0.65931916, -0.41534698, -0.08381650, 0.01227896, 0.37323874, 0.07429986, 0.15574615
-0.64848220, -0.14192466, 0.37428117, -0.21182677, -0.94463736, -0.05647086, -0.25574815, 0.08552870, 0.52395707, 0.82673728, -0.46454889, -0.56467688, -0.26454136, 0.48367089, 0.34492037, 0.28631562, -0.17817150, -0.39062756, -0.43900138, -0.01620624, 0.36262628, 0.44578481, 0.08362655, 0.51669288, -0.00977303, 0.08972377, -0.59040505, -0.17923401, 0.09481573, -0.22694889, -0.12707780, -1.26130140, 0.59723127, 0.30467325, 0.54602832, -0.47506857, 0.62895250, 0.22927375, -0.03502795, -0.11976534, 0.05779923, -1.12604129, 0.21014960, -0.25236204, -0.15809107, -0.52162015, -0.02081559, -0.09905017, -0.05188433, 0.31970969, -0.01640317, -0.20191418, -0.86678118, -0.97233319, 0.49289730, -0.20794228, -0.13403673, -0.33924255, -0.41421372, 0.11008263, 0.41289788, 0.50565970, 0.24548842, 0.52149802
-0.11662342, -0.14460506, 0.53235191, -0.24850447, -0.53063083, 0.00015202, 0.00082622, -0.18966247, 0.24582052, 0.39813703, -0.39268443, -0.66145378, 0.02419835, 0.40238824, -0.24895479, -0.13814108, -0.25157729, -0.44138700, -0.37772012, 0.06997851, 0.58859229, 0.24135005, 0.59303451, 0.33238164, -0.27049452, 0.02338319, -0.13444364, -0.59047955, -0.29075873, 0.09959953, 0.08816465, 0.17907806, 0.62284917, -0.65237439, 0.59305423, 0.41322938, 0.38457793, 0.73709297, 0.02646388, 0.32760963, 0.40822583, -0.06782015, 0.11751535, 0.60029972, -0.26815796, -0.39274883, -0.10135745, -0.08853953, -0.24773127, 0.53392965, -0.51366049, 0.55412686, -0.05549402, -0.45261824, 0.61631227, -1.03870738, 0.07510609, -0.18851170, 0.61270612, 0.01810328, 0.68805659, 0.95983857, -0.01678894, 0.14507310
-0.30949098, 0.36900669, 0.15430823, 0.01513588, -0.14109054, 0.45075735, 0.23343849, -0.20179862, -0.35358247, -0.34887582, 0.14118661, -0.65183419, -0.12880997, 0.51138389, -0.00310901, -0.11998881, -0.21912372, 0.11782600, 0.12052529, -0.04759179, 0.47541353, 0.03118433, 0.27594352, -0.20170657, -0.36300486, 0.42499983, 0.12129015, 0.44516337, -0.19580886, 0.16583650, 0.40601996, -0.21626467, -0.02620078, -0.48457891, -0.31847039, 0.43991891, -0.29130372, 0.03056709, 0.01411072, 0.06443365, -0.23901276, -0.59761560, -0.54955471, -0.19214910, -0.00761036, -0.04345707, 0.12930536, -0.04737791, -0.11423540, 0.16801856, 0.37509415, 0.24151261, -0.07541338, 0.25474501, 0.21175660, 0.14674313, -0.06984314, -0.12234680, -0.51333725, 0.02799935, 0.33664408, 0.19604094, 0.59872156, 0.51107758
-0.28175575, 0.40512881, 0.37625325, 0.28533769, -0.36787543, 0.21827805, -0.17170748, 0.02786795, -0.22943199, 0.10758290, -0.11733924, -0.17570184, -0.04164508, 0.52451932, 0.10788983, -0.17472157, -0.07466722, -0.23976739, -0.62975889, 0.36190611, -0.06498484, -0.14256196, 0.63531011, -0.02955743, -0.01008431, 0.16072156, -0.27535087, 0.19360930, -0.46957704, 0.23933373, 0.20902094, -0.02446799, 0.15325199, -0.08883944, -0.27200922, -0.39337859, 0.24524549, 0.24697633, 0.00748354, -0.02104595, 0.25779599, 0.13746701, -0.63491774, -0.32680610, -0.21323942, 0.17232050, -0.08977602, 0.07446007, -0.10497473, 0.21651946, -0.38700482, -0.20075871, 0.13962096, 0.37927428, 0.17538594, -0.25640887, -0.06324884, -0.58631384, 0.17098539, -0.16127609, 0.36440584, 0.44647834, 0.13227573, 0.65811890
-0.48489177, -0.17580339, 0.20369984, -0.05985529, -0.62091547, 0.37929836, -0.16373469, -0.14252175, -0.42078745, -0.01261017, 0.17609718, -0.12926455, 0.15138827, 0.24130546, -0.16765672, 0.06166677, -0.15444648, -0.05667849, -0.04919128, 0.24425420, 0.33281764, -0.03653539, -0.12211924, 0.19867490, -0.05415448, 0.40851909, -0.59596217, -0.09329091, -0.41544208, 0.15314505, 0.19420606, 0.01398295, -0.06012477, 0.17402700, 0.06287336, -0.31799373, 0.01341236, -0.02268213, 0.00527684, -0.48995832, -0.25604212, -0.15425202, -0.06461211, -0.45379037, -0.01521159, 0.11808044, -0.57673144, -0.12681252, -0.21497111, 0.27649149, -0.36632830, -0.25472656, -0.27981463, -0.62454158, -0.28082579, 0.06343614, 0.31185728, -0.54471356, 0.06067678, -0.33843482, 0.09310199, 0.32006446, -0.19815585, -0.52475566
-0.50019217, 0.08546157, 0.06900433, -0.08957246, -1.11798728, 0.24865548, -0.19086669, 0.09206683, -0.58215445, 0.20785221, 0.25255889, -0.13620691, 0.14916122, 0.02848961, 0.04233955, 0.24150909, -0.09955967, 0.33092651, -0.05910611, 0.17087451, 0.15818708, 0.30123132, -0.15772511, 0.25650299, -0.00601794, 0.10172807, -0.19371279, 0.08474000, -0.33882251, -0.20339549, 0.09711558, 0.24900801, 0.35189113, -0.08897255, -0.10865575, -0.41263700, -0.00663915, -0.23705080, 0.30814853, -0.09952776, -0.26173943, -0.51969367, -0.01831127, -0.10072522, -0.07438213, 0.09777179, -0.45497915, -0.01621661, 0.35633814, 0.11834546, 0.00231104, -0.36548781, -0.11820560, -0.39381194, -0.36428270, -0.03580101, 0.16697776, 0.17734362, 0.15923214, -0.22473943, 0.23403364, -0.00990160, 0.38570282, 0.05472911
-0.13694650, 0.29961321, -0.00713191, 0.03288380, -0.90761065, 0.22252090, -0.21732567, 0.09463880, -0.43989047, 0.19881395, 0.26183057, -0.02276186, 0.04495510, 0.06071706, -0.03856119, 0.20247771, -0.04205962, 0.11582034, 0.05450213, 0.11561693, 0.08234929, 0.24594168, -0.25626102, 0.24174647, -0.11345860, -0.00841737, -0.41292202, 0.06879527, 0.00408764, -0.04122952, -0.07167824, -0.25269285, 0.10537536, 0.04807729, 0.21447134, -0.60374981, -0.09679271, -0.35189414, 0.03965933, 0.16812967, 0.00124280, -0.59776044, -0.10113180, 0.18078871, 0.26479432, 0.03996405, -0.55157477, 0.08218447, 0.30611736, 0.36615765, 0.22277728, -0.27695715, -0.08468906, 0.02921483, -0.28166518, -0.06374571, 0.41085371, 0.11345665, 0.23945969, -0.12043053, 0.53109145, 0.06543373, 0.59823287, 0.30959088
-0.03041044, -0.34043071, 0.12650505, 0.26158682, 0.10774614, 0.24062176, -0.08054122, -0.00614000, -0.20768657, 0.06956438, 0.09664956, -0.08476888, 0.08900830, 0.14453433, 0.15838052, 0.02379098, -0.19605070, 0.06705118, 0.00240287, -0.07677053, -0.32290840, 0.21104535, -0.02913744, 0.21430986, 0.13745505, 0.20224646, -0.17124210, 0.44177443, 0.18430524, -0.27599293, -0.28124499, -0.16564830, 0.04268152, 0.24991666, 0.33456719, -0.55264831, -0.26941466, -0.11999615, -0.14311102, 0.19421074, -0.02743144, -0.09383442, 0.05265106, 0.09810647, 0.21867496, -0.02468963, -0.64333558, -0.15669635, 0.05133446, 0.78630733, 0.24306820, -0.71067441, 0.09902617, 0.43796447, 0.05197608, -0.31730330, 0.39370075, 0.43186367, 0.21910590, 0.40703818, 0.70259297, -0.25061330, 0.56307882, 0.54273039
-0.13205692, -0.71684980, -0.15945323, 0.15517516, 0.57539946, -0.15065365, -0.09669409, 0.17664902, 0.15355752, 0.10157393, -0.60351205, -0.02690293, 0.30976623, -0.07207520, -0.07039908, -0.63860536, -0.24718715, 0.30362085, 0.27601999, -0.07847501, -0.66256058, -0.18793483, 0.04875132, 0.34476179, 0.22783376, -0.22030394, -0.65041590, -0.23006850, 0.38702822, -0.57959491, -0.34648463, -0.03496836, 0.04885923, 0.14661638, 0.29585165, -0.37117606, 0.27189460, 0.24156433, -0.47172531, 0.09614728, 0.10656745, 0.29380372, 0.53184223, 0.09951662, 0.08764852, -0.03003430, -0.57292092, -0.01029763, 0.09387749, 0.36063743, -0.58756471, -0.65397340, 0.28144619, 0.28203237, 0.37667733, -0.21840230, 0.06540011, 0.53872216, 0.16302542, 0.39762926, 0.03697096, -0.23701125, 0.06526531, 0.34750140
0.31146508, 0.08317187, -0.23660199, -0.21388808, 0.08905138, 0.29847288, 0.15643069, -0.05461178, 0.37373635, -0.28036433, -0.16163544, 0.35717207, 0.02079940, 0.09555566, -0.33007538, -0.29172018, -0.19546947, 0.10680205, -0.26351666, 0.48785809, -0.54673326, 0.04139409, 0.14908861, -0.04165461, -0.43072286, -0.02989308, -0.16877984, -0.36476690, -0.20245805, 0.03296217, -0.17719276, -0.01118395, -0.02022856, -0.19898227, 0.12707478, -0.17522292, 0.24580050, 0.45529521, -0.22199486, 0.35253102, -0.13734360, 0.34845990, 0.38110802, -0.29044721, -0.05375168, 0.08442786, -0.11333690, -0.10507580, 0.17132695, -0.51294154, -0.81245458, -0.03743973, 0.30408499, 0.35701650, 0.27155319, -0.37048724, 0.03646004, 0.22902997, 0.00551340, -0.03107503, -0.32076049, -0.09704111, -0.32312024, 0.36198893
0.22572763, 0.07159945, -0.16053566, 0.17873824, -0.02313361, 0.47466207, 0.13904628, -0.12552223, -0.42445603, -0.15758169, 0.03270875, 0.19468710, -0.00596495, 0.11057439, -0.26977429, -0.07881666, -0.04825360, -0.02553220, 0.15563895, 0.26857647, -0.48073372, -0.20035481, 0.07388911, -0.23039149, -0.12446587, 0.13062021, -0.07746585, 0.00269957, 0.14684425, 0.10858225, -0.05510459, 0.23648460, -0.01306935, -0.50790524, -0.03049961, 0.02931868, 0.05613630, 0.26107687, -0.10702543, 0.09317508, -0.39996472, 0.12448388, 0.19149104, -0.32054982, 0.01796936, 0.27897352, 0.36175069, -0.03252394, -0.01930100, -0.26036555, 0.00891735, -0.20534220, 0.18715930, 0.45235583, 0.15685692, -0.40982306, -0.37710443, 0.18116814, -0.04310368, -0.00485926, -0.03905794, -0.04358125, 0.16741820, 0.40508670
0.03677819, -0.02389772, 0.03266791, 0.22395347, 0.08900462, -0.02690164, 0.08773948, -0.04487738, -0.26436964, -0.08690649, -0.12121660, 0.05346829, -0.30013832, -0.07680468, -0.14904889, -0.05222650, 0.02372297, -0.22910875, 0.46273926, -0.01106946, -0.14546837, 0.02529950, 0.23784165, -0.01426206, 0.16366912, -0.18358707, -0.20885263, 0.31351271, -0.21825805, 0.37911138, 0.08380949, 0.38972974, 0.04141477, -0.05919253, 0.08934970, -0.42050374, -0.00010461, 0.04089043, 0.29595622, -0.55460644, -0.36877444, 0.19077195, -0.15181229, -0.07700586, 0.00204683, 0.06811278, 0.28018346, -0.01256537, 0.00275826, -0.24297972, -0.38982990, -0.07582581, 0.11610619, 0.08041200, 0.16033776, 0.31613153, -0.27507883, -0.00811282, -0.14034043, 0.04914442, -0.05308376, 0.11318809, -0.02793883, 0.03821662
0.24281634, 0.16150831, -0.02757646, 0.13103175, 0.31896213, 0.18785197, 0.16844732, -0.02846880, -0.02607922, 0.22655690, -0.05760652, -0.04918995, -0.36456990, 0.12040772, 0.11445209, -0.01213368, 0.04347182, 0.01375734, 0.25840154, -0.09832362, -0.21588296, 0.18655810, 0.04268585, 0.27896187, -0.00457444, 0.17318681, -0.45471716, 0.17634338, -0.01105037, 0.17625873, -0.09375902, 0.10190780, 0.07923694, -0.05543782, 0.04477111, -0.84070158, -0.01747107, -0.14115043, -0.06356459, -0.30009547, -0.50041795, 0.08763993, -0.22861513, 0.02280644, 0.13373408, -0.06252269, -0.18432000, 0.10922892, 0.05099608, -0.21396697, -0.21951766, -0.03774977, -0.45204848, 0.24217871, -0.22140816, 0.37626120, 0.20953065, -0.71823335, 0.05640842, 0.07457381, 0.24863979, -0.01881601, -0.31592050, -0.40816137
0.02945781, 0.09384599, 0.04355633, 0.20439309, 0.29009274, 0.26552969, -0.06510925, 0.09987729, -0.29286641, 0.54561502, 0.35650066, -0.06988697, -0.58666426, 0.26509026, 0.42254770, 0.27515602, -0.00975816, 0.10002637, -0.06184999, 0.34798381, -0.45716608, 0.25752890, -0.12720762, 0.37610802, 0.01625240, 0.18552199, -0.98803389, 0.03284693, 0.13559988, -0.25859725, -0.02381760, -0.47074330, -0.04385813, 0.34510756, -0.07362711, -0.71637964, 0.17900215, -0.22849515, 0.02069787, -0.37922651, -0.53152025, -0.27391279, 0.07776703, -0.30422279, 0.31119859, -0.11749083, -0.37189716, 0.02727812, 0.21079841, -0.31635144, 0.24691081, -0.11890200, -0.84833145, -0.09754330, -0.65672743, 0.21111001, 0.02725873, -0.78260314, 0.02665234, 0.38153380, -0.05393859, 0.00552814, -0.20175715, -0.12451266
0.22146526, 0.73659736, -0.07831869, 0.50702435, 0.19595048, 0.16818957, 0.09493932, 0.05279453, 0.30679742, 0.85698640, -0.39743781, -0.26102355, -0.66101885, 0.03052737, 0.66990852, 0.14629185, -0.32072821, -0.38219407, -0.68026322, 0.17016636, -0.09270559, 0.08288331, 0.06043668, -0.21459337, 0.14268832, -0.25112832, -0.63083762, -0.10049725, 0.02889767, -0.84590757, -0.09164210, -0.45513645, -0.10707866, -0.07408515, 0.01657477, -1.07379031, -0.13386679, -0.05437447, -0.20962445, 0.68861413, -0.34520209, -0.58683312, -0.00944013, -0.53745502, 0.39316607, -0.25214604, -0.13866663, -0.06074328, -0.08612616, 0.06527638, 0.08597929, 0.11132234, -0.62254703, -0.66545933, -0.62853605, -0.12302174, -0.35025465, -0.55941629, -0.35855061, -0.14732307, -0.44118601, 0.07175349, -0.04960436, 0.29210857
0.32065877, 0.13673007, 0.40444323, -0.11666473, 0.11487096, -0.45825246, 0.09733015, -0.05894492, 0.64420170, 0.28879723, -0.44741634, -0.24449024, -0.64581794, -0.27437359, -0.14397052, -0.03305900, -0.26610515, -0.77739090, -0.47818276, -0.10328539, 0.49421772, 0.10624865, 0.54594308, 0.50203896, 0.07610691, -0.48885238, 0.00788516, 0.19315651, -0.27753061, -0.26154020, 0.23070271, 0.02904971, 0.13212562, -0.42151940, 0.28409198, 0.03956300, -0.03489377, 0.30047441, -0.39959615, 0.46986133, 0.03013923, 0.12929840, -0.29995111, -0.01619437, -0.27797419, -0.07884382, -0.32506597, 0.04689364, -0.59397775, 0.76874202, -0.29149070, 0.27174589, 0.09912275, -0.53516728, -0.18162255, -0.42255142, -0.31943223, -0.05476078, 0.51130229, -0.48635545, 0.05123393, 0.58992070, -0.17254364, 0.14976233
-0.42144904, 0.31497702, -0.12387743, 0.05180753, -0.29571497, -0.03650128, 0.01895097, -0.32854924, -0.53886110, -0.27180699, 0.36936894, -0.37595150, 0.23754899, 0.42998269, -0.32301363, -0.30967596, -0.32497871, -0.01412183, 0.12681587, -0.07743546, 0.15954359, 0.08850199, 0.39916945, -0.30015206, -0.19296986, -0.09067499, -0.13640612, -0.10914657, 0.12665294, 0.19623213, 0.03067721, 0.19083050, 0.42862314, -0.23793280, 0.12776001, 0.17003761, 0.08581740, 0.12317426, 0.17265157, -0.01181903, -0.04604480, -0.09373082, 0.10595810, -0.10515924, -0.20345075, 0.09797311, -0.26599005, -0.13198557, -0.33445546, 0.34890914, -0.07081855, -0.39453229, 0.12815826, 0.09724507, 0.35443595, 0.21702825, 0.14720903, 0.00608131, 0.15852834, -0.27326515, 0.17636609, 0.00169905, 0.38394150, 0.14077878
0.28981856, 0.12362219, -0.20246430, -0.07972572, 0.12195635, -0.01057607, 0.22407660, 0.07146436, 0.42131692, -0.28196818, -0.16291519, 0.08325647, -0.01906309, -0.10763936, -0.15631416, 0.33079013, -0.07922064, -0.08550831, 0.65363371, -0.03789901, -0.43620387, 0.25790647, 0.00169529, 0.13021035, -0.00504531, 0.46407354, -0.03025325, 0.26138678, -0.06166397, 0.19937831, -0.10609647, -0.44780776, -0.28304285, -0.32609683, -0.28582561, -0.22683541, -0.12664275, -0.03217504, -0.23720150, 0.25182995, -0.06013350, 0.38755071, -0.26472172, 0.08330131, -0.05103982, 0.25445378, -0.35667142, -0.08306509, -0.47134763, 0.32994637, 0.17465255, -0.47268847, 0.13194814, -0.03150887, -0.21319191, -0.17211753, 0.15065496, 0.10900512, 0.11209550, 0.13148497, -0.14228262, -0.23549086, -0.01385124, -0.01503152
-0.18768759, 0.16101582, 0.21844752, -0.30634257, -0.14137329, -0.04325747, -0.10063849, 0.00215138, -0.00287177, -0.04696072, 0.33985794, -0.17310326, 0.12837647, -0.07378506, 0.09191682, 0.33002102, 0.05655475, -0.11344413, -0.03855577, 0.00254662, -0.56408322, -0.02042949, -0.21866019, 0.26105735, -0.02153187, 0.30459762, 0.07281541, 0.14966333, -0.03161262, -0.35042399, -0.26923916, -0.46858296, 0.21270159, 0.41286102, -0.03486390, -0.75480640, -0.07373834, -0.25571564, 0.35669550, -0.32756326, -0.06658296, -0.36923420, -0.36201575, 0.24069352, -0.18141297, -0.33802375, -0.67824638, -0.00619039, -0.23330234, 0.14317527, 0.14228608, -1.52595294, 0.10532769, -0.87202924, -0.12752980, 0.23601866, -0.01175421, 0.03122946, -0.85618961, -0.15098056, 0.15287858, -0.16954714, 0.33738875, 0.00420803
-0.00365599, 0.28427905, 0.36871505, -0.22675619, -0.19371325, -0.09232786, 0.04674586, 0.05915010, 0.08490473, 0.19467521, 0.07364169, 0.11724459, 0.21056940, 0.05722532, 0.06501427, 0.44140294, -0.03218327, 0.27129716, -0.20599534, 0.21049345, -0.53063959, 0.32962567, 0.01696494, 0.22623269, 0.07211342, 0.19724439, 0.20708403, 0.36434883, -0.03930154, -0.22227898, -0.21632262, -0.06268063, 0.15240093, 0.23686896, 0.22249034, -0.37635618, 0.03036935, -0.25271511, 0.05087638, -0.23442248, -0.02990141, -0.22725245, -0.23489499, 0.12445302, 0.08616906, -0.21612833, -0.40291870, -0.11071865, 0.21765168, 0.42034885, 0.44408897, -1.60575533, -0.05255011, -0.71392632, -0.30104420, 0.16005941, 0.11106648, 0.19734272, -0.29024613, -0.13202567, 0.16405044, -0.37522700, 0.39639074, 0.17266466
0.07083606, -0.18287216, -0.04014416, 0.00149879, 0.29608205, -0.06970283, 0.37657788, 0.30019259, 0.17695042, 0.06582542, 0.21210141, -0.15658450, 0.28049394, 0.30887446, 0.00432008, 0.38385296, 0.04845576, 0.30311051, -0.09173317, 0.08333012, -0.59583133, 0.49204069, 0.04381371, 0.19451536, 0.02812194, 0.03912598, -0.10909202, 0.32160428, -0.09885303, -0.41255721, -0.24816032, 0.03191051, 0.04889249, -0.00302406, 0.31750485, -0.31499258, 0.03953940, 0.06571731, 0.14263690, 0.07638120, 0.04429788, -0.51363236, 0.06832514, 0.09425365, 0.18751729, -0.40451136, -0.45040226, -0.06832182, 0.27189940, 0.46133837, 0.15973061, -1.08682287, -0.24221592, 0.07171633, -0.18000479, 0.28514567, 0.16332537, 0.24038075, -0.10109852, -0.20571797, 0.32254422, -0.27510732, 0.27601925, 0.25778505
0.11698318, -0.18136333, -0.06505571, 0.12395084, 0.70897186, 0.07896839, 0.40843561, 0.05598475, 0.45585042, 0.21383862, -0.30573571, 0.01980359, -0.08070859, 0.02187546, 0.29823068, 0.31283998, 0.00254805, 0.10745725, -0.09811921, -0.02204614, -0.66120386, 0.44527638, -0.11333554, 0.25496057, -0.00095487, -0.28413939, -0.42388412, 0.13328625, -0.14868429, -0.51795721, -0.08989948, -0.05050258, 0.04256579, 0.22040296, 0.52774632, -0.08259622, -0.15424451, -0.20662226, 0.01904843, -0.05230556, -0.02527830, -0.26259488, 0.02244048, -0.05990555, 0.16306642, -0.07987259, -0.01932000, -0.03605377, 0.12945685, 0.21404482, -0.36807826, -0.54542381, -0.38307217, 0.55094665, 0.04554586, -0.02217180, 0.44375724, 0.26794520, 0.22371945, 0.17010584, 0.40775171, -0.08294055, -0.16623054, 0.30978799
0.32520425, 0.08352858, -0.04562566, 0.28320569, 0.38379937, -0.02906116, 0.43644425, 0.39506400, 0.89886981, 0.14048183, -0.52007252, 0.15416770, 0.03432947, 0.08190731, -0.17243011, 0.28364295, 0.02356365, 0.23381341, 0.12573227, 0.27297112, -0.11133101, 0.42154524, -0.05219636, 0.14808488, 0.15568680, -0.51747793, -0.50197470, -0.15787575, -0.02751595, -0.35708484, -0.16202836, 0.02008692, 0.13950539, 0.35366678, 0.57591105, -0.07771943, 0.27253759, 0.32013014, -0.21205111, 0.03742374, 0.32049242, -0.11895142, 0.43106273, -0.10945813, 0.14733887, -0.12113494, -0.13978782, -0.16063781, 0.12351098, -0.47632495, -0.62457955, 0.07583389, 0.12051006, 0.33961490, 0.15644363, 0.02000041, 0.05084371, 0.25114343, 0.18439135, 0.20672843, 0.09438004, -0.20484328, -0.35174289, 0.02234704
0.27108902, 0.04716828, -0.29804656, 0.23818177, -0.10660158, 0.31371608, 0.44411618, -0.00117245, 0.51751930, 0.07028895, -0.32028624, 0.02289591, -0.10428638, 0.08553267, -0.38328063, 0.20489791, -0.09824756, 0.14857559, -0.01430865, 0.29476523, -0.14799505, 0.31922957, 0.11160002, -0.12088779, 0.07420871, 0.36692253, 0.15574951, 0.01817919, 0.06330829, -0.17149694, -0.28725600, 0.16105157, -0.15968341, -0.02699777, 0.60766095, -0.16896515, 0.14689702, 0.43536651, -0.07715604, 0.30817398, -0.14281832, -0.09044880, 0.30966178, -0.11816684, 0.18191418, 0.01208289, 0.12516625, -0.13473932, 0.12708658, -0.29972574, -0.37209347, 0.20449667, 0.48167235, 0.29472560, -0.05561848, -0.21024361, -0.31255341, 0.05143876, 0.06757431, 0.12835343, -0.50856465, 0.02433155, 0.00821519, -0.03395045
0.14194830, -0.00798809, -0.21754920, 0.10163592, -0.00695561, 0.38946918, 0.24233210, -0.30999228, -0.00600984, 0.04179056, -0.06514972, 0.14973414, 0.10272476, 0.12344169, -0.24591011, 0.32197723, -0.23360598, 0.12061888, 0.18738124, -0.09802315, -0.37232497, 0.06707973, 0.21336651, 0.06452292, 0.12023840, 0.23717467, 0.21249281, 0.10560439, 0.00582042, 0.10363229, -0.11562862, 0.06653655, -0.14602862, -0.07924702, 0.39409307, 0.01624972, -0.11041740, 0.25287789, -0.31552094, 0.02404726, -0.12964906, 0.01367784, 0.11584183, -0.41036370, 0.19576269, 0.05425553, 0.30714110, 0.02968765, -0.03705731, -0.36949483, 0.17247652, -0.14478783, 0.13481030, 0.37395141, 0.05961558, 0.05173383, 0.25857967, 0.75597358, -0.14018449, -0.03675138, 0.01087767, 0.04175697, -0.05617799, 0.65177351
-0.15501161, 0.02025443, 0.15342769, 0.46743733, 0.31625238, 0.26423907, 0.30757332, -0.23566596, 0.21101990, -0.00741923, -0.11657045, -0.16092440, 0.10445922, 0.33198211, -0.15373009, 0.23210882, 0.15950860, -0.14422943, 0.15332727, 0.10864848, -0.40225253, -0.08884803, -0.11255264, 0.00991439, 0.15142119, -0.07537570, 0.10267971, 0.55679029, 0.29626882, 0.34885067, 0.21847808, 0.32896522, 0.19136569, 0.09403551, -0.24197339, -0.03772941, -0.14787844, 0.03513670, 0.27738708, -0.25541425, -0.32052141, 0.05890098, -0.05096954, -0.12530442, 0.19538039, 0.41093561, -0.01816586, -0.12520885, -0.01312076, -0.32119763, -0.37025186, -0.03288078, -0.20149450, 0.31133443, 0.16233531, 0.40882632, 0.24284101, 0.38033786, -0.19012518, -0.12024228, 0.16202839, 0.17753732, 0.24162255, -0.15667303
-0.18288629, 0.08236498, 0.06504098, 0.31529948, 0.15302098, 0.24062383, 0.54405707, -0.11368316, -0.01382239, -0.12889002, 0.15535216, 0.18940711, 0.50940686, -0.14403619, 0.02304069, 0.15363663, -0.03148218, -0.16682291, -0.32764482, 0.15992860, -0.49191543, -0.22641648, -0.22559485, -0.10882324, -0.14023575, -0.07491189, -0.37731788, 0.42012182, 0.32747087, 0.16747798, 0.30792207, 0.33524063, 0.14121969, 0.10824599, -0.35303417, -0.11618277, -0.07661476, -0.18084469, 0.28853878, 0.06409666, -0.38421509, -0.00912095, -0.22866064, 0.11391526, -0.15996785, 0.31604585, -0.50920582, -0.08862809, 0.07231513, -0.10456463, -0.17043646, 0.08453228, -0.07861925, -0.12632796, 0.01185483, 0.44260278, 0.08039004, -0.65512347, -0.15968956, 0.10958552, -0.09763481, 0.08513148, -0.02300084, -0.36221018
0.00585211, 0.21737887, -0.08078124, 0.22188878, 0.23784074, 0.05540700, 0.40055427, -0.13072063, 0.07468518, 0.19341770, 0.41295174, -0.19555436, -0.10201642, 0.32476529, 0.34028772, 0.07597350, -0.03097976, -0.30564886, -0.07575633, 0.15381481, -0.30154836, -0.17907228, -0.01664651, -0.21895251, -0.02271954, -0.01834221, -0.41598281, 0.24283792, 0.32346433, -0.06224741, 0.18828660, 0.31922349, 0.15888049, 0.16222534, -0.23358344, -0.75248027, -0.19822855, -0.09760492, 0.26320583, 0.31861314, -0.12239278, 0.13796806, -0.22399370, -0.14159134, -0.20342728, 0.05616751, -0.26778603, -0.06823869, -0.22127226, 0.20902987, -0.18831041, 0.22472103, -0.05075214, -0.63846713, -0.35823208, 0.28710309, 0.10152463, -0.19254889, 0.26807287, -0.08647950, 0.06087777, -0.04588356, 0.28150752, 0.07654062
-0.30613098, 0.68813139, 0.23800492, 0.36426154, 0.35874555, -0.48485431, -0.00259550, 0.15864557, 0.44132560, 0.53891009, 0.02555140, -0.14518823, -0.16323856, -0.24193813, 0.75360161, 0.16291763, -0.18638648, -0.20501360, -0.24449553, 0.11032934, 0.06166194, -0.53920555, 0.31981850, 0.08521994, 0.23272663, -0.27483022, -0.38090780, -0.28094453, 0.42238760, -0.28039098, 0.37345171, 0.47032541, 0.14600885, 0.18646921, 0.04246628, -0.47388652, 0.14356320, -0.23344518, -0.05908905, 0.21950412, 0.23654248, 0.04581606, -0.06622007, -0.21901722, -0.03108369, -0.06590415, 0.01837401, 0.06567416, -0.20747937, 0.36100793, -0.11135075, -0.16046904, 0.25578234, -0.69353700, -0.36585605, -0.24803011, -0.12011438, 0.67315602, 0.16021360, -0.22307855, -0.16567267, -0.39423862, 0.58943945, -0.08977905
0.21509895, 0.14924888, -0.47233704, 0.41308242, 0.26915005, -0.46753117, 0.71014243, 0.11031552, 0.43570825, -0.01303393, -0.34928450, 0.43160290, -0.36394802, -0.56633824, 0.18677802, 0.53188372, 0.01403672, -0.45268282, -0.70804751, -0.35318619, 0.22795963, -0.28783005, 0.24273065, 0.49498242, 0.59997422, -0.25531870, 0.55720270, 0.35849687, 0.02498510, -0.18751292, 0.38748798, -0.51717734, -0.58739817, 0.08797739, 0.47254625, 0.56430668, -0.45369047, -0.51500970, -0.48405224, 0.85004967, -0.70534056, -0.05880002, -0.32068506, 0.51046365, 0.93663782, 0.39631194, 0.40982369, -0.07990398, -0.31888556, 0.13872571, 0.66650176, 0.53000033, 0.65379661, -0.58790833, -0.27029517, 0.56567693, -0.25545201, 0.58529222, 0.29143119, -0.73324275, -0.20795910, 0.25794899, -0.29988924, -0.50971371
-0.11878795, 0.19388144, -0.47849968, 0.29027712, 0.42684758, -0.09776076, 0.18003248, -0.32384762, -0.54320258, -0.27283826, 0.23718354, 0.27984196, 0.40602383, 0.16509928, -0.59297270, -0.39526346, 0.32440782, -0.23624741, 0.31305155, 0.39256704, -0.04724239, 0.10156813, 0.53228801, -0.58694839, -0.08477093, -0.33008087, -0.32438436, -0.50634968, -0.22247994, 0.39906892, -0.32418025, -0.08394736, 0.02594116, -0.19955778, 0.42349797, -0.53378034, 0.50978339, 0.57042271, 0.42815417, 0.45097774, 0.36254913, 0.26368052, 0.46450809, -0.01299135, -0.39290336, 0.55362713, -0.15051238, -0.08115978, -0.17874373, 0.21432117, -0.33047217, -0.43617851, 0.55047911, 0.23481761, 0.35369810, 0.37926751, -0.04538768, -0.54392344, 0.03562380, -0.46351653, -0.17317334, -0.38417765, 0.50810653, -0.51248819
0.07415423, -0.05010064, -0.38914791, 0.43061408, 0.45803815, -0.50652343, 0.25148320, -0.05645803, 0.20597373, -0.18705983, -0.32933065, 0.21062218, -0.04432697, -0.27334169, -0.15869986, -0.06082024, 0.13841683, -0.40942201, 0.24893208, -0.17252482, -0.25787589, -0.19349313, 0.19070251, -0.23932642, 0.29421142, 0.08218811, -0.19676122, 0.12524624, 0.40698868, 0.20190790, -0.67199183, 0.39674011, -0.22452363, -0.31344676, 0.03605938, 0.15224122, 0.22081916, 0.16908522, 0.12995072, 0.35711193, 0.01141017, 1.10755825, 0.20946263, 0.41131294, -0.00403738, 0.27766210, -0.01423169, 0.05329891, -0.61726779, 0.27859116, 0.02299794, -0.11616457, 0.50298667, -0.48783192, 0.13795526, 0.10375498, -0.26375613, 0.05658755, 0.37599519, 0.03799209, -0.02031848, -0.67737556, 0.38101617, -0.75543964
-0.12709707, 0.30523449, 0.00390518, -0.10355525, 0.04513383, -0.35574639, -0.10556919, -0.01753860, 0.31835482, -0.25270498, 0.13699029, 0.10252968, 0.08332159, 0.07172498, -0.05870083, 0.24279398, 0.17209023, -0.29111567, -0.24845785, 0.11088686, -0.60215074, -0.51296031, -0.11329921, 0.29467508, -0.05601396, 0.17550866, 0.07976817, 0.17843524, 0.29098073, -0.02997650, -0.25679055, -0.38733116, 0.03288917, 0.02261283, -0.13602012, -0.23519656, 0.22958009, 0.03876437, 0.08368819, -0.28934729, -0.35045114, 0.42071807, -0.07257747, -0.19932172, -0.31682962, -0.05528321, -0.47280735, -0.16168432, -0.23286587, -0.04435105, 0.19829232, -1.03721488, 0.26194155, -0.65108883, 0.03285950, 0.07139359, -0.37222365, 0.23936699, -0.99797308, -0.38070467, -0.18170595, -0.28360194, 0.20443349, 0.09842796
-0.09674054, 0.03055010, 0.17708921, 0.09956674, 0.09125216, 0.14971153, 0.27148747, -0.04571120, 0.35566446, 0.01373395, 0.37177515, -0.05509593, 0.02896871, 0.31358138, 0.17648627, 0.28864753, -0.05559861, 0.09703268, -0.13183753, 0.06679283, -0.92001021, -0.24423353, -0.13164194, 0.36547363, 0.09669708, 0.08207517, 0.58576673, 0.16214077, 0.26832333, -0.13601880, -0.12076769, -0.30318573, 0.15951169, 0.03643607, -0.05131020, -0.02717925, 0.15264311, -0.13150717, 0.11129919, 0.03743016, -0.08748812, -0.26223183, -0.08075058, -0.36904582, 0.01259054, -0.10191339, -0.51827163, 0.03009165, 0.09518503, -0.34341338, 0.23285711, -0.35480195, 0.08019976, -0.49596637, -0.13480657, 0.10691406, -0.11711583, 0.12075417, -1.59872639, -0.15722477, -0.29044309, -0.08136598, 0.10623513, 0.02300123
0.17530258, -0.32639128, 0.02004364, 0.20180696, 0.29874256, 0.19847092, 0.26288369, 0.17526418, 0.38521218, 0.04915448, 0.35707253, -0.03286899, -0.00827584, -0.06939911, 0.21865284, 0.21932188, -0.19639175, -0.08828894, 0.09034695, 0.04986301, -0.81571728, 0.11120767, 0.03787433, 0.12130656, 0.29754114, -0.28151190, 0.22086960, 0.23639973, 0.02322446, -0.03482499, -0.02103777, -0.27630690, 0.05836836, 0.15674023, -0.34509683, 0.24407101, -0.02741155, -0.06400384, 0.14490974, 0.17522019, 0.09307855, -0.60891205, -0.18395001, -0.04108854, 0.37214097, -0.20442016, 0.02163509, -0.10431800, 0.20778087, 0.00299613, 0.05684285, -0.14096445, 0.04951737, 0.03675936, -0.22904818, 0.21020068, 0.10442675, 0.08022358, -1.48608387, 0.02191083, 0.04304752, -0.03665918, -0.25232115, 0.00566722
0.42557868, -0.21947780, -0.08541745, 0.24611378, 0.46147802, 0.13761276, 0.40767685, 0.31477657, 0.47288951, 0.29934680, -0.05426488, 0.25174689, -0.16628969, -0.22715786, 0.22265095, 0.40152645, 0.04072607, 0.04358217, -0.09905593, 0.02280309, 0.10648125, 0.23057622, -0.01914889, 0.23760846, 0.13153186, -0.67582476, 0.03268782, -0.38197276, -0.07054107, -0.22865207, -0.09193695, 0.02329004, -0.10285938, -0.08442402, 0.30077791, 0.10552014, 0.28721270, -0.27193668, 0.28044420, -0.20679419, 0.29990137, -0.85982436, 0.10176642, -0.11239763, 0.30282354, -0.05242284, 0.20022392, 0.09815021, 0.28640777, -0.18252102, -0.46822289, 0.29632628, -0.63469988, 0.41380647, -0.12773266, 0.04611267, 0.14376336, 0.23143874, -0.89151990, 0.23961987, 0.14836241, 0.17358209, -0.27301818, 0.07315788
0.06964532, 0.27507082, -0.26740220, 0.23717012, 0.11280517, 0.08352448, 0.37350491, 0.32795733, 0.48565826, -0.01936818, -0.45407495, 0.22401167, 0.33243006, -0.11686948, 0.05827100, 0.48061693, -0.08546844, 0.18388601, 0.10936389, 0.02592758, 0.42686516, 0.41460198, -0.06278902, -0.20562717, 0.22529857, -0.12969311, -0.00579319, -0.60261893, -0.44225729, -0.24403487, -0.08612210, 0.07671890, -0.38966787, -0.45564964, 0.49625409, 0.01647900, -0.12809165, 0.14492506, 0.35455099, 0.11836191, -0.07496357, -0.71500117, 0.37612140, -0.12976559, 0.16587120, 0.14127252, 0.14070588, 0.04651345, 0.05712035, -0.37089202, -0.52213794, 0.44556472, -0.42471719, 0.06199761, -0.06164500, 0.10334989, 0.28258282, 0.03355552, -0.50439012, -0.00910456, -0.19711670, -0.02119810, -0.17868607, -0.12153884
-0.14920828, 0.21774828, -0.09195056, 0.15542641, -0.02250353, 0.30497363, 0.18096170, 0.03574676, 0.29006070, 0.12005042, -0.08034141, 0.10064601, 0.06088917, 0.20749253, -0.01300715, 0.27111343, -0.32476977, 0.11983997, -0.01340297, -0.01811069, 0.02910093, 0.53529859, 0.08138393, 0.02667012, -0.08122478, 0.52898914, 0.12419638, 0.46920305, 0.02034646, -0.15149632, -0.09904101, 0.20843688, -0.10224026, -0.02545967, 0.13133226, -0.10876275, -0.30896866, 0.04852758, -0.22868831, 0.29526067, -0.33580008, -0.24677056, 0.07700966, -0.33003980, 0.38769642, 0.19989967, 0.02042546, -0.00951185, -0.13857979, -0.09978804, -0.10279646, 0.19351414, 0.27507994, 0.30629203, -0.07238331, -0.00590541, 0.07291366, 0.28114787, -0.22714685, 0.06971189, -0.31283438, -0.07796376, -0.07193327, 0.18188989
-0.37260032, -0.09629636, 0.26219302, 0.19925290, 0.14875443, 0.28529012, 0.20804700, -0.32045195, 0.01285815, 0.02989961, -0.05591401, -0.20577480, 0.06545202, 0.24774210, -0.08578642, 0.32772952, -0.01899133, 0.02751506, -0.07528815, 0.05457695, -0.04762486, 0.07426823, 0.04963500, -0.00263703, 0.19692278, 0.12188178, 0.07075056, 0.80355161, 0.18248501, 0.12347475, 0.12080815, 0.03854745, 0.26301038, 0.08579268, 0.09783249, -0.01368799, -0.11702566, 0.10470480, -0.36645737, -0.23742859, -0.00725130, 0.16648811, 0.04853462, -0.03903739, 0.17672056, 0.27342844, 0.02683524, -0.12321448, 0.11194122, -0.10843068, -0.06532302, -0.02971664, 0.06937202, 0.33735493, 0.28021348, 0.37128201, 0.31419885, 0.63292301, -0.19473156, 0.08342610, 0.15815957, 0.04551560, 0.09417813, 0.13843535
-0.62396878, -0.01505060, 0.08539044, 0.33243525, 0.33855325, 0.17460349, 0.14027797, -0.12976167, 0.06352668, -0.06391421, 0.15368265, 0.06468000, 0.28971323, 0.26611933, 0.09351135, 0.02323426, -0.16766468, -0.19753627, -0.18695796, 0.10524384, -0.23432879, -0.24277355, -0.29360211, -0.01565747, -0.08146661, 0.04965394, -0.08552781, 0.68820894, 0.34790665, 0.24617684, 0.16519719, 0.13967839, 0.18279837, -0.22806643, -0.12601353, 0.01512172, -0.00835745, -0.03641680, 0.25293571, -0.12911141, -0.10323508, 0.34960940, -0.00672214, 0.01537299, -0.04927590, 0.10083388, -0.36666214, -0.04600498, -0.19478656, 0.34616920, 0.06316977, -0.01245870, 0.27890491, -0.04404514, 0.38171136, 0.56264859, 0.29291981, 0.20708215, 0.07697055, -0.17747065, -0.01349031, -0.22391050, 0.03454449, -0.34821352
-0.61570740, -0.00535728, -0.23409800, 0.24618158, 0.02300332, 0.19140804, 0.10220403, -0.31010565, 0.08397484, 0.04328505, 0.13171358, -0.15723512, 0.13180016, 0.15413032, 0.27806517, 0.17932406, -0.20682423, -0.22710434, 0.02429792, 0.11145946, -0.13219894, -0.20669933, -0.03088671, -0.15555066, 0.02968895, -0.06007971, 0.09055940, 0.54018074, 0.33429873, 0.12441941, 0.38778147, 0.12461270, 0.07079939, -0.19414885, -0.29081514, 0.04133785, -0.17457001, -0.17663488, 0.31937340, 0.19905201, -0.28221077, -0.03613747, -0.14794564, 0.20088074, 0.04086056, 0.03387418, -0.35187605, -0.07307719, 0.03567978, 0.16947185, 0.06664653, 0.16821349, 0.42157340, -0.29681578, -0.07135490, 0.12208983, 0.07674308, -0.09391382, 0.01633055, -0.11679547, -0.13023111, 0.08842516, 0.39965898, -0.06931686
-0.27795795, 0.12576213, -0.08128454, 0.32368782, 0.26644251, 0.05511173, 0.26074395, -0.16185823, 0.16563250, 0.32495856, 0.18494129, 0.00427151, -0.07757211, 0.05751921, 0.42510593, 0.09146003, 0.04522203, -0.33742681, 0.05125323, 0.25152686, 0.08001740, -0.35583913, 0.18874124, -0.16878609, 0.17572817, -0.08201332, 0.05287346, 0.21501769, 0.28554112, -0.00423804, 0.16782849, -0.01761348, 0.31487262, -0.26498222, -0.12780000, -0.31439832, 0.10767034, 0.02129448, 0.25677103, 0.26744190, 0.12518415, 0.15405989, 0.00531396, -0.10700960, -0.02771105, -0.07697335, -0.31012726, 0.01015159, -0.18378057, 0.32191837, -0.09753539, 0.11309659, 0.33900860, -0.69576502, -0.18637508, 0.08097495, 0.09338505, 0.41733536, 0.00414027, -0.12624744, -0.08852002, -0.18431652, 0.32966098, -0.22844219
0.05324415, 0.40699032, -0.10080916, 0.17287199, 0.43403003, -0.07201443, 0.10925016, 0.24332894, 0.34257793, 0.37963104, -0.07341626, -0.07633258, -0.29801533, 0.16358903, 0.45186827, -0.09457990, -0.13781948, -0.37527230, -0.34044883, 0.19800967, 0.31003594, -0.50166690, 0.29216176, -0.05863817, 0.06703139, -0.08758726, 0.03033277, 0.05225996, 0.24337958, -0.45065391, 0.11008586, 0.31124079, 0.00166611, -0.14798568, -0.12085797, 0.05331793, -0.03333617, -0.08973072, -0.06529757, 0.46752581, -0.05835476, 0.16019598, -0.25333589, 0.00661772, 0.24227491, 0.00595119, 0.27173513, -0.12085161, 0.21046598, 0.12772609, -0.29212654, -0.03465256, 0.33350754, -0.56007755, -0.40026054, -0.15789582, -0.26722640, 0.24500860, 0.22378974, -0.03511442, -0.00482487, 0.07577294, 0.21676056, -0.63938999
