0.2727303206920624, -0.4245996773242950, -0.2750715613365173, 0.2907519042491913, 0.1850163489580154, -0.3201784491539001, -0.4937088787555695, 0.0371590666472912, -0.1038838773965836, 0.4532440006732941
0.3620146512985229, -0.9822487235069275, -0.5046767592430115, -0.7384626865386963, 0.2202926576137543, 0.5198199748992920, 0.4850573241710663, -0.5466460585594177, -0.0987278148531914, 0.2516781091690063
-0.9188467860221863, -0.3979471325874329, -0.7477072477340698, 0.3518038094043732, 0.6028684973716736, 0.1842296719551086, -1.4170695543289185, -0.1509184986352921, -0.1063412576913834, 0.2682367861270905
0.2673102617263794, -0.0466812066733837, -1.4018609523773193, -0.4019118547439575, 0.8034440279006958, 0.1854078322649002, 0.2635288238525391, -0.0864402353763580, -0.7813435792922974, 0.6989061832427979
-0.6989045739173889, 1.1684167385101318, 1.1033685207366943, -0.0044012181460857, 0.5809299349784851, -0.3846159875392914, -1.1654804944992065, 0.5835657119750977, -0.4262542724609375, -1.0034965276718140
0.2964245975017548, -0.3919246196746826, 0.3230297565460205, 0.0352558195590973, -1.8962982892990112, -0.1563351750373840, -0.9343085885047913, 0.5918490290641785, -0.1588661372661591, 0.1381786167621613
0.6455537676811218, -0.5127387046813965, -0.1050170063972473, -0.3510200977325439, 0.1885532587766647, -1.4017221927642822, -0.7690743207931519, 0.3837361335754395, -0.0077331471256912, 0.6155529022216797
-0.4704588949680328, 0.6089568734169006, -0.2476076185703278, -0.7496131062507629, -0.4169545173645020, 0.4565452337265015, 0.0667603835463524, 1.4115078449249268, -1.2464449405670166, -1.2870200872421265
-0.1897716075181961, 0.2157256156206131, 0.1231864467263222, 0.2710508406162262, -0.1777857542037964, 0.2763369083404541, -0.4335037469863892, -0.4403062760829926, 0.4348066151142120, -0.1025031059980392
0.1539404690265656, -0.5066907405853271, 0.5252536535263062, -0.3183059692382812, 0.4449690580368042, 0.1879012733697891, -0.3957865536212921, -0.7075478434562683, 0.3868213593959808, 0.0960527807474136
0.4919226169586182, -0.6496517658233643, 0.5163931846618652, 0.1083454638719559, -0.8191874623298645, 0.0917888954281807, -0.2160451710224152, -0.2391442060470581, -0.0388152785599232, -0.7678317427635193
0.4472006559371948, -0.0133096659556031, -1.1932811737060547, 0.2541470527648926, -0.5720096826553345, 0.8387988805770874, 0.4810485839843750, -0.4348012804985046, 0.2657705545425415, -0.6053609848022461
-0.1655173003673553, -0.5429347157478333, 0.2471078932285309, -0.2974741756916046, -0.3043938279151917, -0.2667595744132996, 0.1140523627400398, -0.4568320512771606, 0.4536803662776947, -0.0516316778957844
0.4832987785339355, 0.3139720559120178, -0.4187281727790833, -0.2720122635364532, 0.1071763858199120, -0.1064883247017860, -0.3706226646900177, 0.4952254295349121, 0.2837578654289246, 0.1609895378351212
-0.3151428699493408, 0.0513950176537037, -0.4381497204303741, 0.3638948202133179, -0.2857102751731873, 0.3293374478816986, -1.0601222515106201, -0.1810197234153748, 0.5069682002067566, 0.1743946075439453
0.5166352987289429, 1.2367634773254395, 0.0594167448580265, -0.7477923035621643, 0.2014706879854202, -0.3369293808937073, 0.0745631754398346, -0.0212326068431139, -0.9553450942039490, -0.0789801552891731
-0.8648475408554077, 0.6103459596633911, 0.7458232641220093, -1.0490667819976807, 0.2067818939685822, -0.1019060984253883, -0.0139461541548371, 0.2240888029336929, -0.0038017439655960, -0.8964721560478210
-0.2330550998449326, 0.0310239903628826, -0.1049125939607620, 0.4724287986755371, -0.7637754678726196, -0.1208772882819176, 0.4707123637199402, 0.2305610626935959, 0.2477151006460190, -0.8155534267425537
-0.8352541923522949, -1.3097710609436035, 0.3322857022285461, -0.2197179049253464, 0.3085271716117859, 0.4628862142562866, 0.1414608806371689, 0.1643073707818985, -0.1381959468126297, 0.3674801290035248
0.1014893427491188, -0.2480264306068420, 0.4217642247676849, 0.1555584073066711, -0.7819612026214600, 0.0451258718967438, -0.6438715457916260, 0.6674699187278748, -0.4493530988693237, 0.2803992629051208
0.0858993306756020, -0.1014292687177658, 0.0117319757118821, -0.9324447512626648, 0.7039600610733032, 0.2045165747404099, 0.7199149131774902, -0.3774980902671814, 0.6254678964614868, -1.5606204271316528
-0.2833565175533295, 0.8577493429183960, 0.2698537111282349, 0.4251877367496490, -1.4136505126953125, 0.3711749315261841, -0.9840914607048035, 0.3130633533000946, -0.6861233115196228, 0.1711285263299942
-0.9144550561904907, -0.0409762412309647, 0.3175915181636810, 0.3356319069862366, 0.0250944662839174, -0.9703050851821899, -0.2215928435325623, 0.3826242685317993, -0.2425672113895416, 0.5211043953895569
-0.9930648803710938, -0.7023340463638306, -0.3991106450557709, 0.3380305171012878, 0.4142647981643677, 0.7638132572174072, -1.2512909173965454, 0.2936324775218964, 0.1371586322784424, 0.1857625097036362
-0.8888748884201050, 0.3348268568515778, -0.1071811988949776, -0.5631729364395142, 0.7180467247962952, -0.4146665930747986, -1.2219252586364746, 0.7248908281326294, 0.4651154875755310, 0.2501569986343384
-1.0697836875915527, -0.2878954112529755, -2.2377581596374512, 0.9278994798660278, 0.4636886715888977, 0.6577778458595276, -0.5417558550834656, -1.3052004575729370, -1.1248171329498291, 0.8482605218887329
0.3071230947971344, -0.9522899389266968, -0.0314936377108097, 0.3101778924465179, -1.2151533365249634, -0.0811610594391823, 0.0501528382301331, -0.8798171877861023, 0.2553287148475647, -0.2620021402835846
-0.9301739335060120, 0.3985213935375214, 0.5098664164543152, 0.1365363895893097, -0.2178069502115250, 0.1016195639967918, 0.1703594475984573, -0.3570076525211334, 0.4863633811473846, -1.3491758108139038
0.1362834125757217, 0.3410300910472870, 0.3296743035316467, 0.4313848912715912, -1.2494275569915771, 0.0511501617729664, 0.0375610478222370, -0.4822633862495422, 0.4707608520984650, -0.3653514385223389
0.3541868031024933, -0.4366413354873657, 0.4162742197513580, 0.1928987652063370, -0.1132310405373573, 0.2270349562168121, 0.1685561388731003, -1.2006409168243408, -0.0420719757676125, -0.6783424615859985
-0.1971091926097870, 0.3013123571872711, 0.0708686560392380, -0.6240741610527039, 0.3587202429771423, -0.7686082124710083, 0.6251366734504700, 0.6653323173522949, -1.6741726398468018, 0.6122076511383057
0.2912657856941223, -0.1747572422027588, 0.3293978869915009, -0.3044724762439728, 1.0253423452377319, -0.5763592123985291, 0.0048284363001585, 0.4864752292633057, 0.0189168602228165, -0.7605497837066650
0.4653669595718384, -0.8127861618995667, -0.2602387964725494, 0.0186983384191990, -0.0649882256984711, 0.2734485864639282, 0.0713717266917229, -0.2283564656972885, 0.2680062949657440, 0.2580466568470001
0.3105056285858154, -0.7397199869155884, -0.1366008371114731, -0.0217030867934227, -0.4714500308036804, 0.2015945166349411, 0.1486569195985794, 0.2346120774745941, 0.1766424030065536, -0.1128117293119431
-0.0369493663311005, 0.9708795547485352, -0.6509791016578674, 0.5588291287422180, 0.6275627017021179, -1.7754595279693604, 0.1041752174496651, 0.3807957470417023, -0.5270019173622131, 0.1353432834148407
-1.7389192581176758, 0.3186752200126648, -0.1258656829595566, 0.2405903637409210, 0.4030492305755615, 0.6032049655914307, -1.7928589582443237, -1.2545994520187378, -0.5549032092094421, 0.7029009461402893
0.2773860991001129, 1.1198879480361938, -0.7614796757698059, -0.6327102184295654, -0.8489170074462891, 1.0015087127685547, 0.3370675742626190, 0.7181023359298706, -1.3504170179367065, -0.7351670861244202
0.1374879926443100, -0.6054168343544006, 0.4716591835021973, 0.2516009211540222, -0.1162140518426895, -0.3137141764163971, 0.2499381750822067, -0.5210937261581421, -0.0836933255195618, -0.1676425337791443
0.1801521182060242, 0.5412619113922119, 0.7617612481117249, -0.5179533362388611, -0.2389524728059769, -1.0614558458328247, -0.3599414825439453, 0.6707636713981628, -0.4541121423244476, -0.5787804126739502
0.2325759828090668, -0.1036095619201660, 1.0228416919708252, -0.2657647728919983, 0.1512389034032822, -0.0465741455554962, 0.1870262622833252, -0.6639086008071899, -1.3671224117279053, -0.0862136259675026
-1.0685431957244873, 0.0125350253656507, -0.4802415966987610, 0.3160881400108337, 0.2222638875246048, 0.3945505917072296, 0.0239420849829912, 0.5431426167488098, 0.2223707288503647, -0.1725209653377533
-0.3989287614822388, 0.1067529767751694, -0.0186545401811600, 0.2241823077201843, 0.0649745315313339, 0.4014430046081543, 0.6057398319244385, -0.0822832658886909, 0.1550884097814560, -1.5067107677459717
0.1294384002685547, -0.1394647061824799, -1.0418654680252075, -0.4605709612369537, -0.9557493925094604, 1.0787249803543091, 0.1756250709295273, -0.1874013841152191, 0.0826967433094978, 0.6282992362976074
-0.1961476057767868, -0.0762737467885017, 0.0881871506571770, -0.0535835251212120, 0.3147529363632202, -0.3484903872013092, 0.5362822413444519, 0.0614624693989754, 0.3884387016296387, -0.0048140785656869
0.1604546159505844, -0.3524139523506165, -0.2935592532157898, 0.2663588225841522, 0.4049287438392639, -0.5565061569213867, -0.7308660745620728, 0.2991368770599365, 0.0347177200019360, 0.0025636469945312
-0.2570309042930603, 0.3397676646709442, 0.5332893133163452, -0.7745990753173828, -0.8276537656784058, 0.2542357444763184, 0.3955960571765900, -0.1673536896705627, 0.2569137215614319, 0.2659020423889160
0.2167176306247711, -0.5859556198120117, 0.0895109772682190, 0.2031157016754150, 0.5787606239318848, 0.5340276360511780, 0.0708891451358795, 0.1418507397174835, -0.6971961855888367, -1.0636758804321289
-0.6188880205154419, -0.4542551040649414, 0.4704756438732147, 1.1856011152267456, -1.9105560779571533, -0.4670121371746063, 0.2788429558277130, 0.9883378744125366, -1.1954089403152466, -1.2777349948883057
-0.0381768755614758, 0.0330511964857578, -0.4524573981761932, -0.0848579108715057, 0.2111771553754807, 0.4228917360305786, -0.4789487123489380, -0.1523977965116501, 0.1842429190874100, 0.4262469708919525
-0.7001767158508301, -0.0002779982169159, -0.2728717327117920, 0.0180219635367393, 0.2886541187763214, -0.0764110535383224, 0.4309845268726349, -0.4762913882732391, 0.1807932555675507, -0.2689564526081085
0.0954911857843399, -0.4038081169128418, -0.0886200070381165, -0.3801940977573395, 0.0275099799036980, -0.5789630413055420, 0.0023664666805416, 0.3725111782550812, 0.0709424912929535, 0.1413789689540863
0.3551424145698547, -0.7470764517784119, 0.0751856416463852, -0.1088033467531204, -0.4293867647647858, -0.0141686247661710, 0.2878447473049164, -0.0052224034443498, 0.1142020821571350, 0.1003736555576324
-0.6993919014930725, 0.9729821681976318, 0.6642988324165344, 0.0113595314323902, 0.8802145719528198, -0.2003824710845947, -0.4284774065017700, -0.3508544564247131, -0.7487910985946655, -1.6827628612518311
-1.2648937702178955, -0.0088282516226172, -1.1757365465164185, 0.5017580389976501, 0.2604817450046539, 0.7155001163482666, -1.1779624223709106, -0.6123685240745544, 0.2026558369398117, 0.4677949845790863
-0.2938374280929565, 0.1323971450328827, 0.4802629351615906, -0.0225257575511932, -0.3058721125125885, -0.9925028681755066, -0.1407990306615829, -0.5096561908721924, 0.3873553276062012, 0.3887780010700226
0.4633355140686035, -1.0626482963562012, -0.1090737059712410, 0.3814305067062378, -0.4637279808521271, -0.0664983913302422, -0.3463565409183502, 0.4561762809753418, -0.1905878037214279, 0.2821648418903351
-0.2852431237697601, 1.0053884983062744, -0.2755307257175446, 1.0462610721588135, 0.0794114619493484, -0.6958762407302856, 0.4724253118038177, 0.3641652166843414, -1.0916749238967896, -0.9911995530128479
-0.3640421330928802, -0.0012485027546063, -0.2001386433839798, 0.0776030048727989, 0.0844585373997688, -0.2398592084646225, 0.5672254562377930, -0.5681459307670593, 0.2025047689676285, 0.1809267848730087
0.3350534141063690, -0.6500974297523499, 0.5880929231643677, -0.1277172267436981, -0.9964262247085571, -0.5518407821655273, 0.7164502143859863, -0.2765775024890900, 0.2428521215915680, 0.7775913476943970
-0.6511030197143555, 0.5921488404273987, 0.1059729233384132, -0.4298200905323029, 0.3713927567005157, -0.3727557361125946, 0.2267380356788635, 0.2646277546882629, 0.1559536457061768, 0.1996831148862839
0.1409343779087067, 0.6031475663185120, -0.4855425357818604, -1.7016603946685791, 0.5132493376731873, -0.4500524997711182, 0.4829373359680176, -0.0884320437908173, -0.4252493977546692, 0.1523207128047943
-0.7717615962028503, 0.1049961969256401, -0.7032325863838196, -0.8064512014389038, 0.1645736545324326, 0.5722798705101013, 0.9058718085289001, -0.6220188140869141, 0.7298403382301331, 0.1551510989665985
-0.5519378781318665, 0.5068807601928711, 0.7178930640220642, 0.3429311811923981, -0.9276575446128845, -0.0501154139637947, -0.6424363851547241, 0.2057576179504395, -0.7191154360771179, -1.1218369007110596
-1.2940545082092285, 0.1424561887979507, 0.8645241260528564, 0.3608901500701904, 0.0304880309849977, 0.4946384131908417, -1.3121820688247681, 0.4959168136119843, 0.2193098962306976, -0.9783954620361328
