-0.492325, 0.739707, 0.635553, 0.271154, -0.146788, -1.212920, -1.027114, 0.396671, 0.032763, -0.348889
0.533805, 0.818090, 0.355927, -0.853294, 0.182302, -0.209856, 0.667493, 0.278110, -0.155471, -1.337681
0.491081, -0.678124, -0.161822, -0.263221, -0.047403, 0.379939, -0.356037, 0.037905, 0.105670, 0.307690
0.346552, -0.695467, 0.221699, 0.355361, 0.121283, -0.254993, 0.259891, 0.242646, 0.303647, -0.101050
0.326229, 0.098136, 0.398709, 0.420698, -0.209183, -0.501184, 0.524470, 0.900994, -1.072202, -1.676220
-0.255419, -0.344697, -0.115716, -0.110430, 0.048039, -0.477423, 0.486696, 0.414300, 0.285514, 0.328236
-1.157540, -0.875059, 0.165783, 0.963743, 0.408708, 0.087497, -1.153459, 0.639215, -1.607971, -0.095733
0.107590, 0.663334, 0.262557, -0.312073, -0.411801, 0.020967, 0.389067, -0.952791, -0.071144, -0.029770
-0.429312, 0.629843, 0.630579, -0.517322, -0.327896, 0.350314, 0.055419, 0.637615, -0.638843, -1.584159
0.238337, -0.404297, 0.257471, -0.283081, -0.056141, 0.267644, 0.475975, -0.315485, 0.414185, -0.191581
-0.011692, 1.001531, -1.120125, -0.229231, 0.133261, -0.075029, 0.273640, 0.382646, -1.012584, 0.451742
-0.207785, 0.342848, 0.274098, 0.233879, -0.144152, -0.369469, 0.133151, -0.419275, -0.178510, 0.350352
-0.615759, 0.593125, -1.105320, 0.445787, 0.563477, 0.428007, 0.326666, -0.312705, -0.264216, -0.992272
0.109611, -0.125404, -0.553943, -0.102568, 0.060435, 0.117252, 0.194581, 0.366074, 0.356421, -0.012085
0.433346, -0.497027, 0.096531, -0.503290, 0.218893, 0.136479, 0.219840, -0.523148, 0.111064, -0.540547
-0.424314, -1.003525, 0.618868, -0.382501, 0.173198, 0.023393, 0.500071, -1.088402, 0.327019, 0.326114
0.596081, -0.762984, 0.230777, 0.126007, -0.771608, -0.149816, -0.404366, 0.224646, -0.398309, 0.457806
-0.879492, 0.220195, -0.319222, -0.834108, 0.395012, -0.170438, 0.576977, -0.787242, 0.245178, 0.352247
-0.764517, 1.079357, -0.321337, 0.619783, 1.500224, -1.449754, -0.381851, 0.540607, -0.499152, -1.161549
-0.006943, 0.126855, -0.157421, 0.023191, -0.579717, -0.268720, 0.399461, 0.128528, 0.087416, 0.273762
-0.177500, 0.276282, 1.082196, -0.186728, -1.130608, 0.337034, -0.071608, -0.054035, 0.380929, -1.476322
-1.214656, -0.302568, -0.912860, 0.372625, 0.593528, 0.247676, -1.485856, -0.046949, 0.170562, 0.290898
0.148117, 0.372326, -0.208836, 0.146954, 0.135851, 0.166009, -0.515599, 0.252660, 0.434133, -0.092941
0.124772, -0.443475, 0.427271, -0.852919, 0.110406, 0.305870, -0.522419, -0.226083, 0.244400, 0.434326
0.322391, -0.233930, 0.356570, 0.182181, 0.232769, -0.124028, -0.318633, -0.673282, 0.362055, -0.207212
-0.862659, 0.583049, 0.079844, -0.726890, 0.239885, -0.262307, 0.455889, 0.192541, 0.267258, -0.232935
-1.144606, -0.306533, 0.190639, -0.098935, -0.080763, 0.543991, -0.821983, 0.714399, -0.258156, 0.429021
-0.092269, -0.216098, 0.917682, -1.317942, 0.326695, -0.920277, 0.162732, 0.736060, -0.726275, -0.197642
0.030148, -0.396767, 0.209724, 0.316123, 0.123659, 0.469444, 0.421559, -1.204012, -0.045885, -0.585513
-0.427802, 0.261871, -0.239224, 0.239510, -0.348476, -0.021018, -0.833773, 0.380043, -0.799047, 0.316529
0.166446, 0.430065, 0.701785, -0.071310, -0.763215, -0.102981, -1.343608, 0.474970, -0.691644, 0.282593
-0.363237, 1.288711, -1.003694, -0.474072, -1.894649, 1.159488, 0.533953, -0.194340, -0.366088, -0.083972
0.307610, -0.835213, -0.454012, -0.091620, 0.023424, 0.417687, 0.033250, -0.059687, 0.256467, -0.037687
0.527616, -0.449136, 0.053172, -0.016467, -0.902805, -0.084300, -0.091981, -0.601728, -0.167759, 0.420050
-1.597097, -0.782094, 0.045341, 0.603892, 0.128974, 0.526665, -0.296379, -0.650127, 0.388566, 0.242863
-0.874152, -0.405942, 0.374308, -0.038143, -1.161796, 0.918723, 0.203253, 0.505073, -0.643340, -1.774568
0.233048, -0.059129, -0.377906, 0.339129, -0.631611, 0.087534, -0.229264, -0.518270, 0.383039, 0.284843
-0.516463, 0.340018, -0.491034, 0.430110, -0.253354, -0.112371, -0.452306, -0.016061, 0.318946, 0.109414
0.541590, -1.712815, -0.604333, 0.159137, 0.112056, 0.338185, -0.039855, -0.410312, -0.157159, 0.197632
-0.489948, 0.694443, 0.250443, 0.372320, 0.347927, -1.747239, -1.164011, 0.340485, -0.171186, -0.040401
0.548504, 0.165803, -0.089313, 0.235727, -1.715778, 0.418385, 0.820570, -0.373922, 0.191359, -0.392897
-0.479127, -0.904827, 0.280273, 0.359069, -0.621388, 0.438103, -1.362264, -0.588027, 0.228707, 0.547806
-0.540000, 0.187468, -0.113363, 0.356262, -0.288797, -0.048288, 0.364324, -0.666816, 0.384111, 0.186049
0.754162, -0.834835, 0.527004, 0.337733, -1.653505, 0.175570, -0.292886, -0.269223, -0.448756, -0.311833
-0.097920, -0.235447, 0.435641, -0.237268, 0.374182, -0.513688, 0.169160, -0.562238, 0.455863, -0.181995
0.031410, -0.864447, 0.232922, 0.424768, -0.141971, -0.525054, 0.196305, 0.465768, -0.149909, 0.334106
0.485437, -0.248393, 0.635017, 0.088644, -0.894673, -1.343100, -0.894739, 0.372496, -0.017674, 0.261988
0.043788, -0.103223, -0.192506, -0.055710, 0.132305, 0.172768, -0.115609, -0.041153, 0.256931, 0.028086
0.253337, 0.079349, -0.369373, -0.582322, -0.008548, -0.205469, 0.155889, -0.420405, 0.369449, 0.334246
-0.010152, 0.730281, 0.567461, 0.493833, -0.572284, 0.394322, 0.394096, 1.199367, -1.192225, -1.271038
0.496631, 0.770290, 0.419220, -0.361245, 0.449846, -1.021812, 0.088696, 1.288516, -1.112726, -0.180738
-0.955111, 0.604397, 0.484268, 0.088091, 0.109816, 0.064554, -1.059104, 0.476872, -0.006411, -0.818956
-1.410895, 0.376900, -0.143332, 0.325955, 0.575295, -0.019069, -0.684822, -0.652126, 0.547659, -0.425423
0.520263, 0.231453, -0.815513, -0.542494, 0.415926, -0.637236, 0.512768, 0.462450, -0.088517, 0.435809
0.057031, -0.585970, -0.805895, 0.311225, 0.145426, 0.382399, -0.153179, -0.012657, 0.111044, -0.043780
0.302415, 0.144381, 0.344184, 0.370559, 0.332720, -1.458608, -0.192465, 0.061829, -0.443309, 0.513001
-0.503052, -0.966303, -0.994765, 0.058533, 0.537127, 0.183619, -0.843866, 0.035476, 0.350064, 0.232765
0.286051, -0.796121, 0.919290, -0.312141, 0.141253, 0.372881, 0.077436, -0.634606, -2.036673, 0.312870
-1.331570, 0.948285, -0.326915, 1.002837, -0.307391, 0.938894, -2.382865, -0.900833, -1.713408, 0.752943
-0.004181, -0.532785, -0.120042, -1.012976, 0.358183, 0.257061, 0.477049, -0.923467, 0.401792, -0.123093
-0.414221, -0.483741, -0.578486, -1.334880, 0.597855, 0.787094, -0.362628, 0.128796, 0.635758, 0.156688
-0.186203, -0.215744, 0.295491, -0.225501, -0.945132, 0.130218, -0.795121, 0.343441, 0.335101, 0.384524
0.373891, -0.378538, -0.340652, 0.838218, 0.086991, 0.299326, 0.031381, 0.616078, -0.517863, -1.104609
0.348417, 0.101659, -0.275266, -0.875484, 0.390251, 0.542880, -1.125352, 0.497657, -0.977756, 0.633635
