0.02565700, -0.09975408, -0.07835474, 0.10802376, -0.00900164, -0.12655061, 0.10099944, -0.07788248, 0.04889055, 0.06259651, 0.11872956, -0.07910787, 0.10643169, 0.04066169, -0.14659792, -0.12396187, 0.10454515, -0.06571767, -0.05664022, 0.09892187, 0.12711895, 0.12868938, -0.03916153, -0.01628679, 0.08354251, -0.14676376, -0.09461734, -0.07409473, 0.13266775, -0.08589142, -0.05705706, 0.12479338, 0.04599531, 0.02253291, 0.03314681, 0.09847587, 0.12650707, -0.12282319, 0.01222551, 0.11780491, 0.06467925, -0.08939924, -0.13342775, -0.07742740, -0.05228880, 0.07905382, 0.07465753, 0.02520020, 0.01351753, -0.04088806, 0.04727350, 0.14766371, 0.13012919, 0.06384739, -0.10897937, -0.09109136, 0.08521345, 0.12001848, -0.02310294, 0.10611087, -0.01752028, -0.11332090, -0.06936577, 0.00312340
0.11961159, 0.05467473, 0.12582323, 0.00923778, -0.00908306, -0.07161446, 0.03617503, 0.00084236, -0.11319360, 0.09215912, 0.07643516, -0.02389355, 0.10701448, -0.04349838, 0.12788561, -0.13130891, 0.02125490, -0.12449529, -0.07858805, 0.06763275, -0.05616142, 0.09809998, -0.02610563, -0.04908551, -0.05045775, 0.10638219, -0.07371451, 0.14627272, -0.11536196, 0.12821373, -0.03834093, -0.03397523, -0.13590600, -0.00075421, 0.12210393, 0.07367319, 0.05019948, 0.13817677, 0.07630999, 0.09221511, 0.14759108, 0.03621943, 0.01097037, -0.14749302, -0.02888079, -0.02728631, -0.01767512, -0.09669413, 0.01070631, 0.10007530, -0.07301227, 0.05195193, -0.09647349, -0.13008495, 0.01000801, -0.13957213, -0.00293159, 0.13954148, -0.00694078, 0.12541211, -0.15059538, 0.15084317, -0.02185953, -0.14906678
0.10692305, 0.08601926, 0.10524873, -0.13383202, 0.07503847, 0.09632347, -0.06159354, 0.00473603, -0.07844589, -0.07857077, -0.04057007, 0.01565196, 0.02936769, -0.01468687, -0.03189887, 0.11070881, 0.06362965, 0.21268165, -0.03814270, -0.06400555, 0.08672225, 0.01309121, -0.10976681, -0.17877521, -0.12542292, 0.04572563, -0.07717129, 0.03114434, 0.12035513, 0.12354167, 0.01797423, -0.05318896, 0.14836001, -0.02538959, -0.09190030, 0.13490152, 0.08059030, -0.00852136, 0.03480282, -0.04870386, -0.13615029, -0.04148724, -0.02196424, -0.07272448, -0.22915190, 0.06505155, 0.06507318, 0.24076228, -0.01631201, 0.13193943, -0.10499459, 0.14564672, -0.16780938, -0.01830220, -0.04533143, 0.01496934, -0.01177750, -0.08240729, 0.22014642, -0.11704592, 0.10464374, -0.01228727, 0.13448951, 0.02840550
-0.20294979, 0.29545760, -0.09857858, -0.00124741, -0.08757081, -0.16934773, -0.30120340, 0.33430517, 0.06277106, -0.06367671, -0.08349886, -0.03992639, 0.07587717, -0.16231419, 0.00767439, 0.08195602, 0.15385903, 0.07017682, -0.33532503, 0.03536880, -0.21866626, 0.05895921, -0.31356063, -0.31443986, 0.05209204, 0.10895795, -0.07278132, -0.02371695, -0.02564215, 0.11106966, 0.21361564, -0.26503798, 0.22584814, 0.25544384, -0.11702374, 0.12922312, -0.08508257, 0.09384549, -0.04969519, -0.18071057, -0.21888867, 0.26486406, -0.05220092, 0.22280651, -0.22161779, -0.01930191, -0.33792990, 0.21923585, -0.30619413, 0.26496184, 0.01390142, 0.29683480, -0.29284593, 0.01801584, -0.05486219, -0.16725825, 0.16183971, 0.35243180, 0.34982851, -0.03950206, -0.15611337, 0.09356865, 0.05139840, -0.27565879
-0.24353328, 0.30879387, -0.30777800, 0.14269295, -0.14670810, -0.18086292, -0.00024455, 0.32870051, -0.19371228, -0.10148058, -0.08041961, -0.04384301, 0.08309251, -0.21403952, -0.00701566, 0.00307534, -0.18140605, 0.21706516, -0.33038262, -0.16304065, -0.01669591, -0.37171125, -0.30698872, -0.13097009, -0.16257618, 0.13340254, -0.03113829, 0.03233221, -0.12102541, 0.07157978, 0.18680564, -0.29653549, 0.34920266, 0.22151038, 0.11112947, -0.06059791, 0.12352458, 0.07480098, 0.16518135, -0.20998541, 0.09878132, 0.11733059, -0.04914848, 0.20994718, -0.19074239, -0.06303221, 0.02405518, 0.15209430, -0.04686041, 0.34068635, 0.15189520, 0.31312510, -0.48081630, -0.13144600, 0.04436259, -0.35445520, 0.23307972, 0.22439794, 0.28281456, -0.22397733, -0.04154782, 0.19587167, -0.03275047, -0.29842696
-0.29318514, 0.60578382, -0.27033433, 0.60555226, -0.24650997, 0.03239846, -0.19877599, -0.04789118, -0.49184829, -0.12842302, 0.06303951, 0.01510443, 0.23899977, -0.08606768, -0.23325934, 0.53142381, -0.09147293, 0.28392503, -0.05114939, -0.09093902, 0.11445367, -0.37075657, -0.31770030, -0.18078166, -0.18517525, -0.04630091, -0.13883202, -0.17353366, 0.01436796, 0.08677907, 0.34643587, -0.47332269, 0.42367324, 0.35092577, 0.14599411, -0.07753421, 0.03973837, 0.12824622, 0.16998188, 0.08494585, -0.35606092, 0.32578596, 0.03593973, 0.24430542, -0.39634967, 0.00972703, -0.16838762, 0.45516327, -0.41726810, 0.21373811, 0.27295965, 0.36155501, -0.46422642, -0.22980560, -0.37426293, -0.45210662, 0.04872781, 0.38531002, 0.62638134, 0.00140867, 0.00782164, 0.46732789, 0.05534106, -0.25574085
-0.11667945, 0.65199941, -0.26789534, 0.63121551, -0.29311764, -0.06093900, -0.32322669, -0.05681987, -0.32958198, -0.13533759, -0.19100580, 0.25893226, 0.27543306, -0.21866381, -0.58958787, 0.28663436, -0.38783285, 0.25568452, -0.19494975, -0.20451413, 0.16936493, -0.49728000, -0.31393170, -0.14734003, -0.18248019, 0.23889126, 0.07895187, -0.26049960, -0.20822619, 0.26238483, 0.21870559, -0.34918797, 0.33018950, 0.59124213, 0.08210003, 0.07330178, 0.56734902, 0.34201434, 0.31371635, -0.22947614, -0.12334093, 0.22248375, 0.19087991, 0.09618138, -0.55146140, 0.27595130, -0.11322009, 0.54547936, -0.35631773, 0.27865401, 0.26192680, 0.42291161, -0.57274348, -0.23904712, -0.25119555, -0.06471570, 0.15690166, 0.50270694, 0.26301849, -0.11631887, -0.17656404, 0.64190191, -0.04928103, -0.22435783
-0.24375533, 0.03895306, -0.48363349, 0.16906375, -0.14346406, -0.36673656, -0.33674392, -0.01036393, 0.13602127, 0.14466995, -0.17178243, 0.26430631, -0.15255353, -0.18521237, 0.07488549, 0.64784157, 0.25704262, 0.19386885, -0.33631179, -0.05535320, -0.13622387, 0.12411199, -0.35368976, -0.54233205, -0.24403769, -0.00876428, 0.10073825, 0.42047465, 0.09762165, 0.02485136, -0.15979517, 0.09511488, -0.08981345, -0.06632459, -0.32909745, 0.23579547, 0.74325418, -0.15559731, 0.45495901, -0.06441377, -0.00054457, -0.02184981, 0.21088630, -0.10531190, -0.22824393, 0.35229564, -0.26866400, -0.00416757, -0.09129617, -0.08102669, -0.25927749, -0.10183753, 0.06798475, 0.26212841, 0.08338884, -0.22091347, 0.56837940, -0.15867156, 0.16425596, -0.04877399, -0.25328454, 0.58855814, 0.58081412, -0.58277965
-0.74954218, 0.08793406, -0.47065336, -0.19638233, -0.18481046, 0.27642334, -0.03809936, -0.06893642, -0.01815052, 0.00255155, -0.03956441, 0.20602760, 0.88121569, -0.16972116, -0.28720030, 0.19954814, 0.06427365, 0.63174200, -0.25519818, 0.56678605, 0.04033063, -0.12590177, -0.34945464, -0.35780710, -0.26865369, 0.10296159, -0.08675442, 0.39012620, 0.08041526, 0.47723240, -0.28265190, 0.01886653, 0.29585978, 0.50689745, -0.66478938, 0.21534517, 0.85276508, 0.42917973, 0.45856753, 0.32138729, -0.47003603, 0.19562182, 0.02395110, 0.03121055, -0.96281523, 0.20318581, -0.26000151, 0.92137855, -0.72064185, -0.15824147, -0.18646774, 0.64763385, -0.18242021, -0.37876213, -0.00316222, 0.03581026, 0.27894861, -0.11177765, 0.67330968, -0.29686195, -0.26713488, 0.01363598, 0.45454767, 0.11797824
-0.73974144, 0.38308120, -0.59459072, 0.26383609, -0.21146564, 0.11467040, -0.41992918, 0.02413081, -0.38613665, -0.75140411, -0.06415509, 0.65726048, 0.47060314, -0.62071228, -0.09282421, 0.51581740, -0.36110693, 0.62546694, -0.75412399, 0.01287601, -0.26426244, -0.13759884, -0.57940626, -0.41958728, -0.50632960, 0.24446510, -0.15082569, 0.18504396, -0.10606896, 0.13499849, 0.50113362, -0.57858622, 0.43857685, 0.53096968, 0.21286896, -0.18159297, 0.44837061, 0.29927239, 0.06086494, -0.02590206, -0.13485949, 0.50965768, 0.52644742, 0.71715719, -0.86416584, 0.14842480, -0.60081339, 0.62633312, -0.65700203, 0.48480636, 0.43662095, 0.54897398, -0.59602630, -0.66091532, -0.30259639, -0.70881230, 0.73303765, 0.56891197, 0.26011482, -0.16770467, 0.55286008, 0.57848376, -0.03332053, -0.17805576
-0.56224275, 0.70588517, -0.61984581, 0.36499014, -0.05424504, -0.01669891, -0.63233793, 0.06901228, -0.55052036, -0.62584335, -0.24323076, 0.65173930, 0.40808147, -0.60996741, -0.26204637, 0.31269971, -0.32386553, 0.59643543, -0.54352427, 0.00285550, -0.12114263, -0.07971069, -0.42424452, -0.52291816, -0.52022266, -0.05039539, -0.05230140, 0.00263087, -0.07107115, 0.14132670, 0.68876296, -0.51882273, 0.46655038, 0.52531421, 0.33770517, 0.08593732, 0.10089326, 0.31805748, 0.02102563, -0.23756444, -0.13082568, 0.62472302, 0.38092029, 0.53120786, -0.58859211, 0.51831681, -0.28023255, 0.27638480, -0.68022954, 0.75938952, 0.42700198, 0.45780075, -0.70003921, -0.31869200, -0.36341882, -0.48223323, 0.65080780, 0.64184797, 0.27431479, -0.24001406, 0.46398738, 0.70158803, -0.27811009, -0.31511968
-0.44289181, 0.51941621, -0.41389799, 0.11399440, -0.21427023, -0.01740831, -0.21966401, -0.04951310, -0.38222930, -0.27993917, -0.11989965, 0.27838075, 0.26879558, -0.25931686, -0.03429624, -0.00272804, 0.12019672, 0.30783257, -0.27764729, 0.12822996, -0.19273426, 0.08080821, -0.29083478, -0.48655686, -0.29770562, 0.11630136, -0.13898630, 0.11331823, 0.02857789, 0.26851290, 0.39032313, -0.26987821, 0.26238698, 0.35293013, -0.07908887, 0.11934435, 0.14244150, 0.14982095, 0.11900896, -0.28271511, -0.31204724, 0.40563825, 0.23403217, 0.25698966, -0.23930348, 0.23923032, -0.10905219, 0.37344393, -0.28160489, 0.52825344, 0.04897894, 0.29824013, -0.31062102, -0.02291469, -0.04037056, -0.18273047, 0.05848368, 0.51057696, 0.25099710, -0.27202922, -0.08877768, 0.43164814, -0.02143504, -0.36576435
0.13062999, 0.08712512, -0.08940022, -0.04907229, 0.12820518, 0.12873745, 0.05803162, -0.00289385, 0.00934054, 0.06030570, 0.04301023, 0.03436367, -0.03908036, 0.09569150, -0.14928445, -0.04732681, -0.00724466, -0.09065363, 0.11250910, -0.02850879, -0.01381612, -0.12830645, 0.05840982, 0.13527417, 0.02844472, -0.10498658, -0.05913259, -0.12258144, -0.01441488, -0.02932855, -0.01601389, 0.11961240, -0.11685904, 0.10108185, -0.13516860, -0.01062691, -0.10242076, 0.12228665, -0.05669412, -0.07019176, -0.12353242, 0.00601149, 0.13994026, 0.07288782, -0.03580281, -0.01849760, -0.00921276, -0.14595623, 0.05555312, -0.01186848, 0.10044187, 0.02938139, -0.07651296, -0.05406651, -0.03735796, 0.06177197, -0.02022833, -0.04701801, 0.00945061, 0.01241617, 0.01791988, 0.13531393, -0.05593693, -0.12307582
-0.04248909, 0.11169276, 0.07052678, 0.02387096, -0.13821162, -0.09687203, -0.12736346, -0.12036784, -0.02418733, 0.09964785, -0.10524066, -0.06317236, -0.00645930, 0.00627534, 0.10698515, -0.10655871, 0.03576283, 0.01969266, -0.14629364, 0.02521889, -0.02452712, 0.15116450, 0.09928095, 0.05561391, 0.03240021, -0.09232674, -0.06008836, 0.04139613, 0.13102344, 0.09433226, -0.01381060, -0.03153252, -0.07803410, -0.07126118, 0.06654675, -0.01684111, 0.06675664, -0.08291869, -0.06571057, -0.12949194, 0.05755223, 0.06482533, -0.13988006, 0.07797340, 0.04584254, -0.14265580, 0.03777450, -0.01202005, 0.04746179, 0.12389973, -0.00981160, 0.09054820, 0.09652379, -0.11404556, 0.05492119, 0.10683513, 0.00557962, -0.00394624, -0.09134322, -0.13581668, -0.14242096, 0.07704863, 0.14324138, 0.00677660
-0.03983656, -0.14074007, 0.11022761, -0.05581079, 0.00028518, -0.12285680, 0.14006662, 0.09388177, -0.10895351, 0.05887838, -0.12578487, 0.08439633, 0.12969249, -0.04656558, -0.01857039, -0.00914899, 0.04301198, -0.13918807, 0.13059062, 0.12124923, -0.11574659, -0.07516401, -0.02930730, -0.02353659, 0.04045364, 0.06197353, -0.01847123, 0.05082358, -0.04026438, 0.02916670, 0.05719672, 0.01862393, -0.01909067, -0.01870792, -0.08072961, 0.03133883, -0.02015057, -0.07431201, 0.06902054, 0.14492968, 0.10019532, 0.03308263, -0.15156375, 0.06006214, 0.00141484, 0.06044717, -0.13773550, -0.12852147, 0.12921411, -0.03231712, 0.12151891, 0.08473663, 0.09764978, -0.12915653, 0.03462723, 0.07079078, -0.15148012, 0.14520434, -0.03711931, 0.13429359, -0.11319558, 0.05762620, 0.03065872, 0.04884143
0.11345346, 0.53031921, -0.01394279, -0.15396720, -0.25744775, -0.16410282, 0.06968153, -0.37825331, 0.28298917, -0.11422817, 0.17780988, 0.34881467, 0.28245109, 0.28131473, 0.09959339, 0.38693354, 0.23797390, 0.11614964, -0.28983736, -0.09052066, -0.47823718, -0.03046539, -0.49324182, -0.43523094, -0.03561902, 0.09006210, -0.14139938, 0.34080961, 0.24422438, 0.23092651, -0.01497813, -0.60239124, 0.41838154, 0.45799384, -0.22199713, 0.30648503, 0.21872143, 0.39268291, 0.33366454, -0.24544108, -0.26962736, -0.09188506, 0.50805604, -0.18001130, -0.66223723, 0.05136025, -0.14541012, -0.04818504, -0.19405907, -0.34718850, -0.26456076, 0.18930370, -0.20220275, 0.44025889, -0.18241529, 0.35332859, 0.27168000, -0.13808842, 0.16720816, -0.31186104, 0.30026135, 0.28684679, 0.34867695, 0.20238560
-0.08405882, 0.23620458, -0.37518254, 0.23067291, -0.31251994, 0.01726532, -0.02966218, -0.25480121, -0.03150242, -0.09237463, -0.00418925, 0.36257210, 0.06270228, -0.07462244, 0.05064966, -0.22055976, -0.16575722, 0.46152908, 0.21164724, -0.20827089, -0.18807814, 0.12473460, -0.28395385, -0.32628581, -0.52158910, 0.18015653, 0.29332662, 0.44653004, 0.11098977, 0.25107566, 0.08070692, -0.30781099, 0.41151041, 0.59343362, -0.35706913, 0.19145551, 0.21641120, 0.07505953, -0.18524018, -0.02340461, 0.16456430, 0.20505168, 0.42366749, 0.01434536, -0.12474934, -0.17438886, 0.04329722, 0.42894968, 0.13501692, 0.07330358, -0.25124282, 0.21535175, -0.34748736, 0.25467893, -0.34781229, 0.18047513, 0.38272384, 0.32954517, 0.35275006, -0.32261643, 0.05011926, -0.04513345, -0.21614422, -0.23775271
-0.24445032, -0.08727513, -0.75009704, 0.39326239, -0.18444479, 0.22516781, -0.58861482, -0.01535651, -0.16650821, -0.29355955, -0.14626019, -0.05512290, 0.09433939, -0.49672318, 0.06527908, 0.10185511, -0.04756635, 0.46914151, -0.00613414, -0.00008489, -0.20241094, 0.19614276, -0.68186176, -0.82292229, -0.58470607, 0.44893610, 0.37821078, 0.19059809, -0.05344648, 0.21204010, 0.09492472, -0.35392320, 0.12343127, 0.33328620, -0.12523402, 0.32904351, -0.32100162, 0.62240887, -0.12201512, 0.18896689, 0.04022809, 0.53962719, -0.08665940, 0.30426857, -0.18206993, -0.28752831, -0.15327106, 0.69423020, -0.22567114, 0.52370346, -0.21887991, 0.25019258, -0.64479995, 0.00501891, -0.07730242, -0.12717800, 0.49563166, 0.65328348, 0.21642476, -0.24810411, -0.16094701, 0.18807159, 0.18608041, 0.00052834
-0.36288598, -0.17902477, -0.82843864, 0.03608569, -0.68859303, 0.46434933, -0.76651555, 0.48686844, 0.21514776, -0.40330791, 0.22400033, -0.28941312, 0.56046879, -0.85952729, -0.19166079, -0.14773943, 0.24038903, 0.64569515, -0.14047614, 0.53597599, -0.01139996, 0.34538591, -0.64660382, -1.17190135, -0.58575583, 0.03990826, 0.49439853, 0.26963484, 0.05076867, 0.72122627, 0.06119528, -0.03540233, -0.24473019, 0.28280506, -0.05422540, 0.41580302, -0.16520023, 0.72989726, -0.12037044, 0.48886642, 0.00100859, 0.31746590, -0.45030794, 0.10927332, -0.29568934, 0.04578971, -0.35143310, 0.94630694, -0.66282916, 0.02487185, -0.21519765, 0.34396386, -0.68970340, 0.41006747, 0.28345743, 0.00914857, -0.46384874, 0.14756665, 0.43826360, -0.10584759, -0.81284553, -0.12156291, 0.31184617, -0.03155099
0.02752194, 0.12834747, -0.61037207, 0.00781469, -0.70866567, 0.14947148, -0.47452265, 0.25590500, 0.00021455, -0.16982307, 0.48901075, -0.43591699, 0.47203085, -0.56657994, -0.20686349, -0.23519002, -0.10741450, 0.70377642, 0.05698904, 0.66673052, 0.17467771, 0.28087339, -0.77339673, -1.26992309, -0.53629339, -0.15622136, 0.41655263, 0.07452106, 0.33638066, 0.76746845, -0.09354782, -0.12158342, -0.12774979, 0.33902451, -0.02151390, 0.10025491, -0.57999068, 0.95429164, -0.04352112, 0.11707573, -0.20910342, 0.21680690, -0.66988683, 0.33451489, -0.02651574, -0.49646357, -0.09973842, 0.40168729, -0.46757525, 0.28075641, -0.35704818, 0.49888828, -0.09253091, 0.17999536, 0.52179205, 0.16124378, -0.08540560, 0.20289300, 0.24323997, -0.16986363, -0.95025450, -0.09707177, 0.22780237, -0.49022838
0.13089278, -0.06556494, -1.20116055, 0.22680710, -1.20403159, 0.67882109, -0.46583706, -0.07060909, 0.11310493, -0.02520372, 0.29662091, -0.32734352, 0.31729218, -0.63790339, 0.08558556, 0.12937848, 0.12484729, 0.59514052, -0.22976901, 0.23619781, 0.12030676, 0.02759399, -0.95169282, -1.44441473, -0.93892342, 0.19374201, 0.34616354, 0.12961671, 0.63080943, 0.42104873, 0.18973096, -0.29583806, -0.01010647, 0.21482424, -0.29991186, -0.10978166, 0.27628058, 0.40603194, 0.04508875, -0.00329398, 0.00564136, 0.30980784, -0.59063554, 0.23812629, 0.10049237, 0.11982823, -0.27833614, 0.27634373, -0.37856525, 0.11146323, -0.41685039, 0.22785945, 0.04261661, 0.11647793, 0.22448376, -0.00104908, -0.02493326, 0.30222601, -0.13537890, -0.13100691, -1.05481756, -0.08894794, 0.39388579, -0.71388501
0.06429154, 0.05265974, -0.90857440, 0.19675139, -1.00928593, 0.50277930, -0.78905052, 0.11883505, 0.10621267, 0.07208018, -0.09266359, -0.25790635, 0.37146166, -0.20516929, -0.17937708, 0.39334679, 0.15218347, 0.44159809, 0.01585523, -0.05232047, 0.00927727, -0.20233598, -0.88895732, -0.71458274, -0.98215830, -0.05786104, 0.22508284, -0.08780962, 0.41782004, 0.17589974, 0.10000975, -0.00125680, 0.02864167, 0.24388318, -0.40161538, 0.01940497, 0.74624538, 0.41841936, -0.00320704, -0.32248497, 0.03011238, 0.31278482, -0.70308453, 0.39896199, 0.10688201, -0.52319837, -0.07076056, -0.25748014, -0.52323860, 0.07382915, 0.00922772, 0.32429147, 0.39736474, 0.12825315, 0.17551501, 0.01272362, 0.17673708, 0.23246428, -0.05481569, -0.11531921, -0.93150669, -0.03945013, 0.26879236, -0.39854124
-0.01437798, 0.11571000, -0.33173046, -0.05702239, -0.16037208, 0.39703286, -0.69810027, -0.28813380, 0.34194416, -0.28861743, -0.32529089, -0.14112820, 0.26111919, -0.06381935, -0.22410128, 0.37588531, 0.17535253, 0.37413856, -0.02949846, -0.07653940, -0.19581197, -0.55764413, -0.69620872, -0.20839690, -0.62706679, 0.08140826, 0.19350299, 0.10490024, 0.50291693, 0.08276511, 0.30254731, -0.28093344, 0.21180125, 0.34010372, -0.09544188, -0.21931534, 0.71149886, 0.02495302, -0.20775448, -0.45620316, 0.18640544, 0.09623560, -0.13852978, 0.05051490, 0.12569419, -0.26022080, -0.05345887, 0.14670497, -0.27694094, -0.01474830, -0.05593609, 0.28854179, 0.44538566, -0.01356433, 0.31399435, 0.16206013, 0.24296972, 0.20094788, -0.78220558, -0.27160016, -0.41664919, 0.01187722, 0.33675805, -0.32518649
-0.29560873, 0.19481288, 0.22371651, -0.13400742, 0.36869043, 0.30107322, -0.55452251, -0.19100931, -0.06197824, -0.18668851, -0.22321022, 0.38502684, 0.25038749, -0.24683607, -0.48608544, 0.33831769, 0.10705648, 0.48018098, 0.06760243, -0.49777451, -0.86794239, -0.12125570, -0.51072067, 0.42831016, -0.29350063, 0.09705918, -0.05929287, 0.15488692, 0.23106575, 0.08181089, -0.27973002, -0.43726432, 0.35639217, 0.59184372, -0.03176485, -0.24691755, 0.67739236, 0.02220694, -0.40240893, -0.36978224, 0.50383312, 0.35422370, 0.31573266, -0.04703811, -0.51026261, -0.16721141, -0.05483641, -0.21231733, 0.11468983, 0.17274010, -0.09154207, 0.35321978, 0.18572234, 0.10412422, -0.08281267, -0.09210910, 0.27657375, 0.23824978, -0.55213684, -0.39872742, -0.10610320, -0.08797189, 0.28641441, -0.04529494
-0.23668803, 0.42730764, 0.28443515, 0.26665172, 0.46527955, 0.14279819, -0.51090664, -0.68131739, 0.01617954, -0.05630607, -0.27468002, 0.41242263, 0.13944396, -0.09908064, -0.44072571, 0.08577821, -0.37006298, 0.28011340, 0.21179280, -0.40520856, -0.20762081, 0.09325501, -0.45290604, 0.11732021, -0.46916988, -0.11057378, 0.05663244, -0.11116674, -0.06980699, 0.16077839, 0.31989452, -0.16424662, 0.55278695, 0.41841134, 0.15584064, -0.03438057, 0.47539327, -0.00262520, -0.48616946, -0.05371369, 0.44134447, 0.24962419, 0.45057920, 0.23147774, -0.50603026, -0.06429357, 0.07343562, 0.27362132, -0.01508509, 0.25863487, -0.05712693, 0.34465921, -0.06124277, 0.04748062, -0.33892328, 0.14801399, 0.35695073, 0.28428715, -0.48152426, -0.25717214, 0.14041038, 0.21585394, -0.16477633, 0.10266959
-0.36549255, 0.62421978, 0.29995483, 0.23207974, 0.50248027, -0.17091011, 0.00764602, -0.28791782, -0.25472122, -0.01862088, -0.31964120, 0.42976561, 0.52452761, -0.36823574, 0.10851273, 0.01548717, -0.10421517, 0.32348126, 0.21703742, -0.03327421, 0.25600302, -0.13192149, -0.36779937, 0.19662067, -0.01133677, 0.15898687, 0.19401932, 0.07811987, -0.23053159, -0.01497930, 0.10658753, 0.08384594, 0.49385995, 0.43742245, 0.20478927, -0.10595821, -0.11020683, 0.18406831, -0.13605954, -0.18960784, 0.24884810, 0.62702042, 0.25753942, 0.40370342, -0.66670477, 0.37095672, -0.17698605, 0.52232224, -0.21662450, 0.55429012, 0.28249714, 0.55250996, -0.62868255, -0.18213846, -0.10425978, -0.42295238, 0.25161141, 0.71243984, -0.14412013, 0.36538813, 0.15423825, 0.68302643, -0.66744626, 0.07541387
-0.13917387, 0.24013808, -0.19731826, -0.21350184, -0.29625142, 0.08130848, 0.06949675, -0.11471713, -0.12140517, 0.20084269, 0.16389678, -0.06750990, 0.08049966, -0.35143471, 0.28267446, -0.30326068, 0.08222011, 0.03672954, 0.30164406, 0.17494665, 0.03734178, 0.58279020, -0.60096467, -0.06876276, -0.13147789, 0.21039687, 0.14142749, -0.01823083, 0.15370820, 0.39547119, 0.19118418, 0.11923458, 0.01148053, 0.37041232, 0.32125235, 0.03199673, 0.07868169, 0.14546645, 0.13850395, 0.26287770, 0.04575979, -0.11879978, 0.05482464, -0.13936065, -0.35384771, 0.01045352, -0.01563012, 0.35479632, -0.01122537, -0.03968313, 0.03259008, 0.05931840, -0.91593558, -0.12699820, 0.00086421, 0.19215697, -0.00309385, -0.09315745, -0.18972196, -0.07056683, -0.11353238, 0.13274218, -0.05512188, 0.12340140
-0.20971705, 0.34865969, -0.06657022, 0.00653821, -0.00428033, 0.22249551, -0.23670949, 0.02386990, -0.03440538, 0.08534207, 0.31232184, 0.39808705, 0.15633835, -0.20501083, -0.27543113, -0.39706594, -0.37741056, 0.01175853, 0.26640424, 0.00625319, 0.10209402, 0.12894917, 0.02742983, -0.50107294, -0.42062688, 0.05395369, 0.20148641, -0.21702693, -0.16512772, 0.18252997, 0.08687051, -0.13433407, 0.43968937, 0.29892087, 0.25416863, 0.05012685, 0.11917236, -0.06459932, -0.19094916, -0.02583133, 0.18399958, 0.17506537, 0.08850533, -0.02043245, -0.35219827, -0.14775921, 0.52040380, -0.08239424, 0.15000503, 0.03324394, 0.06026785, 0.20612843, -0.24866794, -0.15625666, 0.01312754, 0.27454418, -0.39753851, 0.12836613, 0.08102117, -0.13184664, -0.09728210, 0.24831820, 0.08651549, -0.12741159
0.05741267, -0.14603078, 0.11202499, -0.03187416, -0.01863650, -0.08160648, 0.02003079, 0.09385493, 0.07305565, -0.00595618, 0.04380452, 0.08672906, -0.08261333, 0.00981636, -0.09876519, 0.11845779, -0.15721023, 0.00689490, -0.07528772, -0.12786396, 0.02044959, 0.10113388, -0.02281100, 0.06931656, -0.08266039, 0.08543205, -0.10334744, 0.10166498, -0.02429387, 0.03295923, 0.13541889, 0.06669629, -0.11780003, -0.07755749, 0.12534617, 0.11680321, 0.01812135, -0.00238318, 0.11880304, 0.01531222, -0.04452214, 0.03529784, 0.08393855, -0.11567976, 0.01955315, -0.13143831, 0.04525625, 0.01713142, -0.05514232, 0.06031898, -0.09304231, -0.01221601, -0.10844354, -0.06839763, -0.14327882, -0.03400953, -0.00907810, 0.12265939, 0.12270889, -0.08258833, -0.06655120, 0.02705825, -0.00487249, 0.09670807
0.19088000, -0.14590921, 0.15718943, -0.35005546, -0.33806321, 0.08518680, 0.19630788, -0.47814608, 0.37542841, 0.11611950, 0.54788136, 0.34909511, -0.14426288, -0.02498957, 0.00767023, 0.06706046, 0.05328833, 0.14793995, 0.10108201, 0.24070404, -0.58046573, 0.21151952, 0.23479567, -0.31676176, -0.36132404, 0.47842768, 0.22984141, 0.44222653, 0.42716730, 0.16773899, 0.02772099, -0.03614235, -0.07949131, -0.21843797, -0.27017111, -0.03744442, -0.12789053, 0.14737883, 0.05776720, 0.02746310, 0.14163020, -0.18012074, 0.22492979, -0.07274599, -0.07477722, 0.08758769, -0.07849908, -0.10258462, 0.08793587, -0.23076557, -0.17714296, -0.41094598, 0.38899460, 0.24443670, -0.05301778, -0.04227228, 0.45254141, -0.17985302, 0.13421193, -0.22175127, -0.21730344, -0.27247274, 0.38952646, 0.03456017
0.14935583, -0.80245680, -0.32604387, -0.00821635, 0.06699999, 0.09759062, 0.12319868, -0.33555970, -0.31050211, -0.42728046, -0.18958156, -0.01521399, -0.33563668, -0.09854937, 0.01080475, -0.16545297, 0.07280004, 0.49293789, -0.27961820, 0.46972483, -0.43222618, 0.85407871, -0.41286045, -0.43034798, 0.44042215, 0.27406669, -0.22384977, 0.21766753, 0.26703015, -0.24460372, 0.39314589, -0.36371759, -0.37618729, -0.27869922, 0.28660950, 0.12156137, -0.08914245, 0.08865526, 0.04560305, 0.36050320, 0.20811680, 0.13800514, 0.30821264, 0.29897436, 0.08749559, -0.28012329, -0.26358676, 0.12055642, -0.35922539, 0.19398125, 0.15270837, -0.05858359, 0.50801891, -0.16658968, -0.03371948, 0.33011401, 0.47244018, 0.31038806, 0.11000110, 0.41053522, -0.12121326, -0.65186697, -0.15195385, -0.17706607
0.01998795, -0.34693635, -0.32245982, -0.04008798, -0.03065515, 0.23000558, 0.43536136, -0.19941168, -0.22809033, -0.15912917, 0.20446029, -0.08553246, -0.14784439, 0.03161862, 0.10339293, -0.35643867, 0.00865645, 0.35449925, -0.21288569, 0.34289673, -0.04958732, 0.32032833, -0.32497421, -0.56280720, 0.11149848, 0.21743044, -0.08554097, 0.11328003, 0.17227390, -0.23737960, 0.13323760, 0.23788732, -0.05462408, -0.11135381, 0.05309148, 0.39530239, -0.17473143, 0.01808006, -0.05439007, 0.28735191, 0.25371969, 0.33145738, -0.01397807, 0.44282019, 0.22549282, -0.70556068, -0.51841021, -0.12897506, -0.55892873, 0.27171889, 0.22069784, -0.05756968, 0.27124652, 0.11918245, -0.18657997, 0.38143346, -0.11148217, 0.00382459, -0.02847108, 0.23008552, -0.54725963, -0.57645267, 0.01781382, -0.02395217
-0.00676795, -0.19671518, -0.60839409, 0.40249801, -0.35170707, 0.50330073, 0.28087878, 0.09519650, -0.24457836, -0.42652810, 0.29250163, -0.54072827, -0.11880054, 0.11906267, -0.01141912, -0.29795042, 0.05526163, 0.15484248, -0.02631391, 0.30256209, 0.43294910, 0.04849294, -0.43793523, -0.57771736, 0.19905381, -0.05221544, 0.11784076, 0.05052923, -0.02536815, -0.06681214, 0.25647941, 0.21879418, -0.25033188, 0.06430111, -0.24098086, 0.08906608, 0.04546417, 0.08499703, 0.15247796, 0.04487378, 0.32215506, 0.31131637, -0.27904969, 0.22856441, 0.22815181, -0.40558088, -0.38167614, -0.05849033, -0.57435089, 0.06570042, 0.19641663, 0.15800877, 0.30172613, -0.02711128, -0.35964128, 0.28657329, -0.11242009, -0.09330700, 0.18331741, -0.02163896, -0.54520261, -0.38136971, 0.09524738, 0.05465496
0.02000615, 0.17715234, -0.12439384, 0.32816464, -0.26351365, 0.37363479, 0.37875158, -0.36091828, 0.38940179, 0.13080460, 0.41826409, -0.26747966, 0.06062145, -0.03099292, 0.32315710, 0.00671895, -0.14400160, 0.00747171, 0.31655508, 0.38150272, 0.24164268, 0.14584516, -0.59071326, -0.40856490, -0.05421320, 0.11532321, 0.39081296, 0.04345242, 0.29800344, 0.06975609, 0.06540816, 0.18118529, -0.13212857, 0.08241657, -0.23970212, 0.70708519, -0.08743033, 0.03426948, -0.23147091, 0.09024306, -0.03499998, 0.20545265, -0.42070696, 0.09671398, 0.28227231, -0.18683283, 0.02326195, -0.17683414, -0.08897570, 0.07043933, -0.14504054, -0.12479118, 0.47593635, 0.20744471, -0.13448420, -0.02484237, -0.08646281, -0.05258518, 0.27096170, 0.02676645, -0.74825150, -0.27700263, 0.28090364, 0.08373085
0.18781878, -0.07599174, 0.03484253, 0.10137417, 0.16692981, 0.80800736, 0.21245535, -0.62875015, 0.10826638, 0.24189390, 0.18800372, -0.14524819, 0.05716155, 0.00053171, 0.38903490, 0.06809864, 0.20502119, -0.03014792, 0.07882435, 0.06639978, 0.24704976, 0.10878409, -0.53905320, -0.31997511, -0.12871242, 0.15509801, 0.27906069, -0.03645693, 0.19368050, -0.21976124, -0.00121995, -0.09861162, -0.10752296, -0.05365132, -0.31598055, 0.26036507, 0.13703014, 0.03637661, 0.10835129, -0.23929511, 0.07180871, 0.13089082, -0.59132415, 0.16199343, 0.31374672, -0.08889154, 0.09620392, -0.52675217, -0.06598910, 0.28980345, 0.14247650, -0.11276551, -0.19236134, 0.21030429, 0.19186722, -0.03840215, 0.00412708, 0.17007113, 0.43741003, 0.18676907, -0.43609092, -0.26340100, 0.16443291, 0.05223122
-0.07037289, 0.06348652, -0.20205320, 0.27549371, -0.23954223, 0.85907173, 0.00000592, -0.14951326, 0.14409637, 0.39495525, 0.10280094, -0.13702394, 0.25712615, 0.00350188, 0.09926884, 0.34093350, 0.16652986, 0.07168612, -0.18435866, -0.07560749, -0.18743704, -0.21163149, -0.70521611, -0.40444210, -0.26789573, 0.12703870, 0.33697370, 0.07555141, 0.36849877, -0.09075042, -0.20943150, -0.00563899, 0.05093298, -0.04521751, -0.02538163, 0.23127615, 0.13949130, 0.10384572, 0.01780767, -0.11310018, 0.13057218, 0.13976669, -0.60447872, 0.18492959, 0.25190043, -0.21751522, -0.04577636, -0.44264391, 0.00127272, 0.22105075, 0.14135908, -0.02953448, -0.30029842, 0.31769577, 0.06577583, 0.01331044, 0.13120484, 0.08710974, 0.15506886, 0.07294546, -0.19412059, -0.10820121, 0.12982777, -0.08562487
0.08613185, -0.15116578, 0.19358882, -0.04126264, -0.24553920, 0.52630347, -0.30668131, -0.07143500, 0.22913893, 0.44560218, 0.08678596, 0.06171550, 0.52629775, 0.06892933, 0.06040283, 0.09727249, 0.10403256, 0.06329209, 0.24841236, -0.33660272, 0.02243912, -0.37964359, -0.20768641, -0.26512343, -0.22998446, -0.02763423, 0.27739760, 0.09804760, 0.25077221, 0.20061484, -0.36450845, -0.07417996, 0.25488976, -0.08705582, 0.32559931, 0.30660215, 0.29981256, 0.24646029, -0.08211369, -0.15413810, -0.05696682, 0.05202355, -0.68967324, 0.10404175, -0.09999901, -0.04460386, 0.04727522, -0.13906628, -0.01060711, 0.15138297, 0.01575854, 0.27700782, 0.25711104, 0.18552804, 0.36351779, -0.02127135, 0.11299846, 0.03386927, -0.58022898, -0.10680196, -0.00484405, -0.03195899, 0.12314945, 0.15303762
0.04949925, -0.03380221, -0.07935352, 0.28241909, 0.13634475, 0.35417330, -0.64293051, -0.34773153, 0.22440311, 0.29474634, -0.07082263, 0.30168474, 0.39960968, -0.17496604, -0.11482836, 0.02163525, 0.00006254, 0.00168255, 0.18151069, -0.49790567, -0.40097055, 0.08577779, -0.10544325, -0.25202364, -0.09819602, 0.01840610, 0.22303995, 0.20613770, 0.29157969, 0.25884649, -0.57719320, -0.05846556, 0.36472660, -0.00635721, 0.33921200, 0.21657141, 0.21455160, 0.33741453, -0.07419024, -0.07914816, 0.09521534, -0.13049527, -0.46376440, 0.10096979, -0.04549664, 0.09440912, 0.03587642, -0.30708647, 0.00642998, 0.09329060, 0.15241510, 0.14779651, 0.43253809, -0.05053832, 0.04836053, 0.12878057, -0.24123766, 0.30198836, -0.99320090, -0.19024788, 0.16529378, 0.16654553, 0.11520895, -0.12831822
-0.09653205, -0.03724018, 0.12455218, 0.39845017, 0.26936740, 0.00930161, -0.45090026, -0.48426703, 0.01036842, 0.26582995, 0.03093898, 0.17791195, 0.07891059, 0.14814831, 0.00014207, 0.02694325, -0.24853578, 0.17270128, 0.03224161, -0.68460047, 0.00028960, -0.00962425, 0.00720527, -0.11017739, 0.01358796, -0.20417570, 0.07210366, 0.42898038, 0.24517097, 0.34352857, -0.50276208, 0.32456738, 0.16633037, -0.03427928, -0.00662071, 0.09601854, 0.22564910, 0.06283681, -0.39108002, -0.18913044, 0.28418332, 0.25414550, -0.33226961, 0.23267387, -0.11249461, 0.21043038, 0.24156989, -0.17671511, -0.02420773, 0.18104483, -0.08730094, 0.06497269, 0.34163526, 0.02521533, -0.00141756, -0.09054409, -0.40909907, 0.29499209, -0.48448431, -0.03449170, 0.25172400, 0.10279702, -0.06328080, 0.11419112
-0.08022151, 0.33330482, 0.23636200, 0.01396929, 0.44737527, 0.01409257, 0.12415539, -0.43253976, -0.04148753, 0.04955090, -0.14834611, 0.39561746, -0.22380519, -0.08864258, 0.10298339, -0.25823808, 0.04357984, -0.00776128, -0.01475984, -0.35312590, 0.59794176, 0.13951053, 0.08600543, 0.04983662, -0.05139828, 0.02423560, -0.43521819, -0.01536558, 0.03238332, 0.19182405, -0.47624737, 0.43032700, 0.01551676, 0.00049666, 0.15404041, -0.06480205, 0.40423000, 0.05910200, -0.40363458, -0.18926874, 0.21727619, 0.37675968, -0.20718808, 0.00755289, 0.09025759, -0.08463954, 0.29365772, -0.07843342, 0.06218662, 0.26484427, 0.07277777, -0.26156950, -0.18743630, 0.12327362, -0.54427296, -0.06261946, -0.15337500, 0.06193790, -0.44765705, -0.12061960, 0.67624676, 0.25091210, 0.07085749, 0.25585917
-0.07931687, 0.51129287, 0.06322335, -0.30933666, 0.16710143, 0.08363207, 0.39735973, -0.02377163, 0.14048076, 0.44877949, -0.02229202, 0.27460605, -0.07764789, -0.39477625, 0.20562287, -0.56415004, 0.11568124, -0.28607786, 0.59484577, -0.50218582, 0.64824980, 0.33990201, 0.07045398, 0.09730957, -0.10642883, -0.03339970, 0.25623935, 0.27175575, -0.19870900, 0.10864421, -0.12769017, 0.13139437, 0.41677725, 0.15810314, 0.08127690, 0.23173185, 0.18085290, -0.19249737, -0.73848104, -0.12649539, 0.37146848, 0.62501281, -0.08826879, 0.20366125, -0.06152996, -0.04284437, 0.25297245, -0.10563007, 0.32431042, 0.32737064, -0.07020330, -0.03692092, -0.46831450, 0.32308784, -0.29155469, -0.38354617, -0.21434397, -0.01388606, 0.37905279, 0.09086644, 0.09252460, 0.58827317, -0.48998395, 0.38409895
-0.53030282, 0.18002149, -0.26215133, 0.49085447, -0.39150578, 0.26693895, -0.00444085, 0.15954563, 0.02149819, 0.00322462, 0.19974598, 0.58653927, 0.46626177, -0.16040850, 0.51070482, -0.77889365, -0.26183778, 0.48489833, 0.07798282, 0.01663972, 0.31190994, 0.49356490, -0.28869024, 0.06701337, -0.28797725, -0.64470261, 0.59205782, 0.24477178, 0.14079277, 0.30178472, -0.73301172, -0.30637971, 0.50618756, 0.69865525, 0.01380802, -0.11668517, 0.62853074, 0.21769752, 0.06600011, -0.04172922, 0.05340188, 0.25509647, 0.14472438, 0.32144582, -0.26359734, 0.10036153, -0.31112105, -0.23553279, -0.22010933, 0.05633303, -0.00473339, 0.43564665, -0.07724269, -0.07526159, 0.67404735, 0.32425135, -0.68315190, 0.34579748, 0.28410476, -0.19151115, -0.19062997, 0.64913970, -0.23153824, -0.08888864
-0.15533313, -0.37785402, -0.01162067, 0.05740067, 0.21488141, 0.30197576, -0.36448309, 0.49041322, 0.21844564, -0.41354749, 0.60300213, 0.45077068, -0.44307393, -0.29793039, 0.35966337, -0.30072349, -0.15214241, 0.63123029, -0.40094987, 0.22528166, -0.35742760, 0.39095077, -0.33604079, 0.27033553, -0.32028988, 0.39541626, 0.07770929, 0.28560966, 0.58299232, 0.30601358, -0.53898871, 0.51893151, -0.37162328, 0.41683093, 0.52703112, -0.51667714, 0.31054345, 0.31476721, 0.55457079, -0.41035324, 0.68039954, 0.14945641, -0.56207806, -0.36472431, 0.40132320, -0.23780255, 0.40490174, 0.40531120, -0.71286017, 0.34567553, -0.46902984, -0.15468174, 0.34282166, 0.33545783, -0.64372355, 0.43725845, 0.24283303, -0.51685709, -0.01739594, -0.55581278, -0.61261284, -0.30569497, 0.50380957, 0.60230482
0.31324330, -0.88363683, 0.04389949, -0.45319954, 0.41179180, 0.45750332, 0.59691578, 0.41143459, -0.13763440, -0.66001838, 0.33641562, 0.08518630, -0.15613388, 0.19305958, -0.24940006, -0.11341638, -0.36667904, 0.12991904, 0.05846658, 0.54115850, -0.65289778, -0.00991011, 0.69864684, 0.14463183, 0.13266800, -0.17567284, 0.24198799, -0.11093514, -0.08646596, 0.15055838, -0.07826796, 0.18358766, -0.30888394, 0.38578966, 0.17488147, -0.24166381, -0.45234913, 0.28919134, 0.48974016, 0.09320020, 0.18880267, -0.23007654, 0.13316384, 0.28276536, 0.40285611, -0.26567560, 0.04863008, 0.41283956, -0.59066606, -0.41059563, 0.31997108, 0.30011976, 0.43073165, -0.18621829, -0.17849082, 0.55424345, 0.30193925, -0.29921255, 0.04113142, 0.15020575, -0.55641258, -0.56037527, 0.23014836, 0.18479615
0.02299953, -0.37122777, -0.23489085, 0.16061525, 0.05729173, -0.06315006, 0.14948560, 0.29332373, -0.13845536, -0.01866890, 0.36629713, -0.31983677, -0.17414488, -0.00919559, -0.12024751, -0.08518322, -0.40475217, 0.39810109, 0.16199119, -0.02092740, -0.34705871, -0.09709359, -0.27639574, 0.03283567, 0.36001369, 0.19496368, 0.25840840, 0.04883668, -0.00581065, 0.24859045, -0.16814616, 0.16145802, -0.38231686, 0.05502179, 0.15380369, -0.15660089, -0.08687839, 0.31269115, 0.15698925, 0.17618254, 0.08156022, 0.64166933, 0.19692507, 0.30475429, 0.28842470, -0.57084453, 0.29330862, 0.59202170, -0.48141772, 0.45161781, 0.04736077, -0.06244192, 0.51316535, -0.23734076, -0.43033248, 0.07947745, 0.41019264, 0.03676595, -0.08169885, -0.12212670, -0.15436697, -0.62081558, -0.35576096, 0.42008296
0.06167931, 0.00564316, -0.21325597, 0.11630268, -0.00399354, 0.09723894, 0.15746273, 0.16413927, -0.06650333, -0.17549682, 0.21778381, -0.32833469, -0.13139531, 0.28810516, -0.08364114, -0.06806525, -0.31191459, -0.11187427, 0.12353547, 0.03413020, 0.01461677, 0.14142360, 0.08187772, 0.08163565, 0.26792344, 0.03827934, 0.13198677, 0.02138970, -0.07291627, -0.04067304, 0.00851741, 0.12375519, -0.38165143, 0.06322733, 0.00725929, 0.04617419, 0.21488664, -0.01407219, 0.16534208, -0.36687973, 0.27112404, 0.11461545, -0.01508665, 0.28835517, 0.16996896, -0.58294630, -0.14846064, 0.40227389, -0.27906269, 0.13863951, 0.02312173, -0.09467934, 0.19565384, -0.26516232, -0.36386979, 0.10454872, -0.04883654, -0.17744105, -0.10712449, -0.11008705, -0.27881294, -0.63320881, -0.24334620, 0.27009451
-0.21814540, 0.09719355, 0.19020021, 0.33979663, 0.30474523, 0.35496098, 0.23513147, -0.19300917, -0.04567183, 0.14181902, 0.20920038, -0.08658241, 0.22270840, 0.15049535, 0.31449652, -0.56589228, -0.18599150, 0.01615612, 0.13259831, 0.23546346, 0.36690244, 0.27008051, -0.11190964, 0.17759041, -0.02330191, -0.13877901, 0.06964840, -0.14750637, 0.06451983, -0.19782376, 0.09929472, -0.03434139, -0.00719498, 0.40564886, 0.03191578, 0.07200862, 0.10338096, 0.01777873, -0.02291316, -0.20284787, 0.28283930, -0.05211887, -0.48680851, 0.15936594, 0.23507434, -0.40721628, 0.02970227, 0.35616887, -0.20650052, 0.18219575, 0.05336433, 0.04406506, 0.24923386, -0.04495007, -0.24668638, -0.16528070, -0.19510995, -0.21820775, 0.08639480, -0.04089070, -0.77469331, -0.23890720, -0.06435005, 0.32455289
-0.18269005, 0.31966865, 0.13891384, 0.08036544, -0.01518475, 0.37950733, 0.14790417, -0.24059485, 0.17035528, -0.10175194, 0.18650739, -0.07625807, 0.15552437, 0.02153667, 0.39743832, 0.16916655, 0.04498494, 0.02427571, -0.15782522, 0.04197820, 0.11929353, 0.27664649, -0.01763293, 0.32373625, -0.00194930, -0.07811083, -0.02734306, -0.43023869, 0.14325687, -0.21825323, 0.03252603, 0.35698217, -0.02584819, 0.13876587, -0.17531520, -0.00294385, 0.22754267, -0.29312533, 0.30205464, -0.18131730, 0.07228147, -0.23191009, -0.40456569, -0.05225722, 0.00482491, -0.14378901, 0.21963908, 0.23058964, 0.21143347, -0.09361184, 0.08531714, 0.02071759, 0.00132760, 0.03858883, -0.22860825, -0.28470013, -0.05848933, -0.20316064, 0.54897326, 0.18582055, -0.61731112, 0.01435017, 0.08149439, 0.30946809
0.11747588, -0.04339465, 0.15667494, 0.05525575, -0.10576513, 0.48122615, 0.13198309, -0.43881634, 0.14594366, -0.00607472, 0.39225355, -0.02061354, 0.08973402, -0.07735620, 0.10447472, 0.33341569, -0.02486390, -0.03934781, 0.17915730, 0.06438407, -0.14446989, 0.49681112, 0.04605506, 0.13796113, 0.29280806, 0.06806052, 0.26339462, -0.34651238, 0.06754553, 0.05802605, 0.01800290, 0.43120524, -0.01791699, 0.10430102, -0.17695165, 0.00913601, 0.01579017, 0.05964692, 0.26253429, -0.52240551, 0.00170692, -0.32748124, -0.18561211, -0.04812057, -0.00259417, -0.12571661, 0.27200070, 0.21292180, 0.05411325, 0.17998374, 0.23020934, 0.17978027, -0.60935861, 0.03002029, -0.22671801, -0.14030011, 0.01742044, -0.09878094, 0.38043553, 0.22108375, -0.03592965, -0.17408580, 0.07738330, 0.00901686
0.19348644, -0.02566399, 0.24444796, -0.03852867, -0.42804787, 0.78760260, 0.07060931, -0.28053799, 0.14869480, 0.06528813, 0.26015168, 0.12169412, 0.15996224, -0.08167986, 0.24690582, 0.36708057, 0.11095801, 0.00778222, 0.41950291, 0.14008352, -0.71396208, 0.20915759, 0.19996202, -0.01688536, -0.01323175, 0.10594189, 0.42464113, 0.07545817, 0.17093571, 0.03600915, 0.10948599, -0.20750414, 0.23617454, -0.05040029, -0.50868130, 0.05958356, 0.16643171, 0.16333959, 0.27855006, -0.28004563, -0.17645518, -0.15603741, -0.12278430, 0.02104903, -0.00637219, -0.02435889, -0.06139584, 0.09757110, 0.05502355, 0.14611439, -0.00020918, 0.04539650, -0.73701423, 0.14829323, 0.15947893, -0.20355017, 0.24850540, 0.25639549, -0.30253255, -0.01063785, 0.18523316, 0.13427837, 0.42131576, -0.25930679
0.05502031, -0.07877480, -0.04889917, -0.18225418, -0.72422379, 0.85811704, 0.24968539, -0.31051743, 0.10775565, 0.27146000, 0.16296546, 0.04455335, 0.26784343, -0.01138966, -0.04256130, -0.01226709, -0.02457489, -0.12082909, 0.38234115, 0.24041362, -0.40317243, 0.15435790, 0.12961285, -0.03375911, -0.05340977, 0.01308969, 0.29146618, -0.03092178, 0.21000536, -0.15350457, 0.02096919, -0.29671565, 0.14974184, 0.16781791, 0.58507687, 0.10971583, 0.39272833, 0.09823869, 0.11588948, -0.16024929, 0.12304885, -0.51253903, -0.04422030, -0.00163112, 0.08912417, 0.22187786, -0.14872603, -0.10272400, 0.16300364, -0.15689933, 0.13677022, 0.05185591, 0.19557045, -0.04399130, 0.10008870, -0.02216593, 0.11478996, -0.14741564, -0.57150269, -0.01885593, -0.07158607, -0.17388341, 0.11280763, -0.12476428
0.10873985, -0.01553250, -0.01435848, -0.07568299, 0.11830371, 0.54031080, -0.48556364, -0.43793792, 0.16130239, 0.23792394, 0.29128540, 0.11033092, 0.03268821, 0.34251478, -0.26118553, -0.16796447, -0.38616791, -0.02256492, 0.23487504, 0.18957196, -0.27090499, -0.06987703, 0.18458536, 0.01965764, -0.00528983, -0.05741520, -0.02696686, 0.04718046, 0.18299320, -0.24280141, -0.32250425, -0.02696182, 0.22688669, 0.09839522, 0.51375437, 0.03325195, 0.42000374, 0.08641053, 0.09819468, -0.06961153, 0.18726034, -0.63609487, 0.32273868, 0.06854081, 0.00545987, 0.41681480, 0.01826612, -0.09188260, 0.02852936, -0.28379008, 0.06464528, 0.24341655, 0.47685239, -0.05028737, 0.15511748, 0.17294109, -0.23248222, -0.17582859, -0.79450119, 0.05991182, 0.03797378, 0.13135748, 0.07073142, 0.12547795
0.40853715, -0.15908583, 0.07405523, -0.00290460, 0.32253456, 0.25740358, -0.54515380, -0.31897938, -0.01366234, -0.02138278, -0.12672456, -0.01069459, -0.10616526, 0.10814072, -0.13798888, -0.01455397, -0.12655723, -0.11858306, 0.07366023, -0.14203842, -0.08413113, -0.07726480, 0.23901944, -0.05837294, 0.05506897, 0.10559498, -0.13256621, 0.11638100, 0.15549016, -0.04355677, -0.31120992, 0.21848343, 0.22652754, 0.14798468, 0.10228402, 0.09077447, 0.38285357, 0.09988479, -0.07004931, -0.12406098, 0.20234770, -0.61502486, 0.33044311, -0.04259427, -0.07781151, 0.40580595, -0.03746778, -0.00568133, 0.04089008, -0.08384354, 0.04555926, -0.03327528, 0.08941974, 0.03935416, -0.12553014, 0.25486937, -0.35781091, 0.07824147, -0.96636343, 0.09431588, 0.27989355, 0.27295190, 0.27253342, 0.15011738
0.25777447, 0.15909782, 0.22167504, -0.19062720, 0.10723548, -0.08864749, -0.28156966, -0.18375890, -0.01862729, 0.19191630, 0.13264276, 0.10907833, -0.04263496, 0.40268269, -0.12655741, -0.22244728, -0.08472236, -0.13448577, -0.31656903, -0.15236479, 0.42674205, -0.22952262, 0.01083321, -0.05080292, 0.02372875, -0.09206570, -0.04186224, 0.01139091, 0.21797711, 0.06261227, -0.20232417, 0.37226796, 0.20418207, 0.06582375, 0.06512617, 0.13066566, 0.30670282, 0.11975821, -0.32494220, -0.20632182, 0.06252263, -0.15493089, 0.32143375, -0.08717768, -0.11138747, 0.21618982, 0.11216744, -0.34918955, -0.04632782, -0.01601788, 0.00422192, -0.09352140, -0.32089415, -0.01046536, -0.33363846, 0.20624577, -0.34383824, 0.03775474, -0.89631724, -0.06076429, 0.56668800, 0.39381593, 0.37910017, 0.27734196
0.01863836, 0.35340786, -0.05337466, 0.39982575, 0.37914994, -0.60131639, -0.21987964, 0.20884602, 0.04764172, 0.26421702, -0.12936534, 0.17906620, -0.03948610, -0.18039025, 0.05625872, -0.47434357, 0.05825754, 0.04350884, 0.12460615, -0.52141869, 0.04673640, 0.23609431, 0.09298444, 0.07589982, 0.30686843, 0.20208608, 0.06750796, 0.15151834, -0.12042856, 0.38429207, -0.18280353, 0.33917922, 0.39336810, 0.33228508, -0.19667344, 0.45541421, 0.64864939, -0.00852531, -0.92358804, 0.06679846, 0.40307716, 0.55927229, 0.00173971, 0.23209998, -0.27921069, 0.08876900, 0.18283750, -0.29026887, 0.11108801, 0.39801392, 0.08885095, 0.11744226, -0.86975747, 0.06631467, -0.07169978, -0.06558473, 0.15108074, 0.09872535, -0.12560202, -0.12663716, -0.12948425, 0.68300760, -0.50959766, 0.18965782
-0.07496397, 0.14339386, -0.01661466, 0.43468189, 0.14059131, 0.20728774, -0.12681521, -0.02396458, -0.00035782, 0.13282794, 0.07250921, 0.04446699, -0.00722361, -0.09986755, -0.12624705, -0.43444026, 0.30945003, -0.15583456, 0.30104199, -0.29412398, 0.50480253, 0.63671583, 0.51083702, 0.40686393, 0.08886947, -0.08077593, 0.39932790, -0.01371405, 0.16794847, 0.14773570, 0.06423087, 0.15343876, -0.18544799, -0.15919249, -0.15406233, 0.35399517, 0.91493767, -0.08427657, -0.01584605, 0.42990503, 0.48564106, 0.42952821, -0.08883746, 0.08488747, -0.59662193, -0.34872064, 0.53583789, -0.53819531, 0.27283564, 0.53703445, -0.17410944, -0.31682929, -0.02405435, 0.33947569, 0.09628456, -0.08671597, -0.41548622, 0.06482173, 0.30297303, 0.17425561, -0.00275268, 0.58043498, -0.15184082, -0.04796121
-0.11545999, -0.05158323, -0.43634617, 0.05271619, 0.26961896, 0.34721458, 0.18753615, 0.53690296, -0.28231490, -0.21738873, 0.21195039, 0.26392463, -0.32537234, 0.16101137, -0.30043903, 0.16312434, 0.35294318, 0.61939496, -0.29090497, 0.65377778, -0.20642772, 0.14910854, -0.27003175, 0.16390201, -0.08188999, -0.36517075, -0.17712787, 0.13067248, -0.01676657, 0.03873817, -0.00902893, 0.31402937, -0.16154452, 0.38401604, -0.20621207, -0.49665439, 0.39322037, 0.22060148, 0.50993544, -0.15477888, -0.12769873, -0.00498097, -0.12095155, -0.61994964, 0.28270641, -0.10867060, 0.15965232, 0.33559629, -0.76603746, -0.67677194, 0.19151898, 0.74651593, 0.56851685, -0.37861213, -0.41847318, 0.73001224, 0.29516381, -0.46574959, 0.20658237, -0.56514668, -0.49372071, -0.34035861, 0.51324171, 0.19068490
0.24861132, -0.33321139, 0.22025044, 0.23677649, 0.15866600, 0.00891901, 0.56159312, -0.01241571, -0.23970748, -0.16054523, 0.42159262, -0.41598675, 0.21351959, 0.37335187, -0.07809864, 0.06927589, -0.37458003, -0.16735195, -0.10047070, 0.26737326, -0.16231313, -0.17925192, -0.05000570, 0.05080877, 0.34209463, 0.29095274, 0.17335528, -0.02014761, -0.05746744, 0.11560000, 0.14295752, -0.03451707, -0.10735071, 0.04136126, 0.07283624, -1.20127857, -0.42084813, 0.07538402, -0.14001410, -0.09487852, 0.04421607, -0.39048091, -0.41057074, 0.57557094, 0.63327879, -0.07821014, -0.16646676, 0.40369686, -0.11344965, -0.12361696, 0.23926696, 0.27260813, 0.17672276, 0.41009662, 0.08132765, 0.10394437, 0.18132326, 0.14591298, -0.15724628, -0.24364629, -0.59200323, -0.52410662, 0.08805697, 0.09501886
-0.04761951, -0.63868695, -0.24327412, 0.25567877, 0.10972260, -0.36620170, 0.42003050, 0.15490469, -0.08976562, -0.01929098, 0.29848987, -0.24786577, 0.13126484, -0.12358718, -0.22397417, -0.17278367, -0.53324449, 0.04982543, 0.11404105, -0.26778996, -0.47990653, 0.00146798, -0.04025524, 0.01842191, 0.10756706, -0.08859891, 0.04187462, 0.23274066, -0.07433876, 0.09059484, 0.02496504, 0.05627560, -0.56685239, 0.10830057, 0.11028527, 0.00554135, -0.34332231, 0.27351880, 0.08048262, -0.34499326, 0.02677011, 0.04619794, 0.08831166, 0.53558844, 0.35810709, -0.27040127, -0.14268306, 0.46646994, -0.37655851, 0.33689255, 0.22069661, 0.03400835, -0.10867216, -0.21286884, -0.27989933, 0.00139542, 0.10354637, 0.08310818, 0.16974603, 0.21162194, -0.05811003, -0.69154698, -0.09365849, 0.35418209
-0.03413217, -0.02194892, 0.01943344, 0.30045679, 0.17215450, -0.08600339, 0.07472787, 0.26180229, 0.14575775, 0.09235911, 0.06217964, -0.54005802, 0.04301957, 0.12482128, 0.27077323, 0.13147938, -0.15406792, -0.07368734, 0.02451202, -0.04266649, -0.01345933, 0.09654997, -0.04846623, 0.31032985, 0.59827989, 0.05157996, -0.02463739, 0.16815096, 0.06635654, -0.10295278, -0.30203941, 0.06997434, -0.13888943, 0.06487725, 0.04427280, 0.21134229, -0.09285825, -0.14110091, -0.14903001, -0.34144008, 0.04284836, 0.02362379, -0.21034588, 0.17876324, 0.01923544, -0.61498058, -0.38098994, 0.24665092, -0.21059021, 0.16556872, 0.22627175, 0.07126255, -0.34329575, -0.20419309, -0.35277155, 0.19998138, -0.25993732, -0.26490635, 0.17183566, 0.08012015, -0.04468454, -0.10661699, -0.19178322, 0.26481077
-0.09553576, 0.28459603, 0.04954565, 0.22115403, 0.32931432, 0.02824282, 0.19121692, 0.14367744, 0.06435199, 0.11610821, 0.08462665, -0.54877841, 0.11070511, 0.31341192, 0.14786440, -0.02989440, -0.26298627, -0.02626101, -0.18221796, 0.09202374, 0.38612571, 0.27122492, 0.08733161, 0.21739499, -0.09307793, 0.15105967, 0.22572844, 0.05549844, -0.05957599, -0.10637110, 0.03783455, 0.20530145, 0.06673361, 0.45307037, 0.24933581, 0.30250278, 0.15637098, -0.09810834, 0.20366433, -0.43388915, 0.16373104, -0.10350986, -0.46048447, 0.11856564, 0.00471190, -0.37406170, -0.29071006, 0.44615129, -0.12153459, 0.07453876, 0.08342592, 0.12297035, -0.31489080, -0.21831323, -0.23953837, 0.10499787, -0.57079202, 0.01974983, 0.33539176, 0.00623791, -0.44678795, 0.21100892, -0.12123388, 0.10830811
0.06571367, 0.15036155, -0.19175905, 0.25284830, 0.21904156, -0.11617199, 0.03438472, 0.11387628, -0.06087655, -0.15543263, 0.11246136, -0.23741199, 0.19194375, 0.03995764, -0.00486573, 0.16395211, -0.06660508, -0.06977354, -0.25134140, 0.02482894, 0.35506043, 0.48976979, 0.43890092, 0.07839882, -0.05692820, -0.04462053, 0.06838221, -0.23043552, -0.01388695, -0.10651474, 0.08029058, 0.27533600, 0.20649013, 0.14977551, -0.03800792, 0.00103335, 0.35471430, -0.06078384, -0.00851049, -0.09171226, 0.11116215, -0.34991443, -0.26187149, -0.08452580, -0.33282226, 0.04614050, -0.06864721, 0.63688797, 0.21452445, 0.02757971, 0.03367586, 0.36451367, 0.07995266, -0.08149321, 0.07581311, 0.14590234, -0.91219914, 0.00426092, 0.01486823, 0.17099041, -0.41935059, 0.20705424, -0.49190381, 0.33907634
0.31676194, -0.08617450, 0.16249414, -0.14508587, 0.38224289, -0.37354904, 0.11044946, -0.07958943, 0.19035493, -0.18489593, 0.40342647, 0.13670956, -0.04168578, -0.10185964, 0.26994956, 0.46114776, 0.06143673, -0.00479012, -0.13923335, 0.09935558, -0.16627181, 0.69785303, 0.29712853, -0.10831404, 0.18153830, 0.01044568, 0.24387248, -0.15592158, 0.13240194, 0.14878272, 0.06627616, 0.40043780, 0.29451960, -0.02529520, -0.71935409, -0.16468683, 0.37734020, -0.13433741, 0.08153177, -0.10559723, 0.31154358, -0.14617981, 0.21040703, 0.13043928, 0.05878164, 0.31242600, 0.00360797, 0.53188866, 0.23702848, 0.17485674, 0.10362354, -0.08013500, -0.43026447, 0.00724857, -0.07424439, 0.11227619, -0.14400902, 0.10584381, -0.23359182, 0.03573424, 0.34106389, -0.14516482, -0.46541643, 0.52079946
0.40090504, -0.41774541, -0.00951349, -0.33307165, -0.19639947, -0.07018188, 0.30201352, -0.05761924, 0.19113827, -0.03403841, 0.37928435, 0.27376890, -0.13899076, 0.29363379, 0.00364048, 0.44224143, 0.19526416, -0.09882858, -0.17930192, 0.39345101, -0.53400785, 0.40471721, 0.01262919, 0.11763091, 0.09908786, 0.03722943, -0.16767384, 0.07072748, 0.14989942, 0.06960671, 0.07307694, -0.10690628, -0.18850668, -0.27437833, -0.51814508, -0.00172740, -0.04913993, 0.05005534, 0.41233775, -0.08739736, -0.02295040, -0.39136198, 0.38236675, -0.07742031, 0.44934875, 0.17133558, -0.11585040, 0.16074236, 0.07810844, -0.20649223, 0.13641551, -0.17537443, -0.70739859, 0.20694502, 0.06598184, 0.21022862, 0.74546587, -0.06848227, 0.01643045, -0.24371989, 0.37939358, -0.15620956, 0.08847309, 0.09235723
-0.04769286, -0.13435000, 0.07982229, -0.10072427, -0.46862385, 0.23653229, 0.29194686, 0.09716980, 0.17625982, 0.02438116, 0.27525839, 0.17135891, -0.12896995, 0.09276895, 0.02879228, -0.30292991, -0.27480760, -0.29833475, -0.48307577, 0.41220754, 0.01038314, -0.21800345, -0.32502767, 0.34416500, -0.16009995, -0.02150144, -0.10504530, 0.06248941, 0.10468386, 0.12031768, -0.33472997, -0.22972512, 0.09327554, 0.10537701, 0.82106566, -0.09381703, -0.25320014, -0.05952348, 0.31852427, -0.12859212, 0.17383738, -0.37435892, 0.67959791, -0.40470323, 0.20040140, 0.06188549, 0.07183660, -0.04835068, 0.03849550, -0.35983458, 0.02097279, -0.02524429, 0.70279562, -0.38280630, 0.05611220, 0.18224210, 0.10462230, -0.26827228, 0.19401757, -0.29972962, -0.03023498, -0.40630066, 0.47524974, 0.14142865
0.12406792, -0.17561638, 0.14111443, 0.07490342, 0.32601094, 0.42303383, -0.00852606, 0.10759404, 0.00075648, 0.19056313, 0.11921157, -0.09557149, -0.09533551, 0.17341423, 0.09654031, -0.06916270, -0.13769095, -0.32967222, -0.20300911, 0.04164094, 0.05400550, -0.29155195, -0.16758037, 0.23411909, 0.01255076, 0.10501847, -0.03216879, 0.10807305, 0.14053127, 0.00987733, -0.26142532, 0.13349919, 0.12769276, 0.13987045, 0.63225824, -0.34587640, -0.20638354, 0.11189385, 0.32076272, -0.00822566, 0.23371857, -0.34382254, 0.50995785, -0.15136214, 0.36584824, 0.01643941, 0.12560259, -0.01872839, 0.10113765, -0.16159683, 0.08570787, -0.01070879, 0.19263016, -0.07616510, 0.12292955, 0.19078162, -0.51556844, -0.24340130, 0.34051543, 0.12762238, -0.31389433, -0.10978116, 0.30108431, 0.19404490
0.19442703, -0.15734404, 0.05966811, 0.11894310, 0.20684618, 0.21803327, -0.39079824, 0.31698492, -0.14983460, 0.29826900, -0.09891690, 0.07387029, 0.11073767, 0.15921730, -0.18647218, 0.13537630, -0.06598050, -0.29064354, -0.20302248, -0.18354778, 0.16080235, -0.25071335, 0.49050927, 0.18134375, -0.11927338, 0.08101964, -0.07279769, 0.17898114, -0.09343018, 0.04306988, -0.48241940, 0.13761824, -0.01085455, 0.16509093, 0.16732472, -0.32587025, -0.23588939, 0.19412580, -0.27915639, -0.08765573, 0.23176001, -0.11061662, 0.61430210, -0.06391673, 0.32901773, -0.09511985, 0.20046411, -0.14812268, 0.11412738, 0.01717814, 0.08672799, 0.16212654, -0.18762627, -0.05179833, -0.05685322, 0.21446656, -0.51099175, -0.00032806, -0.23058665, 0.05085279, -0.23409049, -0.03471944, 0.10959599, 0.07528710
0.24021526, -0.20552211, 0.23087554, -0.22002806, 0.36182752, 0.00377089, -0.96650076, 0.35627317, 0.06715284, 0.19795817, 0.33784172, 0.13313749, 0.02821198, 0.26254749, -0.09582102, -0.06063161, -0.08424304, -0.26307809, -0.28807691, 0.07697400, -0.03691755, -0.21435453, 0.35936645, 0.16326238, 0.19040971, 0.04603187, 0.05372286, 0.35984316, 0.28382692, 0.03190378, -0.13169454, 0.45084888, 0.11615289, -0.07371421, -0.16540809, -0.21191411, -0.18923490, 0.11121125, -0.18527478, -0.36541581, 0.32119393, -0.11833003, 0.37091035, 0.02688193, -0.10910477, 0.30695528, 0.17743674, 0.12549718, -0.17896751, -0.29036173, 0.09760014, -0.16336896, -0.54734337, 0.22876389, -0.01239961, 0.35501620, -0.52577168, -0.21773040, -0.51984656, -0.12884657, -0.01806218, 0.00054104, 0.30056000, 0.18764438
-0.08164831, 0.46275672, 0.24823126, 0.00117836, 0.23534511, -0.43170437, -0.58155113, 0.50109452, 0.31662056, 0.98055941, 0.00946257, 0.20266435, 0.03316304, 0.37498838, 0.13798042, 0.00190457, -0.46918243, -0.55864829, -0.26883867, -0.37424129, -0.03686318, -0.35945931, -0.05691745, 0.56759965, 0.59558356, -0.08143948, 0.06155882, 0.35182086, 0.12570044, 0.16572292, -0.05513167, 0.19513255, 0.82371813, 0.14977293, -0.94569910, -0.00722445, 0.01908980, -0.49775124, -0.85245574, -0.18608862, 0.44602129, 0.40095371, 0.40357518, -0.07318397, -0.80502450, 0.38286844, 0.38729337, -0.88369399, 0.63839364, -0.22678061, 0.03525582, 0.04371593, -1.18654358, 0.36245510, -0.23439525, 0.01871341, 0.20022628, 0.02073316, -0.41844356, -0.40457609, -0.37760353, 0.58722430, -0.66198421, 0.06708895
-0.05989334, -0.35036251, 0.00788351, -0.41660029, 0.20330100, 0.16402417, -0.09421165, -0.52989143, 0.12519211, 0.29524776, 0.34538373, -0.06477546, 0.06079951, 0.36111686, 0.22038224, -0.72666526, 0.29607382, 0.04173915, -0.03564218, -0.67305809, 0.07175856, 0.58208752, 0.38970324, 0.29079354, 0.63804692, -0.47978196, 0.48789334, 0.53655291, 0.45203719, -0.35981449, -0.03000242, -0.15268938, -0.13169131, 0.09047735, -0.13125598, 0.29775017, 0.68025517, -0.24691398, 0.12871079, -0.12884583, 0.58399957, 0.21951304, -0.13492656, -0.11912654, -0.59989625, 0.16838208, 0.11903406, 0.32478407, 0.25909311, -0.11177857, 0.09983001, -0.08347265, 0.13660370, 0.16889630, 0.22783178, 0.13430573, -0.25538093, -0.18837166, -0.21220668, -0.14858904, -0.28332809, 0.20686206, 0.02427516, 0.60338736
0.02568716, -0.13116671, -0.59222555, -0.20302071, 0.09095667, 0.34604344, 0.19577125, 0.66467440, -0.54752225, -0.31449220, 0.17176919, 0.18974452, -0.46732637, 0.49139863, -0.42430332, -0.00087757, -0.10271209, 0.22035745, -0.34767404, 0.06750641, 0.16985323, 0.11704805, -0.07663706, -0.24721026, -0.29572338, -0.18911663, -0.40955898, -0.04379184, 0.03209969, 0.36186555, -0.06771268, 0.37190866, 0.19748047, 0.34071273, 0.23524979, -0.41603050, 0.27139598, 0.14406250, 0.40772009, -0.10126360, 0.07744592, -0.09571210, 0.20499088, -0.20854121, 0.43413076, -0.45916894, -0.06311989, 0.27874404, -0.26788327, -0.35240573, 0.09080394, 0.30658230, 0.13133690, -0.02171943, -0.39756098, 0.48822227, 0.30766836, -0.52058142, -0.61323810, -0.40834796, 0.25817847, -0.17912528, 0.27928799, -0.21898893
0.42752588, -0.67600423, 0.03415827, 0.07403659, 0.28528464, -0.16587135, 0.34864569, 0.19578405, 0.03827007, -0.25628620, 0.40529233, -0.14359753, -0.03248117, 0.07979152, 0.16545895, -0.02864315, -0.46617484, 0.37015632, -0.31080896, 0.25535607, -0.34426433, 0.24666862, 0.03022859, 0.01552700, -0.30304655, 0.16127096, 0.14372756, 0.35874021, -0.05095064, -0.03005097, -0.42616063, -0.20406954, -0.15367150, 0.27912420, 0.55494070, -0.72925472, -0.25351062, 0.16727275, -0.21496713, -0.09054761, 0.13888115, -0.34857661, 0.09949850, -0.02623419, 0.67445606, -0.30417624, -0.16420573, 0.14270301, -0.40644056, -0.30738118, 0.09466938, 0.11938088, 0.28736761, 0.50525385, -0.24954696, 0.54363275, 0.32118532, -0.33352083, -0.14424528, -0.47807613, -0.28665879, -0.60229307, 0.10433016, 0.14616591
0.07448920, -0.54503101, -0.17842637, 0.15970902, 0.21868069, -0.36021227, 0.12904111, 0.42117125, 0.25628629, 0.14361812, 0.07494377, 0.09580650, 0.51507521, 0.01997074, 0.36748034, -0.16116206, -0.43687996, -0.03232702, 0.13990991, -0.21021058, -0.41201371, 0.15298432, -0.02102250, 0.34435979, -0.08072365, 0.06098834, -0.21887098, 0.58179438, -0.00968106, 0.06095237, -0.20987512, -0.36110666, -0.23077719, 0.06886425, 0.05096840, -0.26692873, -0.10387950, -0.05451044, -0.14126110, -0.17816396, 0.02901512, -0.14710973, -0.06632219, 0.12154552, 0.04685275, -0.10604534, -0.38277829, 0.00262812, -0.10419512, 0.03025288, 0.14283592, 0.28406540, -0.36707553, -0.18968855, 0.07166344, 0.08989753, -0.39551207, -0.09973282, 0.32535213, 0.25974336, -0.29075417, -0.66771722, -0.12256110, 0.44571298
0.08905117, 0.18575439, -0.17719102, 0.22775650, 0.26045865, -0.08118097, 0.08143096, 0.04376569, 0.15439314, 0.26316687, -0.13516441, -0.24352556, 0.31564066, 0.11825459, 0.21466461, 0.03596612, -0.03177957, -0.09466978, 0.19589350, -0.12833083, -0.04756310, 0.29828185, 0.18755361, 0.41485658, 0.18820101, -0.01168546, 0.13175720, 0.33668375, -0.22851576, -0.01736253, -0.13395569, -0.33836958, 0.16602086, 0.49858877, 0.13422678, 0.11223561, 0.02364412, -0.29811332, 0.08419775, -0.14626166, 0.04965149, -0.17045037, -0.21286073, 0.08814584, -0.08119863, 0.01362626, -0.29383886, -0.18573755, -0.20740773, -0.18643875, 0.24194168, 0.46113303, -0.54058111, -0.38184717, 0.09425697, 0.10595884, -0.50143129, -0.07882828, 0.37908763, -0.05501264, -0.48659307, -0.19648921, -0.33611506, 0.41130602
-0.00245110, 0.51382208, 0.13282529, 0.27096456, 0.23617616, -0.41368511, 0.02737979, 0.30814114, 0.02085089, 0.19222844, -0.13563666, -0.72309697, -0.01765025, 0.15558475, -0.05199903, -0.07389683, -0.17781579, -0.02860625, -0.09387372, -0.20882352, 0.12201946, 0.10125934, 0.26261842, 0.37760034, -0.04431095, 0.11477459, 0.21405385, 0.12383012, -0.11280522, -0.31150219, -0.02887861, -0.22211798, 0.09613103, 0.46284974, 0.06218450, 0.13248508, 0.10213210, -0.23931088, 0.07105760, -0.27154008, -0.01483779, 0.00582553, -0.33724263, 0.15783842, -0.06354402, 0.08721025, -0.49628958, -0.06805959, 0.04215179, -0.17725688, 0.32632989, 0.20402940, -0.21830580, -0.31498343, 0.18111320, 0.14284989, -0.70259786, 0.02487861, -0.01523744, -0.03175116, -0.48167717, 0.15309179, -0.63760614, 0.40996760
0.29724005, 0.11959051, -0.16753131, 0.25279209, 0.42504600, -0.41994387, 0.10538413, 0.58112240, -0.19456533, 0.05907185, -0.07648744, -0.47584391, -0.13640021, 0.06754664, -0.04532659, 0.16296217, -0.23834474, -0.11511988, -0.21596318, -0.21921751, 0.16358301, 0.08393941, 0.19544977, 0.13819954, 0.08554205, -0.19233175, 0.09730982, -0.05069159, -0.10433552, -0.23056127, 0.10801409, -0.14445035, 0.31645229, 0.34326306, -0.38098136, 0.18374608, 0.20536768, -0.11469188, -0.22409795, -0.11351560, 0.08138566, -0.15507230, -0.02243934, 0.09851995, -0.23100774, 0.11858902, -0.33004585, -0.66682780, 0.05445648, 0.05062635, 0.10207332, 0.26338178, -0.23068428, 0.09231126, 0.12900828, 0.37834078, 0.03874501, 0.22253805, -0.12802210, -0.14854173, 0.10453690, 0.36201170, -0.71086001, 0.45118448
0.17859317, -0.08405349, -0.25660011, -0.56967831, 0.69670933, -0.81284904, 0.19482628, 0.60688227, 0.19882956, -0.18234394, 0.22071633, 0.14222592, -0.06137184, 0.13657229, 0.37498727, 0.30559018, -0.13160750, 0.07520483, -0.57906222, -0.19867285, -0.19090299, 0.12270804, 0.01231099, -0.20991868, 0.30522665, -0.06574077, -0.05941593, -0.20435695, -0.22475909, -0.01507518, 0.21758518, 0.13184500, 0.24636388, 0.11894675, -0.70686871, 0.11947235, -0.30199674, 0.04016295, -0.55793124, 0.12998097, 0.19646159, 0.06080798, 0.25995463, -0.00904782, 0.10631990, 0.34698471, 0.12284453, -1.12453032, 0.21362562, 0.13956453, 0.03649887, 0.00745818, -0.94013965, 0.31691572, -0.06522644, 0.48913565, 0.75787288, 0.12250832, -0.02822398, -0.05437969, 0.65693283, -0.07217887, -1.11817479, 0.39422938
0.06238721, -0.50713468, -0.33065194, -0.31101710, -0.23236971, -0.79339463, 0.35570839, 0.18084851, 0.30483088, -0.37734634, -0.19496188, 0.30363408, -0.18045229, 0.29722944, 0.34911445, -0.20077443, 0.56279558, 0.17948519, -0.56858939, -0.25025463, -0.27743080, -0.18344902, -0.12225179, -0.35825953, 0.12439398, -0.08888675, -0.11355215, 0.17277814, -0.16404013, -0.05935247, 0.33162686, -0.73535788, -0.07763628, 0.05927647, 0.17448421, 0.36782336, -0.89996457, -0.28331175, 0.15929092, -0.08147234, 0.20222284, 0.18854825, 0.40252841, -0.05727982, 0.12515958, 0.25559756, -0.19213124, -0.36523443, 0.27878165, -0.13684970, 0.04876564, -0.11903424, -0.33227313, 0.40271613, -0.16088469, 0.26699975, 0.52453738, -0.16919655, 0.25422332, -0.13797693, 0.21652891, -0.51018506, -0.07005884, -0.11398514
0.02733881, 0.31114122, 0.04889788, 0.00138718, -0.20024854, -0.14856486, 0.62314647, 0.44249177, 0.21477120, -0.28269187, 0.05357494, 0.00020298, -0.32703426, 0.25098175, -0.02817739, -0.19724475, -0.40784001, -0.20712824, -0.10108938, 0.04732844, -0.03937730, -0.19649495, -0.24139273, -0.14249463, -0.19230209, -0.13332325, -0.02742256, -0.03394026, -0.26105836, 0.12519418, -0.08586753, -0.12168996, -0.10480227, -0.05340971, 0.86303669, 0.16135587, -0.48395362, -0.23813462, 0.44724956, -0.04452031, -0.06043630, 0.01133437, -0.07556650, -0.41954979, 0.04068598, -0.16687182, -0.11352639, -0.05764790, 0.34673494, -0.13019566, -0.17923823, -0.13966653, 0.52477813, 0.22006278, 0.08157365, -0.09725896, -0.47163656, -0.29423332, 0.42509684, -0.00684978, 0.06489898, -0.68915302, 0.09790390, -0.02312949
0.22546992, 0.01729175, 0.03138322, 0.04626187, 0.34290966, 0.02326075, 0.32513222, 0.74816811, 0.20439255, 0.01991380, 0.15670143, -0.18256766, 0.00075905, -0.00276587, 0.03142958, 0.03139872, -0.44625330, -0.12311708, -0.25486329, 0.34062049, 0.00973383, -0.10269175, 0.10195117, -0.28931510, -0.19379881, -0.04199160, 0.17199875, 0.07568213, 0.07495862, -0.17197345, -0.20487051, 0.33601463, 0.10325018, -0.16489226, 0.46569246, 0.02566446, -0.80256921, 0.06334217, 0.03700667, 0.12541018, -0.09293327, 0.02991102, -0.17525393, -0.05573887, 0.31235033, -0.21732405, -0.21054813, -0.22540319, 0.31912017, -0.09437013, 0.04046955, 0.12961721, -0.26166776, 0.25764281, 0.29628181, 0.12705995, -0.48012331, -0.02179736, 0.38527787, 0.21553117, -0.29443157, -0.58629936, 0.27400595, -0.16965161
0.23067875, -0.07772041, 0.14721788, 0.12516853, 0.20175004, 0.38999432, -0.53951246, 0.59701550, -0.06264141, 0.06283735, -0.10608291, -0.13953610, 0.13029835, 0.23497550, 0.09169913, 0.34681419, -0.02880428, -0.12532470, -0.49010035, -0.07528570, -0.07838228, -0.42161644, 0.42019850, 0.08537551, -0.11331558, 0.21587555, 0.14838549, 0.20940851, 0.11929760, -0.07616571, -0.20718768, 0.17312646, -0.01989371, -0.07518858, 0.05307307, -0.15104817, -1.02748239, 0.18371443, -0.38003871, 0.01528314, -0.37271780, 0.08411244, 0.01742412, 0.01445067, 0.52132183, -0.12902573, -0.37575686, 0.09399450, -0.16993573, -0.13411422, 0.23244636, 0.21483324, -0.52899194, 0.02695753, 0.21339342, 0.36318067, -0.49319616, -0.05036948, 0.24254990, 0.02965631, -0.34655142, -0.71783727, 0.00433740, -0.24888474
0.30005375, -0.00915408, -0.00951696, 0.04530358, -0.06531109, 0.17011011, -1.03964114, 0.33051887, 0.32779625, 0.03290480, 0.04384693, 0.17887944, 0.30249253, 0.37912512, 0.22821054, 0.17188510, -0.07667732, -0.16252574, -0.35014996, -0.57775211, -0.01719862, -0.11756032, 0.09928428, 0.09439538, 0.01860364, 0.17758422, -0.18862371, 0.18546519, 0.18710342, -0.03059449, -0.13144033, 0.21397331, 0.22150181, 0.16910110, -0.26865700, -0.47738677, -1.14914584, 0.05384528, -0.29642218, -0.58500367, -0.34336945, -0.09837420, 0.41116163, -0.07000542, -0.12928833, -0.13043094, -0.56919152, 0.12552048, 0.14227295, -0.34959206, 0.25898868, 0.33163041, -0.71220440, -0.07165363, -0.23459844, 0.23935670, -0.26139987, 0.05496764, -0.02578402, -0.01546630, -0.38383850, -0.51742524, -0.21326447, -0.18026036
-0.49739814, 0.40707451, -0.18546176, -0.24206318, -0.52020717, -0.54765451, -0.86543071, 0.24137457, 0.45934922, 0.43005034, 0.01621494, 0.35925180, 0.01011879, -0.05507660, 0.41554585, -0.17473897, -0.06061456, 0.04822094, -0.27585593, -0.67646480, -0.19764298, -0.91213119, -0.22900133, 0.40780658, 0.50754625, -0.03948673, -0.20095925, 0.23475070, 0.08635847, 0.29770654, -0.24732547, -0.37545866, 0.84806436, 0.54223800, -0.94509512, -0.10063189, -0.58530378, -0.07308053, 0.00104409, -0.42594475, -0.21991880, 0.08628537, 1.06878710, -0.43537083, -1.17160928, 0.44805035, -0.23510969, 0.18671399, 0.77147722, -0.16626889, -0.41697505, 0.46726888, -0.44278437, 0.30110070, -0.52255356, -0.02982337, -0.55057949, -0.26583281, 0.25073442, -0.14833465, -0.99289620, -0.33544314, -0.47916412, -0.20150028
-0.32238406, -0.17418242, -0.22416976, -0.34904498, 0.71234727, -0.20617041, -0.16793010, 0.68016744, 0.59086776, 0.07060800, -0.10146044, 0.22363216, 0.01754301, 0.14848055, 0.71245939, -0.37144494, 0.26015949, -0.06850621, -0.06048280, -0.54284084, -0.43158668, -0.09346289, 0.02354424, 0.70870417, 0.43204802, -0.14839898, -0.17630647, 0.24157077, -0.02391128, -0.02893337, -0.31762126, -0.80172682, 0.28073364, 0.63743669, 0.15880325, 0.48567060, 0.44483474, -0.30297258, 0.16337462, -0.56987900, 0.47473466, 0.06569469, 0.31771249, -0.32870194, -0.00611147, 0.42115346, 0.18668009, 0.17450486, 0.45875922, -0.45582083, -0.31132221, -0.38570192, 0.12628195, 0.52485454, -0.11152171, 0.23249614, -0.32963482, -0.60062140, -0.28713506, -0.25004408, -0.53919280, 0.04115193, -0.27477458, 0.61680722
-0.17181794, -0.24824922, -0.14434904, -0.18905480, 0.59590548, -0.10123478, 0.26341110, 0.63003951, -0.20618859, -0.18012817, 0.11243831, -0.08812827, -0.68212152, 0.47283545, -0.35606933, 0.01665155, 0.10864031, -0.06554020, -0.16760789, -0.00636588, -0.12650605, 0.22877751, 0.17342448, 0.22446056, 0.02556477, 0.01248090, -0.25392452, -0.10443044, -0.19426644, -0.22616248, -0.01706216, 0.07584148, -0.14084664, 0.24910644, 0.36393154, -0.25204849, 0.27413112, -0.28365913, 0.37679800, -0.25751629, 0.30210674, 0.00745385, -0.16083615, 0.14113216, 0.27976072, -0.20645833, 0.04552628, -0.00892270, -0.38159734, -0.22048648, 0.40472117, 0.02532381, 0.14734004, -0.29184556, -0.48738262, 0.25056666, 0.15172459, -0.22299843, -0.53810132, 0.04315060, 0.08125891, -0.14198844, -0.07241033, 0.27002445
0.10947622, -0.68297231, -0.15766238, 0.28091216, -0.07842451, -0.21380818, 0.59980977, 0.05348296, 0.34824204, 0.16655594, 0.11233412, 0.06495634, 0.40083069, 0.49075595, 0.32509655, -0.06684247, -0.18821631, 0.34954062, -0.27362663, 0.01773563, -0.41722912, 0.03213691, 0.02982671, -0.22653376, 0.24672753, -0.58035922, 0.24317560, 0.45280364, 0.18176416, -0.06581620, 0.29944819, -0.39635351, 0.05281441, 0.12093674, 0.04363366, -0.51332569, -0.28630030, 0.00897042, -0.04747839, -0.61708659, -0.02414565, -0.23458606, 0.07599331, 0.08368408, 0.03622540, 0.03269506, 0.03685305, -0.63549411, -0.01925010, -0.10949471, 0.15350832, 0.27122161, -0.05764658, 0.09421351, 0.00035783, 0.09211244, -0.14461784, -0.47360897, 0.28636870, 0.13989368, -0.27283761, -0.43620628, -0.17042489, -0.13655746
0.03548433, -0.68784076, 0.07469545, 0.64605910, -0.11450173, -0.45197058, -0.03517826, 0.22948605, 0.18515819, 0.28513885, -0.29815635, 0.29745927, 0.17366435, -0.01373291, 0.56733900, 0.03406669, -0.30997792, 0.03786882, 0.00529121, -0.40246317, -0.26611477, -0.19273397, 0.18843786, 0.39492363, -0.04026573, -0.08389930, -0.30068013, 0.26527420, -0.14851005, -0.11450546, -0.67407644, -0.25405937, 0.25856259, 0.13765635, 0.13889502, -0.48509467, -0.14720589, -0.31916437, 0.08885986, -0.43145466, -0.20156537, -0.24004851, -0.22828645, -0.03743791, -0.12863350, -0.01791460, -0.06269188, -0.98712230, 0.06243910, 0.05802269, 0.11599745, 0.08259120, -0.12589118, -0.43607935, 0.11923300, 0.22393095, 0.05464164, -0.23349911, 0.29509282, 0.18361358, -0.47728539, -0.57347959, -0.49170867, 0.05187719
0.03236092, 0.21536382, 0.24934117, 0.37354332, -0.06322519, -0.32612938, -0.01408784, 0.36272329, -0.02883309, 0.29173785, -0.22629616, -0.38306448, 0.01742170, 0.22490335, 0.09662398, 0.13106094, -0.25157943, -0.18983020, -0.01098011, 0.00125252, 0.01185036, -0.33146593, 0.04180479, 0.55426252, 0.02464537, 0.08652484, 0.03924885, -0.03749540, -0.00509631, 0.19796778, 0.00126861, -0.23583816, 0.34033158, 0.11919826, 0.05443262, 0.02506008, 0.17248482, -0.27044973, 0.13815220, 0.04084936, -0.07787703, 0.03269199, -0.10704681, -0.08072937, -0.15724476, 0.18847957, -0.07334010, -1.23298323, 0.08813577, 0.04969696, 0.11225818, 0.24965629, -0.12221724, -1.12230551, 0.19934456, 0.03495998, -0.08329731, 0.10016016, -0.05876210, 0.06936458, -0.13008331, -0.24385296, -0.39755815, -0.12966722
0.03829500, 0.38961393, 0.18680322, 0.21071877, -0.14690660, -0.08675502, 0.04739605, 0.58807731, -0.34250319, 0.06442276, -0.03959725, -0.38983470, -0.18001859, 0.13250102, -0.13055755, 0.07695827, -0.33811492, -0.02228018, 0.08539291, -0.34557441, 0.14418767, -0.20374282, -0.06584833, 0.50455809, 0.27422738, 0.06103468, -0.09065420, -0.09728572, 0.07360145, 0.11222547, -0.14416476, -0.00441844, 0.01990854, -0.00560484, -0.42168984, 0.22778648, -0.08885478, -0.10689674, -0.15396200, 0.21680729, -0.21256728, 0.22130547, 0.01911833, 0.01569750, -0.00044644, 0.21428131, -0.23019871, -1.29846835, -0.12029523, -0.07605913, 0.11485764, 0.25013661, -0.20800506, -0.48090526, 0.18565866, 0.03105501, 0.55991888, 0.35673293, 0.01647954, 0.14094014, -0.34524781, 0.17483340, -0.51977724, -0.19542138
0.03470816, 0.39424273, 0.27368960, -0.45081776, -0.17158832, -0.17762099, -0.06533133, 0.82925981, -0.09151622, 0.29397145, -0.09346051, 0.03140017, -0.03862848, 0.19883145, 0.17502020, 0.13733025, -0.51081610, -0.06303855, 0.12061455, -0.22121234, 0.09454536, -0.36295861, -0.41430098, 0.50347286, 0.26444799, -0.00395972, -0.04355763, -0.60313684, -0.14469793, 0.18608491, 0.22619456, 0.18200694, 0.26410592, 0.23649384, -0.03318832, 0.52996188, -0.17114548, -0.17573176, -0.55960423, 0.29438180, 0.04373321, 0.21578515, -0.19080083, 0.07850881, 0.16412590, 0.04366684, 0.35769302, -0.83936536, -0.07766486, 0.17578450, 0.03564237, 0.13527547, 0.03157940, -0.22830944, -0.09087328, 0.15237314, 0.80541474, 0.10217632, -0.31011751, -0.12342673, 0.36728066, 0.44257706, -0.42176080, -0.61197728
-0.00815325, -0.12408017, 0.01919908, -1.02513599, -0.07975005, -0.46454239, 0.10180302, -0.18617447, 0.42179883, 0.24321964, -0.12699531, 0.32679752, 0.10561640, -0.13470328, 0.49801636, -0.20074843, -0.10548242, 0.46055588, -0.10950688, -0.32084849, 0.16383450, -0.26001367, -0.40999758, 0.29803887, -0.00032084, 0.22194263, -0.14067197, -0.25142580, 0.06498837, 0.19955137, 0.20557164, -0.03485233, 0.10694048, 0.01825934, -0.10832372, 0.56944335, -0.44133031, 0.23177187, -0.62748569, 0.57905108, 0.08996429, 0.48078188, 0.09772424, 0.11372361, 0.23117468, 0.00347393, 0.41561061, 0.04261371, 0.24307302, 0.30037603, -0.17344925, 0.01649128, -0.11527467, 0.09184375, -0.02734080, 0.26211923, 0.45190954, 0.09326885, -0.09862109, -0.33518988, 0.57310230, 0.41706029, -0.24560921, -0.57250667
0.03829251, -0.31798795, -0.01542471, -0.30943328, -0.48504621, -0.14648831, 0.39740938, -0.50061363, 0.27213138, -0.12132411, -0.38292781, 0.31462383, -0.11937291, -0.06327289, 0.30572271, -0.67354727, 0.29737276, 0.32883072, 0.14822914, -0.09119022, -0.05832350, -0.19165985, 0.15795077, 0.03252714, 0.43871731, 0.13052867, -0.00068023, -0.15877028, 0.09083296, -0.22607830, 0.58578444, -0.56878835, -0.14744796, -0.00751065, 0.37704659, 0.39442515, -0.08503657, -0.05519504, -0.00990359, 0.01482946, 0.24291706, 0.21598738, 0.26104003, -0.07842804, -0.00687152, 0.17695186, -0.34357437, 0.27247170, 0.35812607, 0.33244848, -0.05617753, -0.15000618, 0.01006925, 0.41435733, 0.31761873, -0.08222219, -0.04137585, 0.18441208, 0.11836713, 0.02874179, 0.17578076, 0.03207321, -0.04590527, -0.01366261
0.04710791, 0.00836889, 0.15229434, -0.08333011, 0.11798345, -0.10022657, 0.50180203, 0.01122593, -0.10773565, -0.34780669, -0.27229792, 0.09521124, 0.09601422, 0.14957872, 0.20989923, -0.40134621, -0.25835466, 0.10275908, 0.41053596, 0.15758534, -0.01469112, 0.11569076, 0.11532228, -0.16881777, 0.13075994, 0.04831186, 0.09058554, -0.29698125, -0.09195158, -0.35613149, 0.46246061, 0.00239751, 0.04233982, -0.11727167, 0.44795725, 0.13434157, -0.00488668, -0.17968528, 0.23624419, -0.00340506, 0.00107188, 0.18561871, -0.15990469, 0.29959854, 0.09385070, -0.07504906, -0.18997480, 0.14759031, 0.21140590, 0.17330834, 0.19458432, -0.17645106, 0.15423110, 0.40785357, 0.32597256, -0.13503602, -0.41985214, 0.18818833, 0.28659680, 0.26400292, 0.24849734, -0.07067983, -0.09370457, 0.01573359
0.32060152, 0.14219184, 0.07609048, 0.04443575, 0.15493263, 0.10795059, 0.23123704, 0.01628536, -0.06183971, 0.16447714, -0.10806867, 0.06107151, -0.09349389, 0.26143605, 0.06661872, -0.28396219, -0.45251450, 0.13954598, 0.10890596, 0.31174922, 0.16213280, 0.08572516, 0.21031792, -0.30682725, -0.34473118, 0.07456173, -0.03384707, -0.11358960, -0.04273483, -0.21696822, 0.26589945, 0.00211625, 0.07228536, -0.13414232, -0.08141045, 0.03795748, 0.08465202, -0.10250571, -0.16271433, 0.07192570, -0.47394636, 0.20526780, -0.52346671, 0.00993788, 0.24903500, -0.02736273, -0.06212968, -0.09122119, 0.25177580, 0.07422549, 0.14318876, 0.09778235, -0.15445095, 0.09251060, 0.40861237, 0.10259570, -0.22698548, 0.05474870, -0.02698004, -0.11891939, -0.23732539, -0.01198744, -0.00790358, -0.07011724
0.13673636, 0.04649805, -0.09323380, 0.28629476, -0.15634121, 0.09805432, -0.25202227, -0.09240661, 0.01078551, 0.18393682, -0.09861750, -0.44654825, 0.24111347, 0.31144914, -0.15111972, 0.09718020, 0.08344877, -0.07146455, 0.05487186, -0.29846790, 0.32843262, 0.07590054, 0.33080178, 0.04591726, 0.50849938, 0.12468207, -0.22138330, -0.13679427, -0.04211805, -0.15272340, 0.02263297, -0.14070138, 0.22994094, -0.03735107, -0.04754632, 0.05856085, -0.15389934, -0.06918760, -0.49140123, -0.09812990, -0.52761632, 0.18733251, -0.89339942, 0.03458784, 0.01478704, -0.14234954, -0.80585611, -0.25530133, -0.12422487, -0.16273563, 0.39722580, 0.15624982, -0.02339577, -0.33564821, 0.34494752, -0.05295312, 0.00411411, -0.08766200, 0.01263647, 0.17316221, 0.51530510, 0.12190069, -0.04441732, 0.02424914
0.07765633, 0.29632762, -0.11062360, 0.40641442, -0.50002033, -0.41630349, -0.58533579, -0.10730791, -0.23547506, -0.23303697, -0.09766337, -0.75619769, 0.61100447, 0.29462713, -0.39553183, 0.27419466, -0.13120411, -0.01866752, -0.05126676, -0.60926795, 0.37909600, 0.09597073, -0.18008581, 0.09360871, 0.45458138, 0.31736076, -0.40526822, -0.43402597, -0.54129630, 0.19215034, -0.32166442, -0.27890438, 0.23565538, 0.39067602, -0.15443695, -0.13751787, -0.25109684, 0.36382645, -0.36370370, -0.10857846, -1.12873054, 0.13783629, -0.74306113, 0.19282289, -0.44452983, -0.23087022, -0.87956733, -0.11294583, -0.17322981, -0.12819536, 0.52305740, 0.62040681, -0.02144681, -0.84931946, -0.19862905, -0.09295310, 0.06638008, 0.24586836, 0.07007862, -0.02892186, -0.08186310, -0.34110928, -0.16772224, -0.39003482
-0.42690197, -0.16777088, -0.38467169, 0.17637616, -0.28851721, -0.75358409, -0.45430782, 0.25428492, 0.12049550, -0.34341851, -0.09399696, -0.63738644, 0.52781224, -0.09171412, -0.36149687, -0.00954208, 0.12039302, 0.42013282, -0.40332800, -0.24627601, 0.41476536, -0.37410381, -0.65179902, 0.10586102, 0.34469765, -0.19327834, 0.05164742, -0.52431524, -0.19110765, 0.57810569, -0.61821264, 0.01668302, 0.15482375, 0.49861374, -0.13811688, -0.16726510, -0.12580919, 0.51590943, 0.02524579, 0.01315991, -1.21989107, 0.11077014, -0.31291381, -0.04696874, -0.40214813, -0.08162131, -0.70950860, 0.35189968, -0.31171048, -0.04768400, 0.00521846, 0.43885916, 0.48569566, -0.87835771, -0.35746470, -0.32399312, -0.69434035, 0.05783467, 0.06317438, -0.22003452, -0.89990461, -0.63932443, -0.38634276, -0.01306331
-0.21298148, -0.57318068, -0.28626883, -0.19486268, 0.86288565, 0.00538022, -0.24685422, 0.77220678, 0.38439730, 0.09292169, -0.15825620, 0.25779635, 0.14486411, -0.11356670, 0.52112907, -0.31032407, 0.43467897, -0.25266650, 0.12349407, -0.05875454, -0.34322330, -0.10457736, 0.41398013, 0.53585756, 0.28610298, -0.39087427, 0.07490032, -0.10967950, 0.02483067, 0.29660043, -0.49848485, -0.24121697, -0.15212679, 0.15833201, 0.12733807, 0.62576634, -0.13823615, -0.28285158, -0.18739863, -0.03926534, -0.14011192, -0.39885777, 0.20378445, -0.63799888, -0.21684752, 0.27134910, -0.17467467, -0.13526344, 0.18049783, -0.74717486, -0.58363342, -0.08809578, 0.31640124, 0.13948432, 0.09592005, -0.33279237, -0.32376936, -0.73897368, -0.57293773, -0.14652167, -0.60747677, -0.62199658, 0.17050891, 0.44337606
0.06054849, -0.04865887, 0.10892047, -0.10521736, -0.03169685, -0.06953929, -0.28661725, 0.32147548, 0.04920918, -0.16822600, 0.26274619, 0.36950001, -0.15746057, 0.31022012, 0.27793247, -0.18237810, -0.21786115, 0.21583548, -0.14291987, 0.10999861, -0.20645089, 0.16430439, -0.01874373, 0.08608913, -0.02576485, 0.32963362, 0.05772368, -0.11069068, 0.21481311, -0.07516729, -0.07778727, -0.07217641, -0.10120744, 0.31002113, 0.24214117, -0.15002695, -0.08749633, 0.15124606, 0.04630453, -0.16496970, 0.29273051, 0.19112398, -0.15485603, -0.14583290, 0.11047046, 0.05357938, 0.04712644, 0.19981372, -0.06441633, 0.20850670, -0.04065250, -0.30887294, 0.30136290, 0.10922942, -0.23213863, 0.23713213, 0.15126055, 0.23106584, -0.38230461, -0.09808081, -0.02293008, -0.06477672, 0.03429522, -0.13994895
0.08893147, -0.38702598, 0.18306179, 0.42835325, -0.11941876, -0.05758073, 0.51518166, 0.19908600, -0.20780668, 0.03000185, -0.16714114, 0.00390220, 0.05882635, 0.26726741, -0.18253282, -0.02506585, 0.36504182, -0.13495278, 0.16538495, -0.24814253, 0.16166177, -0.03452384, 0.11142018, 0.16196735, 0.56490737, -0.31534505, -0.18564473, 0.01142225, -0.05132838, -0.04877061, 0.10597798, 0.08044761, -0.36387724, -0.39860359, -0.09467395, -0.46520054, -0.25907713, -0.00267275, -0.10611310, 0.43625402, -0.18801981, 0.12612189, -0.04280943, 0.16358206, 0.11520643, -0.38190958, 0.33247015, -0.80357790, 0.22531107, -0.11619782, 0.28741115, -0.37404037, 0.50446850, -0.16739181, 0.11641776, -0.03700098, 0.54148859, -0.36715716, 0.12991771, 0.55365741, -0.05176317, -0.11986346, 0.00052928, -0.42104647
0.16436125, -0.33196384, 0.05299837, 0.36019823, -0.27160677, -0.16934027, -0.33335844, 0.10258839, -0.02153159, 0.22140113, -0.14675730, 0.08074002, -0.05099736, -0.16632009, -0.35190079, 0.17841145, -0.38230443, 0.07045420, 0.10694813, -0.30377147, -0.01470903, -0.80055714, 0.21853241, 0.08572601, -0.40606222, -0.16056044, -0.40187001, -0.22187744, -0.29448679, 0.02348110, -0.09467477, -0.04793365, 0.25684300, 0.01448976, -0.06710687, -0.90456873, 0.20603584, 0.22156270, 0.07864111, 0.29768899, 0.21978153, -0.08057849, 0.23212083, -0.29224026, 0.02136985, 0.06887290, 0.13574326, -0.50375962, 0.03219107, 0.08145187, -0.04272052, 0.22334465, 0.48080397, 0.23844087, -0.16552204, 0.36922905, -0.20520067, -0.49709880, 0.05390340, -0.20511672, -0.42074385, -0.35967767, -0.08600593, -1.15876007
0.26498064, -0.15981093, 0.17697272, 0.49934047, -0.26149374, 0.11125702, -0.53058016, 0.20546266, -0.04025197, 0.26965231, -0.18229191, -0.39578849, -0.05500153, 0.20402540, -0.42089978, -0.06082826, -0.03303230, 0.08163263, 0.35612574, 0.14451635, 0.08365523, -0.34745702, 0.11716345, 0.30210400, -0.27033356, -0.02522229, -0.27067181, -0.15314546, 0.12104452, 0.18183281, 0.00095492, 0.27782312, 0.22122434, -0.22097461, -0.31204811, -0.72318929, 0.13008042, 0.03925328, -0.67950034, 0.28321972, -0.25315359, -0.04383948, 0.12470172, -0.12237865, 0.11650909, -0.11596292, 0.10976838, -0.23425296, 0.09634920, -0.00324185, 0.20313981, 0.15738854, 0.32895452, -0.77234054, -0.29857796, 0.11626519, 0.11233906, 0.07881580, 0.05373831, -0.09277034, -0.35403669, -0.37586334, -0.03539874, -1.15007663
0.06494000, 0.26515800, 0.36544710, 0.34914303, -0.46913311, -0.16657265, -0.24501850, 0.33605367, -0.07836290, 0.23988284, 0.05584086, -0.08902543, -0.03370823, 0.39800140, -0.06095317, -0.04546421, 0.14075346, -0.15710302, -0.08638166, -0.07473619, -0.09594747, -0.21248896, -0.00234918, 0.67190892, -0.15292659, 0.20898196, -0.24837738, -0.24847724, -0.02557821, 0.04515151, 0.10916030, 0.48237783, 0.02907021, -0.16191240, -0.00762064, -0.52349716, 0.07890161, -0.05900063, -0.62048936, 0.36584866, -0.26475015, 0.10284898, 0.09008022, -0.02981889, -0.06090156, -0.12812562, 0.10162900, 0.03035159, 0.31337354, -0.03835846, 0.12048677, -0.11373661, 0.19934078, -1.13479054, -0.15735626, -0.51807517, 0.38804570, 0.24771830, -0.09863710, 0.22109093, -0.07625206, -0.06894239, 0.07762592, -1.10115075
-0.13736248, 0.48032993, 0.21016911, -0.30219039, -0.32066980, -0.01269377, -0.04355473, 0.17316052, 0.05018390, 0.40568140, -0.10311739, -0.01123436, 0.14435396, 0.33616152, 0.01708856, -0.24685265, 0.30910021, -0.05821112, 0.32219777, -0.17523503, -0.22648504, -0.34064531, -0.18630230, 0.63120228, -0.07649231, 0.60389686, -0.01821864, -0.42121929, -0.23625121, 0.07228085, 0.33405617, 0.34465918, 0.33714232, 0.31497791, -0.14264089, -0.16989841, -0.28562188, -0.27094990, -0.12396146, 0.32793269, 0.00200256, -0.07681906, -0.18319741, 0.21031103, -0.17857595, 0.05217592, 0.29765657, 0.50373936, 0.15913993, -0.01213015, 0.13678581, 0.15507227, 0.15942638, -0.60006970, -0.26044437, -0.31286716, 0.23334934, 0.13464151, -0.38007954, 0.12215620, -0.00553940, 0.16533537, -0.09148137, -0.46499455
-0.02159270, 0.18259063, 0.23390523, -0.63186097, 0.03395204, -0.17628233, 0.04436332, -1.07361901, 0.13375290, 0.15404037, -0.21888268, 0.43373668, 0.29780254, 0.05297446, 0.36810297, -0.32441279, 0.62105685, 0.54702038, 0.19150448, -0.12122120, 0.21703409, -0.13157497, 0.01990546, 0.34202203, 0.38048753, 0.49622697, 0.15843277, 0.29293916, 0.33246237, 0.35809484, 0.26029876, -0.34933236, 0.26162547, -0.00622719, 0.17379627, 0.21012887, -0.36104664, -0.11361001, -0.03876640, 0.34406775, -0.28380355, 0.13947004, 0.10756332, 0.14424282, 0.06724597, 0.16529109, -0.04914154, 0.55763084, -0.00889393, 0.27623817, -0.10977623, 0.15762271, 0.38722974, 0.13318434, 0.13580710, -0.28923985, -0.08761928, 0.17410761, -0.33037430, -0.32212970, 0.33939025, -0.01071634, -0.01321271, -0.26088899
0.00101799, -0.42781600, 0.22823927, -0.54903454, -0.05966777, 0.13568391, 0.21891810, -0.26136401, 0.31547537, -0.00716526, -0.29565179, -0.23894325, 0.19294992, -0.11426316, 0.27052000, -0.40346798, 0.37347174, 0.35188630, 0.07277294, -0.12171400, 0.26795468, -0.13215522, 0.10457675, 0.16887890, 0.70244348, 0.38672397, -0.02477084, 0.07958949, 0.21578088, -0.20298363, 0.43993101, -0.53575969, -0.26236504, -0.08862954, 0.24481378, -0.05434013, 0.01182666, 0.06503250, -0.03105985, 0.09932060, 0.11238063, 0.43708646, 0.07255088, 0.26480651, 0.06949820, -0.04775894, -0.14120531, 0.25595999, -0.16628112, 0.31763357, 0.07644476, -0.03371431, 0.28900760, 0.28252336, 0.43835703, -0.07772976, -0.08205381, 0.34388754, -0.20298404, 0.15390356, 0.23781694, 0.22097230, -0.00147605, 0.08916309
0.18337525, 0.03853792, 0.19692020, -0.23966065, -0.01626645, -0.10310545, 0.46699706, -0.15084267, 0.03415920, 0.06617221, -0.38976347, 0.05319455, 0.21631779, 0.01293454, 0.00027718, -0.54271829, -0.04038357, -0.02908537, 0.26010537, 0.25214949, -0.00424853, -0.08002537, 0.18967827, 0.19599997, 0.11725307, 0.14218313, -0.19305974, -0.31847101, -0.21781616, -0.28341839, 0.40801075, -0.03457421, -0.22119921, -0.35051841, 0.28017855, -0.14521423, -0.11695046, -0.26627940, 0.04891395, 0.46423513, -0.01607813, 0.15553740, -0.05890349, 0.34782070, 0.19915979, 0.00483664, 0.08917087, 0.06632890, 0.32109022, 0.30176574, 0.06066641, -0.08014686, 0.28276896, 0.08134733, 0.06341366, -0.08103021, -0.15164302, 0.27853417, 0.01438956, 0.39734247, 0.02155868, -0.13495323, -0.13166487, 0.13017356
0.26992399, -0.06748546, -0.28092039, -0.00434605, -0.09975706, -0.12630026, 0.01441940, -0.43196970, -0.13070287, -0.09867626, -0.33955574, 0.20921433, 0.21431227, 0.18722700, -0.13485514, -0.57017517, -0.37276593, 0.19025761, 0.33306420, 0.27844235, 0.05231838, -0.04185778, 0.47201535, 0.14827605, 0.10018250, -0.11634981, -0.31385714, -0.51472795, -0.37445027, -0.08972710, 0.39493498, -0.13982315, 0.16323815, 0.04097558, -0.25937364, -0.19319881, -0.03083992, 0.09752177, -0.28465319, 0.23902752, -0.00978980, 0.26215804, -0.29720604, 0.07298325, 0.45108458, -0.14897420, 0.12824450, 0.07161272, -0.14506570, -0.22017999, 0.47744533, 0.21440341, 0.35517162, -0.12460653, -0.15618506, 0.30638704, 0.06699003, -0.03141534, 0.09032685, -0.02682884, -0.04368909, -0.16961406, -0.13878013, 0.04988634
0.25395456, 0.07913434, -0.19158342, 0.27226406, -0.10205736, -0.10872776, -0.45031768, -0.12261236, -0.30766329, -0.29200476, -0.04823577, -0.02888950, -0.01366747, 0.04523493, -0.28059801, 0.11969499, -0.19168381, 0.06113781, 0.23096652, -0.27055681, 0.14247100, 0.24179679, 0.26209289, -0.06575467, 0.02522692, -0.18350513, -0.23401222, -0.83800858, -0.40286288, 0.06045112, 0.34992203, -0.23599494, 0.28114745, 0.17283627, 0.01547645, 0.00174637, 0.00635267, 0.28580621, -0.41655049, -0.03114165, 0.04525691, 0.13116859, -0.36931691, 0.09364470, -0.00258008, -0.28118947, -0.06813738, 0.16427043, -0.20279028, -0.19071691, 0.19659927, 0.35285628, 0.41069266, 0.15947539, -0.28524673, 0.26732978, 0.20278113, -0.06889874, 0.15119253, -0.11805101, 0.11943677, -0.15524659, -0.26327747, -0.00107555
0.14600570, -0.01029470, -0.04861497, 0.46007463, 0.02387088, -0.20246331, -0.13517123, 0.63580281, -0.19601773, -0.50591701, -0.20339856, -1.08282638, 0.08504554, 0.07188781, -0.10496769, -0.00938950, -0.10707940, 0.26737627, 0.00339545, -0.47599602, 0.06283109, 0.02406657, -0.37437838, 0.04574241, 0.24616508, -0.16367511, -0.16904098, -0.84834033, -0.42850569, 0.23467945, -0.06704891, -0.06238762, 0.15423921, 0.41339117, 0.00372945, 0.09254537, 0.23669286, 0.04053413, -0.08752690, 0.27633661, -0.07982601, 0.24018559, -0.96731973, -0.05830422, -0.02822946, -0.59684771, -0.03463191, 0.33002073, -0.26018298, -0.09068083, 0.29829520, 0.42700639, 0.34271342, -0.06725722, -0.31724185, 0.39875880, 0.48667547, 0.02304466, 0.16399659, 0.01092748, -0.11420837, -0.61527771, -0.42900646, 0.20860858
-0.19062351, -0.21413170, -0.04101890, 0.23903760, 0.07258132, -0.47023591, -0.10085014, -0.16960670, 0.08214168, -0.16340059, 0.08871286, -1.02703166, 0.23230955, -0.00446182, -0.20499589, 0.13994643, 0.08891986, -0.03688271, 0.10543141, 0.02469295, 0.14111866, 0.10765081, -0.83491921, -0.36634687, -0.19949165, -0.87492853, 0.05024420, -0.42887118, -0.18555954, 0.72089052, -0.59147370, 0.09655228, 0.16801427, 0.53069156, -0.06054735, 0.04015104, 0.21197382, 0.01206379, 0.04624674, 0.45438847, -0.35702541, 0.06344395, -0.70588970, -0.29760978, -0.27062950, -0.14916137, 0.23314881, 0.16231467, 0.01894491, -0.32772201, -0.36448458, 0.35815519, 0.30761623, -0.16034901, -0.32790664, 0.24415047, -0.20349985, -0.41919437, -0.02643593, -0.45133153, -0.72812021, -0.60425889, -0.39045286, -0.23227021
-0.03433086, -0.32250103, -0.22208418, 0.00596752, 0.95734888, 0.48249599, -0.13797984, 0.29848680, 0.28227973, 0.43575290, 0.43988669, -0.49870133, 0.21940856, -0.45656580, -0.25891820, -0.05064878, 0.55727458, -0.44252425, 0.53985852, 0.17975831, -0.29186964, 0.08992704, 0.45087317, -0.05829359, -0.42189002, -0.27864188, -0.44873276, 0.04724190, 0.01669665, 0.57766128, -0.71972275, 0.56352073, -0.63631868, -0.60823423, 0.34131345, 0.65117598, -0.06588412, 0.10887873, 0.31564081, 0.81726146, -0.14708777, -0.15696530, -0.41907150, -0.33432668, 0.21417582, 0.31087503, 0.16406193, 0.00972836, -0.23477833, -0.34708673, -0.44521210, -0.37644649, 0.71513426, 0.01675001, 0.48344889, -0.34319291, -0.62234205, -0.25622666, -0.20177823, 0.43363237, -0.63009965, -0.70628518, 0.29790148, 0.48766860
0.33978713, -0.07212961, -0.05256230, 0.11146963, -0.05405695, 0.18831527, 0.17072041, 0.24780957, 0.16239223, -0.32472876, 0.05598756, 0.17852026, -0.08926672, 0.13259023, 0.20734908, -0.39340651, -0.40235403, 0.34682783, -0.27198350, -0.12163670, -0.16414125, 0.25545731, 0.41830152, 0.12366419, -0.10807548, 0.18193707, 0.10759623, -0.16135779, 0.15071596, -0.18347889, 0.12044018, -0.02385179, 0.03475911, -0.23188318, 0.43491310, 0.03994381, -0.42031941, 0.38647810, -0.00017703, -0.19558600, 0.13207680, 0.06890398, -0.18522190, -0.04662729, 0.20170689, -0.17660093, -0.36482710, 0.31030911, -0.18374039, 0.21655969, -0.10735305, -0.20637767, 0.46008244, 0.20087719, 0.15685044, 0.21511920, 0.07385793, 0.16784684, 0.26666707, -0.36143291, -0.08670548, -0.31589741, 0.14056356, -0.23713727
-0.03074859, -0.43998608, -0.16630474, 0.02546240, -0.10372729, 0.20051357, -0.26668999, 0.12134863, 0.37549523, 0.21815461, 0.09720408, -0.09603008, 0.12162386, -0.23296329, 0.23905154, -0.19534172, 0.12891386, 0.11937410, 0.18501863, -0.25087357, 0.13655157, 0.02794546, 0.17785436, -0.19458853, 0.06750007, 0.12872745, 0.05899546, 0.49622828, 0.24428466, 0.30142155, -0.35202825, 0.21409245, -0.03615809, -0.29649982, -0.15096740, 0.02586465, 0.21796751, 0.22326824, -0.11757773, 0.35410190, 0.19299112, 0.28853303, -0.34607947, -0.24879466, 0.00306875, 0.02260045, 0.17859721, 0.51595438, -0.17433104, 0.01699379, -0.38846284, -0.26657188, 0.61954618, -0.02835805, 0.05621002, 0.01637253, -0.29763490, -0.35888720, 0.09528013, -0.07601947, -0.02479610, -0.03703065, 0.28565878, -0.63911659
0.18562493, -0.21852094, -0.11705469, 0.01790423, -0.54830194, 0.14860870, -0.75238442, 0.02744955, 0.18925807, -0.04052788, -0.16884114, 0.05821171, -0.17879780, -0.23164506, -0.23968963, 0.11214342, 0.09976165, 0.10740802, 0.22184964, -0.06924024, -0.03546802, -0.31770074, 0.11255144, -0.58344799, -0.31202227, -1.14992940, -0.09215796, 0.04135307, -0.05819723, 0.26909062, -0.07679553, 0.06584164, -0.06721375, -0.01017418, -0.15546809, -0.55882853, -0.08121093, 0.18378115, -0.41002411, 0.27471986, 0.11227628, -0.16694619, 0.38672572, -0.21914172, -0.08696332, -0.06199791, 0.12897542, 0.49643001, -0.06942390, -0.00964098, -0.23763390, 0.24014884, 0.34894407, 0.61353189, -0.08655766, 0.19492051, -0.23138580, -0.28293210, -0.04266355, -0.03515165, -0.05018860, -0.53660363, 0.44625667, -0.99318379
0.20492724, -0.37590384, 0.31013763, 0.40172794, -0.45772219, -0.13273440, -0.43805507, -0.33337361, 0.02258961, 0.09581716, -0.18100537, -0.17717665, -0.12967846, 0.10750732, -0.23696193, -0.03782029, 0.26922277, 0.19276875, 0.36975729, 0.10384313, 0.05933649, -0.24654743, 0.23127337, -0.35288429, -0.39143196, -1.29360032, -0.29795501, -0.22340909, -0.12098847, -0.01387408, -0.58903074, 0.26689953, -0.06794921, -0.10301651, -0.48615292, -1.22448003, 0.04352664, 0.07514191, -0.71505553, 0.30096242, 0.22613612, 0.07408168, 0.24747781, 0.06318946, -0.05317039, -0.03557770, 0.08304893, 0.38661146, 0.00306588, 0.18015213, 0.25357601, 0.15249363, 0.25050375, 0.15856700, -0.12585509, 0.05055956, -0.31367481, -0.07633527, -0.09523296, 0.28337535, -0.25959986, -0.42760092, 0.00358293, -0.51712453
0.11496600, 0.02732631, 0.27666995, 0.61974138, -0.24315038, -0.14001742, -0.17811775, -0.16680107, 0.08485768, 0.03829915, 0.02328251, -0.39557248, 0.16699187, 0.37885502, -0.35458961, 0.02748716, 0.49900940, -0.03388340, 0.22989120, 0.11761650, -0.34696165, -0.26048666, -0.05495013, -0.04360642, -0.44871756, -0.95422435, -0.12045747, -0.41168258, 0.28057989, 0.07353102, 0.09558216, 0.35924292, -0.11860702, -0.02967742, -0.13416307, -1.50823283, -0.04710699, 0.04407973, -0.41425020, 0.31860873, 0.07382901, -0.00729036, -0.18610841, 0.21654639, 0.15823190, 0.13210541, 0.02379821, 0.25450000, 0.09608787, 0.06871156, 0.25744101, 0.04574024, 0.03021084, -0.49028781, 0.14690691, -0.26730338, -0.24436221, -0.05208868, -0.11745586, 0.23803522, 0.02106675, -0.16610628, -0.03103722, -0.17780153
-0.20654279, 0.23161970, 0.36311486, 0.30036092, -0.20863821, -0.23903245, 0.15561324, -0.58315891, 0.12579562, 0.19373646, -0.09971446, -0.12038997, 0.19027226, 0.09727728, -0.17999391, -0.12227071, 0.52241349, 0.21617895, 0.04712273, -0.12055860, -0.24946295, -0.21939202, -0.13729861, 0.26222238, -0.18962024, 0.20360538, 0.18866038, -0.16594656, 0.12225966, 0.43178636, 0.47994924, 0.00434336, 0.05600324, 0.12711857, -0.04198391, -1.78016496, -0.11864395, -0.07085063, 0.02836841, 0.16521972, -0.25978342, -0.21848723, -0.11741195, 0.06871842, -0.19461904, 0.46735135, 0.00661099, 0.14054427, 0.03588781, 0.09327636, -0.16080433, 0.23290895, -0.07666123, -1.04631352, 0.12482753, -0.39834389, -0.10547059, 0.26153705, -0.24193996, -0.22830875, 0.29774919, -0.22641949, -0.00405472, 0.19957303
0.05686080, -0.00435304, 0.51944286, -0.18403816, -0.00527102, -0.20632815, -0.06729007, -0.91317183, 0.31574062, -0.08879554, 0.04912665, 0.14121388, 0.03360665, -0.00924631, 0.09784359, -0.19325824, 0.37823069, 0.41553372, 0.17240858, -0.33471382, 0.51841825, -0.22271480, 0.18784881, 0.34068742, 0.25030988, 0.20484701, 0.13790570, 0.32229686, 0.16414578, -0.20894395, 0.03547155, -0.14995752, -0.25388220, -0.19681321, 0.15133053, -0.88503706, -0.49146223, -0.06979018, 0.31469873, 0.24018739, -0.21565855, 0.16582279, -0.06434605, 0.00119834, -0.08309262, 0.21425031, -0.07693754, 0.32640284, 0.10901172, -0.07864605, -0.17589483, 0.04529220, -0.01567343, -0.56220984, 0.21889210, -0.34104964, 0.01423697, 0.29495645, 0.04323011, -0.47521427, 0.28185767, 0.17354007, 0.12468541, 0.37407926
-0.31764710, -0.44304383, 0.30908141, -0.31659389, 0.15486549, 0.04229082, 0.33735177, 0.04307787, -0.06553371, -0.07785270, -0.54501778, -0.04292891, 0.17668995, -0.03828700, 0.18379270, -0.15112230, 0.21972889, 0.00632201, 0.03180050, -0.15069433, 0.14120203, 0.01347687, 0.32744482, 0.11952572, 0.38431016, -0.12422167, -0.18695639, 0.16619478, -0.13301016, -0.08365609, 0.47197843, -0.14695340, -0.05654213, -0.21493718, 0.02157798, -0.32061872, -0.12957773, -0.21535005, -0.09529871, 0.35470915, 0.13786107, 0.36017677, -0.04105880, 0.33557484, -0.04718167, -0.24108334, -0.02288288, 0.04739321, -0.10936105, 0.08804048, 0.17685278, 0.10207015, 0.31056306, -0.19313876, 0.16516615, -0.21885364, -0.00780543, 0.11797297, -0.29112914, 0.31938556, 0.09957591, 0.49294636, -0.04494086, -0.04330915
0.19515289, 0.16191801, 0.17387669, -0.31146753, 0.06875130, 0.16275172, 0.42154166, -0.00264550, -0.12735929, 0.15554555, -0.44009924, 0.21599358, 0.17415336, 0.17746292, -0.01927693, -0.18112791, 0.03355180, -0.13347057, 0.25746271, 0.19386521, 0.04640285, -0.17438698, 0.28181827, -0.02661726, -0.17715050, -0.12232007, -0.36820713, -0.05960200, -0.23159915, 0.26094061, 0.17618707, 0.17734045, 0.12023650, -0.03047654, -0.15848289, -0.27653077, 0.08040681, 0.03081326, -0.44311264, 0.65661681, 0.18337065, 0.09618531, 0.25855708, 0.31727752, 0.21767993, -0.35320783, 0.31685185, -0.06699365, 0.30821425, -0.03433489, 0.47385871, 0.00148274, 0.12696819, -0.14748573, -0.06536359, 0.21811523, 0.04471987, -0.20096764, 0.05414027, 0.45756328, -0.25099477, -0.01904257, -0.19860812, -0.04861393
0.25343671, 0.09597342, -0.32555827, 0.20596074, 0.25628248, -0.31231126, -0.13330431, 0.01942945, -0.18238372, -0.25995153, -0.22324714, 0.57528001, -0.14706998, -0.05656385, -0.14879660, 0.19960755, -0.07134753, 0.15408835, 0.55773485, -0.09364085, -0.04374978, 0.29359061, 0.19054098, -0.05335873, -0.42605048, -0.03358270, -0.29576313, -0.20672128, -0.34214255, 0.14760749, -0.17910741, 0.13697135, 0.07207415, 0.10569591, 0.15333045, 0.08255516, -0.01533479, 0.14198388, -0.28105009, 0.43221658, 0.49513617, 0.18680350, -0.25070614, 0.15608808, 0.11050352, -0.34839270, 0.39392915, 0.25658190, -0.10381228, -0.04629732, 0.24898921, 0.19456105, 0.21240981, 0.28574449, -0.62109500, 0.09568697, -0.06545283, -0.18462959, 0.39558351, 0.18778262, -0.14480156, -0.28109890, -0.38737640, 0.05557248
-0.07473583, -0.00877584, -0.09909428, 0.45208007, 0.43119100, -0.34461263, -0.27273148, 0.15285222, 0.09599655, -0.34837237, 0.24323769, -0.49074340, -0.05269602, 0.00793206, -0.07457580, 0.22274372, 0.23968922, 0.08097201, 0.19397183, -0.13913044, -0.47189668, 0.14429384, -0.04570832, -0.00017199, -0.22158422, -0.12324873, 0.14456107, -0.30315420, -0.21299365, 0.02803587, -0.19232345, 0.25482193, -0.16102220, 0.22200593, -0.30380502, -0.15696882, 0.02206350, 0.05996774, -0.16203077, 0.32565632, 0.29715100, 0.31205752, -0.51181006, -0.11689308, 0.15948160, -0.21641549, 0.22984348, 0.02712529, -0.31186351, 0.16400836, 0.01239030, 0.11686691, 0.26019508, 0.34269401, -0.32049364, 0.09009422, 0.15897150, -0.22469781, 0.23903213, 0.10675983, 0.02435242, -0.19839734, -0.34779879, 0.14852296
0.04770978, -0.24757211, -0.14456707, 0.28771466, 0.53951424, -0.36568999, -0.03931413, 0.15610258, 0.16284074, -0.15463316, 0.24964303, -1.08552957, -0.09553176, -0.02352737, 0.25219768, 0.07150993, 0.22376323, 0.06420228, -0.02327137, -0.03428108, -0.24122477, -0.00828497, -0.12332177, 0.06539012, -0.31207725, -0.05690929, 0.12081020, -0.55320221, -0.07974096, 0.29855070, -0.16904594, 0.13210821, 0.09209241, 0.17142347, -0.16904268, 0.02904622, -0.04926944, 0.09628005, -0.16960448, 0.20994237, 0.11615545, 0.34738138, -0.93069041, 0.04287581, 0.16328192, -0.28469267, 0.09373178, 0.34579164, -0.22907865, 0.00803211, -0.05861036, -0.05645658, -0.01058327, -0.17441452, -0.15687740, 0.29833853, 0.44242325, -0.10192145, 0.09290857, -0.01503443, -0.37760141, -0.12012390, -0.43272147, 0.13354659
-0.29361483, -0.13808836, -0.42710906, 0.35219818, 0.35230190, -0.36108521, -0.21181393, -0.34545612, 0.42169803, 0.00417055, 0.21090385, -0.40758866, 0.13291159, -0.04138512, 0.15155096, 0.04833955, 0.48774981, 0.38705438, 0.06004804, 0.03125873, 0.24983761, 0.14650746, -0.67582858, -0.13533559, -0.42636725, -0.78256333, -0.24055564, -0.40167663, -0.07790873, 0.43749568, -0.38420871, 0.15808818, -0.03854268, 0.27359188, 0.36825392, 0.09656314, -0.01737727, 0.13140270, 0.51631927, 0.30188563, -0.49963790, 0.12074817, -0.21425377, -0.13413367, -0.25819767, -0.58294755, -0.23655547, 0.35137811, -0.26594061, 0.03655832, -0.43014002, 0.11399165, 0.13973685, -0.41805679, 0.13887304, 0.08104979, 0.10532791, -0.24121030, -0.19155948, -0.11495370, -0.44776019, -0.78836489, -0.02180563, -0.18957885
