0.0256569981575012, -0.0997540801763535, -0.0783547386527061, 0.1080237627029419, -0.0090016424655914, -0.1265506148338318, 0.1009994447231293, -0.0778824836015701, 0.0488905459642410, 0.0625965148210526, 0.1187295615673065, -0.0791078656911850, 0.1064316928386688, 0.0406616926193237, -0.1465979218482971, -0.1239618659019470, 0.1045451462268829, -0.0657176747918129, -0.0566402226686478, 0.0989218652248383, 0.1271189451217651, 0.1286893784999847, -0.0391615256667137, -0.0162867903709412, 0.0835425108671188, -0.1467637568712234, -0.0946173369884491, -0.0740947276353836, 0.1326677501201630, -0.0858914181590080, -0.0570570603013039, 0.1247933804988861, 0.0459953099489212, 0.0225329101085663, 0.0331468135118484, 0.0984758734703064, 0.1265070736408234, -0.1228231936693192, 0.0122255086898804, 0.1178049147129059, 0.0646792501211166, -0.0893992409110069, -0.1334277540445328, -0.0774274021387100, -0.0522888004779816, 0.0790538191795349, 0.0746575295925140, 0.0252002030611038, 0.0135175287723541, -0.0408880561590195, 0.0472735017538071, 0.1476637125015259, 0.1301291882991791, 0.0638473927974701, -0.1089793741703033, -0.0910913646221161, 0.0852134525775909, 0.1200184822082520, -0.0231029391288757, 0.1061108708381653, -0.0175202786922455, -0.1133209019899368, -0.0693657696247101, 0.0031234025955200
0.1196115911006927, 0.0546747297048569, 0.1258232295513153, 0.0092377811670303, -0.0090830624103546, -0.0716144591569901, 0.0361750274896622, 0.0008423626422882, -0.1131936013698578, 0.0921591222286224, 0.0764351636171341, -0.0238935500383377, 0.1070144772529602, -0.0434983819723129, 0.1278856098651886, -0.1313089132308960, 0.0212548971176147, -0.1244952902197838, -0.0785880535840988, 0.0676327496767044, -0.0561614185571671, 0.0980999767780304, -0.0261056274175644, -0.0490855053067207, -0.0504577457904816, 0.1063821911811829, -0.0737145096063614, 0.1462727189064026, -0.1153619587421417, 0.1282137334346771, -0.0383409261703491, -0.0339752286672592, -0.1359059959650040, -0.0007542073726654, 0.1221039295196533, 0.0736731886863708, 0.0501994788646698, 0.1381767690181732, 0.0763099938631058, 0.0922151058912277, 0.1475910842418671, 0.0362194329500198, 0.0109703689813614, -0.1474930197000504, -0.0288807898759842, -0.0272863134741783, -0.0176751166582108, -0.0966941267251968, 0.0107063055038452, 0.1000753045082092, -0.0730122700333595, 0.0519519299268723, -0.0964734852313995, -0.1300849467515945, 0.0100080072879791, -0.1395721286535263, -0.0029315948486328, 0.1395414769649506, -0.0069407820701599, 0.1254121065139771, -0.1505953818559647, 0.1508431732654572, -0.0218595266342163, -0.1490667760372162
0.1069230511784554, 0.0860192626714706, 0.1052487269043922, -0.1338320225477219, 0.0750384703278542, 0.0963234677910805, -0.0615935437381268, 0.0047360286116600, -0.0784458890557289, -0.0785707682371140, -0.0405700691044331, 0.0156519636511803, 0.0293676871806383, -0.0146868666633964, -0.0318988673388958, 0.1107088103890419, 0.0636296495795250, 0.2126816511154175, -0.0381427034735680, -0.0640055537223816, 0.0867222473025322, 0.0130912093445659, -0.1097668111324310, -0.1787752062082291, -0.1254229247570038, 0.0457256287336349, -0.0771712884306908, 0.0311443358659744, 0.1203551292419434, 0.1235416680574417, 0.0179742276668549, -0.0531889609992504, 0.1483600139617920, -0.0253895875066519, -0.0919003039598465, 0.1349015235900879, 0.0805903002619743, -0.0085213622078300, 0.0348028168082237, -0.0487038604915142, -0.1361502856016159, -0.0414872430264950, -0.0219642370939255, -0.0727244764566422, -0.2291519045829773, 0.0650515481829643, 0.0650731846690178, 0.2407622784376144, -0.0163120124489069, 0.1319394260644913, -0.1049945876002312, 0.1456467211246490, -0.1678093820810318, -0.0183022022247314, -0.0453314296901226, 0.0149693368002772, -0.0117774987593293, -0.0824072882533073, 0.2201464176177979, -0.1170459240674973, 0.1046437397599220, -0.0122872721403837, 0.1344895064830780, 0.0284054968506098
-0.2029497921466827, 0.2954576015472412, -0.0985785797238350, -0.0012474054237828, -0.0875708088278770, -0.1693477332592010, -0.3012033998966217, 0.3343051671981812, 0.0627710595726967, -0.0636767148971558, -0.0834988579154015, -0.0399263948202133, 0.0758771747350693, -0.1623141914606094, 0.0076743871904910, 0.0819560214877129, 0.1538590341806412, 0.0701768249273300, -0.3353250324726105, 0.0353688038885593, -0.2186662554740906, 0.0589592084288597, -0.3135606348514557, -0.3144398629665375, 0.0520920418202877, 0.1089579463005066, -0.0727813169360161, -0.0237169470638037, -0.0256421472877264, 0.1110696643590927, 0.2136156409978867, -0.2650379836559296, 0.2258481383323669, 0.2554438412189484, -0.1170237362384796, 0.1292231231927872, -0.0850825682282448, 0.0938454866409302, -0.0496951900422573, -0.1807105690240860, -0.2188886702060699, 0.2648640573024750, -0.0522009171545506, 0.2228065133094788, -0.2216177880764008, -0.0193019080907106, -0.3379299044609070, 0.2192358523607254, -0.3061941266059875, 0.2649618387222290, 0.0139014162123203, 0.2968347966670990, -0.2928459346294403, 0.0180158372968435, -0.0548621863126755, -0.1672582477331161, 0.1618397086858749, 0.3524318039417267, 0.3498285114765167, -0.0395020581781864, -0.1561133712530136, 0.0935686528682709, 0.0513984002172947, -0.2756587862968445
-0.2435332834720612, 0.3087938725948334, -0.3077780008316040, 0.1426929533481598, -0.1467081010341644, -0.1808629184961319, -0.0002445488353260, 0.3287005126476288, -0.1937122792005539, -0.1014805808663368, -0.0804196074604988, -0.0438430085778236, 0.0830925107002258, -0.2140395194292068, -0.0070156562142074, 0.0030753440223634, -0.1814060509204865, 0.2170651555061340, -0.3303826153278351, -0.1630406528711319, -0.0166959129273891, -0.3717112541198730, -0.3069887161254883, -0.1309700906276703, -0.1625761836767197, 0.1334025412797928, -0.0311382915824652, 0.0323322117328644, -0.1210254058241844, 0.0715797767043114, 0.1868056356906891, -0.2965354919433594, 0.3492026627063751, 0.2215103805065155, 0.1111294701695442, -0.0605979077517986, 0.1235245764255524, 0.0748009830713272, 0.1651813536882401, -0.2099854052066803, 0.0987813249230385, 0.1173305884003639, -0.0491484776139259, 0.2099471837282181, -0.1907423883676529, -0.0630322098731995, 0.0240551773458719, 0.1520943045616150, -0.0468604117631912, 0.3406863510608673, 0.1518951952457428, 0.3131251037120819, -0.4808163046836853, -0.1314460039138794, 0.0443625934422016, -0.3544552028179169, 0.2330797165632248, 0.2243979424238205, 0.2828145623207092, -0.2239773273468018, -0.0415478199720383, 0.1958716660737991, -0.0327504687011242, -0.2984269559383392
-0.2931851446628571, 0.6057838201522827, -0.2703343331813812, 0.6055522561073303, -0.2465099692344666, 0.0323984585702419, -0.1987759917974472, -0.0478911846876144, -0.4918482899665833, -0.1284230202436447, 0.0630395114421844, 0.0151044335216284, 0.2389997690916061, -0.0860676765441895, -0.2332593351602554, 0.5314238071441650, -0.0914729312062263, 0.2839250266551971, -0.0511493906378746, -0.0909390151500702, 0.1144536659121513, -0.3707565665245056, -0.3177002966403961, -0.1807816624641418, -0.1851752549409866, -0.0463009141385555, -0.1388320177793503, -0.1735336631536484, 0.0143679575994611, 0.0867790654301643, 0.3464358747005463, -0.4733226895332336, 0.4236732423305511, 0.3509257733821869, 0.1459941118955612, -0.0775342062115669, 0.0397383719682693, 0.1282462179660797, 0.1699818819761276, 0.0849458500742912, -0.3560609221458435, 0.3257859647274017, 0.0359397344291210, 0.2443054169416428, -0.3963496685028076, 0.0097270291298628, -0.1683876216411591, 0.4551632702350616, -0.4172680974006653, 0.2137381136417389, 0.2729596495628357, 0.3615550100803375, -0.4642264246940613, -0.2298056036233902, -0.3742629289627075, -0.4521066248416901, 0.0487278141081333, 0.3853100240230560, 0.6263813376426697, 0.0014086674200371, 0.0078216372057796, 0.4673278927803040, 0.0553410574793816, -0.2557408511638641
-0.1166794523596764, 0.6519994139671326, -0.2678953409194946, 0.6312155127525330, -0.2931176424026489, -0.0609389990568161, -0.3232266902923584, -0.0568198673427105, -0.3295819759368896, -0.1353375911712646, -0.1910057961940765, 0.2589322626590729, 0.2754330635070801, -0.2186638116836548, -0.5895878672599792, 0.2866343557834625, -0.3878328502178192, 0.2556845247745514, -0.1949497461318970, -0.2045141309499741, 0.1693649291992188, -0.4972800016403198, -0.3139317035675049, -0.1473400294780731, -0.1824801862239838, 0.2388912588357925, 0.0789518654346466, -0.2604995965957642, -0.2082261890172958, 0.2623848319053650, 0.2187055945396423, -0.3491879701614380, 0.3301894962787628, 0.5912421345710754, 0.0821000337600708, 0.0733017846941948, 0.5673490166664124, 0.3420143425464630, 0.3137163519859314, -0.2294761389493942, -0.1233409345149994, 0.2224837541580200, 0.1908799111843109, 0.0961813777685165, -0.5514613986015320, 0.2759512960910797, -0.1132200881838799, 0.5454793572425842, -0.3563177287578583, 0.2786540091037750, 0.2619268000125885, 0.4229116141796112, -0.5727434754371643, -0.2390471249818802, -0.2511955499649048, -0.0647156983613968, 0.1569016575813293, 0.5027069449424744, 0.2630184888839722, -0.1163188740611076, -0.1765640377998352, 0.6419019103050232, -0.0492810271680355, -0.2243578284978867
-0.2437553256750107, 0.0389530621469021, -0.4836334884166718, 0.1690637469291687, -0.1434640586376190, -0.3667365610599518, -0.3367439210414886, -0.0103639280423522, 0.1360212713479996, 0.1446699500083923, -0.1717824339866638, 0.2643063068389893, -0.1525535285472870, -0.1852123737335205, 0.0748854875564575, 0.6478415727615356, 0.2570426166057587, 0.1938688457012177, -0.3363117873668671, -0.0553532019257545, -0.1362238675355911, 0.1241119876503944, -0.3536897599697113, -0.5423320531845093, -0.2440376877784729, -0.0087642790749669, 0.1007382497191429, 0.4204746484756470, 0.0976216495037079, 0.0248513594269753, -0.1597951650619507, 0.0951148793101311, -0.0898134484887123, -0.0663245916366577, -0.3290974497795105, 0.2357954680919647, 0.7432541847229004, -0.1555973142385483, 0.4549590051174164, -0.0644137710332870, -0.0005445670685731, -0.0218498148024082, 0.2108862996101379, -0.1053119003772736, -0.2282439321279526, 0.3522956371307373, -0.2686640024185181, -0.0041675656102598, -0.0912961736321449, -0.0810266882181168, -0.2592774927616119, -0.1018375307321548, 0.0679847523570061, 0.2621284127235413, 0.0833888351917267, -0.2209134697914124, 0.5683794021606445, -0.1586715579032898, 0.1642559617757797, -0.0487739928066730, -0.2532845437526703, 0.5885581374168396, 0.5808141231536865, -0.5827796459197998
-0.7495421767234802, 0.0879340618848801, -0.4706533551216125, -0.1963823288679123, -0.1848104596138000, 0.2764233350753784, -0.0380993597209454, -0.0689364224672318, -0.0181505214422941, 0.0025515523739159, -0.0395644120872021, 0.2060275971889496, 0.8812156915664673, -0.1697211563587189, -0.2872003018856049, 0.1995481401681900, 0.0642736479640007, 0.6317420005798340, -0.2551981806755066, 0.5667860507965088, 0.0403306297957897, -0.1259017735719681, -0.3494546413421631, -0.3578070998191833, -0.2686536908149719, 0.1029615923762321, -0.0867544189095497, 0.3901261985301971, 0.0804152563214302, 0.4772323966026306, -0.2826519012451172, 0.0188665278255939, 0.2958597838878632, 0.5068974494934082, -0.6647893786430359, 0.2153451740741730, 0.8527650833129883, 0.4291797280311584, 0.4585675299167633, 0.3213872909545898, -0.4700360298156738, 0.1956218183040619, 0.0239510983228683, 0.0312105510383844, -0.9628152251243591, 0.2031858116388321, -0.2600015103816986, 0.9213785529136658, -0.7206418514251709, -0.1582414656877518, -0.1864677369594574, 0.6476338505744934, -0.1824202090501785, -0.3787621259689331, -0.0031622217502445, 0.0358102582395077, 0.2789486050605774, -0.1117776483297348, 0.6733096837997437, -0.2968619465827942, -0.2671348750591278, 0.0136359790340066, 0.4545476734638214, 0.1179782375693321
-0.7397414445877075, 0.3830811977386475, -0.5945907235145569, 0.2638360857963562, -0.2114656418561935, 0.1146704033017159, -0.4199291765689850, 0.0241308119148016, -0.3861366510391235, -0.7514041066169739, -0.0641550868749619, 0.6572604775428772, 0.4706031382083893, -0.6207122802734375, -0.0928242132067680, 0.5158174037933350, -0.3611069321632385, 0.6254669427871704, -0.7541239857673645, 0.0128760132938623, -0.2642624378204346, -0.1375988423824310, -0.5794062614440918, -0.4195872843265533, -0.5063295960426331, 0.2444650977849960, -0.1508256942033768, 0.1850439608097076, -0.1060689613223076, 0.1349984854459763, 0.5011336207389832, -0.5785862207412720, 0.4385768473148346, 0.5309696793556213, 0.2128689587116241, -0.1815929710865021, 0.4483706057071686, 0.2992723882198334, 0.0608649440109730, -0.0259020589292049, -0.1348594874143600, 0.5096576809883118, 0.5264474153518677, 0.7171571850776672, -0.8641658425331116, 0.1484248042106628, -0.6008133888244629, 0.6263331174850464, -0.6570020318031311, 0.4848063588142395, 0.4366209506988525, 0.5489739775657654, -0.5960263013839722, -0.6609153151512146, -0.3025963902473450, -0.7088122963905334, 0.7330376505851746, 0.5689119696617126, 0.2601148188114166, -0.1677046716213226, 0.5528600811958313, 0.5784837603569031, -0.0333205349743366, -0.1780557632446289
-0.5622427463531494, 0.7058851718902588, -0.6198458075523376, 0.3649901449680328, -0.0542450360953808, -0.0166989099234343, -0.6323379278182983, 0.0690122842788696, -0.5505203604698181, -0.6258433461189270, -0.2432307600975037, 0.6517392992973328, 0.4080814719200134, -0.6099674105644226, -0.2620463669300079, 0.3126997053623199, -0.3238655328750610, 0.5964354276657104, -0.5435242652893066, 0.0028554960153997, -0.1211426332592964, -0.0797106921672821, -0.4242445230484009, -0.5229181647300720, -0.5202226638793945, -0.0503953918814659, -0.0523014031350613, 0.0026308717206120, -0.0710711479187012, 0.1413266956806183, 0.6887629628181458, -0.5188227295875549, 0.4665503799915314, 0.5253142118453979, 0.3377051651477814, 0.0859373211860657, 0.1008932590484619, 0.3180574774742126, 0.0210256297141314, -0.2375644445419312, -0.1308256834745407, 0.6247230172157288, 0.3809202909469604, 0.5312078595161438, -0.5885921120643616, 0.5183168053627014, -0.2802325487136841, 0.2763848006725311, -0.6802295446395874, 0.7593895196914673, 0.4270019829273224, 0.4578007459640503, -0.7000392079353333, -0.3186919987201691, -0.3634188175201416, -0.4822332262992859, 0.6508077979087830, 0.6418479681015015, 0.2743147909641266, -0.2400140613317490, 0.4639873802661896, 0.7015880346298218, -0.2781100869178772, -0.3151196837425232
-0.4428918063640594, 0.5194162130355835, -0.4138979911804199, 0.1139944046735764, -0.2142702341079712, -0.0174083095043898, -0.2196640074253082, -0.0495131015777588, -0.3822292983531952, -0.2799391746520996, -0.1198996528983116, 0.2783807516098022, 0.2687955796718597, -0.2593168616294861, -0.0342962443828583, -0.0027280398644507, 0.1201967224478722, 0.3078325688838959, -0.2776472866535187, 0.1282299607992172, -0.1927342563867569, 0.0808082073926926, -0.2908347845077515, -0.4865568578243256, -0.2977056205272675, 0.1163013577461243, -0.1389863044023514, 0.1133182346820831, 0.0285778939723969, 0.2685129046440125, 0.3903231322765350, -0.2698782086372375, 0.2623869776725769, 0.3529301285743713, -0.0790888667106628, 0.1193443536758423, 0.1424414962530136, 0.1498209536075592, 0.1190089583396912, -0.2827151119709015, -0.3120472431182861, 0.4056382477283478, 0.2340321689844131, 0.2569896578788757, -0.2393034845590591, 0.2392303198575974, -0.1090521886944771, 0.3734439313411713, -0.2816048860549927, 0.5282534360885620, 0.0489789359271526, 0.2982401251792908, -0.3106210231781006, -0.0229146853089333, -0.0403705574572086, -0.1827304661273956, 0.0584836825728416, 0.5105769634246826, 0.2509970963001251, -0.2720292210578918, -0.0887776762247086, 0.4316481351852417, -0.0214350372552872, -0.3657643496990204
0.1306299865245819, 0.0871251225471497, -0.0894002243876457, -0.0490722879767418, 0.1282051801681519, 0.1287374496459961, 0.0580316185951233, -0.0028938502073288, 0.0093405395746231, 0.0603056997060776, 0.0430102348327637, 0.0343636721372604, -0.0390803590416908, 0.0956915020942688, -0.1492844521999359, -0.0473268106579781, -0.0072446614503860, -0.0906536281108856, 0.1125091016292572, -0.0285087898373604, -0.0138161182403564, -0.1283064484596252, 0.0584098249673843, 0.1352741718292236, 0.0284447222948074, -0.1049865782260895, -0.0591325908899307, -0.1225814372301102, -0.0144148766994476, -0.0293285548686981, -0.0160138905048370, 0.1196123957633972, -0.1168590411543846, 0.1010818481445312, -0.1351685971021652, -0.0106269121170044, -0.1024207621812820, 0.1222866475582123, -0.0566941201686859, -0.0701917633414268, -0.1235324218869209, 0.0060114860534668, 0.1399402618408203, 0.0728878229856491, -0.0358028113842010, -0.0184976011514664, -0.0092127621173859, -0.1459562331438065, 0.0555531233549118, -0.0118684768676758, 0.1004418730735779, 0.0293813943862915, -0.0765129625797272, -0.0540665090084076, -0.0373579561710358, 0.0617719739675522, -0.0202283263206482, -0.0470180138945580, 0.0094506144523621, 0.0124161690473557, 0.0179198831319809, 0.1353139281272888, -0.0559369325637817, -0.1230758205056190
-0.0424890890717506, 0.1116927564144135, 0.0705267786979675, 0.0238709598779678, -0.1382116228342056, -0.0968720316886902, -0.1273634582757950, -0.1203678399324417, -0.0241873264312744, 0.0996478497982025, -0.1052406579256058, -0.0631723552942276, -0.0064592957496643, 0.0062753409147263, 0.1069851517677307, -0.1065587103366852, 0.0357628315687180, 0.0196926593780518, -0.1462936401367188, 0.0252188891172409, -0.0245271176099777, 0.1511645019054413, 0.0992809534072876, 0.0556139051914215, 0.0324002057313919, -0.0923267379403114, -0.0600883588194847, 0.0413961261510849, 0.1310234367847443, 0.0943322628736496, -0.0138106048107147, -0.0315325185656548, -0.0780340954661369, -0.0712611824274063, 0.0665467530488968, -0.0168411135673523, 0.0667566359043121, -0.0829186886548996, -0.0657105743885040, -0.1294919401407242, 0.0575522333383560, 0.0648253262042999, -0.1398800611495972, 0.0779733955860138, 0.0458425432443619, -0.1426558047533035, 0.0377745032310486, -0.0120200514793396, 0.0474617928266525, 0.1238997280597687, -0.0098115950822830, 0.0905482023954391, 0.0965237915515900, -0.1140455603599548, 0.0549211949110031, 0.1068351268768311, 0.0055796205997467, -0.0039462447166443, -0.0913432240486145, -0.1358166784048080, -0.1424209624528885, 0.0770486295223236, 0.1432413756847382, 0.0067766010761261
-0.0398365631699562, -0.1407400667667389, 0.1102276146411896, -0.0558107867836952, 0.0002851784229279, -0.1228568032383919, 0.1400666236877441, 0.0938817709684372, -0.1089535057544708, 0.0588783770799637, -0.1257848739624023, 0.0843963325023651, 0.1296924948692322, -0.0465655773878098, -0.0185703933238983, -0.0091489851474762, 0.0430119782686234, -0.1391880661249161, 0.1305906176567078, 0.1212492287158966, -0.1157465949654579, -0.0751640051603317, -0.0293072983622551, -0.0235365927219391, 0.0404536426067352, 0.0619735270738602, -0.0184712260961533, 0.0508235841989517, -0.0402643755078316, 0.0291666984558105, 0.0571967214345932, 0.0186239331960678, -0.0190906673669815, -0.0187079161405563, -0.0807296112179756, 0.0313388258218765, -0.0201505720615387, -0.0743120089173317, 0.0690205395221710, 0.1449296772480011, 0.1001953184604645, 0.0330826342105865, -0.1515637487173080, 0.0600621402263641, 0.0014148354530334, 0.0604471713304520, -0.1377355009317398, -0.1285214722156525, 0.1292141079902649, -0.0323171168565750, 0.1215189099311829, 0.0847366303205490, 0.0976497828960419, -0.1291565299034119, 0.0346272289752960, 0.0707907825708389, -0.1514801234006882, 0.1452043354511261, -0.0371193140745163, 0.1342935860157013, -0.1131955832242966, 0.0576262027025223, 0.0306587219238281, 0.0488414317369461
0.1134534552693367, 0.5303192138671875, -0.0139427864924073, -0.1539672017097473, -0.2574477493762970, -0.1641028225421906, 0.0696815252304077, -0.3782533109188080, 0.2829891741275787, -0.1142281740903854, 0.1778098791837692, 0.3488146662712097, 0.2824510931968689, 0.2813147306442261, 0.0995933860540390, 0.3869335353374481, 0.2379738986492157, 0.1161496415734291, -0.2898373603820801, -0.0905206575989723, -0.4782371819019318, -0.0304653942584991, -0.4932418167591095, -0.4352309405803680, -0.0356190241873264, 0.0900621041655540, -0.1413993835449219, 0.3408096134662628, 0.2442243844270706, 0.2309265136718750, -0.0149781303480268, -0.6023912429809570, 0.4183815419673920, 0.4579938352108002, -0.2219971269369125, 0.3064850270748138, 0.2187214344739914, 0.3926829099655151, 0.3336645364761353, -0.2454410791397095, -0.2696273624897003, -0.0918850600719452, 0.5080560445785522, -0.1800113022327423, -0.6622372269630432, 0.0513602532446384, -0.1454101204872131, -0.0481850430369377, -0.1940590739250183, -0.3471885025501251, -0.2645607590675354, 0.1893036961555481, -0.2022027522325516, 0.4402588903903961, -0.1824152916669846, 0.3533285856246948, 0.2716799974441528, -0.1380884200334549, 0.1672081649303436, -0.3118610382080078, 0.3002613484859467, 0.2868467867374420, 0.3486769497394562, 0.2023856043815613
-0.0840588212013245, 0.2362045794725418, -0.3751825392246246, 0.2306729108095169, -0.3125199377536774, 0.0172653198242188, -0.0296621844172478, -0.2548012137413025, -0.0315024219453335, -0.0923746302723885, -0.0041892477311194, 0.3625721037387848, 0.0627022832632065, -0.0746224448084831, 0.0506496615707874, -0.2205597609281540, -0.1657572239637375, 0.4615290760993958, 0.2116472423076630, -0.2082708925008774, -0.1880781352519989, 0.1247345954179764, -0.2839538455009460, -0.3262858092784882, -0.5215891003608704, 0.1801565289497375, 0.2933266162872314, 0.4465300440788269, 0.1109897717833519, 0.2510756552219391, 0.0807069167494774, -0.3078109920024872, 0.4115104079246521, 0.5934336185455322, -0.3570691347122192, 0.1914555132389069, 0.2164112031459808, 0.0750595331192017, -0.1852401793003082, -0.0234046149998903, 0.1645642966032028, 0.2050516754388809, 0.4236674904823303, 0.0143453581258655, -0.1247493401169777, -0.1743888556957245, 0.0432972200214863, 0.4289496839046478, 0.1350169181823730, 0.0733035802841187, -0.2512428164482117, 0.2153517454862595, -0.3474873602390289, 0.2546789348125458, -0.3478122949600220, 0.1804751306772232, 0.3827238380908966, 0.3295451700687408, 0.3527500629425049, -0.3226164281368256, 0.0501192584633827, -0.0451334528625011, -0.2161442190408707, -0.2377527058124542
-0.2444503158330917, -0.0872751250863075, -0.7500970363616943, 0.3932623863220215, -0.1844447851181030, 0.2251678109169006, -0.5886148214340210, -0.0153565127402544, -0.1665082126855850, -0.2935595512390137, -0.1462601870298386, -0.0551229044795036, 0.0943393856287003, -0.4967231750488281, 0.0652790814638138, 0.1018551141023636, -0.0475663542747498, 0.4691415131092072, -0.0061341417022049, -0.0000848929848871, -0.2024109363555908, 0.1961427628993988, -0.6818617582321167, -0.8229222893714905, -0.5847060680389404, 0.4489361047744751, 0.3782107830047607, 0.1905980855226517, -0.0534464791417122, 0.2120400965213776, 0.0949247181415558, -0.3539232015609741, 0.1234312728047371, 0.3332861959934235, -0.1252340227365494, 0.3290435075759888, -0.3210016191005707, 0.6224088668823242, -0.1220151185989380, 0.1889668852090836, 0.0402280874550343, 0.5396271944046021, -0.0866594016551971, 0.3042685687541962, -0.1820699274539948, -0.2875283062458038, -0.1532710641622543, 0.6942301988601685, -0.2256711423397064, 0.5237034559249878, -0.2188799083232880, 0.2501925826072693, -0.6447999477386475, 0.0050189127214253, -0.0773024186491966, -0.1271779984235764, 0.4956316649913788, 0.6532834768295288, 0.2164247632026672, -0.2481041103601456, -0.1609470099210739, 0.1880715936422348, 0.1860804110765457, 0.0005283424980007
-0.3628859817981720, -0.1790247708559036, -0.8284386396408081, 0.0360856913030148, -0.6885930299758911, 0.4643493294715881, -0.7665155529975891, 0.4868684411048889, 0.2151477634906769, -0.4033079147338867, 0.2240003347396851, -0.2894131243228912, 0.5604687929153442, -0.8595272898674011, -0.1916607916355133, -0.1477394253015518, 0.2403890341520309, 0.6456951498985291, -0.1404761373996735, 0.5359759926795959, -0.0113999610766768, 0.3453859090805054, -0.6466038227081299, -1.1719013452529907, -0.5857558250427246, 0.0399082563817501, 0.4943985342979431, 0.2696348428726196, 0.0507686734199524, 0.7212262749671936, 0.0611952841281891, -0.0354023277759552, -0.2447301894426346, 0.2828050553798676, -0.0542254038155079, 0.4158030152320862, -0.1652002334594727, 0.7298972606658936, -0.1203704401850700, 0.4888664186000824, 0.0010085857938975, 0.3174659013748169, -0.4503079354763031, 0.1092733219265938, -0.2956893444061279, 0.0457897074520588, -0.3514330983161926, 0.9463069438934326, -0.6628291606903076, 0.0248718541115522, -0.2151976525783539, 0.3439638614654541, -0.6897034049034119, 0.4100674688816071, 0.2834574282169342, 0.0091485707089305, -0.4638487398624420, 0.1475666463375092, 0.4382635951042175, -0.1058475896716118, -0.8128455281257629, -0.1215629056096077, 0.3118461668491364, -0.0315509922802448
0.0275219399482012, 0.1283474713563919, -0.6103720664978027, 0.0078146923333406, -0.7086656689643860, 0.1494714766740799, -0.4745226502418518, 0.2559050023555756, 0.0002145463367924, -0.1698230654001236, 0.4890107512474060, -0.4359169900417328, 0.4720308482646942, -0.5665799379348755, -0.2068634927272797, -0.2351900190114975, -0.1074144989252090, 0.7037764191627502, 0.0569890365004539, 0.6667305231094360, 0.1746777147054672, 0.2808733880519867, -0.7733967304229736, -1.2699230909347534, -0.5362933874130249, -0.1562213599681854, 0.4165526330471039, 0.0745210573077202, 0.3363806605339050, 0.7674684524536133, -0.0935478210449219, -0.1215834245085716, -0.1277497857809067, 0.3390245139598846, -0.0215139035135508, 0.1002549082040787, -0.5799906849861145, 0.9542916417121887, -0.0435211248695850, 0.1170757263898849, -0.2091034203767776, 0.2168069034814835, -0.6698868274688721, 0.3345148861408234, -0.0265157409012318, -0.4964635670185089, -0.0997384190559387, 0.4016872942447662, -0.4675752520561218, 0.2807564139366150, -0.3570481836795807, 0.4988882839679718, -0.0925309062004089, 0.1799953579902649, 0.5217920541763306, 0.1612437814474106, -0.0854055956006050, 0.2028930038213730, 0.2432399690151215, -0.1698636263608932, -0.9502544999122620, -0.0970717743039131, 0.2278023660182953, -0.4902283847332001
0.1308927834033966, -0.0655649378895760, -1.2011605501174927, 0.2268071025609970, -1.2040315866470337, 0.6788210868835449, -0.4658370614051819, -0.0706090927124023, 0.1131049320101738, -0.0252037178725004, 0.2966209053993225, -0.3273435235023499, 0.3172921836376190, -0.6379033923149109, 0.0855855569243431, 0.1293784826993942, 0.1248472854495049, 0.5951405167579651, -0.2297690063714981, 0.2361978143453598, 0.1203067600727081, 0.0275939889252186, -0.9516928195953369, -1.4444147348403931, -0.9389234185218811, 0.1937420070171356, 0.3461635410785675, 0.1296167075634003, 0.6308094263076782, 0.4210487306118011, 0.1897309571504593, -0.2958380579948425, -0.0101064732298255, 0.2148242443799973, -0.2999118566513062, -0.1097816601395607, 0.2762805819511414, 0.4060319364070892, 0.0450887493789196, -0.0032939827069640, 0.0056413607671857, 0.3098078370094299, -0.5906355381011963, 0.2381262928247452, 0.1004923731088638, 0.1198282316327095, -0.2783361375331879, 0.2763437330722809, -0.3785652518272400, 0.1114632263779640, -0.4168503880500793, 0.2278594523668289, 0.0426166132092476, 0.1164779290556908, 0.2244837582111359, -0.0010490773711354, -0.0249332617968321, 0.3022260069847107, -0.1353788971900940, -0.1310069113969803, -1.0548175573348999, -0.0889479443430901, 0.3938857913017273, -0.7138850092887878
0.0642915442585945, 0.0526597425341606, -0.9085744023323059, 0.1967513859272003, -1.0092859268188477, 0.5027793049812317, -0.7890505194664001, 0.1188350468873978, 0.1062126681208611, 0.0720801800489426, -0.0926635935902596, -0.2579063475131989, 0.3714616596698761, -0.2051692903041840, -0.1793770790100098, 0.3933467864990234, 0.1521834731101990, 0.4415980875492096, 0.0158552341163158, -0.0523204691708088, 0.0092772711068392, -0.2023359835147858, -0.8889573216438293, -0.7145827412605286, -0.9821583032608032, -0.0578610375523567, 0.2250828444957733, -0.0878096222877502, 0.4178200364112854, 0.1758997440338135, 0.1000097468495369, -0.0012568030506372, 0.0286416672170162, 0.2438831776380539, -0.4016153812408447, 0.0194049682468176, 0.7462453842163086, 0.4184193611145020, -0.0032070409506559, -0.3224849700927734, 0.0301123764365911, 0.3127848207950592, -0.7030845284461975, 0.3989619910717010, 0.1068820059299469, -0.5231983661651611, -0.0707605555653572, -0.2574801445007324, -0.5232385993003845, 0.0738291516900063, 0.0092277247458696, 0.3242914676666260, 0.3973647356033325, 0.1282531470060349, 0.1755150109529495, 0.0127236209809780, 0.1767370849847794, 0.2324642837047577, -0.0548156946897507, -0.1153192147612572, -0.9315066933631897, -0.0394501313567162, 0.2687923610210419, -0.3985412418842316
-0.0143779758363962, 0.1157099977135658, -0.3317304551601410, -0.0570223927497864, -0.1603720784187317, 0.3970328569412231, -0.6981002688407898, -0.2881338000297546, 0.3419441580772400, -0.2886174321174622, -0.3252908885478973, -0.1411281973123550, 0.2611191868782043, -0.0638193488121033, -0.2241012752056122, 0.3758853077888489, 0.1753525286912918, 0.3741385638713837, -0.0294984579086304, -0.0765393972396851, -0.1958119720220566, -0.5576441287994385, -0.6962087154388428, -0.2083968967199326, -0.6270667910575867, 0.0814082622528076, 0.1935029923915863, 0.1049002408981323, 0.5029169321060181, 0.0827651098370552, 0.3025473058223724, -0.2809334397315979, 0.2118012458086014, 0.3401037156581879, -0.0954418778419495, -0.2193153351545334, 0.7114988565444946, 0.0249530151486397, -0.2077544778585434, -0.4562031626701355, 0.1864054352045059, 0.0962355956435204, -0.1385297775268555, 0.0505149029195309, 0.1256941854953766, -0.2602207958698273, -0.0534588694572449, 0.1467049717903137, -0.2769409418106079, -0.0147482967004180, -0.0559360906481743, 0.2885417938232422, 0.4453856647014618, -0.0135643314570189, 0.3139943480491638, 0.1620601266622543, 0.2429697215557098, 0.2009478807449341, -0.7822055816650391, -0.2716001570224762, -0.4166491925716400, 0.0118772210553288, 0.3367580473423004, -0.3251864910125732
-0.2956087291240692, 0.1948128789663315, 0.2237165123224258, -0.1340074241161346, 0.3686904311180115, 0.3010732233524323, -0.5545225143432617, -0.1910093128681183, -0.0619782358407974, -0.1866885125637054, -0.2232102155685425, 0.3850268423557281, 0.2503874897956848, -0.2468360662460327, -0.4860854446887970, 0.3383176922798157, 0.1070564761757851, 0.4801809787750244, 0.0676024332642555, -0.4977745115756989, -0.8679423928260803, -0.1212557032704353, -0.5107206702232361, 0.4283101558685303, -0.2935006320476532, 0.0970591828227043, -0.0592928677797318, 0.1548869162797928, 0.2310657501220703, 0.0818108916282654, -0.2797300219535828, -0.4372643232345581, 0.3563921749591827, 0.5918437242507935, -0.0317648537456989, -0.2469175457954407, 0.6773923635482788, 0.0222069434821606, -0.4024089276790619, -0.3697822391986847, 0.5038331151008606, 0.3542236983776093, 0.3157326579093933, -0.0470381081104279, -0.5102626085281372, -0.1672114133834839, -0.0548364073038101, -0.2123173326253891, 0.1146898269653320, 0.1727401018142700, -0.0915420651435852, 0.3532197773456573, 0.1857223361730576, 0.1041242182254791, -0.0828126743435860, -0.0921090990304947, 0.2765737473964691, 0.2382497787475586, -0.5521368384361267, -0.3987274169921875, -0.1061031967401505, -0.0879718884825706, 0.2864144146442413, -0.0452949367463589
-0.2366880327463150, 0.4273076355457306, 0.2844351530075073, 0.2666517198085785, 0.4652795493602753, 0.1427981853485107, -0.5109066367149353, -0.6813173890113831, 0.0161795392632484, -0.0563060678541660, -0.2746800184249878, 0.4124226272106171, 0.1394439637660980, -0.0990806370973587, -0.4407257139682770, 0.0857782065868378, -0.3700629770755768, 0.2801133990287781, 0.2117927968502045, -0.4052085578441620, -0.2076208144426346, 0.0932550057768822, -0.4529060423374176, 0.1173202097415924, -0.4691698849201202, -0.1105737835168839, 0.0566324442625046, -0.1111667379736900, -0.0698069855570793, 0.1607783883810043, 0.3198945224285126, -0.1642466187477112, 0.5527869462966919, 0.4184113442897797, 0.1558406352996826, -0.0343805700540543, 0.4753932654857635, -0.0026252015959471, -0.4861694574356079, -0.0537136867642403, 0.4413444697856903, 0.2496241927146912, 0.4505791962146759, 0.2314777374267578, -0.5060302615165710, -0.0642935708165169, 0.0734356194734573, 0.2736213207244873, -0.0150850918143988, 0.2586348652839661, -0.0571269318461418, 0.3446592092514038, -0.0612427741289139, 0.0474806167185307, -0.3389232754707336, 0.1480139940977097, 0.3569507300853729, 0.2842871546745300, -0.4815242588520050, -0.2571721374988556, 0.1404103785753250, 0.2158539444208145, -0.1647763252258301, 0.1026695892214775
-0.3654925525188446, 0.6242197751998901, 0.2999548316001892, 0.2320797443389893, 0.5024802684783936, -0.1709101051092148, 0.0076460195705295, -0.2879178225994110, -0.2547212243080139, -0.0186208840459585, -0.3196412026882172, 0.4297656118869781, 0.5245276093482971, -0.3682357370853424, 0.1085127294063568, 0.0154871679842472, -0.1042151749134064, 0.3234812617301941, 0.2170374244451523, -0.0332742109894753, 0.2560030221939087, -0.1319214850664139, -0.3677993714809418, 0.1966206729412079, -0.0113367736339569, 0.1589868664741516, 0.1940193176269531, 0.0781198665499687, -0.2305315881967545, -0.0149792954325676, 0.1065875291824341, 0.0838459432125092, 0.4938599467277527, 0.4374224543571472, 0.2047892659902573, -0.1059582084417343, -0.1102068275213242, 0.1840683072805405, -0.1360595375299454, -0.1896078437566757, 0.2488480955362320, 0.6270204186439514, 0.2575394213199615, 0.4037034213542938, -0.6667047739028931, 0.3709567189216614, -0.1769860535860062, 0.5223222374916077, -0.2166244983673096, 0.5542901158332825, 0.2824971377849579, 0.5525099635124207, -0.6286825537681580, -0.1821384578943253, -0.1042597815394402, -0.4229523837566376, 0.2516114115715027, 0.7124398350715637, -0.1441201269626617, 0.3653881251811981, 0.1542382538318634, 0.6830264329910278, -0.6674462556838989, 0.0754138678312302
-0.1391738653182983, 0.2401380836963654, -0.1973182559013367, -0.2135018408298492, -0.2962514162063599, 0.0813084766268730, 0.0694967508316040, -0.1147171258926392, -0.1214051693677902, 0.2008426934480667, 0.1638967841863632, -0.0675098970532417, 0.0804996639490128, -0.3514347076416016, 0.2826744616031647, -0.3032606840133667, 0.0822201073169708, 0.0367295406758785, 0.3016440570354462, 0.1749466508626938, 0.0373417809605598, 0.5827901959419250, -0.6009646654129028, -0.0687627643346786, -0.1314778923988342, 0.2103968709707260, 0.1414274871349335, -0.0182308312505484, 0.1537082046270370, 0.3954711854457855, 0.1911841779947281, 0.1192345842719078, 0.0114805307239294, 0.3704123198986053, 0.3212523460388184, 0.0319967269897461, 0.0786816924810410, 0.1454664468765259, 0.1385039538145065, 0.2628777027130127, 0.0457597859203815, -0.1187997832894325, 0.0548246391117573, -0.1393606513738632, -0.3538477122783661, 0.0104535166174173, -0.0156301222741604, 0.3547963201999664, -0.0112253734841943, -0.0396831333637238, 0.0325900800526142, 0.0593184009194374, -0.9159355759620667, -0.1269982010126114, 0.0008642072789371, 0.1921569705009460, -0.0030938491690904, -0.0931574478745461, -0.1897219568490982, -0.0705668255686760, -0.1135323792695999, 0.1327421814203262, -0.0551218837499619, 0.1234014034271240
-0.2097170501947403, 0.3486596941947937, -0.0665702223777771, 0.0065382122993469, -0.0042803310789168, 0.2224955111742020, -0.2367094904184341, 0.0238699018955231, -0.0344053842127323, 0.0853420719504356, 0.3123218417167664, 0.3980870544910431, 0.1563383489847183, -0.2050108313560486, -0.2754311263561249, -0.3970659375190735, -0.3774105608463287, 0.0117585314437747, 0.2664042413234711, 0.0062531908042729, 0.1020940169692039, 0.1289491653442383, 0.0274298265576363, -0.5010729432106018, -0.4206268787384033, 0.0539536923170090, 0.2014864087104797, -0.2170269340276718, -0.1651277244091034, 0.1825299710035324, 0.0868705138564110, -0.1343340724706650, 0.4396893680095673, 0.2989208698272705, 0.2541686296463013, 0.0501268468797207, 0.1191723644733429, -0.0645993202924728, -0.1909491568803787, -0.0258313287049532, 0.1839995831251144, 0.1750653684139252, 0.0885053277015686, -0.0204324498772621, -0.3521982729434967, -0.1477592140436172, 0.5204038023948669, -0.0823942422866821, 0.1500050276517868, 0.0332439355552197, 0.0602678544819355, 0.2061284333467484, -0.2486679404973984, -0.1562566608190536, 0.0131275402382016, 0.2745441794395447, -0.3975385129451752, 0.1283661276102066, 0.0810211747884750, -0.1318466365337372, -0.0972821041941643, 0.2483181953430176, 0.0865154862403870, -0.1274115890264511
0.0574126653373241, -0.1460307836532593, 0.1120249927043915, -0.0318741649389267, -0.0186365023255348, -0.0816064849495888, 0.0200307909399271, 0.0938549339771271, 0.0730556547641754, -0.0059561827220023, 0.0438045188784599, 0.0867290571331978, -0.0826133340597153, 0.0098163597285748, -0.0987651869654655, 0.1184577941894531, -0.1572102308273315, 0.0068949032574892, -0.0752877220511436, -0.1278639584779739, 0.0204495880752802, 0.1011338755488396, -0.0228110030293465, 0.0693165585398674, -0.0826603919267654, 0.0854320526123047, -0.1033474430441856, 0.1016649752855301, -0.0242938660085201, 0.0329592265188694, 0.1354188919067383, 0.0666962936520576, -0.1178000345826149, -0.0775574892759323, 0.1253461688756943, 0.1168032065033913, 0.0181213542819023, -0.0023831790313125, 0.1188030391931534, 0.0153122227638960, -0.0445221364498138, 0.0352978371083736, 0.0839385539293289, -0.1156797632575035, 0.0195531528443098, -0.1314383149147034, 0.0452562458813190, 0.0171314179897308, -0.0551423206925392, 0.0603189766407013, -0.0930423066020012, -0.0122160091996193, -0.1084435358643532, -0.0683976262807846, -0.1432788223028183, -0.0340095311403275, -0.0090780956670642, 0.1226593926548958, 0.1227088943123817, -0.0825883299112320, -0.0665512010455132, 0.0270582549273968, -0.0048724943771958, 0.0967080742120743
0.1908800005912781, -0.1459092050790787, 0.1571894288063049, -0.3500554561614990, -0.3380632102489471, 0.0851868018507957, 0.1963078826665878, -0.4781460762023926, 0.3754284083843231, 0.1161194965243340, 0.5478813648223877, 0.3490951061248779, -0.1442628800868988, -0.0249895732849836, 0.0076702330261469, 0.0670604556798935, 0.0532883293926716, 0.1479399502277374, 0.1010820120573044, 0.2407040446996689, -0.5804657340049744, 0.2115195244550705, 0.2347956746816635, -0.3167617619037628, -0.3613240420818329, 0.4784276783466339, 0.2298414111137390, 0.4422265291213989, 0.4271672964096069, 0.1677389889955521, 0.0277209933847189, -0.0361423455178738, -0.0794913098216057, -0.2184379696846008, -0.2701711058616638, -0.0374444164335728, -0.1278905272483826, 0.1473788321018219, 0.0577672012150288, 0.0274630952626467, 0.1416302025318146, -0.1801207363605499, 0.2249297946691513, -0.0727459937334061, -0.0747772157192230, 0.0875876918435097, -0.0784990787506104, -0.1025846153497696, 0.0879358723759651, -0.2307655662298203, -0.1771429628133774, -0.4109459817409515, 0.3889946043491364, 0.2444366961717606, -0.0530177839100361, -0.0422722771763802, 0.4525414109230042, -0.1798530220985413, 0.1342119276523590, -0.2217512726783752, -0.2173034399747849, -0.2724727392196655, 0.3895264565944672, 0.0345601700246334
0.1493558287620544, -0.8024567961692810, -0.3260438740253448, -0.0082163466140628, 0.0669999942183495, 0.0975906178355217, 0.1231986805796623, -0.3355596959590912, -0.3105021119117737, -0.4272804558277130, -0.1895815581083298, -0.0152139868587255, -0.3356366753578186, -0.0985493734478951, 0.0108047528192401, -0.1654529720544815, 0.0728000402450562, 0.4929378926753998, -0.2796182036399841, 0.4697248339653015, -0.4322261810302734, 0.8540787100791931, -0.4128604531288147, -0.4303479790687561, 0.4404221475124359, 0.2740666866302490, -0.2238497734069824, 0.2176675349473953, 0.2670301496982574, -0.2446037232875824, 0.3931458890438080, -0.3637175858020782, -0.3761872947216034, -0.2786992192268372, 0.2866095006465912, 0.1215613707900047, -0.0891424492001534, 0.0886552631855011, 0.0456030480563641, 0.3605031967163086, 0.2081167995929718, 0.1380051374435425, 0.3082126379013062, 0.2989743649959564, 0.0874955877661705, -0.2801232933998108, -0.2635867595672607, 0.1205564215779305, -0.3592253923416138, 0.1939812451601028, 0.1527083665132523, -0.0585835948586464, 0.5080189108848572, -0.1665896773338318, -0.0337194837629795, 0.3301140069961548, 0.4724401831626892, 0.3103880584239960, 0.1100011020898819, 0.4105352163314819, -0.1212132573127747, -0.6518669724464417, -0.1519538462162018, -0.1770660728216171
0.0199879501014948, -0.3469363451004028, -0.3224598169326782, -0.0400879755616188, -0.0306551456451416, 0.2300055772066116, 0.4353613555431366, -0.1994116753339767, -0.2280903309583664, -0.1591291725635529, 0.2044602930545807, -0.0855324640870094, -0.1478443890810013, 0.0316186249256134, 0.1033929288387299, -0.3564386665821075, 0.0086564542725682, 0.3544992506504059, -0.2128856927156448, 0.3428967297077179, -0.0495873205363750, 0.3203283250331879, -0.3249742090702057, -0.5628072023391724, 0.1114984825253487, 0.2174304425716400, -0.0855409651994705, 0.1132800281047821, 0.1722739040851593, -0.2373795956373215, 0.1332376003265381, 0.2378873229026794, -0.0546240806579590, -0.1113538146018982, 0.0530914776027203, 0.3953023850917816, -0.1747314333915710, 0.0180800557136536, -0.0543900690972805, 0.2873519062995911, 0.2537196874618530, 0.3314573764801025, -0.0139780724421144, 0.4428201913833618, 0.2254928201436996, -0.7055606842041016, -0.5184102058410645, -0.1289750635623932, -0.5589287281036377, 0.2717188894748688, 0.2206978350877762, -0.0575696751475334, 0.2712465226650238, 0.1191824451088905, -0.1865799725055695, 0.3814334571361542, -0.1114821657538414, 0.0038245946634561, -0.0284710787236691, 0.2300855219364166, -0.5472596287727356, -0.5764526724815369, 0.0178138185292482, -0.0239521674811840
-0.0067679458297789, -0.1967151761054993, -0.6083940863609314, 0.4024980068206787, -0.3517070710659027, 0.5033007264137268, 0.2808787822723389, 0.0951965004205704, -0.2445783615112305, -0.4265280961990356, 0.2925016283988953, -0.5407282710075378, -0.1188005432486534, 0.1190626695752144, -0.0114191230386496, -0.2979504168033600, 0.0552616268396378, 0.1548424810171127, -0.0263139121234417, 0.3025620877742767, 0.4329490959644318, 0.0484929420053959, -0.4379352331161499, -0.5777173638343811, 0.1990538090467453, -0.0522154383361340, 0.1178407594561577, 0.0505292303860188, -0.0253681465983391, -0.0668121427297592, 0.2564794123172760, 0.2187941819429398, -0.2503318786621094, 0.0643011108040810, -0.2409808635711670, 0.0890660807490349, 0.0454641692340374, 0.0849970281124115, 0.1524779647588730, 0.0448737815022469, 0.3221550583839417, 0.3113163709640503, -0.2790496945381165, 0.2285644114017487, 0.2281518131494522, -0.4055808782577515, -0.3816761374473572, -0.0584903284907341, -0.5743508934974670, 0.0657004192471504, 0.1964166313409805, 0.1580087691545486, 0.3017261326313019, -0.0271112788468599, -0.3596412837505341, 0.2865732908248901, -0.1124200895428658, -0.0933069959282875, 0.1833174079656601, -0.0216389596462250, -0.5452026128768921, -0.3813697099685669, 0.0952473804354668, 0.0546549595892429
0.0200061500072479, 0.1771523356437683, -0.1243938356637955, 0.3281646370887756, -0.2635136544704437, 0.3736347854137421, 0.3787515759468079, -0.3609182834625244, 0.3894017934799194, 0.1308045983314514, 0.4182640910148621, -0.2674796581268311, 0.0606214515864849, -0.0309929195791483, 0.3231571018695831, 0.0067189536057413, -0.1440016031265259, 0.0074717057868838, 0.3165550827980042, 0.3815027177333832, 0.2416426837444305, 0.1458451598882675, -0.5907132625579834, -0.4085648953914642, -0.0542132034897804, 0.1153232082724571, 0.3908129632472992, 0.0434524156153202, 0.2980034351348877, 0.0697560906410217, 0.0654081627726555, 0.1811852902173996, -0.1321285665035248, 0.0824165716767311, -0.2397021204233170, 0.7070851922035217, -0.0874303281307220, 0.0342694781720638, -0.2314709126949310, 0.0902430564165115, -0.0349999777972698, 0.2054526507854462, -0.4207069575786591, 0.0967139825224876, 0.2822723090648651, -0.1868328303098679, 0.0232619531452656, -0.1768341362476349, -0.0889756977558136, 0.0704393312335014, -0.1450405418872833, -0.1247911751270294, 0.4759363532066345, 0.2074447125196457, -0.1344842016696930, -0.0248423703014851, -0.0864628106355667, -0.0525851771235466, 0.2709617018699646, 0.0267664548009634, -0.7482514977455139, -0.2770026326179504, 0.2809036374092102, 0.0837308466434479
0.1878187805414200, -0.0759917423129082, 0.0348425321280956, 0.1013741716742516, 0.1669298112392426, 0.8080073595046997, 0.2124553471803665, -0.6287501454353333, 0.1082663759589195, 0.2418939024209976, 0.1880037188529968, -0.1452481895685196, 0.0571615509688854, 0.0005317094619386, 0.3890348970890045, 0.0680986419320107, 0.2050211876630783, -0.0301479194313288, 0.0788243487477303, 0.0663997828960419, 0.2470497637987137, 0.1087840944528580, -0.5390532016754150, -0.3199751079082489, -0.1287124156951904, 0.1550980061292648, 0.2790606915950775, -0.0364569276571274, 0.1936804950237274, -0.2197612375020981, -0.0012199467746541, -0.0986116155982018, -0.1075229644775391, -0.0536513216793537, -0.3159805536270142, 0.2603650689125061, 0.1370301395654678, 0.0363766103982925, 0.1083512902259827, -0.2392951101064682, 0.0718087106943130, 0.1308908164501190, -0.5913241505622864, 0.1619934290647507, 0.3137467205524445, -0.0888915359973907, 0.0962039232254028, -0.5267521739006042, -0.0659890994429588, 0.2898034453392029, 0.1424764990806580, -0.1127655059099197, -0.1923613399267197, 0.2103042900562286, 0.1918672174215317, -0.0384021513164043, 0.0041270791552961, 0.1700711250305176, 0.4374100267887115, 0.1867690682411194, -0.4360909163951874, -0.2634010016918182, 0.1644329130649567, 0.0522312186658382
-0.0703728869557381, 0.0634865164756775, -0.2020532041788101, 0.2754937112331390, -0.2395422309637070, 0.8590717315673828, 0.0000059203593992, -0.1495132595300674, 0.1440963745117188, 0.3949552476406097, 0.1028009355068207, -0.1370239406824112, 0.2571261525154114, 0.0035018774215132, 0.0992688387632370, 0.3409335017204285, 0.1665298640727997, 0.0716861188411713, -0.1843586564064026, -0.0756074860692024, -0.1874370425939560, -0.2116314917802811, -0.7052161097526550, -0.4044421017169952, -0.2678957283496857, 0.1270387023687363, 0.3369736969470978, 0.0755514129996300, 0.3684987723827362, -0.0907504186034203, -0.2094314992427826, -0.0056389886885881, 0.0509329773485661, -0.0452175140380859, -0.0253816284239292, 0.2312761545181274, 0.1394913047552109, 0.1038457229733467, 0.0178076662123203, -0.1131001785397530, 0.1305721849203110, 0.1397666931152344, -0.6044787168502808, 0.1849295943975449, 0.2519004344940186, -0.2175152152776718, -0.0457763597369194, -0.4426439106464386, 0.0012727183056995, 0.2210507541894913, 0.1413590759038925, -0.0295344758778811, -0.3002984225749969, 0.3176957666873932, 0.0657758265733719, 0.0133104352280498, 0.1312048435211182, 0.0871097370982170, 0.1550688594579697, 0.0729454606771469, -0.1941205859184265, -0.1082012131810188, 0.1298277676105499, -0.0856248736381531
0.0861318483948708, -0.1511657834053040, 0.1935888230800629, -0.0412626378238201, -0.2455392032861710, 0.5263034701347351, -0.3066813051700592, -0.0714350044727325, 0.2291389256715775, 0.4456021785736084, 0.0867859572172165, 0.0617154985666275, 0.5262977480888367, 0.0689293295145035, 0.0604028254747391, 0.0972724854946136, 0.1040325611829758, 0.0632920935750008, 0.2484123557806015, -0.3366027176380157, 0.0224391240626574, -0.3796435892581940, -0.2076864093542099, -0.2651234269142151, -0.2299844622612000, -0.0276342332363129, 0.2773976027965546, 0.0980475991964340, 0.2507722079753876, 0.2006148397922516, -0.3645084500312805, -0.0741799622774124, 0.2548897564411163, -0.0870558172464371, 0.3255993127822876, 0.3066021502017975, 0.2998125553131104, 0.2464602887630463, -0.0821136906743050, -0.1541381031274796, -0.0569668151438236, 0.0520235486328602, -0.6896732449531555, 0.1040417477488518, -0.0999990105628967, -0.0446038581430912, 0.0472752153873444, -0.1390662789344788, -0.0106071112677455, 0.1513829678297043, 0.0157585367560387, 0.2770078182220459, 0.2571110427379608, 0.1855280399322510, 0.3635177910327911, -0.0212713535875082, 0.1129984557628632, 0.0338692665100098, -0.5802289843559265, -0.1068019568920135, -0.0048440508544445, -0.0319589935243130, 0.1231494471430779, 0.1530376225709915
0.0494992546737194, -0.0338022112846375, -0.0793535187840462, 0.2824190855026245, 0.1363447457551956, 0.3541733026504517, -0.6429305076599121, -0.3477315306663513, 0.2244031131267548, 0.2947463393211365, -0.0708226263523102, 0.3016847372055054, 0.3996096849441528, -0.1749660372734070, -0.1148283556103706, 0.0216352511197329, 0.0000625378670520, 0.0016825452912599, 0.1815106868743896, -0.4979056715965271, -0.4009705483913422, 0.0857777893543243, -0.1054432541131973, -0.2520236372947693, -0.0981960222125053, 0.0184060987085104, 0.2230399549007416, 0.2061377018690109, 0.2915796935558319, 0.2588464915752411, -0.5771932005882263, -0.0584655627608299, 0.3647266030311584, -0.0063572106882930, 0.3392120003700256, 0.2165714055299759, 0.2145515978336334, 0.3374145328998566, -0.0741902366280556, -0.0791481584310532, 0.0952153429389000, -0.1304952651262283, -0.4637643992900848, 0.1009697914123535, -0.0454966425895691, 0.0944091156125069, 0.0358764231204987, -0.3070864677429199, 0.0064299837686121, 0.0932905972003937, 0.1524150967597961, 0.1477965116500854, 0.4325380921363831, -0.0505383200943470, 0.0483605302870274, 0.1287805736064911, -0.2412376552820206, 0.3019883632659912, -0.9932008981704712, -0.1902478784322739, 0.1652937829494476, 0.1665455251932144, 0.1152089536190033, -0.1283182203769684
-0.0965320542454720, -0.0372401811182499, 0.1245521828532219, 0.3984501659870148, 0.2693673968315125, 0.0093016056343913, -0.4509002566337585, -0.4842670261859894, 0.0103684170171618, 0.2658299505710602, 0.0309389792382717, 0.1779119521379471, 0.0789105892181396, 0.1481483131647110, 0.0001420659245923, 0.0269432459026575, -0.2485357820987701, 0.1727012842893600, 0.0322416052222252, -0.6846004724502563, 0.0002896022633649, -0.0096242455765605, 0.0072052734903991, -0.1101773902773857, 0.0135879628360271, -0.2041756957769394, 0.0721036568284035, 0.4289803802967072, 0.2451709657907486, 0.3435285687446594, -0.5027620792388916, 0.3245673775672913, 0.1663303673267365, -0.0342792794108391, -0.0066207135096192, 0.0960185378789902, 0.2256491035223007, 0.0628368109464645, -0.3910800218582153, -0.1891304403543472, 0.2841833233833313, 0.2541455030441284, -0.3322696089744568, 0.2326738685369492, -0.1124946102499962, 0.2104303836822510, 0.2415698915719986, -0.1767151057720184, -0.0242077279835939, 0.1810448318719864, -0.0873009413480759, 0.0649726912379265, 0.3416352570056915, 0.0252153314650059, -0.0014175616670400, -0.0905440896749496, -0.4090990722179413, 0.2949920892715454, -0.4844843149185181, -0.0344916991889477, 0.2517240047454834, 0.1027970239520073, -0.0632807984948158, 0.1141911223530769
-0.0802215114235878, 0.3333048224449158, 0.2363619953393936, 0.0139692854136229, 0.4473752677440643, 0.0140925738960505, 0.1241553947329521, -0.4325397610664368, -0.0414875335991383, 0.0495509020984173, -0.1483461111783981, 0.3956174552440643, -0.2238051891326904, -0.0886425822973251, 0.1029833927750587, -0.2582380771636963, 0.0435798354446888, -0.0077612781897187, -0.0147598423063755, -0.3531259000301361, 0.5979417562484741, 0.1395105272531509, 0.0860054343938828, 0.0498366169631481, -0.0513982847332954, 0.0242356024682522, -0.4352181851863861, -0.0153655773028731, 0.0323833227157593, 0.1918240487575531, -0.4762473702430725, 0.4303269982337952, 0.0155167588964105, 0.0004966646665707, 0.1540404111146927, -0.0648020505905151, 0.4042299985885620, 0.0591020025312901, -0.4036345779895782, -0.1892687380313873, 0.2172761857509613, 0.3767596781253815, -0.2071880847215652, 0.0075528882443905, 0.0902575850486755, -0.0846395418047905, 0.2936577200889587, -0.0784334167838097, 0.0621866174042225, 0.2648442685604095, 0.0727777704596519, -0.2615694999694824, -0.1874362975358963, 0.1232736185193062, -0.5442729592323303, -0.0626194551587105, -0.1533749997615814, 0.0619379021227360, -0.4476570487022400, -0.1206196025013924, 0.6762467622756958, 0.2509121000766754, 0.0708574876189232, 0.2558591663837433
-0.0793168693780899, 0.5112928748130798, 0.0632233470678329, -0.3093366622924805, 0.1671014279127121, 0.0836320668458939, 0.3973597288131714, -0.0237716268748045, 0.1404807567596436, 0.4487794935703278, -0.0222920197993517, 0.2746060490608215, -0.0776478871703148, -0.3947762548923492, 0.2056228667497635, -0.5641500353813171, 0.1156812384724617, -0.2860778570175171, 0.5948457717895508, -0.5021858215332031, 0.6482498049736023, 0.3399020135402679, 0.0704539790749550, 0.0973095744848251, -0.1064288318157196, -0.0333997011184692, 0.2562393546104431, 0.2717557549476624, -0.1987089961767197, 0.1086442098021507, -0.1276901662349701, 0.1313943713903427, 0.4167772531509399, 0.1581031382083893, 0.0812769010663033, 0.2317318469285965, 0.1808529049158096, -0.1924973726272583, -0.7384810447692871, -0.1264953911304474, 0.3714684844017029, 0.6250128149986267, -0.0882687941193581, 0.2036612480878830, -0.0615299604833126, -0.0428443737328053, 0.2529724538326263, -0.1056300699710846, 0.3243104219436646, 0.3273706436157227, -0.0702033042907715, -0.0369209237396717, -0.4683144986629486, 0.3230878412723541, -0.2915546894073486, -0.3835461735725403, -0.2143439650535583, -0.0138860642910004, 0.3790527880191803, 0.0908664390444756, 0.0925246030092239, 0.5882731676101685, -0.4899839460849762, 0.3840989470481873
-0.5303028225898743, 0.1800214946269989, -0.2621513307094574, 0.4908544719219208, -0.3915057778358459, 0.2669389545917511, -0.0044408529065549, 0.1595456302165985, 0.0214981921017170, 0.0032246222253889, 0.1997459828853607, 0.5865392684936523, 0.4662617743015289, -0.1604084968566895, 0.5107048153877258, -0.7788936495780945, -0.2618377804756165, 0.4848983287811279, 0.0779828205704689, 0.0166397169232368, 0.3119099438190460, 0.4935649037361145, -0.2886902391910553, 0.0670133680105209, -0.2879772484302521, -0.6447026133537292, 0.5920578241348267, 0.2447717785835266, 0.1407927721738815, 0.3017847239971161, -0.7330117225646973, -0.3063797056674957, 0.5061875581741333, 0.6986552476882935, 0.0138080241158605, -0.1166851744055748, 0.6285307407379150, 0.2176975160837173, 0.0660001114010811, -0.0417292229831219, 0.0534018799662590, 0.2550964653491974, 0.1447243839502335, 0.3214458227157593, -0.2635973393917084, 0.1003615260124207, -0.3111210465431213, -0.2355327904224396, -0.2201093286275864, 0.0563330277800560, -0.0047333883121610, 0.4356466531753540, -0.0772426873445511, -0.0752615854144096, 0.6740473508834839, 0.3242513537406921, -0.6831519007682800, 0.3457974791526794, 0.2841047644615173, -0.1915111541748047, -0.1906299740076065, 0.6491397023200989, -0.2315382361412048, -0.0888886377215385
-0.1553331315517426, -0.3778540194034576, -0.0116206724196672, 0.0574006736278534, 0.2148814052343369, 0.3019757568836212, -0.3644830882549286, 0.4904132187366486, 0.2184456437826157, -0.4135474860668182, 0.6030021309852600, 0.4507706761360168, -0.4430739283561707, -0.2979303896427155, 0.3596633672714233, -0.3007234930992126, -0.1521424055099487, 0.6312302947044373, -0.4009498655796051, 0.2252816557884216, -0.3574275970458984, 0.3909507691860199, -0.3360407948493958, 0.2703355252742767, -0.3202898800373077, 0.3954162597656250, 0.0777092874050140, 0.2856096625328064, 0.5829923152923584, 0.3060135841369629, -0.5389887094497681, 0.5189315080642700, -0.3716232776641846, 0.4168309271335602, 0.5270311236381531, -0.5166771411895752, 0.3105434477329254, 0.3147672116756439, 0.5545707941055298, -0.4103532433509827, 0.6803995370864868, 0.1494564116001129, -0.5620780587196350, -0.3647243082523346, 0.4013231992721558, -0.2378025501966476, 0.4049017429351807, 0.4053111970424652, -0.7128601670265198, 0.3456755280494690, -0.4690298438072205, -0.1546817421913147, 0.3428216576576233, 0.3354578316211700, -0.6437235474586487, 0.4372584521770477, 0.2428330332040787, -0.5168570876121521, -0.0173959359526634, -0.5558127760887146, -0.6126128435134888, -0.3056949675083160, 0.5038095712661743, 0.6023048162460327
0.3132432997226715, -0.8836368322372437, 0.0438994914293289, -0.4531995356082916, 0.4117918014526367, 0.4575033187866211, 0.5969157814979553, 0.4114345908164978, -0.1376343965530396, -0.6600183844566345, 0.3364156186580658, 0.0851863026618958, -0.1561338752508163, 0.1930595785379410, -0.2494000643491745, -0.1134163811802864, -0.3666790425777435, 0.1299190372228622, 0.0584665834903717, 0.5411584973335266, -0.6528977751731873, -0.0099101141095161, 0.6986468434333801, 0.1446318328380585, 0.1326680034399033, -0.1756728440523148, 0.2419879883527756, -0.1109351366758347, -0.0864659622311592, 0.1505583822727203, -0.0782679617404938, 0.1835876554250717, -0.3088839352130890, 0.3857896625995636, 0.1748814731836319, -0.2416638135910034, -0.4523491263389587, 0.2891913354396820, 0.4897401630878448, 0.0932001993060112, 0.1888026744127274, -0.2300765365362167, 0.1331638395786285, 0.2827653586864471, 0.4028561115264893, -0.2656756043434143, 0.0486300848424435, 0.4128395617008209, -0.5906660556793213, -0.4105956256389618, 0.3199710845947266, 0.3001197576522827, 0.4307316541671753, -0.1862182915210724, -0.1784908175468445, 0.5542434453964233, 0.3019392490386963, -0.2992125451564789, 0.0411314219236374, 0.1502057462930679, -0.5564125776290894, -0.5603752732276917, 0.2301483601331711, 0.1847961544990540
0.0229995306581259, -0.3712277710437775, -0.2348908483982086, 0.1606152504682541, 0.0572917312383652, -0.0631500557065010, 0.1494856029748917, 0.2933237254619598, -0.1384553611278534, -0.0186689030379057, 0.3662971258163452, -0.3198367655277252, -0.1741448789834976, -0.0091955922544003, -0.1202475056052208, -0.0851832181215286, -0.4047521650791168, 0.3981010913848877, 0.1619911938905716, -0.0209274031221867, -0.3470587134361267, -0.0970935896039009, -0.2763957381248474, 0.0328356698155403, 0.3600136935710907, 0.1949636787176132, 0.2584083974361420, 0.0488366782665253, -0.0058106495998800, 0.2485904544591904, -0.1681461632251740, 0.1614580154418945, -0.3823168575763702, 0.0550217926502228, 0.1538036912679672, -0.1566008925437927, -0.0868783891201019, 0.3126911520957947, 0.1569892466068268, 0.1761825382709503, 0.0815602242946625, 0.6416693329811096, 0.1969250738620758, 0.3047542870044708, 0.2884247004985809, -0.5708445310592651, 0.2933086156845093, 0.5920217037200928, -0.4814177155494690, 0.4516178071498871, 0.0473607704043388, -0.0624419227242470, 0.5131653547286987, -0.2373407632112503, -0.4303324818611145, 0.0794774517416954, 0.4101926386356354, 0.0367659516632557, -0.0816988497972488, -0.1221266984939575, -0.1543669700622559, -0.6208155751228333, -0.3557609617710114, 0.4200829565525055
0.0616793148219585, 0.0056431568227708, -0.2132559716701508, 0.1163026764988899, -0.0039935428649187, 0.0972389429807663, 0.1574627310037613, 0.1641392707824707, -0.0665033310651779, -0.1754968166351318, 0.2177838087081909, -0.3283346891403198, -0.1313953101634979, 0.2881051599979401, -0.0836411416530609, -0.0680652484297752, -0.3119145929813385, -0.1118742749094963, 0.1235354691743851, 0.0341301970183849, 0.0146167743951082, 0.1414235979318619, 0.0818777233362198, 0.0816356539726257, 0.2679234445095062, 0.0382793396711349, 0.1319867670536041, 0.0213896986097097, -0.0729162693023682, -0.0406730398535728, 0.0085174096748233, 0.1237551867961884, -0.3816514313220978, 0.0632273331284523, 0.0072592934593558, 0.0461741946637630, 0.2148866355419159, -0.0140721881762147, 0.1653420776128769, -0.3668797314167023, 0.2711240351200104, 0.1146154478192329, -0.0150866508483887, 0.2883551716804504, 0.1699689626693726, -0.5829463005065918, -0.1484606415033340, 0.4022738933563232, -0.2790626883506775, 0.1386395096778870, 0.0231217313557863, -0.0946793407201767, 0.1956538408994675, -0.2651623189449310, -0.3638697862625122, 0.1045487225055695, -0.0488365404307842, -0.1774410456418991, -0.1071244925260544, -0.1100870519876480, -0.2788129448890686, -0.6332088112831116, -0.2433461993932724, 0.2700945138931274
-0.2181454002857208, 0.0971935540437698, 0.1902002096176147, 0.3397966325283051, 0.3047452270984650, 0.3549609780311584, 0.2351314723491669, -0.1930091679096222, -0.0456718280911446, 0.1418190151453018, 0.2092003822326660, -0.0865824073553085, 0.2227084040641785, 0.1504953503608704, 0.3144965171813965, -0.5658922791481018, -0.1859914958477020, 0.0161561183631420, 0.1325983107089996, 0.2354634553194046, 0.3669024407863617, 0.2700805068016052, -0.1119096353650093, 0.1775904148817062, -0.0233019106090069, -0.1387790143489838, 0.0696483999490738, -0.1475063711404800, 0.0645198300480843, -0.1978237628936768, 0.0992947220802307, -0.0343413949012756, -0.0071949791163206, 0.4056488573551178, 0.0319157764315605, 0.0720086172223091, 0.1033809632062912, 0.0177787262946367, -0.0229131579399109, -0.2028478682041168, 0.2828392982482910, -0.0521188676357269, -0.4868085086345673, 0.1593659371137619, 0.2350743412971497, -0.4072162806987762, 0.0297022741287947, 0.3561688661575317, -0.2065005153417587, 0.1821957528591156, 0.0533643290400505, 0.0440650582313538, 0.2492338567972183, -0.0449500717222691, -0.2466863840818405, -0.1652806997299194, -0.1951099485158920, -0.2182077467441559, 0.0863948017358780, -0.0408907011151314, -0.7746933102607727, -0.2389072030782700, -0.0643500536680222, 0.3245528936386108
-0.1826900541782379, 0.3196686506271362, 0.1389138400554657, 0.0803654417395592, -0.0151847545057535, 0.3795073330402374, 0.1479041725397110, -0.2405948489904404, 0.1703552752733231, -0.1017519384622574, 0.1865073889493942, -0.0762580707669258, 0.1555243730545044, 0.0215366724878550, 0.3974383175373077, 0.1691665500402451, 0.0449849404394627, 0.0242757089436054, -0.1578252166509628, 0.0419781990349293, 0.1192935258150101, 0.2766464948654175, -0.0176329258829355, 0.3237362504005432, -0.0019492967985570, -0.0781108289957047, -0.0273430589586496, -0.4302386939525604, 0.1432568728923798, -0.2182532250881195, 0.0325260348618031, 0.3569821715354919, -0.0258481949567795, 0.1387658715248108, -0.1753152012825012, -0.0029438519850373, 0.2275426685810089, -0.2931253314018250, 0.3020546436309814, -0.1813172996044159, 0.0722814723849297, -0.2319100946187973, -0.4045656919479370, -0.0522572174668312, 0.0048249103128910, -0.1437890082597733, 0.2196390777826309, 0.2305896431207657, 0.2114334702491760, -0.0936118438839912, 0.0853171423077583, 0.0207175854593515, 0.0013275966048241, 0.0385888293385506, -0.2286082506179810, -0.2847001254558563, -0.0584893301129341, -0.2031606435775757, 0.5489732623100281, 0.1858205497264862, -0.6173111200332642, 0.0143501721322536, 0.0814943909645081, 0.3094680905342102
0.1174758821725845, -0.0433946549892426, 0.1566749364137650, 0.0552557483315468, -0.1057651340961456, 0.4812261462211609, 0.1319830864667892, -0.4388163387775421, 0.1459436565637589, -0.0060747205279768, 0.3922535479068756, -0.0206135381013155, 0.0897340178489685, -0.0773561969399452, 0.1044747158885002, 0.3334156870841980, -0.0248639006167650, -0.0393478088080883, 0.1791573017835617, 0.0643840730190277, -0.1444698870182037, 0.4968111217021942, 0.0460550636053085, 0.1379611343145370, 0.2928080558776855, 0.0680605247616768, 0.2633946239948273, -0.3465123772621155, 0.0675455257296562, 0.0580260492861271, 0.0180029012262821, 0.4312052428722382, -0.0179169885814190, 0.1043010205030441, -0.1769516468048096, 0.0091360108926892, 0.0157901663333178, 0.0596469156444073, 0.2625342905521393, -0.5224055051803589, 0.0017069227760658, -0.3274812400341034, -0.1856121122837067, -0.0481205657124519, -0.0025941689964384, -0.1257166117429733, 0.2720007002353668, 0.2129217982292175, 0.0541132502257824, 0.1799837350845337, 0.2302093356847763, 0.1797802746295929, -0.6093586087226868, 0.0300202853977680, -0.2267180085182190, -0.1403001099824905, 0.0174204446375370, -0.0987809449434280, 0.3804355263710022, 0.2210837453603745, -0.0359296500682831, -0.1740857958793640, 0.0773833021521568, 0.0090168556198478
0.1934864372014999, -0.0256639923900366, 0.2444479614496231, -0.0385286659002304, -0.4280478656291962, 0.7876026034355164, 0.0706093087792397, -0.2805379927158356, 0.1486947983503342, 0.0652881264686584, 0.2601516842842102, 0.1216941177845001, 0.1599622368812561, -0.0816798582673073, 0.2469058185815811, 0.3670805692672729, 0.1109580099582672, 0.0077822194434702, 0.4195029139518738, 0.1400835216045380, -0.7139620780944824, 0.2091575860977173, 0.1999620199203491, -0.0168853551149368, -0.0132317524403334, 0.1059418916702271, 0.4246411323547363, 0.0754581689834595, 0.1709357053041458, 0.0360091514885426, 0.1094859912991524, -0.2075041383504868, 0.2361745387315750, -0.0504002869129181, -0.5086812973022461, 0.0595835633575916, 0.1664317101240158, 0.1633395850658417, 0.2785500586032867, -0.2800456285476685, -0.1764551848173141, -0.1560374051332474, -0.1227843016386032, 0.0210490319877863, -0.0063721924088895, -0.0243588946759701, -0.0613958425819874, 0.0975711047649384, 0.0550235547125340, 0.1461143940687180, -0.0002091781061608, 0.0453964993357658, -0.7370142340660095, 0.1482932269573212, 0.1594789326190948, -0.2035501748323441, 0.2485053986310959, 0.2563954889774323, -0.3025325536727905, -0.0106378505006433, 0.1852331608533859, 0.1342783719301224, 0.4213157594203949, -0.2593067884445190
0.0550203062593937, -0.0787748023867607, -0.0488991662859917, -0.1822541803121567, -0.7242237925529480, 0.8581170439720154, 0.2496853917837143, -0.3105174303054810, 0.1077556535601616, 0.2714599967002869, 0.1629654616117477, 0.0445533506572247, 0.2678434252738953, -0.0113896615803242, -0.0425612963736057, -0.0122670922428370, -0.0245748851448298, -0.1208290904760361, 0.3823411464691162, 0.2404136210680008, -0.4031724333763123, 0.1543578952550888, 0.1296128481626511, -0.0337591134011745, -0.0534097738564014, 0.0130896884948015, 0.2914661765098572, -0.0309217814356089, 0.2100053578615189, -0.1535045653581619, 0.0209691915661097, -0.2967156469821930, 0.1497418433427811, 0.1678179055452347, 0.5850768685340881, 0.1097158342599869, 0.3927283287048340, 0.0982386916875839, 0.1158894822001457, -0.1602492928504944, 0.1230488494038582, -0.5125390291213989, -0.0442203022539616, -0.0016311157960445, 0.0891241729259491, 0.2218778580427170, -0.1487260311841965, -0.1027240008115768, 0.1630036383867264, -0.1568993330001831, 0.1367702186107635, 0.0518559105694294, 0.1955704540014267, -0.0439913012087345, 0.1000887006521225, -0.0221659317612648, 0.1147899553179741, -0.1474156379699707, -0.5715026855468750, -0.0188559312373400, -0.0715860724449158, -0.1738834083080292, 0.1128076314926147, -0.1247642785310745
0.1087398454546928, -0.0155324991792440, -0.0143584804609418, -0.0756829902529716, 0.1183037087321281, 0.5403108000755310, -0.4855636358261108, -0.4379379153251648, 0.1613023877143860, 0.2379239350557327, 0.2912853956222534, 0.1103309243917465, 0.0326882116496563, 0.3425147831439972, -0.2611855268478394, -0.1679644733667374, -0.3861679136753082, -0.0225649196654558, 0.2348750382661819, 0.1895719617605209, -0.2709049880504608, -0.0698770284652710, 0.1845853626728058, 0.0196576397866011, -0.0052898270078003, -0.0574152022600174, -0.0269668586552143, 0.0471804626286030, 0.1829932034015656, -0.2428014129400253, -0.3225042521953583, -0.0269618183374405, 0.2268866896629333, 0.0983952209353447, 0.5137543678283691, 0.0332519523799419, 0.4200037419795990, 0.0864105299115181, 0.0981946811079979, -0.0696115344762802, 0.1872603446245193, -0.6360948681831360, 0.3227386772632599, 0.0685408115386963, 0.0054598711431026, 0.4168148040771484, 0.0182661209255457, -0.0918826013803482, 0.0285293646156788, -0.2837900817394257, 0.0646452829241753, 0.2434165477752686, 0.4768523871898651, -0.0502873733639717, 0.1551174819469452, 0.1729410886764526, -0.2324822247028351, -0.1758285909891129, -0.7945011854171753, 0.0599118210375309, 0.0379737764596939, 0.1313574761152267, 0.0707314237952232, 0.1254779547452927
0.4085371494293213, -0.1590858250856400, 0.0740552321076393, -0.0029045951087028, 0.3225345611572266, 0.2574035823345184, -0.5451537966728210, -0.3189793825149536, -0.0136623419821262, -0.0213827844709158, -0.1267245560884476, -0.0106945894658566, -0.1061652600765228, 0.1081407219171524, -0.1379888802766800, -0.0145539715886116, -0.1265572309494019, -0.1185830608010292, 0.0736602321267128, -0.1420384198427200, -0.0841311290860176, -0.0772648006677628, 0.2390194386243820, -0.0583729445934296, 0.0550689734518528, 0.1055949777364731, -0.1325662136077881, 0.1163810044527054, 0.1554901599884033, -0.0435567721724510, -0.3112099170684814, 0.2184834331274033, 0.2265275418758392, 0.1479846835136414, 0.1022840216755867, 0.0907744690775871, 0.3828535676002502, 0.0998847857117653, -0.0700493082404137, -0.1240609809756279, 0.2023476958274841, -0.6150248646736145, 0.3304431140422821, -0.0425942726433277, -0.0778115093708038, 0.4058059453964233, -0.0374677777290344, -0.0056813312694430, 0.0408900827169418, -0.0838435441255569, 0.0455592609941959, -0.0332752801477909, 0.0894197374582291, 0.0393541604280472, -0.1255301386117935, 0.2548693716526031, -0.3578109145164490, 0.0782414674758911, -0.9663634300231934, 0.0943158790469170, 0.2798935472965240, 0.2729519009590149, 0.2725334167480469, 0.1501173824071884
0.2577744722366333, 0.1590978205204010, 0.2216750383377075, -0.1906272023916245, 0.1072354763746262, -0.0886474922299385, -0.2815696597099304, -0.1837588995695114, -0.0186272859573364, 0.1919163018465042, 0.1326427608728409, 0.1090783253312111, -0.0426349602639675, 0.4026826918125153, -0.1265574097633362, -0.2224472761154175, -0.0847223624587059, -0.1344857662916183, -0.3165690302848816, -0.1523647904396057, 0.4267420470714569, -0.2295226156711578, 0.0108332084491849, -0.0508029162883759, 0.0237287487834692, -0.0920656993985176, -0.0418622419238091, 0.0113909123465419, 0.2179771065711975, 0.0626122727990150, -0.2023241668939590, 0.3722679615020752, 0.2041820734739304, 0.0658237487077713, 0.0651261731982231, 0.1306656599044800, 0.3067028224468231, 0.1197582110762596, -0.3249422013759613, -0.2063218206167221, 0.0625226274132729, -0.1549308896064758, 0.3214337527751923, -0.0871776789426804, -0.1113874688744545, 0.2161898165941238, 0.1121674403548241, -0.3491895496845245, -0.0463278181850910, -0.0160178784281015, 0.0042219199240208, -0.0935214012861252, -0.3208941519260406, -0.0104653611779213, -0.3336384594440460, 0.2062457650899887, -0.3438382446765900, 0.0377547405660152, -0.8963172435760498, -0.0607642941176891, 0.5666880011558533, 0.3938159346580505, 0.3791001737117767, 0.2773419618606567
0.0186383612453938, 0.3534078598022461, -0.0533746629953384, 0.3998257517814636, 0.3791499435901642, -0.6013163924217224, -0.2198796421289444, 0.2088460177183151, 0.0476417243480682, 0.2642170190811157, -0.1293653398752213, 0.1790661960840225, -0.0394861027598381, -0.1803902536630630, 0.0562587156891823, -0.4743435680866241, 0.0582575425505638, 0.0435088351368904, 0.1246061474084854, -0.5214186906814575, 0.0467364005744457, 0.2360943108797073, 0.0929844379425049, 0.0758998170495033, 0.3068684339523315, 0.2020860761404037, 0.0675079599022865, 0.1515183448791504, -0.1204285621643066, 0.3842920660972595, -0.1828035265207291, 0.3391792178153992, 0.3933680951595306, 0.3322850763797760, -0.1966734379529953, 0.4554142057895660, 0.6486493945121765, -0.0085253054276109, -0.9235880374908447, 0.0667984634637833, 0.4030771553516388, 0.5592722892761230, 0.0017397066112608, 0.2320999801158905, -0.2792106866836548, 0.0887689962983131, 0.1828375011682510, -0.2902688682079315, 0.1110880076885223, 0.3980139195919037, 0.0888509526848793, 0.1174422577023506, -0.8697574734687805, 0.0663146674633026, -0.0716997832059860, -0.0655847266316414, 0.1510807424783707, 0.0987253487110138, -0.1256020218133926, -0.1266371607780457, -0.1294842511415482, 0.6830075979232788, -0.5095976591110229, 0.1896578222513199
-0.0749639719724655, 0.1433938592672348, -0.0166146568953991, 0.4346818923950195, 0.1405913084745407, 0.2072877436876297, -0.1268152147531509, -0.0239645838737488, -0.0003578216419555, 0.1328279376029968, 0.0725092142820358, 0.0444669947028160, -0.0072236079722643, -0.0998675525188446, -0.1262470483779907, -0.4344402551651001, 0.3094500303268433, -0.1558345556259155, 0.3010419905185699, -0.2941239774227142, 0.5048025250434875, 0.6367158293724060, 0.5108370184898376, 0.4068639278411865, 0.0888694673776627, -0.0807759314775467, 0.3993279039859772, -0.0137140518054366, 0.1679484695196152, 0.1477357000112534, 0.0642308667302132, 0.1534387618303299, -0.1854479908943176, -0.1591924875974655, -0.1540623307228088, 0.3539951741695404, 0.9149376749992371, -0.0842765718698502, -0.0158460475504398, 0.4299050271511078, 0.4856410622596741, 0.4295282065868378, -0.0888374596834183, 0.0848874673247337, -0.5966219305992126, -0.3487206399440765, 0.5358378887176514, -0.5381953120231628, 0.2728356420993805, 0.5370344519615173, -0.1741094440221786, -0.3168292939662933, -0.0240543484687805, 0.3394756913185120, 0.0962845608592033, -0.0867159739136696, -0.4154862165451050, 0.0648217275738716, 0.3029730319976807, 0.1742556095123291, -0.0027526812627912, 0.5804349780082703, -0.1518408209085464, -0.0479612089693546
-0.1154599860310555, -0.0515832342207432, -0.4363461732864380, 0.0527161918580532, 0.2696189582347870, 0.3472145795822144, 0.1875361502170563, 0.5369029641151428, -0.2823148965835571, -0.2173887342214584, 0.2119503915309906, 0.2639246284961700, -0.3253723382949829, 0.1610113680362701, -0.3004390299320221, 0.1631243377923965, 0.3529431819915771, 0.6193949580192566, -0.2909049689769745, 0.6537777781486511, -0.2064277231693268, 0.1491085439920425, -0.2700317502021790, 0.1639020144939423, -0.0818899869918823, -0.3651707470417023, -0.1771278679370880, 0.1306724846363068, -0.0167665667831898, 0.0387381725013256, -0.0090289320796728, 0.3140293657779694, -0.1615445166826248, 0.3840160369873047, -0.2062120735645294, -0.4966543912887573, 0.3932203650474548, 0.2206014841794968, 0.5099354386329651, -0.1547788828611374, -0.1276987344026566, -0.0049809711053967, -0.1209515482187271, -0.6199496388435364, 0.2827064096927643, -0.1086705997586250, 0.1596523225307465, 0.3355962932109833, -0.7660374641418457, -0.6767719388008118, 0.1915189772844315, 0.7465159296989441, 0.5685168504714966, -0.3786121308803558, -0.4184731841087341, 0.7300122380256653, 0.2951638102531433, -0.4657495915889740, 0.2065823674201965, -0.5651466846466064, -0.4937207102775574, -0.3403586149215698, 0.5132417082786560, 0.1906848996877670
0.2486113160848618, -0.3332113921642303, 0.2202504426240921, 0.2367764860391617, 0.1586659997701645, 0.0089190118014812, 0.5615931153297424, -0.0124157089740038, -0.2397074848413467, -0.1605452299118042, 0.4215926229953766, -0.4159867465496063, 0.2135195881128311, 0.3733518719673157, -0.0780986398458481, 0.0692758858203888, -0.3745800256729126, -0.1673519462347031, -0.1004706993699074, 0.2673732638359070, -0.1623131334781647, -0.1792519241571426, -0.0500056967139244, 0.0508087724447250, 0.3420946300029755, 0.2909527420997620, 0.1733552813529968, -0.0201476104557514, -0.0574674420058727, 0.1156000047922134, 0.1429575234651566, -0.0345170721411705, -0.1073507070541382, 0.0413612648844719, 0.0728362426161766, -1.2012785673141479, -0.4208481311798096, 0.0753840208053589, -0.1400140970945358, -0.0948785170912743, 0.0442160703241825, -0.3904809057712555, -0.4105707406997681, 0.5755709409713745, 0.6332787871360779, -0.0782101377844810, -0.1664667576551437, 0.4036968648433685, -0.1134496480226517, -0.1236169561743736, 0.2392669618129730, 0.2726081311702728, 0.1767227649688721, 0.4100966155529022, 0.0813276544213295, 0.1039443686604500, 0.1813232600688934, 0.1459129750728607, -0.1572462767362595, -0.2436462938785553, -0.5920032262802124, -0.5241066217422485, 0.0880569741129875, 0.0950188636779785
-0.0476195067167282, -0.6386869549751282, -0.2432741224765778, 0.2556787729263306, 0.1097225993871689, -0.3662016987800598, 0.4200305044651031, 0.1549046933650970, -0.0897656232118607, -0.0192909818142653, 0.2984898686408997, -0.2478657662868500, 0.1312648355960846, -0.1235871762037277, -0.2239741683006287, -0.1727836728096008, -0.5332444906234741, 0.0498254261910915, 0.1140410527586937, -0.2677899599075317, -0.4799065291881561, 0.0014679781161249, -0.0402552373707294, 0.0184219088405371, 0.1075670570135117, -0.0885989069938660, 0.0418746173381805, 0.2327406555414200, -0.0743387565016747, 0.0905948430299759, 0.0249650422483683, 0.0562755987048149, -0.5668523907661438, 0.1083005666732788, 0.1102852672338486, 0.0055413530208170, -0.3433223068714142, 0.2735188007354736, 0.0804826170206070, -0.3449932634830475, 0.0267701074481010, 0.0461979433894157, 0.0883116573095322, 0.5355884432792664, 0.3581070899963379, -0.2704012691974640, -0.1426830589771271, 0.4664699435234070, -0.3765585124492645, 0.3368925452232361, 0.2206966131925583, 0.0340083464980125, -0.1086721643805504, -0.2128688395023346, -0.2798993289470673, 0.0013954229652882, 0.1035463735461235, 0.0831081792712212, 0.1697460263967514, 0.2116219401359558, -0.0581100322306156, -0.6915469765663147, -0.0936584919691086, 0.3541820943355560
-0.0341321676969528, -0.0219489224255085, 0.0194334443658590, 0.3004567921161652, 0.1721545010805130, -0.0860033929347992, 0.0747278705239296, 0.2618022859096527, 0.1457577496767044, 0.0923591107130051, 0.0621796399354935, -0.5400580167770386, 0.0430195666849613, 0.1248212829232216, 0.2707732319831848, 0.1314793825149536, -0.1540679186582565, -0.0736873373389244, 0.0245120190083981, -0.0426664873957634, -0.0134593341499567, 0.0965499728918076, -0.0484662316739559, 0.3103298544883728, 0.5982798933982849, 0.0515799634158611, -0.0246373936533928, 0.1681509613990784, 0.0663565397262573, -0.1029527783393860, -0.3020394146442413, 0.0699743404984474, -0.1388894319534302, 0.0648772493004799, 0.0442727953195572, 0.2113422900438309, -0.0928582549095154, -0.1411009132862091, -0.1490300148725510, -0.3414400815963745, 0.0428483560681343, 0.0236237905919552, -0.2103458791971207, 0.1787632405757904, 0.0192354414612055, -0.6149805784225464, -0.3809899389743805, 0.2466509193181992, -0.2105902135372162, 0.1655687242746353, 0.2262717485427856, 0.0712625533342361, -0.3432957530021667, -0.2041930854320526, -0.3527715504169464, 0.1999813765287399, -0.2599373161792755, -0.2649063467979431, 0.1718356609344482, 0.0801201462745667, -0.0446845404803753, -0.1066169887781143, -0.1917832195758820, 0.2648107707500458
-0.0955357626080513, 0.2845960259437561, 0.0495456457138062, 0.2211540341377258, 0.3293143212795258, 0.0282428171485662, 0.1912169158458710, 0.1436774432659149, 0.0643519908189774, 0.1161082088947296, 0.0846266523003578, -0.5487784147262573, 0.1107051074504852, 0.3134119212627411, 0.1478644013404846, -0.0298943985253572, -0.2629862725734711, -0.0262610111385584, -0.1822179555892944, 0.0920237377285957, 0.3861257135868073, 0.2712249159812927, 0.0873316079378128, 0.2173949927091599, -0.0930779278278351, 0.1510596722364426, 0.2257284373044968, 0.0554984360933304, -0.0595759898424149, -0.1063710972666740, 0.0378345511853695, 0.2053014487028122, 0.0667336061596870, 0.4530703723430634, 0.2493358105421066, 0.3025027811527252, 0.1563709825277328, -0.0981083363294601, 0.2036643326282501, -0.4338891506195068, 0.1637310385704041, -0.1035098582506180, -0.4604844748973846, 0.1185656413435936, 0.0047118999063969, -0.3740617036819458, -0.2907100617885590, 0.4461512863636017, -0.1215345859527588, 0.0745387598872185, 0.0834259241819382, 0.1229703500866890, -0.3148908019065857, -0.2183132320642471, -0.2395383715629578, 0.1049978658556938, -0.5707920193672180, 0.0197498295456171, 0.3353917598724365, 0.0062379115261137, -0.4467879533767700, 0.2110089212656021, -0.1212338805198669, 0.1083081141114235
0.0657136738300323, 0.1503615528345108, -0.1917590498924255, 0.2528482973575592, 0.2190415561199188, -0.1161719858646393, 0.0343847200274467, 0.1138762831687927, -0.0608765520155430, -0.1554326266050339, 0.1124613583087921, -0.2374119907617569, 0.1919437497854233, 0.0399576351046562, -0.0048657278530300, 0.1639521121978760, -0.0666050761938095, -0.0697735399007797, -0.2513414025306702, 0.0248289387673140, 0.3550604283809662, 0.4897697865962982, 0.4389009177684784, 0.0783988237380981, -0.0569282025098801, -0.0446205250918865, 0.0683822110295296, -0.2304355204105377, -0.0138869537040591, -0.1065147370100021, 0.0802905783057213, 0.2753359973430634, 0.2064901292324066, 0.1497755050659180, -0.0380079224705696, 0.0010333524551243, 0.3547143042087555, -0.0607838369905949, -0.0085104936733842, -0.0917122587561607, 0.1111621484160423, -0.3499144315719604, -0.2618714869022369, -0.0845258012413979, -0.3328222632408142, 0.0461404994130135, -0.0686472058296204, 0.6368879675865173, 0.2145244479179382, 0.0275797136127949, 0.0336758643388748, 0.3645136654376984, 0.0799526646733284, -0.0814932137727737, 0.0758131146430969, 0.1459023356437683, -0.9121991395950317, 0.0042609153315425, 0.0148682324215770, 0.1709904074668884, -0.4193505942821503, 0.2070542424917221, -0.4919038116931915, 0.3390763401985168
0.3167619407176971, -0.0861744955182076, 0.1624941378831863, -0.1450858712196350, 0.3822428882122040, -0.3735490441322327, 0.1104494556784630, -0.0795894265174866, 0.1903549283742905, -0.1848959326744080, 0.4034264683723450, 0.1367095559835434, -0.0416857823729515, -0.1018596366047859, 0.2699495553970337, 0.4611477553844452, 0.0614367276430130, -0.0047901174984872, -0.1392333507537842, 0.0993555784225464, -0.1662718057632446, 0.6978530287742615, 0.2971285283565521, -0.1083140447735786, 0.1815382987260818, 0.0104456814005971, 0.2438724786043167, -0.1559215784072876, 0.1324019432067871, 0.1487827152013779, 0.0662761554121971, 0.4004378020763397, 0.2945196032524109, -0.0252952016890049, -0.7193540930747986, -0.1646868288516998, 0.3773401975631714, -0.1343374103307724, 0.0815317705273628, -0.1055972278118134, 0.3115435838699341, -0.1461798101663589, 0.2104070335626602, 0.1304392814636230, 0.0587816424667835, 0.3124260008335114, 0.0036079718265682, 0.5318886637687683, 0.2370284795761108, 0.1748567372560501, 0.1036235392093658, -0.0801349952816963, -0.4302644729614258, 0.0072485683485866, -0.0742443874478340, 0.1122761890292168, -0.1440090239048004, 0.1058438122272491, -0.2335918247699738, 0.0357342436909676, 0.3410638868808746, -0.1451648175716400, -0.4654164314270020, 0.5207994580268860
0.4009050428867340, -0.4177454113960266, -0.0095134908333421, -0.3330716490745544, -0.1963994652032852, -0.0701818764209747, 0.3020135164260864, -0.0576192364096642, 0.1911382675170898, -0.0340384058654308, 0.3792843520641327, 0.2737689018249512, -0.1389907598495483, 0.2936337888240814, 0.0036404819693416, 0.4422414302825928, 0.1952641606330872, -0.0988285839557648, -0.1793019175529480, 0.3934510052204132, -0.5340078473091125, 0.4047172069549561, 0.0126291904598475, 0.1176309064030647, 0.0990878641605377, 0.0372294262051582, -0.1676738411188126, 0.0707274824380875, 0.1498994231224060, 0.0696067065000534, 0.0730769410729408, -0.1069062799215317, -0.1885066777467728, -0.2743783295154572, -0.5181450843811035, -0.0017274002311751, -0.0491399280726910, 0.0500553362071514, 0.4123377501964569, -0.0873973593115807, -0.0229503959417343, -0.3913619816303253, 0.3823667466640472, -0.0774203091859818, 0.4493487477302551, 0.1713355779647827, -0.1158503964543343, 0.1607423573732376, 0.0781084448099136, -0.2064922302961349, 0.1364155113697052, -0.1753744333982468, -0.7073985934257507, 0.2069450169801712, 0.0659818425774574, 0.2102286219596863, 0.7454658746719360, -0.0684822723269463, 0.0164304468780756, -0.2437198907136917, 0.3793935775756836, -0.1562095582485199, 0.0884730890393257, 0.0923572331666946
-0.0476928576827049, -0.1343500018119812, 0.0798222944140434, -0.1007242724299431, -0.4686238467693329, 0.2365322858095169, 0.2919468581676483, 0.0971698015928268, 0.1762598156929016, 0.0243811644613743, 0.2752583920955658, 0.1713589131832123, -0.1289699524641037, 0.0927689522504807, 0.0287922769784927, -0.3029299080371857, -0.2748076021671295, -0.2983347475528717, -0.4830757677555084, 0.4122075438499451, 0.0103831356391311, -0.2180034518241882, -0.3250276744365692, 0.3441649973392487, -0.1600999534130096, -0.0215014386922121, -0.1050452962517738, 0.0624894052743912, 0.1046838611364365, 0.1203176826238632, -0.3347299695014954, -0.2297251224517822, 0.0932755395770073, 0.1053770110011101, 0.8210656642913818, -0.0938170254230499, -0.2532001435756683, -0.0595234781503677, 0.3185242712497711, -0.1285921186208725, 0.1738373786211014, -0.3743589222431183, 0.6795979142189026, -0.4047032296657562, 0.2004013955593109, 0.0618854872882366, 0.0718365982174873, -0.0483506843447685, 0.0384954996407032, -0.3598345816135406, 0.0209727883338928, -0.0252442937344313, 0.7027956247329712, -0.3828063011169434, 0.0561122037470341, 0.1822420954704285, 0.1046223044395447, -0.2682722806930542, 0.1940175741910934, -0.2997296154499054, -0.0302349776029587, -0.4063006639480591, 0.4752497375011444, 0.1414286494255066
0.1240679249167442, -0.1756163835525513, 0.1411144286394119, 0.0749034211039543, 0.3260109424591064, 0.4230338335037231, -0.0085260560736060, 0.1075940355658531, 0.0007564840489067, 0.1905631273984909, 0.1192115694284439, -0.0955714881420135, -0.0953355133533478, 0.1734142303466797, 0.0965403094887733, -0.0691627040505409, -0.1376909464597702, -0.3296722173690796, -0.2030091136693954, 0.0416409373283386, 0.0540054999291897, -0.2915519475936890, -0.1675803661346436, 0.2341190874576569, 0.0125507554039359, 0.1050184667110443, -0.0321687869727612, 0.1080730482935905, 0.1405312716960907, 0.0098773343488574, -0.2614253163337708, 0.1334991902112961, 0.1276927590370178, 0.1398704499006271, 0.6322582364082336, -0.3458763957023621, -0.2063835412263870, 0.1118938475847244, 0.3207627236843109, -0.0082256617024541, 0.2337185740470886, -0.3438225388526917, 0.5099578499794006, -0.1513621360063553, 0.3658482432365417, 0.0164394099265337, 0.1256025880575180, -0.0187283866107464, 0.1011376529932022, -0.1615968346595764, 0.0857078731060028, -0.0107087865471840, 0.1926301568746567, -0.0761651024222374, 0.1229295507073402, 0.1907816231250763, -0.5155684351921082, -0.2434013038873672, 0.3405154347419739, 0.1276223808526993, -0.3138943314552307, -0.1097811609506607, 0.3010843098163605, 0.1940449029207230
0.1944270282983780, -0.1573440432548523, 0.0596681050956249, 0.1189430952072144, 0.2068461775779724, 0.2180332690477371, -0.3907982409000397, 0.3169849216938019, -0.1498346030712128, 0.2982690036296844, -0.0989169031381607, 0.0738702863454819, 0.1107376664876938, 0.1592172980308533, -0.1864721775054932, 0.1353763043880463, -0.0659805014729500, -0.2906435430049896, -0.2030224800109863, -0.1835477799177170, 0.1608023494482040, -0.2507133483886719, 0.4905092716217041, 0.1813437491655350, -0.1192733794450760, 0.0810196399688721, -0.0727976858615875, 0.1789811402559280, -0.0934301838278770, 0.0430698767304420, -0.4824194014072418, 0.1376182436943054, -0.0108545543625951, 0.1650909334421158, 0.1673247218132019, -0.3258702456951141, -0.2358893901109695, 0.1941258013248444, -0.2791563868522644, -0.0876557305455208, 0.2317600101232529, -0.1106166243553162, 0.6143020987510681, -0.0639167279005051, 0.3290177285671234, -0.0951198488473892, 0.2004641145467758, -0.1481226831674576, 0.1141273826360703, 0.0171781424432993, 0.0867279917001724, 0.1621265411376953, -0.1876262724399567, -0.0517983324825764, -0.0568532235920429, 0.2144665569067001, -0.5109917521476746, -0.0003280640230514, -0.2305866479873657, 0.0508527904748917, -0.2340904921293259, -0.0347194410860538, 0.1095959916710854, 0.0752871036529541
0.2402152568101883, -0.2055221050977707, 0.2308755367994308, -0.2200280576944351, 0.3618275225162506, 0.0037708906456828, -0.9665007591247559, 0.3562731742858887, 0.0671528428792953, 0.1979581713676453, 0.3378417193889618, 0.1331374943256378, 0.0282119810581207, 0.2625474929809570, -0.0958210155367851, -0.0606316141784191, -0.0842430442571640, -0.2630780935287476, -0.2880769073963165, 0.0769739970564842, -0.0369175523519516, -0.2143545299768448, 0.3593664467334747, 0.1632623821496964, 0.1904097050428391, 0.0460318699479103, 0.0537228621542454, 0.3598431646823883, 0.2838269174098969, 0.0319037847220898, -0.1316945403814316, 0.4508488774299622, 0.1161528900265694, -0.0737142115831375, -0.1654080897569656, -0.2119141072034836, -0.1892348974943161, 0.1112112477421761, -0.1852747797966003, -0.3654158115386963, 0.3211939334869385, -0.1183300316333771, 0.3709103465080261, 0.0268819257616997, -0.1091047748923302, 0.3069552779197693, 0.1774367392063141, 0.1254971772432327, -0.1789675056934357, -0.2903617322444916, 0.0976001396775246, -0.1633689552545547, -0.5473433732986450, 0.2287638932466507, -0.0123996073380113, 0.3550162017345428, -0.5257716774940491, -0.2177304029464722, -0.5198465585708618, -0.1288465708494186, -0.0180621780455112, 0.0005410400335677, 0.3005599975585938, 0.1876443773508072
-0.0816483050584793, 0.4627567231655121, 0.2482312619686127, 0.0011783594964072, 0.2353451102972031, -0.4317043721675873, -0.5815511345863342, 0.5010945200920105, 0.3166205585002899, 0.9805594086647034, 0.0094625744968653, 0.2026643455028534, 0.0331630408763885, 0.3749883770942688, 0.1379804164171219, 0.0019045674707741, -0.4691824316978455, -0.5586482882499695, -0.2688386738300323, -0.3742412924766541, -0.0368631780147552, -0.3594593107700348, -0.0569174513220787, 0.5675996541976929, 0.5955835580825806, -0.0814394801855087, 0.0615588203072548, 0.3518208563327789, 0.1257004439830780, 0.1657229214906693, -0.0551316738128662, 0.1951325535774231, 0.8237181305885315, 0.1497729271650314, -0.9456990957260132, -0.0072244489565492, 0.0190897956490517, -0.4977512359619141, -0.8524557352066040, -0.1860886216163635, 0.4460212886333466, 0.4009537100791931, 0.4035751819610596, -0.0731839686632156, -0.8050245046615601, 0.3828684389591217, 0.3872933685779572, -0.8836939930915833, 0.6383936405181885, -0.2267806082963943, 0.0352558158338070, 0.0437159314751625, -1.1865435838699341, 0.3624550998210907, -0.2343952506780624, 0.0187134109437466, 0.2002262771129608, 0.0207331571727991, -0.4184435606002808, -0.4045760929584503, -0.3776035308837891, 0.5872243046760559, -0.6619842052459717, 0.0670889467000961
-0.0598933435976505, -0.3503625094890594, 0.0078835068270564, -0.4166002869606018, 0.2033009976148605, 0.1640241742134094, -0.0942116528749466, -0.5298914313316345, 0.1251921057701111, 0.2952477633953094, 0.3453837335109711, -0.0647754594683647, 0.0607995130121708, 0.3611168563365936, 0.2203822433948517, -0.7266652584075928, 0.2960738241672516, 0.0417391546070576, -0.0356421768665314, -0.6730580925941467, 0.0717585608363152, 0.5820875167846680, 0.3897032439708710, 0.2907935380935669, 0.6380469202995300, -0.4797819554805756, 0.4878933429718018, 0.5365529060363770, 0.4520371854305267, -0.3598144948482513, -0.0300024170428514, -0.1526893824338913, -0.1316913068294525, 0.0904773473739624, -0.1312559843063354, 0.2977501749992371, 0.6802551746368408, -0.2469139844179153, 0.1287107914686203, -0.1288458257913589, 0.5839995741844177, 0.2195130437612534, -0.1349265575408936, -0.1191265359520912, -0.5998962521553040, 0.1683820784091949, 0.1190340593457222, 0.3247840702533722, 0.2590931057929993, -0.1117785722017288, 0.0998300090432167, -0.0834726542234421, 0.1366036981344223, 0.1688963025808334, 0.2278317809104919, 0.1343057304620743, -0.2553809285163879, -0.1883716583251953, -0.2122066766023636, -0.1485890448093414, -0.2833280861377716, 0.2068620622158051, 0.0242751631885767, 0.6033873558044434
0.0256871599704027, -0.1311667114496231, -0.5922255516052246, -0.2030207067728043, 0.0909566655755043, 0.3460434377193451, 0.1957712471485138, 0.6646744012832642, -0.5475222468376160, -0.3144921958446503, 0.1717691868543625, 0.1897445172071457, -0.4673263728618622, 0.4913986325263977, -0.4243033230304718, -0.0008775723981671, -0.1027120873332024, 0.2203574478626251, -0.3476740419864655, 0.0675064101815224, 0.1698532253503799, 0.1170480474829674, -0.0766370594501495, -0.2472102642059326, -0.2957233786582947, -0.1891166269779205, -0.4095589816570282, -0.0437918379902840, 0.0320996902883053, 0.3618655502796173, -0.0677126795053482, 0.3719086647033691, 0.1974804699420929, 0.3407127261161804, 0.2352497875690460, -0.4160304963588715, 0.2713959813117981, 0.1440625041723251, 0.4077200889587402, -0.1012635976076126, 0.0774459168314934, -0.0957121029496193, 0.2049908787012100, -0.2085412144660950, 0.4341307580471039, -0.4591689407825470, -0.0631198883056641, 0.2787440419197083, -0.2678832709789276, -0.3524057269096375, 0.0908039361238480, 0.3065823018550873, 0.1313368976116180, -0.0217194296419621, -0.3975609838962555, 0.4882222712039948, 0.3076683580875397, -0.5205814242362976, -0.6132380962371826, -0.4083479642868042, 0.2581784725189209, -0.1791252791881561, 0.2792879939079285, -0.2189889252185822
0.4275258779525757, -0.6760042309761047, 0.0341582708060741, 0.0740365907549858, 0.2852846384048462, -0.1658713519573212, 0.3486456871032715, 0.1957840472459793, 0.0382700711488724, -0.2562862038612366, 0.4052923321723938, -0.1435975283384323, -0.0324811711907387, 0.0797915235161781, 0.1654589474201202, -0.0286431480199099, -0.4661748409271240, 0.3701563179492950, -0.3108089566230774, 0.2553560733795166, -0.3442643284797668, 0.2466686218976974, 0.0302285850048065, 0.0155269950628281, -0.3030465543270111, 0.1612709611654282, 0.1437275558710098, 0.3587402105331421, -0.0509506352245808, -0.0300509668886662, -0.4261606335639954, -0.2040695399045944, -0.1536715030670166, 0.2791242003440857, 0.5549407005310059, -0.7292547225952148, -0.2535106241703033, 0.1672727465629578, -0.2149671316146851, -0.0905476137995720, 0.1388811469078064, -0.3485766053199768, 0.0994985029101372, -0.0262341927736998, 0.6744560599327087, -0.3041762411594391, -0.1642057299613953, 0.1427030116319656, -0.4064405560493469, -0.3073811829090118, 0.0946693792939186, 0.1193808838725090, 0.2873676121234894, 0.5052538514137268, -0.2495469599962234, 0.5436327457427979, 0.3211853206157684, -0.3335208296775818, -0.1442452818155289, -0.4780761301517487, -0.2866587936878204, -0.6022930741310120, 0.1043301597237587, 0.1461659073829651
0.0744891986250877, -0.5450310111045837, -0.1784263700246811, 0.1597090214490891, 0.2186806946992874, -0.3602122664451599, 0.1290411055088043, 0.4211712479591370, 0.2562862932682037, 0.1436181217432022, 0.0749437659978867, 0.0958065018057823, 0.5150752067565918, 0.0199707411229610, 0.3674803376197815, -0.1611620634794235, -0.4368799626827240, -0.0323270224034786, 0.1399099081754684, -0.2102105766534805, -0.4120137095451355, 0.1529843211174011, -0.0210225041955709, 0.3443597853183746, -0.0807236507534981, 0.0609883368015289, -0.2188709825277328, 0.5817943811416626, -0.0096810609102249, 0.0609523691236973, -0.2098751217126846, -0.3611066639423370, -0.2307771891355515, 0.0688642486929893, 0.0509684011340141, -0.2669287323951721, -0.1038794964551926, -0.0545104369521141, -0.1412611007690430, -0.1781639605760574, 0.0290151163935661, -0.1471097320318222, -0.0663221925497055, 0.1215455234050751, 0.0468527488410473, -0.1060453355312347, -0.3827782869338989, 0.0026281159371138, -0.1041951179504395, 0.0302528832107782, 0.1428359150886536, 0.2840653955936432, -0.3670755326747894, -0.1896885484457016, 0.0716634392738342, 0.0898975282907486, -0.3955120742321014, -0.0997328236699104, 0.3253521323204041, 0.2597433626651764, -0.2907541692256927, -0.6677172183990479, -0.1225611045956612, 0.4457129836082458
0.0890511721372604, 0.1857543885707855, -0.1771910190582275, 0.2277565002441406, 0.2604586482048035, -0.0811809748411179, 0.0814309567213058, 0.0437656939029694, 0.1543931365013123, 0.2631668746471405, -0.1351644098758698, -0.2435255646705627, 0.3156406581401825, 0.1182545945048332, 0.2146646082401276, 0.0359661243855953, -0.0317795723676682, -0.0946697816252708, 0.1958934962749481, -0.1283308267593384, -0.0475631020963192, 0.2982818484306335, 0.1875536143779755, 0.4148565828800201, 0.1882010102272034, -0.0116854626685381, 0.1317571997642517, 0.3366837501525879, -0.2285157591104507, -0.0173625331372023, -0.1339556872844696, -0.3383695781230927, 0.1660208553075790, 0.4985887706279755, 0.1342267841100693, 0.1122356131672859, 0.0236441176384687, -0.2981133162975311, 0.0841977521777153, -0.1462616622447968, 0.0496514923870564, -0.1704503744840622, -0.2128607332706451, 0.0881458446383476, -0.0811986327171326, 0.0136262550950050, -0.2938388586044312, -0.1857375502586365, -0.2074077278375626, -0.1864387542009354, 0.2419416755437851, 0.4611330330371857, -0.5405811071395874, -0.3818471729755402, 0.0942569673061371, 0.1059588417410851, -0.5014312863349915, -0.0788282826542854, 0.3790876269340515, -0.0550126433372498, -0.4865930676460266, -0.1964892148971558, -0.3361150622367859, 0.4113060235977173
-0.0024510980583727, 0.5138220787048340, 0.1328252851963043, 0.2709645628929138, 0.2361761629581451, -0.4136851131916046, 0.0273797921836376, 0.3081411421298981, 0.0208508856594563, 0.1922284364700317, -0.1356366574764252, -0.7230969667434692, -0.0176502540707588, 0.1555847525596619, -0.0519990324974060, -0.0738968327641487, -0.1778157949447632, -0.0286062508821487, -0.0938737168908119, -0.2088235169649124, 0.1220194622874260, 0.1012593358755112, 0.2626184225082397, 0.3776003420352936, -0.0443109460175037, 0.1147745922207832, 0.2140538543462753, 0.1238301172852516, -0.1128052175045013, -0.3115021884441376, -0.0288786105811596, -0.2221179753541946, 0.0961310341954231, 0.4628497362136841, 0.0621844977140427, 0.1324850767850876, 0.1021321043372154, -0.2393108755350113, 0.0710575953125954, -0.2715400755405426, -0.0148377865552902, 0.0058255344629288, -0.3372426331043243, 0.1578384190797806, -0.0635440200567245, 0.0872102528810501, -0.4962895810604095, -0.0680595934391022, 0.0421517938375473, -0.1772568821907043, 0.3263298869132996, 0.2040293961763382, -0.2183057963848114, -0.3149834275245667, 0.1811131983995438, 0.1428498923778534, -0.7025978565216064, 0.0248786136507988, -0.0152374356985092, -0.0317511558532715, -0.4816771745681763, 0.1530917882919312, -0.6376061439514160, 0.4099676012992859
0.2972400486469269, 0.1195905059576035, -0.1675313115119934, 0.2527920901775360, 0.4250459969043732, -0.4199438691139221, 0.1053841337561607, 0.5811223983764648, -0.1945653259754181, 0.0590718463063240, -0.0764874368906021, -0.4758439064025879, -0.1364002078771591, 0.0675466358661652, -0.0453265868127346, 0.1629621684551239, -0.2383447438478470, -0.1151198819279671, -0.2159631848335266, -0.2192175090312958, 0.1635830104351044, 0.0839394107460976, 0.1954497694969177, 0.1381995379924774, 0.0855420455336571, -0.1923317462205887, 0.0973098203539848, -0.0506915934383869, -0.1043355166912079, -0.2305612713098526, 0.1080140918493271, -0.1444503515958786, 0.3164522945880890, 0.3432630598545074, -0.3809813559055328, 0.1837460845708847, 0.2053676843643188, -0.1146918833255768, -0.2240979522466660, -0.1135156005620956, 0.0813856646418571, -0.1550723016262054, -0.0224393382668495, 0.0985199511051178, -0.2310077399015427, 0.1185890212655067, -0.3300458490848541, -0.6668277978897095, 0.0544564835727215, 0.0506263487040997, 0.1020733192563057, 0.2633817791938782, -0.2306842803955078, 0.0923112630844116, 0.1290082782506943, 0.3783407807350159, 0.0387450121343136, 0.2225380539894104, -0.1280221045017242, -0.1485417336225510, 0.1045368984341621, 0.3620117008686066, -0.7108600139617920, 0.4511844813823700
