-0.49232542514801, 0.73970699310303, 0.63555300235748, 0.27115443348885, -0.14678783714771, -1.21292030811310, -1.02711403369904, 0.39667144417763, 0.03276278078556, -0.34888890385628
0.53380489349365, 0.81808966398239, 0.35592657327652, -0.85329401493073, 0.18230226635933, -0.20985600352287, 0.66749274730682, 0.27810969948769, -0.15547095239162, -1.33768105506897
0.49108123779297, -0.67812418937683, -0.16182182729244, -0.26322102546692, -0.04740256071091, 0.37993881106377, -0.35603711009026, 0.03790522366762, 0.10567025095224, 0.30769047141075
0.34655177593231, -0.69546699523926, 0.22169874608517, 0.35536083579063, 0.12128270417452, -0.25499305129051, 0.25989106297493, 0.24264602363110, 0.30364713072777, -0.10104961693287
0.32622855901718, 0.09813603758812, 0.39870858192444, 0.42069846391678, -0.20918275415897, -0.50118380784988, 0.52447021007538, 0.90099412202835, -1.07220160961151, -1.67621994018555
-0.25541868805885, -0.34469741582870, -0.11571590602398, -0.11043009907007, 0.04803850129247, -0.47742325067520, 0.48669558763504, 0.41430047154427, 0.28551423549652, 0.32823637127876
-1.15754044055939, -0.87505930662155, 0.16578261554241, 0.96374297142029, 0.40870845317841, 0.08749715983868, -1.15345942974091, 0.63921505212784, -1.60797107219696, -0.09573265910149
0.10758991539478, 0.66333353519440, 0.26255735754967, -0.31207278370857, -0.41180092096329, 0.02096676826477, 0.38906663656235, -0.95279109477997, -0.07114400714636, -0.02977018244565
-0.42931213974953, 0.62984293699265, 0.63057899475098, -0.51732218265533, -0.32789605855942, 0.35031419992447, 0.05541863292456, 0.63761478662491, -0.63884341716766, -1.58415949344635
0.23833656311035, -0.40429735183716, 0.25747087597847, -0.28308132290840, -0.05614134669304, 0.26764440536499, 0.47597524523735, -0.31548473238945, 0.41418471932411, -0.19158098101616
-0.01169249694794, 1.00153088569641, -1.12012493610382, -0.22923058271408, 0.13326108455658, -0.07502876222134, 0.27363970875740, 0.38264566659927, -1.01258373260498, 0.45174235105515
-0.20778535306454, 0.34284824132919, 0.27409806847572, 0.23387941718102, -0.14415208995342, -0.36946916580200, 0.13315147161484, -0.41927510499954, -0.17851027846336, 0.35035225749016
-0.61575889587402, 0.59312462806702, -1.10531985759735, 0.44578671455383, 0.56347709894180, 0.42800736427307, 0.32666584849358, -0.31270492076874, -0.26421618461609, -0.99227166175842
0.10961124300957, -0.12540400028229, -0.55394268035889, -0.10256835818291, 0.06043524667621, 0.11725178360939, 0.19458071887493, 0.36607390642166, 0.35642096400261, -0.01208523008972
0.43334639072418, -0.49702721834183, 0.09653050452471, -0.50329023599625, 0.21889263391495, 0.13647910952568, 0.21983979642391, -0.52314788103104, 0.11106355488300, -0.54054671525955
-0.42431393265724, -1.00352501869202, 0.61886769533157, -0.38250064849854, 0.17319764196873, 0.02339347265661, 0.50007081031799, -1.08840239048004, 0.32701900601387, 0.32611444592476
0.59608054161072, -0.76298350095749, 0.23077735304832, 0.12600700557232, -0.77160775661469, -0.14981567859650, -0.40436640381813, 0.22464619576931, -0.39830860495567, 0.45780557394028
-0.87949234247208, 0.22019533813000, -0.31922206282616, -0.83410787582397, 0.39501175284386, -0.17043830454350, 0.57697749137878, -0.78724193572998, 0.24517799913883, 0.35224735736847
-0.76451742649078, 1.07935655117035, -0.32133734226227, 0.61978250741959, 1.50022387504578, -1.44975352287292, -0.38185077905655, 0.54060715436935, -0.49915215373039, -1.16154873371124
-0.00694296322763, 0.12685501575470, -0.15742062032223, 0.02319136075675, -0.57971727848053, -0.26871970295906, 0.39946070313454, 0.12852790951729, 0.08741641044617, 0.27376246452332
-0.17750047147274, 0.27628189325333, 1.08219599723816, -0.18672801554203, -1.13060843944550, 0.33703428506851, -0.07160786539316, -0.05403493344784, 0.38092881441116, -1.47632181644440
-1.21465611457825, -0.30256804823875, -0.91286039352417, 0.37262475490570, 0.59352773427963, 0.24767594039440, -1.48585593700409, -0.04694852605462, 0.17056216299534, 0.29089811444283
0.14811669290066, 0.37232628464699, -0.20883625745773, 0.14695432782173, 0.13585054874420, 0.16600917279720, -0.51559913158417, 0.25266000628471, 0.43413314223289, -0.09294148534536
0.12477173656225, -0.44347488880157, 0.42727139592171, -0.85291939973831, 0.11040611565113, 0.30587017536163, -0.52241867780685, -0.22608336806297, 0.24439996480942, 0.43432614207268
0.32239100337029, -0.23393000662327, 0.35656994581223, 0.18218128383160, 0.23276928067207, -0.12402816116810, -0.31863272190094, -0.67328190803528, 0.36205527186394, -0.20721188187599
-0.86265939474106, 0.58304941654205, 0.07984420657158, -0.72689020633698, 0.23988483846188, -0.26230689883232, 0.45588865876198, 0.19254098832607, 0.26725751161575, -0.23293505609035
-1.14460599422455, -0.30653262138367, 0.19063934683800, -0.09893517941236, -0.08076338469982, 0.54399073123932, -0.82198297977448, 0.71439850330353, -0.25815635919571, 0.42902088165283
-0.09226902574301, -0.21609805524349, 0.91768199205399, -1.31794166564941, 0.32669532299042, -0.92027670145035, 0.16273169219494, 0.73605996370316, -0.72627460956573, -0.19764201343060
0.03014758601785, -0.39676702022552, 0.20972424745560, 0.31612253189087, 0.12365900725126, 0.46944355964661, 0.42155933380127, -1.20401179790497, -0.04588508978486, -0.58551323413849
-0.42780229449272, 0.26187118887901, -0.23922351002693, 0.23951041698456, -0.34847578406334, -0.02101799659431, -0.83377295732498, 0.38004329800606, -0.79904693365097, 0.31652933359146
0.16644625365734, 0.43006476759911, 0.70178472995758, -0.07130998373032, -0.76321548223495, -0.10298063606024, -1.34360802173615, 0.47497004270554, -0.69164395332336, 0.28259310126305
-0.36323666572571, 1.28871059417725, -1.00369393825531, -0.47407230734825, -1.89464914798737, 1.15948832035065, 0.53395307064056, -0.19433985650539, -0.36608839035034, -0.08397199213505
0.30761006474495, -0.83521348237991, -0.45401182770729, -0.09162031114101, 0.02342376485467, 0.41768708825111, 0.03325034305453, -0.05968742445111, 0.25646692514420, -0.03768742829561
0.52761620283127, -0.44913631677628, 0.05317247658968, -0.01646667532623, -0.90280479192734, -0.08429960161448, -0.09198077768087, -0.60172808170319, -0.16775944828987, 0.42004999518394
-1.59709727764130, -0.78209412097931, 0.04534110054374, 0.60389155149460, 0.12897360324860, 0.52666538953781, -0.29637855291367, -0.65012717247009, 0.38856580853462, 0.24286328256130
-0.87415176630020, -0.40594217181206, 0.37430766224861, -0.03814257681370, -1.16179633140564, 0.91872340440750, 0.20325295627117, 0.50507289171219, -0.64333975315094, -1.77456784248352
0.23304785788059, -0.05912884324789, -0.37790623307228, 0.33912873268127, -0.63161116838455, 0.08753404021263, -0.22926421463490, -0.51827013492584, 0.38303917646408, 0.28484302759171
-0.51646327972412, 0.34001809358597, -0.49103379249573, 0.43010976910591, -0.25335428118706, -0.11237099766731, -0.45230621099472, -0.01606140285730, 0.31894594430923, 0.10941387712955
0.54159021377563, -1.71281492710114, -0.60433322191238, 0.15913738310337, 0.11205560714006, 0.33818539977074, -0.03985529392958, -0.41031235456467, -0.15715880692005, 0.19763194024563
-0.48994836211205, 0.69444346427917, 0.25044322013855, 0.37232044339180, 0.34792748093605, -1.74723875522614, -1.16401147842407, 0.34048533439636, -0.17118635773659, -0.04040089622140
0.54850435256958, 0.16580347716808, -0.08931287378073, 0.23572705686092, -1.71577823162079, 0.41838538646698, 0.82056993246078, -0.37392207980156, 0.19135871529579, -0.39289706945419
-0.47912749648094, -0.90482729673386, 0.28027299046516, 0.35906904935837, -0.62138783931732, 0.43810340762138, -1.36226379871368, -0.58802741765976, 0.22870741784573, 0.54780608415604
-0.54000014066696, 0.18746776878834, -0.11336264759302, 0.35626241564751, -0.28879722952843, -0.04828766733408, 0.36432430148125, -0.66681641340256, 0.38411086797714, 0.18604865670204
0.75416243076324, -0.83483529090881, 0.52700418233871, 0.33773311972618, -1.65350520610809, 0.17557008564472, -0.29288622736931, -0.26922282576561, -0.44875553250313, -0.31183272600174
-0.09791976213455, -0.23544737696648, 0.43564093112946, -0.23726776242256, 0.37418225407600, -0.51368790864944, 0.16915965080261, -0.56223815679550, 0.45586341619492, -0.18199531733990
0.03140962123871, -0.86444723606110, 0.23292219638824, 0.42476755380630, -0.14197076857090, -0.52505391836166, 0.19630488753319, 0.46576792001724, -0.14990887045860, 0.33410570025444
0.48543733358383, -0.24839317798615, 0.63501715660095, 0.08864428848028, -0.89467287063599, -1.34309971332550, -0.89473879337311, 0.37249571084976, -0.01767367497087, 0.26198843121529
0.04378820583224, -0.10322339087725, -0.19250628352165, -0.05571011081338, 0.13230481743813, 0.17276786267757, -0.11560924351215, -0.04115341976285, 0.25693067908287, 0.02808568254113
0.25333666801453, 0.07934852689505, -0.36937257647514, -0.58232229948044, -0.00854798499495, -0.20546872913837, 0.15588857233524, -0.42040500044823, 0.36944910883904, 0.33424618840218
-0.01015215553343, 0.73028099536896, 0.56746107339859, 0.49383294582367, -0.57228446006775, 0.39432248473167, 0.39409637451172, 1.19936740398407, -1.19222545623779, -1.27103805541992
0.49663060903549, 0.77028959989548, 0.41921955347061, -0.36124500632286, 0.44984611868858, -1.02181231975555, 0.08869609236717, 1.28851628303528, -1.11272573471069, -0.18073803186417
-0.95511090755463, 0.60439717769623, 0.48426795005798, 0.08809065073729, 0.10981635749340, 0.06455413997173, -1.05910420417786, 0.47687181830406, -0.00641070399433, -0.81895589828491
-1.41089451313019, 0.37689960002899, -0.14333219826221, 0.32595500349998, 0.57529473304749, -0.01906922459602, -0.68482226133347, -0.65212595462799, 0.54765903949738, -0.42542272806168
0.52026265859604, 0.23145274817944, -0.81551325321198, -0.54249423742294, 0.41592559218407, -0.63723552227020, 0.51276820898056, 0.46244972944260, -0.08851698040962, 0.43580943346024
0.05703141540289, -0.58597034215927, -0.80589497089386, 0.31122493743896, 0.14542560279369, 0.38239863514900, -0.15317937731743, -0.01265689358115, 0.11104358732700, -0.04378010705113
0.30241534113884, 0.14438121020794, 0.34418424963951, 0.37055858969688, 0.33271989226341, -1.45860826969147, -0.19246517121792, 0.06182930991054, -0.44330945611000, 0.51300054788589
-0.50305169820786, -0.96630299091339, -0.99476474523544, 0.05853268504143, 0.53712666034698, 0.18361949920654, -0.84386557340622, 0.03547602891922, 0.35006353259087, 0.23276464641094
0.28605142235756, -0.79612070322037, 0.91929048299789, -0.31214112043381, 0.14125306904316, 0.37288117408752, 0.07743596285582, -0.63460564613342, -2.03667283058167, 0.31286957859993
-1.33157038688660, 0.94828486442566, -0.32691469788551, 1.00283670425415, -0.30739107728004, 0.93889355659485, -2.38286542892456, -0.90083336830139, -1.71340799331665, 0.75294321775436
-0.00418062601238, -0.53278499841690, -0.12004240602255, -1.01297628879547, 0.35818332433701, 0.25706127285957, 0.47704917192459, -0.92346662282944, 0.40179249644279, -0.12309262901545
-0.41422078013420, -0.48374128341675, -0.57848638296127, -1.33488023281097, 0.59785515069962, 0.78709429502487, -0.36262807250023, 0.12879629433155, 0.63575839996338, 0.15668755769730
-0.18620266020298, -0.21574401855469, 0.29549106955528, -0.22550097107887, -0.94513189792633, 0.13021789491177, -0.79512059688568, 0.34344133734703, 0.33510050177574, 0.38452374935150
0.37389060854912, -0.37853848934174, -0.34065219759941, 0.83821761608124, 0.08699090778828, 0.29932558536530, 0.03138079121709, 0.61607831716537, -0.51786333322525, -1.10460853576660
0.34841713309288, 0.10165924578905, -0.27526634931564, -0.87548428773880, 0.39025080204010, 0.54288023710251, -1.12535154819489, 0.49765723943710, -0.97775614261627, 0.63363492488861
